svm_type c_svc
kernel_type rbf
gamma 0.015625
nr_class 2
total_sv 133
rho 10.096
label 1 -1
probA -2.24409
probB 0.140434
nr_sv 67 66
SV
59.7141 1:-0.805338 2:-0.821422 3:-0.788965 4:-0.853205 5:-0.865189 6:-0.857498 7:-0.291196 8:-0.487588 9:0.257787 10:-0.629335 11:-0.0070679 12:-0.50847 13:-0.791842 14:-0.91333 15:-0.824523 16:-0.785121 17:-0.91731 18:-0.919818 19:-0.690577 20:-0.905185 21:-0.926211 22:-0.44674 23:-0.578297 24:0.737302 25:-0.536322 26:-0.0674537 27:0.076061 28:-0.871103 29:-0.796239 30:-0.818004 
9.168042543749166 1:-0.638618 2:-0.843557 3:-0.719251 4:-0.753577 5:-0.876987 6:-0.84184 7:-0.561036 8:0.522025 9:-0.0595349 10:-0.202132 11:-0.267265 12:-0.787798 13:-0.64968 14:-0.827306 15:-0.737148 16:-0.58879 17:-0.812756 18:-0.762902 19:-0.642899 20:-0.787812 21:-0.888106 22:0.260628 23:0.192359 24:0.242454 25:-0.806568 26:-0.665057 27:-0.789882 28:-0.749085 29:-0.745804 30:-0.687989 
59.7141 1:-0.78914 2:-0.821811 3:-0.852403 4:-0.835628 5:-0.903419 6:-0.907105 7:-0.27524 8:0.165417 9:-0.311463 10:-0.727126 11:-0.814753 12:-0.347817 13:-0.801218 14:-0.892816 15:-0.850291 16:-0.427503 17:-0.720978 18:-0.438601 19:-0.563778 20:-0.675044 21:-0.583018 22:0.679712 23:0.336706 24:-0.246557 25:-0.33402 26:-0.705694 27:-0.763034 28:-0.648846 29:-0.598718 30:-0.523907 
34.3874661758286 1:-0.787089 2:-0.60427 3:-0.839389 4:-0.819096 5:-0.776268 6:-0.940855 7:-0.43468 8:0.331679 9:-0.125317 10:-0.524486 11:-0.671155 12:-0.743561 13:-0.731812 14:-0.869644 15:-0.794385 16:-0.0841275 17:-0.757842 18:-0.388471 19:0.326931 20:-0.740517 21:-0.629608 22:-0.607307 23:-0.0373228 24:-0.0544299 25:0.0197642 26:-0.702743 27:-0.932727 28:-0.43544 29:-0.397149 30:-0.251062 
22.03002982947593 1:-0.836817 2:-0.473334 3:-0.78057 4:-0.884912 5:-0.764 6:-0.877284 7:-0.329091 8:0.171994 9:0.231628 10:-0.483815 11:-0.817997 12:-0.710564 13:-0.637684 14:-0.899808 15:-0.75267 16:-0.560406 17:-0.684368 18:-0.380958 19:-0.501249 20:-0.599722 21:-0.515421 22:-0.202082 23:-0.449158 24:-0.316067 25:-0.824856 26:-0.547361 27:-0.669906 28:-0.685337 29:-0.587923 30:-0.478175 
59.7141 1:-0.848616 2:-0.870225 3:-0.840868 4:-0.86523 5:-0.931871 6:-0.906218 7:-0.821686 8:0.0968428 9:0.24129 10:0.578943 11:-0.890839 12:-0.837943 13:-0.843687 14:-0.897873 15:-0.85783 16:-0.920894 17:-0.699431 18:0.0195837 19:-0.923466 20:-0.897943 21:-0.905751 22:-0.219977 23:-0.322941 24:-0.165288 25:-0.79253 26:-0.569956 27:-0.70362 28:-0.478236 29:-0.764359 30:-0.563144 
59.7141 1:-0.743515 2:-0.910728 3:-0.80763 4:-0.765193 5:-0.968348 6:-0.854614 7:0.344015 8:-0.209139 9:-0.0703673 10:-0.599709 11:-0.521872 12:-0.612389 13:-0.755285 14:-0.877975 15:-0.795159 16:-0.866277 17:-0.81371 18:-0.788767 19:-0.8311 20:-0.756084 21:-0.798455 22:-0.0739149 23:0.00778245 24:0.10286 25:-0.575629 26:-0.453309 27:-0.503763 28:-0.81729 29:-0.761491 30:-0.7488 
59.7141 1:-0.752096 2:-0.768107 3:-0.790784 4:-0.81441 5:-0.86444 6:-0.877967 7:-0.0668596 8:0.0155663 9:0.154597 10:-0.719759 11:-0.750707 12:-0.60413 13:-0.763924 14:-0.881701 15:-0.808737 16:-0.869659 17:-0.706486 18:-0.27762 19:-0.855028 20:-0.719798 21:-0.5538 22:0.244936 23:0.321142 24:0.20964 25:-0.799663 26:-0.607594 27:-0.870066 28:-0.631906 29:-0.600067 30:-0.545783 
59.7141 1:-0.83632 2:-0.910577 3:-0.863322 4:-0.872898 5:-0.937263 6:-0.913062 7:0.295092 8:0.539364 9:0.234875 10:-0.341588 11:-0.319346 12:-0.802314 13:-0.848717 14:-0.944479 15:-0.874264 16:-0.696075 17:-0.643563 18:-0.509299 19:-0.575653 20:-0.66916 21:-0.649317 22:0.63862 23:0.0410396 24:0.0735146 25:-0.181578 26:-0.864801 27:-0.893088 28:-0.646808 29:-0.687611 30:-0.584233 
59.7141 1:-0.711674 2:-0.843692 3:-0.798247 4:-0.760636 5:-0.926819 6:-0.888986 7:0.4335 8:-0.250658 9:-0.139035 10:-0.358499 11:-0.676176 12:-0.812153 13:-0.723229 14:-0.884269 15:-0.811401 16:-0.738703 17:-0.519369 18:-0.434044 19:-0.724172 20:-0.539228 21:-0.599217 22:-0.195915 23:0.159842 24:0.495062 25:-0.756392 26:-0.873153 27:-0.446034 28:-0.522369 29:-0.732141 30:-0.513971 
59.7141 1:-0.918337 2:-0.631362 3:-0.763519 4:-0.938638 5:-0.842163 6:-0.850254 7:0.191287 8:-0.415698 9:-0.189646 10:-0.78508 11:-0.237974 12:-0.608794 13:-0.751287 14:-0.89823 15:-0.822515 16:-0.696485 17:-0.688626 18:-0.121444 19:-0.608811 20:-0.700595 21:-0.236716 22:-0.313665 23:-0.0248767 24:-0.268257 25:-0.698888 26:-0.885857 27:-0.603574 28:-0.551154 29:-0.513705 30:-0.436275 
59.7141 1:-0.855257 2:-0.792089 3:-0.866426 4:-0.861263 5:-0.859146 6:-0.924296 7:0.464736 8:-0.393867 9:0.331022 10:-0.482207 11:-0.548354 12:-0.639508 13:-0.86683 14:-0.891213 15:-0.840243 16:-0.851727 17:-0.766041 18:-0.78926 19:-0.842652 20:-0.733779 21:-0.879531 22:-0.0427328 23:-0.386542 24:-0.0117063 25:-0.880597 26:-0.659915 27:-0.839038 28:-0.769527 29:-0.7986 30:-0.724585 
59.7141 1:-0.906417 2:-0.774664 3:-0.876287 4:-0.912937 5:-0.837555 6:-0.92534 7:-0.404218 8:0.508702 9:-0.198787 10:-0.234825 11:-0.0487175 12:-0.756176 13:-0.854303 14:-0.927134 15:-0.865175 16:-0.871196 17:-0.762354 18:-0.790368 19:-0.866207 20:-0.712322 21:-0.818214 22:0.22561 23:-0.0886226 24:0.39613 25:-0.804064 26:-0.572942 27:-0.659711 28:-0.765833 29:-0.811757 30:-0.718739 
26.76012578874528 1:-0.912509 2:-0.854875 3:-0.891652 4:-0.921217 5:-0.887672 6:-0.929635 7:0.553922 8:-0.737888 9:0.291099 10:-0.174647 11:0.243796 12:-0.65401 13:-0.894416 14:-0.919925 15:-0.892098 16:-0.880623 17:-0.782757 18:-0.286242 19:-0.867417 20:-0.776637 21:-0.23655 22:0.340044 23:0.435519 24:-0.409001 25:-0.732568 26:-0.431827 27:-0.061558 28:-0.636364 29:-0.52585 30:-0.503826 
59.7141 1:-0.775458 2:-0.828257 3:-0.743388 4:-0.819683 5:-0.900216 6:-0.812074 7:-0.0134043 8:-0.330376 9:0.462367 10:-0.6912 11:-0.538514 12:-0.171377 13:-0.746315 14:-0.862278 15:-0.793543 16:-0.666154 17:-0.760003 18:-0.669541 19:-0.553711 20:-0.740773 21:-0.67105 22:0.332185 23:0.261244 24:0.68178 25:-0.517562 26:-0.71642 27:-0.0722742 28:-0.763477 29:-0.624863 30:-0.635153 
59.7141 1:-0.836547 2:-0.747324 3:-0.886887 4:-0.873746 5:-0.847188 6:-0.931432 7:-0.0613712 8:-0.265733 9:0.106923 10:-0.582919 11:-0.683094 12:-0.866187 13:-0.834649 14:-0.934803 15:-0.861253 16:-0.709396 17:-0.68227 18:-0.761424 19:-0.677405 20:-0.784191 21:-0.834902 22:0.32576 23:-0.322515 24:-0.292784 25:-0.711903 26:-0.712023 27:-0.619567 28:-0.685591 29:-0.820865 30:-0.69541 
59.7141 1:-0.851897 2:-0.851415 3:-0.820078 4:-0.876892 5:-0.92246 6:-0.874977 7:0.248146 8:0.281494 9:-0.3165 10:-0.568597 11:-0.759806 12:-0.608369 13:-0.822921 14:-0.896307 15:-0.853449 16:-0.579158 17:-0.758096 18:-0.631974 19:-0.444255 20:-0.771533 21:-0.695166 22:0.380969 23:0.162221 24:0.217458 25:-0.574956 26:-0.872821 27:-0.711039 28:-0.743098 29:-0.72978 30:-0.619865 
59.7141 1:-0.690834 2:-0.859918 3:-0.659611 4:-0.71409 5:-0.941837 6:-0.803812 7:-0.481364 8:-0.0724478 9:-0.020256 10:-0.191531 11:-0.927867 12:-0.786868 13:-0.66263 14:-0.837975 15:-0.747326 16:-0.683267 17:-0.494645 18:-0.404853 19:-0.681695 20:-0.535899 21:-0.556582 22:-0.197759 23:0.105283 24:-0.0430138 25:-0.60838 26:-0.932219 27:-0.766365 28:-0.497596 29:-0.707852 30:-0.487044 
59.7141 1:-0.688309 2:-0.785779 3:-0.807737 4:-0.775413 5:-0.873037 6:-0.885625 7:0.394453 8:-0.526905 9:-0.321285 10:-0.554411 11:-0.0981063 12:-0.437749 13:-0.699706 14:-0.903236 15:-0.802397 16:-0.804078 17:-0.838116 18:-0.659194 19:-0.764921 20:-0.850673 21:-0.727074 22:0.0843425 23:0.0519826 24:0.138298 25:-0.684994 26:-0.655415 27:-0.722631 28:-0.829199 29:-0.775491 30:-0.763021 
59.7141 1:-0.716202 2:-0.841858 3:-0.725696 4:-0.734243 5:-0.902261 6:-0.83995 7:-0.323394 8:0.310847 9:0.132725 10:-0.315005 11:-0.42455 12:-0.800313 13:-0.727788 14:-0.863876 15:-0.771674 16:-0.346552 17:-0.66619 18:-0.393521 19:-0.308797 20:-0.671733 21:-0.450176 22:0.00593372 23:0.0927375 24:0.422446 25:-0.901477 26:-0.800435 27:-0.701082 28:-0.598535 29:-0.641393 30:-0.448005 
59.7141 1:-0.709985 2:-0.863427 3:-0.734175 4:-0.783754 5:-0.919542 6:-0.801653 7:0.148494 8:0.0395991 9:0.0736451 10:-0.629065 11:-0.600867 12:-0.574335 13:-0.721529 14:-0.866177 15:-0.773438 16:-0.730095 17:-0.885785 18:-0.762902 19:-0.553135 20:-0.891669 21:-0.860993 22:-0.583056 23:-0.0938085 24:-0.0707428 25:-0.272332 26:-0.667341 27:-0.707426 28:-0.836905 29:-0.71696 30:-0.731738 
18.8627674776673 1:-0.605229 2:-0.90949 3:-0.840733 4:-0.831324 5:-0.941445 6:-0.900147 7:0.457325 8:0.50136 9:-0.35796 10:-0.483757 11:-0.320714 12:-0.48578 13:-0.616066 14:-0.879056 15:-0.790112 16:-0.493801 17:-0.827248 18:-0.302747 19:-0.376012 20:-0.803485 21:-0.38512 22:0.375002 23:0.28031 24:0.492915 25:-0.660618 26:-0.685502 27:-0.647959 28:-0.644897 29:-0.591802 30:-0.49737 
59.7141 1:-0.710822 2:-0.879944 3:-0.868861 4:-0.772253 5:-0.928949 6:-0.903557 7:0.286197 8:0.0855869 9:0.456144 10:-0.696819 11:-0.652622 12:-0.24601 13:-0.722371 14:-0.877494 15:-0.811373 16:-0.641049 17:-0.673881 18:-0.717576 19:-0.585887 20:-0.778026 21:-0.771402 22:-0.214745 23:-0.0146716 24:-0.139836 25:-0.756305 26:-0.791358 27:-0.730464 28:-0.677185 29:-0.726406 30:-0.633047 
59.7141 1:-0.71739 2:-0.873798 3:-0.753567 4:-0.764851 5:-0.922317 6:-0.861489 7:-0.236834 8:-0.502614 9:-0.157593 10:-0.422486 11:-0.0346188 12:-0.825822 13:-0.728983 14:-0.877057 15:-0.798882 16:-0.636541 17:-0.820447 18:-0.529991 19:-0.579614 20:-0.83068 21:-0.558662 22:0.0861994 23:0.0120815 24:0.526287 25:-0.797943 26:-0.872798 27:-0.553746 28:-0.762395 29:-0.686261 30:-0.621715 
59.7141 1:-0.754067 2:-0.861133 3:-0.818845 4:-0.819628 5:-0.939759 6:-0.892213 7:0.169203 8:-0.0865727 9:0.00409363 10:-0.836271 11:-0.666876 12:-0.649401 13:-0.765908 14:-0.899855 15:-0.832021 16:-0.733374 17:-0.73299 18:-0.383422 19:-0.696144 20:-0.74071 21:-0.474482 22:0.244909 23:0.340846 24:0.461215 25:-0.807909 26:-0.621381 27:-0.622675 28:-0.68661 29:-0.747491 30:-0.562956 
59.7141 1:-0.712204 2:-0.745644 3:-0.881801 4:-0.787145 5:-0.85487 6:-0.928756 7:0.153782 8:0.287748 9:-0.417578 10:-0.751419 11:-0.703128 12:-0.43911 13:-0.723763 14:-0.876821 15:-0.821711 16:-0.818219 17:-0.828709 18:-0.667324 19:-0.873267 20:-0.804771 21:-0.768397 22:0.187388 23:0.242183 24:0.214256 25:-0.90259 26:-0.604435 27:-0.620653 28:-0.83232 29:-0.836721 30:-0.754082 
18.84026073604042 1:-0.834767 2:-0.859252 3:-0.904649 4:-0.853104 5:-0.907367 6:-0.910147 7:0.300126 8:0.314999 9:-0.337524 10:-0.360551 11:-0.57822 12:-0.0738694 13:-0.847153 14:-0.880526 15:-0.861447 16:-0.683984 17:-0.842756 18:-0.394999 19:-0.550655 20:-0.833681 21:-0.499646 22:0.48885 23:-0.293817 24:0.247014 25:-0.389568 26:-0.495804 27:-0.752365 28:-0.692597 29:-0.608839 30:-0.603474 
59.7141 1:-0.593174 2:-0.664642 3:-0.670903 4:-0.697719 5:-0.808613 6:-0.803114 7:-0.111526 8:-0.400589 9:-0.0864317 10:-0.792719 11:-0.534251 12:-0.775556 13:-0.603929 14:-0.835821 15:-0.712359 16:-0.19336 17:-0.375346 18:0.0445868 19:-0.45925 20:-0.496843 21:-0.261049 22:-0.0986574 23:0.00713712 24:0.312084 25:-0.747787 26:-0.908358 27:-0.80666 28:-0.378061 29:-0.480307 30:-0.154741 
23.93775281397496 1:-0.887416 2:-0.81529 3:-0.706475 4:-0.890262 5:-0.909655 6:-0.800676 7:-0.668712 8:0.133373 9:0.067863 10:0.228503 11:-0.846422 12:-0.514765 13:-0.709442 14:-0.886421 15:-0.804329 16:-0.715955 17:-0.933835 18:-0.834339 19:-0.674427 20:-0.89483 21:-0.89101 22:-0.202003 23:0.702873 24:0.247684 25:-0.533218 26:0.438865 27:-0.824696 28:-0.828117 29:-0.874505 30:-0.806533 
38.79976925944609 1:-0.920356 2:-0.828793 3:-0.92271 4:-0.898048 5:-0.83921 6:-0.960488 7:-0.733113 8:0.888988 9:0.188163 10:0.426177 11:0.713079 12:-0.694624 13:-0.893216 14:-0.869169 15:-0.869298 16:-0.913208 17:-0.910319 18:-0.879665 19:-0.892563 20:-0.896956 21:-0.917735 22:0.0350717 23:0.349708 24:0.294015 25:-0.761332 26:-0.698457 27:-0.894918 28:-0.91409 29:-0.916842 30:-0.890513 
59.7141 1:-0.769421 2:-0.697776 3:-0.87257 4:-0.803799 5:-0.82024 6:-0.920722 7:-0.129604 8:0.299209 9:0.242483 10:-0.516754 11:-0.795913 12:-0.743231 13:-0.781366 14:-0.890489 15:-0.803268 16:-0.808997 17:-0.913242 18:-0.733834 19:-0.79041 20:-0.908566 21:-0.838822 22:0.0828822 23:0.36846 24:0.30967 25:-0.86717 26:-0.383794 27:-0.875936 28:-0.867792 29:-0.885469 30:-0.841066 
59.7141 1:-0.808909 2:-0.797024 3:-0.837599 4:-0.852716 5:-0.818151 6:-0.936271 7:0.0387104 8:0.877719 9:0.248507 10:-0.760126 11:0.68679 12:-0.638606 13:-0.821121 14:-0.890143 15:-0.823669 16:-0.912594 17:-0.961039 18:-0.764503 19:-0.86724 20:-0.960589 21:-0.92655 22:-0.545323 23:0.0971944 24:0.352968 25:-0.301762 26:-0.861272 27:-0.73556 28:-0.883649 29:-0.946698 30:-0.886968 
59.7141 1:-0.83259 2:-0.836411 3:-0.870703 4:-0.842884 5:-0.907557 6:-0.944242 7:-0.501964 8:0.277791 9:-0.117116 10:-0.0116155 11:-0.744783 12:-0.690528 13:-0.844962 14:-0.91651 15:-0.868771 16:-0.923558 17:-0.969746 18:-0.819559 19:-0.87692 20:-0.969647 21:-0.868442 22:0.536805 23:-0.266871 24:0.0546765 25:-0.114795 26:-0.769268 27:-0.766654 28:-0.912116 29:-0.90436 30:-0.901477 
59.7141 1:-0.906378 2:-0.765981 3:-0.900935 4:-0.915537 5:-0.881165 6:-0.926961 7:0.466183 8:0.345132 9:0.476497 10:-0.388981 11:-0.612638 12:-0.436253 13:-0.848062 14:-0.903108 15:-0.885231 16:-0.844656 17:-0.878158 18:-0.724104 19:-0.806524 20:-0.856077 21:-0.888407 22:0.590478 23:-0.663715 24:0.460203 25:-0.162868 26:-0.148492 27:-0.684674 28:-0.862761 29:-0.815468 30:-0.812732 
59.7141 1:-0.877662 2:-0.648752 3:-0.875197 4:-0.903422 5:-0.809141 6:-0.897938 7:0.505384 8:0.0457454 9:0.390199 10:-0.129799 11:-0.794084 12:-0.303073 13:-0.763788 14:-0.921482 15:-0.834669 16:-0.848857 17:-0.819049 18:-0.807489 19:-0.882542 20:-0.792312 21:-0.951677 22:-0.0609606 23:-0.322661 24:0.159336 25:-0.839817 26:-0.483718 27:-0.83718 28:-0.82264 29:-0.841107 30:-0.793287 
9.243660700193976 1:-0.81335 2:-0.878029 3:-0.814449 4:-0.808244 5:-0.904814 6:-0.855276 7:0.827231 8:-0.777641 9:-0.449001 10:0.54648 11:0.475979 12:-0.182549 13:-0.817297 14:-0.824468 15:-0.81726 16:-0.915668 17:-0.967649 18:-0.962557 19:-0.868197 20:-0.963636 21:-0.966386 22:-0.495704 23:0.102869 24:0.438235 25:-0.283128 26:-0.621142 27:-0.536409 28:-0.952237 29:-0.935903 30:-0.932786 
57.81025424850144 1:-0.798842 2:-0.720427 3:-0.82039 4:-0.79568 5:-0.833509 6:-0.871821 7:-0.618592 8:-0.670033 9:-0.193485 10:-0.10958 11:0.116429 12:-0.611916 13:-0.810985 14:-0.817692 15:-0.795058 16:-0.843119 17:-0.809388 18:-0.69984 19:-0.819695 20:-0.814578 21:-0.773759 22:0.537042 23:-0.154791 24:0.137021 25:-0.192529 26:-0.890885 27:-0.83312 28:-0.81296 29:-0.779877 30:-0.771217 
59.7141 1:-0.753454 2:-0.808321 3:-0.857435 4:-0.758433 5:-0.914648 6:-0.91062 7:-0.50452 8:-0.0447809 9:0.234831 10:-0.128712 11:-0.789893 12:-0.741704 13:-0.765291 14:-0.879012 15:-0.815163 16:-0.868429 17:-0.649347 18:-0.807242 19:-0.863101 20:-0.65261 21:-0.859134 22:0.0699435 23:-0.212511 24:-0.167762 25:-0.784591 26:-0.841035 27:-0.708403 28:-0.652603 29:-0.788311 30:-0.65869 
59.7141 1:-0.741725 2:-0.805241 3:-0.675965 4:-0.827518 5:-0.907168 6:-0.746143 7:-0.10161 8:0.0548251 9:-0.695201 10:-0.930592 11:-0.837567 12:0.308923 13:-0.678965 14:-0.816042 15:-0.749946 16:-0.873348 17:-0.888327 18:-0.851706 19:-0.869776 20:-0.870482 21:-0.885342 22:0.208039 23:-0.260942 24:0.192568 25:-0.827614 26:-0.492103 27:-0.806209 28:-0.892055 29:-0.873998 30:-0.851581 
17.47003707468875 1:-0.705187 2:-0.856734 3:-0.77387 4:-0.708029 5:-0.921944 6:-0.845355 7:-1.15048e-05 8:-0.344434 9:-0.291089 10:-0.327944 11:-0.569608 12:-0.564131 13:-0.716698 14:-0.860154 15:-0.764402 16:-0.848755 17:-0.952013 18:-0.7815 19:-0.777201 20:-0.941693 21:-0.776112 22:0.190768 23:-0.459754 24:0.568682 25:-0.335649 26:-0.582854 27:-0.488498 28:-0.892438 29:-0.809901 30:-0.814307 
59.7141 1:-0.819746 2:-0.849364 3:-0.787889 4:-0.85687 5:-0.90566 6:-0.869135 7:-0.331511 8:0.300202 9:0.3111 10:-0.740904 11:-0.261862 12:-0.697373 13:-0.790767 14:-0.895598 15:-0.834425 16:-0.803054 17:-0.91712 18:-0.7815 19:-0.753969 20:-0.904589 21:-0.792638 22:-0.0425434 23:0.405486 24:-0.605852 25:-0.622314 26:-0.351208 27:0.223886 28:-0.882248 29:-0.791178 30:-0.81283 
59.7141 1:-0.719586 2:-0.903331 3:-0.929639 4:-0.736338 5:-0.957383 6:-0.951039 7:-0.443884 8:-0.182169 9:0.136448 10:-0.482941 11:-0.886337 12:-0.811614 13:-0.731195 14:-0.916567 15:-0.821608 16:-0.948253 17:-0.894302 18:-0.774726 19:-0.929414 20:-0.869817 21:-0.879746 22:-0.223216 23:-0.539359 24:0.437995 25:-0.65632 26:-0.495449 27:-0.546451 28:-0.888935 29:-0.857806 30:-0.844393 
59.7141 1:-0.774173 2:-0.681972 3:-0.734012 4:-0.830685 5:-0.83865 6:-0.836639 7:0.00479939 8:-0.406988 9:0.328095 10:-0.780266 11:-0.324908 12:-0.632328 13:-0.736949 14:-0.84454 15:-0.788083 16:-0.725074 17:-0.612419 18:-0.673112 19:-0.685521 20:-0.603461 21:-0.853896 22:0.265294 23:0.190592 24:-0.168835 25:-0.776932 26:-0.607707 27:-0.829068 28:-0.615603 29:-0.703129 30:-0.588019 
59.7141 1:-0.812242 2:-0.858482 3:-0.8948 4:-0.823467 5:-0.922352 6:-0.930892 7:-0.0490754 8:0.273207 9:0.36291 10:-0.311957 11:-0.709456 12:-0.460399 13:-0.824476 14:-0.9137 15:-0.861124 16:-0.888616 17:-0.777672 18:-0.893337 19:-0.878973 20:-0.742098 21:-0.913885 22:0.124385 23:0.5812 24:0.0137594 25:-0.812075 26:-0.294724 27:-0.801787 28:-0.781181 29:-0.839082 30:-0.768953 
59.7141 1:-0.844636 2:-0.870096 3:-0.878216 4:-0.850484 5:-0.91448 6:-0.923423 7:-0.443151 8:-0.336964 9:0.297983 10:-0.552743 11:-0.18398 12:-0.653997 13:-0.857088 14:-0.90287 15:-0.866911 16:-0.908495 17:-0.838243 18:-0.927331 19:-0.947522 20:-0.848073 21:-0.973825 22:0.121007 23:0.301492 24:-0.03961 25:-0.85937 26:-0.505985 27:-0.757708 28:-0.841872 29:-0.856625 30:-0.837447 
59.7141 1:-0.871543 2:-0.809739 3:-0.885269 4:-0.867097 5:-0.910485 6:-0.935904 7:-0.560369 8:-0.0862828 9:0.0541313 10:-0.0991325 11:-0.684301 12:-0.866181 13:-0.879518 14:-0.925174 15:-0.877138 16:-0.884824 17:-0.839133 18:-0.934105 19:-0.837771 20:-0.781945 21:-0.964874 22:-0.42889 23:0.54973 24:0.264786 25:-0.430427 26:-0.239276 27:-0.728754 28:-0.842764 29:-0.796745 30:-0.790395 
59.7141 1:-0.907686 2:-0.896501 3:-0.826822 4:-0.902704 5:-0.930824 6:-0.900458 7:-0.632845 8:0.420616 9:0.0221515 10:0.0251302 11:-0.365103 12:-0.838927 13:-0.829657 14:-0.923044 15:-0.886268 16:-0.976227 17:-0.854705 18:-0.962187 19:-0.965129 20:-0.800388 21:-0.971703 22:-0.393407 23:0.482521 24:0.179894 25:-0.390225 26:-0.488499 27:-0.887286 28:-0.858367 29:-0.857974 30:-0.820709 
59.7141 1:-0.797892 2:-0.658798 3:-0.694292 4:-0.844111 5:-0.806074 6:-0.841549 7:0.0540569 8:0.214314 9:0.16708 10:-0.688685 11:-0.708378 12:-0.72169 13:-0.697273 14:-0.884819 15:-0.779701 16:-0.649452 17:-0.866336 18:-0.796896 19:-0.573585 20:-0.858132 21:-0.835615 22:-0.225415 23:0.0274126 24:-0.214435 25:-0.547422 26:-0.732327 27:-0.835227 28:-0.786786 29:-0.789829 30:-0.734716 
31.13179864722493 1:-0.770654 2:-0.748994 3:-0.86628 4:-0.754886 5:-0.798388 6:-0.879087 7:-0.291329 8:-0.745194 9:0.810578 10:0.0408777 11:0.385201 12:0.467262 13:-0.782607 14:-0.786754 15:-0.768478 16:-0.908597 17:-0.719007 18:-0.888287 19:-0.90592 20:-0.739851 21:-0.935513 22:0.247784 23:0.196751 24:-0.421423 25:-0.868015 26:-0.765236 27:-0.347977 28:-0.722401 29:-0.831323 30:-0.728551 
26.50225949601205 1:-0.796278 2:-0.77472 3:-0.740657 4:-0.777669 5:-0.856952 6:-0.762724 7:0.123989 8:-0.355643 9:0.814448 10:-0.118791 11:-0.191995 12:0.501873 13:-0.743586 14:-0.759024 15:-0.730572 16:-0.880213 17:-0.677313 18:-0.851213 19:-0.877752 20:-0.682806 21:-0.884406 22:0.219522 23:0.0332998 24:0.205233 25:-0.849358 26:-0.719027 27:-0.803399 28:-0.680624 29:-0.790841 30:-0.710823 
59.7141 1:-0.827177 2:-0.752294 3:-0.801062 4:-0.840098 5:-0.845432 6:-0.889207 7:0.467305 8:0.02159 9:-0.0610337 10:0.0107566 11:-0.63931 12:-0.825885 13:-0.803925 14:-0.893211 15:-0.829037 16:-0.836151 17:-0.851527 18:-0.823254 19:-0.771462 20:-0.821644 21:-0.91176 22:0.599124 23:-0.472144 24:-0.153717 25:-0.438025 26:-0.565569 27:-0.841932 28:-0.855182 29:-0.805853 30:-0.78074 
59.7141 1:-0.911913 2:-0.872516 3:-0.895163 4:-0.913951 5:-0.921367 6:-0.929035 7:-0.644077 8:0.124562 9:0.239624 10:0.140235 11:-0.673994 12:-0.669062 13:-0.897923 14:-0.943082 15:-0.907583 16:-0.982888 17:-0.870404 18:-0.987191 19:-0.980247 20:-0.837768 21:-0.986789 22:-0.0437875 23:0.53733 24:-0.152943 25:-0.86369 26:-0.218511 27:-0.762543 28:-0.874096 29:-0.889348 30:-0.864448 
59.7141 1:-0.796448 2:-0.7362 3:-0.779939 4:-0.83494 5:-0.835141 6:-0.884198 7:-0.399661 8:0.273797 9:-0.00394746 10:-0.512887 11:-0.673681 12:-0.939485 13:-0.782825 14:-0.877182 15:-0.812927 16:-0.538375 17:-0.641783 18:-0.535164 19:-0.490998 20:-0.621324 21:-0.626517 22:-0.150057 23:0.25184 24:0.588115 25:-0.779277 26:-0.579068 27:-0.284767 28:-0.645025 29:-0.50291 30:-0.533802 
59.7141 1:-0.864659 2:-0.754121 3:-0.860964 4:-0.877657 5:-0.826998 6:-0.928554 7:0.362426 8:0.411627 9:-0.0215208 10:-0.327896 11:-0.260521 12:-0.843892 13:-0.839536 14:-0.893612 15:-0.849273 16:-0.489599 17:-0.791083 18:-0.584924 19:-0.490858 20:-0.844587 21:-0.725115 22:0.0614156 23:-0.0402661 24:-0.000804224 25:-0.841045 26:-0.918267 27:-0.942764 28:-0.687438 29:-0.800287 30:-0.647508 
59.7141 1:-0.782744 2:-0.52701 3:-0.723757 4:-0.841667 5:-0.742854 6:-0.818609 7:0.119635 8:-0.296399 9:0.357998 10:-0.868125 11:-0.472842 12:-0.354346 13:-0.676271 14:-0.813796 15:-0.746481 16:-0.873245 17:-0.796867 18:-0.569651 19:-0.849439 20:-0.79432 21:-0.69243 22:-0.0907015 23:-0.346859 24:0.00779973 25:-0.787513 26:-0.607501 27:-0.908385 28:-0.782901 29:-0.814624 30:-0.723754 
59.7141 1:-0.766647 2:-0.697239 3:-0.871318 4:-0.825098 5:-0.838065 6:-0.921801 7:0.142707 8:0.185451 9:0.25975 10:-0.643547 11:-0.652255 12:-0.809722 13:-0.778574 14:-0.902179 15:-0.828262 16:-0.742084 17:-0.728287 18:-0.184629 19:-0.721502 20:-0.724658 21:-0.343226 22:0.112394 23:-0.155564 24:0.24165 25:-0.885303 26:-0.817626 27:-0.743686 28:-0.583824 29:-0.620477 30:-0.525665 
56.63470126902179 1:-0.717304 2:-0.81214 3:-0.854594 4:-0.733441 5:-0.886989 6:-0.868412 7:0.627631 8:0.30952 9:-0.783386 10:0.188484 11:-0.288909 12:0.370246 13:-0.728897 14:-0.819657 15:-0.775029 16:-0.862998 17:-0.875171 18:-0.963296 19:-0.900789 20:-0.890538 21:-0.977953 22:-0.188595 23:0.131037 24:-0.07708 25:-0.787059 26:-0.908967 27:-0.759397 28:-0.878873 29:-0.898119 30:-0.858685 
59.7141 1:-0.865192 2:-0.779061 3:-0.817495 4:-0.895541 5:-0.849973 6:-0.9214 7:-0.233661 8:-0.0696537 9:-0.164772 10:-0.577416 11:-0.309443 12:-0.865559 13:-0.82034 14:-0.909363 15:-0.858464 16:-0.748335 17:-0.793117 18:-0.856017 19:-0.753105 20:-0.760211 21:-0.91587 22:-0.0117243 23:0.197404 24:-0.122315 25:-0.890875 26:-0.55162 27:-0.846005 28:-0.796657 29:-0.824745 30:-0.749208 
59.7141 1:-0.788958 2:-0.873968 3:-0.883455 4:-0.816219 5:-0.931261 6:-0.922554 7:0.454322 8:0.131519 9:0.370784 10:-0.474573 11:-0.80515 12:-0.620812 13:-0.801035 14:-0.918047 15:-0.856248 16:-0.623117 17:-0.548289 18:-0.432196 19:-0.572829 20:-0.549598 21:-0.478439 22:-0.12803 23:0.286856 24:0.447749 25:-0.768297 26:-0.749648 27:-0.496807 28:-0.551345 29:-0.495994 30:-0.462859 
59.7141 1:-0.737292 2:-0.754153 3:-0.858196 4:-0.76495 5:-0.84778 6:-0.930064 7:0.258069 8:0.185125 9:0.12423 10:-0.535167 11:-0.635575 12:-0.736703 13:-0.74902 14:-0.896794 15:-0.806124 16:-0.646173 17:-0.896399 18:-0.816973 19:-0.638354 20:-0.897461 21:-0.937201 22:-0.0316588 23:0.0700149 24:0.144495 25:-0.826561 26:-0.770627 27:-0.921692 28:-0.784748 29:-0.86877 30:-0.788403 
17.54848170486556 1:-0.561048 2:-0.631476 3:-0.0418895 4:-0.526113 5:-0.793776 6:-0.501868 7:0.73272 8:-0.19966 9:-0.176817 10:0.332445 11:-0.74444 12:-0.8371 13:-0.0455868 14:-0.692929 15:-0.444737 16:1 17:1 18:0.099766 19:1 20:0.884283 21:-0.523766 22:0.0208591 23:-0.0536273 24:-0.0136037 25:-0.9392 26:-0.866969 27:-0.864577 28:1 29:0.161339 30:1 
59.7141 1:-0.866257 2:-0.870632 3:-0.877135 4:-0.899642 5:-0.925849 6:-0.937801 7:-0.265965 8:-0.416784 9:-0.0138715 10:-0.716595 11:-0.333498 12:-0.941049 13:-0.878856 14:-0.954377 15:-0.903323 16:-0.852956 17:-0.688054 18:-0.669541 19:-0.819505 20:-0.703418 21:-0.737531 22:-0.313562 23:-0.0897088 24:-0.228853 25:-0.459321 26:-0.630041 27:-0.777339 28:-0.691387 29:-0.731467 30:-0.662865 
59.7141 1:-0.757242 2:-0.783302 3:-0.857615 4:-0.786021 5:-0.882154 6:-0.925921 7:0.194322 8:-0.0286214 9:0.31642 10:-0.41282 11:-0.813644 12:-0.641143 13:-0.769105 14:-0.886761 15:-0.820553 16:-0.797008 17:-0.7246 18:-0.566819 19:-0.784922 20:-0.719209 21:-0.528273 22:0.251544 23:-0.194345 24:0.766919 25:-0.780808 26:-0.832249 27:0.26997 28:-0.728005 29:-0.625875 30:-0.617485 
59.7141 1:-0.86106 2:-0.810106 3:-0.871145 4:-0.893859 5:-0.872287 6:-0.920904 7:-0.180535 8:0.237102 9:-0.181092 10:-0.836019 11:-0.326803 12:-0.618789 13:-0.873624 14:-0.917895 15:-0.874479 16:-0.901629 17:-0.878412 18:-0.736174 19:-0.877685 20:-0.879035 21:-0.774935 22:0.453704 23:-0.399326 24:-0.247139 25:-0.30951 26:-0.67046 27:-0.769717 28:-0.869002 29:-0.856793 30:-0.813987 
59.7141 1:-0.854921 2:-0.880152 3:-0.851663 4:-0.888706 5:-0.927054 6:-0.913655 7:0.257973 8:-0.122364 9:0.020783 10:-0.561438 11:-0.654754 12:-0.853121 13:-0.854471 14:-0.946087 15:-0.889173 16:-0.650272 17:-0.704516 18:-0.849366 19:-0.547052 20:-0.613459 21:-0.863396 22:0.539472 23:-0.570087 24:-0.566155 25:-0.454175 26:-0.37268 27:0.00028462 28:-0.707881 29:-0.620815 30:-0.57888 
59.7141 1:-0.73509 2:-0.662521 3:-0.686805 4:-0.814995 5:-0.799573 6:-0.841653 7:-0.139645 8:0.089354 9:-0.197065 10:-0.954335 11:-0.375512 12:-0.816037 13:-0.689793 14:-0.884077 15:-0.768014 16:-0.666769 17:-0.715702 18:-0.596872 19:-0.668196 20:-0.770788 21:-0.584245 22:0.00106083 23:0.16733 24:-0.383286 25:-0.76311 26:-0.729843 27:-0.603897 28:-0.719089 29:-0.620815 30:-0.594123 
59.7141 1:-0.936138 2:-0.90249 3:-0.942461 4:-0.922787 5:-0.94281 6:-0.975783 7:-0.606899 8:-0.255557 9:0.195057 10:-0.206753 11:-0.750036 12:-0.713949 13:-0.945169 14:-0.955088 15:-0.932844 16:-0.952864 17:-0.822417 18:-0.689863 19:-0.913794 20:-0.782931 21:-0.711118 22:-0.51926 23:0.355631 24:0.0366893 25:0.285751 26:-0.43415 27:-0.659612 28:-0.826015 29:-0.758118 30:-0.745494 
-59.7141 1:-0.82082 2:-0.720964 3:-0.741898 4:-0.84845 5:-0.864285 6:-0.863639 7:-0.2701 8:-0.0427789 9:0.139311 10:-0.470783 11:-0.864882 12:-0.949461 13:-0.744827 14:-0.940287 15:-0.826514 16:-0.409673 17:-0.586297 18:-0.249292 19:-0.438158 20:-0.733564 21:-0.59864 22:0.0918401 23:0.224896 24:-0.00545438 25:-0.921583 26:-0.761091 27:-0.777442 28:-0.589428 29:-0.573079 30:-0.434772 
-59.7141 1:-0.879277 2:-0.75263 3:-0.718358 4:-0.903234 5:-0.889745 6:-0.844145 7:0.224733 8:-0.191492 9:0.0676282 10:-0.729999 11:-0.77013 12:-0.851563 13:-0.721312 14:-0.935507 15:-0.829427 16:-0.693924 17:-0.465853 18:-0.675576 19:-0.658813 20:-0.599219 21:-0.780214 22:0.310579 23:0.135998 24:0.0864172 25:-0.713223 26:-0.838095 27:-0.906988 28:-0.468747 29:-0.745635 30:-0.540651 
-59.7141 1:-0.879431 2:-0.938785 3:-0.913752 4:-0.943699 5:-0.964955 6:-0.94321 7:-0.4841 8:-0.0192505 9:0.357406 10:-0.125838 11:-0.667616 12:-0.25263 13:-0.892119 14:-0.936287 15:-0.922272 16:-0.604365 17:-0.73496 18:-0.358295 19:-0.513556 20:-0.687471 21:-0.36818 22:0.554605 23:0.502998 24:-0.443433 25:-0.497044 26:-0.249015 27:-0.514464 28:-0.673619 29:-0.363077 30:-0.454561 
-59.7141 1:-0.724737 2:-0.610551 3:-0.82129 4:-0.823409 5:-0.888143 6:-0.891061 7:-0.516596 8:-0.11786 9:0.18168 10:-0.0417956 11:-0.785672 12:-0.693301 13:-0.736327 14:-0.923044 15:-0.796356 16:-0.726509 17:-0.463374 18:-0.513364 19:-0.701086 20:-0.595508 21:-0.847714 22:-0.166418 23:-0.156274 24:-0.0153407 25:-0.643622 26:-0.830842 27:-0.838136 28:-0.466263 29:-0.703804 30:-0.498249 
-59.7141 1:-0.840633 2:-0.874784 3:-0.910229 4:-0.871584 5:-0.927237 6:-0.947187 7:-0.331256 8:-0.0660956 9:-0.108147 10:-0.488892 11:-0.67794 12:-0.786046 13:-0.853059 14:-0.94622 15:-0.898342 16:-0.792807 17:-0.650618 18:-0.585417 19:-0.776858 20:-0.667932 21:-0.691039 22:0.100555 23:-0.196071 24:0.307223 25:-0.781376 26:-0.881631 27:-0.863868 28:-0.653877 29:-0.773805 30:-0.642976 
-59.7141 1:-0.876937 2:-0.788437 3:-0.819439 4:-0.908127 5:-0.882158 6:-0.904778 7:-0.17337 8:-0.412016 9:0.033984 10:-0.561549 11:-0.382249 12:-0.938649 13:-0.822282 14:-0.944069 15:-0.87382 16:-0.527206 17:-0.619347 18:-0.613499 19:-0.511501 20:-0.665879 21:-0.669487 22:-0.00421213 23:0.0914062 24:0.509068 25:-0.846991 26:-0.832512 27:-0.602901 28:-0.622544 29:-0.600574 30:-0.536687 
-59.7141 1:-0.743668 2:-0.762635 3:-0.817031 4:-0.867073 5:-0.883812 6:-0.917344 7:-0.285416 8:0.27862 9:-0.000291396 10:-0.511198 11:-0.66041 12:-0.871289 13:-0.755439 14:-0.91557 15:-0.827966 16:-0.826622 17:-0.894493 18:-0.532332 19:-0.774315 20:-0.901693 21:-0.735905 22:-0.155483 23:-0.096942 24:-0.0545218 25:-0.568491 26:-0.896659 27:-0.898747 28:-0.763605 29:-0.8406 30:-0.74419 
-59.7141 1:-0.896436 2:-0.933153 3:-0.883101 4:-0.911266 5:-0.964568 6:-0.939208 7:-0.371271 8:0.503115 9:0.0235922 10:-0.301846 11:0.000497511 12:-0.932984 13:-0.885874 14:-0.948732 15:-0.920411 16:-0.739113 17:-0.849175 18:-0.8017 19:-0.672897 20:-0.842853 21:-0.82474 22:-0.296396 23:-0.16933 24:0.964738 25:-0.563393 26:-0.593063 27:0.591131 28:-0.842509 29:-0.751539 30:-0.767438 
-59.7141 1:-0.922841 2:-0.799946 3:-0.734025 4:-0.942166 5:-0.896761 6:-0.851809 7:-0.162783 8:0.0901859 9:-0.0415033 10:-0.774062 11:-0.860342 12:-0.862777 13:-0.736962 14:-0.948319 15:-0.854703 16:-0.673327 17:-0.672292 18:-0.757729 19:-0.515189 20:-0.860227 21:-0.809535 22:-0.560528 23:-0.249141 24:0.550771 25:-0.300054 26:-0.710542 27:-0.277833 28:-0.675593 29:-0.737708 30:-0.622238 
-59.7141 1:-0.715386 2:-0.774045 3:-0.663735 4:-0.774906 5:-0.8755 6:-0.797313 7:-0.310284 8:0.100282 9:-0.196732 10:-0.753476 11:-0.759546 12:-0.500316 13:-0.666749 14:-0.829477 15:-0.736083 16:-0.910749 17:-0.902565 18:-0.794063 19:-0.921982 20:-0.918217 21:-0.940606 22:0.15483 23:-0.184018 24:0.0347527 25:-0.891069 26:-0.937505 27:-0.814819 28:-0.898933 29:-0.919204 30:-0.869127 
-8.308477545202379 1:-0.910432 2:-0.943997 3:-0.91402 4:-0.919894 5:-0.970342 6:-0.945134 7:-0.84966 8:0.249639 9:-0.756029 10:0.547915 11:-0.612045 12:0.402097 13:-0.916759 14:-0.940019 15:-0.931093 16:-0.910442 17:-0.925763 18:-0.888903 19:-0.944243 20:-0.976976 21:-0.910876 22:0.22236 23:0.256722 24:0.215252 25:-0.581878 26:-0.702899 27:-0.710668 28:-0.929565 29:-0.946698 30:-0.917215 
-59.7141 1:-0.751285 2:-0.776219 3:-0.66027 4:-0.768822 5:-0.874297 6:-0.818921 7:0.0622756 8:0.393588 9:-0.0774096 10:-0.500661 11:-0.282366 12:-0.818854 13:-0.663287 14:-0.874794 15:-0.766741 16:-0.32821 17:-0.874345 18:-0.240177 19:-0.408791 20:-0.855624 21:-0.462656 22:-0.0845306 23:0.471133 24:0.254087 25:-0.77634 26:-0.141363 27:-0.776564 28:-0.587136 29:-0.657418 30:-0.510534 
-59.7141 1:-0.781109 2:-0.57231 3:-0.78731 4:-0.838219 5:-0.731262 6:-0.873896 7:0.0230848 8:-0.424702 9:-0.0641833 10:-0.768457 11:-0.525628 12:-0.83417 13:-0.708836 14:-0.88023 15:-0.766471 16:-0.74854 17:-0.776401 18:-0.792462 19:-0.817676 20:-0.849857 21:-0.832557 22:0.195131 23:-0.012499 24:0.279063 25:-0.826316 26:-0.90825 27:-0.672707 28:-0.779908 29:-0.816142 30:-0.757166 
-59.7141 1:-0.878338 2:-0.856892 3:-0.874828 4:-0.913459 5:-0.916427 6:-0.917713 7:-0.354493 8:0.0300491 9:0.30725 10:-0.372552 11:-0.48671 12:-0.52404 13:-0.87761 14:-0.937165 15:-0.892958 16:-0.802644 17:-0.789875 18:-0.884715 19:-0.761476 20:-0.73337 21:-0.910934 22:0.343904 23:0.33222 24:-0.169346 25:-0.707827 26:-0.511099 27:-0.700274 28:-0.793409 29:-0.74631 30:-0.73768 
-59.7141 1:-0.870849 2:-0.699525 3:-0.810702 4:-0.903226 5:-0.856274 6:-0.890182 7:-0.26551 8:0.126758 9:0.00174993 10:-0.70763 11:-0.861902 12:-0.775064 13:-0.800288 14:-0.943705 15:-0.854315 16:-0.828978 17:-0.814218 18:-0.826456 19:-0.812802 20:-0.810218 21:-0.877716 22:-0.127133 23:0.343254 24:0.118517 25:-0.770398 26:-0.558092 27:-0.917896 28:-0.8178 29:-0.892384 30:-0.802685 
-1.338161396770743 1:-0.888229 2:-0.880051 3:-0.843034 4:-0.911981 5:-0.937292 6:-0.907362 7:0.111753 8:0.17856 9:0.0131362 10:-0.600584 11:-0.829171 12:-0.611166 13:-0.845851 14:-0.941918 15:-0.895034 16:-0.767907 17:-0.797502 18:-0.641212 19:-0.7079 20:-0.808019 21:-0.765137 22:0.491077 23:0.205883 24:0.0435517 25:-0.560063 26:-0.669143 27:-0.935578 28:-0.801051 29:-0.776335 30:-0.728305 
-59.7141 1:-0.776413 2:-0.893486 3:-0.904285 4:-0.872087 5:-0.948295 6:-0.934452 7:-0.00259746 8:0.024267 9:0.669815 10:-0.351226 11:-0.281129 12:0.103542 13:-0.788405 14:-0.918778 15:-0.872296 16:-0.896813 17:-0.871103 18:-0.765119 19:-0.88866 20:-0.874866 21:-0.906343 22:0.375699 23:-0.050179 24:0.0218234 25:-0.629376 26:-0.896657 27:-0.823239 28:-0.874797 29:-0.918529 30:-0.848192 
-9.099585692385046 1:-0.767703 2:-0.768999 3:-0.793621 4:-0.876321 5:-0.898907 6:-0.869425 7:0.115428 8:-0.00460225 9:-0.242547 10:-0.867622 11:-0.924089 12:-0.674956 13:-0.779636 14:-0.908366 15:-0.822729 16:-0.78922 17:-0.632758 18:-0.0677423 19:-0.78581 20:-0.811388 21:-0.76316 22:0.00606462 23:0.217906 24:0.0694172 25:-0.914362 26:-0.719886 27:-0.927564 28:-0.523388 29:-0.7399 30:-0.514326 
-42.13718459196154 1:-0.894168 2:-0.893119 3:-0.882951 4:-0.906503 5:-0.946264 6:-0.932211 7:-0.374233 8:-0.0183584 9:0.121607 10:-0.452839 11:-0.915362 12:-0.889914 13:-0.885724 14:-0.958702 15:-0.911322 16:-0.930423 17:-0.764515 18:-0.719547 19:-0.931603 20:-0.747171 21:-0.794515 22:0.0357927 23:-0.398516 24:0.151617 25:-0.790173 26:-0.581062 27:-0.776445 28:-0.767999 29:-0.784431 30:-0.748598 
-59.7141 1:-0.962454 2:-0.93796 3:-0.945169 4:-0.976638 5:-0.961767 6:-0.981328 7:-0.507385 8:0.61509 9:0.33963 10:-0.332821 11:0.138696 12:-0.394246 13:-0.947873 14:-0.969655 15:-0.960452 16:-0.94897 17:-0.975403 18:-0.988422 19:-0.975309 20:-0.977452 21:-0.989891 22:0.88593 23:0.568385 24:-0.177332 25:0.429612 26:-0.149081 27:-0.739271 28:-0.972934 29:-0.982964 30:-0.975159 
-59.7141 1:-0.786778 2:-0.877865 3:-0.84615 4:-0.840098 5:-0.93483 6:-0.914971 7:0.223904 8:-0.0175729 9:-0.162672 10:-0.7195 11:-0.822499 12:-0.828701 13:-0.79884 14:-0.920717 15:-0.863832 16:-0.63736 17:-0.732863 18:-0.759699 19:-0.553285 20:-0.728565 21:-0.820153 22:0.098328 23:0.0234475 24:0.00531991 25:-0.554479 26:-0.700071 27:-0.81049 28:-0.736284 29:-0.712237 30:-0.665441 
-59.7141 1:-0.725654 2:-0.839293 3:-0.862909 4:-0.880626 5:-0.89669 6:-0.939016 7:0.591472 8:-0.120189 9:-0.358901 10:0.0563467 11:-0.358496 12:-0.676138 13:-0.737303 14:-0.889928 15:-0.843043 16:-0.706732 17:-0.816061 18:-0.573716 19:-0.830263 20:-0.829043 21:-0.857681 22:0.0483809 23:-0.0306506 24:-0.211539 25:-0.893126 26:-0.862104 27:-0.708756 28:-0.785002 29:-0.844143 30:-0.729897 
-59.7141 1:-0.847663 2:-0.87991 3:-0.79965 4:-0.810586 5:-0.92788 6:-0.898585 7:0.883732 8:-0.205364 9:-0.742838 10:0.716976 11:-0.49822 12:0.33194 13:-0.802515 14:-0.854449 15:-0.839598 16:-0.707347 17:-0.854768 18:-0.601059 19:-0.86555 20:-0.928967 21:-0.919503 22:0.503539 23:0.177418 24:-0.186578 25:-0.483049 26:-0.767686 27:-0.799464 28:-0.79914 29:-0.860673 30:-0.769296 
-59.7141 1:-0.847707 2:-0.91152 3:-0.837586 4:-0.873609 5:-0.935579 6:-0.910668 7:-0.171008 8:-0.477008 9:0.0596299 10:-0.589242 11:-0.0316188 12:-0.892551 13:-0.840409 14:-0.936046 15:-0.883803 16:-0.839328 17:-0.681508 18:-0.692696 19:-0.828919 20:-0.71713 21:-0.870979 22:-0.146022 23:-0.271351 24:0.336948 25:-0.768762 26:-0.729619 27:-0.783244 28:-0.684827 29:-0.811757 30:-0.697356 
-59.7141 1:-0.724324 2:-0.6783 3:-0.485398 4:-0.786983 5:-0.835636 6:-0.697089 7:-0.087808 8:-0.0183609 9:0.136762 10:-0.792996 11:-0.841543 12:-0.78046 13:-0.488608 14:-0.865864 15:-0.68657 16:-0.158623 17:-0.476976 18:-0.125385 19:-0.090931 20:-0.459509 21:-0.384071 22:-0.314652 23:0.396064 24:0.0094978 25:-0.680402 26:-0.549487 27:-0.908116 28:-0.479892 29:-0.317028 30:-0.176916 
-59.7141 1:-0.908603 2:-0.845005 3:-0.850014 4:-0.924669 5:-0.888988 6:-0.888484 7:0.168196 8:-0.484281 9:0.593889 10:-0.599129 11:-0.0259384 12:-0.0127548 13:-0.852823 14:-0.912824 15:-0.875804 16:-0.902859 17:-0.758223 18:-0.801453 19:-0.918307 20:-0.77366 21:-0.847229 22:0.344385 23:0.0606869 24:-0.127384 25:-0.690614 26:-0.778116 27:-0.874473 28:-0.761694 29:-0.864215 30:-0.764932 
-59.7141 1:-0.932407 2:-0.954925 3:-0.937856 4:-0.940983 5:-0.975387 6:-0.956491 7:-0.421078 8:0.264403 9:0.393646 10:-0.26749 11:-0.599768 12:-0.368153 13:-0.940569 14:-0.968896 15:-0.950965 16:-0.843632 17:-0.860743 18:-0.858111 19:-0.855432 20:-0.816391 21:-0.950948 22:0.560111 23:-0.531071 24:-0.219843 25:-0.373749 26:-0.467109 27:-0.526435 28:-0.864416 29:-0.860336 30:-0.802816 
-59.7141 1:-0.78157 2:-0.686233 3:-0.788457 4:-0.859136 5:-0.85377 6:-0.867925 7:0.0228894 8:-0.0722739 9:0.346639 10:-0.978119 11:-0.94604 12:-0.642567 13:-0.790733 14:-0.905768 15:-0.828298 16:-0.671278 17:-0.695491 18:-0.583816 19:-0.691841 20:-0.720728 21:-0.709257 22:-0.0702411 23:0.26082 24:-0.0872432 25:-0.883418 26:-0.694403 27:-0.69401 28:-0.698838 29:-0.698912 30:-0.601768 
-59.7141 1:-0.788963 2:-0.481775 3:-0.723462 4:-0.849815 5:-0.735315 6:-0.841353 7:-0.155171 8:0.0590792 9:-0.029713 10:-0.88297 11:-0.858234 12:-0.801183 13:-0.643753 14:-0.896027 15:-0.755851 16:-0.042115 17:-0.44062 18:-0.27565 19:-0.0472615 20:-0.497913 21:-0.549327 22:-0.00054119 23:-0.103521 24:-0.219283 25:-0.93523 26:-0.912296 27:-0.815377 28:-0.40933 29:-0.5385 30:-0.277128 
-59.7141 1:-0.891032 2:-0.853562 3:-0.899751 4:-0.919566 5:-0.893326 6:-0.949035 7:0.191673 8:0.308141 9:-0.156865 10:-0.699918 11:-0.122704 12:-0.820277 13:-0.902506 14:-0.931035 15:-0.9058 16:-0.884312 17:-0.823371 18:-0.693928 19:-0.884643 20:-0.844392 21:-0.832529 22:0.441002 23:0.117677 24:0.0685592 25:-0.542918 26:-0.872467 27:-0.784804 28:-0.82697 29:-0.874673 30:-0.803716 
-59.7141 1:-0.835773 2:-0.748467 3:-0.766282 4:-0.893419 5:-0.873643 6:-0.865796 7:-0.0343936 8:0.00391588 9:-0.0391105 10:-0.949241 11:-0.884936 12:-0.797526 13:-0.769183 14:-0.929662 15:-0.844077 16:-0.415104 17:-0.660597 18:-0.158763 19:-0.340092 20:-0.644165 21:-0.262912 22:0.0406543 23:-0.102624 24:-0.485144 25:-0.75565 26:-0.69474 27:0.0365773 28:-0.570451 29:-0.465632 30:-0.366713 
-59.7141 1:-0.9006 2:-0.876144 3:-0.895566 4:-0.931772 5:-0.923482 6:-0.944111 7:-0.0551337 8:0.174348 9:0.0748417 10:-0.911563 11:-0.496895 12:-0.920503 13:-0.898326 14:-0.970111 15:-0.919799 16:-0.78133 17:-0.633648 18:-0.575194 19:-0.743748 20:-0.659939 21:-0.732425 22:0.025805 23:-0.515455 24:-0.0140014 25:-0.479603 26:-0.279831 27:-0.963747 28:-0.636873 29:-0.702792 30:-0.625743 
-59.7141 1:-0.723532 2:-0.59434 3:-0.735457 4:-0.79076 5:-0.769288 6:-0.827064 7:-0.272761 8:-0.100203 9:0.265525 10:-0.621732 11:-0.52607 12:-0.677283 13:-0.724673 14:-0.818642 15:-0.748349 16:-0.934215 17:-0.881018 18:-0.728045 19:-0.932621 20:-0.941287 21:-0.920728 22:0.171874 23:-0.377171 24:0.155737 25:-0.855148 26:-0.492107 27:-0.932002 28:-0.864799 29:-0.931855 30:-0.857453 
-59.7141 1:-0.816236 2:-0.829291 3:-0.869902 4:-0.863193 5:-0.903497 6:-0.929036 7:-0.08164 8:-0.132191 9:-0.16528 10:-0.75312 11:-0.688895 12:-0.774571 13:-0.828497 14:-0.939393 15:-0.876287 16:-0.577313 17:-0.774939 18:-0.717207 19:-0.611446 20:-0.754482 21:-0.793299 22:-0.337115 23:-0.446738 24:0.44722 25:-0.591473 26:-0.608853 27:-0.645149 28:-0.741952 29:-0.739394 30:-0.683254 
-0.0446792900506808 1:-0.575395 2:-0.823677 3:-0.745686 4:-0.904018 5:-0.923446 6:-0.820469 7:-0.246537 8:0.284346 9:0.406018 10:-0.38814 11:-0.353802 12:-0.52138 13:-0.58603 14:-0.896604 15:-0.761006 16:-0.204837 17:-0.795659 18:-0.819805 19:-0.218121 20:-0.812159 21:-0.859936 22:-0.026427 23:-0.0770328 24:-0.218298 25:-0.948206 26:-0.906979 27:-0.586221 28:-0.51046 29:-0.741756 30:-0.576097 
-59.7141 1:-0.571835 2:-0.766533 3:-0.852897 4:-0.697822 5:-0.902561 6:-0.906771 7:0.301024 8:-0.042881 9:0.289681 10:-0.436684 11:-0.772527 12:-0.551913 13:-0.582446 14:-0.866599 15:-0.742266 16:-0.880213 17:-0.923412 18:-0.951841 19:-0.950754 20:-0.964846 21:-0.988266 22:0.223094 23:0.251474 24:-0.119965 25:-0.761878 26:-0.842117 27:-0.843577 28:-0.927209 29:-0.966939 30:-0.918884 
-59.7141 1:-0.800344 2:-0.848828 3:-0.862832 4:-0.882379 5:-0.923821 6:-0.905934 7:0.107927 8:0.0436034 9:0.119456 10:-0.801377 11:-0.86219 12:-0.642554 13:-0.812498 14:-0.931932 15:-0.866759 16:-0.854698 17:-0.854641 18:-0.554255 19:-0.841339 20:-0.9028 21:-0.612479 22:-0.0648174 23:0.10802 24:0.468169 25:-0.808955 26:-0.786399 27:-0.501879 28:-0.77494 29:-0.782576 30:-0.736253 
-59.7141 1:-0.745228 2:-0.637787 3:-0.590866 4:-0.790332 5:-0.792592 6:-0.772203 7:0.116191 8:-0.240064 9:0.180776 10:-0.627167 11:-0.554166 12:-0.738184 13:-0.59396 14:-0.863414 15:-0.72591 16:-0.733477 17:-0.813455 18:-0.824978 19:-0.708662 20:-0.862325 21:-0.92247 22:-0.328799 23:0.207664 24:0.20689 25:-0.655722 26:-0.866687 27:-0.882136 28:-0.817036 29:-0.854432 30:-0.767488 
-59.7141 1:-0.872087 2:-0.84848 3:-0.82337 4:-0.899916 5:-0.925222 6:-0.901292 7:-0.118543 8:0.141311 9:-0.0140729 10:-0.663414 11:-0.720856 12:-0.88239 13:-0.826209 14:-0.938734 15:-0.885584 16:-0.61246 17:-0.428989 18:-0.662274 19:-0.568807 20:-0.512454 21:-0.732432 22:-0.203882 23:-0.0283173 24:-0.160377 25:-0.696382 26:-0.965429 27:-0.677444 28:-0.43181 29:-0.672092 30:-0.477021 
-59.7141 1:-0.893727 2:-0.912321 3:-0.897472 4:-0.904047 5:-0.950026 6:-0.965601 7:0.288232 8:-0.283597 9:-0.149547 10:-0.314763 11:-0.531563 12:-0.82712 13:-0.90023 14:-0.948105 15:-0.920201 16:-0.16098 17:-0.419138 18:-0.239192 19:-0.00787485 20:-0.357459 21:-0.294453 22:-0.000357862 23:0.107473 24:0.41156 25:-0.779948 26:-0.705808 27:-0.700114 28:-0.421939 29:-0.308931 30:-0.146616 
-47.27421419839629 1:-0.981511 2:-0.970755 3:-0.946689 4:-0.9838 5:-0.994791 6:-0.975939 7:0.0729049 8:-0.193089 9:-0.221831 10:-0.681977 11:-0.803311 12:-0.77433 13:-0.949392 14:-0.990355 15:-0.978258 16:-0.608874 17:-0.636572 18:-0.459047 19:-0.579329 20:-0.619037 21:-0.512544 22:0.291851 23:-0.603386 24:0.676686 25:-0.690509 26:-0.266424 27:-0.0357896 28:-0.639803 29:-0.442523 30:-0.513512 
-59.7141 1:-0.721011 2:-0.835393 3:-0.694565 4:-0.791702 5:-0.90574 6:-0.800352 7:0.203003 8:0.39261 9:0.186984 10:-0.84771 11:-0.585065 12:-0.435115 13:-0.697545 14:-0.87872 15:-0.761876 16:-0.508454 17:-0.798773 18:-0.60303 19:-0.606388 20:-0.786628 21:-0.690994 22:-0.278573 23:-0.315631 24:0.331439 25:-0.690123 26:-0.623931 27:-0.644324 28:-0.699156 29:-0.684068 30:-0.650328 
-59.7141 1:-0.838245 2:-0.922502 3:-0.704583 4:-0.868133 5:-0.948333 6:-0.801531 7:0.162387 8:0.329406 9:0.513055 10:-0.50746 11:-0.347235 12:-0.285813 13:-0.707552 14:-0.892458 15:-0.807676 16:-0.943949 17:-0.933073 18:-0.789383 19:-0.930346 20:-0.93354 21:-0.855945 22:-0.23474 23:0.15023 24:0.103017 25:-0.670333 26:-0.715753 27:-0.924093 28:-0.896513 29:-0.938939 30:-0.896953 
-59.7141 1:-0.771294 2:-0.790643 3:-0.863011 4:-0.779548 5:-0.879976 6:-0.892241 7:-0.646435 8:-0.166622 9:0.53994 10:0.191289 11:-0.535006 12:-0.035491 13:-0.783252 14:-0.838274 15:-0.814055 16:-0.748642 17:-0.796231 18:-0.684813 19:-0.722993 20:-0.805453 21:-0.729274 22:0.201268 23:-0.118962 24:0.400735 25:-0.673499 26:-0.769842 27:-0.773611 28:-0.799777 29:-0.735346 30:-0.717345 
-59.7141 1:-0.744614 2:-0.749654 3:-0.747526 4:-0.821962 5:-0.856898 6:-0.836877 7:-0.17844 8:-0.185688 9:0.378955 10:-0.484401 11:-0.72812 12:-0.42001 13:-0.750448 14:-0.886755 15:-0.786864 16:-0.368788 17:-0.536276 18:-0.0301761 19:-0.347687 20:-0.507681 21:-0.366425 22:-0.0426185 23:0.0109853 24:0.212143 25:-0.851258 26:-0.731175 27:-0.928294 28:-0.503964 29:-0.491608 30:-0.263079 
-59.7141 1:-0.592032 2:-0.819342 3:-0.694346 4:-0.733224 5:-0.895651 6:-0.831543 7:-0.145585 8:-0.0238488 9:-0.339905 10:-0.734039 11:-0.562362 12:-0.539172 13:-0.602779 14:-0.87793 15:-0.75248 16:-0.406906 17:-0.414688 18:-0.675822 19:-0.493558 20:-0.482269 21:-0.760454 22:0.297947 23:-0.486206 24:0.545768 25:-0.843621 26:-0.545949 27:-0.386156 28:-0.417481 29:-0.666189 30:-0.440682 
-59.7141 1:-0.84755 2:-0.757572 3:-0.904758 4:-0.887762 5:-0.83325 6:-0.953829 7:0.237549 8:0.71464 9:-0.13538 10:-0.783911 11:0.316194 12:-0.917665 13:-0.842016 14:-0.920303 15:-0.862149 16:-0.939645 17:-0.950234 18:-0.794925 19:-0.906355 20:-0.94064 21:-0.918338 22:0.715724 23:0.116146 24:0.0526456 25:0.0489957 26:-0.623153 27:-0.906962 28:-0.899379 29:-0.929156 30:-0.894794 
-59.7141 1:-0.791746 2:-0.781769 3:-0.776609 4:-0.82101 5:-0.926235 6:-0.867436 7:-0.362594 8:0.191033 9:0.0896884 10:-0.638549 11:-0.793237 12:-0.692096 13:-0.779499 14:-0.920516 15:-0.818812 16:-0.92407 17:-0.974577 18:-0.889888 19:-0.890857 20:-0.978126 21:-0.93518 22:-0.2356 23:-0.048801 24:0.0903095 25:-0.283773 26:-0.959159 27:-0.803808 28:-0.94848 29:-0.938264 30:-0.931881 
-59.7141 1:-0.892963 2:-0.828349 3:-0.859688 4:-0.924016 5:-0.911271 6:-0.908716 7:0.437244 8:-0.103487 9:-0.466986 10:-0.264466 11:-0.749985 12:-0.129198 13:-0.862487 14:-0.906281 15:-0.887978 16:-0.697817 17:-0.772269 18:-0.915876 19:-0.631731 20:-0.78329 21:-0.92592 22:-0.369028 23:0.191469 24:-0.404797 25:-0.558622 26:-0.754896 27:-0.489917 28:-0.775768 29:-0.769419 30:-0.736298 
-59.7141 1:-0.476791 2:-0.912433 3:-0.815584 4:-0.904949 5:-0.949638 6:-0.913644 7:0.135129 8:0.423684 9:0.00855105 10:-0.781908 11:-0.339584 12:-0.850184 13:-0.486761 14:-0.912685 15:-0.768156 16:-0.930833 17:-0.861315 18:-0.831014 19:-0.915235 20:-0.853194 21:-0.867346 22:-0.171968 23:-0.186276 24:0.0907407 25:-0.757853 26:-0.792024 27:-0.662545 28:-0.86499 29:-0.885975 30:-0.848625 
-59.7141 1:-0.940712 2:-0.936118 3:-0.926731 4:-0.894878 5:-0.986707 6:-0.940849 7:-0.964452 8:-0.175487 9:0.542089 10:0.893281 11:-0.7891 12:-0.123013 13:-0.929456 14:-0.921737 15:-0.915866 16:-0.793831 17:-0.935234 18:-0.348319 19:-0.909854 20:-0.908815 21:-0.912491 22:-0.0221535 23:0.715751 24:0.285793 25:-0.764521 26:0.271216 27:-0.732308 28:-0.66846 29:-0.874167 30:-0.730068 
-18.55094981682876 1:-0.887804 2:-0.958745 3:-0.983927 4:-0.98255 5:-0.997926 6:-0.99171 7:-0.122089 8:-0.184067 9:-0.105477 10:-0.779162 11:-0.861338 12:-0.87563 13:-0.900548 14:-0.986194 15:-0.959998 16:-0.957373 17:-0.936568 18:-0.827195 19:-0.955083 20:-0.908897 21:-0.716645 22:0.0730948 23:0.805187 24:-1 25:-0.744933 26:0.526631 27:1 28:-0.916064 29:-0.742768 30:-0.814803 
-59.7141 1:-0.865099 2:-0.904981 3:-0.944394 4:-0.883534 5:-0.961067 6:-0.973444 7:-0.5846 8:0.376249 9:0.332116 10:0.173707 11:-0.0658156 12:-0.638738 13:-0.87769 14:-0.947574 15:-0.913246 16:-0.963009 17:-0.921187 18:-0.817835 19:-0.947249 20:-0.929065 21:-0.917076 22:0.363238 23:0.218695 24:0.292161 25:-0.652448 26:-0.70708 27:-0.613084 28:-0.911224 29:-0.948385 30:-0.904124 
-59.7141 1:-0.841165 2:-0.824898 3:-0.741674 4:-0.907652 5:-0.890592 6:-0.867845 7:-0.419798 8:-0.522094 9:0.0414465 10:-0.311937 11:-0.0283663 12:-0.924348 13:-0.744603 14:-0.933936 15:-0.849904 16:-0.683267 17:-0.716592 18:-0.211849 19:-0.805104 20:-0.713105 21:-0.274992 22:0.102746 23:0.323241 24:-0.322143 25:-0.790673 26:-0.575096 27:-0.640688 28:-0.597898 29:-0.570886 30:-0.471431 
-59.7141 1:-0.839754 2:-0.788136 3:-0.82785 4:-0.869425 5:-0.868139 6:-0.90567 7:-0.172375 8:0.473428 9:-0.158081 10:-0.703543 11:-0.242168 12:-0.734866 13:-0.830684 14:-0.90428 15:-0.856451 16:-0.743314 17:-0.751676 18:0.0100998 19:-0.709626 20:-0.958671 21:0.341333 22:-0.46126 23:-0.559131 24:-0.602703 25:-0.169745 26:-0.0912986 27:-0.23372 28:-0.48314 29:-0.317365 30:-0.137517 
-59.7141 1:-0.735677 2:-0.950498 3:-0.967812 4:-0.984651 5:-0.987123 6:-0.973468 7:-0.364258 8:-0.295609 9:-0.382559 10:-0.235032 11:-0.339566 12:-0.504871 13:-0.747394 14:-0.971268 15:-0.900757 16:-0.944052 17:-0.953666 18:-0.919325 19:-0.91673 20:-0.948768 21:-0.942851 22:-0.406364 23:0.347736 24:0.338889 25:-0.468343 26:-0.464305 27:-0.562902 28:-0.957523 29:-0.929156 30:-0.935712 
-36.45181594503705 1:-0.711407 2:-0.906316 3:-0.913028 4:-0.943502 5:-0.951482 6:-0.946444 7:-0.0840838 8:0.586258 9:0.0543452 10:-0.838233 11:0.0733227 12:-0.834935 13:-0.72296 14:-0.950721 15:-0.87212 16:-0.793934 17:-0.899641 18:-0.748738 19:-0.829549 20:-0.921796 21:-0.852767 22:0.0659305 23:0.0735813 24:0.328241 25:-0.945723 26:-0.674823 27:-0.596249 28:-0.875498 29:-0.874673 30:-0.820912 
-45.80343284898011 1:-0.9587 2:-0.891376 3:-0.905136 4:-0.952847 5:-0.954975 6:-0.9504 7:0.714364 8:-0.791837 9:-0.163427 10:0.356402 11:0.490103 12:-0.684636 13:-0.907884 14:-0.956597 15:-0.939949 16:-0.904396 17:-0.818604 18:-0.818943 19:-0.897132 20:-0.818176 21:-0.931913 22:0.1711 23:-0.214689 24:0.229404 25:-0.846558 26:-0.691795 27:-0.744994 28:-0.822194 29:-0.900818 30:-0.824847 
-29.02292528967882 1:-0.974746 2:-0.960983 3:-0.947386 4:-0.981049 5:-0.982194 6:-0.974625 7:-0.014052 8:-0.183811 9:0.563753 10:-0.810166 11:-0.583239 12:-0.0609147 13:-0.950088 14:-0.980167 15:-0.969704 16:-0.877446 17:-0.858391 18:-0.622983 19:-0.870252 20:-0.866719 21:-0.585818 22:-0.160142 23:0.593204 24:0.644344 25:-0.793801 26:-0.0450471 27:-0.31445 28:-0.810476 29:-0.768576 30:-0.70347 
-59.7141 1:-0.377165 2:-0.733434 3:-0.597896 4:-0.149253 5:-0.850261 6:-0.738654 7:0.917821 8:0.339099 9:0.160432 10:0.802467 11:-0.609651 12:-0.422981 13:-0.386462 14:-0.522106 15:-0.37239 16:-0.776309 17:-0.819684 18:-0.766597 19:-0.77292 20:-0.805207 21:-0.816434 22:0.153658 23:-0.288544 24:-0.145722 25:-0.87605 26:-0.793832 27:-0.587713 28:-0.823277 29:-0.808215 30:-0.769741 
-59.7141 1:-0.940233 2:-0.898753 3:-0.872446 4:-0.942835 5:-0.92993 6:-0.924275 7:-0.528119 8:-0.78251 9:0.108015 10:-0.0625651 11:0.379746 12:-0.763233 13:-0.875231 14:-0.925352 15:-0.91754 16:-0.932678 17:-0.853815 18:-0.814017 19:-0.930403 20:-0.857157 21:-0.88425 22:0.126816 23:0.258762 24:0.243024 25:-0.944537 26:-0.462615 27:-0.647953 28:-0.857475 29:-0.869782 30:-0.840188 
-46.71347252570231 1:-0.808287 2:-0.987086 3:-0.928592 4:-0.966607 5:-0.992256 6:-0.97653 7:-0.0782689 8:0.0536759 9:0.0538475 10:-0.905612 11:-0.841908 12:-0.857221 13:-0.820494 14:-0.972489 15:-0.920399 16:-0.899375 17:-0.85979 18:-0.965882 19:-0.908974 20:-0.842195 21:-0.969578 22:-0.559104 23:0.503175 24:-0.442912 25:-0.0506769 26:-0.433592 27:-0.300741 28:-0.863461 29:-0.87383 30:-0.859327 
-59.7141 1:-0.942203 2:-0.935911 3:-0.967538 4:-0.984442 5:-0.973752 6:-0.973819 7:-0.0729177 8:0.556933 9:0.394233 10:-0.876936 11:-0.104311 12:-0.443367 13:-0.955315 14:-0.967551 15:-0.962629 16:-0.932575 17:-0.90212 18:-0.962064 19:-0.914435 20:-0.888236 21:-0.970522 22:-0.151517 23:-0.0227501 24:0.0422511 25:-0.153719 26:-0.271737 27:-0.932817 28:-0.905875 29:-0.902505 30:-0.895146 
-59.7141 1:-0.893003 2:-0.898358 3:-0.834306 4:-0.848791 5:-0.934928 6:-0.899382 7:0.923806 8:-0.425026 9:0.270828 10:0.805191 11:-0.526752 12:-0.650023 13:-0.837133 14:-0.871984 15:-0.860639 16:-0.858182 17:-0.802523 18:-0.869688 19:-0.864084 20:-0.834564 21:-0.877935 22:0.186567 23:-0.00214101 24:0.563328 25:-0.888904 26:-0.864468 27:-0.470416 28:-0.806082 29:-0.834359 30:-0.80439 
-59.7141 1:-0.675572 2:-0.316678 3:-0.710295 4:-0.70934 5:-0.530807 6:-0.750895 7:0.136984 8:-0.0226343 9:-0.52149 10:-0.556253 11:-0.549546 12:-0.125572 13:-0.525068 14:-0.762961 15:-0.571189 16:-0.929911 17:-0.914514 18:-0.944205 19:-0.912989 20:-0.922993 21:-0.958226 22:0.316185 23:-0.0951339 24:0.364618 25:-0.267575 26:-0.844917 27:-0.528416 28:-0.918293 29:-0.939782 30:-0.917173 
-4.954308624442517 1:-0.851299 2:-0.819082 3:-0.850304 4:-0.88244 5:-0.901544 6:-0.869452 7:0.151129 8:0.101211 9:-0.594641 10:-0.706242 11:-0.840676 12:0.0818807 13:-0.853113 14:-0.900821 15:-0.853413 16:-0.970181 17:-0.967966 18:-0.933489 19:-0.958184 20:-0.966359 21:-0.905812 22:0.396888 23:-0.177112 24:-0.720181 25:-0.694235 26:-0.803049 27:0.228416 28:-0.971024 29:-0.932529 30:-0.937176 
