svm_type c_svc
kernel_type rbf
gamma 0.0743254
nr_class 5
total_sv 419
rho -0.180168 -0.134858 -0.268001 -0.160859 0.324547 -0.0368067 0.0720143 -0.710093 -0.366058 -0.115773
label 1 2 3 4 5
probA -3.51026 -4.16231 -4.1313 -4.06574 -3.9651 -3.79885 -4.47466 -2.64065 -3.43148 -3.31271
probB -0.02815 -0.200016 -0.192575 -0.161996 -0.20578 -0.166448 0.056457 -0.210151 -0.242652 -0.112909
nr_sv 77 77 93 98 74
SV
3.66801617282 0 0 3.66801617282 1:0.708744 2:-0.202678 3:0.296694 4:0.0132333 5:-0.872577 6:-0.797029 7:-0.905696 8:-0.383446 9:0.686121 10:0.451616 11:-0.591364 12:0.00864683 13:-0.304425 14:-0.872523 15:-0.865364 16:-0.877987 17:-0.874357 18:-0.825178 19:-0.907809 20:-0.896211 21:-0.810164 22:-0.91708 23:0.855551 24:0.942391 25:0.950111 26:-0.962574 27:-0.64088 28:-0.861849 29:0.813622 30:0.539418 31:0.167764 32:-0.748784 33:-0.894767 34:-0.856126 35:0.67266 36:-0.194955 37:-0.59075 38:-0.301738 39:-0.860735 40:0.121567 41:-0.807634 42:-0.697907 43:-0.711923 44:-0.754025 45:-0.829918 46:-0.790378 47:-0.735965 48:-0.896191 49:-0.804606 50:0.961866 51:0.950246 52:0.796534 53:-0.410265 54:-0.643293 55:-0.702624 56:-0.08649 57:0.772344 58:0.566628 59:0.137535 60:-0.526011 61:-0.740202 62:-0.319921 63:-0.47712 64:-0.800827 
1.886306253970987 1.309789956724836 1.904915729775903 0 1:0.871509 2:-0.242511 3:0.316353 4:0.0108982 5:-0.839422 6:-0.870602 7:-0.915707 8:-0.713619 9:0.209467 10:0.0144344 11:0.161526 12:-0.874387 13:-0.55382 14:-0.892823 15:-0.888185 16:-0.886207 17:-0.840992 18:-0.890837 19:-0.917857 20:-0.852643 21:-0.909408 22:-0.920964 23:0.775334 24:0.953096 25:0.923404 26:-0.9757 27:-0.826053 28:-0.908539 29:0.775345 30:0.26513 31:0.438348 32:-0.417532 33:-0.729736 34:-0.919567 35:0.623542 36:0.323115 37:-0.345345 38:-0.325829 39:-0.759964 40:-0.628821 41:-0.621907 42:-0.448145 43:-0.469411 44:-0.515094 45:-0.726807 46:-0.645243 47:-0.340094 48:-0.738803 49:-0.920115 50:0.744793 51:0.788028 52:0.975242 53:0.0506853 54:-0.520645 55:-0.653385 56:-0.467065 57:-0.400267 58:-0.0205835 59:0.615628 60:0.606345 61:-0.227087 62:0.0522085 63:-0.0654309 64:0.719188 
0.312604353487285 0.334429682541714 0 0 1:-0.16669 2:-0.332819 3:0.585061 4:0.289409 5:0.254628 6:-0.0841719 7:-0.325345 8:0.442297 9:-0.570788 10:-0.0755424 11:-0.204261 12:0.0853503 13:-0.658703 14:0.246428 15:-0.133953 16:0.0238997 17:0.238416 18:-0.118295 19:-0.320931 20:0.232752 21:0.000863945 22:-0.447728 23:0.416687 24:0.246287 25:0.525193 26:0.11748 27:-0.251079 28:-0.361629 29:0.815234 30:-0.128902 31:0.45782 32:0.491072 33:-0.0112426 34:0.551653 35:-0.320244 36:0.0110402 37:-0.469367 38:-0.31269 39:-0.861053 40:-0.534593 41:0.218844 42:0.965747 43:0.708307 44:0.215459 45:0.0430932 46:0.484715 47:1 48:0.061532 49:0.410579 50:-0.992373 51:-0.29049 52:-0.236102 53:0.521836 54:-0.136086 55:-0.00097185 56:-0.676735 57:-0.61188 58:-0.279208 59:0.784775 60:0.686193 61:0.500035 62:0.277862 63:0.182138 64:0.0141868 
0 0.2562992525516974 0.01357980452207961 0 1:-0.170652 2:-0.170445 3:-0.0045728 4:0.552757 5:0.226217 6:-0.198432 7:-0.117996 8:0.481575 9:-0.808448 10:-0.150332 11:-0.0866555 12:0.522417 13:-0.403952 14:0.220453 15:-0.0476412 16:0.0992791 17:0.209022 18:-0.243291 19:-0.103015 20:0.261611 21:-0.190003 22:-0.224134 23:0.405216 24:0.206484 25:0.292239 26:0.14487 27:-0.718683 28:-0.166311 29:0.212476 30:-0.228192 31:1 32:0.095637 33:-0.417666 34:0.994667 35:0.770814 36:-0.021868 37:-0.51921 38:0.120398 39:-0.919704 40:-0.440589 41:0.638805 42:-0.030685 43:0.696507 44:-0.0671044 45:-0.261881 46:1 47:0.38247 48:-0.441328 49:0.724361 50:0.26606 51:0.182172 52:-0.480081 53:0.802359 54:-0.570975 55:0.212828 56:-0.40059 57:-0.0421506 58:-0.246501 59:0.310635 60:0.0487283 61:0.498435 62:-0.430397 63:-0.246003 64:-0.721164 
0 0.2361446017576006 0 0.2719928855212491 1:-0.435094 2:-0.375298 3:0.193809 4:0.109875 5:-0.363589 6:-0.198752 7:-0.285892 8:-0.174656 9:-0.652104 10:-0.0618683 11:-0.862761 12:0.265667 13:-0.364489 14:-0.09479 15:-0.476686 16:-0.218265 17:-0.367331 18:-0.249398 19:-0.286665 20:-0.477324 21:-0.117741 22:-0.330087 23:0.525602 24:0.266487 25:0.424926 26:-0.706566 27:-0.458709 28:-0.22747 29:0.506047 30:-0.311379 31:0.596376 32:0.293486 33:-0.179081 34:0.658739 35:0.339984 36:0.0435748 37:-0.931134 38:-0.497877 39:-0.897562 40:0.807718 41:0.0817743 42:0.912464 43:0.642427 44:0.0496189 45:-0.033267 46:0.607968 47:0.591815 48:-0.13911 49:1 50:-0.109416 51:-0.0748899 52:-1 53:0.762831 54:-0.284144 55:-0.0391966 56:-0.40263 57:-0.132886 58:-0.121812 59:0.392247 60:0.413916 61:0.908279 62:-0.612981 63:-0.560128 64:-0.740181 
1.469643907502703 0 0 0 1:0.876539 2:-0.82794 3:0.787089 4:0.470862 5:-0.207766 6:-0.542149 7:-0.372079 8:-0.685251 9:0.437865 10:0.260733 11:0.136433 12:-0.490075 13:-0.0189951 14:-0.282412 15:-0.244771 16:-0.235529 17:-0.161398 18:-0.500971 19:-0.357133 20:-0.256527 21:-0.606223 22:-0.358258 23:-0.023293 24:0.935975 25:0.554381 26:-0.89638 27:-0.231591 28:-0.111136 29:0.586336 30:-0.141342 31:0.746075 32:-0.00763146 33:-0.487796 34:-0.33751 35:0.724515 36:0.0528618 37:-0.702864 38:-0.231367 39:-0.901045 40:0.142898 41:-0.251961 42:-0.187203 43:0.0502127 44:-0.196866 45:-0.359723 46:-0.159557 47:0.0445491 48:-0.475094 49:-0.239295 50:0.536521 51:0.296191 52:0.366644 53:0.501434 54:-0.5226 55:-0.303531 56:-0.199866 57:0.190494 58:0.971819 59:0.145154 60:-0.193321 61:-0.947368 62:-0.203685 63:-0.434826 64:-0.740123 
0 0.3535662667514128 0.01210285992709028 0.3191225708048921 1:-0.137435 2:-0.300471 3:0.22192 4:-0.468822 5:0.294527 6:0.0421019 7:0.267664 8:0.152804 9:-0.496849 10:-0.559477 11:-0.527973 12:-0.371031 13:-0.00577957 14:0.520012 15:0.144131 16:0.387647 17:0.277028 18:-0.015243 19:0.273841 20:0.339719 21:-0.0993322 22:0.111655 23:0.0793462 24:0.210449 25:-0.327375 26:-0.036335 27:-0.524133 28:-0.252808 29:0.353618 30:-0.257804 31:-0.144803 32:0.206791 33:-0.366842 34:0.880315 35:0.24288 36:-0.118557 37:-0.445231 38:-0.699358 39:-0.929165 40:-0.591899 41:0.277384 42:0.308278 43:0.607188 44:-0.00545036 45:-0.207927 46:0.738406 47:0.342992 48:-0.438817 49:0.724721 50:-0.0132004 51:0.0997668 52:-0.740266 53:0.429391 54:-0.644271 55:-0.160998 56:-0.367694 57:-0.226202 58:-0.189987 59:0.292711 60:0.170993 61:0.610129 62:0.10391 63:0.280513 64:0.0418642 
0.3953442696476689 0.5506224624532458 0.2851680401330397 0 1:-0.145864 2:-0.396347 3:0.172869 4:0.166004 5:0.535278 6:0.0683224 7:0.0379429 8:0.460658 9:-0.296816 10:0.276822 11:0.029947 12:-0.407218 13:-0.559777 14:0.404075 15:-0.033089 16:0.34637 17:0.516453 18:0.0101934 19:0.0379804 20:0.749882 21:0.0934707 22:-0.173356 23:-0.0235685 24:0.194506 25:0.472361 26:0.405018 27:-0.155432 28:0.206132 29:0.561893 30:-0.253072 31:0.40233 32:0.124073 33:-0.365664 34:0.892317 35:0.177928 36:0.0325595 37:-0.554533 38:-0.632708 39:-0.977473 40:-0.380286 41:0.447043 42:0.350381 43:0.592357 44:-0.0896926 45:-0.209398 46:0.78481 47:0.392974 48:-0.417888 49:0.824757 50:-0.164564 51:0.213268 52:-0.776277 53:0.352885 54:-0.500611 55:-0.0327179 56:-0.667466 57:-0.0465682 58:-0.16023 59:0.663395 60:0.159727 61:0.526887 62:-0.20338 63:-0.381665 64:-0.486152 
0 1.278283517198084 1.064842191672438 1.328305058141117 1:0.882695 2:-0.60716 3:0.854617 4:0.442514 5:-0.153058 6:-0.55167 7:-0.516359 8:-0.50337 9:0.33633 10:0.0782167 11:-0.109431 12:-0.702311 13:-0.113437 14:-0.27413 15:-0.353354 16:-0.300896 17:-0.142189 18:-0.490584 19:-0.499345 20:-0.08939 21:-0.651459 22:-0.507818 23:0.0172644 24:0.947896 25:0.632604 26:-0.645089 27:-0.302997 28:-0.351036 29:0.641078 30:0.150958 31:0.759694 32:-0.243071 33:-0.315281 34:-0.138486 35:0.428192 36:0.0168751 37:-0.687364 38:-0.329884 39:-0.833203 40:0.150158 41:-0.173431 42:-0.210276 43:0.0371828 44:-0.387444 45:-0.310926 46:-0.0103446 47:-0.0119522 48:-0.28115 49:0.0187117 50:0.415664 51:0.284271 52:0.142021 53:0.270641 54:-0.194234 55:-0.162294 56:-0.0738791 57:0.700781 58:0.967495 59:0.18117 60:-0.313406 61:-0.715014 62:-0.269332 63:-0.689762 64:-0.721826 
0.2216434838671227 0.3474208802335285 0.5235447682317826 0.4576413847853495 1:-0.0589468 2:0.459621 3:0.150415 4:-0.218536 5:1 6:0.120931 7:0.680251 8:0.568035 9:-0.528564 10:-0.684203 11:0.0494115 12:-0.148138 13:0.382534 14:0.789738 15:0.759505 16:0.916706 17:1 18:0.0614696 19:0.680633 20:1 21:0.108217 22:0.563677 23:0.289909 24:0.0707507 25:-0.846475 26:1 27:-0.353423 28:0.0742486 29:0.297433 30:-0.0382355 31:-0.416512 32:0.289001 33:0.0246388 34:1 35:-0.006344 36:-0.254129 37:-0.445352 38:-0.404412 39:-0.737627 40:-0.627445 41:0.349049 42:1 43:0.805073 44:0.0680063 45:0.0511288 46:0.862536 47:0.822528 48:0.0495325 49:0.764304 50:-0.727779 51:-0.525784 52:-0.811389 53:0.496972 54:-0.37894 55:-0.192096 56:-0.5665 57:-0.518324 58:-0.261308 59:0.815565 60:0.567057 61:0.705306 62:0.13935 63:0.378524 64:-0.00786976 
0.9703555219282609 0 0 0 1:-0.0761424 2:0.0963227 3:0.317408 4:0.270982 5:-0.0548412 6:-0.615875 7:-0.0755701 8:0.799912 9:-0.458127 10:-0.372345 11:0.529565 12:-0.393272 13:-0.140713 14:0.0745999 15:-0.117069 16:-0.0386311 17:-0.0560307 18:-0.650197 19:-0.0730531 20:-0.0203938 21:-0.657399 22:-0.187809 23:0.70839 24:0.695599 25:0.124383 26:0.0427099 27:-0.78098 28:-0.317627 29:0.513176 30:0.164848 31:-0.235523 32:0.0839179 33:-0.248965 34:-0.499758 35:0.291912 36:0.294982 37:-0.336529 38:-0.222219 39:-0.627222 40:-0.756728 41:-0.315178 42:-0.0413891 43:0.0396617 44:-0.119957 45:-0.25017 46:-0.538459 47:0.60268 48:-0.175108 49:-0.562073 50:-0.26254 51:0.355792 52:0.468377 53:0.615556 54:0.058881 55:-0.738257 56:-0.395978 57:-0.538754 58:-0.383147 59:0.413658 60:0.376971 61:0.66189 62:-0.00118116 63:0.316571 64:-0.238392 
1.55091062351818 0 0 0 1:-0.15492 2:-0.327267 3:0.280215 4:0.470637 5:-0.874241 6:-0.897744 7:-0.684624 8:0.215492 9:-0.0513798 10:0.458818 11:-0.737564 12:-0.710084 13:-0.466216 14:-0.625192 15:-0.814678 16:-0.724346 17:-0.865731 18:-0.921695 19:-0.655614 20:-0.892924 21:-0.898524 22:-0.743682 23:0.916413 24:0.918606 25:0.882555 26:-0.905612 27:-0.867244 28:-0.551139 29:0.702695 30:0.438526 31:-0.120378 32:-0.363331 33:-0.636519 34:-0.741382 35:-0.424403 36:0.223037 37:-0.435067 38:0.127889 39:-0.678815 40:-0.502294 41:-0.60682 42:-0.454329 43:-0.442184 44:-0.481227 45:-0.640024 46:-0.771924 47:-0.0195581 48:-0.597042 49:-0.745592 50:0.0407744 51:0.690075 52:0.668242 53:-0.150143 54:-0.364769 55:-0.781017 56:-0.697431 57:-0.311919 58:-0.489993 59:0.485711 60:0.1054 61:0.0910712 62:-0.755353 63:-0.253319 64:-0.921169 
2.527659233046037 0 0 0 1:-0.376747 2:-0.547005 3:0.176681 4:-0.0654575 5:-0.735511 6:-0.557121 7:-0.427442 8:0.0108319 9:-0.686514 10:-0.606092 11:-0.73017 12:0.251337 13:0.199725 14:-0.373844 15:-0.542471 16:-0.472533 17:-0.694567 18:-0.597588 19:-0.429206 20:-0.743971 21:-0.540538 22:-0.483188 23:0.743235 24:0.573578 25:0.37562 26:-0.862949 27:-0.764906 28:-0.655211 29:0.691067 30:0.355644 31:-0.417412 32:-0.100492 33:-0.39763 34:-0.328438 35:-0.28575 36:-0.189915 37:-0.325959 38:-0.368271 39:-0.631928 40:-0.742539 41:-0.378772 42:-0.036156 43:-0.083578 44:-0.270195 45:-0.411945 46:-0.351023 47:0.187251 48:-0.298451 49:-0.395466 50:-0.199179 51:0.186318 52:0.275715 53:-0.0468601 54:-0.316883 55:-0.715581 56:-0.829627 57:-0.686019 58:0.0680042 59:0.800942 60:0.635789 61:0.253294 62:0.697714 63:0.742019 64:-0.194788 
1.684591446535839 0 0 0 1:-0.0558299 2:0.0791472 3:0.216871 4:0.076194 5:-0.219773 6:-0.758106 7:-0.528635 8:0.910031 9:-0.343462 10:-0.320327 11:0.758987 12:-0.51982 13:-0.213398 14:-0.474366 15:-0.412845 16:-0.391773 17:-0.21782 18:-0.792732 19:-0.529875 20:-0.249842 21:-0.772231 22:-0.574406 23:0.885945 24:0.803869 25:0.549382 26:-0.100272 27:-0.818248 28:-0.624051 29:0.544154 30:0.461955 31:-0.00241994 32:-0.379185 33:-0.442172 34:-0.535477 35:0.300506 36:0.107305 37:-0.252009 38:-0.334304 39:-0.751397 40:-0.896609 41:-0.487855 42:-0.301855 43:-0.299808 44:-0.49546 45:-0.449283 46:-0.574875 47:-0.118073 48:-0.388866 49:-0.644476 50:0.300675 51:0.541332 52:0.637632 53:-0.0411221 54:-0.140484 55:-0.643019 56:-0.232979 57:-0.221068 58:-0.282019 59:0.53255 60:0.109717 61:0.237379 62:0.0468715 63:0.497891 64:-0.409008 
3.66801617282 0 0.4465356512721283 0 1:-0.742863 2:-0.217795 3:0.14906 4:0.116009 5:-0.721532 6:-0.669666 7:-0.715092 8:-0.139521 9:-0.642977 10:0.259944 11:-0.292978 12:0.186291 13:-0.62061 14:-0.666103 15:-0.766217 16:-0.692554 17:-0.725446 18:-0.706355 19:-0.714695 20:-0.671387 21:-0.649499 22:-0.777638 23:0.720388 24:0.671706 25:0.851435 26:-0.788859 27:-0.808771 28:-0.674427 29:0.547889 30:0.347554 31:-0.110586 32:-0.239491 33:-0.641413 34:-0.669363 35:-0.204102 36:0.00546522 37:-0.44796 38:-0.455416 39:-0.753593 40:-0.584383 41:-0.513881 42:-0.364653 43:-0.364206 44:-0.383007 45:-0.650293 46:-0.705069 47:-0.0315103 48:-0.58281 49:-0.690896 50:0.0583748 51:0.571392 52:0.605222 53:-0.152056 54:-0.451747 55:-0.773243 56:-0.0179716 57:0.103098 58:0.0239124 59:0.765038 60:0.591523 61:0.30607 62:-0.195298 63:-0.149988 64:-0.532552 
0.2475428956966237 0 0 0 1:-0.0633158 2:0.183825 3:0.10213 4:0.0345161 5:0.174682 6:-0.514442 7:-0.285906 8:0.710543 9:-0.5107 10:-0.373788 11:0.364058 12:-0.355982 13:-0.179202 14:-0.148535 15:-0.12677 16:-0.0594294 17:0.174431 18:-0.554189 19:-0.287529 20:0.266002 21:-0.558889 22:-0.3633 23:0.526229 24:0.607152 25:0.309108 26:0.255356 27:-0.740824 28:-0.468266 29:0.487885 30:0.0966954 31:-0.263887 32:-0.121664 33:-0.384257 34:-0.100678 35:0.378453 36:-0.235474 37:-0.324441 38:-0.462811 39:-0.758847 40:-0.800253 41:-0.38707 42:-0.270932 43:-0.00246457 44:-0.283639 45:-0.36326 46:-0.168099 47:0.0807678 48:-0.31966 49:-0.234977 50:0.263127 51:0.121016 52:0.2316 53:0.26809 54:-0.415588 55:-0.49012 56:-0.498846 57:-0.541583 58:-0.331407 59:0.515287 60:0.171134 61:0.36911 62:0.207296 63:0.523657 64:-0.346822 
0.08094502151947075 0 0 0 1:-0.659427 2:-0.238091 3:0.180451 4:0.268766 5:-0.90619 6:-0.784201 7:-0.627222 8:-0.465971 9:-0.438131 10:0.115883 11:-0.59051 12:-0.0635419 13:-0.694325 14:-0.484935 15:-0.881068 16:-0.691056 17:-0.906736 18:-0.818253 19:-0.619899 20:-0.937827 21:-0.754219 22:-0.705628 23:0.889946 24:0.787051 25:0.7712 26:-0.98661 27:-0.8121 28:-0.618859 29:0.559431 30:0.333893 31:0.100343 32:-0.134244 33:-0.655797 34:-0.639155 35:0.215051 36:-0.0112711 37:-0.210627 38:-0.658552 39:-0.813452 40:-0.664225 41:-0.357272 42:-0.463606 43:-0.295783 44:-0.298524 45:-0.663905 46:-0.649477 47:0.0318725 48:-0.62718 49:-0.610291 50:0.249047 51:0.633066 52:0.643034 53:0.16672 54:-0.471292 55:-0.573696 56:-0.322928 57:-0.408418 58:0.518184 59:0.448169 60:-0.0206167 61:0.398654 62:0.21973 63:0.59263 64:-0.534842 
3.66801617282 0 0 0 1:-0.0735753 2:-0.124703 3:0.286866 4:0.479263 5:-0.906324 6:-0.89344 7:-0.662125 8:-0.0173462 9:0.226536 10:0.205193 11:-0.617941 12:-0.899646 13:-0.645353 14:-0.546878 15:-0.846447 16:-0.713178 17:-0.901192 18:-0.916679 19:-0.633867 20:-0.897375 21:-0.928531 22:-0.727245 23:0.921551 24:0.954571 25:0.81517 26:-0.90692 27:-0.862819 28:-0.607544 29:0.624867 30:0.404335 31:-0.133772 32:-0.276728 33:-0.784827 34:-0.801485 35:0.0261002 36:0.0486085 37:-0.443387 38:-0.486476 39:-0.646847 40:-0.582941 41:-0.505809 42:-0.495481 43:-0.461957 44:-0.41495 45:-0.787709 46:-0.827111 47:-0.00108657 48:-0.734617 49:-0.809284 50:0.135817 51:0.77248 52:0.717758 53:-0.014345 54:-0.527975 55:-0.824425 56:-0.767469 57:0.471542 58:-0.113334 59:0.439611 60:-0.00603228 61:-0.461216 62:-0.489153 63:0.409716 64:-0.827788 
0.8066623068936996 0 0 0 1:-0.491024 2:-0.32804 3:0.297578 4:0.504095 5:-0.793014 6:-0.647189 7:-0.580295 8:0.0392853 9:-0.860337 10:0.277782 11:-0.474726 12:0.651145 13:-0.713897 14:-0.390787 15:-0.811932 16:-0.598199 17:-0.788751 18:-0.681703 19:-0.554715 20:-0.779911 21:-0.648514 22:-0.690382 23:0.819525 24:0.64623 25:0.827082 26:-0.84336 27:-0.853764 28:-0.504497 29:0.490431 30:0.220331 31:-0.312623 32:0.121867 33:-0.590633 34:-0.550029 35:0.245187 36:-0.00466315 37:-0.341014 38:-0.572548 39:-0.755342 40:-0.793652 41:-0.194855 42:-0.34372 43:-0.0950958 44:-0.0878628 45:-0.585911 46:-0.570271 47:0.382832 48:-0.530068 49:-0.63584 50:-0.0478147 51:0.468256 52:0.531398 53:0.461906 54:-0.456633 55:-0.780369 56:-0.790522 57:-0.431497 58:-0.134631 59:0.494018 60:0.146498 61:0.350236 62:-0.0904251 63:0.27575 64:-0.764078 
3.66801617282 3.66801617282 3.66801617282 3.66801617282 1:-0.935347 2:-0.276654 3:0.224312 4:0.197312 5:-0.8629 6:-0.895991 7:-0.797168 8:-0.287642 9:0.434615 10:-0.042001 11:-0.842411 12:-0.473787 13:-0.687205 14:-0.731731 15:-0.919629 16:-0.824031 17:-0.861617 18:-0.926088 19:-0.790278 20:-0.904369 21:-0.910086 22:-0.846738 23:0.875604 24:0.950546 25:0.878999 26:-0.955759 27:-0.83216 28:-0.797339 29:0.710588 30:0.456842 31:-0.0585852 32:-0.543509 33:-0.728344 34:-0.795532 35:0.23582 36:0.04705 37:0.170006 38:-0.659636 39:-0.684653 40:-0.750331 41:-0.669357 42:-0.564462 43:-0.588913 44:-0.624696 45:-0.724478 46:-0.820295 47:-0.447302 48:-0.674341 49:-0.784095 50:0.630977 51:0.754859 52:0.799685 53:-0.261715 54:-0.439042 55:-0.66116 56:0.0439431 57:0.0122639 58:0.321807 59:0.238809 60:0.0762338 61:-0.213742 62:-0.155507 63:0.21348 64:-0.0941098 
0 1.164972339048344 2.476842536000783 2.482420767050033 1:-0.120902 2:-0.256013 3:0.29165 4:0.279797 5:-0.736319 6:-0.87207 7:-0.90668 8:0.159446 9:-0.289101 10:0.234102 11:-0.702022 12:-0.496529 13:-0.80224 14:-0.737773 15:-0.895616 16:-0.822338 17:-0.739126 18:-0.89625 19:-0.878344 20:-0.762604 21:-0.88222 22:-0.934187 23:0.847026 24:0.885669 25:0.96964 26:-0.797157 27:-0.894376 28:-0.874389 29:0.470062 30:0.095627 31:0.151106 32:-0.564911 33:-0.610354 34:-0.601633 35:-0.242111 36:-0.0192774 37:-0.407503 38:-0.620567 39:-0.82568 40:-0.690428 41:-0.559369 42:-0.443625 43:-0.446818 44:-0.633744 45:-0.566429 46:-0.603296 47:-0.497284 48:-0.595926 49:-0.678302 50:0.437372 51:0.441306 52:0.657439 53:-0.560089 54:-0.597361 55:-0.675413 56:-0.878905 57:-0.880593 58:-0.408343 59:0.890816 60:0.840111 61:0.450785 62:-0.105174 63:0.1419 64:-0.503313 
3.66801617282 3.66801617282 3.66801617282 3.66801617282 1:0.846347 2:-0.254667 3:0.337014 4:0.136419 5:-0.828619 6:-0.879248 7:-0.892998 8:-0.258817 9:0.114054 10:0.39981 11:-0.728647 12:-0.866708 13:-0.478737 14:-0.829238 15:-0.880295 16:-0.867609 17:-0.829802 18:-0.894434 19:-0.887362 20:-0.860429 21:-0.907374 22:-0.912518 23:0.823657 24:0.948208 25:0.960335 26:-0.943919 27:-0.830876 28:-0.836776 29:0.600255 30:0.198809 31:0.470876 32:-0.861867 33:-0.859193 34:-0.908863 35:0.469096 36:0.638437 37:0.0370903 38:-0.506969 39:-0.046866 40:-0.85785 41:-0.645972 42:-0.837298 43:-0.689129 44:-0.88839 45:-0.816996 46:-0.620386 47:-0.853314 48:-0.841775 49:-0.914718 50:0.89381 51:0.859031 52:1 53:-0.690787 54:-0.634009 55:-0.608034 56:-0.475444 57:-0.720937 58:0.390969 59:0.381669 60:0.647689 61:-0.409494 62:0.0731554 63:0.316102 64:-0.184957 
3.644777070834273 0 0 0 1:-0.0148555 2:-0.208951 3:0.317391 4:0.224944 5:-0.571098 6:-0.836947 7:-0.779596 8:-0.0456774 9:0.197265 10:0.288855 11:-0.806523 12:-0.86118 13:-0.695195 14:-0.532179 15:-0.821513 16:-0.689789 17:-0.57717 18:-0.859904 19:-0.771014 20:-0.623728 21:-0.867598 22:-0.829348 23:0.722065 24:0.920882 25:0.903925 26:-0.725768 27:-0.799183 28:-0.721546 29:0.465478 30:0.141571 31:0.219652 32:-0.589467 33:-0.724618 34:-0.484245 35:0.314105 36:0.310278 37:-0.281901 38:-0.614801 39:-0.571549 40:-0.860857 41:-0.529949 42:-0.60942 43:-0.467904 44:-0.651869 45:-0.682174 46:-0.483685 47:-0.49837 48:-0.672387 49:-0.606333 50:0.592256 51:0.650168 52:0.641233 53:-0.393688 54:-0.534327 55:-0.569161 56:-0.912357 57:-0.804873 58:-0.17994 59:0.912189 60:0.867806 61:0.160008 62:-0.10743 63:0.076388 64:-0.69027 
3.66801617282 0 0 0 1:0.00133223 2:-0.187058 3:0.412625 4:0.377108 5:-0.713076 6:-0.897581 7:-0.858708 8:-0.0125051 9:0.280571 10:0.257508 11:-0.575026 12:-0.800499 13:-0.784224 14:-0.73117 15:-0.854383 16:-0.783832 17:-0.716953 18:-0.888962 19:-0.822038 20:-0.693614 21:-0.932406 22:-0.906774 23:0.763123 24:0.974804 25:0.964121 26:-0.780596 27:-0.833473 28:-0.818002 29:0.519032 30:0.218881 31:0.234059 32:-0.760278 33:-0.700632 34:-0.771188 35:0.398099 36:0.297925 37:-0.465128 38:-0.466549 39:-0.83987 40:-0.49887 41:-0.657061 42:-0.753568 43:-0.626171 44:-0.795567 45:-0.688309 46:-0.702029 47:-0.696487 48:-0.734059 49:-0.789133 50:0.712526 51:0.762115 52:0.796534 53:-0.611731 54:-0.53677 55:-0.674765 56:-0.905398 57:-0.61217 58:-0.189036 59:0.901834 60:0.826749 61:0.0195957 62:-0.0282565 63:0.393233 64:-0.828344 
1.507596386061832 0 2.099941000009558 0 1:0.864881 2:-0.2307 3:0.295541 4:0.118787 5:-0.730313 6:-0.854261 7:-0.87568 8:-0.403483 9:0.433812 10:-0.457402 11:-0.554341 12:-0.536624 13:-0.445239 14:-0.764276 15:-0.872582 16:-0.814498 17:-0.733939 18:-0.879153 19:-0.872448 20:-0.766949 21:-0.87525 22:-0.912182 23:0.732864 24:0.939887 25:0.895069 26:-0.901649 27:-0.779902 28:-0.927881 29:0.564014 30:0.0786843 31:0.658619 32:-0.779712 33:-0.821654 34:-0.766579 35:0.664392 36:0.631475 37:-0.0926071 38:-0.308662 39:-0.14758 40:-0.964189 41:-0.520142 42:-0.763559 43:-0.535202 44:-0.818919 45:-0.721897 46:-0.449374 47:-0.780514 48:-0.802149 49:-0.804606 50:0.879143 51:0.782327 52:0.97074 53:-0.578578 54:-0.636941 55:-0.451895 56:-0.907333 57:-0.965334 58:0.195094 59:0.896959 60:0.970167 61:-0.170938 62:-0.353318 63:-0.252611 64:-0.425825 
0 0.91502295815791 0.808290865414396 0 1:-0.0327543 2:0.176295 3:0.33802 4:-0.343636 5:-0.296406 6:-0.847365 7:-0.54069 8:0.52745 9:0.040397 10:-0.839926 11:-0.173671 12:-0.682081 13:0.641506 14:-0.410455 15:-0.459586 16:-0.428264 17:-0.280986 18:-0.865939 19:-0.532575 20:-0.285583 21:-0.851307 22:-0.603452 23:0.716656 24:0.902361 25:0.427167 26:-0.293114 27:-0.799728 28:-0.864103 29:0.539147 30:0.127604 31:0.150318 32:-0.659565 33:-0.751255 34:-0.512227 35:0.278024 36:0.349236 37:-0.376763 38:-0.853808 39:-0.759604 40:-0.741036 41:-0.568271 42:-0.671028 43:-0.525595 44:-0.719949 45:-0.69769 46:-0.526424 47:-0.684172 48:-0.771732 49:-0.599496 50:0.775301 51:0.733091 52:0.592167 53:-0.521836 54:-0.6301 55:-0.62747 56:-0.307348 57:-0.381568 58:-0.428029 59:0.67593 60:0.667206 61:0.539072 62:-0.134863 63:0.0843438 64:0.068215 
0 0.0737330874812468 0 0 1:0.905696 2:-0.209801 3:0.465013 4:0.128044 5:-0.775283 6:-0.919058 7:-0.837069 8:-0.592859 9:0.302485 10:0.0860002 11:0.00642976 12:-0.727325 13:-0.550758 14:-0.792612 15:-0.835503 16:-0.816269 17:-0.778468 18:-0.884904 19:-0.834298 20:-0.783949 21:-0.940424 22:-0.859525 23:0.719016 24:0.985236 25:0.899557 26:-0.93563 27:-0.830773 28:-0.798324 29:0.597624 30:0.419064 31:0.461422 32:-0.671808 33:-0.748511 34:-0.887112 35:0.540982 36:0.528541 37:0.0818666 38:-0.391252 39:-0.412284 40:-0.804618 41:-0.652308 42:-0.582303 43:-0.598882 44:-0.734636 45:-0.750659 46:-0.620778 47:-0.620065 48:-0.733222 49:-0.881612 50:0.797008 51:0.867841 52:0.987396 53:-0.3854 54:-0.435622 55:-0.566569 56:-0.690508 57:-0.711056 58:-0.465488 59:0.951526 60:0.849162 61:0.406142 62:-0.220701 63:0.0864301 64:-0.106695 
0 0.3411952010397927 1.370358935472343 0.1740048228553515 1:-0.0940443 2:-0.167927 3:0.183493 4:0.312349 5:-0.357709 6:-0.781511 7:-0.674413 8:-0.0251851 9:-0.214928 10:0.0945414 11:-0.745364 12:-0.683642 13:-0.711189 14:-0.304663 15:-0.72817 16:-0.531207 17:-0.36648 18:-0.815676 19:-0.662446 20:-0.391626 21:-0.807678 22:-0.738935 23:0.533539 24:0.837943 25:0.794024 26:-0.588855 27:-0.828547 28:-0.664677 29:0.224698 30:0.452034 31:-0.182171 32:-0.214967 33:-0.715063 34:-0.242874 35:-0.182825 36:0.409472 37:-0.351202 38:-0.680239 39:-0.641543 40:-0.749861 41:-0.415812 42:-0.271884 43:-0.204293 44:-0.305816 45:-0.712931 46:-0.305809 47:-0.0880116 48:-0.724013 49:-0.335372 50:-0.0255207 51:0.88909 52:0.309476 53:-0.342684 54:-0.399462 55:-0.558795 56:-0.529138 57:-0.72974 58:-0.241723 59:0.828926 60:0.652089 61:0.634358 62:0.219524 63:0.680414 64:-0.10283 
0.202509578850229 0 0 0 1:-0.0282259 2:0.433971 3:1 4:-0.204954 5:0.251289 6:-0.67214 7:0.163461 8:0.698061 9:-0.119684 10:-0.811726 11:0.351375 12:-0.467552 13:0.594102 14:0.171272 15:0.178185 16:0.248258 17:0.274478 18:-0.53053 19:0.16355 20:0.343125 21:-0.648238 22:0.0158404 23:0.538488 24:0.851921 25:-0.339006 26:0.36572 27:-0.473507 28:-0.493429 29:0.410227 30:0.332367 31:0.0182903 32:-0.135655 33:-0.400337 34:-0.250699 35:0.25232 36:-0.21974 37:-0.596638 38:-0.608204 39:-0.429283 40:-0.231687 41:-0.265993 42:-0.0991913 43:-0.079685 44:-0.28549 45:-0.41422 46:-0.31007 47:0.110829 48:-0.243756 49:-0.231378 50:0.0349076 51:0.0951024 52:0.155526 53:0.0729996 54:-0.30711 55:-0.593132 56:-0.141685 57:-0.756429 58:-0.200086 59:0.420868 60:0.841067 61:0.443894 62:0.102338 63:0.756101 64:0.313753 
0 0 0 1.048761206167907 1:0.981524 2:-0.420204 3:0.343216 4:0.428302 5:-0.540352 6:-0.912924 7:-0.598431 8:-0.62973 9:0.237173 10:0.427623 11:-0.150196 12:-0.588792 13:-0.549663 14:-0.44702 15:-0.668297 16:-0.568005 17:-0.535487 18:-0.921358 19:-0.579351 20:-0.60401 21:-0.918545 22:-0.720875 23:0.457958 24:0.958566 25:0.875202 26:-0.929 27:-0.834825 28:-0.508115 29:0.666624 30:0.521178 31:0.224154 32:-0.363528 33:-0.717164 34:-0.710294 35:0.507345 36:0.523906 37:-0.44985 38:-0.519762 39:-0.505309 40:-0.201532 41:-0.532966 42:-0.345385 43:-0.442149 44:-0.483911 45:-0.696361 46:-0.663858 47:-0.271279 48:-0.730152 49:-0.63728 50:0.626283 51:0.940399 52:0.674994 53:0.0430347 54:-0.361837 55:-0.576288 56:0.0307914 57:-0.270589 58:0.648533 59:0.599615 60:0.696519 61:0.100441 62:-0.300252 63:0.158982 64:-0.736456 
0 0 0.4888409983670622 0 1:-0.160653 2:-0.215573 3:0.161946 4:0.15683 5:-0.336025 6:-0.638753 7:-0.505029 8:0.0535263 9:-0.230768 10:0.0529738 11:-0.719776 12:-0.213266 13:-0.658296 14:-0.279604 15:-0.603144 16:-0.420625 17:-0.345414 18:-0.676678 19:-0.50435 20:-0.39236 21:-0.57352 22:-0.594318 23:0.570037 24:0.69934 25:0.65445 26:-0.558194 27:-0.600868 28:-0.522723 29:0.370677 30:0.302526 31:-0.171028 32:0.27881 33:-0.304515 34:-0.214402 35:0.0311957 36:-0.0103813 37:-0.433773 38:-0.660567 39:-0.70292 40:-0.658097 41:-0.0636693 42:0.22883 43:0.180756 44:0.0497353 45:-0.319379 46:-0.279897 47:0.501992 48:-0.182364 49:-0.312702 50:-0.382224 51:0.220523 52:0.246455 53:0.308256 54:-0.0813584 55:-0.608682 56:-0.542864 57:-0.620661 58:-0.282443 59:0.53487 60:0.587219 61:0.493634 62:-0.0535659 63:0.16503 64:-0.232473 
3.481914070509542 0 0 1.08125816176307 1:0.827228 2:-0.145521 3:0.244094 4:0.0726399 5:-0.823422 6:-0.861447 7:-0.969338 8:-0.244265 9:0.344453 10:-0.655682 11:-0.798592 12:-0.642766 13:0.204252 14:-0.816055 15:-0.934622 16:-0.894982 17:-0.823583 18:-0.891515 19:-0.96549 20:-0.869339 21:-0.890955 22:-0.969727 23:0.858893 24:0.939461 25:0.95193 26:-0.924925 27:-0.813116 28:-0.982503 29:0.640059 30:0.338091 31:0.0594856 32:-0.918361 33:-0.945664 34:-0.847456 35:0.675427 36:-0.0146967 37:0.177971 38:0.19171 39:-0.424686 40:-0.940874 41:-0.887749 42:-0.909372 43:-0.872077 44:-0.932502 45:-0.946167 46:-0.835757 47:-0.875045 48:-0.923538 49:-0.890608 50:0.929011 51:0.90412 52:0.896016 53:-0.690787 54:-0.734669 55:-0.714286 56:-0.484731 57:-0.289509 58:0.158246 59:0.524785 60:0.318132 61:-0.188926 62:-0.12299 63:-0.0511365 64:0.167837 
3.66801617282 3.66801617282 3.66801617282 3.66801617282 1:0.800188 2:-0.188647 3:0.24777 4:0.0707951 5:-0.88389 6:-0.890133 7:-0.994027 8:-0.345103 9:0.382159 10:0.0829995 11:-0.497986 12:-0.402592 13:-0.943833 14:-0.916802 15:-0.951981 16:-0.937564 17:-0.885208 18:-0.918657 19:-0.986575 20:-0.890161 21:-0.892885 22:-0.996564 23:0.865328 24:0.939323 25:0.996049 26:-0.946282 27:-0.817358 28:-0.983195 29:0.631827 30:0.324658 31:-0.00365805 32:-0.983189 33:-0.950814 34:-0.934542 35:-0.0885122 36:-0.482954 37:0.258313 38:-0.568154 39:-0.29736 40:-0.830322 41:-0.955115 42:-0.954805 43:-0.938992 44:-0.98473 45:-0.94779 46:-0.927726 47:-0.972474 48:-0.938328 49:-0.950342 50:0.955412 51:0.88028 52:0.911771 53:-0.833599 54:-0.783044 55:-0.799158 56:0.372528 57:0.641278 58:0.292297 59:-0.442987 60:-0.653104 61:-0.416096 62:-0.267707 63:-0.141245 64:-0.0953566 
2.871589198163962 3.37789381140403 2.297190124130835 3.66801617282 1:0.790619 2:-0.182143 3:0.25664 4:-0.00498209 5:-0.930257 6:-0.926797 7:-0.968888 8:-0.457029 9:0.493481 10:-0.724999 11:-0.132529 12:-0.0476438 13:0.381285 14:-0.972323 15:-0.941322 16:-0.962491 17:-0.930445 18:-0.952114 19:-0.971309 20:-0.917438 21:-0.922196 22:-0.966593 23:0.895904 24:0.955339 25:0.942248 26:-0.95508 27:-0.84832 28:-0.9888 29:0.606875 30:0.339541 31:-0.0644381 32:-0.979455 33:-0.947786 34:-0.967178 35:-0.120134 36:-0.151116 37:0.0457394 38:-0.809774 39:-0.385788 40:-0.911937 41:-0.967336 42:-0.969315 43:-0.960057 44:-0.983619 45:-0.948446 46:-0.976369 47:-0.978993 48:-0.926608 49:-0.97625 50:0.953652 51:0.889609 52:0.896016 53:-0.846988 54:-0.753726 55:-0.868481 56:0.0750899 57:0.635498 58:0.119431 59:-0.177058 60:-0.749908 61:-0.24845 62:0.188751 63:0.52504 64:-0.277421 
3.66801617282 0.9333519142130334 3.63191751014626 3.66801617282 1:0.786733 2:-0.173892 3:0.250506 4:0.0326641 5:-0.947037 6:-0.927079 7:-0.967844 8:-0.270002 9:0.099751 10:-0.320974 11:-0.445955 12:-0.676877 13:-0.545564 14:-0.983868 15:-0.965595 16:-0.968215 17:-0.94619 18:-0.953248 19:-0.968397 20:-0.942424 21:-0.931224 22:-0.971693 23:0.924853 24:0.944816 25:0.958623 26:-0.962324 27:-0.886387 28:-0.977679 29:0.635816 30:0.343891 31:-0.075356 32:-0.954816 33:-0.95738 34:-0.939462 35:0.467565 36:-0.514319 37:0.148567 38:-0.224176 39:0.0348449 40:-0.968518 41:-0.95685 42:-0.951475 43:-0.94835 44:-0.961928 45:-0.958344 46:-0.954338 47:-0.930098 48:-0.940003 49:-0.959698 50:0.948372 51:0.888572 52:0.892865 53:-0.766656 54:-0.778158 55:-0.843213 56:-0.639328 57:-0.19627 58:0.0070391 59:0.479046 60:0.0590265 61:-0.0922585 62:-0.82758 63:-0.563965 64:-0.282947 
3.66801617282 0 0 0 1:-0.0644893 2:-0.226249 3:0.207388 4:0.231059 5:-0.770695 6:-0.855506 7:-0.823194 8:0.0257301 9:0.17035 10:0.286157 11:-0.838879 12:-0.887447 13:-0.364097 14:-0.752768 15:-0.86363 16:-0.801981 17:-0.773804 18:-0.887497 19:-0.811783 20:-0.806429 21:-0.894885 22:-0.832238 23:0.861919 24:0.922321 25:0.894551 26:-0.840941 27:-0.852872 28:-0.741507 29:0.705495 30:0.445242 31:-0.11869 32:-0.765155 33:-0.775191 34:-0.650716 35:0.490095 36:0.203414 37:-0.322925 38:-0.516708 39:-0.697628 40:-0.720712 41:-0.774668 42:-0.680542 43:-0.668055 44:-0.800178 45:-0.771144 46:-0.68758 47:-0.735241 48:-0.735454 49:-0.693775 50:0.870343 51:0.789065 52:0.63043 53:-0.508448 54:-0.513804 55:-0.742144 56:-0.581601 57:-0.344522 58:-0.149638 59:0.471976 60:0.0393471 61:0.0959481 62:0.193128 63:0.247808 64:-0.774787 
3.66801617282 0.1464466795351695 0.2575943753125789 0 1:-0.0335012 2:-0.102511 3:0.132978 4:-0.110518 5:-0.583516 6:-0.82572 7:-0.634696 8:0.634066 9:0.2408 10:-0.798413 11:0.142914 12:-0.637886 13:0.519761 14:-0.639416 15:-0.633299 16:-0.617917 17:-0.58623 18:-0.856456 19:-0.635827 20:-0.571564 21:-0.834156 22:-0.682335 23:0.842576 24:0.889414 25:0.5624 26:-0.553931 27:-0.788212 28:-0.858321 29:0.561893 30:0.332672 31:-0.15921 32:-0.809103 33:-0.752827 34:-0.754828 35:0.0550053 36:-0.221909 37:-0.222361 38:-0.42272 39:-0.565799 40:-0.840041 41:-0.803033 42:-0.702902 43:-0.716712 44:-0.841951 45:-0.758532 46:-0.781743 47:-0.731257 48:-0.69834 49:-0.784095 50:0.723673 51:0.6227 52:0.719559 53:-0.660822 54:-0.605668 55:-0.776482 56:-0.693395 57:-0.635368 58:-0.37717 59:0.19011 60:-0.128492 61:0.215704 62:0.709538 63:0.747978 64:0.0315082 
0.8817241108990024 0 0 2.737750727929514 1:0.710292 2:-0.160881 3:0.35775 4:0.0148083 5:-0.882055 6:-0.858157 7:-0.97011 8:-0.236933 9:0.337102 10:-0.0402375 11:-0.839592 12:-0.63671 13:-0.779845 14:-0.880789 15:-0.947325 16:-0.918991 17:-0.881905 18:-0.871573 19:-0.971795 20:-0.91751 21:-0.880941 22:-0.978279 23:0.911071 24:0.94843 25:0.971163 26:-0.942037 27:-0.775883 28:-0.975437 29:0.615022 30:0.337709 31:-0.0521695 32:-0.983955 33:-0.942761 34:-0.8993 35:-0.110527 36:-0.503262 37:0.17733 38:-0.674117 39:-0.419379 40:-0.924254 41:-0.930447 42:-0.977165 43:-0.93044 44:-0.987625 45:-0.943326 46:-0.913967 47:-0.98008 48:-0.939445 49:-0.927672 50:0.958346 51:0.876652 52:0.882062 53:-0.8438 54:-0.788419 55:-0.801101 56:-0.26521 57:0.934152 58:0.232911 59:0.507569 60:-0.943309 61:-0.382499 62:-0.412724 63:0.518463 64:0.0414299 
3.66801617282 0.1277726361436192 0 1.747232639840037 1:-0.732818 2:-0.261916 3:0.177088 4:0.0705766 5:-0.842874 6:-0.755133 7:-0.842634 8:-0.221013 9:-0.259033 10:-0.0533712 11:-0.783276 12:-0.474926 13:-0.522817 14:-0.818985 15:-0.856655 16:-0.824863 17:-0.843314 18:-0.789969 19:-0.843079 20:-0.860753 21:-0.759764 22:-0.859315 23:0.840423 24:0.788117 25:0.87711 26:-0.929817 27:-0.821581 28:-0.829434 29:0.60297 30:0.364955 31:-0.128595 32:-0.665226 33:-0.724301 34:-0.794943 35:-0.672433 36:-0.167356 37:-0.284393 38:0.514164 39:-0.296673 40:-0.756051 41:-0.807182 42:-0.530923 43:-0.657276 44:-0.729446 45:-0.731433 46:-0.821366 47:-0.473017 48:-0.617413 49:-0.811443 50:0.402171 51:0.571392 52:0.729912 53:-0.555626 54:-0.512338 55:-0.81082 56:0.358075 57:0.149429 58:0.218321 59:0.693933 60:0.579638 61:0.0691806 62:0.610058 63:0.477445 64:-0.174145 
3.66801617282 0 0 0 1:-0.171586 2:-0.177041 3:0.201975 4:0.202929 5:-0.878374 6:-0.853877 7:-0.862709 8:-0.00400253 9:0.102302 10:0.558599 11:-0.913005 12:-0.883125 13:-0.18191 14:-0.859573 15:-0.935719 16:-0.864011 17:-0.879312 18:-0.886001 19:-0.851745 20:-0.9039 21:-0.885276 22:-0.879109 23:0.925792 24:0.914366 25:0.950736 26:-0.911685 27:-0.847714 28:-0.7721 29:0.717717 30:0.45005 31:-0.0146885 32:-0.775723 33:-0.749717 34:-0.889741 35:0.652294 36:0.468241 37:-0.190712 38:0.01296 39:-0.425868 40:-0.692975 41:-0.823401 42:-0.671265 43:-0.725012 44:-0.805363 45:-0.746105 46:-0.89612 47:-0.677291 48:-0.707549 49:-0.882692 50:0.852743 51:0.842446 52:0.832095 53:-0.425566 54:-0.41461 55:-0.792031 56:-0.6925 57:-0.367081 58:-0.127995 59:0.489665 60:0.100013 61:0.0678777 62:0.179598 63:0.448546 64:-0.79694 
3.66801617282 3.66801617282 3.66801617282 3.66801617282 1:0.73322 2:-0.182575 3:0.240784 4:0.0251768 5:-0.90793 6:-0.87308 7:-0.936377 8:-0.136462 9:0.353437 10:-0.132429 11:-0.802698 12:-0.477506 13:-0.75061 14:-0.917939 15:-0.939074 16:-0.926347 17:-0.908585 18:-0.902934 19:-0.937947 20:-0.920824 21:-0.8827 22:-0.953358 23:0.908744 24:0.935613 25:0.945585 26:-0.948339 27:-0.803174 28:-0.953125 29:0.587184 30:0.309624 31:-0.0590354 32:-0.910369 33:-0.885988 34:-0.89947 35:-0.482602 36:-0.539134 37:0.115072 38:-0.298119 39:-0.285014 40:-0.977315 41:-0.924789 42:-0.848478 43:-0.875454 44:-0.926005 45:-0.883785 46:-0.915411 47:-0.878667 48:-0.864099 49:-0.93235 50:0.828102 51:0.778699 52:0.880711 53:-0.806822 54:-0.748839 55:-0.811467 56:0.458984 57:0.586408 58:0.0383649 59:-0.562227 60:-0.766001 61:-0.16455 62:-0.12985 63:0.00803905 64:-0.0742162 
2.094277434164936 3.096214775886788 3.66801617282 0 1:-0.109895 2:-0.149629 3:0.241119 4:0.0868844 5:-0.937872 6:-0.926278 7:-0.944789 8:0.148671 9:0.132274 10:-0.0145204 11:-0.633899 12:-0.796905 13:-0.623679 14:-0.94086 15:-0.98418 16:-0.950147 17:-0.934603 18:-0.953666 19:-0.941237 20:-0.933675 21:-0.937462 22:-0.947726 23:0.956541 24:0.946383 25:0.954171 26:-0.923565 27:-0.896375 28:-0.927854 29:0.627838 30:0.374571 31:-0.0639878 32:-0.952677 33:-0.945656 34:-0.908411 35:-0.0682381 36:0.257921 37:-0.529867 38:-0.501603 39:-0.51985 40:-0.380193 41:-0.940631 42:-0.936251 43:-0.92919 44:-0.96148 45:-0.946881 46:-0.924341 47:-0.928649 48:-0.928561 49:-0.905721 50:0.919038 51:0.936771 52:0.820392 53:-0.795983 54:-0.71268 55:-0.85034 56:-0.634903 57:0.0291964 58:-0.434277 59:0.252847 60:-0.691756 61:0.574162 62:-0.289853 63:0.218976 64:-0.46417 
1.873625293780667 0 0 0 1:-0.0530438 2:-0.160487 3:0.229967 4:0.0326601 5:-0.627278 6:-0.817755 7:-0.629027 8:0.339216 9:0.300717 10:-0.242456 11:-0.469553 12:-0.711847 13:-0.486276 14:-0.480589 15:-0.724168 16:-0.631316 17:-0.631825 18:-0.850168 19:-0.630904 20:-0.653448 21:-0.845729 22:-0.690839 23:0.834604 24:0.91816 25:0.669728 26:-0.666739 27:-0.759049 28:-0.727113 29:0.669595 30:0.382279 31:-0.0929146 32:-0.616284 33:-0.74183 34:-0.73518 35:0.416296 36:0.231094 37:-0.318437 38:-0.424261 39:-0.786832 40:-0.711634 41:-0.767502 42:-0.681256 43:-0.625841 44:-0.687467 45:-0.747946 46:-0.766292 47:-0.491851 48:-0.752756 49:-0.761785 50:0.650337 51:0.809277 52:0.694801 53:-0.319095 54:-0.525043 55:-0.771947 56:-0.698812 57:-0.819424 58:-0.099755 59:0.690092 60:0.501192 61:0.291041 62:0.0131916 63:0.413482 64:-0.338372 
3.66801617282 0 0.9396601517925753 3.66801617282 1:0.836336 2:-0.216061 3:0.251185 4:0.00580088 5:-0.846025 6:-0.848607 7:-0.938335 8:-0.340221 9:0.334364 10:-0.0477183 11:-0.692162 12:-0.738449 13:-0.837592 14:-0.847171 15:-0.94564 16:-0.895775 17:-0.848177 18:-0.878648 19:-0.940562 20:-0.876793 21:-0.891697 22:-0.958509 23:0.840182 24:0.941555 25:0.955313 26:-0.950771 27:-0.810784 28:-0.951483 29:0.637174 30:0.35801 31:0.0188531 32:-0.825961 33:-0.931373 34:-0.862387 35:0.583967 36:0.864646 37:0.0824915 38:-0.243858 39:0.60582 40:-0.975594 41:-0.892954 42:-0.845385 43:-0.843356 44:-0.858837 45:-0.934021 46:-0.862613 47:-0.788482 48:-0.910423 49:-0.897805 50:0.899677 51:0.95802 52:0.87711 53:-0.57029 54:-0.660884 55:-0.754454 56:-0.861573 57:-0.784306 58:0.219716 59:0.91983 60:0.68947 61:-0.296342 62:-0.351223 63:0.00587237 64:-0.138579 
1.14116822995231 0 0 0 1:0.86282 2:-0.192408 3:0.306367 4:-0.00710504 5:-0.916468 6:-0.902015 7:-0.930482 8:-0.570337 9:0.280051 10:0.102346 11:-0.0592908 12:-0.678896 13:-0.830481 14:-0.935344 15:-0.966596 16:-0.931765 17:-0.917382 18:-0.920839 19:-0.932933 20:-0.914821 21:-0.920622 22:-0.949871 23:0.876062 24:0.959462 25:0.94922 26:-0.96888 27:-0.837458 28:-0.939847 29:0.652366 30:0.344349 31:-0.00737238 32:-0.864487 33:-0.934852 34:-0.922935 35:0.5998 36:0.535065 37:-0.124753 38:0.0704967 39:0.0978492 40:-0.991182 41:-0.925468 42:-0.857517 43:-0.884315 44:-0.887962 45:-0.936642 46:-0.920501 47:-0.807316 48:-0.906237 49:-0.952861 50:0.903197 51:0.922778 52:0.888814 53:-0.599617 54:-0.686782 55:-0.836735 56:-0.840296 57:-0.597298 58:-0.029335 59:0.683752 60:0.0180733 61:0.121068 62:-0.365051 63:0.267613 64:-0.0405531 
0 0 0 1.46148407588007 1:0.882804 2:-0.371001 3:0.412287 4:0.155911 5:-0.672949 6:-0.843241 7:-0.825086 8:-0.389454 9:0.415254 10:-0.291804 11:-0.63138 12:-0.572118 13:-0.357255 14:-0.694469 15:-0.833692 16:-0.754588 17:-0.668522 18:-0.846078 19:-0.820591 20:-0.736294 21:-0.872231 22:-0.848989 23:0.693087 24:0.958356 25:0.838907 26:-0.896452 27:-0.739577 28:-0.859054 29:0.878973 30:0.300542 31:0.393551 32:-0.541414 33:-0.789518 34:-0.723158 35:0.282978 36:0.3822 37:-0.0939715 38:-0.601579 39:-0.600353 40:-0.127773 41:-0.64484 42:-0.569458 43:-0.516591 44:-0.584108 45:-0.790396 46:-0.588308 47:-0.449113 48:-0.792661 49:-0.587621 50:0.721913 51:0.84141 52:0.762323 53:-0.166082 54:-0.564623 55:-0.361192 56:-0.850714 57:-0.812828 58:0.340757 59:0.873804 60:0.878665 61:-0.243776 62:-0.00848105 63:0.360607 64:-0.767487 
0 0.1613249262305382 0.008679710024639683 0.3512623019808128 1:-0.087914 2:0.17333 3:0.18104 4:-0.346366 5:-0.151637 6:-0.671873 7:-0.421677 8:0.974991 9:-0.806925 10:-0.756824 11:0.939209 12:0.529695 13:0.458279 14:-0.475135 15:-0.210328 16:-0.287772 17:-0.142589 18:-0.709126 19:-0.415274 20:-0.160779 21:-0.645 22:-0.477872 23:0.875131 24:0.659748 25:0.312461 26:0.00555177 27:-0.821553 28:-0.731694 29:0.546785 30:0.286805 31:-0.191176 32:-0.579605 33:-0.694522 34:-0.713615 35:-0.29221 36:-1 37:-0.65676 38:-0.342487 39:1 40:-0.087996 41:-0.763202 42:-0.350381 43:-0.57415 44:-0.656891 45:-0.697041 46:-0.739946 47:-0.431728 48:-0.625506 49:-0.701331 50:0.433265 51:0.329878 52:0.562908 53:-0.449155 54:-0.754215 55:-0.852932 56:-0.562429 57:-0.9525 58:-0.798223 59:0.812519 60:0.904176 61:0.907997 62:0.370306 63:0.910589 64:0.624181 
0 3.414382840940186 1.52118603197004 1.313936849147683 1:-0.853964 2:-0.243806 3:0.239264 4:0.135962 5:-0.88908 6:-0.880744 7:-0.80514 8:-0.783756 9:-0.119027 10:0.208865 11:0.416943 12:-0.318138 13:-0.445187 14:-0.807219 15:-0.876609 16:-0.838347 17:-0.889653 18:-0.910407 19:-0.802578 20:-0.886261 21:-0.863926 22:-0.822559 23:0.822752 24:0.886321 25:0.862304 26:-0.978112 27:-0.855395 28:-0.764257 29:0.613325 30:0.381745 31:-0.0679273 32:-0.732491 33:-0.94227 34:-0.902866 35:-0.33134 36:-0.186144 37:-0.236474 38:0.233813 39:-0.897238 40:-0.333692 41:-0.87334 42:-0.78568 43:-0.812196 44:-0.784024 45:-0.942456 46:-0.919924 47:-0.553423 48:-0.957304 49:-0.869737 50:0.561748 51:0.937808 52:0.806437 53:-0.523749 54:-0.762033 55:-0.805637 56:0.885822 57:-0.143772 58:0.680359 59:0.720914 60:-0.594063 61:0.976627 62:-0.533495 63:0.0217713 64:0.00366421 
1.684102769191995 0 1.119599831389071 1.319693468484015 1:0.988078 2:-0.448664 3:0.269574 4:-0.147005 5:-0.81231 6:-0.929563 7:-0.862811 8:-0.787919 9:0.694075 10:-0.520077 11:0.442042 12:0.212119 13:-0.312877 14:-0.86518 15:-0.902085 16:-0.842576 17:-0.784907 18:-0.952521 19:-0.860443 20:-0.817842 21:-0.927011 22:-0.897134 23:0.697519 24:0.965142 25:0.841592 26:-0.998083 27:-0.840168 28:-0.967956 29:0.815234 30:0.271922 31:0.181158 32:-0.501301 33:-0.779015 34:-0.926515 35:0.871472 36:0.148075 37:-0.0878849 38:0.161991 39:-0.752101 40:-0.924901 41:-0.769614 42:-0.603235 43:-0.574552 44:-0.572096 45:-0.774715 46:-0.818631 47:-0.394784 48:-0.7575 49:-0.934149 50:0.863303 51:0.743975 52:0.928877 53:0.0832005 54:-0.594918 55:-0.745384 56:-0.823902 57:-0.386014 58:0.693636 59:0.566799 60:0.614353 61:-0.251633 62:-0.813102 63:-0.868189 64:0.187816 
0.1339721003489106 0 0 0 1:-0.103031 2:0.126459 3:0.160639 4:-0.15761 5:-0.659477 6:-0.835253 7:-0.589156 8:0.950081 9:-0.716769 10:-0.544986 11:0.88367 12:0.446493 13:0.293469 14:-0.675542 15:-0.578005 16:-0.604234 17:-0.628087 18:-0.867259 19:-0.589169 20:-0.645597 21:-0.806646 22:-0.585312 23:0.958281 24:0.808109 25:0.534979 26:-0.549473 27:-0.881486 28:-0.669854 29:0.697772 30:0.320461 31:-0.0459789 32:-0.78388 33:-0.785203 34:-0.936914 35:0.349299 36:-0.703477 37:-0.541201 38:-0.266698 39:0.338152 40:-0.181181 41:-0.862477 42:-0.71432 43:-0.767477 44:-0.816337 45:-0.788971 46:-0.945301 47:-0.683086 48:-0.708665 49:-0.922274 50:0.786448 51:0.563099 52:0.837047 53:-0.50781 54:-0.679941 55:-0.856171 56:-0.6609 57:-0.936036 58:-0.826074 59:0.548125 60:0.797492 61:0.567395 62:0.463254 63:0.675816 64:0.58017 
0 0.9581624616771154 0.7573339328701603 0.5233406447634359 1:-0.966559 2:-0.64603 3:0.101999 4:0.0828687 5:-0.528046 6:-0.789178 7:-0.421482 8:-0.519875 9:-0.0136376 10:-0.060836 11:-0.299644 12:-0.804697 13:-0.190211 14:-0.397957 15:-0.573133 16:-0.439526 17:-0.488729 18:-0.818878 19:-0.42265 20:-0.585517 21:-0.805779 22:-0.42766 23:0.418396 24:0.850343 25:0.494377 26:-0.939346 27:-0.801736 28:-0.358049 29:0.607893 30:-0.032359 31:0.114075 32:-0.283432 33:-0.00320614 34:-0.697648 35:-0.390463 36:-0.723391 37:-0.595361 38:-0.420273 39:0.346163 40:-0.221813 41:-0.256035 42:0.371551 43:0.0264651 44:-0.420411 45:0.0237195 46:-0.695366 47:-0.169866 48:0.256035 49:-0.68262 50:0.132297 51:-1 52:0.641684 53:-0.315269 54:-0.464451 55:-0.705863 56:0.822749 57:0.822312 58:0.920632 59:0.42583 60:0.216274 61:0.405963 62:0.23484 63:0.73972 64:0.345827 
0.340778075484591 0 0 0 1:-0.097647 2:-0.243032 3:0.353868 4:-0.315912 5:-0.623783 6:-0.700372 7:0.129867 8:0.392124 9:-0.174985 10:-0.487738 11:-0.21844 12:-0.78407 13:0.0606557 14:0.238067 15:-0.282668 16:-0.0450592 17:-0.628752 18:-0.727335 19:0.132141 20:-0.607344 21:-0.757844 22:0.0298402 23:0.784523 24:0.821448 25:-0.186054 26:-0.650484 27:-0.75609 28:-0.245315 29:0.492128 30:0.0207586 31:-0.18037 32:0.31052 33:-0.320692 34:-0.702326 35:-0.273497 36:-0.912937 37:-0.273353 38:-0.521959 39:0.811858 40:-0.775598 41:-0.103425 42:0.253092 43:0.113731 44:0.0641648 45:-0.283342 46:-0.731063 47:0.662803 48:-0.104507 49:-0.714646 50:-0.667938 51:-0.49106 52:0.638983 53:0.280842 54:-0.61593 55:-0.767412 56:-0.478603 57:-0.713577 58:-0.391117 59:0.767751 60:0.334175 61:0.566388 62:0.183055 63:0.965073 64:0.232619 
0.04160480977908639 0.227704118018793 0 0 1:-0.0589171 2:0.210503 3:0.243138 4:-0.240249 5:0.0045578 6:-0.702907 7:-0.243525 8:0.829245 9:-0.401512 10:-0.443165 11:0.596363 12:-0.323028 13:0.00442841 14:-0.180473 15:-0.141222 16:-0.124689 17:0.0119553 18:-0.738406 19:-0.242296 20:0.0705996 21:-0.692111 22:-0.316379 23:0.673202 24:0.745793 25:0.208497 26:0.12992 27:-0.760005 28:-0.500108 29:0.545343 30:0.352515 31:0.00883562 32:-0.327681 33:-0.502507 34:-0.782967 35:0.141205 36:-0.431371 37:-0.339946 38:-0.45932 39:-0.278887 40:-0.46627 41:-0.526705 42:-0.509515 43:-0.363945 44:-0.454018 45:-0.514509 46:-0.797594 47:-0.0622962 48:-0.376587 49:-0.738755 50:0.210326 51:0.187354 52:0.714607 53:-0.0411221 54:-0.452724 55:-0.701976 56:0.0406401 57:-0.678067 58:-0.677024 59:-0.0347977 60:0.595737 61:0.733604 62:0.0119243 63:0.784398 64:0.749891 
0.05519625737033546 0 0.0188410412251482 0.6641808275615704 1:-0.068146 2:0.977705 3:0.410087 4:-0.413941 5:0.300509 6:-0.551267 7:-0.184785 8:0.961556 9:-0.709483 10:-0.714212 11:0.906138 12:0.36857 13:0.400915 14:-0.0712463 15:0.163956 16:0.104808 17:0.412099 18:-0.580012 19:-0.177747 20:0.278771 21:-0.52763 22:-0.286593 23:0.911455 24:0.591603 25:0.0567362 26:0.605503 27:-0.70498 28:-0.644065 29:0.665776 30:0.238342 31:-0.163149 32:-0.334818 33:-0.329122 34:-0.503238 35:-0.00562088 36:0.113217 37:-0.618798 38:-0.510871 39:-0.737801 40:-0.167205 41:-0.379979 42:-0.205519 43:-0.208123 44:-0.460763 45:-0.337867 46:-0.548598 47:-0.121333 48:-0.249337 49:-0.481468 50:0.240833 51:0.240218 52:0.359892 53:-0.11189 54:-0.180064 55:-0.749271 56:-0.390815 57:-0.506909 58:-0.820094 59:0.242037 60:0.387119 61:0.634912 62:0.256604 63:0.415984 64:0.682647 
0.3813728704777305 0.08168684989330234 0.8130390564321764 0 1:-0.912687 2:-0.775396 3:0.278693 4:0.0762913 5:-0.418704 6:-0.649033 7:-0.270694 8:-0.846859 9:-0.154069 10:-0.0318526 11:0.539435 12:-0.461359 13:-0.278923 14:-0.193693 15:-0.37893 16:-0.281702 17:-0.363513 18:-0.684632 19:-0.271929 20:-0.453776 21:-0.631077 22:-0.299045 23:0.173026 24:0.734066 25:0.380714 26:-0.981466 27:-0.655618 28:-0.217068 29:0.521409 30:0.181409 31:-0.167539 32:-0.0396307 33:-0.370472 34:-0.644055 35:-0.167753 36:0.0772918 37:-0.348299 38:-0.437369 39:-0.69346 40:-0.572826 41:-0.413699 42:-0.0242626 43:-0.115018 44:-0.220147 45:-0.36918 46:-0.678732 47:0.233973 48:-0.245151 49:-0.619647 50:-0.159871 51:0.229334 52:0.547153 53:0.0781001 54:-0.182995 55:-0.728539 56:0.587374 57:0.550244 58:0.67213 59:0.553634 60:0.453117 61:0.461571 62:0.109613 63:0.138434 64:0.306152 
0.7549529864573284 0 0 0 1:-0.592282 2:-0.18113 3:0.287033 4:0.421527 5:-0.871133 6:-0.660475 7:-0.424604 8:-0.0740957 9:-0.914185 10:0.391817 11:-0.643394 12:0.788482 13:-0.312324 14:-0.347872 15:-0.687406 16:-0.506675 17:-0.872387 18:-0.695181 19:-0.411749 20:-0.866685 21:-0.651641 22:-0.484374 23:0.889403 24:0.651102 25:0.694763 26:-0.895069 27:-0.851226 28:-0.20865 29:0.704986 30:0.113638 31:-0.702403 32:0.0449361 33:-0.324756 34:-0.781366 35:0.299311 36:0.247447 37:-0.162777 38:-0.413346 39:-0.66797 40:-0.699525 41:-0.312839 42:-0.133682 43:-0.0175734 44:-0.152011 45:-0.311963 46:-0.559238 47:0.376675 48:-0.218083 49:-0.765023 50:-0.0478147 51:0.251101 52:0.553905 53:0.451068 54:-0.115075 55:-0.980564 56:-0.060257 57:-0.158035 58:0.0140298 59:0.357823 60:-0.109155 61:0.588609 62:-0.18265 63:0.105473 64:-0.472315 
0 0 0.2769212556820952 0 1:-0.00850155 2:-0.128892 3:0.218801 4:0.0686228 5:-0.812216 6:-0.940543 7:-0.730465 8:0.215512 9:0.0926231 10:-0.348481 11:-0.643102 12:-0.844142 13:-0.122847 14:-0.691607 15:-0.839529 16:-0.771413 17:-0.811333 18:-0.969364 19:-0.731582 20:-0.816456 21:-0.957326 22:-0.739691 23:0.87862 24:0.951056 25:0.73153 26:-0.839444 27:-0.928769 28:-0.754433 29:0.512158 30:0.337633 31:-0.0460915 32:-0.715391 33:-0.762431 34:-0.843709 35:-0.0294446 36:0.169658 37:-0.208314 38:-0.583173 39:-0.730254 40:-0.745539 41:-0.773008 42:-0.745956 43:-0.705615 44:-0.759355 45:-0.768199 46:-0.862786 47:-0.611373 48:-0.732664 49:-0.843469 50:0.593429 51:0.775071 52:0.797434 53:-0.591329 54:-0.522111 55:-0.771299 56:-0.676238 57:-0.489526 58:-0.28343 59:-0.0172246 60:-0.423821 61:0.653083 62:0.183645 63:0.699957 64:-0.504728 
0 0 0 3.66801617282 1:0.938262 2:-0.280079 3:0.309698 4:-0.112797 5:-0.877354 6:-0.951067 7:-0.887109 8:-0.612771 9:-0.0398207 10:-0.291613 11:0.0773909 12:-0.603117 13:-0.669712 14:-0.873399 15:-0.91618 16:-0.896684 17:-0.875237 18:-0.961031 19:-0.886491 20:-0.867732 21:-0.94964 22:-0.918741 23:0.814795 24:0.955362 25:0.889788 26:-0.961039 27:-0.904949 28:-0.950667 29:0.599236 30:0.313134 31:-0.0170522 32:-0.828302 33:-0.902264 34:-0.896547 35:-0.0224971 36:-0.572267 37:0.394675 38:-0.540868 39:-0.287774 40:-0.636676 41:-0.893105 42:-0.830875 43:-0.845839 44:-0.86123 45:-0.899848 46:-0.902559 47:-0.774357 48:-0.895075 49:-0.899604 50:0.799941 51:0.804094 52:0.891515 53:-0.653809 54:-0.779135 55:-0.736961 56:-0.797385 57:0.041061 58:0.213259 59:0.450296 60:-0.571873 61:0.166195 62:-0.269319 63:0.702973 64:-0.503196 
0 3.32749812647473 3.66801617282 0.1956759473386051 1:-0.0249498 2:-0.111802 3:0.237458 4:0.0614293 5:-0.598029 6:-0.90342 7:-0.793661 8:0.558847 9:0.228131 10:-0.167382 11:0.0370025 12:-0.701879 13:-0.726241 14:-0.680397 15:-0.791482 16:-0.720281 17:-0.600983 18:-0.932284 19:-0.794768 20:-0.571983 21:-0.914302 22:-0.847837 23:0.813019 24:0.936296 25:0.857629 26:-0.580071 27:-0.867171 28:-0.829999 29:0.635986 30:0.342593 31:-0.133322 32:-0.7761 33:-0.821155 34:-0.756793 35:0.385698 36:0.191729 37:-0.309073 38:-0.456938 39:-0.419146 40:-0.701227 41:-0.841958 42:-0.717174 43:-0.74449 44:-0.818708 45:-0.825782 46:-0.785682 47:-0.712061 48:-0.756662 49:-0.758546 50:0.808742 51:0.766779 52:0.687148 53:-0.534587 54:-0.571952 55:-0.77713 56:-0.582289 57:-0.226193 58:-0.398811 59:0.126627 60:-0.541428 61:0.573888 62:0.277926 63:0.823029 64:-0.229822 
0 0 0.5535663048023337 0 1:-0.0697288 2:-0.181165 3:0.208795 4:0.0944019 5:-0.799257 6:-0.937064 7:-0.848058 8:0.235837 9:-0.167219 10:-0.177929 11:-0.550034 12:-0.800958 13:-0.49665 14:-0.801461 15:-0.882835 16:-0.843943 17:-0.801696 18:-0.966573 19:-0.847214 20:-0.792612 21:-0.947035 22:-0.862946 23:0.866867 24:0.934296 25:0.867206 26:-0.818784 27:-0.938457 28:-0.851879 29:0.610185 30:0.302526 31:-0.133772 32:-0.862927 33:-0.896482 34:-0.857181 35:-0.132615 36:0.0359025 37:0.106022 38:-0.504734 39:-0.691333 40:-0.798564 41:-0.905779 42:-0.847288 43:-0.84932 44:-0.889604 45:-0.89169 46:-0.878653 47:-0.814922 48:-0.876936 49:-0.852105 50:0.794661 51:0.847111 52:0.810939 53:-0.730953 54:-0.706817 55:-0.767412 56:-0.847383 57:-0.16428 58:-0.382196 59:0.492663 60:-0.140714 61:0.449525 62:0.395388 63:0.905875 64:-0.108324 
2.065202768657152 2.352879212338098 2.132030826154342 2.353863134648508 1:-0.0497346 2:-0.0380917 3:0.236073 4:0.0580258 5:-0.469188 6:-0.862586 7:-0.716638 8:0.94847 9:-0.387983 10:-0.779896 11:0.87572 12:-0.486913 13:0.545508 14:-0.717758 15:-0.595932 16:-0.615878 17:-0.470142 18:-0.893163 19:-0.718049 20:-0.459007 21:-0.876563 22:-0.736363 23:0.885047 24:0.871315 25:0.668573 26:-0.371573 27:-0.90919 28:-0.835284 29:0.608742 30:0.281233 31:0.19399 32:-0.727057 33:-0.872279 34:-0.74133 35:0.240351 36:0.117069 37:-0.351225 38:-0.7245 39:-0.835759 40:-0.70952 41:-0.732272 42:-0.81589 43:-0.702974 44:-0.779592 45:-0.863248 46:-0.699786 47:-0.689605 48:-0.864099 49:-0.769341 50:0.7577 51:0.841928 52:0.766824 53:-0.550526 54:-0.689226 55:-0.681892 56:-0.161625 57:-0.0483941 58:-0.569312 59:0.443203 60:0.182247 61:0.516045 62:-0.0662217 63:-0.14318 64:0.429619 
3.66801617282 0 0 0.388128937546016 1:0.883072 2:-0.361982 3:0.427744 4:-0.0745871 5:-0.681193 6:-0.797701 7:-0.851288 8:-0.531442 9:0.156351 10:-0.203301 11:-0.245782 12:-0.90745 13:-0.697538 14:-0.720919 15:-0.816406 16:-0.765487 17:-0.67744 18:-0.803725 19:-0.852814 20:-0.712013 21:-0.85057 22:-0.887303 23:0.613485 24:0.939701 25:0.869855 26:-0.933988 27:-0.729281 28:-0.905153 29:0.767791 30:0.16004 31:0.796387 32:-0.432431 33:-0.854378 34:-0.706661 35:0.612055 36:0.0719691 37:-0.426158 38:-0.431357 39:-0.877666 40:-0.603577 41:-0.416792 42:-0.57921 43:-0.373358 44:-0.528107 45:-0.79234 46:-0.337391 47:-0.400942 48:-0.857681 49:-0.733717 50:0.74362 51:0.774553 52:0.887463 53:-0.0576985 54:-0.74151 55:-0.444121 56:-0.560329 57:-0.256241 58:0.641732 59:0.710591 60:0.429754 61:-0.833133 62:-0.343377 63:-0.374758 64:-0.133237 
0 2.008066607660433 1.400335491012263 3.66801617282 1:0.935354 2:-0.262528 3:0.327601 4:-0.0304643 5:-0.814509 6:-0.912442 7:-0.904855 8:-0.393801 9:0.124408 10:-0.281725 11:-0.351603 12:-0.625829 13:-0.485331 14:-0.834018 15:-0.939082 16:-0.87636 17:-0.815531 18:-0.925019 19:-0.907258 20:-0.819592 21:-0.916367 22:-0.921193 23:0.775003 24:0.950007 25:0.896351 26:-0.933239 27:-0.846126 28:-0.947164 29:0.6129 30:0.33519 31:0.0637627 32:-0.743348 33:-0.835538 34:-0.715912 35:0.571243 36:-0.0847724 37:0.0958386 38:-0.139913 39:-0.922488 40:-0.841403 41:-0.794206 42:-0.752854 43:-0.712285 44:-0.792814 45:-0.839288 46:-0.725471 47:-0.664614 48:-0.850147 49:-0.734077 50:0.822235 51:0.804613 52:0.792483 53:-0.436404 54:-0.699976 55:-0.581471 56:-0.433939 57:0.229534 58:0.587262 59:-0.0221205 60:-0.690917 61:-0.0759691 62:0.0035865 63:0.444621 64:-0.125819 
0 0 2.4656182552791 3.66801617282 1:0.905586 2:-0.442647 3:0.442833 4:-0.272192 5:-0.660801 6:-0.850315 7:-0.89589 8:-0.594784 9:0.379465 10:-0.120296 11:-0.183281 12:-0.594323 13:-0.784473 14:-0.73424 15:-0.823626 16:-0.767399 17:-0.64756 18:-0.843648 19:-0.876619 20:-0.696602 21:-0.874307 22:-0.925023 23:0.578055 24:0.950564 25:0.883766 26:-0.944742 27:-0.758245 28:-0.973849 29:0.798515 30:0.348317 31:0.0744555 32:-0.761824 33:-0.776779 34:-0.713048 35:0.412881 36:0.294653 37:0.0252643 38:-0.335693 39:-0.668335 40:-0.682756 41:-0.781608 42:-0.719791 43:-0.672247 44:-0.768876 45:-0.782662 46:-0.720114 47:-0.687432 48:-0.757221 49:-0.661029 50:0.89205 51:0.825343 52:0.742966 53:-0.400701 54:-0.517713 55:-0.521218 56:-0.571871 57:0.546097 58:0.390401 59:0.395226 60:-0.622759 61:-0.183762 62:-0.333596 63:0.552101 64:0.165171 
0 0 0 0.6226712779169503 1:-0.201561 2:-0.165688 3:0.210527 4:0.316052 5:-0.812704 6:-0.848618 7:-0.819439 8:-0.0180749 9:-0.64675 10:0.600694 11:-0.228318 12:0.231239 13:-0.214012 14:-0.793991 15:-0.859775 16:-0.807509 17:-0.814317 18:-0.880741 19:-0.797961 20:-0.767751 21:-0.834638 22:-0.852846 23:0.816272 24:0.831561 25:0.957999 26:-0.830449 27:-0.895999 28:-0.700407 29:0.625886 30:0.317256 31:-0.0381001 32:-0.663227 33:-0.864078 34:-0.768298 35:-0.690673 36:-0.619139 37:-0.165976 38:0.571427 39:0.178501 40:-0.695364 41:-0.84226 42:-0.574691 43:-0.709857 44:-0.727818 45:-0.864571 46:-0.792881 47:-0.480261 48:-0.825869 49:-0.744512 50:0.403931 51:0.710288 52:0.738465 53:-0.566465 54:-0.746396 55:-0.678005 56:-0.874018 57:-0.580046 58:-0.218053 59:0.94187 60:0.842607 61:0.359689 62:-0.341496 63:0.0123287 64:-0.742008 
0 3.66801617282 2.775714597031213 2.485944965566147 1:1 2:-0.423313 3:0.381245 4:-0.0412319 5:-0.762833 6:-0.887944 7:-0.918644 8:-0.528304 9:0.597923 10:-0.3257 11:-0.392133 12:-0.263585 13:-0.584243 14:-0.813411 15:-0.878931 16:-0.841433 17:-0.7458 18:-0.890849 19:-0.920876 20:-0.809696 21:-0.909133 22:-0.94025 23:0.709798 24:0.979818 25:0.913546 26:-0.976913 27:-0.776158 28:-0.967557 29:0.578103 30:0.153934 31:0.117227 32:-0.879133 33:-0.793465 34:-0.816922 35:0.161498 36:-0.445645 37:-0.257647 38:-0.490884 39:-0.504263 40:-0.446424 41:-0.803636 42:-0.721931 43:-0.730418 44:-0.89988 45:-0.743734 46:-0.788719 47:-0.828323 48:-0.789033 49:-0.763584 50:0.835142 51:0.596787 52:0.779428 53:-0.710551 54:-0.788908 55:-0.653385 56:-0.368199 57:0.703402 58:0.570684 59:-0.429209 60:-0.976618 61:0.286873 62:0.127935 63:0.955332 64:0.0848866 
0 0 0 2.434471723673743 1:-0.193587 2:-0.211343 3:0.201931 4:0.305937 5:-0.703575 6:-0.807992 7:-0.789058 8:-0.153804 9:-0.406703 10:0.341931 11:-0.524938 12:-0.0915863 13:-0.618084 14:-0.725604 15:-0.79839 16:-0.745292 17:-0.707772 18:-0.84142 19:-0.771562 20:-0.684922 21:-0.779221 22:-0.835798 23:0.733836 24:0.811258 25:0.90884 26:-0.794718 27:-0.819041 28:-0.72972 29:0.694377 30:0.399451 31:-0.0868366 32:-0.696587 33:-0.820144 34:-0.640304 35:0.0742174 36:0.418828 37:-0.190263 38:-0.33632 39:-0.315466 40:-0.742085 41:-0.772631 42:-0.674596 43:-0.661401 44:-0.748585 45:-0.822443 46:-0.677841 47:-0.550163 48:-0.767546 49:-0.623606 50:0.642124 51:0.849702 52:0.645285 53:-0.430666 54:-0.512827 55:-0.594428 56:-0.844801 57:0.0888322 58:0.0541402 59:0.738196 60:-0.249052 61:0.372752 62:-0.222738 63:0.739434 64:-0.739259 
0 0 0 0.06093646177345348 1:-0.0592171 2:1 3:0.071968 4:-0.579457 5:0.577977 6:-0.390787 7:-0.158554 8:0.787412 9:-0.350965 10:-0.771345 11:0.500159 12:-0.638796 13:0.520484 14:0.161112 15:0.269411 16:0.260256 17:0.668991 18:-0.433172 19:-0.143305 20:0.687597 21:-0.542599 22:-0.263975 23:0.540503 24:0.59954 25:-0.0056278 26:0.812986 27:-0.721238 28:-0.678936 29:0.556291 30:-0.00503702 31:-0.438798 32:-0.212553 33:-0.517723 34:0.128457 35:-0.0519035 36:-0.424505 37:-0.387302 38:-0.55362 39:-0.432008 40:-0.73182 41:-0.265616 42:-0.0642246 43:0.0214998 44:-0.361679 45:-0.447037 46:0.0636362 47:0.0525172 48:-0.452491 49:-0.0960777 50:0.063655 51:0.0821456 52:-0.0254333 53:0.00159383 54:-0.684828 55:-0.609977 56:-0.389102 57:-0.611998 58:-0.297727 59:0.789772 60:0.545293 61:0.728163 62:0.156795 63:0.549009 64:0.0396289 
1.030179804989083 0 0 0 1:-0.242665 2:-0.256427 3:0.178783 4:0.194677 5:-0.850108 6:-0.813357 7:-0.804599 8:0.187217 9:-0.311361 10:0.246454 11:-0.409086 12:-0.348827 13:-0.527605 14:-0.770865 15:-0.91228 16:-0.812876 17:-0.850743 18:-0.846549 19:-0.797646 20:-0.828028 21:-0.805183 22:-0.833785 23:0.866893 24:0.82305 25:0.881031 26:-0.864568 27:-0.850887 28:-0.764165 29:0.549926 30:0.302145 31:-0.0337104 32:-0.553383 33:-0.840193 34:-0.701528 35:0.446068 36:0.100588 37:-0.397566 38:-0.201359 39:-0.756251 40:-0.702706 41:-0.702625 42:-0.675071 43:-0.618743 44:-0.636129 45:-0.838985 46:-0.731086 47:-0.358204 48:-0.825869 49:-0.757467 50:0.540041 51:0.817569 52:0.685348 53:-0.203698 54:-0.645248 55:-0.777778 56:-0.729186 57:-0.277628 58:-0.19739 59:0.655231 60:0.0731519 61:0.426719 62:0.224495 63:0.302773 64:-0.522497 
2.137677798875632 1.023521998525561 1.294555182609491 0.3799040115303545 1:0.863489 2:-0.415046 3:0.580874 4:0.134243 5:-0.417798 6:-0.603697 7:-0.675682 8:-0.322599 9:0.267549 10:0.0299719 11:-0.77536 12:-0.874146 13:-0.844413 14:-0.341431 15:-0.705613 16:-0.527857 17:-0.417288 18:-0.601444 19:-0.67485 20:-0.55677 21:-0.741727 22:-0.76695 23:0.474917 24:0.934293 25:0.807735 26:-0.853214 27:-0.514507 28:-0.710939 29:0.79809 30:-0.193238 31:0.759469 32:0.313367 33:0.0534079 34:-0.352406 35:0.541951 36:0.526241 37:-0.19322 38:-0.391388 39:-0.41575 40:-0.648506 41:0.172601 42:0.493815 43:0.450291 44:0.0711121 45:0.12165 46:-0.163108 47:0.527707 48:0.107855 49:-0.300108 50:0.176298 51:0.115315 52:0.656989 53:0.960472 54:0.327633 55:0.00485909 56:-0.00787381 57:-0.054303 58:0.289887 59:0.157315 60:0.250804 61:-0.335653 62:-0.0999612 63:-0.111117 64:0.085932 
0 0.4430074578298424 0.194733803192294 0 1:0.944949 2:-0.312341 3:0.374096 4:0.163287 5:-0.237909 6:-0.765279 7:-0.322123 8:-0.587378 9:0.1378 10:-0.345084 11:-0.109694 12:-0.892205 13:-0.167066 14:-0.162567 15:-0.503568 16:-0.282386 17:-0.246971 18:-0.785052 19:-0.321794 20:-0.274857 21:-0.823705 22:-0.379405 23:0.148804 24:0.908673 25:0.356707 26:-0.771039 27:-0.731081 28:-0.438944 29:0.863017 30:-0.241471 31:0.416399 32:0.247083 33:-0.119902 34:-0.344832 35:0.328882 36:0.265137 37:0.408267 38:-0.686041 39:-0.707275 40:-0.556617 41:-0.001207 42:0.346575 43:0.311037 44:0.0250867 45:-0.0134298 46:-0.304502 47:0.340456 48:-0.0459048 49:-0.348687 50:0.411558 51:0.0396476 52:0.776277 53:0.886516 54:-0.0129489 55:0.0890833 56:-0.379837 57:-0.0168592 58:0.25083 59:0.38517 60:0.319422 61:0.128348 62:-0.215442 63:-0.54291 64:-0.744798 
0.7469473992004066 0.07433200594194478 0.156931561758465 1.528342112733571 1:-0.122386 2:0.109741 3:0.12959 4:0.662045 5:0.116685 6:-0.4148 7:-0.388122 8:0.468535 9:-0.527412 10:0.133654 11:-0.00788822 12:-0.0724507 13:-0.832624 14:-0.0128649 15:-0.248193 16:-0.110487 17:0.112221 18:-0.458535 19:-0.357021 20:0.223241 21:-0.410734 22:-0.617425 23:0.406863 24:0.477717 25:0.756213 26:0.0966715 27:-0.673816 28:-0.433528 29:0.53745 30:0.209036 31:-0.0405763 32:0.0791264 33:-0.452623 34:0.0518036 35:0.146408 36:0.111805 37:-0.453877 38:-0.692343 39:-0.983836 40:-0.501725 41:-0.161361 42:-0.0689819 43:0.102647 44:-0.125111 45:-0.45252 46:-0.032461 47:0.30134 48:-0.520301 49:0.0878013 50:0.0572015 51:0.536668 52:0.00202568 53:0.432579 54:-0.375031 55:-0.239391 56:-0.108402 57:-0.0346592 58:-0.0836382 59:0.497803 60:0.313349 61:0.638014 62:-0.666644 63:-0.411591 64:-0.850019 
0 0.1787951766154969 0 0.2623326278631895 1:-0.1016 2:-0.178419 3:0.489405 4:-0.16709 5:0.0253296 6:-0.188261 7:-0.126216 8:0.197445 9:-0.459803 10:-0.0738814 11:-0.461975 12:-0.345276 13:-0.544552 14:0.199675 15:-0.267013 16:0.0114115 17:0.0109369 18:-0.226484 19:-0.126662 20:0.0701 21:-0.246169 22:-0.28029 23:0.324747 24:0.400225 25:0.281981 26:-0.172512 27:-0.477038 28:-0.312182 29:0.254148 30:0.105319 31:0.0351736 32:0.586757 33:-0.108616 34:0.733709 35:0.001253 36:0.191205 37:-0.596021 38:-0.628669 39:-0.720263 40:-0.17707 41:0.168754 42:0.741675 43:0.747067 44:0.310474 45:-0.105639 46:0.604571 47:0.972112 48:0.0087903 49:0.920115 50:-0.711939 51:0.138637 52:-0.863606 53:0.777494 54:0.176154 55:0.0132815 56:-0.306335 57:-0.369408 58:-0.217611 59:0.691106 60:0.363943 61:0.867915 62:-0.0346499 63:0.111823 64:-0.0957373 
0 0.2816069983381774 0 0 1:-0.145384 2:-0.308529 3:0.306554 4:0.567963 5:0.0494068 6:-0.392571 7:-0.470918 8:0.385608 9:-0.640245 10:0.202177 11:-0.0877696 12:0.195167 13:-0.624002 14:-0.111998 15:-0.320632 16:-0.184272 17:0.0357392 18:-0.435284 19:-0.444746 20:0.193762 21:-0.349185 22:-0.57882 23:0.271133 24:0.454439 25:0.726213 26:-0.0590068 27:-0.589688 28:-0.385414 29:0.623085 30:-0.00885293 31:0.409308 32:0.0284043 33:-0.517176 34:0.0504033 35:0.144977 36:-0.00938495 37:-0.512056 38:-0.621986 39:-0.916867 40:-0.198885 41:-0.193724 42:-0.0892008 43:0.106276 44:-0.167915 45:-0.444968 46:0.0286745 47:0.266208 48:-0.501326 49:0.302267 50:-0.00792023 51:0.370821 52:-0.0537924 53:0.299968 54:-0.498168 55:0.0664075 56:-0.468911 57:0.268356 58:-0.44834 59:0.628405 60:-0.0150939 61:0.704184 62:-0.427495 63:-0.343987 64:-0.817909 
0.9343473317245509 0.2948795626852883 0 0 1:-0.150687 2:0.387182 3:0.00332002 4:-0.412774 5:0.156981 6:0.0246756 7:0.402249 8:0.432384 9:-0.437065 10:-0.862159 11:-0.187822 12:-0.511835 13:0.688894 14:0.39558 15:0.415507 16:0.439479 17:0.178524 18:-0.0280551 19:0.406333 20:0.211743 21:-0.193829 22:0.214781 23:0.468431 24:0.317701 25:-0.646861 26:0.135122 27:-0.52129 28:-0.461266 29:0.326544 30:0.126231 31:0.289662 32:0.061112 33:-0.335634 34:0.536752 35:-0.0449702 36:0.287847 37:-0.373896 38:-0.661286 39:-0.69026 40:-0.729124 41:0.221862 42:0.211703 43:0.367685 44:-0.116637 45:-0.325032 46:0.444508 47:0.311481 48:-0.284777 49:0.269881 50:-0.312995 51:0.397253 52:-0.129417 53:0.0481351 54:-0.094063 55:-0.100745 56:-0.255891 57:-0.112184 58:-0.26013 59:0.632721 60:0.318174 61:0.677261 62:0.134715 63:0.128577 64:0.245837 
1.447050805066776 0.01136358346926077 0.1266294299953112 0.4749565014828995 1:-0.286425 2:-0.596782 3:0.483209 4:0.57002 5:-0.13003 6:-0.0480953 7:-0.396819 8:0.147524 9:-0.829117 10:0.518922 11:-0.6367 12:0.581566 13:-0.344891 14:-0.0667989 15:-0.327341 16:-0.144911 17:-0.121182 18:-0.0925207 19:-0.373581 20:-0.18906 21:-0.0245349 22:-0.506429 23:0.43755 24:0.126638 25:0.76577 26:-0.410001 27:-0.524388 28:-0.160294 29:0.556291 30:-0.205449 31:0.0217795 32:0.0335591 33:-0.536895 34:0.331924 35:0.000586825 36:0.316088 37:-0.449867 38:-0.53118 39:-0.742676 40:-0.533123 41:-0.0782287 42:0.083254 43:0.230333 44:-0.162721 45:-0.361589 46:0.230541 47:0.340819 48:-0.565509 49:0.280317 50:-0.276034 51:0.451671 52:-0.174882 53:0.139943 54:-0.534327 55:-0.147392 56:-0.572561 57:-0.0827702 58:-0.102383 59:0.687108 60:-0.100949 61:0.679237 62:-0.575983 63:-0.119262 64:-0.939253 
0 0.4086955524132705 0 0 1:0.995095 2:-0.547566 3:0.649433 4:0.169803 5:-0.189109 6:-0.695844 7:-0.407786 8:-0.48644 9:0.30164 10:0.288097 11:-0.382262 12:-0.760789 13:-0.0401715 14:-0.2687 15:-0.460353 16:-0.295565 17:-0.183318 18:-0.662819 19:-0.407072 20:-0.233033 21:-0.760263 22:-0.401036 23:0.137527 24:0.948596 25:0.56735 26:-0.726712 27:-0.526383 28:-0.192995 29:0.652875 30:-0.0638022 31:0.732343 32:-0.0634732 33:-0.546877 34:0.0140693 35:0.47686 36:0.301248 37:-0.572084 38:-0.131426 39:-0.449453 40:0.156535 41:-0.1551 42:0.0373454 43:0.0971609 44:-0.241817 45:-0.444062 46:0.097084 47:0.291561 48:-0.431282 49:0.38647 50:0.268994 51:0.399845 52:-0.021382 53:0.645521 54:-0.348155 55:0.264658 56:-0.493751 57:-0.294378 58:0.664387 59:-0.196046 60:-0.148411 61:0.293131 62:0.199619 63:0.00260056 64:-0.926012 
-3.66801617282 3.66801617282 3.66801617282 3.66801617282 1:0.942684 2:-0.243385 3:0.212623 4:0.106362 5:-0.922693 6:-0.962108 7:-0.953041 8:-0.776729 9:0.433722 10:-0.198702 11:0.398449 12:-0.427841 13:-0.842545 14:-0.928459 15:-0.963935 16:-0.954488 17:-0.92255 18:-0.990536 19:-0.94627 20:-0.919242 21:-0.966946 22:-0.970816 23:0.862106 24:0.9658 25:0.970141 26:-0.986684 27:-0.921417 28:-0.959411 29:0.634628 30:0.284897 31:0.163825 32:-0.8667 33:-0.955667 34:-0.938694 35:-0.069893 36:0.235016 37:0.362254 38:-0.430663 39:-0.892275 40:-0.529212 41:-0.851765 42:-0.889629 43:-0.849288 44:-0.891831 45:-0.934424 46:-0.83458 47:-0.809852 48:-0.964839 49:-0.933429 50:0.832209 51:0.923296 52:0.952735 53:-0.681224 54:-0.788908 55:-0.709751 56:-0.301796 57:-0.384078 58:-0.342347 59:0.459589 60:0.575617 61:0.636056 62:-0.817292 63:-0.484329 64:-0.41151 
-3.66801617282 0 1.153392797955003 0.5406787037366905 1:0.871835 2:-0.275919 3:0.210107 4:-0.0568599 5:-0.859966 6:-0.84853 7:-0.942925 8:-0.492047 9:0.300487 10:0.288909 11:-0.185475 12:-0.834522 13:-0.746128 14:-0.898247 15:-0.921117 16:-0.902532 17:-0.858842 18:-0.880666 19:-0.944543 20:-0.859982 21:-0.903772 22:-0.958021 23:0.808021 24:0.942423 25:0.958812 26:-0.956882 27:-0.834116 28:-0.945417 29:0.522767 30:0.0905899 31:0.461196 32:-0.768478 33:-0.792355 34:-0.792021 35:0.328222 36:0.215979 37:-0.00232893 38:-0.532293 39:-0.907091 40:-0.954258 41:-0.652459 42:-0.723359 43:-0.591488 44:-0.802724 45:-0.709303 46:-0.584814 47:-0.721116 48:-0.827264 49:-0.826916 50:0.786448 51:0.737238 52:0.932478 53:-0.574753 54:-0.72343 55:-0.547133 56:-0.582082 57:-0.0809089 58:0.0819226 59:0.18912 60:0.0171871 61:-0.47671 62:-0.558306 63:-0.267967 64:-0.439102 
-0.9973144143868906 0.8673022353785937 0.6477188517891141 0.8095576714587498 1:-0.324012 2:0.415401 3:-1 4:-0.14518 5:-0.083344 6:1 7:1 8:0.849785 9:-0.831541 10:-0.368758 11:0.618756 12:0.492476 13:0.102676 14:1 15:1 16:1 17:-0.0449117 18:1 19:1 20:-0.11182 21:0.929129 22:1 23:0.882078 24:-1 25:-1 26:0.07489 27:-0.634776 28:0.879273 29:0.00555908 30:0.0301458 31:-0.235297 32:-0.0322814 33:-0.726755 34:-0.483955 35:-0.00863669 36:0.118648 37:-0.0763897 38:-0.493672 39:-0.850747 40:-0.951614 41:-0.139258 42:-0.268792 43:-0.108593 44:-0.10202 45:-0.628764 46:-0.524016 47:0.333575 48:-0.717874 49:-0.578985 50:-0.429745 51:0.620109 52:0.554805 53:-0.039847 54:-0.642316 55:-0.644315 56:-0.731105 57:-0.0248087 58:-0.274263 59:0.765059 60:-0.028855 61:0.341103 62:0.327153 63:0.13823 64:-0.0393901 
-1.816709739912824 1.352111358221717 1.530901206382261 0.5846944407122092 1:-0.117873 2:-0.122815 3:0.145682 4:-0.0583406 5:-0.197689 6:-0.205081 7:-0.372631 8:0.706414 9:-0.224185 10:-0.119436 11:0.279916 12:-0.648204 13:-0.471887 14:-0.148033 15:-0.334486 16:-0.216331 17:-0.207902 18:-0.255207 19:-0.374397 20:-0.201825 21:-0.261508 22:-0.444354 23:0.737135 24:0.463295 25:0.465126 26:-0.167049 27:-0.392292 28:-0.438303 29:0.164099 30:-0.0177822 31:0.172942 32:-0.176794 33:-0.522946 34:-0.32015 35:0.355662 36:-0.309418 37:-0.0467875 38:-0.543938 39:-0.254392 40:-0.999724 41:-0.213488 42:-0.189106 43:-0.093049 44:-0.259277 45:-0.445938 46:-0.351535 47:0.0369432 48:-0.355937 49:-0.468154 50:0.0882956 51:0.0697073 52:0.587216 53:0.000956305 54:-0.527486 55:-0.398121 56:-0.510184 57:-0.783808 58:-0.0247857 59:0.623157 60:0.66699 61:-0.119394 62:0.132112 63:0.324343 64:0.0638197 
-0.6690299623859218 0.7667714994677779 1.823394944041232 0 1:0.203639 2:-0.379802 3:0.730589 4:0.277657 5:-0.531447 6:-0.422763 7:-0.437696 8:0.0727266 9:0.0850358 10:0.584056 11:-0.783337 12:-0.98663 13:-0.098183 14:-0.341479 15:-0.542573 16:-0.393899 17:-0.530741 18:-0.411114 19:-0.432779 20:-0.575987 21:-0.631921 22:-0.501229 23:0.674818 24:0.868043 25:0.746505 26:-0.704941 27:-0.410054 28:-0.17525 29:-0.601613 30:-1 31:0.628454 32:0.180351 33:-0.255001 34:-0.196293 35:0.520951 36:0.151466 37:-0.181277 38:-0.441751 39:-0.762507 40:-0.942958 41:0.421998 42:0.178877 43:0.704342 44:0.299657 45:0.31638 46:-0.107738 47:0.3477 48:-0.187945 49:-0.379273 50:-0.203285 51:-0.252138 52:0.63223 53:0.231113 54:-0.53677 55:-0.173307 56:-0.457975 57:-0.466427 58:-0.108926 59:0.455264 60:0.622383 61:-0.719258 62:-0.0108375 63:0.0533371 64:-0.519736 
-0.5758564080799905 0.3807464058595883 0 0.1481419803391516 1:-0.424694 2:-0.0954592 3:-0.735069 4:0.402853 5:-0.34501 6:0.70833 7:0.462698 8:0.101651 9:-0.570157 10:0.323863 11:-0.759379 12:-0.114836 13:0.00899193 14:0.402046 15:0.092212 16:0.508465 17:-0.351888 18:0.692036 19:0.467261 20:-0.403012 21:0.669924 22:0.476738 23:0.607313 24:-0.522835 25:-0.0444381 26:-0.539688 27:-0.289221 28:1 29:-0.22979 30:-0.541097 31:0.591873 32:-0.266968 33:-0.507394 34:0.0638559 35:0.540761 36:-0.00546151 37:-0.35204 38:-0.486527 39:-0.94637 40:-0.745687 41:-0.031382 42:-0.120362 43:0.279559 44:-0.150394 45:-0.132387 46:0.0903523 47:-0.217313 48:-0.528952 49:-0.124505 50:0.25726 51:0.185281 52:0.325231 53:-0.26299 54:-0.721476 55:-0.156463 56:-0.477951 57:-0.0628839 58:-0.256597 59:0.375716 60:-0.103465 61:0.174612 62:0.0128953 63:0.0912525 64:-0.466828 
-0 2.732929513844448 3.66801617282 0.08676881104149003 1:0.675268 2:-0.318763 3:0.469794 4:-0.0643199 5:-0.778001 6:-0.581908 7:-0.967097 8:-0.355803 9:0.465282 10:-0.114799 11:-0.74402 12:-0.507405 13:-0.763873 14:-0.739719 15:-0.831615 16:-0.781025 17:-0.775351 18:-0.601162 19:-0.967865 20:-0.848227 21:-0.657106 22:-0.97421 23:0.799463 24:0.912753 25:0.954731 26:-0.949091 27:-0.379529 28:-0.98905 29:-0.0781244 30:-0.57918 31:0.706343 32:-0.825568 33:-0.695186 34:-0.797733 35:0.377702 36:0.127529 37:-0.420533 38:-0.756279 39:-0.81578 40:-0.362875 41:-0.104179 42:-0.449572 43:-0.095921 44:-0.490006 45:-0.193301 46:-0.429426 47:-0.822528 48:-0.676015 49:-0.766103 50:0.559402 51:0.320549 52:0.90862 53:-1 54:-0.851454 55:-0.471979 56:-0.39799 57:-0.614406 58:0.773427 59:0.282652 60:0.479491 61:-0.963123 62:-0.432147 63:-0.349921 64:0.358035 
-1.732620111278369 0 0 0 1:0.0101841 2:-0.235563 3:0.424019 4:0.402767 5:-0.432819 6:-0.573184 7:-0.643375 8:0.182881 9:0.248364 10:0.0405268 11:-0.431739 12:-0.902714 13:-0.444632 14:-0.483757 15:-0.696107 16:-0.51284 17:-0.440696 18:-0.599111 19:-0.624543 20:-0.395281 21:-0.719947 22:-0.674393 23:0.601561 24:0.894234 25:0.74857 26:-0.534671 27:-0.543479 28:-0.577617 29:0.318056 30:-0.0924216 31:0.231358 32:-0.440684 33:-0.757562 34:-0.367025 35:0.121901 36:-0.0353757 37:-0.402158 38:-0.38076 39:-0.937389 40:-0.629173 41:-0.457076 42:-0.552569 43:-0.298291 44:-0.500587 45:-0.572973 46:-0.379645 47:-0.208982 48:-0.776476 49:-0.414897 50:0.192725 51:0.563099 52:0.460275 53:-0.318457 54:-0.798681 55:-0.484937 56:-0.760492 57:-0.314435 58:-0.075558 59:0.194446 60:0.436807 61:-0.277716 62:0.268802 63:0.108585 64:-0.345543 
-0.6197847307994759 0.2526648736032128 0.2230390469216377 0.3926493730248886 1:-0.466664 2:-0.416279 3:-0.444753 4:-0.586818 5:-0.625617 6:0.864349 7:0.072626 8:-0.337929 9:-0.763773 10:-0.733996 11:-0.513741 12:0.487654 13:0.335971 14:0.136658 15:0.215999 16:0.263276 17:-0.617802 18:0.80998 19:0.084969 20:-0.626348 21:1 22:-0.111123 23:0.603113 24:-0.800224 25:-0.228679 26:-0.832176 27:-0.119662 28:-0.635242 29:0.678337 30:0.516752 31:0.189938 32:0.0211354 33:-0.21898 34:-0.302317 35:0.219136 36:0.169243 37:-0.209074 38:-0.589344 39:-0.810425 40:-0.82052 41:-0.246304 42:0.0147479 43:0.0728584 44:-0.172526 45:-0.226671 46:-0.332166 47:0.250272 48:-0.128506 49:-0.374595 50:0.102963 51:0.365121 52:0.499887 53:0.392413 54:0.149279 55:-0.355361 56:0.136566 57:-0.14694 58:0.17315 59:0.076696 60:-0.14196 61:-0.107959 62:-0.0324014 63:-0.468026 64:0.213937 
-3.66801617282 0 0 0.3032922573705489 1:-0.107671 2:-0.265027 3:0.526033 4:0.089342 5:-0.189488 6:-0.453593 7:-0.40543 8:0.826528 9:-0.186305 10:0.341887 11:0.593035 12:-0.556081 13:-0.353232 14:-0.312587 15:-0.453747 16:-0.274519 17:-0.200479 18:-0.473846 19:-0.406499 20:-0.173627 21:-0.446164 22:-0.48783 23:0.726112 24:0.637937 25:0.678959 26:-0.140125 27:-0.451227 28:-0.238991 29:0.515553 30:0.177898 31:-0.110023 32:-0.0224264 33:-0.517295 34:-0.176803 35:0.0238768 36:0.245467 37:-0.32973 38:-0.24219 39:-0.819813 40:-0.716358 41:-0.380884 42:-0.0323502 43:-0.049484 44:-0.205898 45:-0.507446 46:-0.246351 47:0.423035 48:-0.55016 49:-0.289313 50:-0.317102 51:0.595232 52:0.247355 53:0.240038 54:-0.372099 55:-0.565274 56:-0.656247 57:-0.327119 58:-0.462899 59:0.682655 60:0.531992 61:0.170669 62:0.100237 63:-0.143717 64:-0.165148 
-0.1518976382474911 0.4085266980020654 0.2469042269125667 0.9718112160145489 1:-0.698533 2:-0.337431 3:-0.3157 4:-0.167372 5:-0.372346 6:-0.0114573 7:-0.489795 8:-0.491817 9:-0.971812 10:-0.894426 11:-0.0500931 12:0.931855 13:0.75236 14:-0.518272 15:-0.152949 16:-0.277231 17:-0.378044 18:-0.036513 19:-0.489842 20:-0.342948 21:0.0240873 22:-0.570928 23:0.282137 24:-0.0535396 25:0.377852 26:-0.743628 27:-0.756576 28:-0.857416 29:0.690898 30:0.444097 31:-0.138049 32:-0.678269 33:-0.599511 34:-0.632749 35:-0.0933981 36:0.265006 37:-0.330903 38:-0.597613 39:-0.72169 40:-0.670082 41:-0.654119 42:-0.492388 43:-0.537807 44:-0.734589 45:-0.603575 46:-0.670216 47:-0.572256 48:-0.604297 49:-0.642677 50:0.63743 51:0.749676 52:0.607923 53:-0.474657 54:-0.32128 55:-0.68254 56:0.283845 57:0.0196069 58:-0.205461 59:0.660427 60:0.293317 61:-0.420389 62:0.649035 63:0.248805 64:-0.377683 
-0 3.66801617282 3.66801617282 0 1:0.12976 2:-0.116482 3:0.492169 4:-0.00775334 5:-0.748552 6:-0.794917 7:-0.878403 8:0.586958 9:0.196877 10:-0.106027 11:0.0790356 12:-0.929712 13:-0.608353 14:-0.840283 15:-0.822911 16:-0.805203 17:-0.748392 18:-0.785573 19:-0.880818 20:-0.719417 21:-0.872994 22:-0.894996 23:0.872524 24:0.959164 25:0.889629 26:-0.719218 27:-0.739659 28:-0.895316 29:0.656355 30:0.343662 31:-0.0439529 32:-0.825457 33:-0.783357 34:-0.772142 35:-0.0510075 36:-0.0349288 37:-0.423432 38:-0.685032 39:-0.768295 40:-0.586256 41:-0.821741 42:-0.763796 43:-0.746499 44:-0.856401 45:-0.788925 46:-0.797146 47:-0.800072 48:-0.761406 49:-0.782296 50:0.803461 51:0.767816 52:0.728562 53:-0.69525 54:-0.579282 55:-0.760285 56:-0.275177 57:-0.401649 58:-0.374635 59:-0.580067 60:-0.452391 61:-0.282469 62:0.291208 63:0.460954 64:-0.186725 
-1.883150592540199 0 0 0 1:0.473164 2:-0.244535 3:0.368482 4:-0.206377 5:-0.768449 6:-0.656881 7:-0.466742 8:0.0996727 9:0.610516 10:-0.939196 11:-0.22304 12:-0.0707879 13:0.859778 14:-0.584178 15:-0.601064 16:-0.530281 17:-0.771137 18:-0.684579 19:-0.46574 20:-0.716927 21:-0.684232 22:-0.555076 23:0.777264 24:0.923505 25:0.339263 26:-0.7985 27:-0.415695 28:-0.874646 29:0.565627 30:0.460353 31:-0.0761438 32:-0.626393 33:-0.790335 34:-0.792542 35:-0.823471 36:0.188401 37:-0.341232 38:0.500203 39:-0.738013 40:-0.697442 41:-0.784928 42:-0.669838 43:-0.662426 44:-0.696177 45:-0.781378 46:-0.818966 47:-0.499819 48:-0.785405 49:-0.800648 50:0.312995 51:0.861104 52:0.742516 53:-0.699713 54:-0.53335 55:-0.773243 56:-0.315656 57:-0.155986 58:-0.0211817 59:-0.99338 60:-0.472128 61:0.0200795 62:1 63:0.508306 64:-0.288492 
-3.360854666621357 3.66801617282 3.66801617282 3.66801617282 1:0.099557 2:-0.134053 3:0.120132 4:0.208855 5:-0.714255 6:-0.849822 7:-0.888635 8:-0.0346053 9:0.234132 10:0.614328 11:-0.628156 12:-0.871182 13:-0.0878256 14:-0.765904 15:-0.897916 16:-0.806687 17:-0.716106 18:-0.878402 19:-0.874588 20:-0.721953 21:-0.900676 22:-0.90191 23:0.787456 24:0.924471 25:0.968508 26:-0.796173 27:-0.860862 28:-0.800443 29:0.720857 30:0.466229 31:0.0664641 32:-0.795599 33:-0.745262 34:-0.846744 35:0.179067 36:0.262574 37:-0.120509 38:-0.625622 39:-0.547848 40:-0.701641 41:-0.794885 42:-0.689819 43:-0.710781 44:-0.819492 45:-0.738119 46:-0.832419 47:-0.733068 48:-0.682712 49:-0.844189 50:0.822822 51:0.779736 52:0.837047 53:-0.556264 54:-0.430247 55:-0.715581 56:-0.300339 57:-0.278625 58:0.205353 59:-0.27687 60:-0.0423061 61:0.0105958 62:0.0880457 63:0.0647984 64:-0.0335234 
-0 0.7744454357957266 0 0 1:0.126808 2:-0.132902 3:0.321144 4:0.220043 5:-0.771311 6:-0.859447 7:-0.80461 8:0.378022 9:0.316181 10:-0.153217 11:-0.375661 12:-0.777973 13:-0.119077 14:-0.77039 15:-0.818947 16:-0.790323 17:-0.771822 18:-0.879889 19:-0.795351 20:-0.762429 21:-0.898478 22:-0.798396 23:0.87147 24:0.956236 25:0.826829 26:-0.775761 27:-0.797687 28:-0.757652 29:0.71585 30:0.385713 31:0.152006 32:-0.681396 33:-0.729729 34:-0.838455 35:0.226487 36:-0.45345 37:-0.341128 38:-0.542777 39:-0.302557 40:-0.714501 41:-0.770896 42:-0.745718 43:-0.652229 44:-0.732921 45:-0.735936 46:-0.787413 47:-0.589279 48:-0.657597 49:-0.856423 50:0.74714 51:0.563099 52:0.843349 53:-0.3854 54:-0.59052 55:-0.728539 56:0.406073 57:-0.721326 58:-0.349508 59:0.0169967 60:-0.879407 61:-0.483156 62:-0.215361 63:-0.844254 64:0.170043 
-3.66801617282 0 0 0 1:0.01457 2:-0.166706 3:0.274341 4:0.234119 5:-0.681782 6:-0.817179 7:-0.853126 8:0.261492 9:0.22103 10:0.378866 11:-0.265442 12:-0.896382 13:-0.470365 14:-0.770844 15:-0.884704 16:-0.771286 17:-0.685651 18:-0.846589 19:-0.839159 20:-0.632063 21:-0.882489 22:-0.871496 23:0.755591 24:0.935136 25:0.929981 26:-0.707512 27:-0.803619 28:-0.783504 29:0.808614 30:0.4573 31:-0.135911 32:-0.622256 33:-0.708306 34:-0.684817 35:0.365073 36:0.145376 37:-0.409771 38:-0.470675 39:-0.706501 40:-0.602571 41:-0.733102 42:-0.461227 43:-0.576774 44:-0.665182 45:-0.705457 46:-0.7187 47:-0.501992 48:-0.657318 49:-0.703131 50:0.750073 51:0.743975 52:0.639433 53:-0.228562 54:-0.419497 55:-0.746032 56:-0.348616 57:-0.306932 58:-0.194586 59:0.210683 60:0.12994 61:-0.452778 62:0.385379 63:0.365928 64:-0.656049 
-0 1.041737161089856 0 0 1:-0.586192 2:-0.265467 3:0.469121 4:0.493272 5:-0.658558 6:-0.439476 7:-0.396803 8:0.0975336 9:-0.534134 10:0.996727 11:-0.746502 12:0.124871 13:0.788426 14:-0.513877 15:-0.534099 16:-0.404975 17:-0.662322 18:-0.467667 19:-0.379621 20:-0.678335 21:-0.351977 22:-0.475213 23:0.744004 24:0.528763 25:0.870821 26:-0.777393 27:-0.45826 28:0.0606699 29:0.617823 30:0.22575 31:-0.0643255 32:-0.633149 33:-0.643461 34:-0.78535 35:-0.245571 36:-0.287966 37:-0.189626 38:-0.532152 39:-0.640989 40:-0.800935 41:-0.713941 42:-0.553758 43:-0.584283 44:-0.703578 45:-0.636871 46:-0.811432 47:-0.546903 48:-0.593414 49:-0.788053 50:0.507774 51:0.484841 52:0.763673 53:-0.570928 54:-0.551918 55:-0.720117 56:-0.351567 57:-0.691952 58:0.0655369 59:-0.401843 60:-0.424618 61:0.226568 62:-0.767918 63:-0.613154 64:0.514025 
-0.2073944922963983 0 0 0 1:-0.656736 2:-0.220759 3:-0.0306537 4:-0.779382 5:-0.605424 6:-0.171242 7:0.215956 8:-0.377108 9:-0.885314 10:-0.966538 11:-0.342279 12:0.725841 13:0.927608 14:-0.0890951 15:0.111717 16:0.103084 17:-0.61097 18:-0.215482 19:0.236421 20:-0.609208 21:-0.156566 22:0.0357527 23:0.579141 24:0.156848 25:-0.515086 26:-0.83077 27:-0.741263 28:-0.694736 29:0.469722 30:0.243227 31:0.0349485 32:-0.399099 33:-0.521188 34:-0.753377 35:-0.586421 36:-0.138146 37:-0.20774 38:0.0527105 39:-0.599978 40:-0.692606 41:-0.612477 42:-0.504044 43:-0.393652 44:-0.503198 45:-0.52384 46:-0.765394 47:-0.174937 48:-0.400307 49:-0.738395 50:-0.0237607 51:0.31744 52:0.738015 53:-0.493784 54:-0.37161 55:-0.667638 56:0.476168 57:-0.498735 58:-0.0630217 59:0.689888 60:-0.336355 61:-0.151074 62:0.875795 63:-0.228176 64:-0.127509 
-0.4294659918891858 0 0 0 1:-0.837478 2:-0.494138 3:0.245537 4:-0.276347 5:-0.587488 6:-0.706662 7:-0.738115 8:-0.104252 9:-0.0867914 10:-0.53604 11:-0.690453 12:-0.554935 13:0.0269228 14:-0.609678 15:-0.709759 16:-0.648476 17:-0.570776 18:-0.741951 19:-0.729652 20:-0.616038 21:-0.693136 22:-0.76461 23:0.66156 24:0.787242 25:0.688316 26:-0.768223 27:-0.685612 28:-0.873596 29:0.602376 30:0.402885 31:-0.0177275 32:-0.481965 33:-0.778229 34:-0.59373 35:-0.293555 36:0.0902971 37:-0.375965 38:-0.373692 39:-0.719348 40:-0.571425 41:-0.639258 42:-0.562084 43:-0.527545 44:-0.581093 45:-0.781514 46:-0.63014 47:-0.304238 48:-0.735733 49:-0.598057 50:0.2643 51:0.77248 52:0.597569 53:-0.408352 54:-0.529929 55:-0.617104 56:0.0096656 57:-0.649678 58:0.313808 59:0.266035 60:-0.352326 61:-0.13272 62:0.778144 63:0.00393648 64:-0.404626 
-0 0.09846299988994198 0.5707215747912027 0.6751713349675112 1:0.218599 2:-0.302302 3:0.381905 4:0.0727132 5:-0.670083 6:-0.617774 7:-0.930916 8:0.965877 9:0.687936 10:-0.100638 11:0.91648 12:0.0998681 13:-0.625664 14:-0.744734 15:-0.736757 16:-0.746857 17:-0.671748 18:-0.646083 19:-0.929493 20:-0.666823 21:-0.654017 22:-0.94369 23:0.904935 24:0.936477 25:0.939004 26:-0.623126 27:-0.329357 28:-0.939765 29:0.673838 30:0.350225 31:-0.0236929 32:-0.623901 33:-0.854343 34:-0.749257 35:0.596228 36:0.2357 37:-0.950397 38:-0.184287 39:-0.318589 40:0.859664 41:-0.789831 42:-0.600856 43:-0.678089 44:-0.693191 45:-0.858535 46:-0.773476 47:-0.523361 48:-0.802707 49:-0.689457 50:0.769434 51:0.834154 52:0.586766 53:-0.245139 54:-0.589054 55:-0.797214 56:0.75528 57:0.139927 58:-0.0754252 59:0.693097 60:0.154499 61:-0.26886 62:-0.979651 63:-0.677056 64:0.532137 
-0 3.66801617282 1.389270804003793 0.8774386235857718 1:0.570485 2:-0.242857 3:0.349315 4:0.302294 5:-0.790388 6:-0.650413 7:-0.651801 8:0.163656 9:0.77386 10:0.425193 11:-0.650703 12:0.3543 13:0.00778361 14:-0.639718 15:-0.705833 16:-0.659168 17:-0.792775 18:-0.680483 19:-0.641428 20:-0.802036 21:-0.651596 22:-0.649393 23:0.865871 24:0.916272 25:0.782601 26:-0.831835 27:-0.361655 28:-0.471193 29:0.60679 30:0.435549 31:-0.120041 32:-0.656756 33:-0.788453 34:-0.778918 35:0.0043881 36:0.286154 37:-0.167509 38:-0.456336 39:-0.523391 40:-0.682964 41:-0.787417 42:-0.664605 43:-0.677746 44:-0.722655 45:-0.785781 46:-0.806856 47:-0.531329 48:-0.738524 49:-0.769341 50:0.566442 51:0.801503 52:0.726311 53:-0.479758 54:-0.507452 55:-0.740201 56:0.676432 57:-0.0930511 58:0.163031 59:-0.758145 60:-0.469941 61:0.412653 62:-0.789961 63:-0.60651 64:0.654357 
-3.66801617282 3.66801617282 3.66801617282 3.66801617282 1:0.864522 2:-0.322695 3:0.272674 4:0.0951212 5:-0.922728 6:-0.96102 7:-0.988007 8:-0.166131 9:0.311222 10:-0.0629158 11:-0.706457 12:-0.570061 13:-0.796898 14:-0.920709 15:-0.963101 16:-0.961048 17:-0.910866 18:-0.979299 19:-0.977118 20:-0.924428 21:-0.966231 22:-0.989736 23:0.888746 24:0.971399 25:0.990983 26:-0.97032 27:-0.909606 28:-0.974347 29:0.3683 30:0.0399145 31:0.556869 32:-0.949676 33:-0.948545 34:-0.876184 35:0.384498 36:0.610436 37:0.135067 38:-0.696446 39:-0.231094 40:-0.755488 41:-0.588337 42:-0.769505 43:-0.607902 44:-0.831886 45:-0.753386 46:-0.553362 47:-0.952553 48:-0.946421 49:-0.86434 50:0.842769 51:0.824307 52:0.997299 53:-0.920944 54:-0.849988 55:-0.521218 56:-0.38459 57:-0.596739 58:0.175983 59:0.0525008 60:0.445984 61:-0.00214458 62:0.0472508 63:0.503603 64:-0.0806809 
-0.2102139899721212 0 0 0 1:-0.0630206 2:-0.208803 3:0.299193 4:0.477854 5:-0.797099 6:-0.870107 7:-0.731197 8:0.417777 9:0.234859 10:0.80168 11:-0.244819 12:-0.858194 13:0.303957 14:-0.694121 15:-0.764142 16:-0.736079 17:-0.799976 18:-0.893283 19:-0.696788 20:-0.791807 21:-0.901212 22:-0.778471 23:0.892899 24:0.933916 25:0.968567 26:-0.795198 27:-0.844534 28:-0.511461 29:0.62665 30:0.398458 31:-0.0299961 32:-0.786625 33:-0.853929 34:-0.785186 35:0.240359 36:-0.10448 37:-0.153332 38:-0.547784 39:-0.582037 40:-0.989146 41:-0.815706 42:-0.811846 43:-0.771529 44:-0.827642 45:-0.855103 46:-0.807114 47:-0.723651 48:-0.822799 49:-0.853185 50:0.765327 51:0.79632 52:0.808238 53:-0.602168 54:-0.659907 55:-0.773243 56:-0.874334 57:-0.822024 58:-0.113985 59:0.90347 60:0.9626 61:-0.586759 62:-0.465538 63:-0.457253 64:-0.634553 
-2.176572236332007 0 1.433231589766192 3.66801617282 1:0.860944 2:-0.316245 3:0.254918 4:0.0673521 5:-0.850624 6:-0.931487 7:-0.964926 8:-0.331818 9:0.625184 10:-0.257634 11:-0.622049 12:0.0358026 13:-0.617806 14:-0.880179 15:-0.927414 16:-0.918066 17:-0.84522 18:-0.95671 19:-0.962153 20:-0.862062 21:-0.933066 22:-0.972041 23:0.824781 24:0.965803 25:0.960731 26:-0.945058 27:-0.851451 28:-0.975528 29:0.522937 30:0.39655 31:0.501942 32:-0.935048 33:-0.914863 34:-0.933941 35:0.680099 36:0.700246 37:-0.339047 38:0.255423 39:0.32325 40:-0.420973 41:-0.625151 42:-0.874405 43:-0.722472 44:-0.922457 45:-0.913433 46:-0.604653 47:-0.897501 48:-0.880843 49:-0.916877 50:0.887944 51:0.941954 52:0.987396 53:-0.774944 54:-0.624237 55:-0.630062 56:-0.585709 57:-0.674669 58:0.897613 59:0.797 60:0.807988 61:-0.745131 62:-0.813763 63:-0.721459 64:0.321651 
-1.274456783952226 0 0 0 1:-0.0214893 2:-0.29775 3:0.339649 4:0.237535 5:-0.809295 6:-0.795902 7:-0.854663 8:0.267683 9:0.251419 10:0.287042 11:-0.442049 12:-0.848256 13:-0.843555 14:-0.813756 15:-0.90605 16:-0.817945 17:-0.807702 18:-0.818607 19:-0.840131 20:-0.79342 21:-0.853342 22:-0.910309 23:0.847715 24:0.94027 25:0.958114 26:-0.836417 27:-0.733955 28:-0.834733 29:0.552811 30:0.277341 31:0.0967415 32:-0.484959 33:-0.778026 34:-0.693489 35:-0.10959 36:0.287543 37:-0.222799 38:-0.485149 39:-0.70629 40:-0.932992 41:-0.646952 42:-0.691484 43:-0.548257 44:-0.581308 45:-0.775004 46:-0.697103 47:-0.331764 48:-0.777592 49:-0.790212 50:0.318862 51:0.784918 52:0.780779 53:-0.397514 54:-0.591498 55:-0.699385 56:-0.884617 57:-0.384151 58:-0.0471834 59:0.614377 60:0.543895 61:-0.678881 62:0.224968 63:0.352909 64:-0.991681 
-0 1.947668143290733 3.613793969187022 0 1:-0.759068 2:-0.255648 3:0.173075 4:0.0559437 5:-0.795817 6:-0.835576 7:-0.853304 8:-0.266838 9:-0.424178 10:-0.474241 11:-0.784276 12:-0.152927 13:0.0102784 14:-0.822631 15:-0.855671 16:-0.831961 17:-0.79758 18:-0.867998 19:-0.854274 20:-0.83654 21:-0.829473 22:-0.857455 23:0.828731 24:0.829496 25:0.838406 26:-0.908627 27:-0.889144 28:-0.879574 29:0.653639 30:0.363962 31:0.04294 32:-0.778808 33:-0.833834 34:-0.775991 35:0.205992 36:0.225852 37:-0.484105 38:-0.78551 39:-0.702128 40:-0.505465 41:-0.807257 42:-0.754044 43:-0.749858 44:-0.81946 45:-0.838565 46:-0.782782 47:-0.760232 48:-0.810799 49:-0.798129 50:0.815195 51:0.840373 52:0.741166 53:-0.612369 54:-0.597361 55:-0.770651 56:-0.154798 57:-0.375553 58:0.141945 59:0.428636 60:0.375702 61:-0.375847 62:0.00574783 63:-0.151333 64:0.0141179 
-0 1.667872496340504 0 0 1:-0.58258 2:-0.257672 3:0.132844 4:0.0228397 5:-0.836684 6:-0.57651 7:-0.747597 8:0.00393056 9:-0.451544 10:-0.300323 11:-0.800814 12:-0.176193 13:-0.344041 14:-0.68997 15:-0.768335 16:-0.720718 17:-0.83753 18:-0.615502 19:-0.749627 20:-0.849157 21:-0.575246 22:-0.776674 23:0.861444 24:0.619861 25:0.756302 26:-0.896613 27:-0.751141 28:-0.806111 29:0.497899 30:0.2981 31:0.0456413 32:-0.623754 33:-0.809883 34:-0.565184 35:-0.20629 36:-0.0835172 37:-0.190005 38:-0.534175 39:-0.869949 40:-0.911729 41:-0.643558 42:-0.681256 43:-0.585618 44:-0.685065 45:-0.80941 46:-0.595395 47:-0.504165 48:-0.809962 49:-0.665707 50:0.460839 51:0.768334 52:0.667342 53:-0.546701 54:-0.663816 55:-0.638484 56:-0.311701 57:-0.551803 58:-0.304088 59:0.408011 60:0.241327 61:0.0150886 62:0.188612 63:-0.239974 64:-0.209374 
-3.66801617282 0 0.1167933676340163 2.810211066828443 1:0.736237 2:-0.398303 3:0.402621 4:0.128177 5:-0.793549 6:-0.775476 7:-0.906921 8:-0.270738 9:0.614448 10:0.257723 11:-0.797223 12:-0.236747 13:-0.452319 14:-0.806133 15:-0.845264 16:-0.82732 17:-0.778618 18:-0.789325 19:-0.901319 20:-0.843442 21:-0.815695 22:-0.916514 23:0.803077 24:0.963141 25:0.951429 26:-0.939773 27:-0.613998 28:-0.858669 29:0.684193 30:0.389529 31:0.421915 32:-0.689939 33:-0.563292 34:-0.860942 35:0.710365 36:0.650635 37:-0.388892 38:-0.140331 39:-0.231169 40:-0.448591 41:-0.671243 42:-0.528544 43:-0.512076 44:-0.744798 45:-0.573282 46:-0.638197 47:-0.624049 48:-0.567183 49:-0.838071 50:0.842769 51:0.812905 52:0.897817 53:-0.342684 54:-0.196677 55:-0.617104 56:-0.748168 57:-0.787002 58:0.748671 59:1 60:1 61:-0.931414 62:0.321885 63:0.235799 64:-0.492857 
-3.66801617282 0 0 0 1:-0.333333 2:-0.358639 3:0.331205 4:0.0580305 5:-0.831293 6:-0.720598 7:-0.790274 8:-0.160078 9:-0.0922473 10:0.06713 11:-0.775219 12:-0.543605 13:-0.877488 14:-0.667332 15:-0.888273 16:-0.777939 17:-0.820507 18:-0.749013 19:-0.791499 20:-0.839673 21:-0.723131 22:-0.854625 23:0.822723 24:0.798729 25:0.86718 26:-0.917882 27:-0.726346 28:-0.832438 29:0.552217 30:0.502709 31:0.357758 32:-0.540944 33:-0.768367 34:-0.729204 35:0.29702 36:-0.440441 37:-0.170262 38:-0.739 39:-0.272769 40:-0.988988 41:-0.638126 42:-0.748097 43:-0.535652 44:-0.626326 45:-0.748182 46:-0.611329 47:-0.54799 48:-0.71899 49:-0.823678 50:0.670871 51:0.671936 52:0.882062 53:-0.395601 54:-0.595407 55:-0.613865 56:-0.709606 57:-0.445235 58:0.258642 59:0.800444 60:0.921228 61:-0.369116 62:0.0346759 63:0.0905578 64:-0.604109 
-1.590665208245502 0 0 1.570986577421604 1:-0.223451 2:-0.236829 3:0.386385 4:0.207704 5:-0.595825 6:-0.630551 7:-0.758928 8:0.0428681 9:-0.166911 10:0.327193 11:-0.829515 12:-0.389357 13:-0.785711 14:-0.566107 15:-0.755014 16:-0.655441 17:-0.601323 18:-0.657655 19:-0.752505 20:-0.664206 21:-0.604138 22:-0.850781 23:0.757605 24:0.72925 25:0.930117 26:-0.74734 27:-0.608881 28:-0.73483 29:0.463272 30:0.393803 31:0.0472171 32:-0.515336 33:-0.738263 34:-0.506127 35:-0.103228 36:-0.327369 37:-0.30006 38:-0.697936 39:-0.571739 40:-0.801868 41:-0.594976 42:-0.559943 43:-0.487016 44:-0.593718 45:-0.743657 46:-0.541546 47:-0.432814 48:-0.703363 49:-0.585103 50:0.388677 51:0.630474 52:0.565609 53:-0.499522 54:-0.607134 55:-0.63978 56:-0.923061 57:-0.837632 58:-0.23764 59:0.643971 60:0.772175 61:-0.283057 62:-0.342239 63:-0.21091 64:-0.637591 
-1.633074537468811 0 0 2.110116021045496 1:0.69923 2:-0.207322 3:0.381882 4:0.0235848 5:-1 6:-1 7:-0.994812 8:-0.177906 9:0.588268 10:0.184426 11:-0.832547 12:0.000620859 13:-0.897727 14:-0.975299 15:-1 16:-1 17:-1 18:-0.958 19:-0.994925 20:-1 21:-1 22:-0.996581 23:0.977284 24:1 25:0.992605 26:-0.991381 27:-0.926542 28:-0.988084 29:0.688776 30:0.311379 31:-0.201756 32:-0.968827 33:-0.988014 34:-0.996353 35:0.422106 36:-0.341198 37:-0.273359 38:-0.655548 39:-0.688307 40:-0.804159 41:-0.964846 42:-0.977402 43:-0.953314 44:-0.950359 45:-0.972094 46:-0.966167 47:-0.970663 48:-0.99107 49:-1 50:1 51:0.938326 52:0.867657 53:-0.781957 54:-0.820669 55:-0.952057 56:-0.264289 57:0.22126 58:0.47348 59:0.0450791 60:-0.670342 61:-0.573715 62:-0.503345 63:-0.280919 64:-0.923302 
-3.667388078443732 0 0 0 1:-0.366534 2:-0.172718 3:0.268326 4:-0.0494368 5:-0.686555 6:-0.614153 7:-0.53792 8:0.0759843 9:-0.299876 10:-0.684583 11:-0.800991 12:-0.227991 13:0.350502 14:-0.516924 15:-0.638295 16:-0.558673 17:-0.690519 18:-0.651424 19:-0.539888 20:-0.730085 21:-0.581103 22:-0.577493 23:0.829514 24:0.680724 25:0.477566 26:-0.770266 27:-0.650887 28:-0.73239 29:0.542202 30:0.453102 31:0.0842479 32:-0.530342 33:-0.82843 34:-0.607646 35:-0.219509 36:0.15196 37:-0.386327 38:-0.440171 39:-0.863372 40:-0.686889 41:-0.671545 42:-0.691246 43:-0.560967 44:-0.61691 45:-0.818285 46:-0.625816 47:-0.382108 48:-0.833124 49:-0.65887 50:0.341156 51:0.884944 52:0.63088 53:-0.461906 54:-0.59443 55:-0.678652 56:-0.840779 57:-0.823048 58:-0.119607 59:0.803754 60:0.762107 61:-0.243857 62:0.701049 63:0.569249 64:-0.26915 
-0.7245690601094369 0 0 0 1:-0.186458 2:-0.105891 3:0.743303 4:0.126019 5:-0.603572 6:-0.549676 7:-0.67744 8:0.112753 9:-0.0309433 10:0.35817 11:-0.78782 12:-0.553863 13:-0.653315 14:-0.537011 15:-0.707944 16:-0.584956 17:-0.606066 18:-0.518223 19:-0.676918 20:-0.668386 21:-0.546475 22:-0.774002 23:0.817652 24:0.748933 25:0.876628 26:-0.70074 27:-0.453476 28:-0.630446 29:0.464121 30:0.492941 31:0.311047 32:-0.436119 33:-0.601006 34:-0.632605 35:0.313122 36:0.153024 37:-0.523592 38:-0.664204 39:-0.730743 40:-0.322347 41:-0.517728 42:-0.551142 43:-0.397034 44:-0.531605 45:-0.59655 46:-0.56897 47:-0.326331 48:-0.548207 49:-0.625405 50:0.437372 51:0.62581 52:0.62998 53:-0.259165 54:-0.339849 55:-0.619695 56:-0.916393 57:-0.805151 58:-0.312186 59:0.65518 60:0.753051 61:-0.38607 62:-0.314939 63:-0.133965 64:-0.639051 
-0 0 0 0.7135867400076942 1:0.204722 2:-0.191587 3:0.314743 4:0.192388 5:-0.893292 6:-0.882161 7:-0.927055 8:0.243395 9:0.314486 10:-0.0464829 11:-0.422771 12:-0.672367 13:-0.880791 14:-0.870976 15:-0.927995 16:-0.906908 17:-0.894551 18:-0.90153 19:-0.91047 20:-0.880241 21:-0.900851 22:-0.952325 23:0.918976 24:0.951659 25:0.969919 26:-0.886989 27:-0.811038 28:-0.916446 29:0.649735 30:0.373884 31:-0.0755811 32:-0.86615 33:-0.918899 34:-0.939368 35:-0.39856 36:0.250035 37:-0.0852704 38:-0.137539 39:-0.753963 40:-0.891659 41:-0.916264 42:-0.910324 43:-0.88872 44:-0.889669 45:-0.921062 46:-0.954289 47:-0.815647 48:-0.916562 49:-0.951062 50:0.782928 51:0.926406 52:0.871258 53:-0.744979 54:-0.701441 55:-0.858763 56:-0.681216 57:-0.268653 58:-0.0309179 59:-0.473669 60:-0.0221987 61:-0.632375 62:-0.11904 63:0.365461 64:-0.820385 
-0 0 0 0.4361646978292444 1:0.0122724 2:-0.159018 3:0.230226 4:-0.052305 5:-0.884706 6:-0.897318 7:-0.859355 8:0.230966 9:0.213862 10:-0.845271 11:-0.604462 12:-0.672927 13:0.613995 14:-0.892388 15:-0.895151 16:-0.87929 17:-0.884342 18:-0.926991 19:-0.861427 20:-0.883151 21:-0.905015 22:-0.882255 23:0.926364 24:0.930189 25:0.812965 26:-0.884355 27:-0.859267 28:-0.973436 29:0.577085 30:0.373044 31:-0.0965164 32:-0.804748 33:-0.916262 34:-0.934307 35:-0.839913 36:0.265802 37:-0.363134 38:0.634748 39:-0.581184 40:-0.634362 41:-0.907212 42:-0.832065 43:-0.853671 44:-0.840493 45:-0.91858 46:-0.951708 47:-0.714958 48:-0.894517 49:-0.938107 50:0.608096 51:0.906193 52:0.839298 53:-0.75773 54:-0.681896 55:-0.881438 56:-0.388946 57:0.0535552 58:0.0817332 59:0.0800418 60:0.220845 61:-0.841376 62:0.935843 63:0.518617 64:-0.260039 
-3.284461086453557 0 2.152716313012064 3.66801617282 1:0.726402 2:-0.234833 3:0.237377 4:-0.00176173 5:-0.941779 6:-0.893758 7:-0.960954 8:0.0401198 9:0.156544 10:0.0515355 11:-0.728457 12:-0.618937 13:-0.965101 14:-0.962719 15:-0.972822 16:-0.955951 17:-0.941778 18:-0.923038 19:-0.963317 20:-0.942938 21:-0.901034 22:-0.978434 23:0.931064 24:0.935297 25:0.972963 26:-0.95761 27:-0.841617 28:-0.973267 29:0.60993 30:0.335419 31:-0.0304463 32:-0.960724 33:-0.9628 34:-0.943266 35:0.324405 36:-0.529496 37:-0.0482571 38:-0.559282 39:0.0530812 40:-0.919597 41:-0.953757 42:-0.944339 43:-0.949064 44:-0.968731 45:-0.961792 46:-0.945277 47:-0.951105 48:-0.945863 49:-0.95502 50:0.950719 51:0.893237 52:0.884312 53:-0.801084 54:-0.784021 55:-0.847101 56:-0.627858 57:0.131134 58:0.276311 59:0.444796 60:-0.0542928 61:-0.659093 62:-0.493381 63:-0.412322 64:-0.482638 
-0 0.9580958645196664 3.66801617282 3.66801617282 1:-0.675026 2:-0.28947 3:0.221474 4:0.0222118 5:-0.946624 6:-0.880492 7:-0.79761 8:-0.204823 9:-0.354688 10:-0.366855 11:-0.930588 12:-0.346669 13:-0.105586 14:-0.782468 15:-0.879183 16:-0.847599 17:-0.939243 18:-0.91126 19:-0.799647 20:-0.970861 21:-0.872466 22:-0.802414 23:0.936391 24:0.877667 25:0.789079 26:-0.98911 27:-0.889005 28:-0.820205 29:0.592107 30:0.343585 31:-0.0554336 32:-0.910897 33:-0.908514 34:-0.956857 35:0.316289 36:0.304278 37:-0.198788 38:-0.661241 39:-0.632526 40:-0.875225 41:-0.928938 42:-0.924833 43:-0.907745 44:-0.927099 45:-0.910992 46:-0.964954 47:-0.902572 48:-0.903725 49:-0.969413 50:0.907891 51:0.913449 52:0.885213 53:-0.762193 54:-0.69118 55:-0.87172 56:0.177126 57:0.171724 58:0.462913 59:0.487392 60:0.070965 61:-0.266757 62:0.250941 63:0.0093037 64:-0.277186 
-0 1.645221217415344 0 0 1:0.326206 2:-0.199528 3:0.360803 4:0.0977267 5:-0.841739 6:-0.644905 7:-0.875397 8:0.482135 9:0.737422 10:0.257989 11:0.0240638 12:0.416594 13:-0.601357 14:-0.840954 15:-0.782838 16:-0.804168 17:-0.843928 18:-0.674074 19:-0.873773 20:-0.809646 21:-0.596394 22:-0.898339 23:0.887221 24:0.862217 25:0.938101 26:-0.823188 27:-0.347445 28:-0.834895 29:0.561893 30:0.345799 31:-0.0377624 32:-0.823942 33:-0.879881 34:-0.957705 35:-0.677076 36:0.0362651 37:-0.00346003 38:0.298449 39:-0.624011 40:-0.965738 41:-0.909098 42:-0.810894 43:-0.84755 44:-0.853674 45:-0.883266 46:-0.959378 47:-0.747917 48:-0.852658 49:-0.964016 50:0.652097 51:0.839855 52:0.893765 53:-0.767931 54:-0.671146 55:-0.849692 56:-0.644178 57:-0.222798 58:-0.0791715 59:-0.717827 60:-0.584382 61:0.0594147 62:-0.429474 63:-0.0924729 64:-0.440494 
-1.58765259410225 0 0 0 1:-0.630162 2:-0.229935 3:0.00159593 4:-0.282199 5:-0.883754 6:-0.628709 7:-0.349297 8:-0.36049 9:-0.84233 10:-0.915813 11:-0.235105 12:0.596778 13:0.798837 14:-0.423107 15:-0.467905 16:-0.451022 17:-0.885053 18:-0.656022 19:-0.346313 20:-0.861206 21:-0.617936 22:-0.457669 23:0.847108 24:0.593265 25:0.202266 26:-0.924614 27:-0.88839 28:-0.839558 29:0.577679 30:0.362131 31:-0.079408 32:-0.757705 33:-0.849684 34:-0.876038 35:-0.291654 36:0.157953 37:-0.321179 38:-0.342015 39:-0.667335 40:-0.83509 41:-0.857498 42:-0.804234 43:-0.785881 44:-0.802809 45:-0.854095 46:-0.896563 47:-0.660268 48:-0.832008 49:-0.904642 50:0.638604 51:0.847111 52:0.820392 53:-0.628307 54:-0.628146 55:-0.848396 56:0.592714 57:0.355899 58:-0.255588 59:0.789843 60:0.0281357 61:-0.00486673 62:0.805178 63:0.206619 64:-0.261785 
-3.66801617282 3.66801617282 3.66801617282 3.66801617282 1:0.790191 2:-0.220511 3:0.24157 4:-0.0361125 5:-0.94715 6:-0.92861 7:-0.934356 8:-0.608352 9:0.581411 10:-0.115407 11:-0.0351876 12:-0.169409 13:-0.805134 14:-0.934821 15:-0.951863 16:-0.952741 17:-0.94773 18:-0.955817 19:-0.936674 20:-0.945744 21:-0.936723 22:-0.954201 23:0.902841 24:0.966476 25:0.93804 26:-0.985681 27:-0.85776 28:-0.965722 29:0.625037 30:0.337175 31:-0.0636502 32:-0.956301 33:-0.965871 34:-0.994416 35:0.333385 36:-0.636291 37:-0.164171 38:-0.555549 39:0.190356 40:-0.853062 41:-0.973823 42:-0.973359 43:-0.968556 44:-0.964691 45:-0.965089 46:-0.99781 47:-0.943499 48:-0.953398 49:-0.998561 50:0.953652 51:0.895828 52:0.90817 53:-0.784508 54:-0.794772 55:-0.891156 56:-0.312049 57:0.0794062 58:0.398107 59:0.0197424 60:-0.296156 61:-0.396184 62:-0.533273 63:-0.310434 64:0.154944 
-0 0 0.2427042165952919 3.66801617282 1:-0.161869 2:-0.208626 3:0.240477 4:0.196676 5:-0.955784 6:-0.951395 7:-0.922109 8:0.43201 9:-0.290791 10:-0.0393009 11:-0.210664 12:-0.226302 13:-0.691421 14:-0.878911 15:-0.96615 16:-0.939056 17:-0.956417 18:-0.977286 19:-0.905597 20:-0.945905 21:-0.942591 22:-0.931749 23:0.964273 24:0.932208 25:0.948568 26:-0.932685 27:-0.933132 28:-0.898351 29:0.622406 30:0.343128 31:-0.0263943 32:-0.945161 33:-0.941777 34:-0.957994 35:0.00690117 36:0.473844 37:-0.331916 38:-0.535077 39:-0.221384 40:-0.605954 41:-0.958434 42:-0.960514 43:-0.937753 44:-0.955947 45:-0.943199 46:-0.954845 47:-0.918146 48:-0.925213 49:-0.951781 50:0.911411 51:0.936253 52:0.874409 53:-0.785783 54:-0.707305 55:-0.855523 56:-0.576111 57:-0.105438 58:0.553741 59:0.503415 60:0.256342 61:-0.731285 62:-0.111564 63:0.333029 64:-0.30573 
