svm_type c_svc
kernel_type rbf
gamma 0.0743254
nr_class 5
total_sv 487
rho -0.782849 0.438311 -0.197498 -0.067697 0.288209 0.62148 0.199576 -0.627192 -0.26756 -2.35854
label 1 2 3 4 5
probA -3.1492 -2.72365 -3.35253 -2.50737 -2.93183 -2.89475 -3.04907 -1.33808 -2.68838 -1.53543
probB 0.163286 0.0962752 0.0324905 -0.0534463 -0.0402803 0.218819 0.229763 0.00753568 -0.137926 -0.0269458
nr_sv 87 81 103 117 99
SV
0 3.462925088838658 0.9745200998965312 7.132035178205683 1:0.0169983 2:-0.289723 3:-0.0939457 4:0.441205 5:-0.80808 6:-0.929572 7:-0.947676 8:0.690085 9:-0.012195 10:-0.0416264 11:0.318593 12:-0.721588 13:-0.722198 14:-0.784355 15:-0.913572 16:-0.82389 17:-0.786431 18:-0.924065 19:-0.927829 20:-0.827512 21:-0.937422 22:-0.9463 23:0.882083 24:0.913625 25:0.972367 26:-0.835534 27:-0.952995 28:-0.908196 29:-0.0478859 30:0.28673 31:0.426669 32:-0.755628 33:-0.823541 34:-0.35522 35:0.056806 36:-0.215884 37:0.231076 38:-0.981955 39:-0.664752 40:-0.876269 41:-0.638614 42:-0.652056 43:-0.605181 44:-0.65884 45:-0.804068 46:-0.636724 47:-0.828762 48:-0.833535 49:-0.416101 50:0.814289 51:0.841566 52:0.662833 53:-0.631431 54:-0.80879 55:-0.221699 56:-0.458754 57:0.543787 58:-0.401382 59:-0.440709 60:0.644012 61:-0.524289 62:0.783529 63:-0.286727 64:0.859841 
2.213765402975699 4.272582516649841 4.66808647003881 0.5613450825535795 1:-0.84194 2:-0.0190357 3:-0.0180902 4:0.251501 5:-0.76179 6:-0.872853 7:-0.729108 8:0.00551535 9:0.228891 10:-0.563544 11:-0.949304 12:-0.633389 13:-0.0500459 14:-0.741046 15:-0.770743 16:-0.705999 17:-0.770076 18:-0.883426 19:-0.734326 20:-0.860383 21:-0.891163 22:-0.72867 23:0.857205 24:0.905609 25:0.717505 26:-0.901538 27:-0.868533 28:-0.855455 29:-0.581848 30:0.549247 31:0.248573 32:-0.50085 33:0.091983 34:-0.749732 35:-0.173733 36:0.318964 37:0.134639 38:-0.802348 39:-0.82654 40:-0.909782 41:-0.308599 42:-0.324567 43:-0.163126 44:-0.465819 45:0.100272 46:-0.760639 47:-0.563198 48:-0.0972166 49:-0.774588 50:0.369327 51:0.501024 52:0.68237 53:-0.657 54:0.327055 55:-0.60816 56:0.769579 57:-0.772141 58:-0.359474 59:0.620221 60:-0.492288 61:0.10374 62:0.0854272 63:-0.12564 64:-0.2429 
0 0 4.832598473943095 0 1:-0.862426 2:-0.0983362 3:-0.0525025 4:0.276372 5:-0.788188 6:-0.840734 7:-0.660147 8:-0.49286 9:-0.410992 10:-0.233037 11:-0.105682 12:-0.514682 13:-0.401344 14:-0.713543 15:-0.694635 16:-0.663264 17:-0.793773 18:-0.849048 19:-0.665409 20:-0.799621 21:-0.878031 22:-0.646311 23:0.740364 24:0.853458 25:0.704025 26:-0.909541 27:-0.931225 28:-0.699341 29:-0.38088 30:0.101278 31:0.437553 32:-0.756736 33:-0.868445 34:-0.833727 35:0.0243656 36:0.504491 37:-0.0910873 38:-0.43119 39:-0.441914 40:-0.69351 41:-0.881606 42:-0.827176 43:-0.823956 44:-0.759475 45:-0.870477 46:-0.903456 47:-0.7147 48:-0.866344 49:-0.80291 50:0.609495 51:0.907125 52:0.771861 53:-0.660742 54:-0.796233 55:-0.513562 56:0.642979 57:-0.381119 58:0.0835576 59:0.857521 60:-0.78447 61:-0.483914 62:0.180298 63:-0.281129 64:0.469981 
3.941445698087511 0 0 0 1:-0.884002 2:-0.0311435 3:0.0275889 4:0.396912 5:-0.895678 6:-0.888652 7:-0.714363 8:-0.269757 9:-0.196183 10:-0.18934 11:-0.516336 12:-0.59723 13:-0.381981 14:-0.738011 15:-0.819204 16:-0.748062 17:-0.900566 18:-0.901459 19:-0.71527 20:-0.914037 21:-0.897915 22:-0.689507 23:0.880765 24:0.891778 25:0.759374 26:-0.95804 27:-0.906929 28:-0.701991 29:-0.377823 30:0.0917317 31:0.421969 32:-0.659287 33:-0.71208 34:-0.790146 35:-0.205948 36:0.198541 37:0.115999 38:-0.514589 39:-0.794704 40:-0.880248 41:-0.798068 42:-0.716552 43:-0.712275 44:-0.662719 45:-0.717889 46:-0.881696 47:-0.638079 48:-0.731612 49:-0.805238 50:0.512683 51:0.773276 52:0.78478 53:-0.625819 54:-0.678082 55:-0.49787 56:0.536586 57:-0.400603 58:-0.429059 59:0.568259 60:-0.360476 61:-0.617445 62:0.303746 63:-0.428164 64:0.284289 
0 0 0 0.4814737936866058 1:-0.359449 2:0.0624841 3:0.128379 4:0.339511 5:-0.967377 6:-0.871394 7:-0.827912 8:0.089739 9:-0.619427 10:0.327685 11:-0.900806 12:0.162335 13:-0.532621 14:-0.873928 15:-0.862519 16:-0.844969 17:-0.960478 18:-0.88006 19:-0.830694 20:-0.983454 21:-0.870061 22:-0.83245 23:0.99046 24:0.861973 25:0.907863 26:-0.967891 27:-0.899476 28:-0.767662 29:-0.313126 30:0.0667727 31:0.418012 32:-0.80358 33:-0.879424 34:-0.886003 35:0.226556 36:-0.645062 37:0.626235 38:-0.302262 39:-0.125279 40:-0.116001 41:-0.918707 42:-0.83469 43:-0.860019 44:-0.807129 45:-0.876541 46:-0.935829 47:-0.757365 48:-0.881673 49:-0.870417 50:0.674191 51:0.808331 52:0.834883 53:-0.665731 54:-0.952626 55:-0.501905 56:0.0716117 57:-0.509978 58:0.78742 59:0.446457 60:0.143347 61:-0.753457 62:-0.25617 63:-0.381953 64:0.870188 
8.435355232454208 0 0 3.902101359572419 1:-0.507343 2:-0.0102242 3:0.0662683 4:0.403606 5:-0.98679 6:-0.867103 7:-0.877756 8:0.0421194 9:-0.620141 10:0.344432 11:-0.701658 12:0.166305 13:-0.615712 14:-0.888915 15:-0.896763 16:-0.880932 17:-0.988858 18:-0.879977 19:-0.873224 20:-0.98555 21:-0.86513 22:-0.893568 23:0.979057 24:0.851077 25:0.964975 26:-0.979938 27:-0.907924 28:-0.806207 29:-0.321022 30:0.0525531 31:0.444767 32:-0.857145 33:-0.901883 34:-0.87639 35:-0.308781 36:0.0755351 37:0.34608 38:-0.220177 39:-0.885733 40:-0.792494 41:-0.918589 42:-0.886454 43:-0.884732 44:-0.861185 45:-0.894347 46:-0.923788 47:-0.833406 48:-0.909641 49:-0.894083 50:0.674191 51:0.883906 52:0.84087 53:-0.829124 54:-0.917237 55:-0.520735 56:0.0896311 57:0.146073 58:-0.1034 59:0.647726 60:0.0306206 61:-0.595238 62:-0.400452 63:0.0989245 64:0.796117 
4.43325831250309 5.109575281813568 2.223253787021215 0.7982239580660851 1:0.990547 2:-0.0272588 3:0.0601218 4:0.442739 5:-0.83907 6:-0.912615 7:-0.825982 8:-0.896869 9:-0.534343 10:0.119879 11:0.588693 12:0.127648 13:-0.33887 14:-0.836939 15:-0.869371 16:-0.805119 17:-0.845412 18:-0.925261 19:-0.819486 20:-0.867794 21:-0.90267 22:-0.791551 23:0.771512 24:0.890797 25:0.879687 26:-0.980365 27:-0.918745 28:-0.72539 29:-0.395653 30:0.180033 31:0.449096 32:-0.739938 33:-0.77414 34:-0.897139 35:-0.0541895 36:-0.261607 37:0.358391 38:-0.247626 39:-0.240257 40:-0.640895 41:-0.866954 42:-0.777499 43:-0.78714 44:-0.74098 45:-0.777633 46:-0.932153 47:-0.667102 48:-0.730268 49:-0.889816 50:0.547591 51:0.706806 52:0.838034 53:-0.641409 54:-0.758562 55:-0.519839 56:0.68954 57:-0.399006 58:-0.452141 59:0.143748 60:0.277828 61:-0.713386 62:-0.368918 63:-0.0626225 64:0.59605 
0 0 0 1.490772534031061 1:-0.180189 2:0.159627 3:0.111565 4:0.53733 5:-0.803904 6:-0.792583 7:-0.700723 8:0.125005 9:-0.0797097 10:-0.0657136 11:-0.774845 12:-0.789099 13:-0.532197 14:-0.69739 15:-0.744212 16:-0.669783 17:-0.796339 18:-0.804352 19:-0.689388 20:-0.851552 21:-0.825768 22:-0.683638 23:0.913789 24:0.859487 25:0.801759 26:-0.843961 27:-0.809587 28:-0.619734 29:-0.323145 30:0.311788 31:0.391215 32:-0.719478 33:-0.697455 34:-0.735812 35:0.490166 36:0.00062534 37:0.555443 38:-0.362189 39:-0.715521 40:-0.121817 41:-0.77934 42:-0.742016 43:-0.707014 44:-0.723896 45:-0.684029 46:-0.848536 47:-0.712088 48:-0.686433 49:-0.670611 50:0.6835 51:0.760528 52:0.767449 53:-0.555971 54:-0.598174 55:-0.366958 56:0.107015 57:-0.502465 58:0.537268 59:0.147271 60:-0.0520574 61:-0.528184 62:-0.274428 63:-0.148643 64:0.684918 
0 0 0 1.210441961967105 1:-0.187487 2:0.118342 3:0.146606 4:0.327803 5:-0.874763 6:-0.845421 7:-0.752282 8:0.854252 9:-0.48817 10:0.553607 11:0.642509 12:0.0418359 13:-0.142109 14:-0.817484 15:-0.72636 16:-0.755548 17:-0.86762 18:-0.853069 19:-0.756239 20:-0.891336 21:-0.843654 22:-0.730854 23:0.993243 24:0.847511 25:0.87825 26:-0.836364 27:-0.868441 28:-0.596391 29:-0.249109 30:0.0395267 31:0.395214 32:-0.712 33:-0.772248 34:-0.826734 35:0.427146 36:-0.358333 37:0.925473 38:-0.34381 39:-0.391302 40:0.640654 41:-0.867781 42:-0.71196 43:-0.759872 44:-0.706664 45:-0.770663 46:-0.899673 47:-0.67697 48:-0.750706 49:-0.778468 50:0.670933 51:0.69588 52:0.81314 53:-0.49735 54:-0.815639 55:-0.426586 56:-0.343392 57:0.0779472 58:0.954043 59:0.441944 60:0.0943954 61:-0.847567 62:-0.238548 63:-0.214201 64:0.996079 
7.241319066919573 0 0 0 1:-0.932949 2:-0.00182434 3:0.0419616 4:0.239785 5:-0.879497 6:-0.897824 7:-0.553416 8:-0.423284 9:0.220173 10:-0.55452 11:-0.293233 12:-0.403393 13:0.0940803 14:-0.652366 15:-0.695621 16:-0.621303 17:-0.884395 18:-0.910775 19:-0.558834 20:-0.898061 21:-0.892492 22:-0.51993 23:0.856442 24:0.913989 25:0.5394 26:-0.955036 27:-0.856797 28:-0.695994 29:-0.276193 30:-0.0507632 31:0.417641 32:-0.643773 33:-0.597981 34:-0.837606 35:-0.173176 36:-0.148723 37:0.240416 38:-0.393843 39:-0.595624 40:-0.870328 41:-0.774968 42:-0.670006 43:-0.650048 44:-0.644311 45:-0.590911 46:-0.908587 47:-0.598317 48:-0.573753 49:-0.859166 50:0.497324 51:0.566128 52:0.809674 53:-0.56096 54:-0.60274 55:-0.52477 56:0.482698 57:-0.425309 58:-0.230004 59:0.523733 60:-0.283938 61:-0.350485 62:0.51647 63:-0.601936 64:-0.162599 
0 2.635539724883598 0.01588379744613452 0 1:0.984666 2:-0.387317 3:0.127068 4:0.103372 5:-0.516926 6:-0.803457 7:-0.5795 8:-0.822133 9:-0.129443 10:-0.589409 11:0.487606 12:-0.395277 13:0.114011 14:-0.671497 15:-0.477917 16:-0.461112 17:-0.506075 18:-0.81403 19:-0.581091 20:-0.568506 21:-0.796346 22:-0.555145 23:0.345843 24:0.840229 25:0.546763 26:-0.900143 27:-0.780473 28:-0.76012 29:-0.31873 30:0.140357 31:0.392122 32:-0.761876 33:-0.770241 34:-0.763753 35:0.618033 36:-0.28193 37:0.639133 38:-0.0508864 39:-0.402379 40:-0.0343767 41:-0.86276 42:-0.758297 43:-0.771262 44:-0.766013 45:-0.775734 46:-0.864199 47:-0.732114 48:-0.727847 49:-0.712512 50:0.708168 51:0.719099 52:0.78541 53:-0.565949 54:-0.738014 55:-0.389823 56:-0.160524 57:-0.356965 58:0.369039 59:0.394684 60:-0.287365 61:-0.526804 62:-0.0152817 63:-0.435458 64:0.308973 
10.04295526526395 9.935906452830281 6.547878589758816 7.926705056141152 1:-0.932064 2:0.00865924 3:0.0940627 4:0.24288 5:-0.863907 6:-0.888316 7:-0.816942 8:-0.523119 9:-0.103913 10:-0.140377 11:-0.270808 12:-0.464588 13:-0.328746 14:-0.855798 15:-0.845515 16:-0.811976 17:-0.868865 18:-0.899576 19:-0.821969 20:-0.886708 21:-0.885865 22:-0.783746 23:0.841452 24:0.898538 25:0.827198 26:-0.951068 27:-0.869551 28:-0.794636 29:-0.39353 30:0.099289 31:0.441222 32:-0.735449 33:-0.864101 34:-0.898919 35:-0.274447 36:-0.226441 37:0.50817 38:-0.326363 39:-0.361841 40:-0.478246 41:-0.88391 42:-0.772073 43:-0.823616 44:-0.736835 45:-0.866103 46:-0.937136 47:-0.697577 48:-0.841872 49:-0.901455 50:0.541541 51:0.829274 52:0.844966 53:-0.714998 54:-0.841895 55:-0.523425 56:0.290968 57:-0.0986614 58:-0.385716 59:0.605526 60:-0.0603461 61:-0.58977 62:0.264459 63:-0.457212 64:-0.169667 
3.189941839204224 0 0 0 1:-0.702003 2:0.0228002 3:0.199147 4:0.577713 5:-0.635432 6:-0.562891 7:-0.698662 8:0.0928542 9:-0.165365 10:0.268436 11:-0.833673 12:-0.605918 13:-0.67525 14:-0.625235 15:-0.729875 16:-0.521402 17:-0.646315 18:-0.573021 19:-0.682455 20:-0.731424 21:-0.610582 22:-0.725834 23:0.78076 24:0.696996 25:0.88142 26:-0.781559 27:-0.634262 28:-0.580324 29:-0.184412 30:0.109233 31:0.364624 32:-0.189515 33:-0.844569 34:-0.25103 35:-0.599704 36:0.113967 37:0.510868 38:0.0685111 39:-0.929617 40:-0.429856 41:-0.514844 42:-0.273429 43:-0.377201 44:-0.182735 45:-0.847798 46:-0.57389 47:-0.115658 48:-0.876563 49:-0.185257 50:-0.142658 51:0.879809 52:0.643296 53:-0.381353 54:-0.852169 55:0.0172608 56:0.445316 57:-0.331157 58:0.100979 59:0.730728 60:-0.211708 61:-0.337966 62:0.124023 63:-0.634872 64:0.425728 
18.35059911394793 3.418751886341644 0.04799796233851401 10.33594130051165 1:-0.833256 2:-0.204874 3:-0.0295668 4:0.420718 5:-0.672278 6:-0.728049 7:-0.872872 8:-0.250377 9:0.135837 10:0.204326 11:-0.755798 12:-0.646886 13:-0.524925 14:-0.670114 15:-0.809686 16:-0.676906 17:-0.674039 18:-0.740324 19:-0.866381 20:-0.781071 21:-0.765445 22:-0.862267 23:0.709655 24:0.82504 25:0.93148 26:-0.908023 27:-0.741143 28:-0.793432 29:-0.40737 30:0.291205 31:0.302249 32:-0.763981 33:-0.604801 34:-0.54269 35:0.0347851 36:0.41969 37:0.276751 38:-0.432063 39:-0.756519 40:-0.832374 41:-0.69273 42:-0.649134 43:-0.608463 44:-0.762705 45:-0.601277 46:-0.71018 47:-0.724859 48:-0.674331 49:-0.605044 50:0.614149 51:0.840656 52:0.68237 53:-0.676333 54:-0.472032 55:-0.412239 56:0.895287 57:-0.649552 58:-0.303098 59:0.85718 60:-0.347377 61:0.0141452 62:-0.31361 63:0.586975 64:0.461527 
0 0.4081379974164404 0 0 1:-0.937484 2:-0.409626 3:-0.0207192 4:-0.214097 5:-0.741731 6:-0.790208 7:0.0199124 8:-0.640524 9:0.2955 10:-0.879523 11:0.0153004 12:-0.631577 13:0.733527 14:-0.396111 15:-0.183286 16:-0.0866033 17:-0.703423 18:-0.802094 19:0.0289863 20:-0.779925 21:-0.829545 22:0.0774975 23:0.630561 24:0.892391 25:-0.180619 26:-0.96957 27:-0.760444 28:-0.584668 29:-0.266853 30:-0.340128 31:0.318121 32:-0.106302 33:0.438411 34:-0.774305 35:0.0709981 36:-0.178607 37:-0.0316746 38:-0.645814 39:-0.743427 40:-0.924433 41:-0.0633031 42:0.0459194 43:0.124585 44:-0.108095 45:0.437996 46:-0.830537 47:-0.119721 48:0.327148 49:-0.789331 50:0.172446 51:-0.446847 52:0.71262 53:0.0321173 54:0.0393835 55:-0.582156 56:0.654062 57:-0.708286 58:-0.220715 59:0.54958 60:-0.538431 61:0.00020166 62:0.241344 63:-0.414834 64:0.0353149 
0 0.2349700793296142 0 0.2297877050038264 1:-0.945256 2:-0.530867 3:0.0397387 4:-0.541691 5:0.214165 6:-0.627589 7:0.716157 8:-0.809339 9:-0.221159 10:-0.945581 11:0.374965 12:-0.696691 13:0.875793 14:-0.0441901 15:0.840478 16:0.784992 17:0.202232 18:-0.642392 19:0.735398 20:0.049092 21:-0.720794 22:0.722025 23:-0.49995 24:0.749018 25:-1 26:-0.708571 27:-0.778277 28:-0.53447 29:-0.585074 30:0.107741 31:0.474368 32:0.191636 33:-0.15658 34:0.0719391 35:-0.573078 36:0.400955 37:0.397222 38:-0.425993 39:-0.373978 40:-0.680982 41:-0.371932 42:0.137132 43:0.0704801 44:0.205879 45:-0.176304 46:-0.392462 47:-0.0103033 48:-0.0832325 49:-0.0095053 50:-0.441936 51:0.442295 52:0.638885 53:-0.555971 54:0.283105 55:0.214078 56:0.604291 57:-0.857087 58:-0.371937 59:0.777902 60:-0.903219 61:-0.613958 62:0.377699 63:-0.799764 64:-0.220503 
0.9567826731882292 0 1.131303403809048 0 1:0.21293 2:-0.0515918 3:0.128009 4:0.330135 5:-0.754369 6:-0.78637 7:-0.83171 8:0.185643 9:0.297941 10:0.0692926 11:-0.808903 12:-0.760306 13:-1 14:-0.748666 15:-0.828228 16:-0.735258 17:-0.762658 18:-0.797209 19:-0.834955 20:-0.840167 21:-0.852688 22:-0.902644 23:0.890697 24:0.928742 25:0.932226 26:-0.846419 27:-0.7465 28:-0.87959 29:-0.586432 30:-0.21424 31:0.289799 32:-0.831899 33:-0.734423 34:-0.618792 35:-0.0797871 36:-0.0498632 37:0.0133176 38:-0.879813 39:-0.931819 40:-0.98006 41:-0.759253 42:-0.737424 43:-0.648513 44:-0.742277 45:-0.662688 46:-0.739867 47:-0.859817 48:-0.793465 49:-0.698933 50:0.632302 51:0.699977 52:0.659997 53:-0.942002 54:-0.901256 55:-0.552567 56:0.731179 57:0.664049 58:0.227089 59:0.697132 60:0.537949 61:0.0788277 62:-0.57464 63:0.563886 64:0.88099 
2.355926609220901 0 0 0 1:-0.853569 2:0.130485 3:0.135584 4:0.617715 5:-0.69052 6:-0.811832 7:-0.634304 8:-0.148829 9:-0.10712 10:0.283801 11:-0.774333 12:-0.7858 13:-0.790218 14:-0.620381 15:-0.78877 16:-0.581205 17:-0.693292 18:-0.821552 19:-0.616776 20:-0.769375 21:-0.853899 22:-0.71586 23:0.762172 24:0.87055 25:0.873588 26:-0.849672 27:-0.850197 28:-0.571591 29:-0.42936 30:0.0609059 31:0.416981 32:-0.0680716 33:-0.799678 34:-0.367914 35:-0.686385 36:0.833903 37:0.243797 38:-0.0612182 39:0.451407 40:-0.879199 41:-0.510058 42:-0.171989 43:-0.348007 44:-0.069105 45:-0.799858 46:-0.644076 47:-0.106951 48:-0.757429 49:-0.478177 50:-0.323249 51:0.864785 52:0.698125 53:-0.604615 54:-0.618151 55:-0.243219 56:0.382222 57:-0.297854 58:0.203636 59:0.808114 60:-0.519186 61:-0.36577 62:-0.19405 63:-0.0527503 64:0.670885 
0 0 0 11.64932288106343 1:0.113266 2:0.0227081 3:0.248199 4:0.377079 5:-0.712643 6:-0.785166 7:-0.880019 8:0.612677 9:0.275585 10:0.047473 11:0.0651053 12:-0.838287 13:-0.857314 14:-0.776455 15:-0.796819 16:-0.724236 17:-0.721411 18:-0.782267 19:-0.878505 20:-0.764109 21:-0.860027 22:-0.904265 23:0.911296 24:0.940986 25:0.944726 26:-0.72321 27:-0.740832 28:-0.862586 29:-0.213619 30:0.0239149 31:0.312349 32:-0.731387 33:-0.888079 34:-0.760001 35:0.253199 36:-0.103553 37:-0.00326413 38:-0.824401 39:-0.901377 40:-0.877597 41:-0.835642 42:-0.753287 43:-0.764197 44:-0.715854 45:-0.874341 46:-0.819926 47:-0.802351 48:-0.907759 49:-0.766828 50:0.777519 51:0.863874 52:0.707578 53:-0.623948 54:-0.938356 55:-0.563327 56:-0.0894288 57:0.421939 58:0.534659 59:-0.0835232 60:0.297334 61:0.389349 62:-0.391422 63:0.538742 64:0.676755 
6.88758029003456 20.32143750971526 12.34147022894261 0 1:0.070617 2:0.00039833 3:0.123668 4:0.317052 5:-0.683904 6:-0.803818 7:-0.826584 8:0.56322 9:0.43059 10:0.128958 11:-0.157696 12:-0.464388 13:-0.768302 14:-0.751048 15:-0.775219 16:-0.698886 17:-0.693977 18:-0.814628 19:-0.830477 20:-0.754706 21:-0.839373 22:-0.835917 23:0.899993 24:0.929663 25:0.893586 26:-0.719036 27:-0.716578 28:-0.798594 29:-0.381644 30:0.0466862 31:0.189413 32:-0.685858 33:-0.764181 34:-0.733339 35:0.196643 36:-0.453625 37:0.0878767 38:-0.827219 39:-0.253953 40:-0.924216 41:-0.704487 42:-0.729284 43:-0.644833 44:-0.688896 45:-0.764005 46:-0.696939 47:-0.7266 48:-0.754471 49:-0.760621 50:0.632302 51:0.643524 52:0.642981 53:-0.655753 54:-0.889269 55:-0.648061 56:0.226209 57:-0.754271 58:0.169559 59:-0.216897 60:-0.340081 61:-0.0430259 62:-0.379921 63:0.601917 64:0.136574 
1.320194291979602 0 5.741381552499365 17.45523005010879 1:0.06015 2:0.155446 3:0.14452 4:0.310995 5:-0.867497 6:-0.970863 7:-0.953147 8:0.603956 9:0.106956 10:0.150785 11:-0.172304 12:-0.693038 13:-0.958631 14:-0.927369 15:-0.915441 16:-0.888919 17:-0.854402 18:-0.967449 19:-0.955607 20:-0.904202 21:-0.975494 22:-0.973822 23:0.998319 24:0.969889 25:0.983403 26:-0.850371 27:-0.9362 28:-0.949646 29:-0.303362 30:0.0909362 31:0.0981799 32:-0.91807 33:-0.975491 34:-0.779501 35:0.0358511 36:0.0514893 37:0.246511 38:-0.955699 39:-0.913384 40:-0.555341 41:-0.573745 42:-0.830724 43:-0.668432 44:-0.917876 45:-0.97045 46:-0.609286 47:-0.939922 48:-0.98494 49:-0.720272 50:0.807773 51:0.962213 52:0.593509 53:-0.879015 54:-0.978881 55:-0.671822 56:0.422595 57:-0.481346 58:0.896342 59:-0.132946 60:-0.0704339 61:0.384689 62:-0.0873353 63:0.47942 64:-0.662869 
0 0 1.276075606960577 9.208603385535991 1:-0.0424755 2:0.14752 3:0.0648302 4:0.207367 5:-0.722528 6:-0.934715 7:-0.886782 8:0.357322 9:0.247268 10:0.154151 11:-0.727841 12:-0.571631 13:-0.816941 14:-0.763161 15:-0.874771 16:-0.769972 17:-0.721973 18:-0.946975 19:-0.890503 20:-0.836311 21:-0.941446 22:-0.905661 23:0.948874 24:0.949591 25:0.936122 26:-0.794554 27:-0.899053 28:-0.879726 29:-0.261674 30:0.146025 31:0.326737 32:-0.830736 33:-0.90504 34:-0.780867 35:0.0287282 36:-0.272139 37:0.388794 38:-0.961807 39:-0.180464 40:-0.426543 41:-0.844918 42:-0.867251 43:-0.826794 44:-0.8235 45:-0.907108 46:-0.839879 47:-0.882746 48:-0.878177 49:-0.738506 50:0.777054 51:0.85659 52:0.737829 53:-0.797318 54:-0.884703 55:-0.487559 56:-0.281005 57:-0.0456817 58:0.798078 59:-0.330067 60:0.750069 61:0.170982 62:-0.163978 63:0.197683 64:0.465961 
3.680898996399187 3.530671143650087 2.355975755547552 4.3937974119619 1:-0.932718 2:-0.0207495 3:-0.0553558 4:0.199957 5:-0.775157 6:-0.957437 7:-0.635788 8:-0.775587 9:-0.134845 10:-0.470224 11:0.391819 12:-0.345838 13:0.1673 14:-0.761419 15:-0.659305 16:-0.657547 17:-0.783111 18:-0.956636 19:-0.640519 20:-0.795645 21:-0.953164 22:-0.557878 23:0.707344 24:0.923868 25:0.617028 26:-0.930326 27:-0.968677 28:-0.650727 29:-0.367719 30:0.14513 31:0.351885 32:-0.917113 33:-0.902434 34:-0.845968 35:-0.206372 36:0.731411 37:0.421664 38:-0.825856 39:0.441108 40:-0.667033 41:-0.888164 42:-0.921311 43:-0.886667 44:-0.919774 45:-0.90461 46:-0.887293 47:-0.933827 48:-0.863117 49:-0.866537 50:0.76216 51:0.917141 52:0.794233 53:-0.927035 54:-0.776826 55:-0.555257 56:-0.106948 57:-0.777001 58:0.128917 59:-0.399405 60:-0.568778 61:0.324678 62:-0.0168955 63:-0.746399 64:0.0870946 
0 0.8766071213679573 0.2575905271620336 0.395339184230414 1:-0.922099 2:-0.453451 3:0.157698 4:0.402923 5:0.245926 6:-0.402161 7:0.351635 8:-0.674414 9:-0.435747 10:-0.227058 11:0.138041 12:-0.487062 13:-0.365546 14:0.22278 15:0.394747 16:0.559926 17:0.226811 18:-0.416471 19:0.34602 20:0.06658 21:-0.53842 22:0.31719 23:-0.46345 24:0.586739 25:-0.132959 26:-0.65488 27:-0.672371 28:0.0122744 29:-0.209458 30:0.404365 31:0.537361 32:0.950901 33:0.992757 34:0.422133 35:-0.307322 36:-0.262724 37:0.477139 38:-0.526813 39:-0.679515 40:-0.58107 41:0.367087 42:1 43:0.935534 44:0.951474 45:0.954233 46:-0.186357 47:1 48:0.878177 49:0.359845 50:-1 51:-0.918051 52:0.646132 53:0.867166 54:0.618151 55:0.651199 56:0.436312 57:-0.172746 58:-0.401108 59:0.875905 60:-0.632203 61:-0.833966 62:0.0449469 63:0.00578009 64:0.0428169 
3.698763364318603 0 0 0 1:-0.888955 2:-0.432906 3:-0.22253 4:-0.0579006 5:-0.0460926 6:-0.503542 7:0.239366 8:-0.420806 9:-0.0597041 10:-0.196315 11:-0.476606 12:-0.690908 13:-0.622806 14:0.350471 15:0.0596186 16:0.340754 17:-0.0552834 18:-0.505714 19:0.238524 20:-0.234873 21:-0.572895 22:0.139235 23:0.0861767 24:0.682673 25:0.0166986 26:-0.639164 27:-0.578992 28:-0.127249 29:-0.421549 30:0.398896 31:0.476635 32:0.287282 33:-0.179113 34:-0.247311 35:0.0942954 36:-0.211171 37:0.57294 38:-0.662557 39:-0.580225 40:-0.388741 41:-0.197176 42:0.0889167 43:0.0321648 44:0.285527 45:-0.180081 46:-0.570243 47:0.321144 48:-0.178701 49:-0.272163 50:-0.242262 51:0.293877 52:0.746022 53:0.423761 54:-0.105594 55:0.0629904 56:0.656422 57:-0.805718 58:-0.386307 59:0.68429 60:-0.92328 61:-0.495378 62:-0.0290192 63:-0.549244 64:0.225557 
2.740740947274697 0 0 0 1:0.112136 2:0.207055 3:0.333042 4:0.36544 5:-0.231199 6:-0.684182 7:-0.000426273 8:0.536955 9:0.469536 10:0.0880613 11:-0.337755 12:-0.486205 13:-0.82393 14:0.140402 15:-0.216724 16:0.0605247 17:-0.245888 18:-0.675092 19:-0.00584918 20:-0.460957 21:-0.759951 22:-0.188164 23:0.806526 24:0.923199 25:0.52782 26:-0.381336 27:-0.558885 28:0.0029921 29:-0.114705 30:0.419579 31:0.279904 32:-0.0344478 33:-0.336596 34:-0.677706 35:0.24476 36:-0.495436 37:0.462306 38:-0.594997 39:-0.399504 40:-0.162092 41:-0.437037 42:-0.390106 43:-0.224331 44:-0.0192741 45:-0.326341 46:-0.759459 47:-0.0233638 48:-0.422079 49:-0.579049 50:0.293461 51:0.348964 52:0.672916 53:0.40131 54:-0.553082 55:-0.395651 56:0.326519 57:-0.93396 58:0.698575 59:0.0974994 60:-0.888077 61:0.768584 62:-0.215278 63:-0.638602 64:0.790532 
2.891366986009198 0 0 0 1:-0.853206 2:-0.104785 3:-0.0842755 4:0.902907 5:0.312172 6:-0.321269 7:0.129202 8:-0.190873 9:-0.310223 10:-0.029752 11:-0.444803 12:-0.278295 13:-0.903766 14:0.406684 15:-0.179557 16:0.480509 17:0.276941 18:-0.335822 19:0.148521 20:0.109614 21:-0.357957 22:-0.177142 23:-0.21464 24:0.440518 25:0.466298 26:-0.395807 27:-0.542626 28:-0.0741157 29:-0.483868 30:0.42485 31:0.457836 32:0.0839227 33:-0.329748 34:0.225606 35:-0.170625 36:-0.0171676 37:0.45432 38:-0.768345 39:-0.871394 40:-0.577454 41:-0.262517 42:0.0277604 43:0.0159959 44:0.0868482 45:-0.318964 46:-0.308064 47:0.00740099 48:-0.37663 49:0.236857 50:-0.14545 51:0.51013 52:0.602647 53:-0.120673 54:-0.254566 55:0.447209 56:0.582596 57:-0.736773 58:-0.0822018 59:0.659377 60:-0.820822 61:-0.267471 62:-0.162869 63:-0.563106 64:0.638755 
0 1.423747872771812 3.400925382063047 0.4952607559337676 1:-0.873191 2:0.127604 3:0.16282 4:0.440656 5:0.53598 6:-0.333054 7:-0.258308 8:-0.110911 9:-0.267593 10:-0.0592073 11:-0.511458 12:-0.341247 13:-0.826242 14:0.344745 15:-0.0310519 16:0.407994 17:0.496191 18:-0.347871 19:-0.261072 20:0.34205 21:-0.363229 22:-0.413153 23:-0.305391 24:0.489607 25:0.536447 26:-0.142001 27:-0.468537 28:-0.469757 29:-0.353031 30:0.460846 31:0.415497 32:-0.0885243 33:-0.167908 34:-0.00274778 35:0.0224025 36:-0.439182 37:0.493101 38:-0.869912 39:-0.503019 40:-0.511038 41:-0.369864 42:0.0118973 43:-0.0622261 44:-0.092509 45:-0.160125 46:-0.438422 47:-0.249456 48:-0.274439 49:-0.071193 50:0.280894 51:0.192807 52:0.650544 53:-0.101341 54:-0.435502 55:0.159381 56:0.845639 57:-0.785132 58:0.0388133 59:0.800501 60:-0.722788 61:-0.128469 62:-0.334076 63:-0.00141428 64:0.392806 
0.4474514683205361 0 0 0 1:-0.839751 2:-0.255524 3:-0.108495 4:0.436479 5:-0.26561 6:-0.60013 7:-0.369862 8:-0.0249625 9:0.0139745 10:-0.0880428 11:-0.834819 12:-0.507353 13:-0.856059 14:-0.203486 15:-0.621906 16:-0.176804 17:-0.279507 18:-0.609654 19:-0.372117 20:-0.461495 21:-0.602933 22:-0.508914 23:0.46584 24:0.713525 25:0.660534 26:-0.65412 27:-0.589269 28:-0.473366 29:-0.605621 30:0.630488 31:0.332962 32:-0.109442 33:-0.278705 34:-0.131746 35:0.0936799 36:-0.238696 37:0.291969 38:-0.804324 39:-0.677079 40:-0.749141 41:-0.384397 42:-0.333333 43:-0.116796 44:-0.0856667 45:-0.225763 46:-0.501289 47:-0.228559 48:-0.309937 49:-0.17517 50:0.174308 51:0.367175 52:0.571451 53:-0.199252 54:-0.292237 55:-0.0733019 56:0.871567 57:-0.595426 58:-0.165873 59:0.769276 60:-0.732469 61:-0.161182 62:-0.206498 63:-0.441316 64:0.364093 
0.09579557712658003 0 0 0 1:-0.784908 2:0.175468 3:-0.0046569 4:0.841115 5:0.1904 6:-0.268799 7:0.275236 8:0.00265769 9:-0.444349 10:0.100283 11:-0.807058 12:-0.0922685 13:-0.892292 14:0.556503 15:-0.305829 16:0.516433 17:0.161348 18:-0.285744 19:0.287384 20:-0.129672 21:-0.27606 22:-0.0558734 23:0.161678 24:0.375066 25:0.458645 26:-0.431208 27:-0.482173 28:0.175768 29:-0.42469 30:0.0887486 31:0.405025 32:0.421056 33:0.176443 34:0.149295 35:0.0734158 36:-0.127576 37:0.595594 38:-0.727391 39:-0.669858 40:-0.361523 41:-0.0778956 42:0.401586 43:0.303283 44:0.419436 45:0.149145 46:-0.352658 47:0.41634 48:0.181659 49:0.152667 50:-0.326972 51:-0.133622 52:0.63983 53:0.514811 54:0.123288 55:0.402825 56:0.64276 57:-0.828594 58:-0.0349341 59:0.710742 60:-0.848143 61:-0.557691 62:-0.0240215 63:-0.613178 64:0.449519 
5.871815931903743 0 4.090489744246347 0 1:0.12501 2:0.238255 3:0.113165 4:0.130281 5:-0.531995 6:-0.767964 7:-0.62394 8:0.490253 9:0.435256 10:-0.211928 11:-0.378944 12:-0.44986 13:-0.723436 14:-0.606849 15:-0.612686 16:-0.4945 17:-0.531778 18:-0.779999 19:-0.626401 20:-0.67101 21:-0.809992 22:-0.675404 23:0.905152 24:0.91842 25:0.723129 26:-0.597434 27:-0.673624 28:-0.730952 29:-0.347003 30:0.428529 31:0.231505 32:-0.165739 33:-0.122163 34:-0.660157 35:0.314211 36:-0.430457 37:0.396378 38:-0.675826 39:-0.596013 40:-0.394988 41:-0.315688 42:-0.302442 43:-0.181757 44:-0.169862 45:-0.121589 46:-0.712362 47:-0.27935 48:-0.297028 49:-0.587197 50:0.3926 51:0.217391 52:0.651174 53:-0.0159027 54:-0.452626 55:-0.436001 56:0.763909 57:-0.806331 58:0.876457 59:0.475388 60:-0.658746 61:0.811104 62:0.024324 63:-0.350882 64:-0.152045 
0 0 0 0.568784445740891 1:-0.831866 2:-0.381747 3:-0.192545 4:0.53173 5:-0.036376 6:-0.390493 7:-0.0762862 8:-0.399 9:-0.509829 10:0.128902 11:-0.168387 12:0.051048 13:-0.908896 14:0.134487 15:-0.227113 16:0.16341 17:-0.0500203 18:-0.398136 19:-0.0767477 20:-0.119527 21:-0.401492 22:-0.365554 23:-0.0461634 24:0.433064 25:0.676651 26:-0.582923 27:-0.648176 28:-0.136663 29:-0.42885 30:0.438572 31:0.565065 32:-0.11888 33:0.381879 34:0.0767254 35:-0.388444 36:0.283223 37:0.522569 38:-0.282516 39:-0.92228 40:-0.498651 41:0.024311 42:0.297641 43:0.211801 44:-0.119847 45:0.364185 46:-0.368626 47:-0.0108838 48:0.0318677 49:0.0766247 50:-0.168722 51:0.340769 52:0.709469 53:-0.191144 54:0.400114 55:0.414033 56:0.780795 57:-0.398628 58:-0.235292 59:0.809541 60:-0.605909 61:-0.320242 62:-0.322403 63:-0.163032 64:0.801813 
5.73026956363561 0 0.5248284219649433 0 1:0.12502 2:0.303456 3:0.378085 4:0.686525 5:-0.200274 6:-0.598859 7:-0.0725843 8:0.449342 9:0.360922 10:0.103578 11:-0.466137 12:-0.602963 13:-0.821866 14:0.0233082 15:-0.210074 16:0.0519289 17:-0.20923 18:-0.5886 19:-0.0649275 20:-0.421588 21:-0.690086 22:-0.244609 23:0.758535 24:0.878398 25:0.561029 26:-0.364394 27:-0.488135 28:-0.0646642 29:-0.165223 30:0.371451 31:0.297838 32:-0.106566 33:-0.247195 34:-0.678655 35:0.243798 36:-0.491547 37:0.309618 38:-0.670037 39:-0.536865 40:-0.414433 41:-0.405134 42:-0.249843 43:-0.229859 44:-0.0981044 45:-0.248873 46:-0.773069 47:-0.157452 48:-0.379589 49:-0.587585 50:0.370724 51:0.252447 52:0.665984 53:0.216713 54:-0.583904 55:-0.415378 56:0.416026 57:-0.849602 58:0.486309 59:0.180031 60:-0.815453 61:0.566869 62:-0.103019 63:-0.62108 64:0.583445 
1.824804065231116 0 0.708356716992088 0 1:0.11467 2:0.229464 3:0.134192 4:0.473249 5:-0.66185 6:-0.769726 7:-0.402462 8:0.562231 9:0.342279 10:-0.0274353 11:-0.189558 12:-0.648703 13:-0.759057 14:-0.344482 15:-0.573123 16:-0.408379 17:-0.654908 18:-0.780453 19:-0.402839 20:-0.74033 21:-0.832875 22:-0.46798 23:0.92842 24:0.918641 25:0.644934 26:-0.676158 27:-0.721911 28:-0.410378 29:-0.0305655 30:-0.262268 31:0.381691 32:-0.207851 33:-0.174327 34:-0.827782 35:0.155912 36:-0.446169 37:0.267598 38:-0.770864 39:-0.525462 40:-0.795264 41:-0.496647 42:-0.215195 43:-0.23654 44:-0.169101 45:-0.154484 46:-0.895623 47:-0.306342 48:-0.30913 49:-0.832396 50:0.46195 51:0.0129751 52:0.791082 53:0.0190209 54:-0.734589 55:-0.520287 56:0.59582 57:-0.873066 58:0.469779 59:0.240424 60:-0.732777 61:0.343821 62:-0.0223554 63:-0.503158 64:0.27989 
6.869739238495197 0 0 0 1:-0.855394 2:-0.143622 3:-0.0951942 4:0.291045 5:-0.741086 6:-0.837622 7:-0.751358 8:-0.142055 9:0.162384 10:-0.230145 11:-0.717187 12:-0.648299 13:-0.680305 14:-0.7435 15:-0.845525 16:-0.69742 17:-0.745272 18:-0.840868 19:-0.756284 20:-0.801113 21:-0.849676 22:-0.788232 23:0.75548 24:0.869273 25:0.822204 26:-0.899567 27:-0.843433 28:-0.812539 29:-0.492953 30:0.321633 31:0.241564 32:-0.726009 33:-0.723866 34:-0.502552 35:0.490906 36:0.276965 37:0.344471 38:-0.14865 39:-0.745063 40:-0.801542 41:-0.617227 42:-0.691087 43:-0.600392 44:-0.703287 45:-0.70578 46:-0.653219 47:-0.709186 48:-0.745596 49:-0.579825 50:0.656039 51:0.852037 52:0.660627 53:-0.586529 54:-0.609018 55:-0.414033 56:0.693799 57:-0.504469 58:-0.430218 59:0.493193 60:-0.131116 61:-0.0185966 62:-0.635488 63:0.747088 64:0.563256 
0 0.8733097858766066 0 1.114804859401273 1:-0.949182 2:-0.268405 3:-0.000846568 4:-0.0772793 5:0.129261 6:-0.601183 7:0.0313555 8:-0.302521 9:0.147309 10:-0.347497 11:-0.351003 12:-0.622408 13:-0.281878 14:0.000958423 15:0.0706382 16:0.26837 17:0.103483 18:-0.615685 19:0.0327671 20:-0.0195823 21:-0.63817 22:0.0397157 23:-0.123698 24:0.773242 25:0.0400405 26:-0.504543 27:-0.560444 28:-0.304318 29:-0.395738 30:0.397604 31:0.405479 32:-0.299214 33:-0.144632 34:-0.27463 35:0.152976 36:-0.492721 37:0.561051 38:-0.627157 39:-0.291812 40:-0.415866 41:-0.421617 42:-0.19307 43:-0.19811 44:-0.302025 45:-0.14727 46:-0.591344 47:-0.256421 48:-0.137824 49:-0.274103 50:0.267861 51:0.0257227 52:0.702537 53:-0.13377 54:-0.355023 55:-0.00112082 56:0.287774 57:-0.588291 58:-0.114362 59:0.26481 60:-0.659246 61:-0.148498 62:0.0541671 63:-0.632573 64:0.0197946 
0 0 0 1.80996195956511 1:0.114484 2:0.208344 3:0.133149 4:0.290859 5:-0.379159 6:-0.746865 7:-0.420451 8:0.520311 9:0.480551 10:0.146174 11:-0.358972 12:-0.320814 13:-0.432135 14:-0.487778 15:-0.371106 16:-0.296082 17:-0.388419 18:-0.758066 19:-0.42598 20:-0.566035 21:-0.786775 22:-0.395235 23:0.861095 24:0.918768 25:0.656383 26:-0.485261 27:-0.623638 28:-0.234159 29:-0.262608 30:0.318749 31:0.242677 32:-0.154309 33:-0.0310222 34:-0.523947 35:0.231333 36:-0.417628 37:0.610654 38:-0.779139 39:-0.583722 40:-0.0188396 41:-0.285086 42:-0.166145 43:-0.123848 44:-0.15576 45:-0.046091 46:-0.663766 47:-0.278769 48:-0.160414 49:-0.387391 50:0.363277 51:0.0412019 52:0.621553 53:-0.0539445 54:-0.383562 55:-0.247254 56:0.680314 57:-0.858172 58:0.942016 59:0.245664 60:-0.547108 61:0.864625 62:0.116895 63:-0.515314 64:0.537454 
0 0.05092542243619649 0 4.17109369724116 1:-0.136373 2:0.414948 3:0.213137 4:0.5584 5:-0.246654 6:-0.627192 7:-0.638998 8:0.378243 9:-0.463322 10:0.601621 11:-0.607344 12:0.0321469 13:-0.290708 14:-0.417399 15:-0.358361 16:-0.284949 17:-0.242452 18:-0.634952 19:-0.62808 20:-0.44707 21:-0.601553 22:-0.699826 23:0.734172 24:0.679481 25:0.942927 26:-0.419615 27:-0.645493 28:-0.423102 29:-0.430294 30:0.616666 31:0.378888 32:-0.594318 33:-0.626201 34:-0.0644155 35:-0.0731047 36:-0.218531 37:0.54882 38:-0.597509 39:-0.748325 40:-0.435099 41:-0.506927 42:-0.489251 43:-0.382589 44:-0.592231 45:-0.522922 46:-0.471306 47:-0.570454 48:-0.66949 49:-0.0199806 50:0.415406 51:0.765991 52:0.64046 53:-0.610851 54:-0.555365 55:0.204214 56:-0.0590987 57:-0.158261 58:0.340462 59:0.720509 60:-0.344786 61:-0.408792 62:-0.439823 63:-0.0540826 64:0.819689 
2.989933363673221 2.235528708877317 0.3903930144347698 0.8435667872658634 1:-0.764673 2:-0.486507 3:0.0880239 4:0.455206 5:-0.0858368 6:0.122783 7:-0.631282 8:-0.979105 9:-0.671562 10:0.825236 11:0.808748 12:0.36552 13:0.471493 14:-0.392494 15:0.0183841 16:0.0753863 17:-0.0882768 18:0.102996 19:-0.629699 20:-0.237464 21:0.179344 22:-0.623658 23:-0.220539 24:-0.0168579 25:0.914523 26:-0.887704 27:-0.194603 28:-0.304877 29:-0.324843 30:0.124944 31:0.443737 32:-0.77997 33:-0.745122 34:-0.601994 35:0.0724484 36:0.185859 37:0.359846 38:-0.8584 39:-0.787134 40:-0.794568 41:-0.792456 42:-0.742225 43:-0.717751 44:-0.78445 45:-0.751226 46:-0.773654 47:-0.804673 48:-0.756622 49:-0.68419 50:0.705376 51:0.790121 52:0.791713 53:-0.7256 54:-0.710046 55:-0.348128 56:0.134895 57:-0.127172 58:-0.330254 59:0.0570813 60:-0.044838 61:-0.0664676 62:-0.022296 63:0.221464 64:0.608161 
0.1254475818948543 1.578736974056106 1.372998646537328 0 1:-0.991708 2:0.00386521 3:0.057691 4:0.532044 5:-0.0189425 6:-0.848172 7:-0.790189 8:-0.840276 9:0.296299 10:0.125546 11:0.480465 12:-0.677909 13:-0.683773 14:-0.284569 15:-0.440539 16:-0.230066 17:-0.0460982 18:-0.861374 19:-0.773878 20:-0.165801 21:-0.886551 22:-0.787966 23:-0.170573 24:0.918559 25:0.88681 26:-0.747215 27:-0.836218 28:-0.705941 29:-0.332569 30:-0.134391 31:0.458372 32:-0.75415 33:-0.746765 34:-0.295812 35:-0.418715 36:0.332368 37:0.0703933 38:-0.330374 39:-0.738572 40:-0.670605 41:-0.656869 42:-0.647047 43:-0.575619 44:-0.758922 45:-0.70273 46:-0.600394 47:-0.75156 48:-0.772758 49:-0.135984 50:0.551315 51:0.762349 52:0.521349 53:-0.817898 54:-0.77911 55:-0.0993051 56:0.792396 57:0.183001 58:-0.334469 59:0.0445668 60:0.0252684 61:0.366367 62:0.192991 63:-0.27044 64:0.301976 
0 0 0 4.610900282126142 1:-0.96816 2:-0.013592 3:0.153687 4:0.215261 5:-0.642802 6:-0.798056 7:-0.771032 8:-0.211205 9:0.225899 10:0.128961 11:-0.686252 12:-0.658707 13:-0.705464 14:-0.689745 15:-0.774422 16:-0.648057 17:-0.654098 18:-0.80654 19:-0.775686 20:-0.736727 21:-0.826667 22:-0.781728 23:0.726778 24:0.890478 25:0.842708 26:-0.832106 27:-0.757645 28:-0.764815 29:-0.464595 30:-0.0665739 31:0.434626 32:-0.596728 33:-0.691874 34:-0.37165 35:-0.26756 36:0.0620426 37:0.0237822 38:-0.617858 39:-0.95092 40:-0.641008 41:-0.724692 42:-0.601753 43:-0.549588 44:-0.588404 45:-0.674669 46:-0.645527 47:-0.588449 48:-0.756353 49:-0.243065 50:0.424249 51:0.717733 52:0.553805 53:-0.637668 54:-0.800228 55:-0.176866 56:0.548031 57:-0.61003 58:0.321932 59:0.270237 60:-0.0847487 61:0.031262 62:-0.0109364 63:-0.628403 64:0.332046 
0 0 15.6778546602888 13.31671203864721 1:0.133155 2:0.0220351 3:0.20659 4:0.100465 5:-0.696628 6:-0.778948 7:-0.86775 8:0.441134 9:0.447876 10:-0.0687235 11:-0.455982 12:-0.466848 13:-0.872364 14:-0.758659 15:-0.775147 16:-0.708949 17:-0.705861 18:-0.782325 19:-0.862151 20:-0.775639 21:-0.821419 22:-0.897135 23:0.879507 24:0.931322 25:0.894109 26:-0.764777 27:-0.675507 28:-0.930221 29:-0.456359 30:-0.181226 31:0.336095 32:-0.708644 33:-0.587627 34:-0.408681 35:0.0165852 36:-0.129429 37:-0.0233593 38:-0.761576 39:-0.736201 40:-0.767985 41:-0.684991 42:-0.647881 43:-0.537438 44:-0.698192 45:-0.551156 46:-0.654024 47:-0.718764 48:-0.621084 49:-0.342386 50:0.580172 51:0.513317 52:0.557901 53:-0.708762 54:-0.769406 55:-0.28581 56:0.642731 57:0.480474 58:0.480046 59:0.235384 60:0.748647 61:0.220178 62:-0.277409 63:-0.454626 64:-0.0763112 
1.709753668675309 12.84789863896305 4.264377007166808 12.35034902558199 1:0.951913 2:-0.0635785 3:0.133577 4:0.541883 5:-0.563173 6:-0.910561 7:-0.838668 8:-0.561272 9:0.202728 10:0.471533 11:0.0759623 12:-0.853072 13:-0.399439 14:-0.700109 15:-0.665018 16:-0.63627 17:-0.576262 18:-0.916765 19:-0.815732 20:-0.577342 21:-0.941444 22:-0.852299 23:0.496589 24:0.957014 25:0.975923 26:-0.792179 27:-0.886151 28:-0.698928 29:-0.484547 30:-0.0146671 31:0.418919 32:-0.794919 33:-0.607448 34:-0.418224 35:-0.0326234 36:0.119934 37:0.271276 38:-0.736924 39:-0.783132 40:-0.512786 41:-0.700942 42:-0.613233 43:-0.589008 44:-0.768371 45:-0.605784 46:-0.672397 47:-0.811929 48:-0.633992 49:-0.28419 50:0.649523 51:0.631232 52:0.619978 53:-0.816027 54:-0.648973 55:-0.13024 56:0.39364 57:-0.0392163 58:-0.370672 59:-0.0377205 60:-0.39788 61:0.33762 62:-0.237142 63:-0.195917 64:0.506206 
0 0 0 18.27059423858771 1:0.465849 2:0.0869102 3:0.292894 4:0.382204 5:-0.918285 6:-0.822316 7:-0.895801 8:0.190914 9:0.382696 10:0.25544 11:-0.880594 12:-0.682544 13:-0.712705 14:-0.898239 15:-0.892224 16:-0.837808 17:-0.912327 18:-0.807501 19:-0.892928 20:-0.95423 21:-0.879129 22:-0.902553 23:0.98496 24:0.964137 25:0.95271 26:-0.931261 27:-0.741231 28:-0.845779 29:-0.192308 30:0.0421121 31:0.384495 32:-0.855821 33:-0.824184 34:-0.81401 35:0.0814703 36:-0.0712353 37:0.662617 38:-0.888097 39:-0.694931 40:-0.212861 41:-0.883555 42:-0.831977 43:-0.820367 44:-0.816209 45:-0.820193 46:-0.889385 47:-0.878682 48:-0.816862 49:-0.80485 50:0.816151 51:0.794218 52:0.803687 53:-0.736202 54:-0.832763 55:-0.470522 56:0.627707 57:-0.457071 58:0.225548 59:0.532322 60:-0.566596 61:0.898653 62:0.29718 63:-0.556122 64:0.855692 
0 4.661789096493965 0 0 1:0.149232 2:0.324583 3:0.150531 4:0.289089 5:-0.479138 6:-0.741515 7:-0.790924 8:0.209242 9:0.485521 10:0.15418 11:-0.668451 12:-0.456697 13:-0.930615 14:-0.535464 15:-0.701085 16:-0.526248 17:-0.471881 18:-0.751631 19:-0.795789 20:-0.612003 21:-0.796653 22:-0.855522 23:0.730594 24:0.913157 25:0.91489 26:-0.653986 27:-0.654398 28:-0.806061 29:-0.436152 30:-0.20877 31:0.300682 32:-0.590137 33:-0.760245 34:-0.125593 35:-0.269719 36:-0.215706 37:-0.224344 38:-0.764766 39:-0.886182 40:-0.648256 41:-0.624553 42:-0.517846 43:-0.445877 44:-0.587201 45:-0.684616 46:-0.489061 47:-0.6523 48:-0.818475 49:0.0211446 50:0.452641 51:0.691327 52:0.342682 53:-0.736826 54:-0.965183 55:-0.171935 56:-0.0398371 57:-0.0476265 58:0.467165 59:-0.408805 60:0.112889 61:0.246887 62:-0.113233 63:-0.592989 64:-0.67778 
0 0.4167509840600327 0 0.1957557842791907 1:-0.95453 2:-0.448588 3:0.09737 4:0.494754 5:0.0102667 6:-0.614647 7:-0.798315 8:-1 9:0.135685 10:-0.0792726 11:0.863573 12:-0.803007 13:-0.712865 14:-0.479222 15:-0.292095 16:-0.162893 17:1.60411e-05 18:-0.628871 19:-0.786753 20:-0.164958 21:-0.699704 22:-0.808416 23:-0.339688 24:0.809595 25:0.881001 26:-0.881066 27:-0.628154 28:-0.759732 29:-0.665648 30:-0.0918312 31:0.41224 32:-0.715372 33:-0.329706 34:-0.042591 35:0.0512096 36:0.0853516 37:0.125666 38:-0.851502 39:-0.897674 40:-0.802879 41:-0.479514 42:-0.556669 43:-0.301552 44:-0.611776 45:-0.329916 46:-0.46084 47:-0.763169 48:-0.449778 49:-0.0502425 50:0.543868 51:0.441839 52:0.49614 53:-0.852822 54:-0.495434 55:-0.0360905 56:-0.303194 57:-0.380419 58:-0.301309 59:-0.457864 60:0.291284 61:-0.173278 62:0.0425665 63:-0.439472 64:-0.00563671 
0 2.439253469048928 0 0 1:0.157446 2:0.222121 3:0.115204 4:0.239302 5:-0.582035 6:-0.775737 7:-0.767231 8:-0.044293 9:0.359686 10:-0.114005 11:-0.64493 12:-0.48561 13:-0.737147 14:-0.626662 15:-0.691093 16:-0.597048 17:-0.580893 18:-0.787551 19:-0.772308 20:-0.64898 21:-0.81362 22:-0.805108 23:0.722528 24:0.912772 25:0.844216 26:-0.712332 27:-0.691156 28:-0.812937 29:-0.636611 30:-0.279073 31:0.387257 32:-0.681214 33:-0.590516 34:-0.509962 35:-0.0300551 36:-0.413884 37:-0.432494 38:-0.491912 39:-0.655282 40:-0.317568 41:-0.740525 42:-0.664788 43:-0.533581 44:-0.601419 45:-0.522674 46:-0.722006 47:-0.632854 48:-0.670835 49:-0.398642 50:0.421922 51:0.45914 52:0.495195 53:-0.736202 54:-0.942922 55:-0.440036 56:0.928071 57:-0.094698 58:0.0923349 59:0.469586 60:0.28449 61:0.341172 62:-0.398502 63:-0.595502 64:0.396178 
13.20486253979694 0 11.9963593538428 20.71881634266065 1:0.174825 2:0.205342 3:0.206757 4:0.33 5:-0.621318 6:-0.683862 7:-0.745506 8:0.463063 9:0.216073 10:0.108261 11:-0.459214 12:-0.656323 13:-0.939147 14:-0.684134 15:-0.707868 16:-0.582221 17:-0.619883 18:-0.690693 19:-0.749423 20:-0.727139 21:-0.726779 22:-0.825402 23:0.885369 24:0.844933 25:0.907875 26:-0.692018 27:-0.624335 28:-0.752389 29:-0.595432 30:0.0612042 31:0.353658 32:-0.436018 33:-0.571771 34:-0.478286 35:0.0200622 36:-0.149551 37:0.234771 38:-0.852527 39:-0.333648 40:-0.508148 41:-0.606711 42:-0.487581 43:-0.472458 44:-0.401053 45:-0.579568 46:-0.697254 47:-0.516471 48:-0.491193 49:-0.36838 50:0.369793 51:0.456863 52:0.631952 53:-0.555971 54:-0.564498 55:-0.210491 56:0.395336 57:-0.772272 58:0.521964 59:0.31463 60:-0.49677 61:0.642404 62:-0.489756 63:0.211938 64:-0.376399 
0 1.259207211833378 5.611149151915477 0 1:0.121887 2:0.0888961 3:0.0551241 4:0.452177 5:-0.520592 6:-0.760239 7:-0.762998 8:0.307754 9:0.268034 10:0.196297 11:-0.165134 12:-0.394208 13:-0.814347 14:-0.668524 15:-0.651886 16:-0.557165 17:-0.532326 18:-0.774098 19:-0.758262 20:-0.5359 21:-0.766101 22:-0.807798 23:0.675267 24:0.862064 25:0.899654 26:-0.59134 27:-0.6782 28:-0.727783 29:-0.371455 30:-0.0215284 31:0.396986 32:-0.350167 33:-0.30928 34:-0.289833 35:-0.213021 36:0.139631 37:-0.539806 38:-0.803037 39:-0.619047 40:-0.331903 41:-0.53369 42:-0.341474 43:-0.300226 44:-0.354051 45:-0.318406 46:-0.59946 47:-0.454071 48:-0.26906 49:-0.251212 50:0.281825 51:0.387207 52:0.374193 53:-0.539757 54:-0.180365 55:-0.441829 56:0.341656 57:-0.346481 58:0.0159163 59:0.00921163 60:0.12552 61:0.192815 62:-0.22596 63:-0.243873 64:0.0228833 
0 0 0 15.99496264790322 1:-0.876134 2:-0.236242 3:0.0368312 4:0.465917 5:-0.658046 6:-0.768802 7:-0.815072 8:0.0356648 9:0.129911 10:0.315552 11:-0.476898 12:-0.647513 13:-0.562974 14:-0.71945 15:-0.735022 16:-0.657282 17:-0.657257 18:-0.782619 19:-0.806278 20:-0.685239 21:-0.801792 22:-0.823975 23:0.698825 24:0.86694 25:0.930923 26:-0.782153 27:-0.74564 28:-0.711478 29:-0.571829 30:0.0473823 31:0.378393 32:-0.489718 33:-0.491635 34:-0.274398 35:-0.172125 36:0.0732494 37:-0.154197 38:-0.791334 39:-0.900858 40:-0.720031 41:-0.627803 42:-0.476936 43:-0.408217 44:-0.458521 45:-0.500777 46:-0.588987 47:-0.534755 48:-0.557886 49:-0.240737 50:0.390738 51:0.585705 52:0.48133 53:-0.567197 54:-0.544521 55:-0.277292 56:0.204765 57:-0.0646935 58:-0.213506 59:0.426642 60:-0.287281 61:0.301943 62:0.445594 63:-0.768962 64:0.726581 
4.12792258366911 3.462525362796356 0 11.74440915978976 1:0.180382 2:-0.0607022 3:-0.0222425 4:0.555407 5:-0.637618 6:-0.773909 7:-0.738147 8:0.208236 9:0.740746 10:0.195922 11:-0.257549 12:0.376945 13:-0.691097 14:-0.730224 15:-0.695659 16:-0.613091 17:-0.648809 18:-0.785944 19:-0.722369 20:-0.649497 21:-0.771904 22:-0.759039 23:0.719857 24:0.89265 25:0.877439 26:-0.71519 27:-0.637392 28:-0.658718 29:-0.512651 30:-0.0923283 31:0.263002 32:-0.473513 33:-0.74288 34:-0.191893 35:-0.2226 36:0.218516 37:-0.599665 38:-0.681187 39:-0.636581 40:-0.237627 41:-0.706141 42:-0.324149 43:-0.428038 44:-0.458606 45:-0.713143 46:-0.510374 47:-0.493252 48:-0.750975 49:-0.167798 50:0.354899 51:0.728204 52:0.2242 53:-0.526037 54:-0.775685 55:-0.558843 56:0.567769 57:-0.597297 58:0.405901 59:0.212111 60:-0.29209 61:0.327524 62:-0.163246 63:-0.28422 64:-0.0951781 
7.183989806246768 1.226718114444252 0 0 1:0.710447 2:0.0827798 3:0.415455 4:0.605543 5:-0.749375 6:-0.693532 7:-0.509042 8:-0.408019 9:0.630476 10:0.980613 11:-0.295547 12:-0.0500895 13:0.812368 14:-0.707511 15:-0.427365 16:-0.485228 17:-0.753703 18:-0.668849 19:-0.498106 20:-0.7769 21:-0.748729 22:-0.514799 23:0.743161 24:0.964258 25:0.941074 26:-0.875416 27:-0.463667 28:-0.0257169 29:-0.309475 30:0.0965047 31:0.360914 32:-0.837567 33:-0.815957 34:-0.748101 35:0.358433 36:-0.0343996 37:0.529579 38:-0.643369 39:-0.455036 40:-0.481975 41:-0.847458 42:-0.773951 43:-0.804197 44:-0.840448 45:-0.819188 46:-0.844722 47:-0.86388 48:-0.784591 49:-0.769932 50:0.781243 51:0.778284 52:0.78415 53:-0.751169 54:-0.784247 55:-0.457969 56:0.613185 57:0.0228442 58:-0.152338 59:0.124412 60:-0.182059 61:0.808055 62:-0.1767 63:-0.225036 64:0.778801 
4.953406820416878 0 0 1.600292623091769 1:-0.679116 2:-0.0228777 3:-0.317476 4:-0.0763637 5:-0.420105 6:-0.0303839 7:-0.0429773 8:-0.710524 9:-0.949595 10:-0.668967 11:0.281147 12:0.881137 13:0.379084 14:-0.345168 15:0.326167 16:0.136244 17:-0.437128 18:-0.0362061 19:-0.0409366 20:-0.473841 21:-0.106815 22:0.0811121 23:0.316145 24:-0.00260192 25:-0.0364639 26:-0.790977 27:-0.778478 28:-0.340278 29:-0.448378 30:0.476657 31:0.359182 32:-0.672161 33:-0.513645 34:-0.51708 35:-0.457444 36:-0.198928 37:0.641208 38:-0.246865 39:-0.61922 40:-0.24909 41:-0.632588 42:-0.550407 43:-0.52849 44:-0.665025 45:-0.476711 46:-0.720043 47:-0.626469 48:-0.532607 49:-0.491756 50:0.438213 51:0.587526 52:0.735623 53:-0.700655 54:-0.488584 55:-0.205559 56:0.636044 57:-0.529233 58:0.18926 59:0.606166 60:-0.434814 61:0.0163065 62:0.275488 63:-0.455071 64:0.452998 
0 0.7830902380596787 1.807398500183841 0 1:0.0377581 2:0.00231448 3:0.0789176 4:0.599416 5:-0.354796 6:-0.85291 7:-0.515266 8:0.471101 9:0.0741741 10:0.422577 11:-0.0180492 12:-0.954932 13:-0.425923 14:-0.498685 15:-0.4206 16:-0.348258 17:-0.373352 18:-0.865498 19:-0.504704 20:-0.399752 21:-0.909548 22:-0.546158 23:0.629652 24:0.92356 25:0.847484 26:-0.436652 27:-0.876442 28:-0.247172 29:-0.104687 30:-1 31:0.490157 32:-0.513971 33:-0.413983 34:-0.482979 35:-0.093093 36:0.613961 37:-0.321364 38:-0.949533 39:-0.0784161 40:-0.50749 41:-0.233923 42:-0.430182 43:-0.249825 44:-0.478991 45:-0.0723444 46:-0.696344 47:-0.629372 48:-0.354847 49:-0.392047 50:0.596463 51:0.334851 52:0.564519 53:-0.494855 54:-0.428082 55:-0.333782 56:-0.625638 57:0.884399 58:-0.00718881 59:-0.32939 60:0.608543 61:0.317143 62:-0.293739 63:0.505381 64:-0.258804 
0 0 0 0.08159673538994439 1:-0.984848 2:-0.312739 3:0.0881219 4:0.0207259 5:-0.479666 6:-0.730847 7:-0.782036 8:-0.454041 9:-0.793747 10:0.101874 11:-0.421823 12:0.497861 13:-0.83255 14:-0.579097 15:-0.678031 16:-0.521237 17:-0.480089 18:-0.74431 19:-0.771315 20:-0.571721 21:-0.741826 22:-0.826795 23:0.449368 24:0.722609 25:0.868772 26:-0.821993 27:-0.868902 28:-0.819572 29:-0.518679 30:-0.961716 31:0.509286 32:-0.26737 33:-0.251648 34:-0.211228 35:0.195327 36:-0.270995 37:0.49305 38:-0.864221 39:-0.593769 40:-0.601976 41:-0.316456 42:0.00563553 43:-0.0806865 44:-0.256409 45:0.0173077 46:-0.542518 47:-0.405021 48:-0.241361 49:-0.287682 50:0.363742 51:-0.168677 52:0.760832 53:-0.324602 54:-0.818493 55:0.0661287 56:-0.291336 57:-0.382406 58:0.0351741 59:-0.244112 60:-0.152533 61:-0.233435 62:-0.438131 63:-0.233406 64:-0.139022 
4.341635688133228 0 0 1.228368681521655 1:-0.817069 2:0.162554 3:0.221718 4:0.46614 5:-0.751142 6:-0.815069 7:-0.811703 8:-0.4302 9:-0.516916 10:0.071047 11:-0.282588 12:-0.0498118 13:-0.726801 14:-0.776056 15:-0.759996 16:-0.716606 17:-0.747049 18:-0.814218 19:-0.803083 20:-0.776605 21:-0.827136 22:-0.82645 23:0.756341 24:0.832676 25:0.903587 26:-0.864476 27:-0.859087 28:-0.761695 29:-0.65512 30:0.481927 31:0.381238 32:-0.578195 33:-0.61143 34:-0.558096 35:-0.40202 36:0.65611 37:0.649337 38:-0.122783 39:-0.144481 40:-0.11903 41:-0.719848 42:-0.238364 43:-0.529664 44:-0.507043 45:-0.560657 46:-0.747864 47:-0.495574 48:-0.598763 49:-0.504947 50:0.212939 51:0.925336 52:0.754845 53:-0.721235 54:-0.205479 55:-0.193454 56:0.62797 57:-0.383151 58:-0.560183 59:0.777094 60:-0.456866 61:-0.514632 62:-0.537735 63:0.653994 64:0.692012 
1.880748026224002 1.59337432018395 5.381772590799167 7.725004851256228 1:-0.161155 2:0.024857 3:0.0818723 4:0.163646 5:-0.705213 6:-0.856802 7:-0.757043 8:-0.122354 9:-0.338975 10:0.187711 11:-0.672269 12:-0.425287 13:-0.695661 14:-0.740103 15:-0.85344 16:-0.689048 17:-0.71412 18:-0.869224 19:-0.759873 20:-0.766792 21:-0.873985 22:-0.772475 23:0.786569 24:0.864546 25:0.858481 26:-0.826567 27:-0.903352 28:-0.718905 29:-0.121922 30:0.711928 31:0.544163 32:-0.298169 33:0.30141 34:-0.515836 35:0.0280464 36:0.274614 37:-0.224562 38:-0.875875 39:-0.872538 40:-0.668848 41:-0.0540868 42:-0.236694 43:0.0369613 44:-0.278131 45:0.325868 46:-0.689128 47:-0.445944 48:0.0818879 49:-0.470805 50:0.505702 51:0.387207 52:0.642036 53:-0.222326 54:0.564498 55:-0.314503 56:0.330881 57:-0.740292 58:-0.250523 59:-0.168289 60:0.442019 61:0.125793 62:0.00739152 63:-0.380285 64:-0.208429 
1.453258880573282 0 0 5.372331023790717 1:-0.742239 2:-0.0582595 3:0.152522 4:0.392809 5:-0.788435 6:-0.755506 7:-0.768006 8:-0.220819 9:-0.623991 10:0.1044 11:-0.491379 12:0.203242 13:-0.747959 14:-0.762995 15:-0.790528 16:-0.706137 17:-0.795677 18:-0.765172 19:-0.768278 20:-0.818708 21:-0.753298 22:-0.800117 23:0.784095 24:0.765035 25:0.87918 26:-0.901416 27:-0.819579 28:-0.744759 29:-0.554424 30:0.68319 31:0.446375 32:-0.417512 33:0.216677 34:-0.600129 35:-0.217699 36:0.300863 37:0.312387 38:-0.47406 39:-0.917174 40:-0.761936 41:-0.0965646 42:-0.102693 43:-0.0626638 44:-0.394805 45:0.241124 46:-0.772164 47:-0.355391 48:-0.100444 49:-0.628322 50:0.200372 51:0.596631 52:0.775012 53:-0.436857 54:0.440068 55:-0.30733 56:0.304795 57:-0.177262 58:-0.11215 59:0.707128 60:-0.385998 61:-0.417348 62:-0.630183 63:0.546306 64:0.523882 
1.292461436618135 0 0 0 1:-0.817181 2:0.150052 3:-0.026841 4:0.713193 5:-0.619686 6:-0.732386 7:-0.717684 8:-0.442825 9:-0.41225 10:0.383903 11:-0.154157 12:-0.238229 13:-0.588132 14:-0.702513 15:-0.740499 16:-0.565231 17:-0.623852 18:-0.744739 19:-0.678387 20:-0.658521 21:-0.744335 22:-0.738757 23:0.613065 24:0.750731 25:0.917755 26:-0.813127 27:-0.825371 28:-0.548664 29:-0.560537 30:0.239497 31:0.444355 32:-0.310698 33:-0.261422 34:-0.360555 35:-0.417189 36:0.584875 37:0.467389 38:-0.307082 39:-0.537628 40:-0.564424 41:-0.513189 42:-0.0843248 43:-0.275076 44:-0.290484 45:-0.275513 46:-0.638429 47:-0.249166 48:-0.411322 49:-0.391659 50:0.0672562 51:0.763715 52:0.729636 53:-0.386966 54:-0.010274 55:-0.0984084 56:0.606779 57:-0.279536 58:-0.366573 59:0.874569 60:-0.563974 61:-0.652172 62:-0.289117 63:0.580796 64:0.462987 
2.307116539159894 0 0 0.3401392315010623 1:-0.79664 2:-0.00947622 3:4.74531e-05 4:0.509702 5:-0.452901 6:-0.51562 7:-0.514815 8:-0.373395 9:-0.431442 10:0.395914 11:-0.233994 12:-0.323603 13:-0.564391 14:-0.550216 15:-0.524688 16:-0.332155 17:-0.469033 18:-0.530806 19:-0.511552 20:-0.490352 21:-0.571284 22:-0.566832 23:0.439997 24:0.602626 25:0.820263 26:-0.715259 27:-0.714665 28:-0.336584 29:-0.778061 30:0.540198 31:0.569146 32:0.0183545 33:0.121319 34:0.111421 35:-0.317702 36:0.193814 37:0.367692 38:-0.617781 39:-0.878062 40:-0.775025 41:-0.218267 42:0.302651 43:0.166647 44:0.0801209 45:0.126687 46:-0.348496 47:-0.0518067 48:-0.019766 49:-0.0467507 50:-0.229695 51:0.34168 52:0.694659 53:-0.360773 54:0.291667 55:0.250392 56:0.211742 57:-0.167824 58:-0.0769506 59:0.626188 60:-0.561859 61:-0.408479 62:-0.468058 63:0.490589 64:0.578906 
0 0 0 0.9682740830642843 1:-0.83018 2:-0.00356913 3:-0.0441297 4:0.269818 5:-0.519015 6:-0.612767 7:-0.638669 8:-0.317907 9:-0.260006 10:-0.163575 11:-0.126409 12:-0.586087 13:-0.778369 14:-0.595682 15:-0.547764 16:-0.464124 17:-0.533404 18:-0.625773 19:-0.643999 20:-0.52639 21:-0.678811 22:-0.690357 23:0.502486 24:0.713189 25:0.76528 26:-0.71595 27:-0.751242 28:-0.69414 29:-0.235609 30:0.65137 31:0.519716 32:0.427678 33:0.374389 34:0.306655 35:0.0215076 36:0.107221 37:0.442205 38:-0.671079 39:-0.807537 40:-0.63734 41:-0.0596993 42:0.499687 43:0.448926 44:0.427175 45:0.384215 46:-0.254026 47:0.46539 48:0.285733 49:0.186421 50:-0.387014 51:0.126337 52:0.677013 53:0.539757 54:0.670091 55:0.494732 56:0.286037 57:-0.177849 58:-0.170536 59:0.651678 60:-0.292303 61:-0.435414 62:-0.360213 63:0.3193 64:0.108827 
3.269847359685833 0 0 0 1:-0.755565 2:-0.0221049 3:0.0448584 4:0.419452 5:-0.720794 6:-0.76763 7:-0.815555 8:-0.0374245 9:-0.126856 10:0.112085 11:-0.768478 12:-0.442367 13:-0.895996 14:-0.737715 15:-0.800206 16:-0.701688 17:-0.730142 18:-0.78148 19:-0.812172 20:-0.791711 21:-0.772482 22:-0.856684 23:0.81436 24:0.808413 25:0.918431 26:-0.839356 27:-0.785004 28:-0.802766 29:-0.625318 30:0.149903 31:0.258096 32:-0.742051 33:-0.86293 34:-0.352861 35:0.379853 36:-0.229611 37:0.268404 38:-0.506067 39:-0.425053 40:-0.870415 41:-0.549582 42:-0.767481 43:-0.583045 44:-0.654819 45:-0.865902 46:-0.590924 47:-0.754462 48:-0.845368 49:-0.461494 50:0.621131 51:0.815616 52:0.617772 53:-0.730589 54:-0.866438 55:-0.338265 56:0.90093 57:-0.499643 58:-0.0796734 59:0.74277 60:-0.598329 61:0.0356616 62:0.134038 63:-0.464579 64:0.702578 
0 0 0 1.019601128459499 1:-0.0244756 2:0.291027 3:0.188356 4:0.496381 5:-0.618598 6:-0.852547 7:-0.611204 8:0.592459 9:0.143997 10:0.110812 11:-0.269205 12:-0.849061 13:-0.779569 14:-0.568618 15:-0.65893 16:-0.537688 17:-0.606087 18:-0.854287 19:-0.606946 20:-0.740639 21:-0.89494 22:-0.662609 23:0.95817 24:0.93709 25:0.822219 26:-0.652837 27:-0.821861 28:-0.540648 29:0.0753948 30:0.372744 31:0.255292 32:0.0921814 33:-0.169307 34:-0.443423 35:0.258728 36:-0.145394 37:0.707473 38:-0.593773 39:-0.679854 40:0.374709 41:-0.350959 42:-0.0951785 43:-0.0508947 44:0.144746 45:-0.174064 46:-0.634171 47:0.125526 48:-0.175743 49:-0.214743 50:0.251105 51:0.277032 52:0.579959 53:0.664484 54:-0.120434 55:-0.106927 56:-0.377595 57:0.202613 58:0.770875 59:0.412709 60:0.415649 61:-0.450757 62:-0.303947 63:0.667005 64:0.458779 
3.623665209645779 4.979145675581043 1.393682533824383 0.7742445005113556 1:0.138798 2:0.030909 3:0.212231 4:0.409151 5:-0.765804 6:-0.874822 7:-0.698143 8:0.427076 9:0.457503 10:0.281183 11:-0.426029 12:-0.519727 13:-0.625986 14:-0.719736 15:-0.725625 16:-0.681335 17:-0.772733 18:-0.870371 19:-0.698522 20:-0.811931 21:-0.913479 22:-0.727255 23:0.896193 24:0.963657 25:0.862399 26:-0.802396 27:-0.815125 28:-0.614613 29:-0.0403294 30:0.0625963 31:0.321337 32:-0.450811 33:-0.636314 34:-0.764449 35:0.354825 36:-0.353921 37:-0.492193 38:-0.425551 39:-0.533416 40:-0.296004 41:-0.667799 42:-0.448132 43:-0.546291 44:-0.399034 45:-0.642331 46:-0.82861 47:-0.41605 48:-0.635875 49:-0.712124 50:0.614149 51:0.56112 52:0.6392 53:-0.0127845 54:-0.740868 55:-0.5974 56:-0.41195 57:0.540571 58:0.0836468 59:-0.0750477 60:0.43267 61:-0.361775 62:-0.465719 63:0.825707 64:-0.133485 
5.740990981647099 0 0 0 1:-0.679335 2:-0.0105379 3:0.115968 4:0.482415 5:-0.829628 6:-0.745749 7:-0.827867 8:0.0215881 9:-0.444667 10:0.136811 11:-0.71838 12:-0.2036 13:-0.633586 14:-0.834802 15:-0.845332 16:-0.746926 17:-0.836072 18:-0.75794 19:-0.815905 20:-0.862693 21:-0.766486 22:-0.822097 23:0.869661 24:0.774178 25:0.904155 26:-0.894835 27:-0.831739 28:-0.751341 29:-0.486925 30:0.344006 31:0.45025 32:-0.498593 33:-0.685569 34:-0.613747 35:-0.23268 36:0.520533 37:0.383853 38:-0.517384 39:-0.509321 40:-0.710588 41:-0.740939 42:-0.478606 43:-0.57771 44:-0.488399 45:-0.665566 46:-0.778989 47:-0.497315 48:-0.696383 49:-0.612415 50:0.333954 51:0.908491 52:0.756735 53:-0.562831 54:-0.43379 55:-0.314952 56:0.729395 57:-0.270955 58:-0.313769 59:0.898341 60:-0.594539 61:-0.563145 62:-0.528229 63:0.677865 64:0.838461 
0 0.7940083179602647 0.3176015642459932 0.6859156117085263 1:1 2:-0.437863 3:-0.146669 4:-0.524891 5:-0.117527 6:-0.6754 7:0.450012 8:-0.34525 9:-0.175909 10:-0.850378 11:-0.595294 12:-0.641852 13:0.648509 14:-0.0307658 15:0.222874 16:0.456808 17:-0.123134 18:-0.679589 19:0.472994 20:-0.33685 21:-0.725263 22:0.461047 23:0.226385 24:0.758606 25:-0.660215 26:-0.670356 27:-0.771122 28:-0.541658 29:-0.461963 30:0.503903 31:0.345866 32:1 33:0.172839 34:1 35:-0.0496658 36:0.418191 37:0.379981 38:-0.696832 39:-0.446084 40:-0.700987 41:0.246034 42:0.485911 43:0.781496 44:1 45:0.170578 46:0.129416 47:0.889421 48:0.284658 49:0.82386 50:-0.723528 51:0.294787 52:0.355916 53:1 54:0.878995 55:0.77449 56:0.113831 57:-0.55061 58:-0.171802 59:0.416167 60:-0.212593 61:-0.563603 62:-0.082916 63:-0.660395 64:0.0240611 
0 1.418872977786229 0 0 1:-0.983859 2:-0.175307 3:0.0518844 4:-0.0152129 5:-0.169821 6:-0.817896 7:-0.35999 8:-0.58744 9:0.0588491 10:-0.88125 11:-0.0681516 12:-0.887815 13:0.714895 14:-0.297788 15:-0.190037 16:-0.154034 17:-0.190574 18:-0.831376 19:-0.357672 20:-0.322451 21:-0.874063 22:-0.359138 23:0.073263 24:0.885131 25:0.250655 26:-0.772407 27:-0.867746 28:-0.821864 29:-0.387417 30:0.299856 31:0.402098 32:-0.825836 33:-0.767858 34:-0.299127 35:-0.0752099 36:0.680106 37:0.302066 38:-0.842911 39:0.355058 40:-0.751994 41:-0.62987 42:-0.733667 43:-0.60766 44:-0.826854 45:-0.750975 46:-0.604986 47:-0.842403 48:-0.707409 49:-0.325703 50:0.684896 51:0.889369 52:0.638885 53:-0.834113 54:-0.481164 55:-0.151311 56:0.893421 57:-0.690867 58:-0.102543 59:0.667276 60:-0.213173 61:-0.457596 62:0.453572 63:-0.790121 64:0.188349 
0 0.02797650947098638 0 0.1255660823127394 1:-0.965195 2:-0.0536718 3:0.0254564 4:0.29957 5:-0.255826 6:-0.808991 7:-0.596277 8:-0.336517 9:-0.0718084 10:-0.667695 11:-0.475226 12:-0.738695 13:0.288758 14:-0.393885 15:-0.448793 16:-0.331344 17:-0.276949 18:-0.822387 19:-0.601409 20:-0.415523 21:-0.843051 22:-0.57766 23:0.295871 24:0.859414 25:0.570093 26:-0.725305 27:-0.846473 28:-0.770559 29:-0.339022 30:0.178442 31:0.622782 32:-0.713495 33:-0.624295 34:-0.0728908 35:0.176957 36:-0.0704947 37:0.357136 38:-0.472568 39:-0.708829 40:-0.786414 41:-0.548046 42:-0.449802 43:-0.41151 44:-0.718322 45:-0.632078 46:-0.42373 47:-0.680453 48:-0.620008 49:-0.225606 50:0.593205 51:0.635784 52:0.776902 53:-0.60898 54:-0.613584 55:0.160726 56:0.875061 57:-0.79434 58:0.133074 59:0.947331 60:-0.858538 61:-0.299575 62:0.201283 63:-0.332966 64:0.401954 
0 4.121198429388182 0 0.6409617959754174 1:0.104793 2:-0.0800058 3:0.123549 4:0.230564 5:-0.833977 6:-0.931783 7:-0.933941 8:0.607426 9:0.427719 10:-0.00423887 11:0.0701846 12:-0.545234 13:-0.939165 14:-0.864469 15:-0.890311 16:-0.866187 17:-0.839076 18:-0.938106 19:-0.938321 20:-0.86191 21:-0.950893 22:-0.955785 23:0.936191 24:0.965147 25:0.950979 26:-0.840613 27:-0.892114 28:-0.96382 29:-0.275174 30:0.133098 31:0.357121 32:-0.838513 33:-0.859773 34:-0.854705 35:0.904849 36:-0.767835 37:-0.126392 38:0.632015 39:0.499238 40:-0.810215 41:-0.917998 42:-0.733459 43:-0.848127 44:-0.834628 45:-0.863236 46:-0.894988 47:-0.828472 48:-0.830577 49:-0.858002 50:0.826856 51:0.756431 52:0.746652 53:-0.613969 54:-0.909247 55:-0.613091 56:0.913801 57:-0.793318 58:-0.295094 59:0.926226 60:-0.764793 61:-0.625419 62:-0.446521 63:0.174246 64:0.99987 
0 2.591520324250514 1.048210155667683 0 1:-0.961854 2:-0.0888655 3:0.116731 4:0.446419 5:-0.77368 6:-0.896656 7:-0.891488 8:-0.224447 9:0.0168819 10:0.389674 11:-0.626681 12:-0.781109 13:-0.49781 14:-0.804804 15:-0.889417 16:-0.796575 17:-0.780226 18:-0.905662 19:-0.879403 20:-0.823093 21:-0.913684 22:-0.889436 23:0.778348 24:0.920675 25:0.95461 26:-0.91216 27:-0.890254 28:-0.814272 29:-0.383681 30:0.154179 31:0.426545 32:-0.870335 33:-0.849491 34:-0.72863 35:-0.201535 36:-0.0316767 37:0.281526 38:-0.471526 39:-0.683499 40:-0.790646 41:-0.87428 42:-0.826132 43:-0.827555 44:-0.871044 45:-0.8526 46:-0.846775 47:-0.854593 48:-0.84241 49:-0.747042 50:0.70398 51:0.842021 52:0.781629 53:-0.834737 54:-0.827055 55:-0.435104 56:0.792228 57:-0.283757 58:-0.293015 59:0.62874 60:-0.151998 61:-0.379085 62:0.116835 63:-0.382292 64:0.796718 
1.001007788140898 0 0 0 1:-0.822081 2:-0.0723897 3:0.154525 4:0.456618 5:-0.781223 6:-0.851754 7:-0.850175 8:-0.0315571 9:-0.27361 10:0.38987 11:-0.77611 12:-0.425507 13:-0.586996 14:-0.796414 15:-0.868658 16:-0.770655 17:-0.788232 18:-0.858229 19:-0.840252 20:-0.835907 21:-0.861003 22:-0.866423 23:0.816288 24:0.871 25:0.953884 26:-0.899854 27:-0.864525 28:-0.765662 29:-0.414671 30:0.180431 31:0.42436 32:-0.792782 33:-0.759385 34:-0.68682 35:-0.63335 36:0.118545 37:0.395687 38:0.299146 39:-0.287591 40:-0.647379 41:-0.866186 42:-0.63995 43:-0.753013 44:-0.789174 45:-0.763296 46:-0.823434 47:-0.737629 48:-0.688315 49:-0.688458 50:0.529905 51:0.740952 52:0.76871 53:-0.816651 54:-0.626712 55:-0.385788 56:0.801529 57:-0.487631 58:-0.212557 59:0.804764 60:-0.483251 61:-0.422038 62:-0.180938 63:-0.251906 64:0.91036 
18.15969776659782 1.385224486708929 6.886362888137093 9.175358733649738 1:0.126473 2:0.0100523 3:0.122633 4:0.278753 5:-0.775215 6:-0.894803 7:-0.962527 8:0.431394 9:0.383836 10:-0.120457 11:-0.553217 12:-0.652631 13:-0.79396 14:-0.810985 15:-0.872112 16:-0.827483 17:-0.782637 18:-0.903221 19:-0.967017 20:-0.849515 21:-0.924306 22:-0.963967 23:0.936525 24:0.956246 25:0.958225 26:-0.822948 27:-0.851032 28:-0.969636 29:-0.294108 30:0.155869 31:0.342197 32:-0.893732 33:-0.839645 34:-0.87606 35:0.855226 36:-0.295012 37:-0.179814 38:0.739984 39:0.0829451 40:-0.7558 41:-0.91404 42:-0.820497 43:-0.855719 44:-0.892242 45:-0.842925 46:-0.892183 47:-0.869395 48:-0.773565 49:-0.869641 50:0.811031 51:0.769178 52:0.755475 53:-0.723106 54:-0.77226 55:-0.613988 56:0.73883 57:-0.271956 58:0.553181 59:0.677466 60:-0.233279 61:0.546014 62:-0.505635 63:0.384128 64:0.153003 
3.958150080444292 0 0 0 1:0.150375 2:0.0419703 3:0.179718 4:0.229436 5:-0.858088 6:-0.928844 7:-0.961112 8:0.440005 9:0.424908 10:-0.269179 11:-0.420784 12:-0.450676 13:-0.543125 14:-0.906739 15:-0.880959 16:-0.886515 17:-0.861268 18:-0.924318 19:-0.965178 20:-0.89573 21:-0.93963 22:-0.954842 23:0.957128 24:0.967524 25:0.942819 26:-0.871368 27:-0.864029 28:-0.97517 29:-0.3009 30:0.120469 31:0.350978 32:-0.921484 33:-0.867645 34:-0.922605 35:0.937239 36:-0.242041 37:-0.0736477 38:0.856015 39:-0.592467 40:-0.859018 41:-0.917112 42:-0.879357 43:-0.889531 44:-0.920415 45:-0.870758 46:-0.917143 47:-0.903642 48:-0.856394 49:-0.925121 50:0.826391 51:0.832005 52:0.781944 53:-0.776115 54:-0.869292 55:-0.640439 56:0.726401 57:-0.0622003 58:0.594212 59:0.716556 60:-0.101855 61:0.4992 62:-0.857515 63:0.60224 64:0.209505 
4.472387142460266 6.913529205043342 8.626313732963956 7.518952257359125 1:0.128344 2:0.00175977 3:0.124776 4:0.33864 5:-0.901949 6:-0.948092 7:-0.99533 8:0.313899 9:0.236463 10:-0.0412163 11:-0.676642 12:-0.769667 13:-0.723835 14:-0.924595 15:-0.946088 16:-0.931624 17:-0.90607 18:-0.95284 19:-0.989429 20:-0.939798 21:-0.964593 22:-0.988237 23:0.967766 24:0.966228 25:0.986814 26:-0.924732 27:-0.919376 28:-0.975243 29:-0.341909 30:0.131606 31:0.397399 32:-0.982833 33:-0.995006 34:-0.945018 35:0.532169 36:0.169474 37:-0.0748242 38:0.0995446 39:-0.509339 40:-0.718156 41:-0.985644 42:-0.979545 43:-0.988797 44:-0.988015 45:-0.995317 46:-0.963777 47:-0.976201 48:-0.989781 49:-0.933269 50:0.833372 51:0.977692 52:0.812195 53:-0.922669 54:-0.969749 55:-0.606815 56:0.908663 57:0.234064 58:0.46031 59:0.820949 60:0.381733 61:0.33186 62:0.145517 63:-0.0231025 64:0.811898 
0 0 0 0.3431397765404516 1:-0.900509 2:-0.0612227 3:0.0973392 4:0.424699 5:-0.699124 6:-0.857628 7:-0.864814 8:-0.0751268 9:0.0107958 10:0.333527 11:-0.598645 12:-0.778525 13:-0.593305 14:-0.745002 15:-0.835602 16:-0.733735 17:-0.708685 18:-0.869221 19:-0.858321 20:-0.740998 21:-0.885707 22:-0.871607 23:0.729816 24:0.900399 25:0.949986 26:-0.835676 27:-0.865982 28:-0.783278 29:-0.327815 30:0.0619997 31:0.415002 32:-0.834179 33:-0.84102 34:-0.720176 35:0.167619 36:-0.381019 37:0.326529 38:-0.281126 39:-0.469582 40:-0.697673 41:-0.87298 42:-0.817575 43:-0.810599 44:-0.838782 45:-0.839442 46:-0.842458 47:-0.793354 48:-0.833535 49:-0.717556 50:0.691413 51:0.776463 52:0.771861 53:-0.719988 54:-0.890411 55:-0.414929 56:0.986791 57:-0.704511 58:-0.118125 59:0.905775 60:-0.632982 61:-0.228041 62:-0.185826 63:0.0255958 64:0.854767 
0 0.1045742748485605 0 0 1:-0.890527 2:-0.148448 3:0.0290631 4:0.250777 5:-0.81019 6:-0.910158 7:-0.72016 8:-0.336373 9:-0.221296 10:-0.836609 11:-0.339265 12:-0.602433 13:0.674378 14:-0.836809 15:-0.708452 16:-0.725942 17:-0.810796 18:-0.92282 19:-0.725389 20:-0.821879 21:-0.917633 22:-0.680714 23:0.774686 24:0.905689 25:0.669433 26:-0.913381 27:-0.924694 28:-0.830562 29:-0.348107 30:0.128623 31:0.428813 32:-0.900017 33:-0.862175 34:-0.870333 35:-0.175837 36:-0.0590474 37:0.259814 38:-0.248648 39:-0.393364 40:-0.728179 41:-0.930464 42:-0.872678 43:-0.88705 44:-0.904966 45:-0.865572 46:-0.925753 47:-0.878392 48:-0.832459 49:-0.870029 50:0.742611 51:0.821534 52:0.816921 53:-0.834113 54:-0.831621 55:-0.527012 56:0.896519 57:-0.725743 58:-0.272015 59:0.863465 60:-0.738828 61:-0.221518 62:0.585316 63:-0.626752 64:-0.0704018 
13.00755627288047 6.742019361702729 12.00278395745652 25.7678453112 1:0.185681 2:0.0135149 3:0.181737 4:0.312219 5:-0.9278 6:-0.94562 7:-0.976902 8:0.438155 9:0.405621 10:-0.289894 11:-0.53279 12:-0.636573 13:-0.510864 14:-0.956362 15:-0.932998 16:-0.938476 17:-0.93041 18:-0.937502 19:-0.978187 20:-0.953611 21:-0.962709 22:-0.971801 23:0.986044 24:0.977756 25:0.963672 26:-0.929526 27:-0.895337 28:-0.977651 29:-0.338767 30:0.126635 31:0.400779 32:-0.980306 33:-0.959695 34:-0.955153 35:0.2829 36:-0.318505 37:0.45415 38:-0.608949 39:-0.651316 40:-0.280034 41:-0.977845 42:-0.968691 43:-0.977683 44:-0.985399 45:-0.960752 46:-0.970677 47:-0.979393 48:-0.963695 49:-0.939476 50:0.828718 51:0.94127 52:0.829211 53:-0.935766 54:-0.960046 55:-0.589778 56:0.32951 57:-0.0134925 58:0.790439 59:0.311101 60:-0.0743312 61:0.716532 62:-0.723223 63:0.575139 64:-0.307402 
0 0 0 0.125946073693088 1:0.0362302 2:-0.108297 3:0.361792 4:0.59753 5:-0.83124 6:-0.960445 7:-0.78823 8:0.644462 9:0.495159 10:-0.327705 11:0.0758067 12:-0.227224 13:-0.710091 14:-0.685348 15:-0.893478 16:-0.753101 17:-0.834591 18:-0.882317 19:-0.761334 20:-0.863622 21:-0.96313 22:-0.848613 23:0.938 24:1 25:0.871782 26:-0.841572 27:-0.857577 28:-0.861853 29:-0.284004 30:-0.247253 31:0.163193 32:-0.643577 33:-0.69966 34:-0.871064 35:0.243322 36:-0.262534 37:0.116146 38:-0.645054 39:-0.756328 40:-0.933208 41:-0.666913 42:-0.633897 43:-0.579908 44:-0.645056 45:-0.622476 46:-0.699292 47:-0.656654 48:-0.742369 49:-0.892144 50:0.64068 51:0.583428 52:0.688987 53:-0.494231 54:-0.938927 55:-0.734589 56:0.843635 57:-0.477582 58:0.389851 59:0.612273 60:-0.514657 61:0.194517 62:-0.566024 63:0.954743 64:0.25155 
1.497403306180732 1.650749256811737 0 0 1:-0.832085 2:0.065164 3:0.0536922 4:0.366319 5:-0.736888 6:-0.876318 7:-0.789381 8:0.0108604 9:-0.157398 10:0.526495 11:-0.915944 12:-0.751655 13:-0.346633 14:-0.748081 15:-0.858279 16:-0.72659 17:-0.742914 18:-0.889368 19:-0.791083 20:-0.836906 21:-0.898659 22:-0.815393 23:0.84829 24:0.895187 25:0.949646 26:-0.875702 27:-0.902586 28:-0.662179 29:-0.223807 30:-0.260975 31:0.427123 32:-0.484445 33:-0.442296 34:-0.442583 35:0.158437 36:-0.0391428 37:0.0521302 38:-0.866038 39:-0.874964 40:-0.78836 41:-0.575281 42:-0.539136 43:-0.419541 44:-0.479461 45:-0.400174 46:-0.685873 47:-0.569003 48:-0.520774 49:-0.438991 50:0.583896 51:0.444116 52:0.636679 53:-0.381977 54:-0.643265 55:-0.285362 56:-0.578577 57:0.597565 58:-0.130289 59:-0.436852 60:0.427896 61:-0.253707 62:-0.125478 63:0.0578206 64:-0.652722 
0 6.873795854101496 8.542420381045078 11.60880021504491 1:-0.833422 2:0.0827522 3:0.113791 4:0.316967 5:-0.737298 6:-0.80502 7:-0.964939 8:-0.231105 9:-0.0596939 10:0.183731 11:-0.763086 12:-0.767961 13:-0.830971 14:-0.745756 15:-0.879692 16:-0.773179 17:-0.7421 18:-0.816461 19:-0.966301 20:-0.821108 21:-0.839697 22:-0.97245 23:0.794388 24:0.868505 25:0.983807 26:-0.896567 27:-0.823542 28:-0.946013 29:-0.309985 30:0.252822 31:0.399584 32:-0.681171 33:-0.466429 34:-0.555792 35:0.0628829 36:0.350497 37:0.397239 38:-0.76688 39:-0.766901 40:-0.714486 41:-0.622958 42:-0.573575 43:-0.545259 44:-0.684864 45:-0.473365 46:-0.749133 47:-0.717893 48:-0.553583 49:-0.570514 50:0.636025 51:0.737765 52:0.72743 53:-0.632055 54:-0.344749 55:-0.308227 56:-0.283722 57:0.512191 58:-0.465035 59:0.0258062 60:0.161735 61:-0.671941 62:-0.434262 63:0.330449 64:0.363709 
4.09079142182194 3.543296878118843 4.285830318418175 7.772685321282615 1:-0.791213 2:-0.00423528 3:-0.0250516 4:0.343632 5:-0.689959 6:-0.727095 7:-0.843802 8:0.0241699 9:0.0521803 10:0.102188 11:-0.888721 12:-0.84752 13:-0.864545 14:-0.674427 15:-0.845753 16:-0.684737 17:-0.699943 18:-0.739599 19:-0.846112 20:-0.796668 21:-0.794365 22:-0.869059 23:0.787797 24:0.825779 25:0.924649 26:-0.867522 27:-0.801369 28:-0.819343 29:-0.398709 30:0.304331 31:0.393812 32:-0.618156 33:-0.507867 34:-0.371353 35:-0.264086 36:0.330052 37:0.280489 38:-0.860968 39:-0.785361 40:-0.745108 41:-0.648598 42:-0.640576 43:-0.492049 44:-0.619889 45:-0.507122 46:-0.645034 47:-0.687418 48:-0.576711 49:-0.362561 50:0.523388 51:0.783292 52:0.632897 53:-0.717493 54:-0.336758 55:-0.202421 56:-0.926466 57:0.887413 58:-0.287662 59:-0.966552 60:0.859877 61:-0.361841 62:0.155877 63:-0.74092 64:-0.776672 
0 6.894931905210626 1.238602860050965 12.67490924708073 1:-0.899539 2:0.167756 3:0.0735156 4:0.282645 5:-0.313442 6:-0.69322 7:-0.908448 8:-0.278479 9:0.00376392 10:-0.127636 11:-0.539664 12:-0.801598 13:-0.812725 14:-0.358046 15:-0.661201 16:-0.442339 17:-0.327674 18:-0.70733 19:-0.913093 20:-0.464006 21:-0.758052 22:-0.925138 23:0.386758 24:0.800307 25:0.933856 26:-0.720789 27:-0.768397 28:-0.925595 29:-0.254373 30:0.0584199 31:0.475893 32:-0.836118 33:-0.744384 34:-0.0512879 35:-0.0518732 36:-0.104019 37:0.324898 38:-0.925436 39:-0.84478 40:-0.672874 41:-0.531799 42:-0.530996 43:-0.490221 44:-0.826245 45:-0.746457 46:-0.461139 47:-0.869685 48:-0.779212 49:0.0195927 50:0.754713 51:0.758252 52:0.58185 53:-0.799189 54:-0.797945 55:0.166555 56:-0.296133 57:0.455652 58:0.244372 59:-0.575543 60:0.518598 61:0.0598837 62:0.11121 63:-0.255832 64:-0.403218 
0 4.696142493602832 0 3.067511119930693 1:0.985245 2:-0.192857 3:0.0453206 4:0.28866 5:-0.274346 6:-0.647616 7:-0.630409 8:-0.517204 9:-0.308748 10:-0.200496 11:-0.340673 12:-0.582599 13:-0.564407 14:-0.398533 15:-0.510568 16:-0.32595 17:-0.29132 18:-0.662288 19:-0.63561 20:-0.457945 21:-0.711781 22:-0.644622 23:0.239297 24:0.751627 25:0.693778 26:-0.830024 27:-0.754574 28:-0.712501 29:-0.316947 30:0.350172 31:0.515635 32:-0.393409 33:-0.682725 34:-0.101231 35:-0.0335038 36:-0.204 37:0.253042 38:-0.700645 39:-0.826067 40:-0.689916 41:-0.598322 42:-0.48278 43:-0.373323 44:-0.397473 45:-0.661445 46:-0.480476 47:-0.414599 48:-0.740487 49:-0.0354995 50:0.372586 51:0.765081 52:0.571136 53:-0.333333 54:-0.707192 55:0.0876486 56:0.24006 57:-0.108312 58:-0.149798 59:0.473239 60:0.249566 61:-0.664755 62:0.0681335 63:-0.108498 64:0.0618435 
10.8246404230337 11.51031576854809 25.7678453112 15.20817187578273 1:-0.00249005 2:0.0575252 3:0.0806465 4:0.441154 5:-0.825831 6:-0.980637 7:-0.844058 8:0.345925 9:-0.504202 10:0.179994 11:-0.164039 12:-0.142996 13:-0.830716 14:-0.818515 15:-0.854547 16:-0.816613 17:-0.829081 18:-0.990241 19:-0.836707 20:-0.82887 21:-0.980906 22:-0.873009 23:0.88919 24:0.95151 25:0.947816 26:-0.831765 27:-0.979649 28:-0.789872 29:-0.153846 30:-0.0317705 31:0.393812 32:-0.839833 33:-0.879077 34:-0.863131 35:-0.200402 36:0.215786 37:0.00794834 38:-0.779909 39:-0.843644 40:-1 41:-0.856911 42:-0.87894 43:-0.831719 44:-0.782619 45:-0.847972 46:-0.919105 47:-0.852271 48:-0.899153 49:-0.906887 50:0.777519 51:0.861143 52:0.79833 53:-0.731213 54:-0.923516 55:-0.596055 56:-0.237851 57:-0.0986745 58:0.296218 59:-0.0784077 60:0.513502 61:-0.486928 62:-0.0862667 63:0.00860101 64:-0.170585 
0 0 0 0.6672036442796581 1:-0.80334 2:0.268732 3:0.0482086 4:0.442538 5:-0.802901 6:-0.859729 7:-0.855881 8:-0.455219 9:-0.38158 10:0.150058 11:-0.212764 12:-0.281507 13:-0.936853 14:-0.772213 15:-0.853024 16:-0.770484 17:-0.774683 18:-0.87294 19:-0.847548 20:-0.81772 21:-0.862837 22:-0.895704 23:0.819634 24:0.857851 25:0.951143 26:-0.871652 27:-0.891275 28:-0.833528 29:-0.418577 30:0.33456 31:0.418012 32:-0.696491 33:-0.670094 34:-0.653723 35:-0.450663 36:-0.0440922 37:0.675404 38:0.0160823 39:-0.885123 40:-0.0374257 41:-0.737335 42:-0.521812 43:-0.663944 44:-0.694605 45:-0.653763 46:-0.80503 47:-0.633725 48:-0.726772 49:-0.599224 50:0.427042 51:0.799226 52:0.785726 53:-0.731213 54:-0.635274 55:-0.258462 56:0.731094 57:-0.670341 58:-0.410135 59:0.808026 60:-0.458516 61:-0.730884 62:-0.052712 63:-0.49141 64:0.578889 
0 2.428024106356519 3.388178950565168 0 1:0.983859 2:-0.278381 3:0.128627 4:0.073763 5:-0.624231 6:-0.834923 7:-0.61515 8:-0.683899 9:-0.245301 10:-0.830526 11:0.0909585 12:-0.704157 13:0.638962 14:-0.755776 15:-0.553004 16:-0.548374 17:-0.620488 18:-0.844656 19:-0.614636 20:-0.680001 21:-0.871747 22:-0.576231 23:0.520085 24:0.886272 25:0.539467 26:-0.91752 27:-0.860839 28:-0.817726 29:-0.223637 30:0.355342 31:0.421969 32:-0.739496 33:-0.684646 34:-0.741944 35:0.217647 36:-0.022416 37:0.479412 38:-0.676515 39:-0.511965 40:-0.489544 41:-0.751573 42:-0.739094 43:-0.699214 44:-0.726474 45:-0.661842 46:-0.854579 47:-0.745175 48:-0.648783 49:-0.719108 50:0.702118 51:0.773731 52:0.787931 53:-0.60212 54:-0.501712 55:-0.393858 56:0.20273 57:-0.569631 58:-0.328785 59:0.611259 60:-0.30143 61:-0.754976 62:0.46909 63:-0.845909 64:-0.42841 
5.747715258961417 2.962321893412641 7.077881327487217 0.8943140355479394 1:-0.07001 2:0.28917 3:0.121297 4:0.438464 5:-0.626756 6:-0.905782 7:-0.774421 8:0.0708885 9:0.0379015 10:-0.0693995 11:-0.693223 12:-0.625027 13:-0.683457 14:-0.69916 15:-0.780816 16:-0.641509 17:-0.613872 18:-0.913889 19:-0.770637 20:-0.71503 21:-0.908829 22:-0.787102 23:0.762015 24:0.92212 25:0.857761 26:-0.773515 27:-0.877417 28:-0.751742 29:-0.544405 30:0.367175 31:0.306413 32:-0.571047 33:-0.717914 34:-0.691034 35:-0.217555 36:0.41634 37:0.0159217 38:-0.665055 39:-0.719928 40:-0.313448 41:-0.775027 42:-0.613442 43:-0.611998 44:-0.543008 45:-0.688039 46:-0.7847 47:-0.578 48:-0.759312 49:-0.556935 50:0.397254 51:0.914865 52:0.621553 53:-0.651388 54:-0.559361 55:-0.443174 56:0.580843 57:-0.2592 58:0.216256 59:-0.586277 60:0.636614 61:-0.614306 62:-0.0909113 63:-0.0373547 64:0.848474 
-0.3227672342164041 0.3166693527894419 4.636105488471131 2.627578151530033 1:0.161235 2:0.0143684 3:0.0200185 4:0.366211 5:-0.94105 6:-0.960036 7:-0.939823 8:0.121354 9:0.346274 10:-0.444275 11:-0.886195 12:-0.623316 13:-0.39042 14:-0.929199 15:-0.941785 16:-0.935624 17:-0.943076 18:-0.971646 19:-0.936133 20:-0.967403 21:-0.971526 22:-0.939731 23:0.982249 24:0.964338 25:0.935729 26:-0.951917 27:-0.937406 28:-0.954103 29:-0.622517 30:0.18232 31:0.151856 32:-0.877603 33:-0.95064 34:-0.853347 35:0.106237 36:-0.636226 37:0.217273 38:-0.889887 39:0.139712 40:-0.682543 41:-0.650666 42:-0.816322 43:-0.693308 44:-0.743992 45:-0.94561 46:-0.683443 47:-0.901321 48:-0.943526 49:-0.833172 50:0.66209 51:0.911222 52:0.665984 53:-0.991269 54:-0.954909 55:-0.699171 56:-0.191416 57:-0.281995 58:0.639235 59:-0.0800825 60:-0.536938 61:0.681649 62:-0.24245 63:0.562078 64:-0.888183 
-1.247684022531098 0.7150278486685386 0 0 1:-0.561911 2:-0.0500654 3:-0.385136 4:-0.073695 5:-0.755891 6:-0.332412 7:-0.152645 8:-0.236472 9:-0.311925 10:-0.952381 11:-0.659245 12:-0.391404 13:0.882753 14:-0.495141 15:-0.160878 16:-0.127538 17:-0.764167 18:-0.323116 19:-0.149587 20:-0.812193 21:-0.377316 22:-0.181609 23:0.770824 24:0.431228 25:0.00160892 26:-0.902868 27:-0.599946 28:-0.846365 29:-0.57548 30:0.180729 31:0.200049 32:-0.693039 33:-0.745042 34:-0.558956 35:-0.22623 36:-0.0648118 37:-0.251404 38:-0.720067 39:-0.516815 40:-0.775316 41:-0.719729 42:-0.628888 43:-0.590745 44:-0.640847 45:-0.749357 46:-0.645621 47:-0.711798 48:-0.723276 49:-0.596896 50:0.481033 51:0.75552 52:0.510635 53:-0.826629 54:-0.682648 55:-0.647164 56:0.316444 57:-0.663646 58:0.104988 59:0.362622 60:0.305472 61:-0.501639 62:0.455753 63:0.12053 64:-0.218704 
-0 4.629335042700988 25.7678453112 25.55245577711476 1:0.208495 2:0.0456033 3:0.0992007 4:0.244954 5:-0.961014 6:-0.952974 7:-0.902074 8:0.297748 9:0.358167 10:-0.0207514 11:-0.698505 12:-0.524693 13:-0.609306 14:-0.923286 15:-0.923346 16:-0.921348 17:-0.957991 18:-0.961576 19:-0.906965 20:-0.976918 21:-0.96119 22:-0.891874 23:0.998879 24:0.967591 25:0.916337 26:-0.951994 27:-0.909769 28:-0.882359 29:-0.329598 30:0.093621 31:0.382557 32:-0.923446 33:-0.950725 34:-0.953223 35:0.138187 36:0.505724 37:0.0483895 38:-0.631349 39:-0.23556 40:-0.844925 41:-0.965439 42:-0.958255 43:-0.947926 44:-0.927979 45:-0.948365 46:-0.957111 47:-0.917574 48:-0.939223 49:-0.953055 50:0.780777 51:0.945823 52:0.812195 53:-0.867166 54:-0.902397 55:-0.629679 56:-0.314973 57:0.127708 58:0.301963 59:-0.287714 60:-0.105781 61:0.381857 62:-0.162726 63:0.432176 64:-0.639821 
-0.6040996236414488 7.757485701788803 0 0 1:0.989867 2:-0.103011 3:0.180059 4:0.323621 5:-0.960857 6:-0.941747 7:-0.863694 8:-0.0553437 9:0.225512 10:0.541666 11:-0.720627 12:-0.838769 13:-0.215263 14:-0.904088 15:-0.913754 16:-0.886247 17:-0.957411 18:-0.934865 19:-0.86693 20:-0.968412 21:-0.962741 22:-0.862043 23:0.940408 24:0.970536 25:0.949338 26:-0.986742 27:-0.907951 28:-0.763642 29:-0.354644 30:0.0812907 31:0.397976 32:-0.883454 33:-0.93111 34:-0.902964 35:-0.0685052 36:0.013595 37:0.29247 38:-0.749469 39:-0.731741 40:-0.782909 41:-0.94417 42:-0.909205 43:-0.917094 44:-0.888054 45:-0.927651 46:-0.942016 47:-0.892323 48:-0.930079 49:-0.911154 50:0.742611 51:0.900296 52:0.817236 53:-0.864047 54:-0.940068 55:-0.574087 56:0.270191 57:0.00378832 58:-0.383604 59:-0.00909528 60:0.282232 61:-0.0774398 62:-0.430377 63:0.384911 64:0.4096 
-5.037994107732307 2.67984267164278 0.460171186392521 9.47946311010517 1:-0.126631 2:0.130013 3:0.141625 4:0.341015 5:-0.886275 6:-0.887181 7:-0.852812 8:0.355998 9:0.186968 10:0.0369813 11:-0.618809 12:-0.553175 13:-0.507633 14:-0.884447 15:-0.869324 16:-0.834147 17:-0.875885 18:-0.893589 19:-0.855148 20:-0.925665 21:-0.890872 22:-0.833007 23:0.987083 24:0.922536 25:0.8838 26:-0.889469 27:-0.838499 28:-0.808357 29:-0.328494 30:0.0704519 31:0.368004 32:-0.890858 33:-0.934779 34:-0.884666 35:-0.459597 36:-0.103166 37:0.0444576 38:-0.226029 39:-0.606158 40:-0.796112 41:-0.929814 42:-0.906909 43:-0.906624 44:-0.895414 45:-0.928566 46:-0.916298 47:-0.873748 48:-0.925508 49:-0.870029 50:0.711427 51:0.894833 52:0.76934 53:-0.865918 54:-0.937215 55:-0.59471 56:-0.478202 57:-0.111951 58:0.328952 59:0.457993 60:-0.588163 61:0.0616978 62:-0.301255 63:0.295662 64:-0.0700409 
-2.632714966574382 0 0 0 1:0.331359 2:0.0510689 3:0.168744 4:0.201885 5:-0.940198 6:-0.907574 7:-0.906128 8:0.331058 9:0.536 10:0.88099 11:-0.647902 12:-0.355075 13:0.540891 14:-0.932337 15:-0.930506 16:-0.898489 17:-0.938069 18:-0.908093 19:-0.909294 20:-0.960633 21:-0.928941 22:-0.902419 23:0.991341 24:0.971523 25:0.970754 26:-0.935154 27:-0.834345 28:-0.815877 29:-0.323994 30:0.110724 31:0.3645 32:-0.91048 33:-0.936297 34:-0.931367 35:-0.245167 36:-0.23374 37:0.383295 38:-0.571214 39:0.152775 40:-0.235665 41:-0.941098 42:-0.912962 43:-0.925861 44:-0.914495 45:-0.936995 46:-0.932883 47:-0.911479 48:-0.900766 49:-0.900291 50:0.759367 51:0.878898 52:0.795179 53:-0.882756 54:-0.90468 55:-0.592916 56:-0.355714 57:0.0610794 58:0.239826 59:-0.126804 60:-0.3332 61:0.554228 62:-0.736279 63:0.713214 64:-0.494101 
-0 2.928176467064816 11.85004989122872 9.785629739965339 1:-0.0790618 2:0.00158747 3:0.127107 4:0.401084 5:-0.84087 6:-0.910581 7:-0.76202 8:0.153996 9:0.217835 10:0.442378 11:-0.588256 12:-0.785029 13:-0.293875 14:-0.777352 15:-0.801557 16:-0.765911 17:-0.846734 18:-0.917696 19:-0.761803 20:-0.860853 21:-0.934105 22:-0.754459 23:0.885577 24:0.943751 25:0.90163 26:-0.879543 27:-0.893589 28:-0.609107 29:-0.391408 30:0.0303784 31:0.403747 32:-0.884275 33:-0.592622 34:-0.854353 35:-0.359299 36:0.378794 37:-0.0544287 38:-0.533324 39:-0.758091 40:-0.807192 41:-0.682805 42:-0.75454 43:-0.72104 44:-0.882694 45:-0.597177 46:-0.916871 47:-0.881585 48:-0.668415 49:-0.852182 50:0.69374 51:0.764626 52:0.775642 53:-0.906455 54:-0.554795 55:-0.56512 56:-0.471851 57:0.0496066 58:-0.0955877 59:0.135796 60:-0.369077 61:0.50931 62:-0.675231 63:0.576416 64:-0.571974 
-0 3.797225624652715 3.763458104847636 0.08445587432139716 1:0.832778 2:-0.0665879 3:0.256698 4:0.315435 5:-0.758612 6:-0.745268 7:-0.811846 8:-0.828381 9:-0.136005 10:0.126285 11:0.470736 12:-0.456108 13:-0.832937 14:-0.788089 15:-0.779224 16:-0.709244 17:-0.766441 18:-0.74369 19:-0.815899 20:-0.781681 21:-0.743037 22:-0.83406 23:0.676877 24:0.818979 25:0.891941 26:-0.935052 27:-0.704015 28:-0.797275 29:-0.456529 30:0.0664744 31:0.371467 32:-0.769408 33:-0.837189 34:-0.716247 35:-0.604845 36:0.729416 37:0.257415 38:-0.159605 39:0.111016 40:-0.833325 41:-0.831152 42:-0.721561 43:-0.775214 44:-0.755485 45:-0.836462 46:-0.832182 47:-0.769264 48:-0.82977 49:-0.740834 50:0.512683 51:0.919417 52:0.749803 53:-0.907702 54:-0.703196 55:-0.473212 56:0.769633 57:-0.810281 58:-0.39046 59:-0.340338 60:0.226434 61:-0.0103899 62:-0.188481 63:0.263545 64:0.0157004 
-0 2.087061198609377 1.039959582197159 0 1:0.743678 2:-0.0537224 3:0.173076 4:0.0912951 5:-0.877334 6:-0.88072 7:-0.741611 8:-0.154521 9:0.209791 10:-0.635738 11:-0.948872 12:-0.890272 13:0.149173 14:-0.791131 15:-0.787674 16:-0.756708 17:-0.882268 18:-0.882847 19:-0.739928 20:-0.938904 21:-0.920487 22:-0.743545 23:0.914552 24:0.944437 25:0.69834 26:-0.965967 27:-0.863431 28:-0.919097 29:-0.400662 30:0.15567 31:0.394719 32:-0.791765 33:-0.808507 34:-0.842706 35:-0.771077 36:0.205354 37:0.26594 38:0.364362 39:-0.842219 40:-0.715264 41:-0.860987 42:-0.803381 43:-0.815719 44:-0.791112 45:-0.812613 46:-0.908288 47:-0.770715 48:-0.831653 49:-0.828128 50:0.527577 51:0.853403 52:0.787931 53:-0.890864 54:-0.789954 55:-0.519839 56:0.30707 57:0.139905 58:-0.144644 59:-0.319104 60:0.416346 61:0.4145 62:0.731058 63:-0.352694 64:0.123615 
-2.724322126250554 0.371477724319554 0.8608041960111811 0 1:-0.384897 2:0.163631 3:-0.0938808 4:0.236902 5:-0.852573 6:-0.657284 7:-0.257463 8:0.372797 9:-0.703405 10:-0.733146 11:-0.585186 12:0.265584 13:0.444104 14:-0.494466 15:-0.369712 16:-0.328788 17:-0.839637 18:-0.666719 19:-0.263296 20:-0.903218 21:-0.676918 22:-0.206501 23:0.985883 24:0.648047 25:0.203712 26:-0.858919 27:-0.860413 28:-0.56857 29:-0.419341 30:0.118679 31:0.349205 32:-0.793198 33:-0.864075 34:-0.807018 35:-0.536355 36:0.340593 37:0.32428 38:-0.491022 39:-0.344042 40:-0.826682 41:-0.86211 42:-0.808391 43:-0.817903 44:-0.788467 45:-0.867218 46:-0.867507 47:-0.81367 48:-0.833266 49:-0.838991 50:0.602513 51:0.866606 52:0.780684 53:-0.882756 54:-0.776826 55:-0.542703 56:-0.765905 57:0.621539 58:0.753122 59:0.706158 60:-0.758117 61:-0.504022 62:0.365278 63:-0.723355 64:-0.246803 
-0 5.518745592719069 4.019155254914976 5.819870045633445 1:-0.174299 2:0.115596 3:0.0685216 4:0.475653 5:-0.771235 6:-0.833675 7:-0.80728 8:0.0710976 9:-0.180673 10:0.470999 11:-0.62641 12:-0.332152 13:-0.552398 14:-0.794216 15:-0.752578 16:-0.736016 17:-0.771546 18:-0.846776 19:-0.797694 20:-0.812226 21:-0.833605 22:-0.843979 23:0.872878 24:0.849257 25:0.966423 26:-0.821427 27:-0.844032 28:-0.696511 29:-0.36721 30:0.19107 31:0.44452 32:-0.88034 33:-0.762644 34:-0.807182 35:-0.0297998 36:-0.123401 37:0.446813 38:-0.762517 39:-0.624168 40:-0.56001 41:-0.849644 42:-0.794197 43:-0.811442 44:-0.883664 45:-0.765529 46:-0.886906 47:-0.886809 48:-0.760387 49:-0.812997 50:0.723528 51:0.745504 52:0.822593 53:-0.877767 54:-0.773973 55:-0.453037 56:-0.394718 57:-0.169294 58:-0.186447 59:0.237425 60:-0.843943 61:0.365373 62:-0.679143 63:0.51536 64:-0.25579 
-4.266237842469772 0.3446801402100155 0 0 1:-0.74725 2:-0.0195746 3:0.0479805 4:0.113147 5:-0.83561 6:-0.845209 7:-0.669721 8:-0.0480162 9:0.00315673 10:-0.70832 11:-0.884087 12:-0.52085 13:0.342413 14:-0.744546 15:-0.716957 16:-0.687133 17:-0.842008 18:-0.858521 19:-0.670826 20:-0.893242 21:-0.845125 22:-0.666908 23:0.896111 24:0.872642 25:0.618279 26:-0.916597 27:-0.827898 28:-0.88463 29:-0.325607 30:0.0623975 31:0.432358 32:-0.772128 33:-0.819831 34:-0.81174 35:-0.282688 36:0.368371 37:0.343817 38:-0.274487 39:-0.256334 40:-0.687981 41:-0.884264 42:-0.786683 43:-0.80669 44:-0.77665 45:-0.819326 46:-0.892504 47:-0.72631 48:-0.784859 49:-0.824636 50:0.583896 51:0.829274 52:0.811565 53:-0.719988 54:-0.72089 55:-0.482179 56:0.0235999 57:-0.143529 58:-0.198903 59:0.362745 60:-0.576896 61:0.29759 62:0.675758 63:-0.713292 64:0.0943876 
-0 0 2.418117118130804 0 1:0.685349 2:-0.0725562 3:0.421349 4:0.0520655 5:-0.79795 6:-0.731815 7:-0.87973 8:-0.117949 9:0.578547 10:0.0724461 11:-0.636272 12:-0.133829 13:-0.901637 14:-0.810408 15:-0.755802 16:-0.731107 17:-0.804473 18:-0.701111 19:-0.865734 20:-0.8233 21:-0.765158 22:-0.910223 23:0.812317 24:0.948294 25:0.905733 26:-0.885327 27:-0.526351 28:-0.93947 29:-0.337069 30:0.0848705 31:0.45359 32:-0.707629 33:-0.741166 34:-0.783962 35:-0.67587 36:0.379208 37:0.0474551 38:0.173521 39:-0.345634 40:-0.827054 41:-0.836292 42:-0.641411 43:-0.740874 44:-0.712432 45:-0.745739 46:-0.871249 47:-0.667392 48:-0.69208 49:-0.783123 50:0.454038 51:0.76326 52:0.775012 53:-0.767384 54:-0.606735 55:-0.486214 56:0.356881 57:-0.433128 58:-0.445113 59:-0.739297 60:0.455644 61:0.493599 62:0.335771 63:-0.352165 64:-0.173914 
-4.20747195060203 2.20439380350014 2.845690751973212 0.9254800772017135 1:0.407349 2:0.0576355 3:0.0750704 4:0.3141 5:-0.954947 6:-0.77635 7:-0.801972 8:0.271248 9:0.719624 10:-0.447522 11:-0.584009 12:0.22308 13:-0.427646 14:-0.81829 15:-0.81821 16:-0.792172 17:-0.950446 18:-0.78977 19:-0.806132 20:-0.963028 21:-0.792563 22:-0.821018 23:0.979308 24:0.921535 25:0.832104 26:-0.948124 27:-0.631139 28:-0.867247 29:-0.227118 30:0.0880525 31:0.38231 32:-0.518185 33:-0.936424 34:-0.909419 35:0.713114 36:1 37:-0.520669 38:0.0537575 39:0.726133 40:-0.273495 41:-0.811952 42:-0.615738 43:-0.716551 44:-0.513171 45:-0.933929 46:-0.93744 47:-0.495864 48:-0.927928 49:-0.895247 50:0.668606 51:0.968586 52:0.763038 53:-0.111319 54:-0.849886 55:-0.632818 56:0.980976 57:0.709515 58:-0.191687 59:0.975964 60:0.958945 61:-0.641391 62:-1 63:-0.855801 64:0.335743 
-0 2.361494205459663 0.6206249972360465 0 1:0.0393621 2:0.0224477 3:0.052804 4:0.296207 5:-0.922227 6:-0.933694 7:-0.904995 8:0.667921 9:-0.0867817 10:0.117817 11:0.179946 12:-0.746495 13:-0.853038 14:-0.91123 15:-0.919583 16:-0.903999 17:-0.924369 18:-0.946334 19:-0.90918 20:-0.934014 21:-0.944622 22:-0.920858 23:0.986492 24:0.930943 25:0.94894 26:-0.901662 27:-0.938214 28:-0.89158 29:-0.306334 30:0.196042 31:0.369282 32:-0.800195 33:-0.815467 34:-0.929737 35:0.945602 36:0.275789 37:-0.0133536 38:0.778157 39:-0.658941 40:-0.897872 41:-0.894308 42:-0.785222 43:-0.831551 44:-0.803031 45:-0.815841 46:-0.936508 47:-0.779132 48:-0.820627 49:-0.939476 50:0.796137 51:0.867061 52:0.797385 53:-0.549111 54:-0.749429 55:-0.635059 56:0.999921 57:-0.116342 58:-0.352723 59:-0.100302 60:0.0171177 61:0.209816 62:0.313777 63:-0.813246 64:0.00650818 
-11.62319730571866 0.001304610356836115 0 2.157870727422603 1:-0.886895 2:0.343979 3:0.207385 4:0.848187 5:-0.421452 6:-0.716997 7:-0.632585 8:-0.390153 9:-0.0936062 10:0.455368 11:-0.338586 12:-0.532025 13:-0.547292 14:-0.469027 15:-0.604992 16:-0.390094 17:-0.415381 18:-0.722741 19:-0.579094 20:-0.509774 21:-0.72028 22:-0.691706 23:0.470457 24:0.802911 25:0.939041 26:-0.7182 27:-0.683532 28:-0.411906 29:-0.517066 30:0.238204 31:0.472554 32:-0.630633 33:-0.578504 34:0.000283816 35:-0.559694 36:0.475736 37:0.286763 38:-0.116728 39:-0.541189 40:-0.83137 41:-0.452929 42:-0.315592 43:-0.379613 44:-0.607129 45:-0.583047 46:-0.432802 47:-0.60238 48:-0.622428 49:-0.146848 50:0.318594 51:0.813795 52:0.651174 53:-0.809167 54:-0.395548 55:0.0728536 56:0.637774 57:-0.405161 58:-0.110626 59:0.672875 60:-0.205301 61:0.170546 62:-0.320124 63:0.818669 64:0.842724 
-3.362391675329806 0 0 0 1:0.834514 2:-0.000452845 3:0.173096 4:0.623515 5:-0.436083 6:-0.633381 7:-0.621556 8:-0.67957 9:0.575095 10:0.485083 11:0.150429 12:0.0561764 13:-0.418882 14:-0.59496 15:-0.367448 16:-0.404976 17:-0.452575 18:-0.643973 19:-0.604013 20:-0.523838 21:-0.625441 22:-0.663481 23:0.351184 24:0.838211 25:0.913173 26:-0.833178 27:-0.420474 28:-0.393276 29:-0.348446 30:0.089743 31:0.430379 32:-0.492245 33:-0.792513 34:-0.639083 35:-0.106208 36:0.0666697 37:0.193563 38:-0.716136 39:-0.728845 40:-0.852661 41:-0.67412 42:-0.666458 43:-0.631296 44:-0.496767 45:-0.795936 46:-0.796142 47:-0.505732 48:-0.805298 49:-0.674879 50:0.410286 51:0.805145 52:0.757051 53:-0.47864 54:-0.794521 55:-0.386685 56:0.875996 57:-0.645965 58:-0.170109 59:-0.123516 60:0.122382 61:0.162348 62:-0.461044 63:0.413294 64:0.606539 
-3.231128903525741 0 0 0 1:0.625171 2:0.0474355 3:0.142625 4:0.524042 5:-0.885701 6:-0.839599 7:-0.782754 8:0.101772 9:0.799435 10:0.826706 11:-0.819275 12:0.438016 13:0.475848 14:-0.842008 15:-0.753637 16:-0.769257 17:-0.887226 18:-0.847875 19:-0.768199 20:-0.920418 21:-0.852155 22:-0.772616 23:0.935886 24:0.954114 25:0.962368 26:-0.922985 27:-0.701276 28:-0.548725 29:-0.369757 30:0.100184 31:0.422588 32:-0.913778 33:-0.930955 34:-0.833781 35:0.541605 36:0.20844 37:0.148127 38:0.0180234 39:-0.58306 40:-0.811022 41:-0.924143 42:-0.917136 43:-0.90779 44:-0.916131 45:-0.930671 46:-0.906182 47:-0.901321 48:-0.920936 49:-0.83356 50:0.789155 51:0.921694 52:0.7977 53:-0.821017 54:-0.893836 55:-0.512217 56:0.229275 57:0.0296112 58:-0.0596975 59:0.149727 60:0.792044 61:0.667201 62:-0.129173 63:0.650501 64:0.610142 
-3.458270518843173 0 1.067925852049318 1.360111941627197 1:0.670304 2:0.087186 3:0.159509 4:0.501925 5:-0.842666 6:-0.724838 7:-0.716122 8:-0.20753 9:0.319706 10:0.0963976 11:-0.769321 12:-0.474182 13:-0.869586 14:-0.660275 15:-0.750338 16:-0.676992 17:-0.842221 18:-0.734634 19:-0.708049 20:-0.885852 21:-0.73709 22:-0.784182 23:0.873889 24:0.852715 25:0.899103 26:-0.923968 27:-0.632741 28:-0.67758 29:-0.320683 30:0.115597 31:0.497908 32:-0.655252 33:-0.840584 34:-0.712372 35:0.039287 36:0.591091 37:0.378743 38:-0.944492 39:-0.375075 40:-0.589412 41:-0.755236 42:-0.76915 43:-0.72797 44:-0.659563 45:-0.844198 46:-0.81282 47:-0.732114 48:-0.858276 49:-0.693501 50:0.661159 51:0.914409 52:0.809674 53:-0.628937 54:-0.769977 55:-0.333333 56:0.70849 57:0.124397 58:-0.0900907 59:0.160187 60:-0.13522 61:0.157251 62:-0.199551 63:0.348318 64:0.678143 
-0 0 4.527893995557223 0 1:0.558804 2:0.0305674 3:0.207064 4:0.35881 5:-0.871684 6:-0.688814 7:-0.861842 8:0.436555 9:0.809387 10:0.0782382 11:-0.317738 12:0.563658 13:-0.706289 14:-0.868477 15:-0.836246 16:-0.756024 17:-0.875179 18:-0.695473 19:-0.862671 20:-0.894296 21:-0.67271 22:-0.866365 23:0.950821 24:0.880908 25:0.906177 26:-0.874392 27:-0.446817 28:-0.843825 29:-0.46935 30:0.144832 31:0.380661 32:-0.827489 33:-0.947112 34:-0.882841 35:-0.435987 36:0.185524 37:0.0560629 38:-0.237431 39:-0.852779 40:-0.778538 41:-0.898502 42:-0.864746 43:-0.876652 44:-0.803201 45:-0.948119 46:-0.923471 47:-0.811348 48:-0.961544 49:-0.870805 50:0.581103 51:0.961302 52:0.782574 53:-0.906455 54:-0.930365 55:-0.576776 56:0.393017 57:0.437809 58:-0.217511 59:-0.636545 60:0.515738 61:0.328573 62:-0.237583 63:-0.176998 64:0.510268 
-0 0 0.1259461564591035 0.1283209215651373 1:-0.426825 2:0.333556 3:-0.288001 4:-0.369699 5:-0.816366 6:-0.234983 7:0.0429255 8:0.18619 9:-0.949124 10:-0.946916 11:-0.926362 12:0.873513 13:0.875819 14:-0.451097 15:0.127923 16:0.0548607 17:-0.769722 18:-0.23862 19:0.0630151 20:-0.901239 21:-0.314062 22:0.0378959 23:0.989705 24:0.195396 25:-0.244843 26:-0.853091 27:-0.875218 28:-0.775766 29:-0.693921 30:-0.144235 31:0.322367 32:-0.759394 33:-0.718448 34:-0.338883 35:-0.587148 36:-0.752361 37:0.153587 38:0.0768771 39:0.549865 40:-0.931871 41:-0.590169 42:-0.52536 43:-0.53982 44:-0.624935 45:-0.67569 46:-0.611723 47:-0.71441 48:-0.661692 49:-0.471193 50:0.395392 51:0.460961 52:0.632582 53:-0.946991 54:-0.921233 55:-0.328402 56:-0.148221 57:-0.237737 58:0.376746 59:0.918462 60:0.964829 61:-0.0767165 62:0.85344 63:0.919682 64:-0.0932971 
-4.799593829738347 0 0 0 1:-0.744693 2:-0.0144069 3:-0.0364965 4:0.554392 5:-0.4368 6:-0.355432 7:-0.313703 8:-0.173517 9:-0.217756 10:0.147939 11:-0.294935 12:-0.14635 13:-0.687712 14:-0.240742 15:-0.497606 16:-0.157173 17:-0.453371 18:-0.371124 19:-0.310697 20:-0.45621 21:-0.298643 22:-0.355982 23:0.463923 24:0.475464 25:0.658427 26:-0.648231 27:-0.355743 28:-0.145856 29:-0.378248 30:0.205091 31:0.412034 32:-0.202955 33:-0.454172 34:-0.37109 35:0.0741144 36:-0.385368 37:0.427716 38:-0.863803 39:-0.390718 40:-0.624686 41:-0.453461 42:-0.390524 43:-0.324529 44:-0.206534 45:-0.465045 46:-0.645831 47:-0.323756 48:-0.432567 49:-0.406402 50:0.261811 51:0.38402 52:0.722704 53:-0.286561 54:-0.531393 55:-0.125308 56:0.81486 57:-0.747467 58:-0.112836 59:0.641635 60:-0.828092 61:-0.00105888 62:-0.226756 63:-0.41832 64:0.51856 
-1.994212500226581 0.3469859519260338 1.075187782519081 0.1489468455447704 1:0.214855 2:0.0457342 3:0.0106158 4:0.122088 5:-0.725619 6:-0.738636 7:-0.361421 8:0.615243 9:0.805706 10:-0.177475 11:0.0340915 12:0.45215 13:-0.803883 14:-0.302889 15:-0.631286 16:-0.401347 17:-0.73309 18:-0.75228 19:-0.365141 20:-0.77386 21:-0.761137 22:-0.534124 23:0.915144 24:0.91822 25:0.602194 26:-0.733825 27:-0.570058 28:-0.623664 29:-0.142639 30:0.169293 31:0.290953 32:-0.216831 33:-0.456943 34:-0.788172 35:0.375983 36:-0.0370667 37:0.258263 38:-0.562249 39:-0.43278 40:-0.846473 41:-0.580894 42:-0.386349 43:-0.382064 44:-0.202988 45:-0.469265 46:-0.813522 47:-0.271223 48:-0.383085 49:-0.80485 50:0.473121 51:0.405873 52:0.733732 53:0.109448 54:-0.398973 55:-0.570052 56:0.707501 57:-0.749058 58:0.551489 59:0.576663 60:-0.887839 61:0.753781 62:-0.184658 63:-0.726092 64:0.158402 
-2.455988198258689 0.5210636401254037 0 0 1:0.885625 2:-0.314457 3:0.171403 4:0.53569 5:-0.276424 6:-0.393579 7:0.00285871 8:-0.222983 9:0.00626427 10:-0.0195281 11:-0.618878 12:-0.49683 13:-0.878564 14:0.206863 15:-0.441099 16:0.101916 17:-0.285797 18:-0.407458 19:0.00201087 20:-0.441737 21:-0.395165 22:-0.215283 23:0.347854 24:0.603532 25:0.484707 26:-0.720593 27:-0.338493 28:-0.126446 29:-0.542622 30:0.611594 31:0.351267 32:-0.185012 33:-0.537972 34:-0.154016 35:0.0926879 36:-0.201093 37:0.34503 38:-0.804182 39:-0.723217 40:-0.765956 41:-0.44389 42:-0.434774 43:-0.245384 44:-0.171494 45:-0.454939 46:-0.517484 47:-0.288057 48:-0.548474 49:-0.250048 50:0.288806 51:0.661279 52:0.632582 53:-0.173683 54:-0.429795 55:-0.0728536 56:0.63891 57:-0.686477 58:-0.114652 59:0.332533 60:-0.365254 61:0.10742 62:-0.288867 63:-0.599324 64:0.507426 
-0 0 0 0.6209207105796019 1:0.261709 2:0.0982406 3:0.181668 4:0.222386 5:-0.677141 6:-0.595964 7:-0.366659 8:0.639084 9:0.768288 10:-0.078977 11:0.00476333 12:0.352357 13:-0.722512 14:-0.368168 15:-0.462805 16:-0.356138 17:-0.683101 18:-0.606649 19:-0.372243 20:-0.748528 21:-0.637142 22:-0.42393 23:0.927862 24:0.908049 25:0.574038 26:-0.688111 27:-0.324002 28:-0.431392 29:-0.255731 30:0.324218 31:0.272896 32:0.10072 33:-0.28796 34:-0.811709 35:0.120477 36:-0.282075 37:0.715966 38:-0.844383 39:-0.806124 40:0.320668 41:-0.292943 42:-0.355667 43:-0.165043 44:0.0993631 45:-0.293805 46:-0.804798 47:-0.114787 48:-0.454888 49:-0.741998 50:0.229695 51:0.403597 52:0.724279 53:0.119426 54:-0.554224 55:-0.510872 56:0.308883 57:-0.504168 58:0.772527 59:0.336841 60:-0.568928 61:0.936005 62:-0.331329 63:0.129117 64:0.205537 
-1.1607625199272 0.656038369129667 0.9118994805563936 0.7954959603217033 1:-0.504718 2:0.0417316 3:-0.462354 4:-0.202579 5:-0.242021 6:0.240003 7:1 8:-0.092669 9:-0.610246 10:-0.453706 11:-0.394668 12:0.0477916 13:-0.173399 14:1 15:0.557072 16:1 17:-0.262956 18:0.239381 19:1 20:-0.3119 21:0.134341 22:1 23:0.328797 24:-0.123776 25:-0.890852 26:-0.553559 27:-0.476117 28:0.246227 29:-0.516132 30:0.204097 31:0.462412 32:0.458493 33:-0.216558 34:-0.128314 35:0.118732 36:-0.314321 37:0.464082 38:-0.787024 39:-0.582332 40:-0.55476 41:-0.0283284 42:-0.051555 43:0.120464 44:0.462736 45:-0.233608 46:-0.506131 47:0.301988 48:-0.243781 49:-0.150727 50:-0.195718 51:0.150467 52:0.672916 53:0.444964 54:-0.423516 55:0.0993051 56:0.465173 57:-0.694612 58:-0.217457 59:0.518542 60:-0.405117 61:-0.0141129 62:0.172707 63:-0.383178 64:0.340899 
-7.510357951585985 0.686892170019703 0 0 1:-0.806582 2:-0.262679 3:-0.233654 4:0.493966 5:-0.323863 6:-0.494686 7:0.284659 8:0.142666 9:0.0265047 10:0.17858 11:-0.291219 12:-0.434502 13:-0.812993 14:0.463189 15:-0.225242 16:0.263271 17:-0.335229 18:-0.496025 19:0.2811 20:-0.348269 21:-0.50413 22:-0.0106156 23:0.416279 24:0.612283 25:0.445509 26:-0.534759 27:-0.555049 28:0.252156 29:-0.465444 30:0.521106 31:0.41022 32:0.253969 33:-0.334073 34:-0.317789 35:-0.00975103 36:-0.267101 37:0.559052 38:-0.749751 39:-0.704301 40:-0.450895 41:-0.212596 42:-0.111042 43:-0.0420519 44:0.254801 45:-0.303213 46:-0.615782 47:0.166739 48:-0.385505 49:-0.322987 50:-0.198511 51:0.443205 52:0.726485 53:0.150608 54:-0.357306 55:-0.0235373 56:0.411705 57:-0.782871 58:-0.0539084 59:0.398457 60:-0.771444 61:-0.189569 62:-0.250661 63:-0.441463 64:0.482716 
-0 1.807272038441971 1.822940557498139 0.5537574253322588 1:0.787419 2:0.105301 3:0.300343 4:0.278833 5:-0.160645 6:-0.298536 7:-0.391196 8:-0.494454 9:0.60912 10:-0.0313873 11:-0.162317 12:-0.0919323 13:-0.877434 14:-0.287929 15:-0.244476 16:-0.0523698 17:-0.182171 18:-0.306675 19:-0.396842 20:-0.239936 21:-0.380509 22:-0.551569 23:0.142511 24:0.812237 25:0.684496 26:-0.601289 27:0.0553498 28:-0.526352 29:-0.362286 30:0.150301 31:0.470534 32:-0.120083 33:-0.212569 34:-0.303999 35:0.305736 36:-0.273829 37:0.400661 38:-0.74408 39:-0.823114 40:-0.586143 41:-0.386229 42:-0.286788 43:-0.177597 44:-0.123985 45:-0.231041 46:-0.602926 47:-0.264548 48:-0.377168 49:-0.247333 50:0.395858 51:0.271568 52:0.683945 53:0.0202682 54:-0.554795 55:0.00336249 56:0.332332 57:-0.294067 58:-0.245591 59:0.0983208 60:-0.109108 61:0.417185 62:-0.207574 63:0.301495 64:0.395111 
-0.5258420804599474 0 0 0 1:-0.515903 2:-0.0245037 3:-0.912851 4:-0.433152 5:-0.336398 6:0.726304 7:0.602506 8:-0.155056 9:-0.826668 10:-0.477396 11:-0.477464 12:0.621621 13:-0.156331 14:0.527663 15:0.712462 16:0.893413 17:-0.355558 18:0.753735 19:0.61661 20:-0.423024 21:0.707421 22:0.568996 23:0.394696 24:-0.731851 25:-0.566394 26:-0.656925 27:-0.313866 28:-0.154073 29:-0.46884 30:0.340128 31:0.443984 32:-0.149114 33:-0.392938 34:-0.310233 35:0.217801 36:-0.487333 37:0.497347 38:-0.736583 39:-0.337256 40:-0.549207 41:-0.443122 42:-0.397412 43:-0.256146 44:-0.146398 45:-0.392416 46:-0.610231 47:-0.277899 48:-0.370445 49:-0.346654 50:0.331161 51:0.305714 52:0.717662 53:-0.0951044 54:-0.497717 55:-0.0634387 56:0.413139 57:-0.667049 58:0.0100265 59:0.376398 60:-0.355009 61:0.0673557 62:0.195215 63:-0.432533 64:0.255606 
-14.12632065499024 0 0.9323440063547173 0 1:0.201682 2:0.334693 3:0.155067 4:0.264573 5:-0.627795 6:-0.665704 7:-0.42354 8:0.563069 9:0.636551 10:-0.150593 11:-0.225118 12:0.0132947 13:-0.686817 14:-0.41241 15:-0.492525 16:-0.386275 17:-0.607492 18:-0.676886 19:-0.429185 20:-0.733075 21:-0.705787 22:-0.485336 23:0.963259 24:0.907406 25:0.62722 26:-0.638158 27:-0.471125 28:-0.477008 29:-0.265835 30:0.149008 31:0.273597 32:-0.152946 33:-0.206095 34:-0.778753 35:0.267306 36:-0.327816 37:0.440744 38:-0.748364 39:-0.738107 40:-0.340394 41:-0.423744 42:-0.32081 43:-0.247614 44:-0.154611 45:-0.224731 46:-0.794263 47:-0.286025 48:-0.369369 49:-0.727643 50:0.427973 51:0.241065 52:0.710729 53:0.01715 54:-0.576484 55:-0.513562 56:0.297014 57:-0.484031 58:0.674451 59:0.400552 60:-0.650918 61:0.841904 62:-0.264499 63:0.00784085 64:-0.041743 
-1.406775539327626 0.9947575649019291 1.010289965132645 0 1:0.155164 2:0.0724166 3:-0.00376342 4:0.119147 5:-0.631162 6:-0.736803 7:-0.391541 8:0.668677 9:0.526117 10:-0.0397801 11:0.170259 12:-0.159496 13:-0.711095 14:-0.395251 15:-0.513466 16:-0.391479 17:-0.640264 18:-0.750053 19:-0.395034 20:-0.698815 21:-0.756555 22:-0.445746 23:0.901875 24:0.882725 25:0.615654 26:-0.639081 27:-0.621994 28:-0.410311 29:-0.00976398 30:0.0608064 31:0.255004 32:0.0638782 33:-0.334914 34:-0.866254 35:0.275451 36:-0.463535 37:0.102451 38:-0.776336 39:-0.511483 40:-0.800632 41:-0.365551 42:-0.196201 43:-0.186931 44:0.0969739 45:-0.349022 46:-0.801599 47:-0.120012 48:-0.405405 49:-0.865373 50:0.40377 51:0.286137 52:0.720183 53:0.341441 54:-0.596461 55:-0.659269 56:0.108079 57:-0.39413 58:-0.0544118 59:-0.106779 60:-0.229003 61:0.176771 62:-0.252858 63:-0.193301 64:-0.571493 
