svm_type c_svc
kernel_type rbf
gamma 0.162105
nr_class 5
total_sv 620
rho 0.0734193 0.115533 0.241362 0.0536083 0.124083 -0.011679 -0.0556138 -0.0429596 -0.0555139 -0.136441
label 1 2 3 4 5
probA -2.91996 -3.66464 -3.21173 -3.38559 -3.75245 -4.33137 -4.03784 -2.89197 -3.72292 -2.78401
probB -0.0853337 0.0372314 -0.144228 -0.305033 0.21373 -0.0657297 -0.316827 -0.0725961 -0.167828 -0.0910186
nr_sv 122 110 127 133 128
SV
1.675712700796554 0.4383282856510188 0.7757423574075215 2.48371562415 1:-0.180198 2:-0.227999 3:0.434959 4:0.273794 5:-0.665414 6:-0.714464 7:-0.845596 8:0.479829 9:-0.463392 10:0.302023 11:-0.244217 12:-0.266987 13:-0.340931 14:-0.538361 15:-0.714641 16:-0.68596 17:-0.663559 18:-0.724055 19:-0.814353 20:-0.676315 21:-0.714091 22:-0.832395 23:0.781275 24:0.768225 25:0.924003 26:-0.558916 27:-0.552608 28:-0.722561 29:0.0681551 30:-0.0841669 31:-0.246321 32:-0.619954 33:-0.549281 34:-0.295183 35:0.578939 36:0.58574 37:-0.172219 38:-0.477898 39:-0.490179 40:-0.867313 41:-0.391381 42:-0.489754 43:-0.33659 44:-0.622936 45:-0.452082 46:-0.282947 47:-0.56234 48:-0.580382 49:-0.506908 50:0.693223 51:0.599897 52:0.424434 53:-0.468586 54:-0.573029 55:-0.674347 56:-0.465222 57:-0.492207 58:-0.364295 59:0.508435 60:0.519036 61:0.336761 62:-0.493474 63:-0.516993 64:-0.348794 
0.5199431405739291 0.3639496032343956 0.1237963272081006 0.4457290539548618 1:-0.0570579 2:-0.130018 3:0.475165 4:0.25299 5:-0.363772 6:-0.725584 7:-0.520472 8:0.546902 9:-0.653416 10:-0.481771 11:-0.323987 12:-0.014307 13:-0.142697 14:-0.218485 15:-0.563387 16:-0.395802 17:-0.364543 18:-0.730776 19:-0.511675 20:-0.501727 21:-0.762461 22:-0.526431 23:0.770807 24:0.763162 25:0.598375 26:-0.241376 27:-0.706766 28:-0.671508 29:-0.088915 30:0.268703 31:-0.122846 32:0.202758 33:0.266506 34:-0.124446 35:-0.185089 36:0.177154 37:-0.369923 38:-0.608049 39:-0.825749 40:-0.568332 41:0.277818 42:0.394306 43:0.402929 44:0.218202 45:0.265903 46:-0.131786 47:0.357814 48:0.191163 49:-0.239816 50:-0.460496 51:-0.0370751 52:0.18371 53:-0.241627 54:-0.055168 55:-0.537942 56:-0.824963 57:-0.754169 58:-0.698366 59:0.861359 60:0.692083 61:0.759382 62:0.283958 63:0.373599 64:-0.224985 
0 2.48371562415 2.24318055580466 2.185805186362074 1:-0.0601197 2:-0.0195988 3:0.429398 4:0.0826432 5:-0.628731 6:-0.865781 7:-0.892513 8:0.231172 9:-0.0687786 10:-0.0942158 11:-0.300061 12:-0.849571 13:-0.911936 14:-0.536938 15:-0.820282 16:-0.719933 17:-0.624448 18:-0.869802 19:-0.88595 20:-0.606192 21:-0.891196 22:-0.924741 23:0.726962 24:0.91415 25:0.922597 26:-0.505447 27:-0.698237 28:-0.908084 29:-0.125108 30:0.316472 31:-0.0762572 32:-0.790063 33:-0.688073 34:-0.683682 35:-0.0349422 36:0.43759 37:-0.362063 38:-0.905534 39:-0.736635 40:-0.595024 41:-0.740189 42:-0.726035 43:-0.631669 44:-0.656935 45:-0.679869 46:-0.693226 47:-0.822374 48:-0.727985 49:-0.722281 50:0.640992 51:0.8069 52:0.650679 53:-0.849433 54:-0.602198 55:-0.740707 56:0.0809141 57:-0.381883 58:-0.0395717 59:-0.849224 60:-0.421951 61:0.582392 62:0.575042 63:-0.231512 64:0.0943686 
0 0.3942479344975214 0.6822040660106621 0.006872087127066689 1:-0.0754118 2:0.153147 3:0.500215 4:0.206487 5:-0.56684 6:-0.787402 7:-0.883666 8:0.660654 9:-0.209346 10:0.34392 11:0.0768815 12:-0.696406 13:-0.48318 14:-0.521792 15:-0.693169 16:-0.638967 17:-0.543769 18:-0.785676 19:-0.859336 20:-0.611634 21:-0.810059 22:-0.882623 23:0.863795 24:0.860861 25:0.943317 26:-0.313562 27:-0.596979 28:-0.789203 29:-0.284763 30:-0.27996 31:-0.406075 32:-0.781708 33:-0.342606 34:-0.522126 35:0.200846 36:0.28143 37:-0.303953 38:-0.924986 39:-0.946709 40:-0.773461 41:-0.0603727 42:-0.597579 43:-0.182342 44:-0.49137 45:-0.165288 46:-0.411544 47:-0.797182 48:-0.496709 49:-0.658165 50:0.572231 51:0.368177 52:0.468778 53:-0.874343 54:-0.650391 55:-0.876498 56:0.315109 57:0.342366 58:-0.265106 59:-0.834578 60:-0.791521 61:0.762064 62:0.0299618 63:0.00679138 64:0.247641 
0 0.8706297157520408 0 0 1:-0.0848061 2:-0.177413 3:0.450068 4:0.303791 5:-0.668658 6:-0.846985 7:-0.883477 8:0.0821051 9:-0.0044086 10:-0.0942462 11:-0.769371 12:-0.761692 13:-0.802146 14:-0.474158 15:-0.888097 16:-0.733198 17:-0.668787 18:-0.849078 19:-0.839157 20:-0.710264 21:-0.868678 22:-0.902665 23:0.73335 24:0.920159 25:0.937007 26:-0.694516 27:-0.61717 28:-0.839715 29:-0.236349 30:0.178412 31:-0.115684 32:-0.787218 33:-0.498638 34:-0.372655 35:0.176533 36:0.0962878 37:-0.140737 38:-0.857682 39:-0.954521 40:-0.815762 41:-0.444051 42:-0.469674 43:-0.379806 44:-0.544979 45:-0.497767 46:-0.381542 47:-0.792485 48:-0.581636 49:-0.46865 50:0.590744 51:0.547374 52:0.50724 53:-0.852754 54:-0.61784 55:-0.495545 56:-0.57129 57:-0.161304 58:-0.361642 59:0.651353 60:-0.373666 61:0.909793 62:-0.0678559 63:-0.0895682 64:-0.239077 
0 0 2.48371562415 2.48371562415 1:-0.085601 2:-0.0980506 3:0.382794 4:0.320588 5:-0.805364 6:-0.941078 7:-0.760152 8:0.118086 9:-0.0880208 10:0.15821 11:-0.787513 12:-0.441082 13:-0.682576 14:-0.715086 15:-0.851739 16:-0.787097 17:-0.804624 18:-0.947295 19:-0.731326 20:-0.843677 21:-0.930657 22:-0.775773 23:0.845343 24:0.937698 25:0.87682 26:-0.783444 27:-0.75352 28:-0.690796 29:-0.186604 30:0.0186742 31:-0.247187 32:-0.494912 33:-0.510868 34:-0.610023 35:-0.144143 36:0.0165898 37:-0.205834 38:-0.883718 39:-0.857529 40:-0.693031 41:-0.478609 42:-0.411085 43:-0.377459 44:-0.388376 45:-0.468513 46:-0.584977 47:-0.582408 48:-0.541836 49:-0.630181 50:0.364628 51:0.382595 52:0.565158 53:-0.76972 54:-0.699429 55:-0.697081 56:-0.578488 57:-0.502119 58:0.254241 59:0.133271 60:0.0769792 61:0.399493 62:-0.135456 63:-0.0427767 64:-0.155815 
1.671759402554551 1.48074397937496 0.09071626261279654 2.24458838640821 1:-0.0846365 2:-0.112491 3:0.456095 4:0.24522 5:-0.877075 6:-0.905734 7:-0.963185 8:0.539031 9:-0.130186 10:-0.126178 11:-0.222625 12:-0.807273 13:-0.7972 14:-0.879459 15:-0.933342 16:-0.900656 17:-0.876654 18:-0.901133 19:-0.909976 20:-0.883306 21:-0.922373 22:-0.970822 23:0.898614 24:0.937648 25:0.966478 26:-0.78029 27:-0.72945 28:-0.924581 29:-0.0430866 30:0.225573 31:-0.152121 32:-0.842191 33:-0.961575 34:-0.775877 35:0.214872 36:0.110334 37:-0.232381 38:-0.911148 39:-0.667355 40:-0.849709 41:-0.846778 42:-0.858616 43:-0.82513 44:-0.765014 45:-0.963821 46:-0.780155 47:-0.863792 48:-0.952366 49:-0.852993 50:0.755372 51:0.874356 52:0.747059 53:-0.807362 54:-0.849503 55:-0.836559 56:-0.277279 57:0.169182 58:-0.717346 59:0.447769 60:0.0323375 61:0.789655 62:0.402558 63:0.0260189 64:0.62412 
0 1.929412753317028 0.6796598661590537 0.4631186775023467 1:-0.0485099 2:-0.149228 3:0.44642 4:0.0556832 5:-0.826398 6:-0.947941 7:-0.700571 8:0.277681 9:0.062902 10:-0.61533 11:-0.257062 12:-0.581822 13:0.0109545 14:-0.654268 15:-0.809299 16:-0.779373 17:-0.826724 18:-0.938775 19:-0.700453 20:-0.795801 21:-0.948001 22:-0.710036 23:0.811432 24:0.954878 25:0.711195 26:-0.742252 27:-0.76042 28:-0.843072 29:0.0248335 30:0.272886 31:-0.100181 32:-0.706601 33:-0.547959 34:-0.823431 35:-0.161664 36:-0.712229 37:-0.50631 38:-0.79675 39:0.342716 40:-0.362942 41:-0.660144 42:-0.464448 43:-0.604343 44:-0.694231 45:-0.548288 46:-0.835081 47:-0.707942 48:-0.453149 49:-0.843075 50:0.608595 51:0.242019 52:0.733032 53:-0.728204 54:-0.695202 55:-0.838402 56:-0.0343937 57:-0.538885 58:-0.0164569 59:0.361463 60:0.554112 61:0.561542 62:0.632037 63:0.8939 64:0.476823 
0 2.48371562415 2.48371562415 2.48371562415 1:0.832125 2:-0.302042 3:0.471339 4:-0.00996729 5:-0.929056 6:-0.95691 7:-0.907971 8:0.289378 9:-0.190362 10:-0.271826 11:-0.581239 12:-0.6665 13:-0.741668 14:-0.857319 15:-0.945081 16:-0.928193 17:-0.907575 18:-0.937534 19:-0.908382 20:-0.926365 21:-0.956819 22:-0.933361 23:0.869425 24:0.959886 25:0.906921 26:-0.905568 27:-0.773423 28:-0.951927 29:-0.0251469 30:0.18929 31:-0.145274 32:-0.872764 33:-0.709981 34:-0.742427 35:-0.00869907 36:-0.120645 37:-0.0574912 38:-0.813445 39:-0.647813 40:-0.804449 41:-0.764547 42:-0.712282 43:-0.716584 44:-0.801428 45:-0.709245 46:-0.748868 47:-0.877882 48:-0.692259 49:-0.790648 50:0.756033 51:0.57724 52:0.723077 53:-0.825076 54:-0.742549 55:-0.760983 56:-0.669193 57:-0.87261 58:-0.399491 59:0.665858 60:0.624247 61:0.478566 62:0.260795 63:0.3611 64:-0.0412142 
0 0.1722100233967234 0.2778623874816965 0.4827067773483575 1:0.981925 2:-0.330585 3:0.585354 4:0.240019 5:-0.847635 6:-0.941301 7:-0.883613 8:-0.524057 9:0.32688 10:0.39512 11:-0.273916 12:-0.577849 13:-0.421173 14:-0.842236 15:-0.890858 16:-0.845936 17:-0.82781 18:-0.885399 19:-0.852872 20:-0.862829 21:-0.945431 22:-0.884843 23:0.743876 24:0.987293 25:0.950125 26:-0.969964 27:-0.670368 28:-0.78199 29:0.138582 30:0.199102 31:0.00417093 32:-0.807784 33:-0.675474 34:-0.703682 35:-0.448529 36:0.649154 37:-0.6378 38:-0.195129 39:-0.208605 40:0.0649278 41:-0.752993 42:-0.656443 43:-0.678952 44:-0.814234 45:-0.676069 46:-0.690797 47:-0.761742 48:-0.63209 49:-0.700673 50:0.678017 51:0.72863 52:0.625792 53:-0.739828 54:-0.537096 55:-0.73702 56:0.800796 57:-0.749257 58:0.939947 59:-0.0380935 60:-0.575382 61:0.248106 62:-0.429823 63:0.951487 64:-0.754862 
0.4025001932031336 0.2632300852946095 0 0 1:-0.0774837 2:-0.133103 3:0.403569 4:0.133876 5:-0.683794 6:-0.857538 7:-0.852309 8:0.421392 9:-0.245203 10:0.0567469 11:-0.459839 12:-0.811674 13:-0.691064 14:-0.540247 15:-0.850808 16:-0.747948 17:-0.684234 18:-0.865321 19:-0.842076 20:-0.729045 21:-0.904358 22:-0.858653 23:0.826695 24:0.907844 25:0.908531 26:-0.592358 27:-0.752738 28:-0.801033 29:0.0527223 30:0.24999 31:-0.137247 32:-0.732209 33:-0.931792 34:-0.526174 35:0.373792 36:-0.284438 37:-0.310718 38:-0.807012 39:-0.47121 40:-0.615057 41:-0.648277 42:-0.711181 43:-0.679523 44:-0.728683 45:-0.932913 46:-0.534288 47:-0.751067 48:-0.91476 49:-0.570315 50:0.76595 51:0.819258 52:0.498643 53:-0.652366 54:-0.844008 55:-0.683564 56:-0.225206 57:-0.34939 58:-0.482959 59:0.383969 60:0.775866 61:0.770878 62:-0.111084 63:-0.226449 64:-0.315132 
2.452682553433851 0.4843619156837181 2.180939150757512 2.041163486513925 1:0.834671 2:-0.27912 3:0.441202 4:-0.113546 5:-0.955472 6:-0.946031 7:-0.86306 8:-0.331027 9:0.353587 10:-0.354798 11:-0.576336 12:-0.630401 13:-0.431893 14:-0.899799 15:-0.924706 16:-0.921745 17:-0.936504 18:-0.938733 19:-0.863506 20:-0.953735 21:-0.957271 22:-0.860319 23:0.842625 24:0.976676 25:0.850439 26:-0.997391 27:-0.731983 28:-0.903469 29:0.175793 30:0.173772 31:0.00527268 32:-0.814732 33:-0.87796 34:-0.921606 35:0.430009 36:-0.181691 37:-0.0418287 38:-0.322623 39:-0.718567 40:-0.885562 41:-0.922348 42:-0.898501 43:-0.852578 44:-0.812406 45:-0.869655 46:-0.877325 47:-0.737831 48:-0.878408 49:-0.945094 50:0.814215 51:0.745623 52:0.895928 53:-0.594797 54:-0.855422 55:-0.794163 56:-0.843596 57:-0.365696 58:0.192759 59:0.677478 60:-0.105765 61:0.17551 62:-0.440628 63:0.4012 64:-0.465591 
2.48371562415 0.6469177957550947 0 0 1:-0.180088 2:0.0599339 3:0.361126 4:-0.0637233 5:-0.803031 6:-0.83717 7:-0.634855 8:0.412577 9:-0.942017 10:0.0641837 11:-0.128238 12:0.853195 13:-0.579785 14:-0.603512 15:-0.742513 16:-0.707185 17:-0.782924 18:-0.848904 19:-0.637358 20:-0.784054 21:-0.839867 22:-0.629333 23:0.855794 24:0.813204 25:0.759937 26:-0.65427 27:-0.8054 28:-0.599862 29:0.17454 30:0.305366 31:-0.128197 32:-0.609662 33:-0.751422 34:-0.839168 35:0.365239 36:0.170125 37:-0.35701 38:-0.440796 39:-0.462472 40:-0.537907 41:-0.814718 42:-0.624811 43:-0.690095 44:-0.612761 45:-0.744205 46:-0.848309 47:-0.484629 48:-0.691633 49:-0.849805 50:0.629091 51:0.714212 52:0.750679 53:-0.421533 54:-0.629254 55:-0.826114 56:-0.0772802 57:-0.360835 58:-0.154476 59:0.355991 60:0.501462 61:0.480728 62:0.226946 63:0.478677 64:0.0914688 
0 1.745723383662895 0 0 1:-0.0253972 2:-0.101869 3:0.372967 4:0.0528534 5:-0.794453 6:-0.964323 7:-0.807751 8:0.923341 9:-0.205127 10:0.174364 11:0.778089 12:-0.779783 13:-0.570209 14:-0.831183 15:-0.849507 16:-0.821735 17:-0.793933 18:-0.970418 19:-0.806322 20:-0.782377 21:-0.972927 22:-0.80844 23:0.882831 24:0.956939 25:0.88101 26:-0.611105 27:-0.82797 28:-0.748423 29:0.165609 30:0.307192 31:-0.0906587 32:-0.852537 33:-0.864002 34:-0.908735 35:0.523047 36:0.513377 37:-0.444842 38:-0.315603 39:-0.335297 40:-0.351983 41:-0.921307 42:-0.804153 43:-0.871518 44:-0.852025 45:-0.850677 46:-0.920233 47:-0.809137 48:-0.836102 49:-0.913213 50:0.876364 51:0.861483 52:0.80543 53:-0.635206 54:-0.703234 55:-0.861751 56:-0.404289 57:-0.511812 58:0.197102 59:0.311344 60:0.0540725 61:0.478364 62:0.256785 63:0.624494 64:-0.696885 
0 1.176834965370098 0 0.7871451324514787 1:0.837034 2:-0.224449 3:0.355718 4:0.133976 5:-0.959081 6:-0.89983 7:-0.808414 8:-0.067764 9:-0.283629 10:0.23099 11:-0.787229 12:-0.708744 13:-0.678878 14:-0.81319 15:-0.935423 16:-0.8844 17:-0.95199 18:-0.910572 19:-0.800455 20:-0.951307 21:-0.917449 22:-0.831547 23:0.86797 24:0.913871 25:0.897166 26:-0.955294 27:-0.775621 28:-0.766675 29:0.121269 30:0.385768 31:-0.144251 32:-0.709587 33:-0.706965 34:-0.707492 35:-0.016351 36:0.468003 37:-0.00963851 38:-0.761178 39:-0.550084 40:-0.847646 41:-0.762777 42:-0.658369 43:-0.657475 44:-0.717254 45:-0.673744 46:-0.714416 47:-0.681896 48:-0.684425 49:-0.756642 50:0.690579 51:0.799691 52:0.70181 53:-0.625796 54:-0.549355 55:-0.730876 56:-0.610102 57:-0.599686 58:-0.157541 59:0.470628 60:-0.157792 61:0.700717 62:0.025033 63:0.48053 64:-0.447037 
0.804502824337877 0.2182202602721112 0.3840276118648322 0.1662719991473369 1:-0.0707437 2:0.0960703 3:0.338266 4:-0.16467 5:-0.445328 6:-0.842622 7:-0.829173 8:1 9:-0.774349 10:-0.670566 11:0.951618 12:0.373026 13:0.200024 14:-0.663853 15:-0.567929 16:-0.568148 17:-0.433399 18:-0.855107 19:-0.827409 20:-0.490806 21:-0.853779 22:-0.830658 23:0.881854 24:0.82665 25:0.788949 26:-0.0563974 27:-0.811788 28:-0.949582 29:0.128398 30:0.251892 31:-0.141497 32:-0.858199 33:-0.898934 34:-0.86166 35:-0.146213 36:-0.0614908 37:-0.343332 38:-0.540329 39:-0.595221 40:-0.57258 41:-0.94681 42:-0.894375 43:-0.88488 44:-0.865278 45:-0.900075 46:-0.867057 47:-0.831341 48:-0.887809 49:-0.878852 50:0.773884 51:0.807415 52:0.757919 53:-0.749792 54:-0.817375 55:-0.866667 56:-0.750185 57:-0.54455 58:-0.33743 59:0.70183 60:0.468389 61:0.436685 62:0.764688 63:0.607073 64:0.0373309 
0 0.6251239676879031 0.1356857439761301 0 1:-0.0323528 2:0.289135 3:0.341468 4:-0.0979334 5:-0.277959 6:-0.887163 7:-0.660159 8:0.931789 9:-0.207951 10:-0.20779 11:0.791489 12:-0.637391 13:-0.361044 14:-0.453543 15:-0.475634 16:-0.396837 17:-0.246649 18:-0.898859 19:-0.662279 20:-0.324844 21:-0.898484 22:-0.638969 23:0.843185 24:0.897604 25:0.705997 26:0.203005 27:-0.761657 28:-0.711017 29:0.189973 30:0.271517 31:-0.146376 32:-0.741987 33:-0.695614 34:-0.742344 35:0.0283365 36:0.0481587 37:0.200251 38:-0.70457 39:-0.456988 40:-0.705306 41:-0.787759 42:-0.732086 43:-0.688429 44:-0.738019 45:-0.695548 46:-0.748545 47:-0.704526 48:-0.611407 49:-0.757705 50:0.77124 51:0.595778 52:0.728054 53:-0.5876 54:-0.618263 55:-0.697081 56:-0.570615 57:-0.824235 58:-0.30157 59:0.52836 60:0.687396 61:0.5545 62:0.480191 63:0.722353 64:-0.00689131 
1.890039924504615 0 0 0 1:-0.1691 2:-0.116554 3:0.283516 4:0.501866 5:-0.881817 6:-0.767869 7:-0.727252 8:0.486916 9:-0.372308 10:0.237444 11:-0.231158 12:-0.475749 13:-0.76719 14:-0.65262 15:-0.821075 16:-0.746077 17:-0.881546 18:-0.781031 19:-0.670888 20:-0.878348 21:-0.791051 22:-0.781175 23:0.888588 24:0.800268 25:0.904056 26:-0.785654 27:-0.695773 28:-0.655029 29:0.00642383 30:0.279808 31:-0.243488 32:-0.100037 33:-0.433141 34:-0.497089 35:-0.284944 36:0.0478995 37:-0.234977 38:-0.375459 39:-0.537982 40:-0.844727 41:-0.488914 42:-0.0199422 43:-0.19751 44:-0.0991327 45:-0.433133 46:-0.479703 47:0.12041 48:-0.349107 49:-0.647538 50:-0.229752 51:0.339856 52:0.538009 53:-0.356214 54:-0.47453 55:-0.764055 56:-0.745436 57:-0.806288 58:-0.313327 59:0.713209 60:0.570267 61:0.825971 62:-0.67745 63:-0.46578 64:-0.8672 
0 0.3904209416462073 0 0 1:0.941943 2:-0.15542 3:0.35404 4:-0.0610835 5:-0.979926 6:-0.954967 7:-0.746845 8:-0.342529 9:0.061572 10:0.330768 11:-0.440888 12:-0.872019 13:-0.0690098 14:-0.80794 15:-0.891152 16:-0.870087 17:-0.979937 18:-0.964277 19:-0.74891 20:-0.967155 21:-0.963027 22:-0.697201 23:0.873103 24:0.959013 25:0.819939 26:-0.977936 27:-0.793775 28:-0.632052 29:0.168899 30:0.26566 31:-0.129692 32:-0.751199 33:-0.89432 34:-0.961101 35:0.737135 36:0.293807 37:-0.196996 38:-0.240556 39:-0.786669 40:-0.815165 41:-0.899657 42:-0.820107 43:-0.856159 44:-0.752969 45:-0.892983 46:-0.966712 47:-0.703245 48:-0.903792 49:-0.976266 50:0.85719 51:0.862513 52:0.859728 53:-0.513977 54:-0.793701 55:-0.897389 56:-0.320141 57:-0.35467 58:0.143071 59:0.227704 60:-0.0255128 61:0.100514 62:0.171454 63:0.627744 64:-0.561024 
0.9719915576844602 0 0 0 1:-0.166583 2:-0.113134 3:0.312737 4:-0.00129213 5:-0.844793 6:-0.885431 7:-0.829985 8:0.415183 9:-0.725886 10:0.244757 11:0.0464505 12:0.28562 13:-0.694492 14:-0.834063 15:-0.869668 16:-0.848898 17:-0.844527 18:-0.89751 19:-0.830807 20:-0.800797 21:-0.882266 22:-0.862474 23:0.824236 24:0.862585 25:0.906803 26:-0.732854 27:-0.803472 28:-0.811558 29:0.118527 30:0.238276 31:-0.0554025 32:-0.844132 33:-0.936923 34:-0.869113 35:-0.0538887 36:-0.217315 37:-0.167144 38:-0.635246 39:-0.472287 40:-0.401858 41:-0.950973 42:-0.899876 43:-0.897658 44:-0.85143 45:-0.939302 46:-0.872179 47:-0.810845 48:-0.915074 49:-0.84768 50:0.77719 51:0.823893 52:0.795023 53:-0.720454 54:-0.840626 55:-0.762212 56:-0.727363 57:-0.922771 58:-0.177796 59:0.853434 60:0.756659 61:0.654608 62:-0.038257 63:0.431523 64:-0.763755 
0 0.522757002107744 1.14771489775237 0.5136259556458227 1:0.935982 2:0.232632 3:0.582142 4:0.136976 5:-0.669454 6:-0.836147 7:-0.815488 8:-0.692211 9:0.775024 10:-0.246081 11:0.215126 12:0.378464 13:-0.782505 14:-0.378206 15:-0.83331 16:-0.684914 17:-0.623894 18:-0.811212 19:-0.806899 20:-0.684292 21:-0.84035 22:-0.870362 23:0.641436 24:0.974816 25:0.884391 26:-0.780842 27:-0.395247 28:-0.865446 29:0.18347 30:0.253566 31:0.104745 32:-0.592268 33:-0.614521 34:-0.84606 35:0.781732 36:0.269512 37:0.161902 38:-0.253781 39:-0.55927 40:-0.809359 41:-0.724055 42:-0.558245 43:-0.585109 44:-0.59393 45:-0.616134 46:-0.734573 47:-0.572161 48:-0.559072 49:-0.860078 50:0.84595 51:0.61689 52:0.900452 53:-0.353446 54:-0.530332 55:-0.640553 56:-0.858538 57:-0.949755 58:0.130817 59:0.711334 60:0.626475 61:0.396111 62:0.0758802 63:0.756677 64:-0.0622666 
0.6142287419668959 0 0 0.1051693642738033 1:0.909022 2:-0.546936 3:0.480965 4:0.6779 5:-0.567801 6:-0.83927 7:-0.336262 8:-0.249629 9:0.392519 10:0.685204 11:-0.834792 12:-0.704072 13:0.260776 14:-0.257661 15:-0.531863 16:-0.38981 17:-0.525787 18:-0.836713 19:-0.29202 20:-0.732544 21:-0.89261 22:-0.337164 23:0.62738 24:0.969935 25:0.852712 26:-0.893657 27:-0.560304 28:0.137834 29:-0.0701136 30:0.383714 31:0.0908161 32:-0.669652 33:-0.562682 34:-0.543846 35:0.334291 36:0.763161 37:-0.399239 38:-0.803861 39:0.00989417 40:-0.421482 41:-0.571458 42:-0.421263 43:-0.470545 44:-0.610621 45:-0.539909 46:-0.500899 47:-0.657558 48:-0.481354 49:-0.542685 50:0.646942 51:0.744593 52:0.570136 53:-0.630778 54:-0.320651 55:-0.538556 56:-0.412255 57:-0.514739 58:0.665295 59:0.530756 60:0.368708 61:-0.477364 62:-0.118009 63:0.364219 64:-0.637303 
0 0.6564161971249061 0.7501747719537827 0 1:0.988762 2:-0.368935 3:0.498396 4:0.697028 5:-0.486357 6:-0.918276 7:-0.642861 8:-0.732174 9:0.543993 10:0.265755 11:0.327425 12:-0.187311 13:-0.433242 14:-0.462441 15:-0.597162 16:-0.511156 17:-0.47525 18:-0.900425 19:-0.562032 20:-0.535296 21:-0.925998 22:-0.62488 23:0.385098 24:0.981069 25:0.855604 26:-0.875557 27:-0.629463 28:-0.427776 29:-0.143204 30:0.374662 31:0.028016 32:-0.749967 33:-0.462571 34:-0.598192 35:-0.206074 36:0.839746 37:-0.434902 38:-0.576197 39:0.0711983 40:-0.525475 41:-0.640158 42:-0.497456 43:-0.446468 44:-0.614614 45:-0.446163 46:-0.581047 47:-0.695559 48:-0.423378 49:-0.66029 50:0.504132 51:0.795572 52:0.637104 53:-0.799613 54:-0.200592 55:-0.651613 56:0.689077 57:-0.0292422 58:0.546032 59:-0.381406 60:0.351423 61:0.0369496 62:-0.458679 63:0.106686 64:-0.340069 
2.48371562415 0.09180275333018609 0.4311810491800604 0.04502561998717077 1:0.151944 2:-0.0397959 3:0.527692 4:0.49036 5:-0.708604 6:-0.689702 7:-0.727505 8:0.194837 9:0.546887 10:0.469834 11:-0.302324 12:-0.389909 13:-0.530009 14:-0.648886 15:-0.718889 16:-0.643305 17:-0.704942 18:-0.690011 19:-0.673308 20:-0.677743 21:-0.764847 22:-0.805722 23:0.753802 24:0.956476 25:0.962451 26:-0.602252 27:-0.22144 28:-0.604058 29:0.00156679 30:0.0110676 31:-0.0615409 32:-0.545729 33:-0.468283 34:-0.618009 35:0.492062 36:0.442959 37:-0.345589 38:-0.467561 39:-0.598366 40:-0.702493 41:-0.388883 42:-0.442443 43:-0.420922 44:-0.533021 45:-0.426036 46:-0.625696 47:-0.423997 48:-0.452523 49:-0.708466 50:0.52 51:0.478373 52:0.643439 53:-0.434265 54:-0.500317 55:-0.726574 56:-0.746433 57:-0.458924 58:0.0628137 59:0.192304 60:0.443789 61:-0.847876 62:0.0497753 63:0.294801 64:-0.821225 
0.6554531133322749 1.159623778783315 0.4161425219595756 0.9804273399209367 1:-0.148837 2:-0.195671 3:0.387873 4:0.538877 5:-0.614665 6:-0.707077 7:-0.610637 8:0.499401 9:-0.427006 10:0.268205 11:-0.216742 12:-0.504505 13:-0.859439 14:-0.491635 15:-0.658773 16:-0.556261 17:-0.61443 18:-0.719968 19:-0.563006 20:-0.654801 21:-0.768836 22:-0.755876 23:0.801786 24:0.786531 25:0.925078 26:-0.487563 27:-0.665873 28:-0.568989 29:-0.0530356 30:-0.180314 31:-0.236405 32:0.0935432 33:-0.173705 34:-0.261973 35:-0.327078 36:-0.293032 37:-0.221678 38:-0.339296 39:-0.474044 40:-0.836181 41:-0.265015 42:0.418787 43:0.13439 44:0.103061 45:-0.0753735 46:-0.253035 47:0.367634 48:-0.0770919 49:-0.466879 50:-0.540496 51:-0.217817 52:0.388688 53:-0.295876 54:-0.56542 55:-0.653456 56:-0.931059 57:-0.874041 58:-0.4004 59:0.960083 60:0.927369 61:0.518047 62:-0.609471 63:-0.567143 64:-0.965392 
0.06966280793607345 0.5536467954033929 1.223230652558531 1.250730064297367 1:-0.228728 2:-0.548332 3:0.486763 4:-0.197864 5:-0.57477 6:-0.603513 7:-0.883375 8:0.415956 9:-0.548962 10:-0.232467 11:-0.188536 12:0.114773 13:-0.602667 14:-0.349239 15:-0.709053 16:-0.580122 17:-0.531917 18:-0.611952 19:-0.877028 20:-0.576392 21:-0.590475 22:-0.886039 23:0.681708 24:0.65813 25:0.866564 26:-0.5155 27:-0.47195 28:-0.926956 29:0.128006 30:0.285513 31:-0.41001 32:-0.54249 33:-0.300176 34:0.04168 35:0.573457 36:-0.281746 37:-0.327909 38:-0.310851 39:-0.733465 40:-0.645344 41:-0.224628 42:-0.220465 43:-0.0647794 44:-0.550513 45:-0.299949 46:0.0994073 47:-0.418446 48:-0.43748 49:-0.129649 50:0.635041 51:0.282183 52:0.0113122 53:-0.33075 54:-0.641091 55:-0.580952 56:0.846119 57:0.691933 58:0.184506 59:-0.838032 60:-0.609759 61:-0.258634 62:-0.0798645 63:-0.0105754 64:0.725254 
1.456699447304743 1.656763661075172 2.48371562415 0 1:0.839882 2:-0.169368 3:0.513687 4:-0.04991 5:-0.777626 6:-0.854229 7:-0.670147 8:-0.529124 9:0.614103 10:-0.158569 11:-0.0644968 12:-0.189704 13:-0.784657 14:-0.607271 15:-0.80442 16:-0.72286 17:-0.777726 18:-0.843349 19:-0.672511 20:-0.78069 21:-0.880294 22:-0.754293 23:0.695169 24:0.976981 25:0.798023 26:-0.885286 27:-0.50639 28:-0.782665 29:0.167489 30:0.0124368 31:0.120406 32:-0.563007 33:-0.73761 34:-0.911469 35:0.160166 36:0.304535 37:0.221336 38:-0.824303 39:-0.84353 40:-0.761577 41:-0.645779 42:-0.677348 43:-0.604962 44:-0.567772 45:-0.664271 46:-0.753535 47:-0.560632 48:-0.78502 49:-0.927382 50:0.646942 51:0.671988 52:0.942081 53:-0.50512 54:-0.789896 55:-0.700768 56:-0.156415 57:-0.515443 58:-0.14886 59:0.387584 60:0.497367 61:0.21298 62:-0.423318 63:0.382229 64:-0.369543 
0.5308271086039078 0.9191329393953971 0.8410983825322861 0.6306490661600582 1:-0.0948878 2:-9.4978e-05 3:0.275656 4:-0.705109 5:0.0850837 6:-0.623278 7:0.433256 8:0.100299 9:-0.159476 10:-0.83865 11:-0.398604 12:-0.539823 13:0.643602 14:0.417236 15:0.128332 16:0.347708 17:0.0863148 18:-0.638457 19:0.444959 20:0.100737 21:-0.639942 22:0.464949 23:0.280678 24:0.713896 25:-0.432515 26:0.18328 27:-0.474404 28:-0.464778 29:0.0652566 30:0.317233 31:-0.318171 32:-0.443373 33:-0.104196 34:-0.0670119 35:0.166166 36:0.0711284 37:-0.268704 38:-0.724894 39:-0.445907 40:-0.649321 41:-0.323618 42:-0.121991 43:0.00167271 44:-0.447888 45:-0.101666 46:-0.0386567 47:-0.340734 48:0.105296 49:-0.181722 50:0.374545 51:-0.0205973 52:0.174208 53:-0.448104 54:-0.157472 55:-0.450077 56:-0.215425 57:-0.837356 58:0.00193764 59:0.198815 60:0.833616 61:-0.0796471 62:0.538203 63:0.844409 64:-0.0277315 
0 0.3026343639731044 0.7247161122106385 1.431537797092836 1:0.93165 2:-0.261649 3:0.445243 4:0.198152 5:-0.576749 6:-0.903403 7:-0.798331 8:-0.52887 9:0.387363 10:0.228087 11:-0.321269 12:-0.554995 13:-0.514123 14:-0.537947 15:-0.781643 16:-0.661572 17:-0.573526 18:-0.901447 19:-0.78363 20:-0.659576 21:-0.920088 22:-0.808176 23:0.561674 24:0.962457 25:0.913072 26:-0.8516 27:-0.659599 28:-0.693187 29:0.0225617 30:0.137337 31:-0.0466672 32:-0.64229 33:-0.593995 34:-0.733057 35:0.510242 36:0.80997 37:-0.499075 38:-0.729515 39:0.274279 40:0.0166015 41:-0.689185 42:-0.498006 43:-0.583037 44:-0.63248 45:-0.585402 46:-0.737021 47:-0.667378 48:-0.507051 49:-0.697485 50:0.746116 51:0.665808 52:0.642081 53:-0.560476 54:-0.419996 55:-0.70937 56:0.273218 57:-0.801719 58:0.818216 59:-0.180865 60:0.749758 61:-0.767903 62:-0.648112 63:0.48559 64:-0.631152 
1.21767020449566 0 0 0.142580574569777 1:0.950624 2:-0.343689 3:0.42584 4:-0.0333753 5:-0.578474 6:-0.901277 7:-0.714001 8:-0.703114 9:0.573543 10:-0.239952 11:0.190012 12:-0.335893 13:-0.647799 14:-0.617143 15:-0.736843 16:-0.634226 17:-0.568075 18:-0.903295 19:-0.716096 20:-0.614656 21:-0.924676 22:-0.754604 23:0.483445 24:0.973134 25:0.782916 26:-0.881555 27:-0.64581 28:-0.809062 29:-0.0254602 30:-0.271897 31:0.279846 32:-0.65384 33:-0.857962 34:-0.836146 35:0.216402 36:0.0431278 37:-0.319837 38:-0.574139 39:-0.801266 40:-0.355484 41:-0.411991 42:-0.721084 43:-0.462846 44:-0.622574 45:-0.491242 46:-0.543023 47:-0.558924 48:-0.860545 49:-0.813319 50:0.559669 51:0.564367 52:0.887783 53:-0.575976 54:-0.980131 55:-0.576651 56:-0.61979 57:-0.351008 58:0.74185 59:0.633919 60:0.358182 61:-0.490034 62:-0.0848136 63:-0.102835 64:-0.666103 
1.12893953426208 1.252969481551269 2.268874940181886 1.798480206939765 1:-0.93455 2:-0.212842 3:0.463407 4:0.137699 5:-0.738624 6:-0.927511 7:-0.830792 8:-0.432177 9:-0.650231 10:0.060782 11:-0.299721 12:0.252032 13:-0.816448 14:-0.70136 15:-0.822996 16:-0.785426 17:-0.737131 18:-0.917677 19:-0.821354 20:-0.754644 21:-0.919302 22:-0.857876 23:0.676914 24:0.917727 25:0.902821 26:-0.86259 27:-0.771215 28:-0.809236 29:0.17313 30:0.141444 31:-0.00102306 32:-0.784738 33:-0.792296 34:-0.824001 35:0.405482 36:0.731717 37:0.227838 38:-0.747143 39:-0.199653 40:-0.868306 41:-0.805038 42:-0.821758 43:-0.769068 44:-0.784447 45:-0.777548 46:-0.803568 47:-0.788642 48:-0.792542 49:-0.876018 50:0.853884 51:0.815654 52:0.875566 53:-0.627456 54:-0.682097 55:-0.701997 56:-0.330859 57:-0.773823 58:-0.0178997 59:0.0935579 60:-0.524476 61:0.516574 62:-0.170736 63:0.6258 64:-0.638526 
0.1565406627553177 1.508209036553434 1.802586096712522 1.339819357102641 1:-0.995228 2:-0.731789 3:0.513552 4:0.351902 5:-0.414418 6:-0.871139 7:-0.746483 8:-0.454648 9:0.630995 10:-0.188611 11:-0.281116 12:0.0705899 13:-0.77397 14:-0.198168 15:-0.705473 16:-0.477336 17:-0.34608 18:-0.857893 19:-0.714147 20:-0.471516 21:-0.871525 22:-0.786305 23:0.351363 24:0.964417 25:0.859848 26:-0.803768 27:-0.512778 28:-0.740643 29:0.309675 30:0.546039 31:0.31762 32:-0.664181 33:-0.384388 34:-0.218264 35:0.206195 36:0.669053 37:0.170187 38:-0.879252 39:-0.248774 40:-0.616964 41:-0.328302 42:-0.147022 43:-0.16706 44:-0.607895 45:-0.310388 46:-0.0787023 47:-0.694705 48:-0.369163 49:-0.172866 50:0.832066 51:0.817714 52:0.578281 53:-0.523941 54:-0.109279 55:0.113979 56:-0.00322514 57:-0.8167 58:0.327239 59:-0.0580615 60:-0.289516 61:-0.249132 62:0.120897 63:0.456173 64:0.161783 
0 0 0.5784033078925352 0 1:-0.927247 2:-0.588715 3:0.258214 4:0.690397 5:-0.391352 6:-0.77576 7:-0.707857 8:-0.450029 9:-0.271689 10:0.386005 11:-0.531967 12:-0.624472 13:-0.603747 14:-0.285102 15:-0.637865 16:-0.439332 17:-0.353052 18:-0.787675 19:-0.615586 20:-0.575741 21:-0.809616 22:-0.746188 23:0.434605 24:0.835187 25:0.932863 26:-0.879522 27:-0.661066 28:-0.536491 29:-0.134117 30:0.113757 31:-0.133863 32:-0.625281 33:-0.650602 34:-0.222103 35:0.0690525 36:0.438863 37:-0.429193 38:-0.478077 39:-0.754786 40:-0.599368 41:-0.430207 42:-0.419887 43:-0.365867 44:-0.530518 45:-0.633945 46:-0.229403 47:-0.485483 48:-0.720464 49:-0.374779 50:0.378512 51:0.708548 52:0.28914 53:-0.632438 54:-0.672796 55:-0.628879 56:0.0663171 57:-0.63461 58:0.391764 59:0.577126 60:-0.588567 61:0.699632 62:-0.290615 63:0.784923 64:-0.952286 
0.09550828378012481 2.003741815719721 1.637334342570432 2.230813919446525 1:0.978655 2:-0.499696 3:0.620133 4:-0.0419561 5:-0.649068 6:-0.901911 7:-0.781115 8:-0.782588 9:0.0940148 10:-0.052135 11:0.383963 12:-0.901279 13:-0.802448 14:-0.679674 15:-0.754656 16:-0.676705 17:-0.610254 18:-0.84842 19:-0.782998 20:-0.68772 21:-0.928347 22:-0.81899 23:0.509565 24:0.977771 25:0.862436 26:-0.982309 27:-0.644721 28:-0.801041 29:-0.133412 30:-0.193626 31:0.282443 32:-0.451432 33:-0.400512 34:-0.823726 35:0.371081 36:0.386621 37:-0.134894 38:-0.826371 39:-0.73401 40:-0.673533 41:-0.232435 42:-0.536515 43:-0.24574 44:-0.384269 45:-0.264891 46:-0.534883 47:-0.466268 48:-0.467878 49:-0.831385 50:0.523967 51:0.465499 52:0.903167 53:-0.485746 54:-0.5316 55:-0.587097 56:-0.695038 57:-0.783852 58:0.599145 59:0.697919 60:0.795895 61:-0.556194 62:-0.166029 63:-0.133411 64:-0.0364907 
0 0.7319848341638152 0.1611656981215321 0.6404813268994776 1:-0.0952296 2:0.0501392 3:0.312663 4:0.413311 5:-0.441546 6:-0.725021 7:-0.82173 8:0.460765 9:-0.190655 10:0.0852791 11:0.0616251 12:-0.595069 13:-0.822208 14:-0.413604 15:-0.68043 16:-0.530482 17:-0.434015 18:-0.739328 19:-0.766414 20:-0.384289 21:-0.754849 22:-0.859468 23:0.646453 24:0.799942 25:0.946645 26:-0.201191 27:-0.590871 28:-0.737608 29:-0.152291 30:0.256152 31:-0.119147 32:-0.769354 33:-0.558619 34:-0.182449 35:0.337207 36:0.873837 37:-0.603329 38:-0.841682 39:0.0430177 40:-0.275502 41:-0.504216 42:-0.295008 43:-0.342508 44:-0.618666 45:-0.560103 46:-0.190217 47:-0.770709 48:-0.558759 49:-0.357421 50:0.661488 51:0.817714 52:0.245249 53:-0.765292 54:-0.365039 55:-0.658372 56:-0.229944 57:0.332141 58:-0.713169 59:0.0947236 60:-0.725662 61:0.905461 62:-0.0415808 63:0.0846567 64:0.0304277 
1.137702413303556 2.48371562415 0 0 1:0.000988726 2:-0.248438 3:0.47803 4:0.377058 5:-0.790586 6:-0.932902 7:-0.80529 8:0.270141 9:0.256666 10:0.0887162 11:-0.197546 12:-0.753961 13:-0.765735 14:-0.695616 15:-0.889176 16:-0.787657 17:-0.785749 18:-0.917782 19:-0.760574 20:-0.75392 21:-0.945831 22:-0.837102 23:0.772513 24:0.971562 25:0.929094 26:-0.719896 27:-0.711595 28:-0.723207 29:0.166314 30:0.175978 31:0.159046 32:-0.69085 33:-0.506157 34:-0.543994 35:0.248165 36:0.339997 37:-0.576327 38:-0.870312 39:-0.865527 40:-0.314511 41:-0.445925 42:-0.570623 43:-0.459049 44:-0.694292 45:-0.504987 46:-0.460296 47:-0.69684 48:-0.620809 49:-0.637974 50:0.761322 51:0.681771 52:0.628507 53:-0.58594 54:-0.560347 55:-0.624578 56:-0.269404 57:0.0817982 58:-0.505288 59:0.153167 60:-0.0680419 61:0.235385 62:0.0578949 63:0.680342 64:-0.379558 
0.2915116855823388 0 0 0.06710525621362187 1:-0.059775 2:-0.181873 3:0.492749 4:0.533844 5:-0.197393 6:-0.693477 7:-0.54219 8:0.105834 9:-0.0687898 10:0.283601 11:-0.316533 12:-0.809513 13:-0.581821 14:-0.158618 15:-0.589294 16:-0.281821 17:-0.198153 18:-0.698017 19:-0.501794 20:-0.199994 21:-0.755939 22:-0.585437 23:0.471454 24:0.859792 25:0.845312 26:-0.108341 27:-0.44164 28:-0.367123 29:0.169291 30:0.5058 31:-0.363028 32:-0.162073 33:-0.337323 34:0.31124 35:0.183678 36:0.259866 37:-0.421048 38:-0.948903 39:-0.955911 40:-0.60574 41:-0.108567 42:-0.0477238 43:0.166052 44:-0.169219 45:-0.284365 46:0.343708 47:-0.195132 48:-0.517079 49:0.0598654 50:0.409587 51:0.709063 52:-0.198643 53:-0.230003 54:-0.398013 55:-0.537327 56:-0.755052 57:-0.257625 58:-0.244805 59:0.259219 60:-0.591782 61:0.965856 62:0.0610639 63:0.788897 64:-0.810539 
0 1.506098175315139 1.889174777840187 1.244099584209546 1:0.981944 2:-0.33142 3:0.55293 4:0.11526 5:-0.594757 6:-0.784883 7:-0.658591 8:-0.461931 9:0.55386 10:-0.57014 11:-0.460931 12:-0.335274 13:0.199204 14:-0.550884 15:-0.730893 16:-0.596301 17:-0.585321 18:-0.773758 19:-0.65607 20:-0.67215 21:-0.821326 22:-0.604298 23:0.592465 24:0.955207 25:0.674828 26:-0.83007 27:-0.389619 28:-0.695454 29:-0.231257 30:-0.196288 31:0.174628 32:-0.53296 33:-0.45312 34:-0.56599 35:0.897667 36:0.317603 37:0.139619 38:0.523066 39:-0.20232 40:-0.391252 41:-0.261476 42:-0.129418 43:-0.251523 44:-0.385956 45:-0.306067 46:-0.467944 47:-0.284799 48:-0.26136 49:-0.498052 50:0.385124 51:0.162719 52:0.680543 53:-0.366731 54:-0.501585 55:-0.311214 56:-0.685028 57:-0.254969 58:0.242066 59:-0.322207 60:-0.298721 61:0.76723 62:-0.360009 63:0.0353301 64:0.17712 
0.4002102921308106 0.3239758398180215 0.2254079912066582 0.2895923539273492 1:-0.108187 2:0.199878 3:0.641595 4:0.368186 5:-0.335315 6:-0.54088 7:-0.215643 8:0.729905 9:-0.273168 10:0.332051 11:0.372862 12:-0.533525 13:-0.671387 14:0.00133292 15:-0.499855 16:-0.181501 17:-0.31416 18:-0.533691 19:-0.205766 20:-0.357443 21:-0.589871 22:-0.366536 23:0.774469 24:0.709668 25:0.756419 26:0.0392484 27:-0.338936 28:-0.0847343 29:-0.101998 30:-0.513407 31:-0.301566 32:0.577105 33:0.0220058 34:0.21225 35:-0.333266 36:-0.0216358 37:-0.508381 38:-0.466139 39:-0.86343 40:-0.445256 41:0.159155 42:0.933434 43:0.666702 44:0.588256 45:0.272689 46:0.230354 47:0.878309 48:-0.0222501 49:-0.000708412 50:-1 51:-0.282698 52:-0.170588 53:-0.0185441 54:-0.544705 55:-0.604301 56:-0.533689 57:-0.314704 58:-0.467619 59:0.823257 60:0.637183 61:0.795358 62:-0.277993 63:-0.340565 64:-0.589731 
2.48371562415 0.3743398267739718 0.1629255174107611 0.1771975947966323 1:-0.524117 2:-0.0759475 3:-0.326449 4:-0.289966 5:-0.326059 6:0.13314 7:-0.119077 8:0.213029 9:-0.402397 10:-0.618528 11:-0.546856 12:-0.439514 13:0.249978 14:0.243762 15:-0.258777 16:0.101581 17:-0.326038 18:0.147896 19:-0.119792 20:-0.403553 21:-0.00456167 22:-0.0765998 23:0.557946 24:0.109488 25:0.169036 26:-0.368765 27:-0.157933 28:-0.512144 29:-0.0468468 30:-0.00642757 31:-0.255528 32:-0.300703 33:-0.487899 34:-0.26298 35:-0.363104 36:0.0337154 37:-0.373389 38:-0.159435 39:-0.844137 40:-0.631192 41:-0.466847 42:-0.133269 43:-0.202328 44:-0.282126 45:-0.437065 46:-0.248804 47:-0.0683177 48:-0.522093 49:-0.409139 50:-0.118678 51:0.373326 52:0.284615 53:-0.507888 54:-0.680406 55:-0.694624 56:-0.780881 57:-0.526189 58:-0.427451 59:0.476686 60:0.382882 61:-0.181061 62:-0.202898 63:-0.0379418 64:-0.605823 
0.02534237646752559 0.2050074096058616 0.3083034612054258 0.347835920970064 1:-0.0591076 2:0.372808 3:0.312138 4:-0.743477 5:0.0639271 6:-0.532587 7:0.241528 8:0.777022 9:0.0242031 10:-0.630202 11:0.323164 12:-0.752669 13:0.267329 14:0.194581 15:0.125683 16:0.263292 17:0.0949863 18:-0.54955 19:0.25924 20:-0.0696774 21:-0.612702 22:0.315343 23:0.780848 24:0.759379 25:-0.186059 26:0.59757 27:-0.279021 28:-0.340876 29:-0.153467 30:-0.415434 31:-0.397104 32:0.121402 33:-0.00875101 34:0.176962 35:-0.00859514 36:-0.0399392 37:-0.392601 38:-0.533046 39:-0.755197 40:-0.604482 41:0.122098 42:0.53789 43:0.45045 44:0.157687 45:0.189545 46:0.224028 47:0.392827 48:-0.0617361 49:-0.0513638 50:-0.44595 51:-0.221936 52:-0.157919 53:-0.184058 54:-0.548087 55:-0.674962 56:-0.404954 57:-0.749506 58:-0.422289 59:0.705097 60:0.597632 61:0.630475 62:-0.0422099 63:0.522809 64:-0.335235 
1.439908337130616 0.7262699805122714 0.8918719285649858 0.7708945089093131 1:0.198821 2:-0.567673 3:0.743728 4:-0.202347 5:-0.156579 6:0.138095 7:-0.55542 8:0.852553 9:-0.288211 10:0.409207 11:0.607599 12:-0.201135 13:-0.586611 14:0.146142 15:-0.315039 16:0.0329577 17:-0.130806 18:0.129631 19:-0.555419 20:-0.195673 21:0.246433 22:-0.645932 23:0.651321 24:0.178772 25:0.838556 26:0.165777 27:0.751554 28:-0.498615 29:-0.0260869 30:-0.0799833 31:-0.249784 32:0.612353 33:-0.0827856 34:-0.329578 35:-0.00985976 36:-0.327595 37:-0.190837 38:-0.617304 39:-0.254289 40:-0.89069 41:0.226918 42:0.468024 43:0.38491 44:0.610792 45:-0.0309418 46:-0.315519 47:0.988471 48:0.069884 49:-0.540205 50:-0.845289 51:-0.398558 52:0.432579 53:0.253806 54:-0.515536 55:-0.721045 56:-0.756563 57:-0.858158 58:-0.0871736 59:0.197756 60:-0.0836004 61:-0.0609023 62:-0.414904 63:-0.539148 64:-0.467675 
1.578511485551309 0.7203558021257416 0.6089569414324235 0.3144600966932906 1:-0.231549 2:0.0574905 3:0.311421 4:0.269425 5:-0.199335 6:-0.0397675 7:-0.0473586 8:0.763433 9:-0.558072 10:0.738509 11:0.448486 12:0.0827956 13:0.359184 14:-0.129145 15:0.12743 16:0.101187 17:-0.193849 18:-0.063524 19:-0.045276 20:-0.197578 21:-0.029904 22:0.0190579 23:0.680265 24:0.177315 25:0.663035 26:0.204928 27:-0.0592155 28:0.520546 29:-0.367098 30:-0.352908 31:0.00259699 32:-0.0781994 33:-0.391942 34:-0.49142 35:0.371267 36:0.295164 37:-0.264162 38:-0.69041 39:-0.748974 40:-0.779602 41:-0.0369522 42:-0.291157 43:0.0221817 44:0.0777462 45:-0.154275 46:-0.486596 47:0.00341587 48:-0.426825 49:-0.622742 50:0.0757025 51:0.286303 52:0.608145 53:-0.252145 54:-0.623335 55:-0.625806 56:-0.0386069 57:-0.143123 58:0.166005 59:0.139598 60:0.203173 61:-0.413905 62:0.12284 63:-0.0648761 64:0.0803663 
2.48371562415 1.394200627519283 1.209488996743751 0.5207458447219312 1:0.278836 2:-0.147281 3:0.685242 4:0.417367 5:-0.619414 6:-0.565616 7:-0.561428 8:0.331995 9:0.544735 10:0.405204 11:-0.599222 12:-0.184399 13:-0.571914 14:-0.464576 15:-0.551324 16:-0.491449 17:-0.619962 18:-0.549801 19:-0.534881 20:-0.66917 21:-0.583432 22:-0.645961 23:0.758047 24:0.882324 25:0.901841 26:-0.579624 27:0.119557 28:-0.390678 29:-0.0650215 30:0.105313 31:-0.216416 32:-0.434733 33:-0.591241 34:-0.392604 35:0.267368 36:-0.163086 37:-0.291573 38:-0.416355 39:-0.511531 40:-0.754835 41:-0.537941 42:-0.38908 43:-0.365735 44:-0.402651 45:-0.574503 46:-0.386663 47:-0.204099 48:-0.511125 49:-0.557209 50:0.262149 51:0.38105 52:0.453394 53:-0.365071 54:-0.659269 55:-0.722273 56:-0.618287 57:-0.650402 58:-0.458239 59:-0.121535 60:-0.422749 61:-0.315415 62:-0.11847 63:-0.256813 64:-0.648769 
2.415019141157189 0.1205585021042247 0.3181987959431469 0.4911878633457237 1:-0.293945 2:-0.108988 3:0.488961 4:0.531703 5:-0.374618 6:-0.113101 7:-0.371703 8:0.079541 9:-0.318977 10:0.494255 11:-0.618683 12:-0.309655 13:-0.4514 14:-0.0998211 15:-0.29954 16:-0.133859 17:-0.375169 18:-0.132224 19:-0.342584 20:-0.44104 21:-0.157484 22:-0.483062 23:0.614297 24:0.336233 25:0.868696 26:-0.356971 27:-0.0271175 28:-0.124209 29:0.0268704 30:-0.0541209 31:-0.0395058 32:0.142276 33:-0.382519 34:-0.301955 35:0.000769914 36:-0.293653 37:-0.467095 38:-0.5289 39:-0.491843 40:-0.467145 41:-0.20381 42:-0.0325952 43:0.0182206 44:0.137892 45:-0.320488 46:-0.306772 47:0.479932 48:-0.369477 49:-0.417287 50:-0.368595 51:0.11277 52:0.342986 53:-0.00636583 54:-0.688438 55:-0.629493 56:-0.96428 57:-0.932985 58:0.301444 59:0.9327 60:0.875403 61:-0.493338 62:-0.682593 63:-0.827555 64:-0.365786 
1.825859313480706 0.9341349828653657 1.080072782602699 0.9915993992395185 1:-0.573405 2:-0.485595 3:0.0170719 4:-0.848696 5:-0.567627 6:0.730257 7:0.16899 8:-0.125378 9:-0.882578 10:-0.898306 11:-0.694451 12:0.721142 13:0.72379 14:0.257854 15:0.382054 16:0.449453 17:-0.537283 18:0.701904 19:0.196527 20:-0.618824 21:0.689265 22:0.107432 23:0.621312 24:-0.652739 25:-0.217588 26:-0.685712 27:-0.072669 28:-0.806971 29:-0.367881 30:-0.502605 31:-0.246242 32:-0.260216 33:-0.221827 34:-0.0198305 35:0.338445 36:-0.000575157 37:-0.281154 38:-0.841231 39:-0.874258 40:-0.837358 41:0.0677631 42:-0.193508 43:0.225172 44:-0.0715863 45:0.0765563 46:-0.0115717 47:-0.337319 48:-0.311188 49:-0.328374 50:0.334215 51:-0.104531 52:0.228959 53:-0.477443 54:-0.788205 55:-0.630108 56:0.10121 57:0.0486778 58:0.0915982 59:0.423706 60:0.603375 61:-0.390504 62:0.34529 63:0.438205 64:-0.101928 
2.48371562415 0.1567032250407744 0.08517669346756573 0 1:0.228809 2:-0.108488 3:1 4:0.0881395 5:-0.49762 6:-0.361042 7:-0.673686 8:0.662118 9:0.341138 10:0.210392 11:0.34243 12:-0.666255 13:-0.874562 14:-0.262016 15:-0.487468 16:-0.381692 17:-0.497984 18:-0.304363 19:-0.672394 20:-0.452913 21:-0.51238 22:-0.784465 23:0.701272 24:0.910473 25:0.894397 26:-0.251053 27:0.398755 28:-0.678036 29:0.0495887 30:-0.205492 31:-0.136224 32:-0.228998 33:-0.627616 34:-0.658505 35:0.340547 36:0.0116259 37:-0.180916 38:-0.753499 39:-0.837166 40:-0.92608 41:-0.377641 42:-0.425664 43:-0.307655 44:-0.233292 45:-0.429672 46:-0.666872 47:-0.166524 48:-0.682858 49:-0.761955 50:0.315041 51:0.436148 52:0.68733 53:-0.272073 54:-0.845699 55:-0.759754 56:-0.439129 57:-0.366699 58:-0.351445 59:0.249609 60:0.0250232 61:-0.920203 62:-0.045914 63:0.0535735 64:-0.399313 
1.426022754089052 1.004444579781408 2.48371562415 2.48371562415 1:0.809075 2:-0.150542 3:0.368173 4:-0.0334863 5:-0.802612 6:-0.793321 7:-0.776489 8:-0.598951 9:0.613177 10:-0.196502 11:-0.0457227 12:-0.254321 13:-0.722989 14:-0.715318 15:-0.777393 16:-0.776844 17:-0.802957 18:-0.805541 19:-0.778314 20:-0.821618 21:-0.838056 22:-0.806928 23:0.716708 24:0.949597 25:0.820638 26:-0.931515 27:-0.45277 28:-0.848449 29:-0.431806 30:-0.695889 31:0.168175 32:-0.575257 33:-0.653637 34:-0.787407 35:0.13307 36:0.133823 37:0.0821463 38:-0.837212 39:-0.87031 40:-0.939526 41:0.168211 42:-0.351121 43:-0.0502616 44:-0.234695 45:-0.00583072 46:-0.63651 47:-0.54398 48:-0.689439 49:-0.842721 50:0.306446 51:0.259011 52:0.906335 53:-0.768613 54:-1 55:-0.602458 56:0.0112923 57:0.0873054 58:0.188652 59:-0.27546 60:-0.312555 61:-0.426624 62:-0.213902 63:-0.291899 64:-0.297809 
2.48371562415 0 0.9668317145248585 0.6290348477001353 1:0.654528 2:-0.204561 3:0.37224 4:0.0499117 5:-0.857977 6:-0.616402 7:-0.762669 8:-0.519143 9:0.684769 10:-0.011015 11:-0.426154 12:0.109811 13:-1 14:-0.62928 15:-0.760998 16:-0.720592 17:-0.855999 18:-0.631441 19:-0.762078 20:-0.899399 21:-0.644412 22:-0.863548 23:0.783943 24:0.897017 25:0.895377 26:-0.980491 27:-0.0211205 28:-0.833188 29:0.00869566 30:0.207013 31:-0.00417093 32:-0.473472 33:-0.737113 34:-0.812115 35:0.744205 36:0.636404 37:-0.760399 38:-0.221048 39:-0.260848 40:0.478979 41:-0.584157 42:-0.456471 43:-0.599201 44:-0.465631 45:-0.738269 46:-0.79484 47:-0.399658 48:-0.710436 49:-0.785335 50:0.666777 51:0.773944 52:0.71267 53:-0.279823 54:-0.60558 55:-0.765899 56:-0.997732 57:-0.882641 58:0.587767 59:0.920341 60:1 61:-0.878362 62:-0.0323317 63:0.33647 64:-0.662571 
0.8184625453008532 0.7143969113426218 0.1888447238275774 0.4408709025152944 1:0.879205 2:-0.266669 3:0.596486 4:-0.191133 5:-0.282735 6:-0.654831 7:-0.554645 8:-0.575176 9:0.501599 10:-0.123349 11:-0.26271 12:-0.454318 13:-0.85321 14:-0.143585 15:-0.530803 16:-0.342733 17:-0.281007 18:-0.647063 19:-0.555067 20:-0.443322 21:-0.73346 22:-0.650045 23:0.332026 24:0.929165 25:0.740838 26:-0.778574 27:-0.199324 28:-0.673526 29:0.0904818 30:-0.192865 31:1 32:-0.0662741 33:-0.419347 34:-0.466591 35:0.444952 36:0.394733 37:-0.185898 38:-0.778232 39:-0.685574 40:-0.785914 41:0.354429 42:-0.246596 43:0.236014 44:-0.0748605 45:-0.280825 46:0.421115 47:-0.134073 48:-0.465371 49:-0.562876 50:0.49157 51:0.391864 52:1 53:-0.0822031 54:-0.58867 55:0.0101383 56:-0.782559 57:-0.848607 58:0.343883 59:0.752393 60:0.811339 61:-0.357351 62:0.024756 63:0.301601 64:-0.338348 
0.6941653167955082 0.6211963743111191 0.6404442012927734 0.5499663388979968 1:-0.234068 2:-0.267945 3:0.584274 4:1 5:-0.0275427 6:-0.29059 7:-0.00890778 8:0.0488765 9:-0.748785 10:0.157372 11:-0.613348 12:0.424343 13:-0.715378 14:0.28855 15:-0.236097 16:0.151229 17:-0.02667 18:-0.299968 19:0.0540313 20:-0.153126 21:-0.281894 22:-0.147054 23:0.410183 24:0.374967 25:0.602352 26:-0.109513 27:-0.291825 28:0.0875896 29:0.0833529 30:-0.20534 31:-0.17817 32:0.748522 33:0.491125 34:0.600086 35:0.372796 36:0.217702 37:-0.384132 38:-0.683666 39:-0.781495 40:-0.563621 41:0.654627 42:0.518361 43:0.992657 44:0.737754 45:0.556326 46:0.599164 47:1 48:0.413663 49:0.424017 50:-0.356033 51:-0.296601 52:-0.257919 53:0.678384 54:0.0319171 55:0.0138249 56:-0.72736 57:-0.620564 58:-0.205026 59:0.520713 60:0.218253 61:0.680096 62:-0.0432473 63:0.190315 64:-0.968662 
2.48371562415 0 0.8320064891672819 1.511120894111019 1:0.834959 2:-0.334059 3:0.497937 4:-0.0999056 5:-0.759046 6:-0.736389 7:-0.790447 8:-0.561931 9:0.311907 10:-0.25306 11:-0.04468 12:-0.770195 13:-0.776499 14:-0.698187 15:-0.794837 16:-0.728672 17:-0.744066 18:-0.738201 19:-0.791861 20:-0.778045 21:-0.817818 22:-0.84528 23:0.654529 24:0.937072 25:0.833098 26:-0.940315 27:-0.425558 28:-0.903241 29:0.158245 30:0.0656068 31:0.276698 32:-0.306623 33:-0.387841 34:-0.842868 35:0.704526 36:0.340099 37:-0.0774352 38:-0.43004 39:-0.625438 40:-0.817629 41:-0.402519 42:-0.337643 43:-0.281563 44:-0.313953 45:-0.367209 46:-0.54932 47:-0.282237 48:-0.355061 49:-0.8661 50:0.68 51:0.377446 52:0.933032 53:-0.116524 54:-0.451702 55:-0.606759 56:-0.703769 57:-0.442279 58:0.260781 59:0.900752 60:0.601238 61:-0.441353 62:-0.103919 63:0.23319 64:0.548973 
0 0 0 0.005433087535900579 1:0.935832 2:-0.445498 3:0.649177 4:-0.142587 5:-0.517574 6:-0.770245 7:-0.621151 8:-0.60899 9:0.45659 10:0.558951 11:-0.23198 12:-0.478672 13:0.0168076 14:-0.557419 15:-0.614071 16:-0.521805 17:-0.496054 18:-0.739169 19:-0.622577 20:-0.647048 21:-0.816707 22:-0.612798 23:0.485218 24:0.970174 25:0.832259 26:-0.940721 27:-0.338015 28:-0.443655 29:0.282413 30:-0.307496 31:0.352404 32:-0.160447 33:-0.175961 34:-0.648811 35:0.619796 36:0.104811 37:-0.558914 38:-0.537862 39:-0.701369 40:-0.0894438 41:-0.02977 42:-0.135195 43:0.0362471 44:-0.148352 45:-0.0120379 46:-0.370679 47:-0.124253 48:-0.142275 49:-0.648247 50:0.685289 51:0.0339856 52:0.717647 53:0.0927208 54:-0.446629 55:-0.521352 56:-0.805738 57:-0.557878 58:0.5691 59:1 60:0.577407 61:-0.175152 62:0.46122 63:0.657804 64:-0.465037 
2.48371562415 1.291743988057794 0.8397077710847209 2.473355989372561 1:-0.681779 2:-0.174302 3:0.366208 4:0.0759064 5:-0.692649 6:-0.745182 7:-0.664835 8:0.140997 9:-0.719371 10:-0.088236 11:-0.82552 12:0.373285 13:-0.464675 14:-0.573201 15:-0.762207 16:-0.654734 17:-0.692802 18:-0.758337 19:-0.664238 20:-0.791521 21:-0.73931 22:-0.642252 23:0.809625 24:0.746326 25:0.746326 26:-0.736759 27:-0.682027 28:-0.648707 29:0.0561692 30:0.0597497 31:-0.11655 32:-0.711931 33:-0.713988 34:-0.519822 35:-0.241357 36:0.0786746 37:-0.265345 38:-0.516907 39:-1 40:-0.79099 41:-0.624441 42:-0.625086 43:-0.579888 44:-0.710155 45:-0.670759 46:-0.529438 47:-0.656704 48:-0.80445 49:-0.621325 50:0.553058 51:0.661689 52:0.576018 53:-0.708276 54:-0.824561 55:-0.666974 56:-0.487848 57:0.132194 58:0.093679 59:0.396495 60:0.109204 61:-0.29593 62:-0.332753 63:-0.106724 64:-0.210488 
0 1.15811057724081 0.9460253403072498 0.9960822506151303 1:-0.135201 2:-0.0979271 3:0.383119 4:0.215597 5:-0.255379 6:-0.558897 7:-0.604059 8:0.261626 9:-0.242598 10:0.650086 11:-0.773942 12:-0.883894 13:0.0297058 14:0.106701 15:-0.564222 16:-0.322199 17:-0.255934 18:-0.574512 19:-0.59589 20:-0.477309 21:-0.723516 22:-0.642385 23:0.636167 24:0.77618 25:0.91814 26:-0.393824 27:-0.559874 28:-0.355773 29:-0.0223267 30:-0.227551 31:-0.428897 32:-0.279775 33:0.129455 34:0.0203227 35:-0.356916 36:-0.174344 37:-0.265317 38:-0.565483 39:-0.742979 40:-0.698672 41:0.108567 42:0.34672 43:0.285234 44:-0.269073 45:0.221859 46:0.0871717 47:-0.239539 48:0.0219367 49:-0.111938 50:0.0406612 51:-0.365087 52:0.0294118 53:-0.596457 54:-0.552737 55:-0.525653 56:0.288483 57:0.230318 58:-0.438628 59:-0.0584661 60:-0.03504 61:0.56373 62:-0.351984 63:-0.317929 64:-0.0548307 
0.9108876499786827 1.021495951519516 0.1745847400773983 1.664918813662044 1:-0.211708 2:-0.263628 3:0.375617 4:-0.0515731 5:-0.61459 6:-0.639028 7:-0.949711 8:0.538558 9:-0.662112 10:-0.258278 11:-0.0170545 12:0.152264 13:-0.28491 14:-0.532326 15:-0.718108 16:-0.656141 17:-0.610879 18:-0.653601 19:-0.950966 20:-0.613189 21:-0.652837 22:-0.932098 23:0.756706 24:0.668308 25:0.915217 26:-0.474828 27:-0.628161 28:-0.935266 29:0.353153 30:0.361959 31:-0.140316 32:-0.597606 33:-0.354463 34:-0.205162 35:-0.161297 36:-0.243037 37:-0.312041 38:-0.702032 39:-0.731433 40:-0.798795 41:-0.325075 42:-0.392931 43:-0.22269 44:-0.524002 45:-0.343373 46:-0.211971 47:-0.546541 48:-0.429333 49:-0.444917 50:0.683967 51:0.373326 52:0.352941 53:-0.455854 54:-0.555274 55:-0.663902 56:0.737481 57:0.68692 58:-0.347076 59:-0.650886 60:-0.557294 61:0.422178 62:-0.355506 63:-0.286406 64:0.130756 
0.6359521522276368 0.7778800282110871 0.8538714275555428 1.008682393489415 1:-0.450932 2:-0.509166 3:0.569046 4:0.633314 5:-0.319026 6:-0.133013 7:-0.109411 8:-0.483815 9:-0.670252 10:0.68793 11:-0.428461 12:0.298287 13:-0.0463411 14:-0.162208 15:-0.295015 16:0.00925814 17:-0.295757 18:-0.147466 19:-0.081443 20:-0.486715 21:-0.0839571 22:-0.250652 23:0.36815 24:0.254302 25:0.882087 26:-0.807944 27:-0.0210261 28:0.359515 29:0.24105 30:-1 31:-0.16243 32:0.081915 33:0.112867 34:1 35:-0.012715 36:0.123872 37:-0.608357 38:-0.419633 39:-0.894351 40:-0.122848 41:0.784636 42:0.978545 43:1 44:0.081458 45:0.68093 46:1 47:0.45474 48:-0.0250706 49:1 50:-0.285289 51:-0.463955 52:-1 53:0.0307225 54:-0.697316 55:0.00522277 56:-0.656524 57:-0.470024 58:0.266918 59:0.848444 60:0.361413 61:0.604909 62:-0.463342 63:0.077979 64:-0.995804 
1.013704911694729 0 0 0.02391888747100885 1:-0.219649 2:-0.365301 3:0.298754 4:0.61735 5:-0.308462 6:-0.348344 7:-0.239059 8:0.152368 9:-0.111588 10:0.428515 11:-0.476312 12:-0.448755 13:-0.496249 14:-0.0480091 15:-0.471954 16:-0.128382 17:-0.300517 18:-0.367785 19:-0.207243 20:-0.358504 21:-0.327855 22:-0.358875 23:0.5597 24:0.532732 25:0.822538 26:-0.280244 27:-0.0242916 28:0.0432871 29:-0.0785742 30:-0.552352 31:-0.202802 32:0.0929521 33:-0.255625 34:0.335705 35:-0.394381 36:0.480667 37:-0.544579 38:0.0297465 39:-0.548532 40:-0.409194 41:0.30051 42:0.772246 43:0.424147 44:0.10846 45:0.0885687 46:0.336212 47:0.599488 48:-0.248511 49:0.025859 50:-0.724959 51:0.0741504 52:-0.176471 53:-0.149737 54:-0.556965 55:-0.566206 56:-0.915664 57:-0.806729 58:-0.425231 59:0.912143 60:0.533029 61:0.615153 62:-0.303632 63:0.295378 64:-0.92453 
0.5689384160002003 0.6946348234278464 0.7696287145405052 0.7559053648874843 1:-0.166048 2:-0.159057 3:0.0581715 4:0.433396 5:0.592454 6:0.0586888 7:-0.166929 8:0.479994 9:-0.40694 10:0.38328 11:-0.0676864 12:-0.166905 13:-0.491139 14:0.92346 15:0.000570633 16:0.521204 17:0.590682 18:0.0408227 19:-0.153664 20:0.5128 21:0.109756 22:-0.24619 23:0.301472 24:0.126304 25:0.704628 26:1 27:0.218763 28:0.0655324 29:-0.182374 30:-0.677329 31:-0.161092 32:0.145526 33:-0.340781 34:0.877017 35:0.174285 36:0.53007 37:-0.480497 38:-0.544836 39:-0.378775 40:-0.509334 41:0.416675 42:0.696328 43:0.707107 44:0.190613 45:0.132423 46:0.876348 47:0.491033 48:-0.293952 49:0.486362 50:-0.387107 51:0.162204 52:-0.537557 53:-0.00747295 54:-0.545973 55:-0.257757 56:-0.710948 57:-0.442595 58:-0.314491 59:0.979521 60:0.627037 61:0.656071 62:-0.207441 63:0.157577 64:-0.767251 
0.5377210124730188 0.5832982958159197 0.05049554559501804 0.2893671691444536 1:-0.104025 2:0.120874 3:-0.0848701 4:0.289365 5:0.0436989 6:-0.423757 7:-0.290035 8:0.733384 9:0.0241284 10:0.202103 11:0.333841 12:-0.705737 13:-0.62882 14:0.180681 15:-0.346481 16:0.0188232 17:0.051212 18:-0.411694 19:-0.283658 20:-0.0111429 21:-0.491665 22:-0.343073 23:0.65348 24:0.601151 25:0.69828 26:0.520948 27:-0.328471 28:-0.13742 29:-0.425695 30:0.344084 31:-0.369796 32:0.0934698 33:-0.392387 34:0.180022 35:0.0250897 36:-0.0883028 37:-0.221274 38:-0.73816 39:-0.664507 40:-0.752092 41:0.0359113 42:-0.0496493 43:0.241364 44:0.260623 45:-0.3841 46:0.217806 47:0.282237 48:-0.359135 49:3.7827e-08 50:-0.459174 51:0.345005 52:0.017647 53:-0.3385 54:-0.48383 55:-0.347465 56:-0.0384881 57:-0.0617866 58:-0.122816 59:0.498415 60:0.220883 61:-0.236724 62:0.435161 63:0.565253 64:-0.687231 
2.48371562415 0 0 0.8407804936139573 1:0.957682 2:-0.21864 3:0.478419 4:0.257541 5:-0.790836 6:-0.864646 7:-0.703528 8:-0.562061 9:0.740215 10:0.450472 11:-0.156403 12:0.280401 13:-0.493523 14:-0.702562 15:-0.800621 16:-0.739799 17:-0.788544 18:-0.860115 19:-0.68745 20:-0.824578 21:-0.875865 22:-0.758356 23:0.703477 24:0.975938 25:0.904474 26:-0.956718 27:-0.496111 28:-0.609067 29:0.15425 30:0.21926 31:-0.0099158 32:-0.62075 33:-0.845665 34:-0.787939 35:-0.0849129 36:-0.0441741 37:-0.554289 38:-0.303 39:-0.805595 40:-0.254648 41:-0.791298 42:-0.662495 43:-0.72119 44:-0.626737 45:-0.847612 46:-0.775872 47:-0.458582 48:-0.861485 49:-0.807297 50:0.481653 51:0.786303 52:0.727602 53:-0.51121 54:-0.799197 55:-0.783717 56:0.372451 57:0.412605 58:0.856269 59:0.394132 60:-0.0562634 61:-0.661932 62:-0.332524 63:-0.237181 64:-0.861195 
1.098514962598718 2.48371562415 2.48371562415 2.48371562415 1:0.733305 2:-0.145029 3:0.284632 4:0.0946287 5:-0.907591 6:-0.855511 7:-0.894892 8:-0.313964 9:0.653878 10:-0.106134 11:-0.640411 12:0.169306 13:-0.879284 14:-0.872154 15:-0.911586 16:-0.896765 17:-0.907847 18:-0.867231 19:-0.886772 20:-0.913335 21:-0.858325 22:-0.922049 23:0.834457 24:0.936388 25:0.925654 26:-0.932403 27:-0.545604 28:-0.897528 29:-0.136702 30:0.14365 31:0.0566617 32:-0.709238 33:-0.524622 34:-0.829187 35:-0.157743 36:-0.191443 37:0.160238 38:-0.786506 39:-0.745808 40:-0.847726 41:-0.603831 42:-0.501307 43:-0.534794 44:-0.592183 45:-0.518533 46:-0.766304 47:-0.720325 48:-0.546224 49:-0.852285 50:0.530579 51:0.439238 52:0.883258 53:-0.809577 54:-0.658846 55:-0.650384 56:0.0810772 57:0.144812 58:0.308217 59:-0.000530116 60:-0.248167 61:-0.067178 62:0.84586 63:0.791915 64:-0.251552 
2.48371562415 0 0 2.205644024432401 1:-0.562187 2:-0.206215 3:0.160118 4:0.271319 5:-0.799964 6:-0.623569 7:-0.629898 8:-0.175369 9:0.0198878 10:0.129295 11:-0.796462 12:-0.584283 13:-0.611282 14:-0.532473 15:-0.776119 16:-0.633853 17:-0.798418 18:-0.632096 19:-0.615898 20:-0.848075 21:-0.630601 22:-0.626153 23:0.77159 24:0.730098 25:0.795253 26:-0.900854 27:-0.405865 28:-0.53329 29:0.00979241 30:0.28673 31:-0.179665 32:-0.463154 33:-0.621236 34:-0.316971 35:0.551525 36:0.0679506 37:-0.29312 38:-0.448798 39:-0.847291 40:-0.67501 41:-0.504736 42:-0.380278 43:-0.376648 44:-0.455928 45:-0.619701 46:-0.319434 47:-0.3924 48:-0.691946 49:-0.407722 50:0.625124 51:0.659629 52:0.364706 53:-0.305286 54:-0.674487 55:-0.58341 56:-0.450368 57:-0.546816 58:0.497909 59:0.549186 60:0.215634 61:0.00288064 62:0.13426 63:0.413887 64:-0.317229 
0.09003647267787877 0 0 0 1:-0.0509432 2:-0.101993 3:0.333498 4:0.0535099 5:-0.0979326 6:-0.780104 7:-0.704232 8:0.922764 9:-0.172637 10:0.574787 11:0.770592 12:-0.48246 13:-0.0802658 14:-0.195422 15:-0.494158 16:-0.29012 17:-0.0987597 18:-0.793578 19:-0.704166 20:-0.157113 21:-0.779957 22:-0.72061 23:0.742231 24:0.82317 25:0.903091 26:0.373711 27:-0.605049 28:-0.536574 29:0.0929103 30:0.243753 31:-0.162824 32:-0.617308 33:-0.680114 34:-0.482968 35:0.0521124 36:-0.0206058 37:-0.314019 38:-0.888926 39:-0.825943 40:-0.685566 41:-0.628604 42:-0.625911 43:-0.5386 44:-0.623811 45:-0.682169 46:-0.487653 47:-0.625961 48:-0.715763 49:-0.567127 50:0.621157 51:0.65036 52:0.483258 53:-0.611403 54:-0.714225 55:-0.698925 56:-0.198189 57:-0.102055 58:-0.58891 59:0.100423 60:-0.0614399 61:0.247067 62:0.0983925 63:0.156352 64:-0.255329 
0.5634029881294892 2.48371562415 2.48371562415 2.48371562415 1:0.795149 2:-0.200285 3:0.444051 4:-0.196897 5:-0.784276 6:-0.783387 7:-0.660123 8:-0.404493 9:0.257333 10:0.109057 11:-0.400655 12:-0.241022 13:-0.888427 14:-0.508806 15:-0.775496 16:-0.704326 17:-0.783178 18:-0.789689 19:-0.659208 20:-0.793648 21:-0.754211 22:-0.761801 23:0.720254 24:0.867498 25:0.8259 26:-0.872922 27:-0.41697 28:-0.749982 29:0.044105 30:0.219868 31:0.0198316 32:-0.445276 33:-0.0153397 34:-0.731465 35:-0.0415309 36:-0.207557 37:0.277324 38:-0.831111 39:-0.627269 40:-0.701195 41:-0.172478 42:-0.105763 43:-0.138741 44:-0.44635 45:-0.0167197 46:-0.708959 47:-0.40649 48:-0.0329051 49:-0.76904 50:0.367273 51:-0.104531 52:0.821267 53:-0.539441 54:-0.412809 55:-0.590169 56:0.450332 57:0.633431 58:-0.205009 59:-0.155608 60:-0.318188 61:-0.334011 62:-0.181978 63:0.11267 64:0.431928 
0.1392134943611013 0 0 0 1:-0.204642 2:-0.0188551 3:0.219357 4:0.141361 5:-0.652977 6:-0.636882 7:-0.678958 8:0.44397 9:-0.235135 10:0.350932 11:-0.169175 12:-0.287389 13:-0.55316 14:-0.597206 15:-0.721199 16:-0.601417 17:-0.648337 18:-0.649469 19:-0.674397 20:-0.644824 21:-0.619532 22:-0.713428 23:0.784611 24:0.693178 25:0.879064 26:-0.49392 27:-0.467555 28:-0.563335 29:-0.0178613 30:0.211121 31:-0.149681 32:-0.515299 33:-0.330862 34:-0.217843 35:0.880876 36:-0.0435073 37:-0.501347 38:0.230259 39:-0.782521 40:-0.404715 41:-0.395753 42:-0.233118 43:-0.214285 44:-0.497143 45:-0.332344 46:-0.223957 47:-0.388984 48:-0.374804 49:-0.361318 50:0.666777 51:0.363028 52:0.274208 53:-0.265984 54:-0.490171 55:-0.625806 56:-0.1329 57:0.0463287 58:-0.63109 59:0.466816 60:0.117511 61:0.213232 62:0.713102 63:0.494499 64:-0.277484 
0 0.03131200519268685 0 0.4423464269221705 1:-0.125805 2:-0.210751 3:0.328441 4:-0.157877 5:-0.234049 6:-0.537984 7:-0.652593 8:0.595717 9:-0.118191 10:-0.0297891 11:0.161789 12:-0.392213 13:-0.826446 14:-0.221229 15:-0.474391 16:-0.319928 17:-0.234266 18:-0.554867 19:-0.653329 20:-0.208687 21:-0.510481 22:-0.71949 23:0.583112 24:0.659055 25:0.803898 26:0.0401278 27:-0.235967 28:-0.703624 29:0.0864865 30:0.227855 31:-0.363579 32:-0.526247 33:-0.490447 34:0.342164 35:0.235666 36:0.0305781 37:-0.308385 38:-0.871464 39:-0.853349 40:-0.78515 41:-0.00811908 42:-0.208912 43:0.00695046 44:-0.532656 45:-0.492441 46:0.374142 47:-0.557216 48:-0.537762 49:-0.0297555 50:0.646942 51:0.519053 52:0.0099547 53:-0.500692 54:-0.581907 55:-0.409524 56:-0.3893 57:-0.166913 58:-0.502346 59:0.524068 60:0.187233 61:-0.00780741 62:0.0982953 63:0.350267 64:-0.0159281 
1.82947556599397 1.566620205679296 2.113062913926346 2.48371562415 1:0.829789 2:-0.214157 3:0.38113 4:-0.143042 5:-0.692195 6:-0.78503 7:-0.820595 8:-0.507779 9:0.508907 10:0.0853343 11:-0.367647 12:-0.146487 13:-0.906855 14:-0.598235 15:-0.768063 16:-0.727456 17:-0.690914 18:-0.796727 19:-0.820206 20:-0.7692 21:-0.786175 22:-0.875722 23:0.651227 24:0.910072 25:0.88635 26:-0.928324 27:-0.401903 28:-0.872733 29:0.0600078 30:0.189518 31:0.147242 32:-0.735486 33:-0.546825 34:-0.528907 35:0.0911693 36:0.0551795 37:-0.344446 38:-0.86959 39:-0.744284 40:-0.337958 41:-0.59363 42:-0.525237 43:-0.489616 44:-0.734064 45:-0.546898 46:-0.454988 47:-0.730572 48:-0.548417 49:-0.507262 50:0.72562 51:0.478888 52:0.563348 53:-0.659563 54:-0.629254 55:-0.486329 56:-0.215468 57:0.330618 58:0.403495 59:0.237203 60:-0.217574 61:-0.530646 62:-0.348065 63:0.172858 64:0.375371 
0 0.1884373218012277 0 0 1:-0.0572995 2:-0.309618 3:0.407942 4:0.0959073 5:-0.0216115 6:-0.735664 7:-0.723761 8:0.915234 9:-0.222126 10:0.614977 11:0.755839 12:-0.400227 13:0.0641102 14:0.0199336 15:-0.353701 16:-0.229401 17:-0.0191678 18:-0.746764 19:-0.721248 20:-0.0869248 21:-0.728308 22:-0.727863 23:0.69363 24:0.793501 25:0.908002 26:0.435748 27:-0.529761 28:-0.542578 29:0.00626714 30:0.359449 31:-0.0606752 32:-0.561303 33:-0.570011 34:-0.391637 35:0.622115 36:-0.261947 37:-0.482744 38:-0.274467 39:-0.666058 40:-0.344922 41:-0.543562 42:-0.329116 43:-0.416316 44:-0.549511 45:-0.554206 46:-0.398936 47:-0.455594 48:-0.610154 49:-0.421537 50:0.630413 51:0.547374 52:0.364706 53:-0.382784 54:-0.656309 55:-0.607373 56:-0.221624 57:0.161794 58:-0.313743 59:0.577146 60:0.0144138 61:-0.212922 62:-0.368876 63:0.219169 64:0.00675843 
1.700378836125314 0 0.06130868873874853 0.8479019642507583 1:0.791024 2:-0.333658 3:0.31109 4:-0.213162 5:-0.773818 6:-0.760655 7:-0.812564 8:-0.579966 9:0.846603 10:-0.0606528 11:-0.108864 12:0.570674 13:-0.866883 14:-0.759438 15:-0.790305 16:-0.754957 17:-0.75818 18:-0.774459 19:-0.807586 20:-0.789737 21:-0.751205 22:-0.85167 23:0.671605 24:0.91123 25:0.857049 26:-0.937376 27:-0.296822 28:-0.875039 29:-0.195848 30:0.315407 31:0.165972 32:-0.652637 33:-0.654515 34:-0.616725 35:0.604007 36:0.110332 37:-0.883675 38:-0.493714 39:-0.954863 40:0.72712 41:-0.551785 42:-0.609407 43:-0.488831 44:-0.502341 45:-0.647384 46:-0.515401 47:-0.626815 48:-0.727358 49:-0.570669 50:0.611901 51:0.719361 52:0.554299 53:-0.62026 54:-0.673219 55:-0.608602 56:-0.901418 57:0.438677 58:0.738655 59:0.78545 60:-0.406136 61:-0.929405 62:-0.299173 63:0.600171 64:-0.0699782 
1.267940977883818 0 1.042957600520901 2.48371562415 1:-0.337465 2:-0.120775 3:0.359659 4:0.149172 5:-0.823247 6:-0.706182 7:-0.767385 8:-0.307236 9:-0.457416 10:0.347467 11:-0.386305 12:-0.0900342 13:-0.602745 14:-0.755463 15:-0.805672 16:-0.746636 17:-0.823282 18:-0.720187 19:-0.759622 20:-0.808194 21:-0.69325 22:-0.80353 23:0.765607 24:0.73883 25:0.913299 26:-0.833627 27:-0.566599 28:-0.683588 29:0.0564826 30:0.24999 31:-0.370583 32:-0.415801 33:-0.206521 34:-0.263511 35:0.390124 36:-0.0649162 37:-0.241673 38:-0.687018 39:-0.795299 40:-0.844561 41:-0.244093 42:-0.208912 43:-0.115782 44:-0.419327 45:-0.208015 46:-0.204676 47:-0.384714 48:-0.293325 49:-0.440312 50:0.549752 51:0.2724 52:0.365611 53:-0.358428 54:-0.454661 55:-0.63871 56:-0.0546891 57:0.419896 58:-0.152475 59:0.15784 60:-0.402288 61:0.132467 62:0.56705 63:0.669756 64:-0.595155 
0.2223998666461751 0.08344829434534658 1.461610843042256 1.818219997908812 1:0.877826 2:-0.658287 3:0.527514 4:-0.185192 5:-0.673073 6:-0.735761 7:-0.805125 8:-0.465639 9:0.445425 10:0.179823 11:-0.468647 12:-0.477258 13:-0.809431 14:-0.544246 15:-0.752858 16:-0.641073 17:-0.590854 18:-0.733302 19:-0.802502 20:-0.758934 21:-0.761003 22:-0.837481 23:0.599466 24:0.907978 25:0.871296 26:-0.985254 27:-0.333721 28:-0.822589 29:-0.0500587 30:0.103564 31:-0.012198 32:-0.572258 33:-0.385164 34:-0.460682 35:-0.00422522 36:-0.0919519 37:-0.522343 38:-0.946063 39:-0.824952 40:0.0723723 41:-0.434059 42:-0.377527 43:-0.338823 44:-0.536355 45:-0.373567 46:-0.460064 47:-0.640478 48:-0.447195 49:-0.392844 50:0.521322 51:0.338311 52:0.38552 53:-0.713811 54:-0.608117 55:-0.529339 56:-0.0519744 57:0.200819 58:0.617041 59:-0.014679 60:-0.284733 61:-0.492529 62:-0.591769 63:-0.309027 64:0.680867 
1.000455243502185 0 0 2.48371562415 1:0.873973 2:-0.588532 3:0.776753 4:-0.366044 5:-0.492737 6:-0.568905 7:-0.775551 8:-0.472926 9:0.478174 10:0.0280664 11:-0.327391 12:-0.466811 13:-0.93302 14:-0.366084 15:-0.681835 16:-0.47419 17:-0.448057 18:-0.535429 19:-0.755245 20:-0.572938 21:-0.641887 22:-0.854506 23:0.433931 24:0.922646 25:0.851701 26:-0.875173 27:0.0515207 28:-0.889789 29:0.0176263 30:0.278059 31:-0.19265 32:-0.486879 33:-0.61094 34:0.00953481 35:0.043224 36:-0.0186441 37:-0.696125 38:-0.617191 39:-0.916081 40:0.0673334 41:-0.410534 42:-0.169303 43:-0.220097 44:-0.481098 45:-0.610544 46:0.00853567 47:-0.353971 48:-0.691946 49:-0.0580942 50:0.340165 51:0.651905 52:-0.143439 53:-0.494049 54:-0.680829 55:-0.666974 56:-0.531157 57:0.352484 58:0.933992 59:0.748423 60:-0.137877 61:-0.804467 62:-0.288261 63:-0.150219 64:-0.00239471 
0 2.48371562415 1.870160495464438 2.48371562415 1:0.814652 2:0.018811 3:0.441503 4:0.0649145 5:-0.723241 6:-0.81934 7:-0.754614 8:-0.361752 9:0.68205 10:-0.201355 11:-0.0465131 12:0.279715 13:-0.746084 14:-0.657663 15:-0.787744 16:-0.723314 17:-0.713335 18:-0.824289 19:-0.753367 20:-0.677498 21:-0.799932 22:-0.813539 23:0.686734 24:0.92147 25:0.842947 26:-0.700923 27:-0.413055 28:-0.82349 29:-0.209087 30:0.412543 31:-0.165342 32:-0.551084 33:-0.394291 34:-0.631187 35:-0.336532 36:0.15877 37:0.601697 38:-0.522812 39:-0.806696 40:-0.352759 41:-0.415114 42:-0.377802 43:-0.346591 44:-0.41684 45:-0.369886 46:-0.634363 47:-0.532024 48:-0.423065 49:-0.696776 50:0.283967 51:0.493821 52:0.788235 53:-0.771935 54:-0.447897 55:-0.509677 56:-0.477481 57:-0.227402 58:0.293385 59:0.36792 60:-0.0807935 61:0.107081 62:0.189505 63:0.510127 64:-0.889501 
0.6256295441028479 0 0 0.0942114567996955 1:0.795438 2:-0.358733 3:0.703628 4:0.206783 5:-0.773406 6:-0.767245 7:-0.619654 8:-0.438831 9:0.513672 10:0.835574 11:-0.394016 12:-0.447904 13:0.548885 14:-0.696908 15:-0.630938 16:-0.646353 17:-0.753407 18:-0.722297 19:-0.611742 20:-0.79603 21:-0.817829 22:-0.609169 23:0.687934 24:0.967214 25:0.898577 26:-0.925241 27:-0.348833 28:-0.323288 29:0.267058 30:0.306051 31:-0.0506807 32:-0.742405 33:-0.877833 34:-0.627823 35:0.778612 36:0.31069 37:-0.58236 38:-0.2336 39:-0.543303 40:0.0199866 41:-0.759863 42:-0.714207 43:-0.703173 44:-0.701035 45:-0.863838 46:-0.633731 47:-0.71819 48:-0.84989 49:-0.600071 50:0.932562 51:0.841916 52:0.534389 53:-0.470246 54:-0.737899 55:-0.686636 56:-0.660701 57:-0.559542 58:0.79553 59:0.753331 60:0.612464 61:-0.756153 62:-0.107132 63:0.117259 64:-0.860004 
2.48371562415 2.48371562415 1.662618290052551 2.48371562415 1:-0.178228 2:-0.31599 3:0.552711 4:0.110751 5:-0.862803 6:-0.845528 7:-0.823485 8:0.408965 9:-0.214712 10:0.195771 11:-0.345929 12:-0.486658 13:-0.676997 14:-0.766589 15:-0.89338 16:-0.821747 17:-0.844773 18:-0.826584 19:-0.817175 20:-0.857333 21:-0.848786 22:-0.834871 23:0.842398 24:0.889461 25:0.901974 26:-0.813847 27:-0.63725 28:-0.765063 29:0.0905601 30:0.157114 31:-0.160384 32:-0.585573 33:-0.696992 34:-0.678392 35:-0.0543074 36:0.175531 37:-0.273056 38:-0.423144 39:-0.734321 40:-0.732147 41:-0.726554 42:-0.62261 43:-0.606974 44:-0.592032 45:-0.69053 46:-0.682135 47:-0.447908 48:-0.682545 49:-0.747432 50:0.421488 51:0.649846 52:0.657466 53:-0.547744 54:-0.669837 55:-0.775115 56:0.44994 57:0.444133 58:0.160788 59:0.293911 60:0.360187 61:-0.61438 62:0.151358 63:0.00216549 64:-0.393398 
2.224460624073691 1.756687602217485 2.48371562415 2.48371562415 1:0.87547 2:-0.19108 3:0.418659 4:0.139682 5:-0.967811 6:-0.981624 7:-0.970914 8:-0.671028 9:0.452637 10:0.433508 11:0.125278 12:-0.323615 13:-0.0146188 14:-0.988164 15:-0.935142 16:-0.98471 17:-0.965283 18:-0.972589 19:-0.943669 20:-0.954528 21:-0.980175 22:-0.952199 23:0.84569 24:0.982913 25:0.964661 26:-0.994371 27:-0.782992 28:-0.890751 29:0.143752 30:0.270452 31:-0.0316361 32:-0.878081 33:-0.933842 34:-0.984912 35:0.73343 36:0.461075 37:-0.249786 38:-0.248872 39:-0.519066 40:-0.570417 41:-0.991152 42:-0.870994 43:-0.936569 44:-0.882939 45:-0.929718 46:-0.953242 47:-0.857387 48:-0.926355 49:-0.982997 50:0.903471 51:0.891349 52:0.906335 53:-0.675062 54:-0.800465 55:-0.845776 56:-0.245088 57:-0.20138 58:0.271517 59:0.435274 60:0.429092 61:-0.22845 62:0.174676 63:0.179711 64:-0.0845455 
1.306925022168031 0 0 0 1:0.889085 2:-0.309096 3:0.555726 4:0.0525665 5:-0.822565 6:-0.938357 7:-0.770737 8:-0.640017 9:0.542734 10:-0.0306069 11:0.0170312 12:-0.239921 13:-0.194262 14:-0.813946 15:-0.794784 16:-0.800064 17:-0.80848 18:-0.895101 19:-0.769904 20:-0.843295 21:-0.942687 22:-0.721178 23:0.708023 24:0.990737 25:0.808664 26:-0.985701 27:-0.653582 28:-0.698839 29:0.0733255 30:0.205796 31:0.143936 32:-0.550885 33:-0.553509 34:-0.801495 35:0.882744 36:0.683715 37:-0.386019 38:0.000992078 39:-0.296536 40:-0.561295 41:-0.621006 42:-0.419337 43:-0.516814 44:-0.555522 45:-0.554809 46:-0.668759 47:-0.477797 48:-0.555939 49:-0.829614 50:0.753388 51:0.737899 52:0.819457 53:-0.308608 54:-0.42676 55:-0.697696 56:-0.662888 57:-0.537359 58:0.864292 59:0.686541 60:0.566756 61:-0.919825 62:0.202912 63:0.102349 64:-0.380855 
1.129705255614958 0 0 0 1:-0.0527784 2:-0.0990786 3:0.428751 4:0.265424 5:-0.739433 6:-0.925601 7:-0.800245 8:0.453714 9:-0.0544507 10:0.524689 11:-0.112974 12:-0.570369 13:0.112725 14:-0.714784 15:-0.848008 16:-0.768998 17:-0.739013 18:-0.92456 19:-0.775923 20:-0.723382 21:-0.920369 22:-0.762322 23:0.809451 24:0.935643 25:0.898569 26:-0.607046 27:-0.728705 28:-0.627009 29:0.151351 30:0.218195 31:-0.0940427 32:-0.316156 33:-0.501422 34:-0.482076 35:-0.0283881 36:0.306777 37:-0.597134 38:-0.426827 39:-0.670838 40:-0.285141 41:-0.574269 42:-0.214964 43:-0.338371 44:-0.323908 45:-0.503244 46:-0.491735 47:-0.0755765 48:-0.489815 49:-0.590507 50:0.166942 51:0.499485 52:0.463348 53:-0.278162 54:-0.533291 55:-0.766513 56:-0.439917 57:-0.354708 58:-0.427296 59:0.652713 60:0.629828 61:0.27664 62:-0.476934 63:-0.440346 64:-0.564243 
0 0.07716440139289669 0.04380466848504454 0 1:0.91035 2:-0.309191 3:0.555253 4:0.160636 5:-0.798798 6:-0.88893 7:-0.818712 8:-0.670959 9:0.570253 10:0.684477 11:-0.0412535 12:-0.21269 13:0.260653 14:-0.873993 15:-0.78391 16:-0.796679 17:-0.785892 18:-0.860837 19:-0.807311 20:-0.831623 21:-0.905826 22:-0.803957 23:0.696144 24:0.986166 25:0.930547 26:-0.980996 27:-0.557566 28:-0.655001 29:0.187152 30:0.0325182 31:0.073975 32:-0.750552 33:-0.680557 34:-0.851913 35:0.609807 36:0.0606496 37:-0.713783 38:-0.512705 39:-0.892467 40:0.367375 41:-0.64682 42:-0.774171 43:-0.656495 44:-0.747159 45:-0.627741 46:-0.767421 47:-0.744663 48:-0.728612 49:-0.823946 50:0.892893 51:0.6138 52:0.788688 53:-0.53778 54:-0.761573 55:-0.729647 56:-0.796524 57:-0.580945 58:0.579858 59:0.851454 60:0.579779 61:-0.0862963 62:0.243035 63:0.146975 64:-0.915095 
1.191445254103537 0.5549218680991906 0.2424815866247249 0 1:-0.15506 2:-0.0873639 3:0.364465 4:-0.203989 5:-0.764997 6:-0.823841 7:-0.310479 8:-0.111035 9:0.114072 10:-0.879657 11:-0.175328 12:-0.190214 13:0.762285 14:-0.498162 15:-0.560586 16:-0.495595 17:-0.763948 18:-0.835663 19:-0.312339 20:-0.716888 21:-0.790123 22:-0.247669 23:0.732532 24:0.86315 25:0.286396 26:-0.708358 27:-0.532927 28:-0.651103 29:0.066745 30:0.106987 31:0.124498 32:-0.625172 33:-0.585767 34:-0.697494 35:-0.296117 36:-0.474687 37:-0.619301 38:-0.138588 39:-0.16297 40:-0.226493 41:-0.634329 42:-0.356622 43:-0.533057 44:-0.627812 45:-0.569716 46:-0.610968 47:-0.475235 48:-0.525541 49:-0.7322 50:0.395702 51:0.297631 52:0.717195 53:-0.604761 54:-0.747199 55:-0.667588 56:-0.38825 57:-0.181797 58:-0.126333 59:0.73176 60:0.39083 61:0.374966 62:0.78844 63:0.646671 64:0.530434 
0.56517301334181 0 0 0 1:-0.0468687 2:-0.0697587 3:0.478972 4:0.278317 5:-0.762248 6:-0.892965 7:-0.621883 8:0.580668 9:0.327987 10:0.252686 11:0.182304 12:-0.409603 13:-0.484379 14:-0.56853 15:-0.801825 16:-0.686951 17:-0.760193 18:-0.884817 19:-0.60753 20:-0.741784 21:-0.8869 22:-0.611597 23:0.835934 24:0.941119 25:0.804662 26:-0.603 27:-0.617013 28:-0.488368 29:-0.0630631 30:0.180314 31:-0.0481624 32:0.0192733 33:-0.669428 34:-0.279814 35:-0.197355 36:0.2727 37:-0.613415 38:-0.608585 39:-0.83291 40:-0.253515 41:-0.228583 42:-0.0744052 43:-0.151533 44:0.0327212 45:-0.667745 46:-0.285602 47:0.0512382 48:-0.686619 49:-0.414453 50:-0.176198 51:0.638517 52:0.344796 53:-0.401052 54:-0.684633 55:-0.62212 56:-0.343275 57:-0.513019 58:-0.565241 59:0.403887 60:0.550954 61:0.664688 62:-0.039107 63:0.395236 64:-0.0169971 
0.2453363934695716 0.5896156315231091 1.011954834415936 0.9627795099017059 1:0.979972 2:-0.405392 3:0.486281 4:0.182105 5:-0.674817 6:-0.899498 7:-0.686513 8:-0.739102 9:0.893765 10:0.283767 11:0.16218 12:0.700858 13:-0.664877 14:-0.623632 15:-0.733357 16:-0.668248 17:-0.652351 18:-0.888565 19:-0.678624 20:-0.733792 21:-0.896362 22:-0.754131 23:0.562743 24:0.977752 25:0.892932 26:-0.991583 27:-0.551356 28:-0.620384 29:0.445358 30:0.323166 31:-0.0356497 32:-0.012375 33:-0.607893 34:-0.572995 35:0.352846 36:0.359686 37:-0.958449 38:-0.843022 39:-0.886968 40:0.907361 41:-0.223587 42:-0.356347 43:-0.208826 44:0.049651 45:-0.600057 46:-0.576351 47:-0.0461145 48:-0.710122 49:-0.515409 50:0.472397 51:0.778579 52:0.417195 53:0.0157764 54:-0.601353 55:-0.698925 56:0.362596 57:0.243843 58:0.917904 59:-0.143097 60:-0.229208 61:-0.193081 62:-0.642893 63:-0.637323 64:-0.747866 
2.158060706336479 0 0 0 1:-0.199191 2:-0.15694 3:0.361565 4:-0.0639731 5:-0.648721 6:-0.705394 7:-0.644573 8:0.300674 9:-0.518623 10:0.483081 11:-0.186946 12:0.0764192 13:-0.21894 14:-0.639739 15:-0.737463 16:-0.613023 17:-0.649191 18:-0.719355 19:-0.647036 20:-0.607445 21:-0.674291 22:-0.653686 23:0.703333 24:0.729642 25:0.847719 26:-0.542765 27:-0.534624 28:-0.498354 29:0.0697219 30:0.252044 31:0.0392697 32:0.0179518 33:-0.413924 34:-0.336155 35:0.0810098 36:0.0311402 37:-0.643473 38:-0.669665 39:-0.744447 40:-0.135431 41:-0.267826 42:-0.102187 43:-0.0898298 44:0.0102636 45:-0.41553 46:-0.324215 47:0.175064 48:-0.423065 49:-0.42012 50:-0.0433058 51:0.406797 52:0.330769 53:-0.129255 54:-0.519341 55:-0.650998 56:-0.83227 57:-0.806056 58:-0.793752 59:0.840743 60:0.825012 61:0.648412 62:-0.320919 63:-0.382569 64:-0.601844 
0.6212640814231525 0.49372298194138 0.6489679166481481 0.2984174716037977 1:-0.0915037 2:0.0733502 3:0.392662 4:0.279467 5:-0.181981 6:-0.648016 7:-0.312993 8:0.810205 9:-0.52293 10:0.982117 11:0.404441 12:-0.27417 13:0.891089 14:-0.199586 15:-0.180689 16:-0.18219 17:-0.175607 18:-0.661774 19:-0.3068 20:-0.274657 21:-0.672319 22:-0.329111 23:0.794078 24:0.715039 25:0.88869 26:0.226143 27:-0.566054 28:0.215198 29:0.32785 30:0.537443 31:-0.156056 32:-0.578822 33:-0.459243 34:-0.371856 35:0.190545 36:-0.296676 37:-0.101933 38:-0.509806 39:-0.584231 40:-0.932498 41:-0.307276 42:-0.408334 43:-0.309388 44:-0.523396 45:-0.381113 46:-0.37762 47:-0.440649 48:-0.450642 49:-0.566773 50:0.644298 51:0.440268 52:0.551131 53:-0.351785 54:-0.529064 55:-0.606144 56:0.556045 57:0.583777 58:-0.59389 59:-0.741428 60:-0.66963 61:0.527461 62:0.39369 63:0.463214 64:-0.302757 
0.5093940972147604 1.521055584768804 0 1.345454138208458 1:-0.0944992 2:-0.0327848 3:0.398363 4:0.0287636 5:-0.512965 6:-0.790819 7:-0.925115 8:0.935737 9:-0.608318 10:0.573357 11:0.769355 12:0.0626997 13:0.0197189 14:-0.606091 15:-0.644412 16:-0.630835 17:-0.510548 18:-0.801227 19:-0.922594 20:-0.564022 21:-0.789684 22:-0.915532 23:0.880093 24:0.800912 25:0.95087 26:-0.198656 27:-0.69014 28:-0.841573 29:0.278966 30:0.355037 31:-0.102385 32:-0.786533 33:-0.553378 34:-0.529286 35:-0.237135 36:-0.243758 37:-0.112889 38:-0.696915 39:-0.783223 40:-0.970338 41:-0.486728 42:-0.687251 43:-0.519029 44:-0.729181 45:-0.539303 46:-0.539283 47:-0.776687 48:-0.658101 49:-0.719447 50:0.81686 51:0.548919 52:0.674661 53:-0.642956 54:-0.719721 55:-0.703226 56:0.17558 57:0.151169 58:-0.615266 59:-0.292752 60:-0.204287 61:0.494829 62:0.581254 63:0.475784 64:-0.227195 
0.8688702643156779 0 0.7817804543297389 1.507522493825558 1:0.830356 2:-0.477712 3:0.56667 4:0.0278223 5:-0.763439 6:-0.789969 7:-0.932044 8:-0.268634 9:0.285891 10:0.0728421 11:-0.738205 12:-0.79899 13:-0.956302 14:-0.629112 15:-0.84142 16:-0.765826 17:-0.717846 18:-0.775421 19:-0.929355 20:-0.826049 21:-0.861169 22:-0.961714 23:0.708787 24:0.95718 25:0.948527 26:-0.951675 27:-0.500959 28:-0.937153 29:0.211281 30:0.570532 31:0.208546 32:-0.678893 33:-0.262623 34:-0.223895 35:-0.592371 36:-0.577281 37:-0.525388 38:-0.130517 39:-0.199247 40:-0.335768 41:-0.093994 42:-0.100536 43:-0.142108 44:-0.670432 45:-0.189191 46:-0.147817 47:-0.623399 48:-0.291131 49:-0.327666 50:0.55438 51:0.130793 52:0.333937 53:-0.663991 54:-0.567956 55:-0.486329 56:0.8756 57:0.880871 58:0.935893 59:-0.842681 60:-0.868933 61:-0.946874 62:0.654484 63:0.610854 64:0.713622 
0.6528850198776104 0.285450428656448 0 0 1:0.89393 2:-0.267248 3:0.440935 4:0.0600254 5:-0.809444 6:-0.894972 7:-0.680694 8:-0.612382 9:0.360176 10:0.269637 11:-0.232054 12:-0.753341 13:-0.354307 14:-0.649729 15:-0.770884 16:-0.749459 17:-0.802062 18:-0.894761 19:-0.680607 20:-0.858841 21:-0.934886 22:-0.676501 23:0.729072 24:0.969002 25:0.841388 26:-0.984239 27:-0.686149 28:-0.5544 29:0.164356 30:0.277907 31:0.216495 32:-0.314121 33:-0.671354 34:-0.590728 35:0.68612 36:0.428302 37:-1 38:-0.468476 39:-0.751017 40:1 41:-0.499948 42:-0.423188 43:-0.394038 44:-0.320929 45:-0.670639 46:-0.45578 47:-0.31298 48:-0.734879 49:-0.541977 50:0.695207 51:0.794027 52:0.528054 53:-0.143648 54:-0.622067 55:-0.59447 56:-0.467078 57:-0.190584 58:0.670826 59:0.796434 60:0.602777 61:-0.375203 62:-0.460541 63:-0.675859 64:-0.931864 
1.205874461709719 0.6079987744920483 0.4385006395541139 0.5117131458717995 1:-0.0364792 2:0.0278694 3:0.38081 4:-0.930161 5:-0.32284 6:-0.765594 7:0.188607 8:0.423836 9:-0.393423 10:-0.792167 11:-0.403515 12:-0.362808 13:0.551536 14:0.0625483 15:-0.194323 16:0.018032 17:-0.318216 18:-0.777709 19:0.222512 20:-0.389371 21:-0.770696 22:0.246687 23:0.638631 24:0.802338 25:-0.213577 26:-0.222446 27:-0.631053 28:-0.523981 29:0.116255 30:0.249686 31:-0.110097 32:0.454305 33:-0.183959 34:-0.118677 35:0.0569744 36:0.275963 37:-0.550581 38:-0.764544 39:-0.87217 40:-0.33038 41:0.206412 42:0.226516 43:0.280737 44:0.443712 45:-0.185438 46:-0.1263 47:0.547822 48:-0.310561 49:-0.233085 50:-0.344132 51:0.433059 52:0.145249 53:0.102131 54:-0.346016 55:-0.578495 56:-0.387151 57:-0.476159 58:-0.636396 59:0.765575 60:0.665 61:0.786604 62:-0.159891 63:0.134492 64:-0.02098 
0 0.1154513072158819 0 0.6399822360771841 1:0.925309 2:-0.283421 3:0.415149 4:0.121385 5:-0.740977 6:-0.873153 7:-0.844442 8:-0.792897 9:0.446209 10:0.374589 11:0.367382 12:-0.598667 13:-0.306371 14:-0.829047 15:-0.76967 16:-0.780785 17:-0.733484 18:-0.878773 19:-0.8361 20:-0.774097 21:-0.912207 22:-0.846189 23:0.624152 24:0.967273 25:0.931113 26:-0.977687 27:-0.624319 28:-0.737781 29:0.030944 30:0.16571 31:0.238766 32:-0.410634 33:-0.632979 34:-0.790516 35:0.507128 36:0.460087 37:0.356602 38:-0.776425 39:-0.728764 40:-0.676272 41:-0.460914 42:-0.482877 43:-0.459031 44:-0.409678 45:-0.629342 46:-0.566527 47:-0.506832 48:-0.708555 49:-0.812256 50:0.671405 51:0.744593 52:0.935294 53:-0.414891 54:-0.62714 55:-0.510292 56:-0.54347 57:-0.26524 58:0.0653389 59:0.867523 60:0.623889 61:0.490798 62:-0.00908368 63:-0.234842 64:-0.723012 
0.3563540679849628 2.48371562415 1.953654011062452 0 1:0.875813 2:-0.309387 3:0.490067 4:0.150731 5:-0.58927 6:-0.82249 7:-0.652059 8:-0.641743 9:0.749174 10:0.432585 11:-0.083484 12:0.208187 13:-0.222384 14:-0.588434 15:-0.605013 16:-0.600827 17:-0.582129 18:-0.819742 19:-0.64745 20:-0.667022 21:-0.836338 22:-0.665059 23:0.527913 24:0.964949 25:0.876346 26:-0.915708 27:-0.408656 28:-0.472056 29:0.0668234 30:0.258662 31:0.226568 32:-0.234725 33:-0.458408 34:-0.702726 35:0.459748 36:0.429487 37:0.413734 38:-0.615351 39:-0.608384 40:-0.489915 41:-0.400541 42:-0.26145 43:-0.290832 44:-0.240923 45:-0.459765 46:-0.526736 47:-0.147737 48:-0.451896 49:-0.714134 50:0.428099 51:0.61792 52:0.906787 53:-0.153058 54:-0.384908 55:-0.378802 56:-0.46511 57:-0.0196988 58:-0.292656 59:0.546344 60:0.139509 61:0.244506 62:0.110458 63:-0.285351 64:-0.191908 
0 0 0 0.6924927981396011 1:0.935442 2:-0.442404 3:0.566996 4:0.351506 5:-0.697576 6:-0.899797 7:-0.714054 8:-0.363723 9:0.321094 10:0.349757 11:-0.734829 12:-0.689754 13:-0.508113 14:-0.644865 15:-0.77035 16:-0.675467 17:-0.66671 18:-0.865237 19:-0.684971 20:-0.823231 21:-0.921978 22:-0.731567 23:0.695711 24:0.979828 25:0.896529 26:-0.96563 27:-0.620882 28:-0.5695 29:0.208069 30:0.243297 31:0.23916 32:-0.256594 33:-0.494358 34:-0.551412 35:0.531942 36:0.481454 37:-0.527908 38:-0.655667 39:-0.593221 40:-0.0605078 41:-0.459353 42:-0.250997 43:-0.277811 44:-0.258451 45:-0.496269 46:-0.407521 47:-0.253629 48:-0.484801 49:-0.50797 50:0.585455 51:0.583419 52:0.58552 53:-0.158594 54:-0.45762 55:-0.45745 56:-0.146077 57:0.101138 58:0.597931 59:0.441225 60:0.213884 61:-0.340648 62:-0.0754306 63:-0.334783 64:-0.75381 
0.9601256124747173 0.9692452887037286 0.6728793551901753 0 1:0.046208 2:-0.0188494 3:0.447725 4:-0.131476 5:-0.32567 6:-0.787789 7:-0.468727 8:0.874526 9:0.0717188 10:-0.793853 11:0.616635 12:-0.844039 13:0.580911 14:-0.353745 15:-0.393865 16:-0.364904 17:-0.323595 18:-0.79347 19:-0.471256 20:-0.374 21:-0.838359 22:-0.41718 23:0.801472 24:0.895766 25:0.454154 26:0.0475818 27:-0.590742 28:-0.700971 29:0.323698 30:0.744114 31:-0.447863 32:-0.583778 33:-0.323184 34:-0.745824 35:-0.0432941 36:-0.227032 37:-0.361852 38:-0.867523 39:-0.780408 40:-0.456856 41:-0.0221714 42:-0.606932 43:-0.21852 44:-0.530115 45:-0.150411 46:-0.535377 47:-0.602904 48:-0.468819 49:-0.752745 50:0.737521 51:0.545314 52:0.536652 53:-0.484085 54:-0.467343 55:-0.948387 56:0.447795 57:-0.12053 58:0.0457077 59:0.292728 60:-0.126621 61:0.143333 62:-0.576745 63:-0.109144 64:-0.320412 
0.4125674158648842 0 0 0 1:-0.223174 2:-0.187514 3:0.260078 4:0.072742 5:-0.649232 6:-0.763636 7:-0.767815 8:0.045543 9:-0.36553 10:-0.375915 11:-0.797097 12:-0.3694 13:-0.373013 14:-0.456433 15:-0.760738 16:-0.677525 17:-0.649148 18:-0.775894 19:-0.765906 20:-0.719086 21:-0.776946 22:-0.768498 23:0.740649 24:0.785164 25:0.792691 26:-0.700554 27:-0.693039 28:-0.819932 29:0.057031 30:0.471646 31:-0.198945 32:-0.302333 33:-0.534544 34:-0.280891 35:-0.152751 36:0.0726845 37:-0.287335 38:-0.800041 39:-0.890534 40:-0.817206 41:-0.419278 42:-0.416036 43:-0.243447 44:-0.306974 45:-0.479452 46:-0.280122 47:-0.306149 48:-0.58477 49:-0.498406 50:0.242975 51:0.642636 52:0.401357 53:-0.513424 54:-0.54386 55:-0.690937 56:0.270231 57:0.190206 58:-0.26592 59:0.100888 60:0.216283 61:0.399637 62:0.0286185 63:-0.0187273 64:0.466548 
0 1.503352066441447 0.9091522572301874 2.48371562415 1:-0.169763 2:-0.100465 3:0.292063 4:-0.079503 5:-0.684974 6:-0.738097 7:-0.848434 8:0.046111 9:-0.0807853 10:-0.152353 11:-0.828008 12:-0.828065 13:-0.747915 14:-0.494198 15:-0.851199 16:-0.718517 17:-0.684771 18:-0.751943 19:-0.849928 20:-0.760916 21:-0.800718 22:-0.879585 23:0.78471 24:0.838546 25:0.885438 26:-0.71521 27:-0.626526 28:-0.881949 29:-0.00556208 30:0.121896 31:-0.293854 32:-0.499859 33:-0.565647 34:-0.125871 35:-0.0587591 36:-0.205417 37:-0.281371 38:-0.731161 39:-0.749987 40:-0.836017 41:-0.308941 42:-0.216064 43:-0.259233 44:-0.486714 45:-0.554147 46:-0.103561 47:-0.467549 48:-0.596365 49:-0.416578 50:0.418182 51:0.441298 52:0.29457 53:-0.575976 54:-0.724794 55:-0.694009 56:0.492305 57:0.450549 58:-0.14952 59:0.0764483 60:0.0975888 61:0.473066 62:-0.445779 63:-0.370206 64:0.12971 
0 2.48371562415 2.48371562415 2.48371562415 1:0.886459 2:-0.152319 3:0.360339 4:-0.0900184 5:-0.86978 6:-0.882313 7:-0.814908 8:-0.479913 9:0.222625 10:-0.432128 11:-0.15452 12:-0.820583 13:-0.453714 14:-0.831046 15:-0.852532 16:-0.854084 17:-0.870033 18:-0.893157 19:-0.81639 20:-0.870429 21:-0.918258 22:-0.845095 23:0.777555 24:0.947408 25:0.82175 26:-0.934675 27:-0.692579 28:-0.922237 29:0.110223 30:0.360286 31:-0.0298261 32:-0.845492 33:-0.912655 34:-0.822018 35:0.292205 36:0.273911 37:0.0684696 38:-0.556448 39:-0.773542 40:-0.999518 41:-0.872177 42:-0.864943 43:-0.841026 44:-0.85234 45:-0.860528 46:-0.816946 47:-0.792058 48:-0.913193 49:-0.897272 50:0.795702 51:0.909372 52:0.866516 53:-0.680598 54:-0.767914 55:-0.751152 56:-0.440481 57:0.371053 58:-0.259812 59:0.0450467 60:-0.58687 61:0.237721 62:-0.323519 63:0.571686 64:-0.202009 
0 0.5350124751786283 0.164778391139873 0 1:-0.0395933 2:0.0247135 3:0.248664 4:0.217325 5:-0.30758 6:-0.785709 7:-0.828786 8:0.740743 9:-0.0362141 10:0.397875 11:0.306084 12:-0.791165 13:-0.181062 14:-0.279111 15:-0.568955 16:-0.460941 17:-0.303274 18:-0.796822 19:-0.809013 20:-0.359799 21:-0.823148 22:-0.807304 23:0.772189 24:0.847778 25:0.910753 26:0.0313846 27:-0.668522 28:-0.695415 29:-0.101606 30:0.0241509 31:-0.39734 32:-0.548464 33:-0.545914 34:-0.706325 35:0.112083 36:0.101724 37:-0.022185 38:-0.902292 39:-0.87753 40:-0.914422 41:-0.521287 42:-0.532389 43:-0.427934 44:-0.487474 45:-0.503042 46:-0.558737 47:-0.578565 48:-0.620495 49:-0.778604 50:0.503471 51:0.511843 52:0.627149 53:-0.648492 54:-0.699429 55:-0.870353 56:0.365646 57:0.185365 58:-0.0509918 59:-0.634481 60:-0.275749 61:0.0063253 62:0.206349 63:0.317071 64:0.44363 
2.48371562415 2.48371562415 2.48371562415 2.48371562415 1:0.756355 2:-0.0855908 3:0.362533 4:0.0439991 5:-0.854785 6:-0.824085 7:-0.886161 8:-0.206071 9:0.0810861 10:0.0680118 11:-0.857958 12:-0.818325 13:-0.932264 14:-0.744587 15:-0.926188 16:-0.855821 17:-0.852937 18:-0.835998 19:-0.883593 20:-0.911836 21:-0.857596 22:-0.924111 23:0.840396 24:0.904479 25:0.929526 26:-0.920767 27:-0.624737 28:-0.895011 29:0.136075 30:0.30993 31:0.0123554 32:-0.813251 33:-0.872715 34:-0.869878 35:0.090249 36:0.142907 37:0.0680665 38:-0.916835 39:-0.940565 40:-0.890767 41:-0.895597 42:-0.882822 43:-0.834111 44:-0.819929 45:-0.857499 46:-0.832888 47:-0.836465 48:-0.902852 49:-0.899044 50:0.824793 51:0.868692 52:0.88733 53:-0.713811 54:-0.78736 55:-0.72596 56:0.00618497 57:0.179293 58:-0.230413 59:0.196521 60:-0.235233 61:0.299172 62:0.177613 63:-0.0199512 64:0.207426 
2.48371562415 2.48371562415 2.48371562415 2.48371562415 1:0.793101 2:-0.108338 3:0.304791 4:0.274416 5:-0.806535 6:-0.794796 7:-0.981329 8:-0.326353 9:0.330655 10:0.00800106 11:-0.626469 12:-0.640022 13:-0.93456 14:-0.734497 15:-0.871819 16:-0.827526 17:-0.806224 18:-0.808053 19:-0.910766 20:-0.850018 21:-0.83645 22:-0.990606 23:0.778946 24:0.91438 25:0.989875 26:-0.893686 27:-0.537762 28:-0.923886 29:0.154798 30:0.481687 31:0.200519 32:-0.899001 33:-0.906768 34:-0.731349 35:-0.20227 36:0.238987 37:0.107056 38:-0.504236 39:-0.732062 40:-0.975921 41:-0.700531 42:-0.74694 43:-0.683422 44:-0.900124 45:-0.754717 46:-0.569901 47:-0.878309 48:-0.902852 49:-0.834219 50:0.831405 51:0.96035 52:0.9181 53:-0.762524 54:-0.712112 55:-0.571736 56:0.215916 57:-0.142168 58:-0.0825515 59:-0.218064 60:0.1659 61:0.00519492 62:-0.165206 63:0.122871 64:0.249248 
0.7117816994609468 0 0 0 1:-0.185676 2:-0.126886 3:0.282995 4:-0.0150833 5:-0.5377 6:-0.649619 7:-0.852583 8:0.0470894 9:-0.0272745 10:-0.310553 11:-0.87169 12:-0.821566 13:-0.633293 14:-0.193806 15:-0.796785 16:-0.598345 17:-0.538255 18:-0.664577 19:-0.853658 20:-0.655848 21:-0.715807 22:-0.874439 23:0.737031 24:0.772706 25:0.867193 26:-0.585279 27:-0.546208 28:-0.90288 29:0.187701 30:0.480622 31:-0.165893 32:-0.607457 33:-0.472234 34:-0.0591256 35:-0.139693 36:-0.348059 37:-0.175289 38:-0.758946 39:-0.63198 40:-0.907498 41:-0.182992 42:-0.425389 43:-0.213594 44:-0.607948 45:-0.418967 46:-0.0632859 47:-0.626815 48:-0.542777 49:-0.324477 50:0.611901 51:0.462925 52:0.333032 53:-0.62026 54:-0.63475 55:-0.482028 56:0.789342 57:0.387241 58:-0.2546 59:-0.70347 60:-0.233755 61:0.296355 62:0.852927 63:0.921804 64:0.697415 
0.4516931599251708 2.003889969680302 2.48371562415 2.48371562415 1:0.230709 2:-0.153948 3:0.385396 4:-0.0799452 5:-1 6:-0.961246 7:-0.919483 8:0.0738326 9:-0.0159579 10:-0.0437532 11:-0.956017 12:-0.978289 13:-0.891842 14:-0.936922 15:-1 16:-0.987249 17:-1 18:-0.965261 19:-0.920586 20:-1 21:-0.976957 22:-0.944179 23:0.915104 24:0.963764 25:0.926478 26:-0.978501 27:-0.822362 28:-0.940007 29:0.129338 30:0.0875899 31:-0.33273 32:-0.946278 33:-0.803864 34:-0.985482 35:-0.198719 36:0.0865548 37:0.0499728 38:-0.724116 39:-0.88314 40:-0.85116 41:-0.796503 42:-0.858341 43:-0.788672 44:-0.952784 45:-0.763176 46:-0.767151 47:-0.949189 48:-0.832341 49:-0.990436 50:0.898843 51:0.711123 52:0.802715 53:-0.797952 54:-0.821602 55:-0.999386 56:-0.0202092 57:0.752036 58:0.595415 59:-0.741824 60:0.0586784 61:0.594175 62:0.415662 63:0.402449 64:0.131056 
0.9446632801868695 0 2.48371562415 2.15675002451063 1:-0.790973 2:-0.17355 3:0.29506 4:0.0312769 5:-0.639631 6:-0.644284 7:-0.908769 8:-0.15608 9:0.0586217 10:0.144881 11:-0.928111 12:-0.892976 13:-0.564418 14:-0.367253 15:-0.83737 16:-0.669803 17:-0.639891 18:-0.659542 19:-0.906565 20:-0.790185 21:-0.725999 22:-0.901083 23:0.738177 24:0.800494 25:0.923282 26:-0.839824 27:-0.505206 28:-0.86 29:0.164669 30:0.307877 31:-0.197529 32:-0.611148 33:-0.420683 34:-0.258892 35:-0.240544 36:-0.140571 37:-0.103475 38:-0.648539 39:-0.859765 40:-0.973044 41:-0.340377 42:-0.3679 43:-0.306119 44:-0.615847 45:-0.417747 46:-0.258518 47:-0.575149 48:-0.538076 49:-0.534183 50:0.539835 51:0.453656 52:0.5 53:-0.613617 54:-0.636018 55:-0.619048 56:-0.154702 57:0.168466 58:0.135636 59:0.155193 60:0.0708145 61:0.211949 62:0.153336 63:0.0655635 64:-0.00261397 
2.48371562415 2.213932211565772 2.48371562415 2.48371562415 1:0.814756 2:-0.329825 3:0.437545 4:0.124259 5:-0.855995 6:-0.84978 7:-0.918291 8:-0.235096 9:0.329862 10:-0.130182 11:-0.674864 12:-0.688028 13:-0.851132 14:-0.798712 15:-0.902902 16:-0.859165 17:-0.835631 18:-0.853587 19:-0.903865 20:-0.875994 21:-0.886506 22:-0.936872 23:0.784456 24:0.948517 25:0.934352 26:-0.93509 27:-0.597022 28:-0.912079 29:0.0108892 30:0.271669 31:0.202093 32:-0.846518 33:-0.869658 34:-0.88668 35:0.0678942 36:-0.346149 37:-0.260504 38:-0.778601 39:0.175081 40:-0.486255 41:-0.693245 42:-0.820657 43:-0.752295 44:-0.811001 45:-0.867521 46:-0.651415 47:-0.819385 48:-0.797556 49:-0.880623 50:0.743471 51:0.724511 52:0.906787 53:-0.759756 54:-0.763686 55:-0.667588 56:0.421982 57:0.399792 58:0.541257 59:-0.315421 60:-0.264999 61:-0.564037 62:-0.249397 63:-0.532661 64:0.566559 
1.872344910140733 1.350192254573909 2.48371562415 2.088782435280419 1:0.840183 2:0.00419818 3:0.2829 4:0.233131 5:-0.684525 6:-0.77809 7:-0.909101 8:-0.337703 9:0.297983 10:0.183924 11:-0.541734 12:-0.628616 13:-0.757345 14:-0.529062 15:-0.840791 16:-0.733036 17:-0.677237 18:-0.791067 19:-0.874961 20:-0.741039 21:-0.813802 22:-0.925015 23:0.694389 24:0.900861 25:0.960222 26:-0.810808 27:-0.506045 28:-0.84442 29:0.329965 30:0.7003 31:0.255843 32:-0.73925 33:-0.816483 34:-0.652937 35:-0.253481 36:0.376582 37:0.203344 38:-0.518674 39:-0.701029 40:-0.92391 41:-0.462475 42:-0.668546 43:-0.454129 44:-0.654034 45:-0.51079 46:-0.466543 47:-0.700683 48:-0.823253 49:-0.763018 50:0.781157 51:1 52:0.917647 53:-0.574315 54:-0.572183 55:-0.448848 56:0.682906 57:0.0923203 58:-0.0296214 59:-0.621788 60:-0.00774674 61:-0.0864751 62:-0.197577 63:0.131411 64:0.951621 
2.292744543729929 1.285487493824052 0.2277318532238616 0 1:-0.046395 2:0.0675534 3:0.3588 4:0.203917 5:-0.455074 6:-0.771414 7:-0.503521 8:0.43758 9:0.105477 10:0.564103 11:-0.233967 12:-0.897299 13:0.0203502 14:-0.230572 15:-0.535848 16:-0.448159 17:-0.445785 18:-0.784404 19:-0.498456 20:-0.518054 21:-0.832455 22:-0.508889 23:0.78672 24:0.88651 25:0.841278 26:-0.248996 27:-0.59707 28:-0.222211 29:0.135997 30:0.163884 31:-0.143228 32:-0.484608 33:-0.666076 34:-0.410805 35:0.676422 36:0.315135 37:-0.26631 38:-0.287066 39:-0.577672 40:-0.678116 41:-0.577496 42:-0.286756 43:-0.450696 44:-0.492558 45:-0.661633 46:-0.418054 47:-0.383433 48:-0.613601 49:-0.474318 50:0.68595 51:0.616375 52:0.465158 53:-0.242735 54:-0.604312 55:-0.562519 56:0.179029 57:0.511879 58:-0.119993 59:-0.263549 60:-0.649774 61:0.0602205 62:-0.0306806 63:0.410902 64:0.288641 
0 0 0 0.09689171615764933 1:-0.120178 2:-0.143254 3:0.350405 4:-0.0133219 5:-0.744037 6:-0.823514 7:-0.846371 8:-0.0565515 9:0.0925329 10:0.229632 11:-0.837018 12:-0.874331 13:-0.813934 14:-0.586533 15:-0.879669 16:-0.780578 17:-0.74446 18:-0.835943 19:-0.847439 20:-0.798555 21:-0.872319 22:-0.891121 23:0.796637 24:0.905967 25:0.919316 26:-0.769375 27:-0.663944 28:-0.847013 29:0.211673 30:0.440535 31:-0.104667 32:-0.498249 33:-0.575725 34:-0.434225 35:-0.136073 36:-0.14556 37:-0.260613 38:-0.736987 39:-0.711869 40:-0.800738 41:-0.517747 42:-0.439967 43:-0.404009 44:-0.495533 45:-0.530561 46:-0.443675 47:-0.464987 48:-0.594171 49:-0.596174 50:0.481653 51:0.591143 52:0.537557 53:-0.519513 54:-0.598816 55:-0.675576 56:-0.315758 57:-0.525682 58:-0.277106 59:0.701292 60:0.812276 61:0.543859 62:0.645711 63:0.712268 64:0.299596 
1.288181459518338 0.5414691333779014 0 2.48371562415 1:0.865011 2:-0.138897 3:0.374172 4:-0.100571 5:-0.772729 6:-0.812229 7:-0.804585 8:-0.55417 9:0.2153 10:-0.213978 11:0.0375147 12:-0.700254 13:-0.875839 14:-0.749504 15:-0.853661 16:-0.778466 17:-0.773109 18:-0.823758 19:-0.8059 20:-0.770551 21:-0.848844 22:-0.878181 23:0.690121 24:0.915721 25:0.861298 26:-0.873409 27:-0.570545 28:-0.920361 29:0.0124559 30:0.348268 31:0.22043 32:-0.688556 33:-0.886522 34:-0.684916 35:0.510495 36:0.204121 37:0.337627 38:-0.631716 39:-0.695912 40:-0.667503 41:-0.676694 42:-0.666621 43:-0.632245 44:-0.672209 45:-0.848867 46:-0.520562 47:-0.68275 48:-0.878408 49:-0.736096 50:0.711736 51:0.875386 52:0.936199 53:-0.609189 54:-0.74889 55:-0.376959 56:-0.609796 57:0.675172 58:0.288557 59:0.931549 60:-0.651063 61:0.230737 62:-0.374138 63:0.573223 64:-0.779064 
0 0.6032460220982652 0 0.453512317195371 1:-0.104762 2:-0.0565666 3:0.363865 4:0.124099 5:-0.706908 6:-0.868503 7:-0.90896 8:0.246172 9:-0.205064 10:0.0695038 11:-0.468245 12:-0.544322 13:-0.874204 14:-0.634438 15:-0.864898 16:-0.77983 17:-0.704472 18:-0.879433 19:-0.895572 20:-0.703651 21:-0.874314 22:-0.937676 23:0.775987 24:0.88461 25:0.951658 26:-0.618876 27:-0.724161 28:-0.884143 29:0.279749 30:0.498726 31:-0.0902652 32:-0.413651 33:-0.350038 34:-0.366659 35:-0.223494 36:-0.220392 37:-0.583865 38:-0.743554 39:-0.699893 40:-0.286922 41:-0.214739 42:-0.307385 43:-0.220332 44:-0.3935 45:-0.298917 46:-0.375601 47:-0.429547 48:-0.394234 49:-0.462628 50:0.449256 51:0.374871 52:0.395023 53:-0.500692 54:-0.506658 55:-0.637481 56:0.0644611 57:0.124772 58:-0.231931 59:0.141158 60:-0.0217608 61:0.629805 62:-0.0831804 63:-0.187583 64:-0.0188967 
1.909444101718402 2.038489453257794 2.48371562415 1.18979498167029 1:0.275435 2:-0.208387 3:0.866007 4:-0.111277 5:-0.75255 6:-0.534745 7:-0.909383 8:0.566993 9:0.595071 10:0.372138 11:0.0705676 12:-0.32575 13:-0.289255 14:-0.650015 15:-0.715949 16:-0.644523 17:-0.751213 18:-0.486033 19:-0.909373 20:-0.744872 21:-0.658202 22:-0.897557 23:0.82407 24:0.969172 25:0.920295 26:-0.626428 27:0.122354 28:-0.858105 29:0.166157 30:0.0622599 31:0.039978 32:-0.778123 33:-0.446375 34:-0.750775 35:0.0352452 36:0.0926471 37:-0.138439 38:-0.65851 39:-0.942778 40:-0.86859 41:-0.411263 42:-0.62041 43:-0.512458 44:-0.779924 45:-0.42272 46:-0.714495 47:-0.729291 48:-0.585396 49:-0.814736 50:0.765289 51:0.494851 52:0.810407 53:-0.624689 54:-0.666033 55:-0.684178 56:0.81187 57:-0.0237899 58:0.507613 59:0.355233 60:-0.651154 61:-0.266638 62:0.440315 63:-0.176205 64:0.367496 
0 0 0.3472774421360428 1.011344328787618 1:-0.2095 2:-0.382614 3:0.452623 4:-0.22961 5:-0.807796 6:-0.791582 7:-0.942308 8:0.310857 9:-0.368783 10:-0.177715 11:-0.461254 12:-0.560394 13:-0.878234 14:-0.67213 15:-0.872314 16:-0.811472 17:-0.78025 18:-0.796486 19:-0.926053 20:-0.805869 21:-0.827784 22:-0.963575 23:0.796192 24:0.849813 25:0.914165 26:-0.783982 27:-0.67688 28:-0.99948 29:0.253662 30:0.223824 31:-0.159125 32:-0.556532 33:-0.335018 34:-0.309183 35:-0.05264 36:-0.268626 37:-0.10854 38:-0.66463 39:-0.683488 40:-0.915668 41:-0.342146 42:-0.509834 43:-0.264856 44:-0.538722 45:-0.336796 46:-0.314524 47:-0.475662 48:-0.392354 49:-0.511867 50:0.56562 51:0.240474 52:0.502715 53:-0.46305 54:-0.614458 55:-0.576651 56:0.861335 57:0.526289 58:-0.29576 59:-0.86902 60:-0.446882 61:0.346573 62:0.252071 63:0.66612 64:0.64422 
2.48371562415 2.48371562415 2.48371562415 2.48371562415 1:-0.0698391 2:-0.136884 3:0.35862 4:-0.150674 5:-0.984255 6:-0.967476 7:-0.874081 8:0.642817 9:-0.126297 10:-0.138599 11:0.195677 12:-0.743786 13:-0.650516 14:-0.894404 15:-0.941383 16:-0.954872 17:-0.984348 18:-0.975641 19:-0.872294 20:-0.958864 21:-0.972663 22:-0.874246 23:0.915955 24:0.955816 25:0.875356 26:-0.89878 27:-0.830059 28:-0.888566 29:0.206032 30:0.234321 31:-0.0927835 32:-0.701592 33:-0.69967 34:-0.860076 35:0.235572 36:-0.405563 37:-0.155419 38:-0.460501 39:-0.527615 40:-0.920797 41:-0.757885 42:-0.723559 43:-0.7091 44:-0.693916 45:-0.701925 46:-0.871634 47:-0.608881 48:-0.722657 49:-0.910025 50:0.719669 51:0.568486 52:0.81629 53:-0.506781 54:-0.790742 55:-0.841475 56:0.400107 57:0.19805 58:-0.106582 59:-0.689307 60:-0.509632 61:0.281979 62:-0.509466 63:0.00607945 64:0.649812 
0.09303264476899384 0.6802084380163709 0 0 1:-0.129554 2:-0.25495 3:0.415576 4:-0.301086 5:-0.393824 6:-0.657777 7:-0.736148 8:0.290952 9:-0.217724 10:-0.291221 11:-0.550891 12:-0.652131 13:-0.710284 14:-0.12874 15:-0.700738 16:-0.474125 17:-0.392114 18:-0.670154 19:-0.72588 20:-0.462288 21:-0.695859 22:-0.78682 23:0.646515 24:0.772122 25:0.790172 26:-0.349875 27:-0.489434 28:-0.860564 29:0.315864 30:0.639372 31:0.0516251 32:-0.640133 33:-0.740947 34:0.225917 35:0.510278 36:0.0860768 37:-0.264481 38:-0.496418 39:-0.88637 40:-0.831475 41:0.134693 42:-0.267501 43:-0.0944193 44:-0.583564 45:-0.526943 46:0.234074 47:-0.576003 48:-0.781887 49:-0.171095 50:0.798347 51:0.909887 52:0.221719 53:-0.398284 54:-0.590361 55:-0.367127 56:0.834899 57:-0.0670433 58:-0.245182 59:-0.853489 60:0.104312 61:0.221127 62:-0.299467 63:0.0269026 64:0.885419 
0 0 0 0.1463812104736088 1:-0.212462 2:-0.09896 3:0.277805 4:-0.165841 5:-0.332973 6:-0.506401 7:-0.649466 8:0.0914548 9:-0.507567 10:0.367804 11:-0.60654 12:-0.079222 13:-0.39405 14:-0.0496282 15:-0.592729 16:-0.371659 17:-0.333429 18:-0.523352 19:-0.649953 20:-0.386115 21:-0.494673 22:-0.651328 23:0.575737 24:0.570097 25:0.810746 26:-0.309204 27:-0.41634 28:-0.556774 29:0.251782 30:0.454151 31:-0.265051 32:-0.527224 33:-0.753715 34:0.355403 35:-0.0567422 36:0.0146559 37:-0.392095 38:-0.631954 39:-0.977983 40:-0.657256 41:0.00832723 42:-0.273002 43:-0.045801 44:-0.511601 45:-0.676274 46:0.364809 47:-0.456448 48:-0.834848 49:0.0116897 50:0.504132 51:0.855819 52:-0.11086 53:-0.489621 54:-0.706193 55:-0.50169 56:0.485498 57:0.235978 58:-0.197714 59:-0.338355 60:-0.341312 61:0.405691 62:-0.0208661 63:-0.194291 64:0.427681 
2.48371562415 0.9691403792686081 1.679249092306578 2.48371562415 1:-0.15127 2:-0.178145 3:0.334591 4:-0.183466 5:-0.692689 6:-0.802976 7:-0.891918 8:0.04364 9:-0.114015 10:0.0338455 11:-0.54327 12:-0.71962 13:-0.91126 14:-0.570487 15:-0.862805 16:-0.753454 17:-0.692753 18:-0.816109 19:-0.886689 20:-0.684052 21:-0.825539 22:-0.9149 23:0.71766 24:0.851222 25:0.902678 26:-0.66771 27:-0.666736 28:-0.922559 29:0.208226 30:0.406306 31:-0.10026 32:-0.811499 33:-0.704871 34:-0.355332 35:0.510677 36:0.0124811 37:-0.197772 38:-0.691059 39:-0.962178 40:-0.921912 41:-0.429479 42:-0.70403 43:-0.516334 44:-0.795272 45:-0.662334 46:-0.364348 47:-0.831768 48:-0.793482 49:-0.584485 50:0.923967 51:0.788363 52:0.558824 53:-0.624689 54:-0.70577 55:-0.626421 56:0.394377 57:0.345956 58:-0.0892489 59:-0.304978 60:-0.291541 61:0.117673 62:-0.454453 63:0.444477 64:0.263309 
0 2.48371562415 0.1047376451416863 0 1:-0.0449758 2:0.117179 3:0.450791 4:0.0473837 5:-0.390585 6:-0.880467 7:-0.751315 8:0.119577 9:-0.22902 10:-0.18045 11:-0.159462 12:-0.619499 13:-0.752556 14:-0.289922 15:-0.675029 16:-0.512695 17:-0.377585 18:-0.879761 19:-0.750986 20:-0.317015 21:-0.895488 22:-0.784861 23:0.538437 24:0.905167 25:0.823597 26:-0.232537 27:-0.733647 28:-0.799641 29:-0.0268703 30:0.0107633 31:-0.0119619 32:-0.51443 33:-0.766175 34:-0.623046 35:0.233133 36:0.235769 37:-0.0508849 38:-0.86518 39:-0.920357 40:-0.762656 41:-0.59186 42:-0.694677 43:-0.539587 44:-0.492903 45:-0.685749 46:-0.619457 47:-0.514518 48:-0.822313 49:-0.66029 50:0.537851 51:0.69001 52:0.671946 53:-0.536673 54:-0.825407 55:-0.604301 56:0.0407419 57:0.175947 58:-0.408666 59:0.435236 60:0.393744 61:0.3904 62:0.268654 63:0.0115185 64:0.714639 
1.517568515957314 2.48371562415 2.48371562415 2.48371562415 1:0.0391193 2:0.0332433 3:0.333575 4:-0.0859486 5:-0.911957 6:-0.984536 7:-0.966531 8:0.206157 9:-0.00564483 10:0.0488763 11:-0.594592 12:-0.905523 13:-0.684156 14:-0.877407 15:-0.951994 16:-0.947111 17:-0.887484 18:-0.99477 19:-0.967013 20:-0.903642 21:-0.99032 22:-0.960664 23:0.886217 24:0.96662 25:0.938863 26:-0.837404 27:-0.854115 28:-0.951561 29:0.111555 30:0.232267 31:-0.0410797 32:-0.920187 33:-0.978996 34:-0.873665 35:-0.25648 36:0.587529 37:0.529326 38:-0.76444 39:-0.557914 40:-0.182953 41:-0.961799 42:-0.920231 43:-0.940026 44:-0.926701 45:-0.981578 46:-0.870282 47:-0.933817 48:-0.98151 49:-0.867163 50:0.860496 51:0.912461 52:0.881448 53:-0.81013 54:-0.857535 55:-0.678648 56:-0.374132 57:-0.191666 58:0.688363 59:-0.663591 60:-0.591268 61:0.399609 62:0.150497 63:0.169881 64:-0.706502 
