svm_type c_svc
kernel_type rbf
gamma 0.0230754
nr_class 5
total_sv 410
rho -5.40415 5.07637 -0.546255 -2.24927 0.676959 3.02016 4.17554 0.165447 1.09085 -10.4552
label 1 2 3 4 5
probA -2.02036 -1.73834 -2.04539 -1.64298 -1.7875 -1.99836 -1.79673 -0.732784 -1.57999 -1.04727
probB 0.231812 0.0468015 0.243881 0.0704666 -0.192905 0.327067 0.310144 0.0310485 -0.180453 -0.0558302
nr_sv 67 67 86 106 84
SV
0 15.07628952675127 0 88.14864358060701 1:0.0169983 2:-0.289723 3:-0.0939457 4:0.441205 5:-0.80808 6:-0.929572 7:-0.947676 8:0.690085 9:-0.012195 10:-0.0416264 11:0.318593 12:-0.721588 13:-0.722198 14:-0.784355 15:-0.913572 16:-0.82389 17:-0.0478859 18:0.28673 19:0.426669 20:-0.755628 21:-0.823541 22:-0.35522 23:0.056806 24:-0.215884 25:0.231076 26:-0.981955 27:-0.664752 28:-0.876269 29:-0.638614 30:-0.652056 31:-0.605181 32:-0.458754 33:0.543787 34:-0.401382 35:-0.440709 36:0.644012 37:-0.524289 38:0.783529 39:-0.286727 40:0.859841 
37.08493611807585 57.19857213609772 51.66272284591534 0 1:-0.84194 2:-0.0190357 3:-0.0180902 4:0.251501 5:-0.76179 6:-0.872853 7:-0.729108 8:0.00551535 9:0.228891 10:-0.563544 11:-0.949304 12:-0.633389 13:-0.0500459 14:-0.741046 15:-0.770743 16:-0.705999 17:-0.581848 18:0.549247 19:0.248573 20:-0.50085 21:0.091983 22:-0.749732 23:-0.173733 24:0.318964 25:0.134639 26:-0.802348 27:-0.82654 28:-0.909782 29:-0.308599 30:-0.324567 31:-0.163126 32:0.769579 33:-0.772141 34:-0.359474 35:0.620221 36:-0.492288 37:0.10374 38:0.0854272 39:-0.12564 40:-0.2429 
0 10.61060347271114 44.02629093084058 0 1:-0.862426 2:-0.0983362 3:-0.0525025 4:0.276372 5:-0.788188 6:-0.840734 7:-0.660147 8:-0.49286 9:-0.410992 10:-0.233037 11:-0.105682 12:-0.514682 13:-0.401344 14:-0.713543 15:-0.694635 16:-0.663264 17:-0.38088 18:0.101278 19:0.437553 20:-0.756736 21:-0.868445 22:-0.833727 23:0.0243656 24:0.504491 25:-0.0910873 26:-0.43119 27:-0.441914 28:-0.69351 29:-0.881606 30:-0.827176 31:-0.823956 32:0.642979 33:-0.381119 34:0.0835576 35:0.857521 36:-0.78447 37:-0.483914 38:0.180298 39:-0.281129 40:0.469981 
16.18271630830744 0 0 0 1:-0.884002 2:-0.0311435 3:0.0275889 4:0.396912 5:-0.895678 6:-0.888652 7:-0.714363 8:-0.269757 9:-0.196183 10:-0.18934 11:-0.516336 12:-0.59723 13:-0.381981 14:-0.738011 15:-0.819204 16:-0.748062 17:-0.377823 18:0.0917317 19:0.421969 20:-0.659287 21:-0.71208 22:-0.790146 23:-0.205948 24:0.198541 25:0.115999 26:-0.514589 27:-0.794704 28:-0.880248 29:-0.798068 30:-0.716552 31:-0.712275 32:0.536586 33:-0.400603 34:-0.429059 35:0.568259 36:-0.360476 37:-0.617445 38:0.303746 39:-0.428164 40:0.284289 
0 0 0 31.97542458823302 1:-0.359449 2:0.0624841 3:0.128379 4:0.339511 5:-0.967377 6:-0.871394 7:-0.827912 8:0.089739 9:-0.619427 10:0.327685 11:-0.900806 12:0.162335 13:-0.532621 14:-0.873928 15:-0.862519 16:-0.844969 17:-0.313126 18:0.0667727 19:0.418012 20:-0.80358 21:-0.879424 22:-0.886003 23:0.226556 24:-0.645062 25:0.626235 26:-0.302262 27:-0.125279 28:-0.116001 29:-0.918707 30:-0.83469 31:-0.860019 32:0.0716117 33:-0.509978 34:0.78742 35:0.446457 36:0.143347 37:-0.753457 38:-0.25617 39:-0.381953 40:0.870188 
59.89755839315774 0 0 0 1:-0.507343 2:-0.0102242 3:0.0662683 4:0.403606 5:-0.98679 6:-0.867103 7:-0.877756 8:0.0421194 9:-0.620141 10:0.344432 11:-0.701658 12:0.166305 13:-0.615712 14:-0.888915 15:-0.896763 16:-0.880932 17:-0.321022 18:0.0525531 19:0.444767 20:-0.857145 21:-0.901883 22:-0.87639 23:-0.308781 24:0.0755351 25:0.34608 26:-0.220177 27:-0.885733 28:-0.792494 29:-0.918589 30:-0.886454 31:-0.884732 32:0.0896311 33:0.146073 34:-0.1034 35:0.647726 36:0.0306206 37:-0.595238 38:-0.400452 39:0.0989245 40:0.796117 
38.37244739758729 56.57688029561008 26.77761715262426 11.29238892807012 1:0.990547 2:-0.0272588 3:0.0601218 4:0.442739 5:-0.83907 6:-0.912615 7:-0.825982 8:-0.896869 9:-0.534343 10:0.119879 11:0.588693 12:0.127648 13:-0.33887 14:-0.836939 15:-0.869371 16:-0.805119 17:-0.395653 18:0.180033 19:0.449096 20:-0.739938 21:-0.77414 22:-0.897139 23:-0.0541895 24:-0.261607 25:0.358391 26:-0.247626 27:-0.240257 28:-0.640895 29:-0.866954 30:-0.777499 31:-0.78714 32:0.68954 33:-0.399006 34:-0.452141 35:0.143748 36:0.277828 37:-0.713386 38:-0.368918 39:-0.0626225 40:0.59605 
0 0 0 35.90525312372024 1:-0.850389 2:-0.296166 3:0.0111852 4:0.0420789 5:-0.790745 6:-0.780882 7:-0.641709 8:-0.580195 9:-0.100714 10:-0.606074 11:-0.25102 12:-0.701407 13:0.0401433 14:-0.733625 15:-0.621618 16:-0.622415 17:-0.419086 18:0.399294 19:0.490034 20:-0.744142 21:-0.778558 22:-0.725634 23:0.160725 24:0.122058 25:0.432678 26:-0.351859 27:-0.90067 28:-0.555566 29:-0.818096 30:-0.658109 31:-0.722371 32:0.427469 33:-0.341309 34:-0.446026 35:0.367239 36:-0.281607 37:-0.885156 38:0.0950584 39:-0.263028 40:-0.0239043 
0 0 0 9.70213102493735 1:-0.187487 2:0.118342 3:0.146606 4:0.327803 5:-0.874763 6:-0.845421 7:-0.752282 8:0.854252 9:-0.48817 10:0.553607 11:0.642509 12:0.0418359 13:-0.142109 14:-0.817484 15:-0.72636 16:-0.755548 17:-0.249109 18:0.0395267 19:0.395214 20:-0.712 21:-0.772248 22:-0.826734 23:0.427146 24:-0.358333 25:0.925473 26:-0.34381 27:-0.391302 28:0.640654 29:-0.867781 30:-0.71196 31:-0.759872 32:-0.343392 33:0.0779472 34:0.954043 35:0.441944 36:0.0943954 37:-0.847567 38:-0.238548 39:-0.214201 40:0.996079 
72.40847873207821 0 0 0 1:-0.932949 2:-0.00182434 3:0.0419616 4:0.239785 5:-0.879497 6:-0.897824 7:-0.553416 8:-0.423284 9:0.220173 10:-0.55452 11:-0.293233 12:-0.403393 13:0.0940803 14:-0.652366 15:-0.695621 16:-0.621303 17:-0.276193 18:-0.0507632 19:0.417641 20:-0.643773 21:-0.597981 22:-0.837606 23:-0.173176 24:-0.148723 25:0.240416 26:-0.393843 27:-0.595624 28:-0.870328 29:-0.774968 30:-0.670006 31:-0.650048 32:0.482698 33:-0.425309 34:-0.230004 35:0.523733 36:-0.283938 37:-0.350485 38:0.51647 39:-0.601936 40:-0.162599 
0 2.138143243312774 0 0 1:0.984666 2:-0.387317 3:0.127068 4:0.103372 5:-0.516926 6:-0.803457 7:-0.5795 8:-0.822133 9:-0.129443 10:-0.589409 11:0.487606 12:-0.395277 13:0.114011 14:-0.671497 15:-0.477917 16:-0.461112 17:-0.31873 18:0.140357 19:0.392122 20:-0.761876 21:-0.770241 22:-0.763753 23:0.618033 24:-0.28193 25:0.639133 26:-0.0508864 27:-0.402379 28:-0.0343767 29:-0.86276 30:-0.758297 31:-0.771262 32:-0.160524 33:-0.356965 34:0.369039 35:0.394684 36:-0.287365 37:-0.526804 38:-0.0152817 39:-0.435458 40:0.308973 
56.45867879822781 76.77304664615285 43.35993414431251 20.66654192427553 1:-0.932064 2:0.00865924 3:0.0940627 4:0.24288 5:-0.863907 6:-0.888316 7:-0.816942 8:-0.523119 9:-0.103913 10:-0.140377 11:-0.270808 12:-0.464588 13:-0.328746 14:-0.855798 15:-0.845515 16:-0.811976 17:-0.39353 18:0.099289 19:0.441222 20:-0.735449 21:-0.864101 22:-0.898919 23:-0.274447 24:-0.226441 25:0.50817 26:-0.326363 27:-0.361841 28:-0.478246 29:-0.88391 30:-0.772073 31:-0.823616 32:0.290968 33:-0.0986614 34:-0.385716 35:0.605526 36:-0.0603461 37:-0.58977 38:0.264459 39:-0.457212 40:-0.169667 
112.2950063525241 0 0 65.38119768118348 1:-0.833256 2:-0.204874 3:-0.0295668 4:0.420718 5:-0.672278 6:-0.728049 7:-0.872872 8:-0.250377 9:0.135837 10:0.204326 11:-0.755798 12:-0.646886 13:-0.524925 14:-0.670114 15:-0.809686 16:-0.676906 17:-0.40737 18:0.291205 19:0.302249 20:-0.763981 21:-0.604801 22:-0.54269 23:0.0347851 24:0.41969 25:0.276751 26:-0.432063 27:-0.756519 28:-0.832374 29:-0.69273 30:-0.649134 31:-0.608463 32:0.895287 33:-0.649552 34:-0.303098 35:0.85718 36:-0.347377 37:0.0141452 38:-0.31361 39:0.586975 40:0.461527 
30.84747081171061 0 0 0 1:-0.853569 2:0.130485 3:0.135584 4:0.617715 5:-0.69052 6:-0.811832 7:-0.634304 8:-0.148829 9:-0.10712 10:0.283801 11:-0.774333 12:-0.7858 13:-0.790218 14:-0.620381 15:-0.78877 16:-0.581205 17:-0.42936 18:0.0609059 19:0.416981 20:-0.0680716 21:-0.799678 22:-0.367914 23:-0.686385 24:0.833903 25:0.243797 26:-0.0612182 27:0.451407 28:-0.879199 29:-0.510058 30:-0.171989 31:-0.348007 32:0.382222 33:-0.297854 34:0.203636 35:0.808114 36:-0.519186 37:-0.36577 38:-0.19405 39:-0.0527503 40:0.670885 
0 0 0 138.3088351883282 1:0.113266 2:0.0227081 3:0.248199 4:0.377079 5:-0.712643 6:-0.785166 7:-0.880019 8:0.612677 9:0.275585 10:0.047473 11:0.0651053 12:-0.838287 13:-0.857314 14:-0.776455 15:-0.796819 16:-0.724236 17:-0.213619 18:0.0239149 19:0.312349 20:-0.731387 21:-0.888079 22:-0.760001 23:0.253199 24:-0.103553 25:-0.00326413 26:-0.824401 27:-0.901377 28:-0.877597 29:-0.835642 30:-0.753287 31:-0.764197 32:-0.0894288 33:0.421939 34:0.534659 35:-0.0835232 36:0.297334 37:0.389349 38:-0.391422 39:0.538742 40:0.676755 
49.86637024203267 176.0393555800769 135.7397058870116 0 1:0.070617 2:0.00039833 3:0.123668 4:0.317052 5:-0.683904 6:-0.803818 7:-0.826584 8:0.56322 9:0.43059 10:0.128958 11:-0.157696 12:-0.464388 13:-0.768302 14:-0.751048 15:-0.775219 16:-0.698886 17:-0.381644 18:0.0466862 19:0.189413 20:-0.685858 21:-0.764181 22:-0.733339 23:0.196643 24:-0.453625 25:0.0878767 26:-0.827219 27:-0.253953 28:-0.924216 29:-0.704487 30:-0.729284 31:-0.644833 32:0.226209 33:-0.754271 34:0.169559 35:-0.216897 36:-0.340081 37:-0.0430259 38:-0.379921 39:0.601917 40:0.136574 
7.128228773554347 0 65.36896578619296 149.5279668485466 1:0.06015 2:0.155446 3:0.14452 4:0.310995 5:-0.867497 6:-0.970863 7:-0.953147 8:0.603956 9:0.106956 10:0.150785 11:-0.172304 12:-0.693038 13:-0.958631 14:-0.927369 15:-0.915441 16:-0.888919 17:-0.303362 18:0.0909362 19:0.0981799 20:-0.91807 21:-0.975491 22:-0.779501 23:0.0358511 24:0.0514893 25:0.246511 26:-0.955699 27:-0.913384 28:-0.555341 29:-0.573745 30:-0.830724 31:-0.668432 32:0.422595 33:-0.481346 34:0.896342 35:-0.132946 36:-0.0704339 37:0.384689 38:-0.0873353 39:0.47942 40:-0.662869 
0 0 0 17.00827808825464 1:-0.0424755 2:0.14752 3:0.0648302 4:0.207367 5:-0.722528 6:-0.934715 7:-0.886782 8:0.357322 9:0.247268 10:0.154151 11:-0.727841 12:-0.571631 13:-0.816941 14:-0.763161 15:-0.874771 16:-0.769972 17:-0.261674 18:0.146025 19:0.326737 20:-0.830736 21:-0.90504 22:-0.780867 23:0.0287282 24:-0.272139 25:0.388794 26:-0.961807 27:-0.180464 28:-0.426543 29:-0.844918 30:-0.867251 31:-0.826794 32:-0.281005 33:-0.0456817 34:0.798078 35:-0.330067 36:0.750069 37:0.170982 38:-0.163978 39:0.197683 40:0.465961 
19.69677459662595 37.9430614975209 16.19340326264821 24.35006980367774 1:-0.932718 2:-0.0207495 3:-0.0553558 4:0.199957 5:-0.775157 6:-0.957437 7:-0.635788 8:-0.775587 9:-0.134845 10:-0.470224 11:0.391819 12:-0.345838 13:0.1673 14:-0.761419 15:-0.659305 16:-0.657547 17:-0.367719 18:0.14513 19:0.351885 20:-0.917113 21:-0.902434 22:-0.845968 23:-0.206372 24:0.731411 25:0.421664 26:-0.825856 27:0.441108 28:-0.667033 29:-0.888164 30:-0.921311 31:-0.886667 32:-0.106948 33:-0.777001 34:0.128917 35:-0.399405 36:-0.568778 37:0.324678 38:-0.0168955 39:-0.746399 40:0.0870946 
8.268179210707034 0 0 0 1:-0.885215 2:8.08886e-05 3:0.0632298 4:0.643396 5:0.133441 6:-0.504385 7:-0.0788915 8:-0.253717 9:-0.121158 10:-0.0699452 11:-0.453293 12:-0.369204 13:-0.842235 14:0.0897445 15:-0.355048 16:0.221141 17:-0.429445 18:0.149108 19:0.387133 20:0.290752 21:-0.154171 22:0.00139575 23:0.142313 24:-0.152706 25:0.452523 26:-0.793751 27:-0.800186 28:-0.592164 29:-0.134139 30:-0.236276 31:0.0883254 32:0.670081 33:-0.797114 34:0.145913 35:0.516519 36:-0.787231 37:0.0903471 38:0.0500989 39:-0.67977 40:0.562883 
10.52554040647851 0 0 0 1:-0.853206 2:-0.104785 3:-0.0842755 4:0.902907 5:0.312172 6:-0.321269 7:0.129202 8:-0.190873 9:-0.310223 10:-0.029752 11:-0.444803 12:-0.278295 13:-0.903766 14:0.406684 15:-0.179557 16:0.480509 17:-0.483868 18:0.42485 19:0.457836 20:0.0839227 21:-0.329748 22:0.225606 23:-0.170625 24:-0.0171676 25:0.45432 26:-0.768345 27:-0.871394 28:-0.577454 29:-0.262517 30:0.0277604 31:0.0159959 32:0.582596 33:-0.736773 34:-0.0822018 35:0.659377 36:-0.820822 37:-0.267471 38:-0.162869 39:-0.563106 40:0.638755 
0 5.203201872167438 11.30838239748818 0 1:-0.873191 2:0.127604 3:0.16282 4:0.440656 5:0.53598 6:-0.333054 7:-0.258308 8:-0.110911 9:-0.267593 10:-0.0592073 11:-0.511458 12:-0.341247 13:-0.826242 14:0.344745 15:-0.0310519 16:0.407994 17:-0.353031 18:0.460846 19:0.415497 20:-0.0885243 21:-0.167908 22:-0.00274778 23:0.0224025 24:-0.439182 25:0.493101 26:-0.869912 27:-0.503019 28:-0.511038 29:-0.369864 30:0.0118973 31:-0.0622261 32:0.845639 33:-0.785132 34:0.0388133 35:0.800501 36:-0.722788 37:-0.128469 38:-0.334076 39:-0.00141428 40:0.392806 
24.9454843956242 0 29.29452629959606 0 1:0.12501 2:0.238255 3:0.113165 4:0.130281 5:-0.531995 6:-0.767964 7:-0.62394 8:0.490253 9:0.435256 10:-0.211928 11:-0.378944 12:-0.44986 13:-0.723436 14:-0.606849 15:-0.612686 16:-0.4945 17:-0.347003 18:0.428529 19:0.231505 20:-0.165739 21:-0.122163 22:-0.660157 23:0.314211 24:-0.430457 25:0.396378 26:-0.675826 27:-0.596013 28:-0.394988 29:-0.315688 30:-0.302442 31:-0.181757 32:0.763909 33:-0.806331 34:0.876457 35:0.475388 36:-0.658746 37:0.811104 38:0.024324 39:-0.350882 40:-0.152045 
66.07913472120116 0 0 0 1:0.12502 2:0.303456 3:0.378085 4:0.686525 5:-0.200274 6:-0.598859 7:-0.0725843 8:0.449342 9:0.360922 10:0.103578 11:-0.466137 12:-0.602963 13:-0.821866 14:0.0233082 15:-0.210074 16:0.0519289 17:-0.165223 18:0.371451 19:0.297838 20:-0.106566 21:-0.247195 22:-0.678655 23:0.243798 24:-0.491547 25:0.309618 26:-0.670037 27:-0.536865 28:-0.414433 29:-0.405134 30:-0.249843 31:-0.229859 32:0.416026 33:-0.849602 34:0.486309 35:0.180031 36:-0.815453 37:0.566869 38:-0.103019 39:-0.62108 40:0.583445 
0 0 26.46402244339054 0 1:0.11467 2:0.229464 3:0.134192 4:0.473249 5:-0.66185 6:-0.769726 7:-0.402462 8:0.562231 9:0.342279 10:-0.0274353 11:-0.189558 12:-0.648703 13:-0.759057 14:-0.344482 15:-0.573123 16:-0.408379 17:-0.0305655 18:-0.262268 19:0.381691 20:-0.207851 21:-0.174327 22:-0.827782 23:0.155912 24:-0.446169 25:0.267598 26:-0.770864 27:-0.525462 28:-0.795264 29:-0.496647 30:-0.215195 31:-0.23654 32:0.59582 33:-0.873066 34:0.469779 35:0.240424 36:-0.732777 37:0.343821 38:-0.0223554 39:-0.503158 40:0.27989 
56.75227888195224 0 0 0 1:-0.855394 2:-0.143622 3:-0.0951942 4:0.291045 5:-0.741086 6:-0.837622 7:-0.751358 8:-0.142055 9:0.162384 10:-0.230145 11:-0.717187 12:-0.648299 13:-0.680305 14:-0.7435 15:-0.845525 16:-0.69742 17:-0.492953 18:0.321633 19:0.241564 20:-0.726009 21:-0.723866 22:-0.502552 23:0.490906 24:0.276965 25:0.344471 26:-0.14865 27:-0.745063 28:-0.801542 29:-0.617227 30:-0.691087 31:-0.600392 32:0.693799 33:-0.504469 34:-0.430218 35:0.493193 36:-0.131116 37:-0.0185966 38:-0.635488 39:0.747088 40:0.563256 
0 4.375738250847401 0 0 1:-0.949182 2:-0.268405 3:-0.000846568 4:-0.0772793 5:0.129261 6:-0.601183 7:0.0313555 8:-0.302521 9:0.147309 10:-0.347497 11:-0.351003 12:-0.622408 13:-0.281878 14:0.000958423 15:0.0706382 16:0.26837 17:-0.395738 18:0.397604 19:0.405479 20:-0.299214 21:-0.144632 22:-0.27463 23:0.152976 24:-0.492721 25:0.561051 26:-0.627157 27:-0.291812 28:-0.415866 29:-0.421617 30:-0.19307 31:-0.19811 32:0.287774 33:-0.588291 34:-0.114362 35:0.26481 36:-0.659246 37:-0.148498 38:0.0541671 39:-0.632573 40:0.0197946 
0 0 0 18.06994476960212 1:0.114484 2:0.208344 3:0.133149 4:0.290859 5:-0.379159 6:-0.746865 7:-0.420451 8:0.520311 9:0.480551 10:0.146174 11:-0.358972 12:-0.320814 13:-0.432135 14:-0.487778 15:-0.371106 16:-0.296082 17:-0.262608 18:0.318749 19:0.242677 20:-0.154309 21:-0.0310222 22:-0.523947 23:0.231333 24:-0.417628 25:0.610654 26:-0.779139 27:-0.583722 28:-0.0188396 29:-0.285086 30:-0.166145 31:-0.123848 32:0.680314 33:-0.858172 34:0.942016 35:0.245664 36:-0.547108 37:0.864625 38:0.116895 39:-0.515314 40:0.537454 
5.397110128965031 14.19737840939395 0 0 1:-0.764673 2:-0.486507 3:0.0880239 4:0.455206 5:-0.0858368 6:0.122783 7:-0.631282 8:-0.979105 9:-0.671562 10:0.825236 11:0.808748 12:0.36552 13:0.471493 14:-0.392494 15:0.0183841 16:0.0753863 17:-0.324843 18:0.124944 19:0.443737 20:-0.77997 21:-0.745122 22:-0.601994 23:0.0724484 24:0.185859 25:0.359846 26:-0.8584 27:-0.787134 28:-0.794568 29:-0.792456 30:-0.742225 31:-0.717751 32:0.134895 33:-0.127172 34:-0.330254 35:0.0570813 36:-0.044838 37:-0.0664676 38:-0.022296 39:0.221464 40:0.608161 
22.95857002639627 24.92984652738622 20.10096568710792 0 1:-0.991708 2:0.00386521 3:0.057691 4:0.532044 5:-0.0189425 6:-0.848172 7:-0.790189 8:-0.840276 9:0.296299 10:0.125546 11:0.480465 12:-0.677909 13:-0.683773 14:-0.284569 15:-0.440539 16:-0.230066 17:-0.332569 18:-0.134391 19:0.458372 20:-0.75415 21:-0.746765 22:-0.295812 23:-0.418715 24:0.332368 25:0.0703933 26:-0.330374 27:-0.738572 28:-0.670605 29:-0.656869 30:-0.647047 31:-0.575619 32:0.792396 33:0.183001 34:-0.334469 35:0.0445668 36:0.0252684 37:0.366367 38:0.192991 39:-0.27044 40:0.301976 
0 0 202.282142258289 81.43396845504169 1:0.133155 2:0.0220351 3:0.20659 4:0.100465 5:-0.696628 6:-0.778948 7:-0.86775 8:0.441134 9:0.447876 10:-0.0687235 11:-0.455982 12:-0.466848 13:-0.872364 14:-0.758659 15:-0.775147 16:-0.708949 17:-0.456359 18:-0.181226 19:0.336095 20:-0.708644 21:-0.587627 22:-0.408681 23:0.0165852 24:-0.129429 25:-0.0233593 26:-0.761576 27:-0.736201 28:-0.767985 29:-0.684991 30:-0.647881 31:-0.537438 32:0.642731 33:0.480474 34:0.480046 35:0.235384 36:0.748647 37:0.220178 38:-0.277409 39:-0.454626 40:-0.0763112 
7.56171203217989 157.870795044276 35.17175220713347 108.0633863787494 1:0.951913 2:-0.0635785 3:0.133577 4:0.541883 5:-0.563173 6:-0.910561 7:-0.838668 8:-0.561272 9:0.202728 10:0.471533 11:0.0759623 12:-0.853072 13:-0.399439 14:-0.700109 15:-0.665018 16:-0.63627 17:-0.484547 18:-0.0146671 19:0.418919 20:-0.794919 21:-0.607448 22:-0.418224 23:-0.0326234 24:0.119934 25:0.271276 26:-0.736924 27:-0.783132 28:-0.512786 29:-0.700942 30:-0.613233 31:-0.589008 32:0.39364 33:-0.0392163 34:-0.370672 35:-0.0377205 36:-0.39788 37:0.33762 38:-0.237142 39:-0.195917 40:0.506206 
0 0 0 186.1489251279851 1:0.465849 2:0.0869102 3:0.292894 4:0.382204 5:-0.918285 6:-0.822316 7:-0.895801 8:0.190914 9:0.382696 10:0.25544 11:-0.880594 12:-0.682544 13:-0.712705 14:-0.898239 15:-0.892224 16:-0.837808 17:-0.192308 18:0.0421121 19:0.384495 20:-0.855821 21:-0.824184 22:-0.81401 23:0.0814703 24:-0.0712353 25:0.662617 26:-0.888097 27:-0.694931 28:-0.212861 29:-0.883555 30:-0.831977 31:-0.820367 32:0.627707 33:-0.457071 34:0.225548 35:0.532322 36:-0.566596 37:0.898653 38:0.29718 39:-0.556122 40:0.855692 
0 71.36863698004751 0 0 1:0.149232 2:0.324583 3:0.150531 4:0.289089 5:-0.479138 6:-0.741515 7:-0.790924 8:0.209242 9:0.485521 10:0.15418 11:-0.668451 12:-0.456697 13:-0.930615 14:-0.535464 15:-0.701085 16:-0.526248 17:-0.436152 18:-0.20877 19:0.300682 20:-0.590137 21:-0.760245 22:-0.125593 23:-0.269719 24:-0.215706 25:-0.224344 26:-0.764766 27:-0.886182 28:-0.648256 29:-0.624553 30:-0.517846 31:-0.445877 32:-0.0398371 33:-0.0476265 34:0.467165 35:-0.408805 36:0.112889 37:0.246887 38:-0.113233 39:-0.592989 40:-0.67778 
0 1.981494830532087 0 0 1:0.157446 2:0.222121 3:0.115204 4:0.239302 5:-0.582035 6:-0.775737 7:-0.767231 8:-0.044293 9:0.359686 10:-0.114005 11:-0.64493 12:-0.48561 13:-0.737147 14:-0.626662 15:-0.691093 16:-0.597048 17:-0.636611 18:-0.279073 19:0.387257 20:-0.681214 21:-0.590516 22:-0.509962 23:-0.0300551 24:-0.413884 25:-0.432494 26:-0.491912 27:-0.655282 28:-0.317568 29:-0.740525 30:-0.664788 31:-0.533581 32:0.928071 33:-0.094698 34:0.0923349 35:0.469586 36:0.28449 37:0.341172 38:-0.398502 39:-0.595502 40:0.396178 
173.9813038939267 0 97.04066923884345 168.5623336697401 1:0.174825 2:0.205342 3:0.206757 4:0.33 5:-0.621318 6:-0.683862 7:-0.745506 8:0.463063 9:0.216073 10:0.108261 11:-0.459214 12:-0.656323 13:-0.939147 14:-0.684134 15:-0.707868 16:-0.582221 17:-0.595432 18:0.0612042 19:0.353658 20:-0.436018 21:-0.571771 22:-0.478286 23:0.0200622 24:-0.149551 25:0.234771 26:-0.852527 27:-0.333648 28:-0.508148 29:-0.606711 30:-0.487581 31:-0.472458 32:0.395336 33:-0.772272 34:0.521964 35:0.31463 36:-0.49677 37:0.642404 38:-0.489756 39:0.211938 40:-0.376399 
0 0 0 185.2971490283262 1:-0.876134 2:-0.236242 3:0.0368312 4:0.465917 5:-0.658046 6:-0.768802 7:-0.815072 8:0.0356648 9:0.129911 10:0.315552 11:-0.476898 12:-0.647513 13:-0.562974 14:-0.71945 15:-0.735022 16:-0.657282 17:-0.571829 18:0.0473823 19:0.378393 20:-0.489718 21:-0.491635 22:-0.274398 23:-0.172125 24:0.0732494 25:-0.154197 26:-0.791334 27:-0.900858 28:-0.720031 29:-0.627803 30:-0.476936 31:-0.408217 32:0.204765 33:-0.0646935 34:-0.213506 35:0.426642 36:-0.287281 37:0.301943 38:0.445594 39:-0.768962 40:0.726581 
27.44089949396519 21.11640632374275 0 244.0576461635045 1:0.180382 2:-0.0607022 3:-0.0222425 4:0.555407 5:-0.637618 6:-0.773909 7:-0.738147 8:0.208236 9:0.740746 10:0.195922 11:-0.257549 12:0.376945 13:-0.691097 14:-0.730224 15:-0.695659 16:-0.613091 17:-0.512651 18:-0.0923283 19:0.263002 20:-0.473513 21:-0.74288 22:-0.191893 23:-0.2226 24:0.218516 25:-0.599665 26:-0.681187 27:-0.636581 28:-0.237627 29:-0.706141 30:-0.324149 31:-0.428038 32:0.567769 33:-0.597297 34:0.405901 35:0.212111 36:-0.29209 37:0.327524 38:-0.163246 39:-0.28422 40:-0.0951781 
62.44650701352347 3.832556085751806 0 0 1:0.710447 2:0.0827798 3:0.415455 4:0.605543 5:-0.749375 6:-0.693532 7:-0.509042 8:-0.408019 9:0.630476 10:0.980613 11:-0.295547 12:-0.0500895 13:0.812368 14:-0.707511 15:-0.427365 16:-0.485228 17:-0.309475 18:0.0965047 19:0.360914 20:-0.837567 21:-0.815957 22:-0.748101 23:0.358433 24:-0.0343996 25:0.529579 26:-0.643369 27:-0.455036 28:-0.481975 29:-0.847458 30:-0.773951 31:-0.804197 32:0.613185 33:0.0228442 34:-0.152338 35:0.124412 36:-0.182059 37:0.808055 38:-0.1767 39:-0.225036 40:0.778801 
50.95382097277562 0 0 22.83857942922351 1:-0.679116 2:-0.0228777 3:-0.317476 4:-0.0763637 5:-0.420105 6:-0.0303839 7:-0.0429773 8:-0.710524 9:-0.949595 10:-0.668967 11:0.281147 12:0.881137 13:0.379084 14:-0.345168 15:0.326167 16:0.136244 17:-0.448378 18:0.476657 19:0.359182 20:-0.672161 21:-0.513645 22:-0.51708 23:-0.457444 24:-0.198928 25:0.641208 26:-0.246865 27:-0.61922 28:-0.24909 29:-0.632588 30:-0.550407 31:-0.52849 32:0.636044 33:-0.529233 34:0.18926 35:0.606166 36:-0.434814 37:0.0163065 38:0.275488 39:-0.455071 40:0.452998 
0 0 14.5655278551309 0 1:0.0377581 2:0.00231448 3:0.0789176 4:0.599416 5:-0.354796 6:-0.85291 7:-0.515266 8:0.471101 9:0.0741741 10:0.422577 11:-0.0180492 12:-0.954932 13:-0.425923 14:-0.498685 15:-0.4206 16:-0.348258 17:-0.104687 18:-1 19:0.490157 20:-0.513971 21:-0.413983 22:-0.482979 23:-0.093093 24:0.613961 25:-0.321364 26:-0.949533 27:-0.0784161 28:-0.50749 29:-0.233923 30:-0.430182 31:-0.249825 32:-0.625638 33:0.884399 34:-0.00718881 35:-0.32939 36:0.608543 37:0.317143 38:-0.293739 39:0.505381 40:-0.258804 
15.64372552306993 0 0 13.59088331997897 1:-0.817069 2:0.162554 3:0.221718 4:0.46614 5:-0.751142 6:-0.815069 7:-0.811703 8:-0.4302 9:-0.516916 10:0.071047 11:-0.282588 12:-0.0498118 13:-0.726801 14:-0.776056 15:-0.759996 16:-0.716606 17:-0.65512 18:0.481927 19:0.381238 20:-0.578195 21:-0.61143 22:-0.558096 23:-0.40202 24:0.65611 25:0.649337 26:-0.122783 27:-0.144481 28:-0.11903 29:-0.719848 30:-0.238364 31:-0.529664 32:0.62797 33:-0.383151 34:-0.560183 35:0.777094 36:-0.456866 37:-0.514632 38:-0.537735 39:0.653994 40:0.692012 
36.22592647470042 15.91724349202251 94.66502485438251 110.2349767582654 1:-0.161155 2:0.024857 3:0.0818723 4:0.163646 5:-0.705213 6:-0.856802 7:-0.757043 8:-0.122354 9:-0.338975 10:0.187711 11:-0.672269 12:-0.425287 13:-0.695661 14:-0.740103 15:-0.85344 16:-0.689048 17:-0.121922 18:0.711928 19:0.544163 20:-0.298169 21:0.30141 22:-0.515836 23:0.0280464 24:0.274614 25:-0.224562 26:-0.875875 27:-0.872538 28:-0.668848 29:-0.0540868 30:-0.236694 31:0.0369613 32:0.330881 33:-0.740292 34:-0.250523 35:-0.168289 36:0.442019 37:0.125793 38:0.00739152 39:-0.380285 40:-0.208429 
16.6844312029139 0 2.287735864888025 78.23795502891473 1:-0.742239 2:-0.0582595 3:0.152522 4:0.392809 5:-0.788435 6:-0.755506 7:-0.768006 8:-0.220819 9:-0.623991 10:0.1044 11:-0.491379 12:0.203242 13:-0.747959 14:-0.762995 15:-0.790528 16:-0.706137 17:-0.554424 18:0.68319 19:0.446375 20:-0.417512 21:0.216677 22:-0.600129 23:-0.217699 24:0.300863 25:0.312387 26:-0.47406 27:-0.917174 28:-0.761936 29:-0.0965646 30:-0.102693 31:-0.0626638 32:0.304795 33:-0.177262 34:-0.11215 35:0.707128 36:-0.385998 37:-0.417348 38:-0.630183 39:0.546306 40:0.523882 
15.61620874205995 0 0 0 1:-0.817181 2:0.150052 3:-0.026841 4:0.713193 5:-0.619686 6:-0.732386 7:-0.717684 8:-0.442825 9:-0.41225 10:0.383903 11:-0.154157 12:-0.238229 13:-0.588132 14:-0.702513 15:-0.740499 16:-0.565231 17:-0.560537 18:0.239497 19:0.444355 20:-0.310698 21:-0.261422 22:-0.360555 23:-0.417189 24:0.584875 25:0.467389 26:-0.307082 27:-0.537628 28:-0.564424 29:-0.513189 30:-0.0843248 31:-0.275076 32:0.606779 33:-0.279536 34:-0.366573 35:0.874569 36:-0.563974 37:-0.652172 38:-0.289117 39:0.580796 40:0.462987 
24.3562418695823 0 0 38.11911498259745 1:-0.79664 2:-0.00947622 3:4.74531e-05 4:0.509702 5:-0.452901 6:-0.51562 7:-0.514815 8:-0.373395 9:-0.431442 10:0.395914 11:-0.233994 12:-0.323603 13:-0.564391 14:-0.550216 15:-0.524688 16:-0.332155 17:-0.778061 18:0.540198 19:0.569146 20:0.0183545 21:0.121319 22:0.111421 23:-0.317702 24:0.193814 25:0.367692 26:-0.617781 27:-0.878062 28:-0.775025 29:-0.218267 30:0.302651 31:0.166647 32:0.211742 33:-0.167824 34:-0.0769506 35:0.626188 36:-0.561859 37:-0.408479 38:-0.468058 39:0.490589 40:0.578906 
0 0 0 18.2630082943592 1:-0.83018 2:-0.00356913 3:-0.0441297 4:0.269818 5:-0.519015 6:-0.612767 7:-0.638669 8:-0.317907 9:-0.260006 10:-0.163575 11:-0.126409 12:-0.586087 13:-0.778369 14:-0.595682 15:-0.547764 16:-0.464124 17:-0.235609 18:0.65137 19:0.519716 20:0.427678 21:0.374389 22:0.306655 23:0.0215076 24:0.107221 25:0.442205 26:-0.671079 27:-0.807537 28:-0.63734 29:-0.0596993 30:0.499687 31:0.448926 32:0.286037 33:-0.177849 34:-0.170536 35:0.651678 36:-0.292303 37:-0.435414 38:-0.360213 39:0.3193 40:0.108827 
17.70078760323844 0 0 0 1:-0.755565 2:-0.0221049 3:0.0448584 4:0.419452 5:-0.720794 6:-0.76763 7:-0.815555 8:-0.0374245 9:-0.126856 10:0.112085 11:-0.768478 12:-0.442367 13:-0.895996 14:-0.737715 15:-0.800206 16:-0.701688 17:-0.625318 18:0.149903 19:0.258096 20:-0.742051 21:-0.86293 22:-0.352861 23:0.379853 24:-0.229611 25:0.268404 26:-0.506067 27:-0.425053 28:-0.870415 29:-0.549582 30:-0.767481 31:-0.583045 32:0.90093 33:-0.499643 34:-0.0796734 35:0.74277 36:-0.598329 37:0.0356616 38:0.134038 39:-0.464579 40:0.702578 
18.30340870567928 95.39698113538884 7.547202138574644 34.66740390869059 1:0.138798 2:0.030909 3:0.212231 4:0.409151 5:-0.765804 6:-0.874822 7:-0.698143 8:0.427076 9:0.457503 10:0.281183 11:-0.426029 12:-0.519727 13:-0.625986 14:-0.719736 15:-0.725625 16:-0.681335 17:-0.0403294 18:0.0625963 19:0.321337 20:-0.450811 21:-0.636314 22:-0.764449 23:0.354825 24:-0.353921 25:-0.492193 26:-0.425551 27:-0.533416 28:-0.296004 29:-0.667799 30:-0.448132 31:-0.546291 32:-0.41195 33:0.540571 34:0.0836468 35:-0.0750477 36:0.43267 37:-0.361775 38:-0.465719 39:0.825707 40:-0.133485 
51.02383062764309 0 0 51.10074820858392 1:-0.679335 2:-0.0105379 3:0.115968 4:0.482415 5:-0.829628 6:-0.745749 7:-0.827867 8:0.0215881 9:-0.444667 10:0.136811 11:-0.71838 12:-0.2036 13:-0.633586 14:-0.834802 15:-0.845332 16:-0.746926 17:-0.486925 18:0.344006 19:0.45025 20:-0.498593 21:-0.685569 22:-0.613747 23:-0.23268 24:0.520533 25:0.383853 26:-0.517384 27:-0.509321 28:-0.710588 29:-0.740939 30:-0.478606 31:-0.57771 32:0.729395 33:-0.270955 34:-0.313769 35:0.898341 36:-0.594539 37:-0.563145 38:-0.528229 39:0.677865 40:0.838461 
0 9.301877396201357 0 0 1:-0.983859 2:-0.175307 3:0.0518844 4:-0.0152129 5:-0.169821 6:-0.817896 7:-0.35999 8:-0.58744 9:0.0588491 10:-0.88125 11:-0.0681516 12:-0.887815 13:0.714895 14:-0.297788 15:-0.190037 16:-0.154034 17:-0.387417 18:0.299856 19:0.402098 20:-0.825836 21:-0.767858 22:-0.299127 23:-0.0752099 24:0.680106 25:0.302066 26:-0.842911 27:0.355058 28:-0.751994 29:-0.62987 30:-0.733667 31:-0.60766 32:0.893421 33:-0.690867 34:-0.102543 35:0.667276 36:-0.213173 37:-0.457596 38:0.453572 39:-0.790121 40:0.188349 
0 19.38343234256384 0 0 1:0.104793 2:-0.0800058 3:0.123549 4:0.230564 5:-0.833977 6:-0.931783 7:-0.933941 8:0.607426 9:0.427719 10:-0.00423887 11:0.0701846 12:-0.545234 13:-0.939165 14:-0.864469 15:-0.890311 16:-0.866187 17:-0.275174 18:0.133098 19:0.357121 20:-0.838513 21:-0.859773 22:-0.854705 23:0.904849 24:-0.767835 25:-0.126392 26:0.632015 27:0.499238 28:-0.810215 29:-0.917998 30:-0.733459 31:-0.848127 32:0.913801 33:-0.793318 34:-0.295094 35:0.926226 36:-0.764793 37:-0.625419 38:-0.446521 39:0.174246 40:0.99987 
0 8.754131687199461 0 0 1:-0.961854 2:-0.0888655 3:0.116731 4:0.446419 5:-0.77368 6:-0.896656 7:-0.891488 8:-0.224447 9:0.0168819 10:0.389674 11:-0.626681 12:-0.781109 13:-0.49781 14:-0.804804 15:-0.889417 16:-0.796575 17:-0.383681 18:0.154179 19:0.426545 20:-0.870335 21:-0.849491 22:-0.72863 23:-0.201535 24:-0.0316767 25:0.281526 26:-0.471526 27:-0.683499 28:-0.790646 29:-0.87428 30:-0.826132 31:-0.827555 32:0.792228 33:-0.283757 34:-0.293015 35:0.62874 36:-0.151998 37:-0.379085 38:0.116835 39:-0.382292 40:0.796718 
0 0 0 26.91375674426958 1:-0.822081 2:-0.0723897 3:0.154525 4:0.456618 5:-0.781223 6:-0.851754 7:-0.850175 8:-0.0315571 9:-0.27361 10:0.38987 11:-0.77611 12:-0.425507 13:-0.586996 14:-0.796414 15:-0.868658 16:-0.770655 17:-0.414671 18:0.180431 19:0.42436 20:-0.792782 21:-0.759385 22:-0.68682 23:-0.63335 24:0.118545 25:0.395687 26:0.299146 27:-0.287591 28:-0.647379 29:-0.866186 30:-0.63995 31:-0.753013 32:0.801529 33:-0.487631 34:-0.212557 35:0.804764 36:-0.483251 37:-0.422038 38:-0.180938 39:-0.251906 40:0.91036 
175.8203606624283 17.56894283608569 52.28033653235086 48.09363818734423 1:0.126473 2:0.0100523 3:0.122633 4:0.278753 5:-0.775215 6:-0.894803 7:-0.962527 8:0.431394 9:0.383836 10:-0.120457 11:-0.553217 12:-0.652631 13:-0.79396 14:-0.810985 15:-0.872112 16:-0.827483 17:-0.294108 18:0.155869 19:0.342197 20:-0.893732 21:-0.839645 22:-0.87606 23:0.855226 24:-0.295012 25:-0.179814 26:0.739984 27:0.0829451 28:-0.7558 29:-0.91404 30:-0.820497 31:-0.855719 32:0.73883 33:-0.271956 34:0.553181 35:0.677466 36:-0.233279 37:0.546014 38:-0.505635 39:0.384128 40:0.153003 
39.48631124835406 0 0 0 1:0.150375 2:0.0419703 3:0.179718 4:0.229436 5:-0.858088 6:-0.928844 7:-0.961112 8:0.440005 9:0.424908 10:-0.269179 11:-0.420784 12:-0.450676 13:-0.543125 14:-0.906739 15:-0.880959 16:-0.886515 17:-0.3009 18:0.120469 19:0.350978 20:-0.921484 21:-0.867645 22:-0.922605 23:0.937239 24:-0.242041 25:-0.0736477 26:0.856015 27:-0.592467 28:-0.859018 29:-0.917112 30:-0.879357 31:-0.889531 32:0.726401 33:-0.0622003 34:0.594212 35:0.716556 36:-0.101855 37:0.4992 38:-0.857515 39:0.60224 40:0.209505 
17.4759769002222 73.43202226706721 86.97112854829879 70.87865170143502 1:0.128344 2:0.00175977 3:0.124776 4:0.33864 5:-0.901949 6:-0.948092 7:-0.99533 8:0.313899 9:0.236463 10:-0.0412163 11:-0.676642 12:-0.769667 13:-0.723835 14:-0.924595 15:-0.946088 16:-0.931624 17:-0.341909 18:0.131606 19:0.397399 20:-0.982833 21:-0.995006 22:-0.945018 23:0.532169 24:0.169474 25:-0.0748242 26:0.0995446 27:-0.509339 28:-0.718156 29:-0.985644 30:-0.979545 31:-0.988797 32:0.908663 33:0.234064 34:0.46031 35:0.820949 36:0.381733 37:0.33186 38:0.145517 39:-0.0231025 40:0.811898 
0 0.1429132853609549 0 0 1:-0.890527 2:-0.148448 3:0.0290631 4:0.250777 5:-0.81019 6:-0.910158 7:-0.72016 8:-0.336373 9:-0.221296 10:-0.836609 11:-0.339265 12:-0.602433 13:0.674378 14:-0.836809 15:-0.708452 16:-0.725942 17:-0.348107 18:0.128623 19:0.428813 20:-0.900017 21:-0.862175 22:-0.870333 23:-0.175837 24:-0.0590474 25:0.259814 26:-0.248648 27:-0.393364 28:-0.728179 29:-0.930464 30:-0.872678 31:-0.88705 32:0.896519 33:-0.725743 34:-0.272015 35:0.863465 36:-0.738828 37:-0.221518 38:0.585316 39:-0.626752 40:-0.0704018 
84.92893429300719 33.80643734737821 119.5816115529115 330.6522808039767 1:0.185681 2:0.0135149 3:0.181737 4:0.312219 5:-0.9278 6:-0.94562 7:-0.976902 8:0.438155 9:0.405621 10:-0.289894 11:-0.53279 12:-0.636573 13:-0.510864 14:-0.956362 15:-0.932998 16:-0.938476 17:-0.338767 18:0.126635 19:0.400779 20:-0.980306 21:-0.959695 22:-0.955153 23:0.2829 24:-0.318505 25:0.45415 26:-0.608949 27:-0.651316 28:-0.280034 29:-0.977845 30:-0.968691 31:-0.977683 32:0.32951 33:-0.0134925 34:0.790439 35:0.311101 36:-0.0743312 37:0.716532 38:-0.723223 39:0.575139 40:-0.307402 
19.92450975562294 0 0 0 1:-0.832085 2:0.065164 3:0.0536922 4:0.366319 5:-0.736888 6:-0.876318 7:-0.789381 8:0.0108604 9:-0.157398 10:0.526495 11:-0.915944 12:-0.751655 13:-0.346633 14:-0.748081 15:-0.858279 16:-0.72659 17:-0.223807 18:-0.260975 19:0.427123 20:-0.484445 21:-0.442296 22:-0.442583 23:0.158437 24:-0.0391428 25:0.0521302 26:-0.866038 27:-0.874964 28:-0.78836 29:-0.575281 30:-0.539136 31:-0.419541 32:-0.578577 33:0.597565 34:-0.130289 35:-0.436852 36:0.427896 37:-0.253707 38:-0.125478 39:0.0578206 40:-0.652722 
0 51.00272601308086 71.28766405952635 25.30682155166965 1:-0.833422 2:0.0827522 3:0.113791 4:0.316967 5:-0.737298 6:-0.80502 7:-0.964939 8:-0.231105 9:-0.0596939 10:0.183731 11:-0.763086 12:-0.767961 13:-0.830971 14:-0.745756 15:-0.879692 16:-0.773179 17:-0.309985 18:0.252822 19:0.399584 20:-0.681171 21:-0.466429 22:-0.555792 23:0.0628829 24:0.350497 25:0.397239 26:-0.76688 27:-0.766901 28:-0.714486 29:-0.622958 30:-0.573575 31:-0.545259 32:-0.283722 33:0.512191 34:-0.465035 35:0.0258062 36:0.161735 37:-0.671941 38:-0.434262 39:0.330449 40:0.363709 
24.07204797237821 47.97189815475429 38.30586463503906 58.99388521578901 1:-0.791213 2:-0.00423528 3:-0.0250516 4:0.343632 5:-0.689959 6:-0.727095 7:-0.843802 8:0.0241699 9:0.0521803 10:0.102188 11:-0.888721 12:-0.84752 13:-0.864545 14:-0.674427 15:-0.845753 16:-0.684737 17:-0.398709 18:0.304331 19:0.393812 20:-0.618156 21:-0.507867 22:-0.371353 23:-0.264086 24:0.330052 25:0.280489 26:-0.860968 27:-0.785361 28:-0.745108 29:-0.648598 30:-0.640576 31:-0.492049 32:-0.926466 33:0.887413 34:-0.287662 35:-0.966552 36:0.859877 37:-0.361841 38:0.155877 39:-0.74092 40:-0.776672 
0 95.16353492356303 45.72514075749183 218.4838169116068 1:-0.899539 2:0.167756 3:0.0735156 4:0.282645 5:-0.313442 6:-0.69322 7:-0.908448 8:-0.278479 9:0.00376392 10:-0.127636 11:-0.539664 12:-0.801598 13:-0.812725 14:-0.358046 15:-0.661201 16:-0.442339 17:-0.254373 18:0.0584199 19:0.475893 20:-0.836118 21:-0.744384 22:-0.0512879 23:-0.0518732 24:-0.104019 25:0.324898 26:-0.925436 27:-0.84478 28:-0.672874 29:-0.531799 30:-0.530996 31:-0.490221 32:-0.296133 33:0.455652 34:0.244372 35:-0.575543 36:0.518598 37:0.0598837 38:0.11121 39:-0.255832 40:-0.403218 
0 81.06017403806229 0 32.6621890654116 1:0.985245 2:-0.192857 3:0.0453206 4:0.28866 5:-0.274346 6:-0.647616 7:-0.630409 8:-0.517204 9:-0.308748 10:-0.200496 11:-0.340673 12:-0.582599 13:-0.564407 14:-0.398533 15:-0.510568 16:-0.32595 17:-0.316947 18:0.350172 19:0.515635 20:-0.393409 21:-0.682725 22:-0.101231 23:-0.0335038 24:-0.204 25:0.253042 26:-0.700645 27:-0.826067 28:-0.689916 29:-0.598322 30:-0.48278 31:-0.373323 32:0.24006 33:-0.108312 34:-0.149798 35:0.473239 36:0.249566 37:-0.664755 38:0.0681335 39:-0.108498 40:0.0618435 
96.98918852981433 77.92272066251329 276.1356504062426 141.8664718594866 1:-0.00249005 2:0.0575252 3:0.0806465 4:0.441154 5:-0.825831 6:-0.980637 7:-0.844058 8:0.345925 9:-0.504202 10:0.179994 11:-0.164039 12:-0.142996 13:-0.830716 14:-0.818515 15:-0.854547 16:-0.816613 17:-0.153846 18:-0.0317705 19:0.393812 20:-0.839833 21:-0.879077 22:-0.863131 23:-0.200402 24:0.215786 25:0.00794834 26:-0.779909 27:-0.843644 28:-1 29:-0.856911 30:-0.87894 31:-0.831719 32:-0.237851 33:-0.0986745 34:0.296218 35:-0.0784077 36:0.513502 37:-0.486928 38:-0.0862667 39:0.00860101 40:-0.170585 
0 26.35812135614467 27.34905672229851 0 1:0.983859 2:-0.278381 3:0.128627 4:0.073763 5:-0.624231 6:-0.834923 7:-0.61515 8:-0.683899 9:-0.245301 10:-0.830526 11:0.0909585 12:-0.704157 13:0.638962 14:-0.755776 15:-0.553004 16:-0.548374 17:-0.223637 18:0.355342 19:0.421969 20:-0.739496 21:-0.684646 22:-0.741944 23:0.217647 24:-0.022416 25:0.479412 26:-0.676515 27:-0.511965 28:-0.489544 29:-0.751573 30:-0.739094 31:-0.699214 32:0.20273 33:-0.569631 34:-0.328785 35:0.611259 36:-0.30143 37:-0.754976 38:0.46909 39:-0.845909 40:-0.42841 
50.91896220558813 8.049217596509523 107.3113267930504 9.584650986962348 1:-0.07001 2:0.28917 3:0.121297 4:0.438464 5:-0.626756 6:-0.905782 7:-0.774421 8:0.0708885 9:0.0379015 10:-0.0693995 11:-0.693223 12:-0.625027 13:-0.683457 14:-0.69916 15:-0.780816 16:-0.641509 17:-0.544405 18:0.367175 19:0.306413 20:-0.571047 21:-0.717914 22:-0.691034 23:-0.217555 24:0.41634 25:0.0159217 26:-0.665055 27:-0.719928 28:-0.313448 29:-0.775027 30:-0.613442 31:-0.611998 32:0.580843 33:-0.2592 34:0.216256 35:-0.586277 36:0.636614 37:-0.614306 38:-0.0909113 39:-0.0373547 40:0.848474 
-0 13.31260972336812 37.89322505200425 3.961896419680651 1:0.161235 2:0.0143684 3:0.0200185 4:0.366211 5:-0.94105 6:-0.960036 7:-0.939823 8:0.121354 9:0.346274 10:-0.444275 11:-0.886195 12:-0.623316 13:-0.39042 14:-0.929199 15:-0.941785 16:-0.935624 17:-0.622517 18:0.18232 19:0.151856 20:-0.877603 21:-0.95064 22:-0.853347 23:0.106237 24:-0.636226 25:0.217273 26:-0.889887 27:0.139712 28:-0.682543 29:-0.650666 30:-0.816322 31:-0.693308 32:-0.191416 33:-0.281995 34:0.639235 35:-0.0800825 36:-0.536938 37:0.681649 38:-0.24245 39:0.562078 40:-0.888183 
-24.58142084798929 0 0 0 1:-0.561911 2:-0.0500654 3:-0.385136 4:-0.073695 5:-0.755891 6:-0.332412 7:-0.152645 8:-0.236472 9:-0.311925 10:-0.952381 11:-0.659245 12:-0.391404 13:0.882753 14:-0.495141 15:-0.160878 16:-0.127538 17:-0.57548 18:0.180729 19:0.200049 20:-0.693039 21:-0.745042 22:-0.558956 23:-0.22623 24:-0.0648118 25:-0.251404 26:-0.720067 27:-0.516815 28:-0.775316 29:-0.719729 30:-0.628888 31:-0.590745 32:0.316444 33:-0.663646 34:0.104988 35:0.362622 36:0.305472 37:-0.501639 38:0.455753 39:0.12053 40:-0.218704 
-0 52.0394242978525 231.5442287389546 170.5491965296923 1:0.208495 2:0.0456033 3:0.0992007 4:0.244954 5:-0.961014 6:-0.952974 7:-0.902074 8:0.297748 9:0.358167 10:-0.0207514 11:-0.698505 12:-0.524693 13:-0.609306 14:-0.923286 15:-0.923346 16:-0.921348 17:-0.329598 18:0.093621 19:0.382557 20:-0.923446 21:-0.950725 22:-0.953223 23:0.138187 24:0.505724 25:0.0483895 26:-0.631349 27:-0.23556 28:-0.844925 29:-0.965439 30:-0.958255 31:-0.947926 32:-0.314973 33:0.127708 34:0.301963 35:-0.287714 36:-0.105781 37:0.381857 38:-0.162726 39:0.432176 40:-0.639821 
-27.25851600049883 62.6295441970957 0 0 1:0.989867 2:-0.103011 3:0.180059 4:0.323621 5:-0.960857 6:-0.941747 7:-0.863694 8:-0.0553437 9:0.225512 10:0.541666 11:-0.720627 12:-0.838769 13:-0.215263 14:-0.904088 15:-0.913754 16:-0.886247 17:-0.354644 18:0.0812907 19:0.397976 20:-0.883454 21:-0.93111 22:-0.902964 23:-0.0685052 24:0.013595 25:0.29247 26:-0.749469 27:-0.731741 28:-0.782909 29:-0.94417 30:-0.909205 31:-0.917094 32:0.270191 33:0.00378832 34:-0.383604 35:-0.00909528 36:0.282232 37:-0.0774398 38:-0.430377 39:0.384911 40:0.4096 
-36.13676819618814 0 2.751587515440578 102.7104780844964 1:-0.126631 2:0.130013 3:0.141625 4:0.341015 5:-0.886275 6:-0.887181 7:-0.852812 8:0.355998 9:0.186968 10:0.0369813 11:-0.618809 12:-0.553175 13:-0.507633 14:-0.884447 15:-0.869324 16:-0.834147 17:-0.328494 18:0.0704519 19:0.368004 20:-0.890858 21:-0.934779 22:-0.884666 23:-0.459597 24:-0.103166 25:0.0444576 26:-0.226029 27:-0.606158 28:-0.796112 29:-0.929814 30:-0.906909 31:-0.906624 32:-0.478202 33:-0.111951 34:0.328952 35:0.457993 36:-0.588163 37:0.0616978 38:-0.301255 39:0.295662 40:-0.0700409 
-14.58641824339408 0 0 0 1:0.331359 2:0.0510689 3:0.168744 4:0.201885 5:-0.940198 6:-0.907574 7:-0.906128 8:0.331058 9:0.536 10:0.88099 11:-0.647902 12:-0.355075 13:0.540891 14:-0.932337 15:-0.930506 16:-0.898489 17:-0.323994 18:0.110724 19:0.3645 20:-0.91048 21:-0.936297 22:-0.931367 23:-0.245167 24:-0.23374 25:0.383295 26:-0.571214 27:0.152775 28:-0.235665 29:-0.941098 30:-0.912962 31:-0.925861 32:-0.355714 33:0.0610794 34:0.239826 35:-0.126804 36:-0.3332 37:0.554228 38:-0.736279 39:0.713214 40:-0.494101 
-0 26.29800470702037 102.1441522234083 106.9698888010996 1:-0.0790618 2:0.00158747 3:0.127107 4:0.401084 5:-0.84087 6:-0.910581 7:-0.76202 8:0.153996 9:0.217835 10:0.442378 11:-0.588256 12:-0.785029 13:-0.293875 14:-0.777352 15:-0.801557 16:-0.765911 17:-0.391408 18:0.0303784 19:0.403747 20:-0.884275 21:-0.592622 22:-0.854353 23:-0.359299 24:0.378794 25:-0.0544287 26:-0.533324 27:-0.758091 28:-0.807192 29:-0.682805 30:-0.75454 31:-0.72104 32:-0.471851 33:0.0496066 34:-0.0955877 35:0.135796 36:-0.369077 37:0.50931 38:-0.675231 39:0.576416 40:-0.571974 
-0 36.33525695071847 21.91827326736318 0 1:0.832778 2:-0.0665879 3:0.256698 4:0.315435 5:-0.758612 6:-0.745268 7:-0.811846 8:-0.828381 9:-0.136005 10:0.126285 11:0.470736 12:-0.456108 13:-0.832937 14:-0.788089 15:-0.779224 16:-0.709244 17:-0.456529 18:0.0664744 19:0.371467 20:-0.769408 21:-0.837189 22:-0.716247 23:-0.604845 24:0.729416 25:0.257415 26:-0.159605 27:0.111016 28:-0.833325 29:-0.831152 30:-0.721561 31:-0.775214 32:0.769633 33:-0.810281 34:-0.39046 35:-0.340338 36:0.226434 37:-0.0103899 38:-0.188481 39:0.263545 40:0.0157004 
-21.9290500799321 10.23403345670789 7.548379082701444 0 1:-0.384897 2:0.163631 3:-0.0938808 4:0.236902 5:-0.852573 6:-0.657284 7:-0.257463 8:0.372797 9:-0.703405 10:-0.733146 11:-0.585186 12:0.265584 13:0.444104 14:-0.494466 15:-0.369712 16:-0.328788 17:-0.419341 18:0.118679 19:0.349205 20:-0.793198 21:-0.864075 22:-0.807018 23:-0.536355 24:0.340593 25:0.32428 26:-0.491022 27:-0.344042 28:-0.826682 29:-0.86211 30:-0.808391 31:-0.817903 32:-0.765905 33:0.621539 34:0.753122 35:0.706158 36:-0.758117 37:-0.504022 38:0.365278 39:-0.723355 40:-0.246803 
-0 36.65793604725108 0 45.16714083038543 1:-0.174299 2:0.115596 3:0.0685216 4:0.475653 5:-0.771235 6:-0.833675 7:-0.80728 8:0.0710976 9:-0.180673 10:0.470999 11:-0.62641 12:-0.332152 13:-0.552398 14:-0.794216 15:-0.752578 16:-0.736016 17:-0.36721 18:0.19107 19:0.44452 20:-0.88034 21:-0.762644 22:-0.807182 23:-0.0297998 24:-0.123401 25:0.446813 26:-0.762517 27:-0.624168 28:-0.56001 29:-0.849644 30:-0.794197 31:-0.811442 32:-0.394718 33:-0.169294 34:-0.186447 35:0.237425 36:-0.843943 37:0.365373 38:-0.679143 39:0.51536 40:-0.25579 
-23.44860918047254 0 0 0 1:-0.74725 2:-0.0195746 3:0.0479805 4:0.113147 5:-0.83561 6:-0.845209 7:-0.669721 8:-0.0480162 9:0.00315673 10:-0.70832 11:-0.884087 12:-0.52085 13:0.342413 14:-0.744546 15:-0.716957 16:-0.687133 17:-0.325607 18:0.0623975 19:0.432358 20:-0.772128 21:-0.819831 22:-0.81174 23:-0.282688 24:0.368371 25:0.343817 26:-0.274487 27:-0.256334 28:-0.687981 29:-0.884264 30:-0.786683 31:-0.80669 32:0.0235999 33:-0.143529 34:-0.198903 35:0.362745 36:-0.576896 37:0.29759 38:0.675758 39:-0.713292 40:0.0943876 
-0 0 1.584210696401762 0 1:0.689669 2:-0.239506 3:0.243964 4:0.397462 5:-0.908312 6:-0.763974 7:-0.722818 8:-0.0963052 9:0.236575 10:0.0907979 11:-0.906589 12:-0.767469 13:-0.605489 14:-0.720167 15:-0.848435 16:-0.709846 17:-0.38453 18:0.0993885 19:0.366397 20:-0.750007 21:-0.768801 22:-0.837965 23:-0.515658 24:-0.022772 25:-0.00654333 26:-0.302718 27:-0.661994 28:-0.807432 29:-0.846808 30:-0.775621 31:-0.777238 32:0.311152 33:-0.308998 34:-0.180304 35:-0.255616 36:-0.141456 37:0.354469 38:0.148238 39:-0.145439 40:-0.130933 
-0 0 26.77227553916945 0 1:0.685349 2:-0.0725562 3:0.421349 4:0.0520655 5:-0.79795 6:-0.731815 7:-0.87973 8:-0.117949 9:0.578547 10:0.0724461 11:-0.636272 12:-0.133829 13:-0.901637 14:-0.810408 15:-0.755802 16:-0.731107 17:-0.337069 18:0.0848705 19:0.45359 20:-0.707629 21:-0.741166 22:-0.783962 23:-0.67587 24:0.379208 25:0.0474551 26:0.173521 27:-0.345634 28:-0.827054 29:-0.836292 30:-0.641411 31:-0.740874 32:0.356881 33:-0.433128 34:-0.445113 35:-0.739297 36:0.455644 37:0.493599 38:0.335771 39:-0.352165 40:-0.173914 
-41.85067387436924 17.94513466313999 24.97486051148677 5.154349471155173 1:0.407349 2:0.0576355 3:0.0750704 4:0.3141 5:-0.954947 6:-0.77635 7:-0.801972 8:0.271248 9:0.719624 10:-0.447522 11:-0.584009 12:0.22308 13:-0.427646 14:-0.81829 15:-0.81821 16:-0.792172 17:-0.227118 18:0.0880525 19:0.38231 20:-0.518185 21:-0.936424 22:-0.909419 23:0.713114 24:1 25:-0.520669 26:0.0537575 27:0.726133 28:-0.273495 29:-0.811952 30:-0.615738 31:-0.716551 32:0.980976 33:0.709515 34:-0.191687 35:0.975964 36:0.958945 37:-0.641391 38:-1 39:-0.855801 40:0.335743 
-97.9938674189528 0 0 0 1:-0.886895 2:0.343979 3:0.207385 4:0.848187 5:-0.421452 6:-0.716997 7:-0.632585 8:-0.390153 9:-0.0936062 10:0.455368 11:-0.338586 12:-0.532025 13:-0.547292 14:-0.469027 15:-0.604992 16:-0.390094 17:-0.517066 18:0.238204 19:0.472554 20:-0.630633 21:-0.578504 22:0.000283816 23:-0.559694 24:0.475736 25:0.286763 26:-0.116728 27:-0.541189 28:-0.83137 29:-0.452929 30:-0.315592 31:-0.379613 32:0.637774 33:-0.405161 34:-0.110626 35:0.672875 36:-0.205301 37:0.170546 38:-0.320124 39:0.818669 40:0.842724 
-29.31448700318027 0 0 0 1:0.834514 2:-0.000452845 3:0.173096 4:0.623515 5:-0.436083 6:-0.633381 7:-0.621556 8:-0.67957 9:0.575095 10:0.485083 11:0.150429 12:0.0561764 13:-0.418882 14:-0.59496 15:-0.367448 16:-0.404976 17:-0.348446 18:0.089743 19:0.430379 20:-0.492245 21:-0.792513 22:-0.639083 23:-0.106208 24:0.0666697 25:0.193563 26:-0.716136 27:-0.728845 28:-0.852661 29:-0.67412 30:-0.666458 31:-0.631296 32:0.875996 33:-0.645965 34:-0.170109 35:-0.123516 36:0.122382 37:0.162348 38:-0.461044 39:0.413294 40:0.606539 
-10.61742612679415 0 0 0 1:0.625171 2:0.0474355 3:0.142625 4:0.524042 5:-0.885701 6:-0.839599 7:-0.782754 8:0.101772 9:0.799435 10:0.826706 11:-0.819275 12:0.438016 13:0.475848 14:-0.842008 15:-0.753637 16:-0.769257 17:-0.369757 18:0.100184 19:0.422588 20:-0.913778 21:-0.930955 22:-0.833781 23:0.541605 24:0.20844 25:0.148127 26:0.0180234 27:-0.58306 28:-0.811022 29:-0.924143 30:-0.917136 31:-0.90779 32:0.229275 33:0.0296112 34:-0.0596975 35:0.149727 36:0.792044 37:0.667201 38:-0.129173 39:0.650501 40:0.610142 
-0 0 46.28576075652728 0 1:0.558804 2:0.0305674 3:0.207064 4:0.35881 5:-0.871684 6:-0.688814 7:-0.861842 8:0.436555 9:0.809387 10:0.0782382 11:-0.317738 12:0.563658 13:-0.706289 14:-0.868477 15:-0.836246 16:-0.756024 17:-0.46935 18:0.144832 19:0.380661 20:-0.827489 21:-0.947112 22:-0.882841 23:-0.435987 24:0.185524 25:0.0560629 26:-0.237431 27:-0.852779 28:-0.778538 29:-0.898502 30:-0.864746 31:-0.876652 32:0.393017 33:0.437809 34:-0.217511 35:-0.636545 36:0.515738 37:0.328573 38:-0.237583 39:-0.176998 40:0.510268 
-0 0 1.625365385193483 0 1:0.755935 2:-0.0633688 3:0.103196 4:0.368526 5:-0.574845 6:-0.589576 7:-0.789431 8:-0.350214 9:0.539501 10:0.147508 11:-0.584469 12:-0.134678 13:-0.589648 14:-0.619832 15:-0.605356 16:-0.549855 17:-0.584055 18:0.168995 19:0.344423 20:-0.719164 21:-0.774884 22:-0.444714 23:-0.451758 24:0.532981 25:0.267901 26:-0.603895 27:-0.554953 28:-0.850224 29:-0.65427 30:-0.644959 31:-0.625838 32:0.804011 33:-0.788737 34:-0.272 35:-0.349472 36:0.432345 37:0.204828 38:0.322467 39:-0.36921 40:0.310439 
-60.10321876813371 0 0 0 1:-0.744693 2:-0.0144069 3:-0.0364965 4:0.554392 5:-0.4368 6:-0.355432 7:-0.313703 8:-0.173517 9:-0.217756 10:0.147939 11:-0.294935 12:-0.14635 13:-0.687712 14:-0.240742 15:-0.497606 16:-0.157173 17:-0.378248 18:0.205091 19:0.412034 20:-0.202955 21:-0.454172 22:-0.37109 23:0.0741144 24:-0.385368 25:0.427716 26:-0.863803 27:-0.390718 28:-0.624686 29:-0.453461 30:-0.390524 31:-0.324529 32:0.81486 33:-0.747467 34:-0.112836 35:0.641635 36:-0.828092 37:-0.00105888 38:-0.226756 39:-0.41832 40:0.51856 
-4.079277613772923 0 5.343174637400743 7.627652933896491 1:0.214855 2:0.0457342 3:0.0106158 4:0.122088 5:-0.725619 6:-0.738636 7:-0.361421 8:0.615243 9:0.805706 10:-0.177475 11:0.0340915 12:0.45215 13:-0.803883 14:-0.302889 15:-0.631286 16:-0.401347 17:-0.142639 18:0.169293 19:0.290953 20:-0.216831 21:-0.456943 22:-0.788172 23:0.375983 24:-0.0370667 25:0.258263 26:-0.562249 27:-0.43278 28:-0.846473 29:-0.580894 30:-0.386349 31:-0.382064 32:0.707501 33:-0.749058 34:0.551489 35:0.576663 36:-0.887839 37:0.753781 38:-0.184658 39:-0.726092 40:0.158402 
-18.54395494761808 1.397951993060092 11.12540428450873 0 1:0.885625 2:-0.314457 3:0.171403 4:0.53569 5:-0.276424 6:-0.393579 7:0.00285871 8:-0.222983 9:0.00626427 10:-0.0195281 11:-0.618878 12:-0.49683 13:-0.878564 14:0.206863 15:-0.441099 16:0.101916 17:-0.542622 18:0.611594 19:0.351267 20:-0.185012 21:-0.537972 22:-0.154016 23:0.0926879 24:-0.201093 25:0.34503 26:-0.804182 27:-0.723217 28:-0.765956 29:-0.44389 30:-0.434774 31:-0.245384 32:0.63891 33:-0.686477 34:-0.114652 35:0.332533 36:-0.365254 37:0.10742 38:-0.288867 39:-0.599324 40:0.507426 
-0 4.659973781112352 0 32.74290779131195 1:0.261709 2:0.0982406 3:0.181668 4:0.222386 5:-0.677141 6:-0.595964 7:-0.366659 8:0.639084 9:0.768288 10:-0.078977 11:0.00476333 12:0.352357 13:-0.722512 14:-0.368168 15:-0.462805 16:-0.356138 17:-0.255731 18:0.324218 19:0.272896 20:0.10072 21:-0.28796 22:-0.811709 23:0.120477 24:-0.282075 25:0.715966 26:-0.844383 27:-0.806124 28:0.320668 29:-0.292943 30:-0.355667 31:-0.165043 32:0.308883 33:-0.504168 34:0.772527 35:0.336841 36:-0.568928 37:0.936005 38:-0.331329 39:0.129117 40:0.205537 
-37.15280627208375 0 0 0 1:-0.806582 2:-0.262679 3:-0.233654 4:0.493966 5:-0.323863 6:-0.494686 7:0.284659 8:0.142666 9:0.0265047 10:0.17858 11:-0.291219 12:-0.434502 13:-0.812993 14:0.463189 15:-0.225242 16:0.263271 17:-0.465444 18:0.521106 19:0.41022 20:0.253969 21:-0.334073 22:-0.317789 23:-0.00975103 24:-0.267101 25:0.559052 26:-0.749751 27:-0.704301 28:-0.450895 29:-0.212596 30:-0.111042 31:-0.0420519 32:0.411705 33:-0.782871 34:-0.0539084 35:0.398457 36:-0.771444 37:-0.189569 38:-0.250661 39:-0.441463 40:0.482716 
-0 12.40042246801939 0 0 1:0.787419 2:0.105301 3:0.300343 4:0.278833 5:-0.160645 6:-0.298536 7:-0.391196 8:-0.494454 9:0.60912 10:-0.0313873 11:-0.162317 12:-0.0919323 13:-0.877434 14:-0.287929 15:-0.244476 16:-0.0523698 17:-0.362286 18:0.150301 19:0.470534 20:-0.120083 21:-0.212569 22:-0.303999 23:0.305736 24:-0.273829 25:0.400661 26:-0.74408 27:-0.823114 28:-0.586143 29:-0.386229 30:-0.286788 31:-0.177597 32:0.332332 33:-0.294067 34:-0.245591 35:0.0983208 36:-0.109108 37:0.417185 38:-0.207574 39:0.301495 40:0.395111 
-179.475953485333 0 17.81524786740762 0 1:0.201682 2:0.334693 3:0.155067 4:0.264573 5:-0.627795 6:-0.665704 7:-0.42354 8:0.563069 9:0.636551 10:-0.150593 11:-0.225118 12:0.0132947 13:-0.686817 14:-0.41241 15:-0.492525 16:-0.386275 17:-0.265835 18:0.149008 19:0.273597 20:-0.152946 21:-0.206095 22:-0.778753 23:0.267306 24:-0.327816 25:0.440744 26:-0.748364 27:-0.738107 28:-0.340394 29:-0.423744 30:-0.32081 31:-0.247614 32:0.297014 33:-0.484031 34:0.674451 35:0.400552 36:-0.650918 37:0.841904 38:-0.264499 39:0.00784085 40:-0.041743 
-0 12.322382318658 23.88481381219972 0 1:0.155164 2:0.0724166 3:-0.00376342 4:0.119147 5:-0.631162 6:-0.736803 7:-0.391541 8:0.668677 9:0.526117 10:-0.0397801 11:0.170259 12:-0.159496 13:-0.711095 14:-0.395251 15:-0.513466 16:-0.391479 17:-0.00976398 18:0.0608064 19:0.255004 20:0.0638782 21:-0.334914 22:-0.866254 23:0.275451 24:-0.463535 25:0.102451 26:-0.776336 27:-0.511483 28:-0.800632 29:-0.365551 30:-0.196201 31:-0.186931 32:0.108079 33:-0.39413 34:-0.0544118 35:-0.106779 36:-0.229003 37:0.176771 38:-0.252858 39:-0.193301 40:-0.571493 
-0 7.153811299704206 0 0 1:0.47774 2:-0.213734 3:0.162308 4:0.0227594 5:-0.744854 6:-0.639771 7:-0.0605693 8:-0.386059 9:0.451522 10:-0.77887 11:-0.606901 12:-0.153313 13:0.531124 14:-0.366221 15:-0.299171 16:-0.14637 17:-0.275089 18:0.203799 19:0.371921 20:-0.538394 21:-0.632251 22:-0.785653 23:-0.612279 24:-0.204601 25:0.47477 26:0.122814 27:-0.609725 28:-0.470237 29:-0.736862 30:-0.543102 31:-0.620938 32:0.120572 33:0.290074 34:-0.0466839 35:-0.462372 36:0.0553491 37:0.144691 38:0.82409 39:-0.75007 40:0.541802 
-72.66176999109123 1.25560577137886 48.04203308818732 113.7076694360445 1:-0.769497 2:-0.167589 3:0.194207 4:0.323666 5:-0.767572 6:-0.733616 7:-0.795471 8:-0.338492 9:-0.1801 10:0.274542 11:-0.684987 12:-0.195143 13:-0.795075 14:-0.773307 15:-0.797964 16:-0.700872 17:-0.243929 18:0.295878 19:0.423701 20:-0.534074 21:-0.347033 22:-0.831585 23:-0.261107 24:0.535853 25:0.229128 26:-0.266483 27:-0.346806 28:-0.716089 29:-0.616755 30:-0.374243 31:-0.479716 32:0.986346 33:-0.942682 34:0.519997 35:0.386249 36:-0.318455 37:0.323671 38:-0.310214 39:0.299343 40:0.316726 
-0 0 5.712293045242637 0 1:0.646252 2:-0.164383 3:1 4:0.514314 5:-0.505295 6:0.0802003 7:-0.771159 8:-0.795851 9:0.974219 10:0.328169 11:0.421535 12:0.855399 13:-0.70982 14:-0.559095 15:-0.073431 16:-0.131203 17:-0.306079 18:0.104062 19:0.385031 20:-0.570864 21:-0.635586 22:-0.749395 23:-0.368599 24:0.1405 25:0.338792 26:-0.0648305 27:-0.606322 28:-0.685091 29:-0.76971 30:-0.547485 31:-0.633762 32:0.773563 33:-0.636504 34:0.288261 35:-0.705448 36:0.506493 37:-0.207882 38:-0.399016 39:0.356247 40:0.111387 
-3.802786410334495 0 0 7.850367372457583 1:-0.569432 2:0.0606427 3:0.0421098 4:0.0444286 5:-0.820666 6:-0.603414 7:-0.469562 8:0.357809 9:-0.407436 10:-0.889922 11:-0.556579 12:-0.0161187 13:0.777528 14:-0.725518 15:-0.485912 16:-0.468772 17:-0.361946 18:0.0995873 19:0.363428 20:-0.532135 21:-0.558748 22:-0.665099 23:-0.344454 24:-0.084495 25:0.129578 26:-0.143097 27:-0.769883 28:-0.706579 29:-0.713644 30:-0.478814 31:-0.566185 32:0.405042 33:-0.136663 34:0.296794 35:0.976193 36:-0.853041 37:0.896215 38:0.857101 39:-0.62839 40:0.691238 
-0 16.92899082441909 6.363619385480647 0 1:0.706629 2:0.145867 3:0.401106 4:0.443371 5:-0.366056 6:-0.175743 7:-0.66511 8:-0.659061 9:0.909597 10:0.0193595 11:0.0653116 12:0.675842 13:-0.553141 14:-0.485137 15:-0.295276 16:-0.214082 17:-0.289438 18:0.472282 19:0.320677 20:-0.579602 21:-0.480114 22:-0.634684 23:0.344511 24:0.377407 25:0.116733 26:-0.367925 27:-0.225569 28:-0.520189 29:-0.656692 30:-0.587977 31:-0.509508 32:-0.0226639 33:-0.645961 34:-0.402171 35:0.00961044 36:0.574709 37:0.193562 38:-0.566494 39:0.589257 40:-0.110183 
-0 4.639957319874109 0 30.98640776545966 1:-0.616189 2:-0.0966512 3:-0.227813 4:0.505053 5:-0.736948 6:-0.576897 7:-0.917156 8:-0.0673164 9:-0.646579 10:-0.027631 11:-0.439675 12:0.339464 13:-0.779633 14:-0.804104 15:-0.695658 16:-0.649747 17:-0.285193 18:0.101477 19:0.382063 20:-0.840851 21:-0.791026 22:-0.803221 23:0.389048 24:-0.0817939 25:0.435516 26:-0.483846 27:-0.479708 28:-0.458274 29:-0.885978 30:-0.751826 31:-0.813098 32:-0.458341 33:0.0445634 34:-0.0452518 35:-0.0937849 36:-0.289062 37:0.37333 38:0.0248503 39:0.301493 40:-0.3632 
-43.34662038816991 23.87722763126714 0 0 1:-0.997941 2:0.0362836 3:0.286483 4:0.115718 5:-0.369188 6:-0.674966 7:-0.697012 8:-0.538447 9:0.827364 10:-0.502299 11:0.0246891 12:0.481461 13:0.160029 14:-0.597698 15:-0.719748 16:-0.414918 17:-0.396332 18:0.230945 19:0.405355 20:-0.360723 21:-0.39857 22:-0.477854 23:0.180383 24:-0.419979 25:0.322108 26:-0.21927 27:-0.467161 28:-0.696168 29:-0.594718 30:-0.412857 31:-0.39048 32:0.637251 33:-0.228659 34:-0.11458 35:0.778093 36:-0.668211 37:0.471843 38:-0.344861 39:0.611546 40:0.0980646 
-6.003828350875951 0 0 0 1:-0.629493 2:0.0264859 3:0.186728 4:0.508114 5:-0.937049 6:-0.838841 7:-0.860333 8:-0.107339 9:-0.320976 10:0.582512 11:-0.837293 12:-0.204049 13:-0.291147 14:-0.901168 15:-0.849302 16:-0.831949 17:-0.37205 18:0.122259 19:0.389566 20:-0.768603 21:-0.694464 22:-0.881241 23:-0.909612 24:0.272862 25:0.314312 26:0.758818 27:-0.31063 28:-0.60097 29:-0.82554 30:-0.638698 31:-0.758732 32:0.771145 33:-0.591814 34:-0.399274 35:0.684577 36:-0.662266 37:-0.324446 38:-0.801183 39:0.499766 40:0.913613 
-100.4077256311586 0 0 0 1:-0.735497 2:-0.0356106 3:0.0941219 4:0.487131 5:-0.852549 6:-0.798672 7:-0.81879 8:-0.327172 9:-0.245879 10:-0.0599737 11:-0.684265 12:-0.542631 13:-0.764061 14:-0.798127 15:-0.830387 16:-0.771334 17:-0.524962 18:0.092925 19:0.391462 20:-0.519781 21:-0.670779 22:-0.798693 23:-0.191763 24:-0.4126 25:0.350503 26:-0.507824 27:-0.593272 28:-0.659874 29:-0.725815 30:-0.716552 31:-0.623464 32:0.748893 33:-0.41215 34:-0.464115 35:0.832695 36:-0.478629 37:-0.142256 38:-0.462004 39:0.361079 40:0.444203 
-116.2512396831774 77.29685971488371 0 61.1883773032402 1:-0.676464 2:0.148455 3:0.0962339 4:0.508613 5:-0.863337 6:-0.685284 7:-0.89301 8:-0.485981 9:-0.168077 10:0.396042 11:-0.324992 12:-0.549979 13:-0.386505 14:-0.786532 15:-0.837729 16:-0.751579 17:-0.471472 18:0.211157 19:0.397275 20:-0.674151 21:-0.484706 22:-0.554471 23:-0.221026 24:0.0188105 25:0.497145 26:-0.51226 27:-0.674905 28:-0.475863 29:-0.662955 30:-0.480067 31:-0.549482 32:0.854883 33:-0.701113 34:-0.623097 35:0.493683 36:-0.257168 37:-0.275029 38:0.32498 39:-0.248216 40:-0.184399 
-26.19684249057066 0 7.365609164279549 0 1:0.159299 2:0.0193084 3:0.0300529 4:0.2613 5:-0.815129 6:-0.892743 7:-0.761036 8:0.121683 9:0.314203 10:0.00570202 11:-0.827314 12:-0.558724 13:-0.963914 14:-0.696122 15:-0.888304 16:-0.755231 17:-0.57514 18:0.458659 19:0.231299 20:-0.586627 21:-0.549096 22:-0.64402 23:0.59999 24:-0.195 25:0.129222 26:-0.0334724 27:-0.444512 28:-0.821027 29:-0.682982 30:-0.565644 31:-0.503874 32:0.756383 33:-0.801706 34:0.324565 35:0.545812 36:-0.552028 37:0.60212 38:-0.381054 39:0.0643631 40:-0.325045 
-109.8754349052249 26.61538777606016 21.97121137835443 45.64669165888513 1:0.0601043 2:0.00970763 3:0.00449013 4:0.356066 5:-0.906289 6:-0.944787 7:-0.971966 8:0.630812 9:0.101311 10:-0.227597 11:0.0574982 12:-0.812046 13:-0.843435 14:-0.935839 15:-0.941668 16:-0.927207 17:-0.485906 18:0.0795008 19:0.267908 20:-0.908182 21:-0.920457 22:-0.907106 23:0.810605 24:-0.624179 25:0.0454685 26:0.476264 27:0.238947 28:-0.917385 29:-0.816973 30:-0.887289 31:-0.829896 32:0.672814 33:-0.71295 34:0.409908 35:0.229081 36:-0.619702 37:0.286327 38:-0.241409 39:-0.0166828 40:-0.345754 
-17.29696811885145 0 0 0 1:-0.672083 2:0.0106408 3:0.217045 4:0.570641 5:-0.704951 6:-0.323267 7:-0.715732 8:-0.448406 9:-0.210783 10:0.240818 11:-0.202957 12:-0.149909 13:-0.64678 14:-0.600039 15:-0.587555 16:-0.447032 17:-0.258278 18:-0.250534 19:0.326078 20:-0.0242141 21:-0.0531552 22:-0.471073 23:-0.114506 24:-0.397101 25:0.449655 26:-0.59349 27:-0.682018 28:-0.505248 29:-0.383806 30:-0.172407 31:-0.0792635 32:0.80055 33:-0.101586 34:-0.508304 35:0.59326 36:0.216584 37:-0.262235 38:-0.514574 39:0.684265 40:0.841217 
-0 0 0 9.3532134027902 1:-0.639001 2:0.0248288 3:-0.021265 4:0.59054 5:-0.748745 6:-0.605523 7:-0.734296 8:-0.343506 9:-0.267434 10:0.172486 11:-0.594993 12:-0.332742 13:-0.736149 14:-0.690253 15:-0.743415 16:-0.603847 17:-0.401596 18:-0.121464 19:0.399419 20:0.0726798 21:-0.352031 22:-0.545119 23:0.104752 24:-0.377876 25:0.430046 26:-0.779365 27:-0.586627 28:-0.585961 29:-0.313739 30:-0.348779 31:-0.185551 32:0.478515 33:-0.048251 34:-0.233728 35:0.280128 36:0.339595 37:-0.194167 38:-0.652232 39:0.7759 40:0.457992 
-0 0 0 23.4616043279273 1:0.355669 2:0.0882886 3:0.268729 4:0.688904 5:-0.805733 6:-0.612059 7:-0.768147 8:0.420958 9:0.589827 10:0.163181 11:-0.642097 12:-0.0132705 13:-0.645604 14:-0.720462 15:-0.658975 16:-0.627697 17:0.081423 18:0.339034 19:0.295818 20:0.0946524 21:-0.638374 22:-0.581775 23:-0.0256409 24:-0.287139 25:0.121642 26:-0.757256 27:-0.448658 28:-0.425889 29:-0.293238 30:-0.356084 31:-0.225809 32:-0.494286 33:0.423165 34:0.400114 35:-0.532391 36:0.718362 37:0.947338 38:-0.488899 39:0.290826 40:0.23275 
-9.802082471864631 0 0 38.17697098762105 1:0.287022 2:0.196207 3:0.14928 4:0.712642 5:-0.760674 6:-0.741742 7:-0.742756 8:0.23998 9:0.473942 10:0.274309 11:-0.886207 12:-0.394591 13:-0.723843 14:-0.694928 15:-0.705289 16:-0.642261 17:-0.170827 18:0.23194 19:0.19403 20:-0.00452859 21:-0.527264 22:-0.365742 23:0.0144759 24:-0.162604 25:0.501762 26:-0.720389 27:-0.891936 28:-0.295071 29:-0.367855 30:-0.356293 31:-0.213446 32:-0.37458 33:-0.00895301 34:0.627427 35:-0.756682 36:0.295625 37:1 38:-0.585058 39:0.122116 40:0.598865 
-12.17379936594654 0 0 0 1:-0.861732 2:-0.0553319 3:0.173918 4:0.280168 5:-0.795151 6:-0.867222 7:-0.577596 8:-0.273612 9:-0.104499 10:0.29161 11:-0.66946 12:-0.600078 13:-0.288354 14:-0.669218 15:-0.758036 16:-0.610463 17:-0.520207 18:0.478347 19:0.358893 20:-0.619746 21:-0.8057 22:-0.729056 23:0.525494 24:-0.09981 25:0.298469 26:0.115723 27:-0.851535 28:-0.712432 29:-0.757835 30:-0.752035 31:-0.665423 32:0.585574 33:-0.386301 34:-0.36241 35:0.521171 36:-0.241312 37:0.0136671 38:-0.416966 39:0.157815 40:0.329646 
-16.63511848104625 0 0 0 1:-0.382083 2:0.101832 3:0.0227456 4:0.0686278 5:-0.827 6:-0.696182 7:-0.598267 8:-0.5764 9:-0.748844 10:-0.886713 11:-0.000635672 12:0.36126 13:0.744596 14:-0.772685 15:-0.566952 16:-0.589642 17:-0.379606 18:0.142147 19:0.385402 20:-0.855605 21:-0.891839 22:-0.826496 23:-0.387612 24:0.510588 25:0.491997 26:-0.625615 27:-0.313556 28:-0.508665 29:-0.901693 30:-0.845752 31:-0.869322 32:0.411175 33:-0.331831 34:-0.680143 35:0.278999 36:0.0961887 37:-0.0368933 38:0.102401 39:0.296631 40:0.250797 
-44.26767905964824 204.2880647054302 133.2564416242488 99.46590961228657 1:-0.887379 2:-0.0260173 3:0.0569458 4:0.296428 5:-0.783666 6:-0.784815 7:-0.939823 8:-0.287847 9:0.43099 10:0.0307654 11:-0.606203 12:-0.302578 13:-0.942008 14:-0.800065 15:-0.87132 16:-0.792374 17:-0.328069 18:0.209864 19:0.375095 20:-0.948161 21:-0.861157 22:-0.728243 23:-0.0630429 24:0.0111148 25:0.0345949 26:-0.708122 27:-0.748868 28:-0.867035 29:-0.856438 30:-0.869756 31:-0.840988 32:-0.409311 33:0.10233 34:-0.421833 35:-0.297051 36:0.0627508 37:-0.113431 38:0.736053 39:-0.717463 40:-0.366183 
-0 0 97.41062089261072 31.15284612998226 1:0.832584 2:-0.0561438 3:0.202078 4:0.339763 5:-0.88249 6:-0.920574 7:-0.851989 8:-0.228157 9:0.198179 10:-0.129513 11:-0.639997 12:-0.84902 13:-0.635571 14:-0.859416 15:-0.895663 16:-0.843986 17:-0.341994 18:0.0969025 19:0.415373 20:-0.848927 21:-0.867707 22:-0.884735 23:-0.183407 24:-0.0386945 25:0.122141 26:-0.19401 27:-0.778511 28:-0.866237 29:-0.907601 30:-0.874139 31:-0.87593 32:0.613678 33:-0.353673 34:0.079031 35:-0.0019414 36:-0.103429 37:0.564624 38:0.408987 39:-0.411133 40:0.13857 
-0 32.09083996675312 0 0 1:0.990152 2:-0.0496508 3:0.106867 4:0.544827 5:-0.780007 6:-0.935321 7:-0.717066 8:-0.0439672 9:0.404955 10:0.781471 11:-0.592525 12:-0.27338 13:0.298308 14:-0.797147 15:-0.750202 16:-0.703583 17:-0.507302 18:0.268135 19:0.41426 20:-0.552481 21:-0.717469 22:-0.823207 23:-0.311747 24:0.0562126 25:0.0190736 26:-0.725104 27:-0.572742 28:-0.818439 29:-0.758544 30:-0.629305 31:-0.658179 32:0.612098 33:-0.723478 34:-0.523681 35:-0.236799 36:-0.245518 37:0.357769 38:0.159463 39:-0.369413 40:-0.123899 
-41.63194861080559 0 0 28.42110619531673 1:0.9157 2:-0.0474436 3:0.159544 4:0.387204 5:-0.850565 6:-0.965792 7:-0.886567 8:-0.0380717 9:0.224932 10:0.380881 11:-0.876449 12:-0.747421 13:-0.44674 14:-0.855046 15:-0.901551 16:-0.855517 17:-0.416964 18:0.189181 19:0.392575 20:-0.771101 21:-0.791324 22:-0.887522 23:-0.109164 24:-0.313355 25:0.267922 26:-0.595014 27:-0.527897 28:-0.701191 29:-0.864 30:-0.827385 31:-0.805388 32:0.89478 33:-0.689888 34:-0.274917 35:0.278629 36:-0.325207 37:0.273509 38:0.173143 39:-0.366968 40:0.382123 
-0 12.3590228732736 0 0.0008062069079547421 1:0.185062 2:0.0399915 3:0.179149 4:0.264696 5:-0.912713 6:-0.947045 7:-0.934531 8:0.265193 9:0.241144 10:-0.603856 11:-0.762533 12:-0.708248 13:0.0990815 14:-0.936018 15:-0.903893 16:-0.912977 17:-0.353031 18:0.163526 19:0.386597 20:-0.942174 21:-0.885549 22:-0.948725 23:0.444978 24:0.141771 25:-0.264179 26:-0.170183 27:-0.451515 28:-0.533872 29:-0.946593 30:-0.928199 31:-0.923256 32:0.342157 33:0.148657 34:0.450114 35:0.49192 36:-0.0578157 37:0.367221 38:-0.847084 39:0.598852 40:-0.239528 
-0 4.841356321120294 0 0 1:-0.483429 2:-0.0124035 3:0.0272765 4:0.339826 5:-0.974282 6:-0.859107 7:-0.787446 8:0.0248321 9:-0.940973 10:-0.575241 11:-0.813538 12:0.855804 13:0.200182 14:-0.864906 15:-0.826449 16:-0.816811 17:-0.37188 18:0.134987 19:0.401562 20:-0.876707 21:-0.892089 22:-0.960627 23:0.400011 24:-0.228573 25:0.112604 26:-0.0810064 27:-0.478416 28:-0.744098 29:-0.93649 30:-0.8756 31:-0.910406 32:-0.186418 33:0.514969 34:-0.0464776 35:0.388174 36:-0.0176454 37:0.0642431 38:0.576485 39:-0.363101 40:0.421804 
-186.5552968569104 66.0440018969374 123.2679677470532 54.46671005101197 1:0.0466471 2:0.0813253 3:0.0850503 4:0.313514 5:-0.922185 6:-0.983975 7:-0.965978 8:0.342607 9:-0.0630959 10:-0.0085436 11:-0.613534 12:-1 13:-0.532327 14:-0.935074 15:-0.949378 16:-0.940395 17:-0.371795 18:0.181326 19:0.349164 20:-0.950039 21:-0.885116 22:-0.941566 23:0.481073 24:0.159998 25:0.106638 26:-0.180816 27:-0.617258 28:-0.818873 29:-0.928692 30:-0.930703 31:-0.905258 32:0.523342 33:0.261851 34:0.66355 35:0.346274 36:0.375165 37:0.187053 38:-0.706059 39:0.290049 40:-0.0498758 
-0 118.1575683608582 232.4226174517003 302.9745694879988 1:0.172298 2:-0.0630621 3:0.103201 4:0.339435 5:-0.997853 6:-0.998199 7:-0.992218 8:0.46555 9:0.212401 10:0.0180735 11:-0.295481 12:-0.719244 13:-0.826305 14:-0.998998 15:-1 16:-1 17:-0.357531 18:0.138269 19:0.404572 20:-0.988327 21:-0.979491 22:-0.979952 23:-0.385277 24:0.321807 25:-0.231133 26:-0.553588 27:0.0883011 28:-0.828008 29:-1 30:-0.981632 31:-0.996088 32:-0.299752 33:0.685833 34:0.0499936 35:-0.126075 36:0.506531 37:0.0590532 38:-0.274914 39:0.251455 40:0.270693 
-51.60901186261541 0 0 0 1:0.166742 2:-0.0321066 3:0.126181 4:0.302313 5:-0.992071 6:-1 7:-0.982193 8:0.39347 9:0.0320219 10:-0.305852 11:-0.640085 12:-0.794662 13:-0.479477 14:-1 15:-0.986568 16:-0.995277 17:-0.341824 18:0.132999 19:0.408324 20:-0.970938 21:-0.973437 22:-0.994354 23:0.931614 24:-0.227484 25:-0.20441 26:0.946586 27:-0.0833773 28:-0.558923 29:-0.996751 30:-0.963264 31:-0.9925 32:0.575333 33:-0.0767106 34:0.463697 35:0.530245 36:-0.0926934 37:0.19691 38:-0.793876 39:0.507724 40:-0.235758 
-0 79.6744833868449 0 0 1:0.830036 2:-0.0802334 3:0.135494 4:0.333627 5:-0.959022 6:-0.9817 7:-0.924876 8:0.0519843 9:0.223385 10:0.0609784 11:-0.553396 12:-0.778549 13:-0.635408 14:-0.949523 15:-0.961499 16:-0.938494 17:-0.346409 18:0.116094 19:0.40989 20:-0.935669 21:-0.96105 22:-0.959469 23:0.247443 24:-0.299037 25:0.336293 26:-0.0539557 27:-0.521444 28:-0.67574 29:-0.979736 30:-0.929451 31:-0.9669 32:0.464674 33:-0.276954 34:-0.0949985 35:-0.0046703 36:-0.0739221 37:0.281368 38:0.543522 39:-0.369857 40:0.362953 
-0 0 0 8.542697602451824 1:-0.4504 2:-0.0230391 3:0.032637 4:0.254144 5:-0.937829 6:-0.8968 7:-0.817607 8:0.263057 9:-0.842651 10:-0.627103 11:-0.715525 12:0.603012 13:0.228476 14:-0.873713 15:-0.85091 16:-0.842713 17:-0.364663 18:0.153582 19:0.410344 20:-0.919804 21:-0.939072 22:-0.938831 23:-0.277202 24:0.0344606 25:0.0921109 26:-0.588065 27:-0.797073 28:-0.763727 29:-0.961126 30:-0.948654 31:-0.94581 32:0.449639 33:0.0655215 34:-0.202416 35:0.514837 36:-0.020537 37:-0.0201385 38:0.30466 39:-0.0931279 40:0.287445 
-6.125500433229807 0 79.19844468318114 144.4977900317205 1:0.172358 2:0.00467739 3:0.149131 4:0.285815 5:-0.959476 6:-0.97975 7:-0.958913 8:0.250117 9:0.0950606 10:-0.299954 11:-0.729514 12:-0.854435 13:-0.551233 14:-0.974383 15:-0.957353 16:-0.960721 17:-0.341824 18:0.13449 19:0.398347 20:-0.970695 21:-0.94367 22:-0.96788 23:0.173012 24:0.464207 25:0.316758 26:-0.40033 27:-0.406382 28:-0.627678 29:-0.972469 30:-0.968691 31:-0.969538 32:0.273315 33:0.337571 34:0.551128 35:0.40952 36:0.155751 37:0.361192 38:-0.783572 39:0.520881 40:-0.160234 
-0 11.07716092134557 0 0 1:0.689783 2:-0.0925271 3:0.160294 4:0.361779 5:-0.991759 6:-0.968068 7:-0.909473 8:0.0441649 9:0.899474 10:0.228695 11:-0.383946 12:0.681585 13:-0.723995 14:-0.916976 15:-0.954967 16:-0.932157 17:-0.364323 18:0.130811 19:0.415208 20:-0.891221 21:-0.911637 22:-1 23:-0.263913 24:-0.199551 25:0.285639 26:-0.525269 27:-0.553262 28:-0.670539 29:-0.952914 30:-0.936965 31:-0.930879 32:0.750535 33:-0.439073 34:-0.210688 35:-0.592861 36:0.223612 37:0.492201 38:0.334295 39:-0.367141 40:0.490697 
-0 0 61.72001678446069 0 1:0.831979 2:0.0518198 3:0.134148 4:0.382271 5:-0.764585 6:-0.904796 7:-0.850394 8:-0.069902 9:0.379341 10:-0.0645287 11:-0.657056 12:-0.221197 13:-0.745697 14:-0.782903 15:-0.872841 16:-0.777684 17:-0.396842 18:0.152687 19:0.355595 20:-0.715057 21:-0.925701 22:-0.620298 23:-0.123626 24:0.139119 25:0.218709 26:-0.607091 27:-0.646391 28:-0.868575 29:-0.765634 30:-0.849301 31:-0.747834 32:-0.756443 33:0.591132 34:-0.440722 35:0.0102535 36:0.174637 37:0.273812 38:-0.292966 39:0.51687 40:-0.869851 
-0 0 0 36.75740285783731 1:0.234571 2:-0.0444847 3:0.0389521 4:0.393559 5:-0.96947 6:-0.963847 7:-0.90022 8:0.256837 9:0.708468 10:0.283018 11:-0.656543 12:0.234162 13:-0.722379 14:-0.904561 15:-0.942959 16:-0.92163 17:-0.388436 18:0.177746 19:0.387257 20:-0.792225 21:-0.852327 22:-0.966119 23:-0.416563 24:0.103249 25:-0.182959 26:-0.199385 27:-0.836721 28:-0.748342 29:-0.890999 30:-0.835734 31:-0.852664 32:-0.173093 33:0.21555 34:0.0709793 35:-0.539752 36:0.149416 37:0.0906601 38:-0.542675 39:0.807664 40:0.0759278 
-36.20966742009865 3.286105731648073 0 8.932723302149151 1:-0.75749 2:-0.109873 3:-0.197552 4:0.520903 5:-0.459442 6:-0.415386 7:-0.723285 8:-0.575128 9:-0.591875 10:0.169535 11:-0.234615 12:-0.129132 13:-0.46603 14:-0.537289 15:-0.374712 16:-0.386656 17:-0.291476 18:0.15935 19:0.373694 20:-0.545803 21:-0.726302 22:-0.443498 23:0.142458 24:0.527166 25:0.43186 26:-0.67448 27:-0.549992 28:-0.555203 29:-0.716303 30:-0.654978 31:-0.576404 32:-0.765916 33:-0.00909379 34:-0.372004 35:-0.745766 36:0.228472 37:-0.192905 38:0.526478 39:-0.629328 40:-0.0929723 
-9.087576101866143 60.04740795086709 82.43845660720334 83.48205824786372 1:-0.913415 2:-0.0210577 3:0.0830469 4:0.148303 5:-0.715624 6:-0.83886 7:-0.801893 8:-0.708103 9:0.0389626 10:-0.0341894 11:0.214073 12:-0.860147 13:-0.968802 14:-0.767295 15:-0.764864 16:-0.714341 17:-0.397181 18:0.205489 19:0.389071 20:-0.645324 21:-0.887681 22:-0.727838 23:0.311447 24:0.118027 25:0.362905 26:-0.523689 27:-0.912723 28:-0.585502 29:-0.784834 30:-0.790232 31:-0.747865 32:-0.813364 33:0.254114 34:-0.239004 35:-0.433421 36:0.421834 37:0.36786 38:-0.410206 39:-0.155254 40:-0.826996 
-0 34.70787606858099 0 0 1:-0.641567 2:0.0294934 3:0.225502 4:0.182863 5:-0.862933 6:-0.729908 7:-0.660544 8:0.143135 9:-0.11699 10:-0.347907 11:-0.883079 12:-0.609608 13:-0.536741 14:-0.673821 15:-0.775019 16:-0.655304 17:-0.660214 18:0.484115 19:0.377074 20:-0.429963 21:-0.645892 22:-0.586935 23:0.263987 24:-0.288388 25:0.146705 26:-0.581077 27:-0.680834 28:-0.906872 29:-0.566242 30:-0.587769 31:-0.49201 32:-0.0400123 33:-0.136655 34:0.0367091 35:0.418121 36:-0.529632 37:-0.0741067 38:-0.152092 39:0.328311 40:-0.0797023 
-0 10.80451734178107 0 0 1:-0.738947 2:-0.0423553 3:-0.00941988 4:0.0711753 5:-0.813649 6:-0.745127 7:-0.37549 8:-0.462979 9:-0.333207 10:-0.459633 11:-0.296174 12:-0.130339 13:-0.20458 14:-0.471495 15:-0.489816 16:-0.435089 17:-0.544235 18:0.193258 19:0.40012 20:-0.58794 21:-0.747423 22:-0.79537 23:-0.111972 24:-0.256179 25:0.325495 26:-0.758279 27:-0.407898 28:-0.657805 29:-0.743952 30:-0.656439 31:-0.679428 32:-0.0534008 33:0.187131 34:-0.197119 35:0.535612 36:-0.541298 37:-0.353068 38:0.0650889 39:0.356933 40:-0.320408 
-185.7067153256809 207.1905107603023 215.5876663819312 337.2654079487014 1:-0.241804 2:-0.0260574 3:0.0458277 4:0.316426 5:-0.728544 6:-0.706697 7:-0.87962 8:0.151275 9:-0.278292 10:0.079731 11:-0.508578 12:-0.286609 13:-0.874492 14:-0.772784 15:-0.79313 16:-0.712065 17:-0.458312 18:0.366479 19:0.28143 20:-0.703977 21:-0.784272 22:-0.596046 23:-0.248782 24:0.408402 25:-0.264149 26:-0.724536 27:-0.684148 28:-0.798041 29:-0.794996 30:-0.733876 31:-0.656925 32:0.234622 33:-0.355144 34:0.111986 35:-0.0592932 36:0.112016 37:-0.346074 38:-0.183358 39:0.448205 40:0.579761 
-0 15.07440110015368 14.60908536557443 0 1:0.533825 2:0.237266 3:0.236171 4:0.170552 5:-0.78478 6:-0.741719 7:-0.695597 8:-0.0541531 9:0.366069 10:-0.276611 11:-0.737504 12:-0.375903 13:-0.608508 14:-0.719878 15:-0.777779 16:-0.645159 17:-0.692562 18:0.553721 19:0.319729 20:-0.62134 21:-0.476362 22:-0.582331 23:0.340251 24:-0.40585 25:0.211793 26:-0.553219 27:-0.61007 28:-0.795787 29:-0.517089 30:-0.630557 31:-0.467397 32:-0.501767 33:0.0545642 34:0.0255583 35:-0.236504 36:-0.141757 37:0.335013 38:-0.266381 39:0.4969 40:-0.576082 
-0 11.84045648208071 0 0 1:-0.23671 2:0.232706 3:-0.0168374 4:0.539597 5:-0.735275 6:-0.766534 7:-0.725511 8:0.0577689 9:-0.428318 10:0.348897 11:-0.725511 12:-0.119065 13:-0.62349 14:-0.709147 15:-0.671243 16:-0.644063 17:-0.506113 18:0.186496 19:0.366273 20:-0.594094 21:-0.549413 22:-0.729762 23:-0.142122 24:-0.0243855 25:0.161029 26:-0.747157 27:-0.71385 28:-0.742552 29:-0.712345 30:-0.593822 31:-0.588783 32:-0.552352 33:0.414087 34:-0.223004 35:-0.0866094 36:-0.155434 37:-0.0756073 38:-0.459409 39:0.638994 40:-0.407769 
-0 -0 184.5737853524443 0 1:0.1085 2:0.0816684 3:0.13263 4:0.290263 5:-0.671182 6:-0.841101 7:-0.877844 8:0.906586 9:0.555507 10:-0.141285 11:0.785177 12:-0.257718 13:-0.826171 14:-0.850614 15:-0.745725 16:-0.718284 17:-0.439124 18:0.240093 19:0.322697 20:-0.839522 21:-0.718244 22:-0.818198 23:0.012622 24:0.108905 25:-0.334696 26:-0.917563 27:-0.754531 28:-0.492508 29:-0.790152 30:-0.740138 31:-0.755937 32:0.16671 33:0.0344958 34:-0.400888 35:0.224486 36:0.29467 37:-0.822279 38:-0.183113 39:0.0240339 40:-0.244574 
-19.17550577076964 -78.43286721189634 0 14.1742352013036 1:0.4845 2:0.0368273 3:0.192778 4:0.305285 5:-0.956825 6:-0.790041 7:-0.970367 8:0.361974 9:0.927693 10:-0.119051 11:-0.21886 12:0.75305 13:-0.894332 14:-0.941041 15:-0.905277 16:-0.876497 17:-0.392851 18:0.251032 19:0.410426 20:-0.844482 21:-0.756131 22:-0.868507 23:0.384406 24:-0.348824 25:0.387478 26:-0.445719 27:-0.17398 28:-0.660124 29:-0.845331 30:-0.830307 31:-0.807986 32:0.447421 33:-0.222042 34:-0.237959 35:0.477701 36:-0.655174 37:-7.39681e-05 38:0.145369 39:-0.189288 40:0.031244 
-0 -0 22.5762663879121 0 1:0.157602 2:-0.00977621 3:0.151163 4:0.476828 5:-0.783088 6:-0.886344 7:-0.860243 8:0.468224 9:0.733544 10:-0.0794662 11:-0.0434592 12:0.27799 13:-0.533985 14:-0.848433 15:-0.80678 16:-0.783741 17:-0.521905 18:0.399692 19:0.388865 20:-0.782467 21:-0.821129 22:-0.874903 23:-0.0448781 24:0.104159 25:0.342472 26:-0.890387 27:-0.809173 28:-0.553078 29:-0.827667 30:-0.849509 31:-0.77695 32:-0.056187 33:-0.183495 34:-0.281223 35:0.596399 36:-0.300405 37:-0.374539 38:0.538745 39:-0.131527 40:-0.769898 
-0 -0 123.4341154733375 0 1:0.0573096 2:0.229285 3:0.19112 4:0.276122 5:-0.394836 6:-0.859836 7:-0.918846 8:0.595105 9:0.32945 10:0.0281719 11:0.0298527 12:-0.697052 13:-0.701548 14:-0.562578 15:-0.642558 16:-0.529681 17:-0.369927 18:0.260279 19:0.288356 20:-0.922678 21:-0.706469 22:-0.634246 23:-0.0225591 24:0.325629 25:-0.187239 26:-0.846971 27:-0.706387 28:-0.763654 29:-0.796296 30:-0.687748 31:-0.706067 32:0.74029 33:-0.205092 34:-0.172704 35:0.377451 36:0.254328 37:-0.514179 38:0.224313 39:-0.258729 40:0.307328 
-93.64511879283631 -26.48354935887452 122.2218476142628 42.68436046641318 1:0.224441 2:0.141385 3:0.180952 4:0.230223 5:-0.722134 6:-0.805328 7:-0.917938 8:0.203043 9:0.583686 10:-0.321809 11:-0.58433 12:-0.143459 13:-0.463065 14:-0.79251 15:-0.77751 16:-0.748117 17:-0.237137 18:-0.0203351 19:0.391256 20:-0.848208 21:-0.778387 22:-0.598652 23:0.462089 24:-0.172746 25:-0.0598846 26:-0.625592 27:-0.669265 28:-0.638405 29:-0.829025 30:-0.716343 31:-0.734147 32:0.472001 33:-0.88992 34:-0.109116 35:0.75068 36:-0.832937 37:-0.110511 38:-0.487576 39:0.401725 40:0.0394929 
-0 -0 106.4784651458651 22.25277841462674 1:-0.0348987 2:0.282733 3:0.221982 4:0.193726 5:-0.762744 6:-0.876399 7:-0.909936 8:0.247767 9:0.288584 10:0.581297 11:-0.754203 12:-0.770216 13:-0.0202661 14:-0.770419 15:-0.873585 16:-0.772458 17:-0.306673 18:0.135485 19:0.42535 20:-0.949209 21:-0.932881 22:-0.747935 23:-0.0427019 24:0.168484 25:0.0586137 26:-0.590753 27:-0.773915 28:-0.682581 29:-0.885919 30:-0.903152 31:-0.88119 32:-0.25887 33:0.0360855 34:0.178024 35:-0.403339 36:0.375184 37:-0.245481 38:0.164269 39:0.185415 40:-0.27804 
-0 -0 65.20931614553903 0 1:0.125388 2:-0.0985733 3:0.0657938 4:0.268608 5:-0.836082 6:-0.900589 7:-0.919187 8:0.573246 9:0.426981 10:-0.455366 11:0.00517099 12:-0.566764 13:-0.0978839 14:-0.87054 15:-0.84632 16:-0.854937 17:-0.358295 18:0.159549 19:0.320512 20:-0.964926 21:-0.869433 22:-0.767186 23:0.0953532 24:0.0443057 25:-0.135858 26:-0.890413 27:-0.621013 28:-0.733813 29:-0.859865 30:-0.834899 31:-0.840806 32:0.483414 33:0.0065466 34:-0.279049 35:0.327026 36:0.320344 37:-0.520048 38:-0.354963 39:-0.162899 40:0.285614 
-57.03287228700519 -0 295.0207430279034 63.32939260489979 1:0.0143623 2:0.265691 3:0.0961891 4:0.23484 5:-0.695022 6:-0.947646 7:-0.926029 8:0.809436 9:0.397699 10:-0.249457 11:0.463533 12:-0.412103 13:-0.493507 14:-0.828646 15:-0.822576 16:-0.753751 17:-0.304041 18:0.0339581 19:0.37291 20:-0.898836 21:-0.86264 22:-0.89888 23:0.382137 24:-0.468442 25:-0.152217 26:-0.531954 27:-0.306748 28:-0.702742 29:-0.931764 30:-0.875809 31:-0.879957 32:0.735763 33:-0.616792 34:0.0720311 35:0.0504163 36:0.23138 37:-0.391825 38:-0.623597 39:0.541084 40:-0.114007 
-0 -0 76.69054922242773 0 1:0.204789 2:-0.0162124 3:0.134171 4:0.322705 5:-0.914364 6:-0.920358 7:-0.975172 8:0.763587 9:0.788544 10:0.16718 11:0.446319 12:0.405203 13:-0.879282 14:-0.965047 15:-0.912138 16:-0.926264 17:-0.338682 18:0.081589 19:0.388576 20:-0.984754 21:-0.949136 22:-0.90262 23:0.144978 24:-0.0305723 25:-0.440156 26:-0.812342 27:-0.70508 28:-0.447785 29:-0.968452 30:-0.932164 31:-0.950592 32:0.556731 33:-0.520245 34:-0.315268 35:0.629156 36:-0.636771 37:-0.353713 38:-0.175225 39:-0.20904 40:0.0853147 
-0 -0 101.056983028337 0 1:0.0665121 2:0.0549483 3:0.115473 4:0.159315 5:-0.774778 6:-0.876181 7:-0.90351 8:0.317755 9:0.432948 10:0.156713 11:-0.546427 12:-0.266447 13:-0.936843 14:-0.814239 15:-0.868068 16:-0.801542 17:-0.310239 18:0.165614 19:0.3591 20:-0.888358 21:-0.842263 22:-0.746439 23:0.311517 24:0.13681 25:-0.0989943 26:-0.69912 27:-0.755737 28:-0.736506 29:-0.87747 30:-0.842622 31:-0.82685 32:0.584049 33:-0.58979 34:-0.34392 35:0.193861 36:-0.137655 37:-0.6078 38:-0.312918 39:0.364423 40:-0.211459 
-0 -0 93.36236221100744 0 1:0.0866847 2:-0.199345 3:0.0052846 4:0.335024 5:-0.568777 6:-0.872063 7:-0.923515 8:0.589697 9:0.572013 10:-0.127859 11:0.0737345 12:-0.0258776 13:-0.740238 14:-0.62803 15:-0.725311 16:-0.663944 17:-0.359908 18:0.109034 19:0.368458 20:-0.910949 21:-0.715389 22:-0.566372 23:0.0988248 24:0.190963 25:-0.212016 26:-0.534025 27:-0.565471 28:-0.553291 29:-0.801908 30:-0.644333 31:-0.715999 32:0.0903725 33:-0.442641 34:-0.105558 35:0.032703 36:-0.440661 37:-0.0993318 38:-0.0388609 39:0.197211 40:0.0999337 
-87.30141890673309 -82.78730807148543 140.830158523529 34.50897878577305 1:0.0754361 2:-0.0830689 3:0.0474127 4:0.329951 5:-0.87093 6:-0.943055 7:-0.933689 8:0.395433 9:0.011404 10:0.351653 11:-0.311129 12:-0.897703 13:-0.678786 14:-0.8944 15:-0.925171 16:-0.89173 17:-0.3802 18:0.140655 19:0.345866 20:-0.879302 21:-0.803232 22:-0.705191 23:0.174983 24:-0.029497 25:-0.153152 26:-0.602099 27:-0.695249 28:-0.657623 29:-0.850826 30:-0.758923 31:-0.79128 32:-0.181603 33:0.279608 34:-0.420982 35:0.0932998 36:-0.122457 37:0.00301824 38:0.12042 39:-0.342075 40:0.158102 
-0 -49.26069747448368 113.7495047578504 0 1:0.431966 2:-0.0177447 3:0.16373 4:0.316846 5:-0.876322 6:-0.825601 7:-0.921201 8:0.299193 9:0.850266 10:-0.260542 11:-0.541809 12:0.55104 13:-0.498892 14:-0.890449 15:-0.873175 16:-0.849293 17:-0.360757 18:0.219609 19:0.34195 20:-0.963063 21:-0.830245 22:-0.838676 23:0.0972891 24:0.0485645 25:-0.174825 26:-0.633413 27:-0.764092 28:-0.733421 29:-0.881369 30:-0.848466 31:-0.85248 32:-0.450233 33:0.223582 34:-0.503547 35:-0.00850616 36:0.310525 37:-0.176949 38:-0.122843 39:0.223335 40:-0.327715 
-0 -19.68290438437539 0 0 1:0.205605 2:0.100481 3:0.159564 4:0.214424 5:-0.713535 6:-0.812074 7:-0.872456 8:0.367724 9:0.536286 10:-0.55775 11:-0.604062 12:-0.280734 13:-0.109408 14:-0.759399 15:-0.750551 16:-0.733412 17:-0.405247 18:0.240591 19:0.309381 20:-0.901819 21:-0.758953 22:-0.735876 23:0.499786 24:0.158739 25:-0.292332 26:-0.145154 27:-0.896546 28:-0.61713 29:-0.816324 30:-0.735337 31:-0.765413 32:-0.0561236 33:-0.147834 34:-0.284027 35:0.17 36:-0.288582 37:-0.0146822 38:-0.428483 39:0.499388 40:-0.327072 
-0 -0 114.6677439315851 0 1:0.061315 2:0.334976 3:0.148924 4:0.199529 5:-0.472266 6:-0.888615 7:-0.809353 8:0.613242 9:0.424377 10:-0.0466644 11:-0.0843354 12:-0.381677 13:-0.647268 14:-0.615211 15:-0.671725 16:-0.553414 17:-0.334013 18:0.106747 19:0.371962 20:-0.946652 21:-0.846352 22:-0.77187 23:-0.0155523 24:0.345242 25:-0.309327 26:-0.894068 27:-0.570289 28:-0.669947 29:-0.891945 30:-0.872469 31:-0.852697 32:-0.0779515 33:-0.468082 34:-0.549976 35:-0.170353 36:-0.417591 37:-0.47708 38:-0.121615 39:0.658162 40:-0.0648255 
-0 -0 394.805971304 138.1681416987807 1:0.0874879 2:-0.0733572 3:0.0162448 4:0.186263 5:-0.73339 6:-0.87461 7:-0.909705 8:0.438795 9:0.162148 10:-0.0352363 11:-0.224097 12:-0.816113 13:-0.904006 14:-0.765852 15:-0.855781 16:-0.779637 17:-0.388861 18:0.379207 19:0.324305 20:-0.928031 21:-0.660749 22:-0.598508 23:0.184566 24:0.542288 25:-0.464952 26:-0.67142 27:-0.546939 28:-0.5121 29:-0.807462 30:-0.618034 31:-0.675169 32:-0.0673311 33:0.176679 34:-0.197026 35:-0.333684 36:0.575701 37:-0.651865 38:-0.39003 39:-0.0100765 40:-0.135856 
-0 -0 102.423538547898 0 1:0.263608 2:0.0232474 3:0.214138 4:0.229873 5:-0.767077 6:-0.78435 7:-0.941149 8:0.217468 9:0.852445 10:-0.370398 11:-0.651277 12:0.567179 13:-0.325029 14:-0.775491 15:-0.764353 16:-0.7778 17:-0.339446 18:0.237409 19:0.348463 20:-0.934987 21:-0.775209 22:-0.709871 23:0.287842 24:0.00709569 25:-0.286241 26:-0.656417 27:-0.753538 28:-0.613434 29:-0.838419 30:-0.796493 31:-0.787107 32:0.675211 33:-0.507073 34:-0.288955 35:0.614239 36:-0.272281 37:-0.357586 38:-0.563822 39:0.135393 40:0.183419 
-0 -0 0 90.7912449336491 1:0.448002 2:0.0265968 3:0.190669 4:0.287054 5:-0.88432 6:-0.794284 7:-0.938057 8:0.525008 9:0.821376 10:0.247355 11:-0.126929 12:0.417587 13:-0.858821 14:-0.914661 15:-0.899652 16:-0.843345 17:-0.306079 18:0.169492 19:0.377115 20:-0.951321 21:-0.793473 22:-0.744207 23:0.0975218 24:0.416724 25:-0.320165 26:-0.918674 27:-0.695752 28:-0.702751 29:-0.866245 30:-0.828428 31:-0.819571 32:-0.369438 33:-0.0059575 34:-0.574758 35:0.189895 36:0.0121563 37:-0.198105 38:-0.222673 39:0.717021 40:-0.497049 
-0 -0 0 155.9080368264161 1:0.168142 2:-0.178552 3:0.107724 4:0.312703 5:-0.727298 6:-0.84482 7:-0.894114 8:0.325918 9:0.555812 10:-0.0490763 11:-0.318286 12:-0.213593 13:-0.660721 14:-0.751709 15:-0.79432 16:-0.758401 17:-0.36687 18:0.238403 19:0.31944 20:-0.897234 21:-0.740276 22:-0.448076 23:0.534009 24:0.323609 25:-0.567693 26:-0.313746 27:-0.622282 28:-0.232368 29:-0.795587 30:-0.591526 31:-0.66343 32:0.482667 33:-0.585622 34:0.222736 35:0.338854 36:-0.256938 37:-0.128721 38:-0.167468 39:0.255669 40:-0.286032 
-13.94852229104364 -20.75649395158611 9.91442779651187 37.90556474432275 1:0.000600376 2:0.0368501 3:0.238058 4:0.308091 5:-0.210335 6:-0.814037 7:-0.856798 8:0.379645 9:0.114766 10:0.0602606 11:-0.107519 12:-0.48266 13:-0.811293 14:-0.452762 15:-0.638272 16:-0.382872 17:-0.341399 18:0.112315 19:0.25723 20:-0.882968 21:-0.953901 22:-0.292498 23:-0.150407 24:-0.125305 25:-0.36713 26:-0.780875 27:-0.890401 28:-0.645968 29:-0.710218 30:-0.660614 31:-0.619561 32:-0.615702 33:0.102612 34:0.0277347 35:-0.280602 36:0.105693 37:0.505995 38:-0.208851 39:0.207094 40:-0.235317 
-21.13688554458692 -0 1.394895615323519 0 1:0.0856315 2:0.1928 3:-0.0125164 4:0.655297 5:-0.70181 6:-0.807123 7:-0.186662 8:0.0391865 9:-0.196883 10:0.129658 11:-0.998098 12:-0.794399 13:-0.933657 14:0.0123324 15:-0.669202 16:-0.255959 17:-0.426558 18:0.789291 19:0.38668 20:-0.290963 21:1 22:-0.577949 23:-0.057657 24:-0.241411 25:0.210585 26:-0.819112 27:-0.600943 28:-0.774594 29:0.461554 30:0.158631 31:0.440681 32:-0.126976 33:-0.39057 34:-0.324173 35:0.244881 36:-0.268403 37:-0.794377 38:0.090747 39:-0.313085 40:-0.815123 
-0 -0 43.70315172598826 17.61724073097698 1:0.836427 2:-0.113968 3:0.151625 4:0.385042 5:-0.780688 6:-0.939875 7:-0.873937 8:-0.336976 9:0.933552 10:0.283368 11:-0.82785 12:0.766527 13:-0.665079 14:-0.796228 15:-0.890386 16:-0.803252 17:-0.358635 18:0.148213 19:0.361573 20:-0.924043 21:-0.918649 22:-0.774127 23:-0.170073 24:0.499284 25:-0.450276 26:-0.264091 27:-0.410353 28:-0.23645 29:-0.905356 30:-0.830516 31:-0.873567 32:0.445954 33:0.0145313 34:0.791582 35:-0.728352 36:-0.306439 37:-0.787267 38:0.327797 39:0.386492 40:0.0585196 
-0 -0 63.30722431773396 0 1:0.323124 2:-0.101584 3:0.145369 4:0.288315 5:-0.839098 6:-0.748686 7:-0.779962 8:0.198944 9:0.731228 10:-0.356666 11:-0.489412 12:0.235139 13:-0.0729699 14:-0.84745 15:-0.71251 16:-0.732957 17:-0.367804 18:0.201412 19:0.408241 20:-0.879437 21:-0.840522 22:-0.782537 23:0.0211332 24:0.468729 25:-0.477166 26:-0.476539 27:0.257361 28:-0.355869 29:-0.905001 30:-0.785222 31:-0.843196 32:-0.292725 33:0.0100866 34:-0.295292 35:-0.760916 36:0.416813 37:-0.828454 38:0.44338 39:-0.22615 40:0.616482 
-0 -10.9784861508314 394.805971304 78.55379027194877 1:0.0876173 2:-0.00937768 3:0.158184 4:0.350328 5:-0.757196 6:-0.840508 7:-0.976922 8:0.393176 9:0.227653 10:0.0117751 11:-0.387887 12:-0.702443 13:-0.858151 14:-0.779019 15:-0.858204 16:-0.800106 17:-0.348022 18:0.154278 19:0.397728 20:-0.955733 21:-0.92477 22:-0.728638 23:-0.269475 24:0.653016 25:-0.0858524 26:-0.688001 27:-0.334678 28:-0.880916 29:-0.852716 30:-0.877061 31:-0.871027 32:0.0316559 33:0.875921 34:-0.0842942 35:-0.373957 36:0.891331 37:-0.271026 38:0.0957576 39:-0.149279 40:0.03681 
-0 -0 69.35839396819938 0 1:0.0787744 2:-0.189081 3:0.0977577 4:0.443093 5:-0.183299 6:-0.698867 7:-0.854632 8:0.548532 9:0.461402 10:-0.396059 11:0.163511 12:-0.504421 13:-0.512051 14:-0.443893 15:-0.494051 16:-0.340785 17:-0.84522 18:0.116691 19:0.328056 20:-0.739583 21:-0.811303 22:-0.33495 23:-0.104513 24:-0.128503 25:-0.421942 26:-0.829591 27:-0.711541 28:-0.594995 29:-0.67926 30:-0.608015 31:-0.537398 32:-0.0455131 33:0.425457 34:-0.261835 35:0.299382 36:-0.541406 37:-0.820411 38:0.156142 39:0.308555 40:0.748607 
-24.57532627035809 -1.182178351528399 18.82342115178869 37.74424370791452 1:-0.930014 2:0.0644457 3:-0.177939 4:0.175447 5:-0.488759 6:-0.848937 7:-0.680695 8:-0.432693 9:-0.122905 10:-0.0941003 11:-0.487898 12:-0.882578 13:-0.986963 14:-0.543824 15:-0.760772 16:-0.517518 17:-0.874597 18:0.200119 19:0.537567 20:-0.315732 21:-0.838378 22:-0.615743 23:0.44302 24:0.397092 25:0.239656 26:-0.406947 27:-0.575442 28:-0.800855 29:-0.423921 30:-0.684617 31:-0.455671 32:-0.73465 33:0.379857 34:0.200621 35:-0.891521 36:-0.444054 37:-0.505798 38:-0.133704 39:-0.624008 40:-0.712762 
-0 -0 92.7315075718822 0 1:0.931839 2:0.0294706 3:-0.0782945 4:0.505833 5:-0.502427 6:-0.795185 7:-0.901769 8:-0.43995 9:-0.0473527 10:-0.0479873 11:-0.530388 12:-0.89928 13:-0.880089 14:-0.516959 15:-0.735384 16:-0.593369 17:-0.46468 18:0.122955 19:0.496218 20:-0.787111 21:-0.815255 22:-0.548041 23:0.144208 24:-0.391734 25:-0.458986 26:-0.870877 27:-0.515446 28:-0.217944 29:-0.762384 30:-0.704446 31:-0.708251 32:-0.531872 33:1 34:0.807666 35:0.517874 36:-0.326671 37:-0.535687 38:0.134927 39:-0.411069 40:-0.537986 
-0 -0 24.13125631839373 2.61552289789593 1:0.874301 2:-0.560859 3:-0.0648254 4:0.646388 5:-0.423544 6:-0.70631 7:-0.891509 8:-0.408571 9:0.264406 10:0.306653 11:-0.728127 12:-0.520318 13:-0.627538 14:-0.502723 15:-0.630162 16:-0.47531 17:-0.578112 18:0.373937 19:0.596892 20:-0.736009 21:-0.891525 22:-0.301921 23:-0.200041 24:-0.181774 25:-0.535716 26:-0.732044 27:-0.674842 28:-0.275249 29:-0.541193 30:-0.580255 31:-0.551579 32:0.645731 33:0.935025 34:0.922555 35:0.065888 36:-0.53707 37:-0.335966 38:-0.771832 39:-0.61878 40:-0.890005 
-0 -0 7.273851653972937 5.984558198940971 1:0.848291 2:-0.205526 3:0.206679 4:0.437898 5:-0.505751 6:-0.717344 7:-0.866055 8:-0.792736 9:0.73298 10:0.868541 11:0.240741 12:0.359636 13:0.568877 14:-0.69505 15:-0.510271 16:-0.566216 17:-0.366106 18:0.230647 19:0.415868 20:-0.914732 21:-0.97423 22:-0.694706 23:-0.114265 24:0.0293862 25:-0.814755 26:-0.574833 27:-0.485719 28:0.595763 29:-0.903051 30:-0.776665 31:-0.854709 32:0.485554 33:0.094295 34:0.978146 35:-0.923755 36:0.309424 37:-0.892563 38:-0.560527 39:0.0369451 40:-0.961073 
-72.98208536657518 -0 0 0 1:0.122867 2:0.065742 3:0.0998872 4:0.310487 5:-0.304081 6:-0.612089 7:-0.651448 8:0.0181137 9:0.13692 10:-0.122357 11:-0.693085 12:-0.768593 13:-0.648389 14:-0.368263 15:-0.539762 16:-0.345506 17:-0.492868 18:0.109631 19:0.294705 20:-0.605865 21:-0.864511 22:-0.167306 23:-0.237599 24:-0.165301 25:-0.333316 26:-0.646956 27:-0.788672 28:-0.702419 29:-0.615396 30:-0.453976 31:-0.501391 32:-0.0473937 33:0.241846 34:-0.0801814 35:-0.55889 36:0.00253697 37:-0.522087 38:0.0997131 39:-0.0495312 40:0.112025 
-19.63129037185711 -0 26.69689857983962 0 1:-0.0169594 2:0.0416824 3:0.00952552 4:0.262265 5:-0.294954 6:-0.90156 7:-0.633792 8:0.686288 9:0.125051 10:-0.00949858 11:0.311372 12:-0.697334 13:-0.724501 14:-0.504621 15:-0.499365 16:-0.383189 17:-0.359823 18:0.120768 19:0.41257 20:-0.60629 21:-0.893086 22:-0.563141 23:0.132244 24:0.447324 25:-0.035448 26:-0.76691 27:-0.261205 28:-0.771088 29:-0.756831 30:-0.743895 31:-0.685171 32:0.272159 33:-0.582425 34:0.0358317 35:-0.669267 36:-0.277616 37:-0.768356 38:-0.0334983 39:0.830554 40:0.363097 
-0 -0 53.83429626977659 0 1:0.924612 2:-0.119628 3:-0.0107876 4:0.466614 5:-0.741626 6:-0.892654 7:-0.970228 8:-0.176474 9:-0.135069 10:0.0498083 11:-0.731602 12:-0.632617 13:-0.942633 14:-0.774049 15:-0.88299 16:-0.79517 17:-0.619969 18:0.138766 19:0.4667 20:-0.877025 21:-0.864619 22:-0.71296 23:-0.0432198 24:-0.117842 25:-0.554192 26:-0.786118 27:-0.482926 28:-0.208756 29:-0.834343 30:-0.802338 31:-0.77931 32:-0.0491386 33:0.406446 34:0.724544 35:0.500962 36:-0.763295 37:-0.409195 38:0.754164 39:-0.659931 40:-0.362231 
-0 -0 78.27015333227689 0 1:0.595662 2:-0.239318 3:0.107137 4:0.305297 5:-0.853667 6:-0.83021 7:-0.967615 8:-0.349923 9:0.448043 10:-0.138556 11:-0.768078 12:-0.147712 13:-0.770988 14:-0.881613 15:-0.914637 16:-0.843114 17:-0.451605 18:0.207179 19:0.330901 20:-0.96698 21:-0.958759 22:-0.535942 23:0.237966 24:0.227261 25:-0.355084 26:-0.707416 27:-0.812516 28:-0.732527 29:-0.804921 30:-0.806095 31:-0.763316 32:0.364915 33:0.493004 34:0.423406 35:0.154824 36:-0.0672002 37:-0.658505 38:-0.256536 39:0.142535 40:0.281231 
-0 -0 113.3112461773564 0 1:0.0908261 2:0.0385124 3:0.0601176 4:0.244785 5:-0.702466 6:-0.896747 7:-0.979792 8:-0.0227298 9:0.132903 10:0.235682 11:-0.495071 12:-0.741402 13:-0.665672 14:-0.761053 15:-0.867894 16:-0.780099 17:-0.407794 18:0.223885 19:0.343228 20:-0.912318 21:-0.951811 22:-0.596854 23:0.00641289 24:0.212008 25:-0.0981588 26:-0.67792 27:-0.69834 28:-0.766564 29:-0.797536 30:-0.826132 31:-0.791036 32:0.112667 33:0.293754 34:-0.154657 35:0.4205 36:0.394529 37:-0.581667 38:-0.43252 39:-0.11004 40:0.377988 
-81.24622543255323 -107.463749846621 346.7613905550443 184.5638637046145 1:-0.892865 2:-0.182582 3:0.0358838 4:0.443075 5:-0.539004 6:-0.692386 7:-0.650964 8:-0.371718 9:0.151616 10:-0.0227873 11:-0.773811 12:-0.861337 13:-0.91139 14:-0.567193 15:-0.736721 16:-0.498647 17:-0.635762 18:0.561378 19:0.432482 20:-0.457358 21:-0.606576 22:-0.708524 23:0.237141 24:-0.191386 25:0.130313 26:-0.70759 27:-0.609332 28:-0.721816 29:-0.597554 30:-0.653934 31:-0.50588 32:-0.709712 33:0.188267 34:0.191418 35:-0.371256 36:-0.0864509 37:0.248554 38:-0.0484378 39:0.15073 40:-0.235584 
-0 -1.984848628003086 0 0 1:0.680449 2:0.000925798 3:0.107213 4:-0.255215 5:-0.289992 6:-0.47548 7:-0.447593 8:-0.137541 9:0.565388 10:-0.505457 11:-1 12:-0.052338 13:-0.0485403 14:-0.188331 15:-0.337536 16:-0.19004 17:-0.229665 18:0.257694 19:0.34364 20:-0.474817 21:-0.245471 22:-0.200814 23:-0.168905 24:0.5151 25:-0.0111587 26:-0.842008 27:-0.335623 28:-0.920862 29:-0.531327 30:-0.283239 31:-0.280303 32:-0.129405 33:0.106665 34:-0.218119 35:-0.192166 36:-0.148087 37:-0.416784 38:-0.0319226 39:0.507679 40:0.291541 
-0 -0 50.65891062330992 0 1:0.0354288 2:0.214422 3:0.0318363 4:-0.263549 5:-0.0310815 6:-0.642648 7:-0.505304 8:0.239398 9:-0.0172087 10:-0.747465 11:-0.685936 12:-0.955686 13:0.350916 14:-0.129917 15:-0.325842 16:-0.101386 17:-0.57497 18:0.465321 19:0.238678 20:-0.703984 21:-0.0917846 22:-0.258122 23:0.0684102 24:-0.258738 25:-0.055882 26:-0.757419 27:-0.319457 28:-0.843139 29:-0.386465 30:-0.365059 31:-0.227693 32:0.552438 33:-0.736973 34:-0.439494 35:0.312146 36:-0.364226 37:-0.220009 38:-0.554974 39:0.793434 40:0.0945428 
-0 -0 197.8343545333235 0 1:0.165362 2:-0.038394 3:0.146407 4:0.176682 5:0.0495364 6:-0.357316 7:-0.741975 8:0.577182 9:0.729166 10:0.0795228 11:0.0716091 12:0.338379 13:-0.844139 14:-0.177759 15:-0.209312 16:-0.0729188 17:-0.223892 18:0.40715 19:0.436151 20:-0.383451 21:-0.119959 22:-0.42957 23:0.0164119 24:0.538815 25:-0.153782 26:-0.909321 27:-0.584599 28:-0.748632 29:-0.434733 30:-0.279691 31:-0.243122 32:0.466297 33:-0.527608 34:-0.236677 35:0.440749 36:-0.487999 37:-0.247233 38:-0.218784 39:0.0365957 40:0.0906744 
-36.38014999776603 -9.307526962524166 108.029166901569 0 1:0.0769964 2:0.0821533 3:0.195607 4:0.166561 5:-0.202687 6:-0.679158 7:-0.436546 8:0.358601 9:0.169981 10:-0.389601 11:-0.306404 12:-0.901297 13:-0.357463 14:-0.349779 15:-0.292244 16:-0.198187 17:-0.603243 18:0.478148 19:0.302208 20:-0.586818 21:-0.429539 22:-0.453692 23:-0.36556 24:-0.588361 25:0.179364 26:-0.648642 27:-0.0733356 28:-0.913748 29:-0.541902 30:-0.554373 31:-0.42804 32:-0.00840453 33:-0.604494 34:-0.301395 35:0.172831 36:-0.461338 37:0.0195688 38:0.154032 39:0.481896 40:0.299712 
-0 -0 48.25757207678178 8.768089298085394 1:-0.871816 2:-0.659845 3:-0.286222 4:0.394047 5:-0.463441 6:-0.652371 7:-0.58066 8:-0.53448 9:-0.143456 10:-0.398546 11:-0.473159 12:-0.777764 13:-0.330886 14:-0.569259 15:-0.563296 16:-0.369243 17:-0.379182 18:0.36459 19:0.399542 20:-0.631914 21:-0.231602 22:-0.855914 23:-0.221478 24:0.751474 25:-0.439424 26:-0.676374 27:0.0910497 28:-0.238173 29:-0.522996 30:-0.397412 31:-0.44034 32:-0.0798391 33:-0.745525 34:0.449372 35:-0.430578 36:-0.390698 37:0.171648 38:-0.507824 39:0.129176 40:-0.320391 
-0 -0 51.91193588249953 0 1:-0.0823493 2:0.362892 3:-0.184526 4:0.356692 5:0.352657 6:-0.55368 7:-0.374993 8:0.474627 9:-0.234311 10:0.154948 11:-0.365615 12:-0.703535 13:-0.899628 14:0.0515455 15:-0.276995 16:0.20768 17:-0.436237 18:0.701685 19:0.258797 20:-0.610183 21:-0.121776 22:-0.407684 23:0.012161 24:0.319268 25:-0.277277 26:-0.744829 27:-0.513949 28:-0.648717 29:-0.404602 30:-0.191192 31:-0.246846 32:0.453434 33:-0.0475425 34:-0.409065 35:-0.45432 36:0.480481 37:-0.172429 38:-0.26108 39:0.131674 40:-0.15625 
-0 -0 143.5977724627205 0 1:0.00497622 2:0.185862 3:0.194888 4:0.236868 5:-0.513226 6:-0.847228 7:-0.894539 8:0.651751 9:0.241469 10:-0.497071 11:0.059692 12:-0.661242 13:-0.401691 14:-0.651295 15:-0.71043 16:-0.610146 17:-0.350739 18:0.100184 19:0.401315 20:-0.951219 21:-0.925275 22:-0.85001 23:0.461427 24:0.276668 25:-0.137132 26:0.195917 27:-0.715655 28:-0.811355 29:-0.935368 30:-0.915049 31:-0.920798 32:0.583526 33:0.432979 34:0.209133 35:-0.479544 36:0.847509 37:-0.38079 38:-0.31394 39:-0.480135 40:-0.204928 
-10.33122741613889 -0 52.46897973732241 0 1:0.0646087 2:0.00277252 3:0.130112 4:0.240552 5:-0.419474 6:-0.773461 7:-0.868725 8:0.803691 9:0.395888 10:0.061068 11:0.534497 12:-0.555912 13:-0.932669 14:-0.614091 15:-0.60474 16:-0.531315 17:-0.348022 18:0.116392 19:0.380867 20:-0.916614 21:-0.645911 22:-0.619005 23:-0.0297425 24:0.397761 25:-0.122942 26:-0.611097 27:-0.509604 28:-0.837972 29:-0.783653 30:-0.681277 31:-0.703617 32:0.781974 33:0.63849 34:-0.280989 35:0.360308 36:0.88911 37:-0.380469 38:0.379274 39:-0.178564 40:0.579213 
-21.52881770461203 -0 0 0 1:-0.070866 2:0.159043 3:0.0772642 4:0.336723 5:-0.334868 6:-0.734258 7:-0.853284 8:0.95668 9:-0.0119452 10:0.0298328 11:0.890632 12:-0.387206 13:0.00173889 14:-0.652011 15:-0.469164 16:-0.456316 17:-0.204279 18:0.00402724 19:0.459238 20:-0.779959 21:-0.760118 22:-0.85502 23:0.857065 24:-0.424219 25:0.0570584 26:0.536673 27:-0.443176 28:-0.858675 29:-0.853012 30:-0.632227 31:-0.77376 32:0.897108 33:-0.672438 34:0.485134 35:-0.373726 36:0.151236 37:-0.633645 38:0.429131 39:-0.323613 40:0.599639 
-36.92495163788566 -35.64004457158202 0 0 1:-0.904234 2:-0.190857 3:-0.13516 4:0.308595 5:-0.386234 6:-0.817407 7:-0.72172 8:-0.377088 9:-0.33456 10:0.680409 11:-0.587217 12:-0.499032 13:0.0138 14:-0.453927 15:-0.526955 16:-0.465303 17:-0.351333 18:0.198628 19:0.450086 20:-0.54765 21:-0.616586 22:-0.655802 23:0.115829 24:-0.020141 25:0.0761023 26:-0.867977 27:-0.992747 28:-0.97511 29:-0.682451 30:-0.646629 31:-0.59691 32:-0.181533 33:-0.25524 34:-0.16085 35:-0.171799 36:-0.317654 37:-0.00795225 38:0.0203884 39:0.42324 40:-0.0489367 
-0 -0 228.4721098766857 0 1:0.213939 2:-0.0730968 3:0.413377 4:0.344573 5:-0.404606 6:-0.626073 7:-0.711745 8:-0.0892919 9:0.40382 10:-0.0675588 11:-0.675662 12:-0.422846 13:-0.890656 14:-0.465305 15:-0.639367 16:-0.425167 17:-0.573612 18:0.817233 19:0.3248 20:-0.557072 21:-0.0982882 22:-0.355985 23:-0.0794869 24:0.436887 25:-0.222418 26:-0.961208 27:-0.697553 28:-0.690403 29:-0.423271 30:-0.210186 31:-0.199678 32:0.473282 33:-0.798316 34:-0.00297702 35:0.23793 36:-0.471026 37:-0.375216 38:-0.070296 39:0.392867 40:0.0183746 
-0.06668649615088905 -33.93321261245444 42.1060098654052 25.61348763423492 1:0.364237 2:0.174345 3:0.431917 4:0.146954 5:-0.412724 6:-0.516154 7:-0.752104 8:-0.382151 9:0.608058 10:0.0803952 11:-0.676055 12:0.138528 13:-0.80538 14:-0.364 15:-0.672391 16:-0.403972 17:-0.261504 18:0.227166 19:0.405438 20:-0.589477 21:0.0189681 22:-0.373297 23:-0.0406375 24:0.425889 25:-0.121209 26:-0.926263 27:-0.658971 28:-0.742912 29:-0.339261 30:-0.339595 31:-0.217529 32:0.733722 33:-0.736264 34:0.00217187 35:0.514424 36:-0.542813 37:-0.0710357 38:0.186561 39:-0.316631 40:0.587029 
-0 -0 0.3590217637520392 0 1:0.806607 2:-0.270195 3:0.209442 4:0.363855 5:0.2234 6:0.0401552 7:-0.76775 8:-0.926419 9:0.71491 10:0.159144 11:0.637808 12:0.365068 13:-0.783663 14:-0.212489 15:0.176441 16:0.176002 17:-0.414671 18:0.171382 19:0.35271 20:-0.771683 21:-0.612665 22:-0.546272 23:-0.203448 24:0.108329 25:-0.342324 26:-0.565438 27:-0.621541 28:-0.409931 29:-0.74791 30:-0.663745 31:-0.632803 32:-0.597702 33:-0.394275 34:0.706281 35:0.546986 36:0.0360213 37:-0.472442 38:-0.757113 39:-0.531476 40:0.108279 
-85.05598188429667 -21.84464310650323 140.6262401901278 0 1:0.961867 2:-0.131951 3:0.164067 4:0.442107 5:-0.354427 6:-0.762012 7:-0.841987 8:-0.798421 9:-0.345283 10:0.385696 11:0.317057 12:-0.22655 13:-0.350428 14:-0.52191 15:-0.544143 16:-0.472195 17:-0.386483 18:0.0898424 19:0.46773 20:-0.769015 21:-0.287402 22:-0.705778 23:0.163855 24:0.174253 25:0.412958 26:-0.746504 27:-0.36959 28:-0.687085 29:-0.580953 30:-0.551033 31:-0.492594 32:0.257716 33:-0.717823 34:0.0406167 35:0.417876 36:-0.202172 37:0.246168 38:-0.301433 39:0.736135 40:-0.121767 
-0 -0 27.6583964095773 0 1:0.899433 2:-1 3:0.486408 4:0.315394 5:0.253287 6:-0.504841 7:-0.761681 8:-0.88066 9:0.674191 10:-0.27948 11:0.54369 12:0.0793427 13:-0.289088 14:-0.225065 15:0.0579733 16:0.0871679 17:-0.472576 18:0.349674 19:0.389813 20:-0.772368 21:-0.754952 22:-0.759776 23:-0.230021 24:0.617084 25:0.275108 26:-0.781271 27:-0.206823 28:-0.630955 29:-0.854784 30:-0.737007 31:-0.7422 32:0.0651289 33:-0.898614 34:0.354869 35:0.004639 36:0.528433 37:-0.0285656 38:-0.236009 39:-0.778539 40:0.173024 
-1.464435254125366 -0 30.43704639349795 0 1:0.820528 2:-0.242725 3:0.169238 4:0.267784 5:-0.243772 6:-0.538631 7:-0.63582 8:-0.462369 9:0.595186 10:-0.693078 11:-0.495332 12:0.118129 13:0.345963 14:-0.349931 15:-0.281075 16:-0.27882 17:-0.403804 18:0.0935216 19:0.413188 20:-0.776667 21:-0.211562 22:-0.593182 23:-0.209133 24:0.122853 25:0.149113 26:-0.744526 27:-0.542219 28:-0.62185 29:-0.500192 30:-0.537675 31:-0.431068 32:0.43466 33:-0.65877 34:0.263649 35:0.240498 36:-0.168596 37:-0.1548 38:0.123531 39:-0.438027 40:0.660975 
