svm_type c_svc
kernel_type rbf
gamma 0.109766
nr_class 2
total_sv 465
rho 0.614606
label 1 -1
probA -2.84167
probB 0.133592
nr_sv 236 229
SV
0.9209327290234482 1:-0.43271 2:-0.206541 3:-0.155187 4:-0.0736942 5:-0.396306 6:-0.234798 7:-0.284353 8:-0.173293 9:-0.629747 10:-0.087538 11:-0.862761 12:0.222232 13:-0.370186 14:-0.0924778 15:-0.476686 16:-0.218265 17:0.215784 18:0.0441787 19:0.733672 20:0.500388 21:-0.315887 22:1 23:0.0475836 24:-0.0623732 25:-0.643936 26:-0.575296 27:-0.781693 28:-0.127352 29:0.159796 30:0.622786 31:0.574271 32:0.251454 33:0.3698 34:0.480946 35:0.621811 36:0.548083 37:0.400492 38:-0.901275 39:-0.642551 40:-0.434616 
0.3849487690988788 1:0.876744 2:-0.269882 3:-0.382485 4:-0.2577 5:-0.248493 6:-0.562612 7:-0.370438 8:-0.683296 9:0.439985 10:0.223946 11:0.136433 12:-0.507575 13:-0.0277899 14:-0.279703 15:-0.244771 16:-0.235529 17:-0.439477 18:0.499076 19:0.0661418 20:-0.447875 21:0.0517713 22:-0.0092372 23:-0.0319154 24:0.119009 25:-0.135127 26:-0.895342 27:-0.929129 28:-0.954316 29:0.495133 30:-0.161104 31:0.248792 32:-0.539315 33:-0.660633 34:0.57282 35:0.625153 36:0.800276 37:-0.742587 38:0.0858857 39:-0.0361972 40:0.175855 
0.3449737391801103 1:-0.14396 2:0.392922 3:0.371594 4:0.415558 5:0.456352 6:0.0201568 7:0.0390937 8:0.461284 9:-0.281056 10:0.239481 11:0.029947 12:-0.427561 13:-0.563723 14:0.405333 15:-0.033089 16:0.34637 17:-0.12371 18:-0.268036 19:1 20:0.072706 21:-0.559218 22:0.959357 23:0.126448 24:0.0551457 25:-0.554533 26:-0.659434 27:-0.910533 28:-0.364969 29:0.340503 30:0.0641432 31:0.290647 32:-0.678527 33:-0.0554833 34:-0.15775 35:0.674062 36:0.18794 37:0.489474 38:-0.190109 39:-0.395915 40:-0.492785 
1.385437081870909 1:-0.0571871 2:0.785228 3:0.25503 4:0.79379 5:0.897184 6:0.0703781 7:0.680634 8:0.568537 9:-0.508502 10:-0.688427 11:0.0494115 12:-0.177372 13:0.370139 14:0.790183 15:0.759505 16:0.916706 17:-0.0805028 18:-0.260086 19:0.702802 20:0.176867 21:-0.454173 22:0.958695 23:-0.084444 24:-0.0946206 25:-0.590834 26:-0.327925 27:-0.836419 28:-0.334099 29:0.138851 30:0.573373 31:0.310488 32:-0.880122 33:-0.606976 34:-0.741905 35:0.476915 36:0.659499 37:0.850433 38:0.82546 39:0.348545 40:0.439292 
0.01826330000729494 1:-0.0799807 2:-0.401368 3:-0.59456 4:-0.218329 5:0.104896 6:-0.594674 7:-0.172571 8:1 9:-0.797298 10:-0.724492 11:1 12:0.447652 13:0.414472 14:-0.239643 15:0.0888299 16:0.00504583 17:-0.539461 18:-0.623488 19:-0.687574 20:-0.399508 21:-0.639232 22:-0.621496 23:-0.373944 24:-0.138548 25:-0.358306 26:-0.369088 27:-0.380616 28:-0.677137 29:-0.627693 30:-0.40276 31:-0.456116 32:-0.43651 33:-0.710129 34:-0.641621 35:0.594416 36:0.721167 37:0.663484 38:0.263442 39:0.708343 40:0.319801 
0.3208137383120044 1:-0.0540754 2:-0.461876 3:-0.711024 4:-0.445956 5:-0.259883 6:-0.76877 7:-0.526806 8:0.910135 9:-0.326835 10:-0.33709 11:0.758987 12:-0.536299 13:-0.22045 14:-0.471252 15:-0.412845 16:-0.391773 17:-0.699301 18:-0.65738 19:-0.493241 20:-0.574774 21:-0.670504 22:-0.758023 23:0.764309 24:0.197317 25:-0.854222 26:0.497925 27:-0.388017 28:0.59598 29:-0.670427 30:-0.447138 31:-0.54432 32:0.838904 33:0.621328 34:-0.924489 35:-0.584152 36:-0.419104 37:0.608045 38:-0.871756 39:-0.907262 40:0.686586 
0.89909484599976 1:-0.656669 2:-0.901492 3:-0.780393 4:-0.456321 5:-0.911012 6:-0.79368 7:-0.625276 8:-0.46427 9:-0.419748 10:0.0840876 11:-0.59051 12:-0.095679 13:-0.697065 14:-0.481799 15:-0.881068 16:-0.691056 17:-0.425408 18:-0.76896 19:-0.694308 20:-0.269915 21:-0.806459 22:-0.787367 23:0.152588 24:-0.0777648 25:0.239487 26:-0.47409 27:-0.678512 28:-0.828008 29:-0.5314 30:-0.573932 31:-0.503961 32:0.0944438 33:0.160376 34:-0.306747 35:-0.910958 36:-0.870515 37:0.806304 38:0.184993 39:-0.168115 40:0.188791 
1.461027969106233 1:-0.0717913 2:-0.884697 3:-0.858981 4:-0.517071 5:-0.91114 6:-0.897963 7:-0.660137 8:-0.0161659 9:0.23258 10:0.17032 11:-0.617941 12:-0.90309 13:-0.648532 14:-0.543611 15:-0.846447 16:-0.713178 17:-0.444222 18:-0.832212 19:-0.827627 20:-0.309092 21:-0.846922 22:-0.790121 23:-0.00379871 24:0.07082 25:-0.443387 26:-0.533738 27:-0.612859 28:-0.565375 29:-0.547285 30:-0.598919 31:-0.563351 32:-0.777534 33:0.457783 34:-0.112717 35:0.456291 36:0.0260817 37:-0.450605 38:-0.446463 39:0.386479 40:-0.818635 
3.229934344844243 1:-0.488546 2:-0.808042 3:-0.620504 4:-0.363987 5:-0.803655 6:-0.662886 7:-0.578405 8:0.0403999 9:-0.834115 10:0.240408 11:-0.474726 12:0.594481 13:-0.716462 14:-0.387849 15:-0.811932 16:-0.598199 17:-0.511988 18:-0.715262 19:-0.864816 20:-0.277489 21:-0.755011 22:-0.929309 23:0.56145 24:-0.00765721 25:0.102503 26:0.144019 27:-0.472935 28:-0.797605 29:-0.604498 30:-0.493753 31:-0.505222 32:0.366115 33:0.280339 34:-0.0964083 35:-0.860169 36:-0.645507 37:0.314437 38:-0.439107 39:-0.667931 40:-0.0860137 
9.168023318004854 1:-0.932131 2:-0.838535 3:-0.891012 4:-0.698362 5:-0.869948 6:-0.900397 7:-0.795019 8:-0.286148 9:0.436796 10:-0.0683554 11:-0.842411 12:-0.491846 13:-0.690009 14:-0.728074 15:-0.919629 16:-0.824031 17:-0.720696 18:-0.796018 19:-0.829388 20:-0.629767 21:-0.817805 22:-0.805056 23:0.2923 24:0.224567 25:0.173698 26:-0.380184 27:-0.492968 28:-0.629122 29:-0.780706 30:-0.652993 31:-0.708938 32:-0.206721 33:-0.320829 34:-0.18491 35:0.0822083 36:-0.0744794 37:0.124212 38:0.534082 39:0.294531 40:-0.60361 
7.921818377446196 1:-0.119039 2:-0.692141 3:-0.839457 4:-0.830088 5:-0.749875 6:-0.877562 7:-0.9044 8:0.160421 9:-0.273484 10:0.198233 11:-0.702022 12:-0.513807 13:-0.804013 14:-0.734103 15:-0.895616 16:-0.822338 17:-0.238012 18:-0.0861606 19:-0.574766 20:-0.465445 21:-0.536513 22:-0.715574 23:0.00203231 24:0.13714 25:-0.186841 26:-0.949407 27:-0.900525 28:-0.908482 29:-0.0947109 30:-0.253962 31:-0.0846616 32:-0.0428012 33:0.119454 34:-0.161108 35:-0.0162928 36:-0.150626 37:0.228315 38:0.48516 39:0.454116 40:-0.7184 
11.38832453697045 1:-0.0131691 2:-0.474684 3:-0.786583 4:-0.667296 5:-0.593147 6:-0.844033 7:-0.777468 8:-0.0444642 9:0.203853 10:0.251099 11:-0.806523 12:-0.865944 13:-0.697928 14:-0.528942 15:-0.821513 16:-0.689789 17:-0.574426 18:-0.371805 19:-0.560677 20:-0.5996 21:-0.626534 22:-0.832155 23:-0.25351 24:-0.0489289 25:-0.204884 26:-0.665708 27:-0.748561 28:-0.69788 29:-0.382604 30:-0.550625 31:-0.463088 32:-0.033814 33:0.0782339 34:-0.252766 35:0.13899 36:0.112979 37:0.217925 38:0.517036 39:0.500304 40:-0.300729 
5.505629421058023 1:-0.0395434 2:-0.0116989 3:-0.61684 4:-0.286248 5:0.482658 6:-0.695784 7:-0.329374 8:0.956959 9:-0.464863 10:-0.586807 11:0.89087 12:-0.269531 13:0.160033 14:-0.0921391 15:0.110321 16:0.115618 17:-0.639111 18:-0.895394 19:-0.587404 20:-0.491661 21:-0.922081 22:-0.803002 23:0.498732 24:0.242362 25:0.0936304 26:-0.484402 27:-0.756793 28:-0.745696 29:-0.711826 30:-0.653925 31:-0.634323 32:0.595556 33:0.533187 34:-0.343871 35:-0.780881 36:-0.573605 37:-0.0162194 38:-0.183331 39:-0.232609 40:0.608261 
6.931552361687187 1:0.00299174 2:-0.685157 3:-0.843344 4:-0.7288 5:-0.727827 6:-0.901916 7:-0.856484 8:-0.0113304 9:0.285612 10:0.220832 11:-0.575026 12:-0.807346 13:-0.786159 14:-0.727514 15:-0.854383 16:-0.783832 17:-0.759324 18:-0.268315 19:-0.568032 20:-0.86918 21:-0.824755 22:-0.946795 23:0.335926 24:0.219077 25:0.118171 26:-0.669895 27:-0.634464 28:-0.798712 29:-0.278299 30:-0.616632 31:-0.467173 32:-0.102442 33:0.0453454 34:-0.17267 35:0.328416 36:0.162371 37:-0.0148313 38:0.749335 39:0.654342 40:-0.314031 
0.581149475331794 1:-0.0310382 2:-0.345937 3:-0.787476 4:-0.55122 5:-0.332576 6:-0.853979 7:-0.538848 8:0.527998 9:0.0498966 10:-0.838783 11:-0.173671 12:-0.692992 13:0.62679 14:-0.407476 15:-0.459586 16:-0.428264 17:-0.461122 18:-0.0757697 19:-0.403532 20:-0.570473 21:-0.543571 22:-0.882794 23:0.261934 24:0.330883 25:0.0359818 26:-0.821722 27:-0.767812 28:-0.875781 29:-0.0842383 30:-0.284356 31:-0.139881 32:0.569111 33:0.642711 34:0.408061 35:-0.395472 36:-0.438549 37:-0.531731 38:-0.35127 39:-0.430333 40:-0.128674 
5.501016759949715 1:-0.0414748 2:-0.224182 3:-0.692595 4:-0.439795 5:-0.16162 6:-0.784761 7:-0.468202 8:0.681427 9:-0.17902 10:-0.698424 11:0.13612 12:-0.669 13:0.352714 14:-0.292607 15:-0.327732 16:-0.302035 17:-0.447885 18:-0.45814 19:-0.384679 20:-0.392515 21:-0.543984 22:-0.476919 23:-0.0914286 24:0.198969 25:-0.117016 26:-0.778744 27:-0.79413 28:-0.872434 29:-0.469619 30:-0.350364 31:-0.330693 32:0.400965 33:0.584874 34:-0.649084 35:-0.359843 36:-0.545313 37:0.588236 38:-0.238957 39:-0.373637 40:0.311741 
5.948963296006086 1:0.905853 2:-0.773673 3:-0.808361 4:-0.75807 5:-0.786835 6:-0.922418 7:-0.834871 8:-0.591011 9:0.307118 10:0.0552349 11:0.00642976 12:-0.736682 13:-0.554786 14:-0.788826 15:-0.835503 16:-0.816269 17:-0.681901 18:-0.725025 19:-0.312581 20:-0.652991 21:-0.782057 22:-0.374728 23:0.35184 24:0.271456 25:-0.212382 26:-0.693875 27:-0.76755 28:-0.895444 29:-0.550097 30:-0.666977 31:-0.564913 32:-0.0393539 33:-0.261084 34:0.337659 35:-0.0490955 36:0.288859 37:-0.214187 38:0.366662 39:0.13513 40:0.449604 
11.8146091675 1:-0.0317838 2:-0.603858 3:-0.767888 4:-0.607826 5:-0.604926 6:-0.833315 7:-0.632741 8:0.63449 9:0.246579 10:-0.798701 11:0.142914 12:-0.650313 13:0.506136 14:-0.635954 15:-0.633299 16:-0.617917 17:-0.857975 18:-0.809965 19:-0.763816 20:-0.816225 21:-0.824958 22:-0.74193 23:0.0209977 24:-0.193382 25:-0.222361 26:-0.478936 27:-0.539888 28:-0.819622 29:-0.824214 30:-0.761514 31:-0.769704 32:-0.704198 33:-0.638778 34:-0.366071 35:0.213494 36:-0.093496 37:0.193416 38:0.628829 39:0.720899 40:0.000955112 
4.288250070108464 1:0.710773 2:-0.843409 3:-0.819872 4:-0.958672 5:-0.888118 6:-0.864281 7:-0.967754 8:-0.235497 9:0.341094 10:-0.0666526 11:-0.839592 12:-0.649178 13:-0.781819 14:-0.876816 15:-0.947325 16:-0.918991 17:-0.831002 18:-0.833049 19:-0.84358 20:-0.717827 21:-0.834396 22:-0.834676 23:-0.325835 24:0.2514 25:-0.092915 26:-0.00298685 27:-0.55836 28:-0.83075 29:-0.847478 30:-0.760209 31:-0.762867 32:0.12172 33:-0.32626 34:0.890171 35:-0.347638 36:0.207252 37:-0.727502 38:0.0607978 39:-0.238855 40:0.622144 
11.8146091675 1:-0.122767 2:-0.743385 3:-0.82609 4:-0.636156 5:-0.78918 6:-0.871527 7:-0.736437 8:0.045148 9:-0.00316181 10:0.402988 11:-0.625392 12:-0.740662 13:-0.456645 14:-0.664779 15:-0.858525 16:-0.744637 17:-0.766151 18:-0.925381 19:-0.606878 20:-0.650772 21:-0.925371 22:-0.862344 23:0.651547 24:-0.417165 25:0.36522 26:-0.100369 27:-0.515913 28:-0.184523 29:-0.74978 30:-0.711356 31:-0.72175 32:0.566248 33:0.565011 34:0.22031 35:-0.726758 36:0.0485023 37:-0.592499 38:0.559919 39:-0.774015 40:0.45725 
1.4252965352162 1:-0.0861061 2:-0.535185 3:-0.70221 4:-0.44671 5:-0.19525 6:-0.68645 7:-0.419977 8:0.97502 9:-0.781694 10:-0.758545 11:0.939209 12:0.477199 13:0.445205 14:-0.472019 15:-0.210328 16:-0.287772 17:-0.728272 18:-0.850762 19:-0.797172 20:-0.597608 21:-0.784939 22:-0.699363 23:-0.276862 24:-0.953307 25:-0.65676 26:-0.409971 27:0.869856 28:-0.0759224 29:-0.787102 30:-0.485176 31:-0.654228 32:-0.574537 33:-0.952944 34:-0.770398 35:0.819179 36:0.914871 37:0.852061 38:0.324519 39:0.881664 40:0.566242 
11.8146091675 1:-0.850884 2:-0.921807 3:-0.903428 4:-0.772395 5:-0.894782 6:-0.885843 7:-0.802981 8:-0.781686 9:-0.106567 10:0.173866 11:0.416943 12:-0.341538 13:-0.45016 14:-0.803402 15:-0.876609 16:-0.838347 17:-0.849817 18:-0.941421 19:-0.915367 20:-0.743246 21:-0.954988 22:-0.894835 23:-0.310431 24:-0.158452 25:-0.236474 26:0.0853945 27:-0.838295 28:-0.318892 29:-0.889721 30:-0.826403 31:-0.847045 32:0.859283 33:-0.151779 34:0.649447 35:0.730035 36:-0.548112 37:0.917356 38:-0.48624 39:0.0029399 40:-0.0256022 
1.448314563869083 1:-0.890868 2:-0.74355 3:-0.829811 4:-0.715528 5:-0.669814 6:-0.822551 7:-0.757425 8:-0.729299 9:-0.659304 10:0.325787 11:0.182966 12:0.25019 13:-0.248845 14:-0.74554 15:-0.806965 16:-0.70578 17:-0.679404 18:-0.744552 19:-0.888123 20:-0.54605 21:-0.768847 22:-0.968565 23:0.387125 24:-0.0360886 25:-0.0699731 26:-0.122631 27:-0.546732 28:-0.809307 29:-0.745844 30:-0.622786 31:-0.648235 32:-0.727711 33:-0.48227 34:0.666136 35:-0.718991 36:-0.586397 37:0.400114 38:0.663044 39:0.746581 40:-0.145675 
0.576561180407468 1:-0.0675439 2:-0.401332 3:-0.790561 4:-0.150949 5:-0.205906 6:-0.758096 7:-0.162385 8:0.948923 9:-0.76723 10:-0.680714 11:0.879531 12:0.465948 13:0.318273 14:-0.171085 15:-0.0892174 16:-0.121349 17:-0.48618 18:-0.621814 19:-0.77749 20:-0.330629 21:-0.644199 22:-0.896139 23:0.287257 24:0.119995 25:-0.833044 26:-0.526331 27:-0.513849 28:0.589787 29:-0.58271 30:-0.446019 31:-0.465425 32:0.626805 33:0.708872 34:-0.913713 35:-0.765724 36:-0.698617 37:0.940534 38:-0.21824 39:-0.361682 40:0.714609 
7.243616985790002 1:-0.777976 2:-0.830325 3:-0.744169 4:-0.338714 5:-0.832148 6:-0.800685 7:-0.471011 8:-0.269887 9:-0.38375 10:-0.067902 11:-0.489936 12:-0.299914 13:-0.375477 14:-0.362134 15:-0.695561 16:-0.560537 17:-0.38678 18:-0.609122 19:-0.741441 20:-0.221131 21:-0.718134 22:-0.755357 23:-0.357176 24:-0.0922912 25:-0.359098 26:-0.486234 27:-0.71608 28:-0.781581 29:-0.498788 30:-0.393623 31:-0.432166 32:0.0547181 33:0.0332952 34:0.18093 35:0.765894 36:0.686537 37:0.507748 38:0.0755091 39:0.0276746 40:-0.2179 
1.001941831123611 1:-0.963291 2:-0.495913 3:-0.698854 4:-0.37102 5:-0.552309 6:-0.798432 7:-0.419782 8:-0.518111 9:-0.00313479 10:-0.0865413 11:-0.299644 12:-0.811399 13:-0.197471 14:-0.395005 15:-0.573133 16:-0.439526 17:-0.481518 18:-0.304299 19:-0.628114 20:-0.315478 21:-0.310434 22:-0.68287 23:-0.36115 24:-0.683156 25:-0.595361 26:-0.476833 27:0.281183 28:-0.208255 29:-0.314567 30:0.0807384 31:-0.167727 32:0.796838 33:0.805273 34:0.880174 35:0.44288 36:0.243156 37:0.374428 38:0.202999 39:0.712736 40:0.30075 
1.198773584005639 1:-0.095823 2:-0.633949 3:-0.559453 4:0.252749 5:-0.643123 6:-0.713655 7:0.130908 8:0.392829 9:-0.161487 10:-0.498732 11:-0.21844 12:-0.79148 13:0.0511468 14:0.239676 15:-0.282668 16:-0.0450592 17:-0.000166472 18:-0.599986 19:-0.714922 20:0.250312 21:-0.52835 22:-0.687702 23:-0.26081 24:-0.868277 25:-0.273353 26:-0.564238 27:0.700465 28:-0.755894 29:-0.172377 30:-0.0121201 31:-0.0970415 32:-0.491547 33:-0.716255 34:-0.379464 35:0.775614 36:0.358283 37:0.527055 38:0.156545 39:0.935528 40:0.192773 
9.537007619325147 1:-0.0571575 2:-0.323533 3:-0.625058 4:-0.157726 5:-0.0470846 6:-0.716076 7:-0.242037 8:0.829443 9:-0.383808 10:-0.455695 11:0.596363 12:-0.34626 13:-0.00457635 14:-0.17798 15:-0.141222 16:-0.124689 17:-0.467283 18:-0.605774 19:-0.768271 20:-0.357629 21:-0.653144 22:-0.770994 23:0.0949446 24:-0.397954 25:-0.339946 26:-0.510397 27:-0.281572 28:-0.449999 29:-0.566755 30:-0.60992 31:-0.483961 32:0.0225225 33:-0.681077 34:-0.654013 35:-0.00537004 36:0.61369 37:0.686144 38:0.00303144 39:0.756905 40:0.686143 
5.198082846208901 1:-0.0068257 2:-0.820495 3:-0.939811 4:-0.659011 5:-0.821869 6:-0.942929 7:-0.728396 8:0.216422 9:0.101153 10:-0.364274 11:-0.643102 12:-0.849491 13:-0.130711 14:-0.688034 15:-0.839529 16:-0.771413 17:-0.817183 18:-0.859409 19:-0.8788 20:-0.796499 21:-0.867797 22:-0.885571 23:0.0914034 24:0.384097 25:-0.0741762 26:-0.704498 27:-0.290482 28:-0.601719 29:-0.862168 30:-0.795264 31:-0.823536 32:0.526249 33:0.184909 34:-0.424698 35:-0.230676 36:0.0759382 37:-0.161611 38:-0.434078 39:-0.782607 40:0.772097 
3.484941328852219 1:-0.0679512 2:-0.782899 3:-0.926386 4:-0.766748 5:-0.809577 6:-0.939607 7:-0.845848 8:0.236724 9:-0.153865 10:-0.199599 11:-0.550034 12:-0.807789 13:-0.501163 14:-0.797657 15:-0.882835 16:-0.843943 17:-0.886863 18:-0.905715 19:-0.857668 20:-0.867496 21:-0.92356 22:-0.847647 23:-0.139953 24:0.0584107 25:0.106022 26:-0.549433 27:-0.652911 28:-0.778605 29:-0.919944 30:-0.874697 31:-0.877116 32:-0.856652 33:-0.172094 34:-0.370897 35:0.507918 36:-0.105431 37:0.415872 38:0.347019 39:0.877003 40:-0.132415 
6.069268968534174 1:0.935462 2:-0.79394 3:-0.865832 4:-0.861924 5:-0.824044 6:-0.916102 7:-0.902577 8:-0.392184 9:0.132348 10:-0.299818 11:-0.351603 12:-0.638669 13:-0.489945 14:-0.830145 15:-0.939082 16:-0.87636 17:-0.694389 18:-0.730046 19:-0.589268 20:-0.63683 21:-0.771665 22:-0.570733 23:0.165611 24:0.176454 25:-0.00155924 26:-0.438989 27:-0.54341 28:-0.828871 29:-0.737832 30:-0.651687 31:-0.631116 32:0.587475 33:0.334094 34:0.338146 35:-0.294521 36:0.240625 37:-0.663625 38:0.0666451 39:-0.53823 40:0.359669 
0.05694811836237391 1:0.905743 2:-0.688404 3:-0.791702 4:-0.804857 5:-0.678239 6:-0.856794 7:-0.893622 8:-0.592934 9:0.38267 10:-0.143952 11:-0.183281 12:-0.608245 13:-0.786405 14:-0.730577 15:-0.823626 16:-0.767399 17:-0.588495 18:-0.700966 19:-0.472419 20:-0.448656 21:-0.75597 22:-0.417882 23:-0.533879 24:-0.126682 25:-0.236342 26:0.105298 27:-0.546818 28:-0.68819 29:-0.658549 30:-0.472124 31:-0.508525 32:0.767736 33:0.428417 34:0.567438 35:-0.556549 36:-0.13728 37:-0.746329 38:0.16918 39:-0.486677 40:0.415619 
1.229282142288223 1:-0.057457 2:0.25861 3:-0.200385 4:-0.221647 5:0.496856 6:-0.418119 7:-0.157168 8:0.787659 9:-0.3342 10:-0.772566 11:0.500159 12:-0.651191 13:0.506853 14:0.162884 15:0.269411 16:0.260256 17:-0.375624 18:-0.581436 19:0.0213912 20:-0.24796 21:-0.663588 22:0.170389 23:-0.0707146 24:-0.391248 25:-0.387302 26:-0.591453 27:-0.419432 28:-0.712602 29:-0.323493 30:-0.260861 31:-0.171749 32:-0.402937 33:-0.615626 34:-0.289784 35:0.797043 36:0.564434 37:0.680968 38:0.132988 39:0.52419 40:0.0087006 
3.341957551441767 1:-0.823396 2:-0.836796 3:-0.756927 4:-0.759517 5:-0.901814 6:-0.866503 7:-0.819379 8:-0.0720333 9:-0.436794 10:0.103797 11:-0.82481 12:-0.450483 13:-0.442444 14:-0.790298 15:-0.890943 16:-0.839207 17:-0.72669 18:-0.829074 19:-0.779251 20:-0.642089 21:-0.771604 22:-0.77389 23:-0.389858 24:-0.832121 25:-0.0807789 26:-0.13256 27:0.584685 28:-0.84224 29:-0.785767 30:-0.560321 31:-0.674744 32:0.26552 33:0.567179 34:0.443594 35:0.876063 36:0.776027 37:0.358935 38:0.328206 39:0.456534 40:-0.256436 
0.8911633595876545 1:0.863716 2:-0.27293 3:-0.437476 4:-0.439057 5:-0.447728 6:-0.621368 7:-0.673677 8:-0.321064 9:0.272831 10:0.00113729 11:-0.77536 12:-0.878465 13:-0.845807 14:-0.338597 15:-0.705613 16:-0.527857 17:-0.00591075 18:0.0919488 19:-0.00160564 20:0.253025 21:-0.271575 22:-0.32628 23:0.438727 24:0.537301 25:-0.19322 26:-0.452005 27:-0.404794 28:-0.630212 29:0.0848006 30:0.17658 31:0.175573 32:-0.0255079 33:-0.0631458 34:0.274486 35:0.18158 36:0.276874 37:-0.331144 38:-0.0973359 39:-0.12844 40:0.0528641 
1.855248857268869 1:-0.120521 2:0.0568012 3:-0.251181 4:0.0066523 5:0.0592783 6:-0.441042 7:-0.386461 8:0.469151 9:-0.507371 10:0.101247 11:-0.00788822 12:-0.104282 13:-0.834124 14:-0.0107257 15:-0.248193 16:-0.110487 17:-0.26024 18:-0.471878 19:-0.446418 20:-0.152305 21:-0.646377 22:-0.661354 23:0.12054 24:0.195981 25:0.315276 26:-0.543605 27:-0.857041 28:-0.602871 29:-0.391952 30:-0.275406 31:-0.319029 32:0.363572 33:0.173329 34:0.38963 35:-0.785572 36:-0.454269 37:-0.569294 38:0.794805 39:0.591697 40:0.447757 
5.545971309324575 1:-0.143481 2:-0.0302586 3:-0.291192 4:-0.18081 5:-0.00454121 6:-0.419822 7:-0.469158 8:0.386321 9:-0.618109 10:0.167408 11:-0.0877696 12:0.154152 13:-0.627373 14:-0.109649 15:-0.320632 16:-0.184272 17:-0.339244 18:-0.441473 19:-0.08023 20:-0.153798 21:-0.648496 22:-0.527105 23:0.247101 24:0.0866336 25:0.109745 26:-0.583282 27:-0.890624 28:-0.391068 29:-0.392444 30:-0.39642 31:-0.214696 32:0.0758047 33:-0.273206 34:-0.454685 35:-0.408914 36:0.137441 37:0.0298883 38:0.889025 39:0.43388 40:0.821146 
1.201670984297302 1:0.995103 2:-0.196003 3:-0.556149 4:-0.376118 5:-0.230796 6:-0.709333 7:-0.406102 8:-0.484716 9:0.30629 10:0.250368 11:-0.382262 12:-0.768998 13:-0.0487764 14:-0.266021 15:-0.460353 16:-0.295565 17:-0.354396 18:-0.457791 19:0.0161082 20:-0.124266 21:-0.67808 22:-0.45472 23:0.460385 24:0.336689 25:0.328015 26:-0.082536 27:-0.453379 28:-0.388688 29:-0.327078 30:-0.181242 31:-0.176014 32:-0.869 33:-0.836864 34:-0.752938 35:-0.398589 36:-0.249546 37:-0.0821616 38:0.881185 39:0.782311 40:0.364286 
1.988099472369619 1:0.872048 2:-0.861875 3:-0.781384 4:-0.904084 5:-0.867165 6:-0.855091 7:-0.940601 8:-0.490316 9:0.305157 10:0.251151 11:-0.185475 12:-0.840201 13:-0.748404 14:-0.894238 15:-0.921117 16:-0.902532 17:-0.578172 18:-0.662401 19:-0.485782 20:-0.494904 21:-0.851295 22:-0.591105 23:-0.297629 24:0.420369 25:-0.262082 26:-0.413348 27:-0.606973 28:-0.738928 29:-0.660376 30:-0.617751 31:-0.556183 32:0.475391 33:-0.156239 34:0.358673 35:-0.540567 36:-0.0157259 37:-0.509788 38:0.69321 39:0.674543 40:-0.629777 
2.549337092829054 1:-0.321812 2:-0.253179 3:0.700169 4:1 5:-0.130468 6:0.909557 7:1 8:0.849959 9:-0.805854 10:-0.383852 11:0.618756 12:0.441258 13:0.0927903 14:1 15:1 16:1 17:-0.0397103 18:-0.648593 19:-0.426736 20:-0.0762354 21:-0.807063 22:-0.462153 23:-0.0335979 24:0.139224 25:-0.0763897 26:-0.539924 27:-0.796438 28:-0.929957 29:-0.205763 30:-0.421219 31:-0.277124 32:-0.741533 33:-0.0339273 34:-0.267252 35:0.772994 36:0.00379605 37:0.31272 38:0.285809 39:0.118076 40:-0.0666671 
0.6613053886501892 1:-0.422326 2:-0.192115 3:1 4:0.413568 5:-0.378682 6:0.631122 7:0.463341 8:0.102693 9:-0.549322 10:0.284901 11:-0.759379 12:-0.145213 13:-5.37359e-05 14:0.403309 15:0.092212 16:0.508465 17:-0.222944 18:-0.325011 19:-0.705703 20:-0.722194 21:-0.655891 22:-0.720338 23:0.638392 24:0.251175 25:-0.0728856 26:-0.0888001 27:-0.724379 28:-0.952731 29:-0.335442 30:-0.320716 31:-0.292032 32:0.599856 33:0.235028 34:-0.100991 35:-0.844214 36:-0.501804 37:0.256084 38:-0.100509 39:-0.0640509 40:-0.166343 
2.881645950974326 1:-0.402603 2:-0.483237 3:0.0883459 4:0.00449486 5:-0.587651 6:-0.192594 7:0.148341 8:0.25005 9:-0.304705 10:0.766127 11:-0.646448 12:-0.393073 13:0.485036 14:-0.0129209 15:-0.120562 16:0.0563803 17:-0.485681 18:-0.294955 19:-0.620345 20:-0.529744 21:-0.529446 22:-0.752627 23:-0.111233 24:-0.113601 25:0.0566464 26:-0.919241 27:-0.875164 28:-0.824039 29:-0.305148 30:-0.329853 31:-0.291194 32:-0.0585345 33:-0.0987381 34:0.134595 35:-0.0759059 36:0.0156542 37:-0.0869412 38:-0.373721 39:-0.457323 40:0.484248 
0.7156800728987562 1:-0.464226 2:-0.603579 3:0.826619 4:0.153294 5:-0.644863 6:0.780062 7:0.0737353 8:-0.336377 9:-0.739343 10:-0.736504 11:-0.513741 12:0.436601 13:0.323994 14:0.138481 15:0.215999 16:0.263276 17:-0.278139 18:-0.380801 19:-0.383125 20:-0.165945 21:-0.506012 22:-0.518016 23:0.334885 24:0.428862 25:-0.0891679 26:-0.218666 27:-0.428553 28:-0.800312 29:-0.391671 30:-0.198956 31:-0.236613 32:0.322806 33:0.326057 34:-0.802555 35:-0.73689 36:-0.632471 37:0.657285 38:-0.566302 39:-0.518147 40:0.408901 
0.165664244322211 1:-0.69571 2:-0.459974 3:-0.328279 4:-0.509479 5:-0.404613 6:-0.0560026 7:-0.488013 8:-0.490087 9:-0.94352 10:-0.891405 11:-0.0500931 12:0.865558 13:0.73665 14:-0.515065 15:-0.152949 16:-0.277231 17:-0.799534 18:-0.795251 19:-0.813643 20:-0.782216 21:-0.790762 22:-0.751509 23:0.145725 24:0.394047 25:-0.732769 26:-0.463603 27:-0.223814 28:0.293004 29:-0.809383 30:-0.596495 31:-0.729248 32:-0.738159 33:-0.698343 34:0.72257 35:-0.612075 36:-0.765183 37:0.878156 38:-0.650139 39:-0.774993 40:0.844532 
5.682143894628466 1:-0.53455 2:-0.710006 3:-0.0249847 4:-0.0661211 5:-0.759826 6:0.374996 7:0.0701566 8:0.023864 9:-0.971185 10:-0.809503 11:-0.807904 12:0.931365 13:0.608739 14:-0.0847722 15:0.115747 16:0.115061 17:-0.642274 18:-0.757035 19:-0.741441 20:-0.591167 21:-0.748787 22:-0.705125 23:-0.581931 24:-0.528716 25:-0.296278 26:-0.111677 27:0.102244 28:-0.638127 29:-0.714497 30:-0.525079 31:-0.632689 32:0.582945 33:0.691033 34:-0.526272 35:0.773393 36:0.851104 37:-0.460409 38:0.865054 39:0.736317 40:-0.389824 
1.92293756216813 1:0.131206 2:-0.800567 3:-0.686785 4:-0.824438 5:-0.761479 6:-0.80391 7:-0.876156 8:0.587437 9:0.203472 10:-0.130175 11:0.0790356 12:-0.932124 13:-0.611864 14:-0.836397 15:-0.822911 16:-0.805203 17:-0.837912 18:-0.756826 19:-0.743098 20:-0.823673 21:-0.778094 22:-0.742082 23:-0.0345798 24:-0.285029 25:-0.352021 26:-0.773683 27:-0.483069 28:-0.616758 29:-0.770655 30:-0.745105 31:-0.732758 32:-0.59077 33:-0.94229 34:0.538817 35:-0.316231 36:-0.26736 37:-0.29172 38:-0.32669 39:0.151868 40:-0.318836 
6.088045113402107 1:0.474039 2:-0.792501 3:-0.602957 4:-0.553652 5:-0.780352 6:-0.672138 7:-0.464988 8:0.100717 9:0.609431 10:-0.934632 11:-0.22304 12:-0.102676 13:0.843105 14:-0.580832 15:-0.601064 16:-0.530281 17:-0.752248 18:-0.812267 19:-0.784327 20:-0.642178 21:-0.850703 22:-0.780884 23:-0.732608 24:0.207349 25:-0.341232 26:0.314373 27:-0.694939 28:-0.678605 29:-0.807345 30:-0.735596 31:-0.725731 32:-0.330223 33:-0.163878 34:-0.024225 35:-0.938195 36:-0.429046 37:0.00729893 38:0.889389 39:0.483949 40:-0.304259 
5.542309959983253 1:0.128259 2:-0.790062 3:-0.828145 4:-0.736276 5:-0.783067 6:-0.865512 7:-0.802452 8:0.378743 9:0.32056 10:-0.175739 11:-0.375661 12:-0.785592 13:-0.126974 14:-0.766651 15:-0.818947 16:-0.790323 17:-0.513487 18:-0.725792 19:-0.74921 20:-0.326047 21:-0.752616 22:-0.815756 23:-0.521909 24:-0.356659 25:-0.268174 26:-0.104765 27:-0.563341 28:-0.820022 29:-0.605763 30:-0.575051 31:-0.524387 32:-0.94073 33:0.0745353 34:-0.192378 35:-0.420675 36:-0.0481858 37:-0.879812 38:-0.612605 39:0.462077 40:-0.214905 
2.709290555145629 1:-0.583557 2:-0.588525 3:-0.335844 4:-0.484706 5:-0.676111 6:-0.464599 7:-0.395132 8:0.0985806 9:-0.513968 10:0.934577 11:-0.746502 12:0.0862684 13:0.772393 14:-0.51068 15:-0.534099 16:-0.404975 17:-0.692807 18:-0.725513 19:-0.766613 20:-0.648382 21:-0.749232 22:-0.768768 23:-0.251317 24:-0.259316 25:-0.248331 26:-0.565445 27:-0.610009 28:-0.760677 29:-0.739097 30:-0.644602 31:-0.660683 32:0.503415 33:0.135642 34:-0.687846 35:0.414083 36:0.178705 37:-0.36104 38:-0.131506 39:-0.483063 40:-0.0518467 
3.985812897307394 1:-0.653983 2:-0.580375 3:-0.280725 4:-0.068109 5:-0.625709 6:-0.208536 7:0.216894 8:-0.37551 9:-0.858628 10:-0.961032 11:-0.342279 12:0.666614 13:0.910327 14:-0.0867949 15:0.111717 16:0.103084 17:-0.565934 18:-0.633809 19:-0.728699 20:-0.425661 21:-0.665966 22:-0.740431 23:-0.529253 24:-0.111574 25:-0.20774 26:-0.0702743 27:-0.570661 28:-0.673823 29:-0.64667 30:-0.605631 31:-0.508024 32:0.45371 33:-0.503422 34:-0.0644028 35:0.699843 36:-0.296468 37:-0.155536 38:0.777971 39:-0.244168 40:-0.150714 
1.13377764613619 1:-0.834424 2:-0.556655 3:-0.66627 4:-0.671878 5:-0.608695 6:-0.71966 7:-0.736036 8:-0.102971 9:-0.0749305 10:-0.545369 11:-0.690453 12:-0.570208 13:0.0177164 14:-0.606278 15:-0.709759 16:-0.648476 17:-0.591492 18:-0.818613 19:-0.610815 20:-0.504597 21:-0.842394 22:-0.575537 23:-0.278017 24:0.111535 25:-0.375965 26:-0.436794 27:-0.678134 28:-0.553987 29:-0.671622 30:-0.651128 31:-0.616478 32:-0.0081433 33:-0.652954 34:0.297457 35:0.287379 36:-0.312064 37:-0.138074 38:0.690372 39:-0.0146923 40:-0.415026 
1.491558708833578 1:-0.639851 2:-0.637719 3:-0.286822 4:-0.0827773 5:-0.639961 6:-0.202187 7:0.12424 8:-0.0126094 9:-0.574914 10:-0.713934 11:-0.463298 12:0.270501 13:0.491582 14:-0.10172 15:-0.0346996 16:0.0232755 17:-0.669664 18:-0.855434 19:-0.867509 20:-0.555176 21:-0.867285 22:-0.854894 23:-0.382447 24:0.0355879 25:-0.238444 26:-0.278004 27:-0.545777 28:-0.689335 29:-0.737621 30:-0.76226 31:-0.703198 32:0.19654 33:-0.519185 34:0.0641115 35:0.50787 36:-0.335713 37:-0.0995615 38:0.543604 39:-0.354712 40:-0.0928554 
11.8146091675 1:0.219898 2:-0.699504 3:-0.580852 4:-0.904361 5:-0.687043 6:-0.634806 7:-0.928606 8:0.965917 9:0.685414 10:-0.124971 11:0.91648 12:0.0621231 13:-0.62902 14:-0.741049 15:-0.736757 16:-0.746857 17:-0.653097 18:-0.817916 19:-0.560677 20:-0.567787 21:-0.812265 22:-0.397447 23:0.298927 24:-0.337165 25:0.324611 26:-0.68237 27:-0.192124 28:-0.358854 29:-0.718433 30:-0.529181 31:-0.545075 32:0.0915844 33:-0.771701 34:0.625669 35:0.547859 36:-0.641098 37:0.644226 38:-0.530184 39:0.478001 40:-0.675035 
2.55130036650892 1:0.571198 2:-0.772481 3:-0.666481 4:-0.608122 5:-0.801163 6:-0.665963 7:-0.649825 8:0.164627 9:0.769742 10:0.382739 11:-0.650703 12:0.307823 13:-0.00125122 14:-0.636255 15:-0.705833 16:-0.659168 17:-0.860889 18:-0.853621 19:-0.836122 20:-0.803985 21:-0.851653 22:-0.781823 23:0.231396 24:0.302665 25:-0.232413 26:-0.248894 27:-0.478574 28:-0.54883 29:-0.868213 30:-0.731494 31:-0.792398 32:0.121126 33:0.494594 34:-0.581796 35:0.709986 36:0.679424 37:-0.50519 38:0.903948 39:0.681324 40:-0.48663 
7.146488971064874 1:0.166995 2:-0.688632 3:-0.551752 4:-0.666071 5:-0.701231 6:-0.699209 7:-0.73266 8:0.487192 9:0.323119 10:0.405726 11:-0.0395128 12:-0.762312 13:-0.456632 14:-0.695218 15:-0.784206 16:-0.673307 17:-0.675907 18:-0.836466 19:-0.69234 20:-0.547111 21:-0.834998 22:-0.695731 23:0.411265 24:0.318727 25:-0.885173 26:-0.374549 27:-0.40764 28:0.597551 29:-0.742892 30:-0.578221 31:-0.647795 32:0.924618 33:0.775706 34:-0.901682 35:0.656022 36:0.565311 37:-0.77031 38:0.293169 39:0.497501 40:-0.201714 
1.677635121021087 1:-0.756145 2:-0.781896 3:-0.835414 4:-0.812563 5:-0.806314 6:-0.842724 7:-0.851087 8:-0.265368 9:-0.406053 10:-0.4857 11:-0.784276 12:-0.181997 13:0.00122118 14:-0.818782 15:-0.855671 16:-0.831961 17:-0.858059 18:-0.884445 19:-0.736676 20:-0.829689 21:-0.897616 22:-0.842736 23:0.199118 24:0.375819 25:-0.868919 26:-0.55964 27:-0.336739 28:0.650011 29:-0.837849 30:-0.801604 31:-0.827953 32:-0.687079 33:-0.681884 34:0.481599 35:-0.45836 36:-0.546873 37:0.83019 38:-0.619118 39:-0.645395 40:0.751674 
0.6806289384616632 1:0.691532 2:-0.814306 3:-0.84382 4:-0.8314 5:-0.886674 6:-0.849098 7:-0.857712 8:-0.294306 9:0.578462 10:0.680246 11:-0.7849 12:-0.157199 13:0.18545 14:-0.849359 15:-0.858197 16:-0.84567 17:-0.825758 18:-0.915478 19:-0.559642 20:-0.778259 21:-0.916078 22:-0.717045 23:-0.19167 24:0.418032 25:-0.261531 26:-0.273945 27:-0.58997 28:-0.837849 29:-0.71773 30:-0.872459 31:-0.756036 32:-0.0498352 33:-0.870121 34:0.819732 35:-0.805801 36:0.147293 37:-0.44877 38:-0.756619 39:-0.282424 40:-0.159148 
10.43527725750839 1:-0.57576 2:-0.676397 3:-0.288419 4:-0.0890045 5:-0.742658 6:-0.334838 7:-0.124344 8:-0.217776 9:-0.569153 10:-0.810485 11:-0.799099 12:0.143325 13:0.563922 14:-0.108056 15:-0.295572 16:-0.210301 17:-0.614136 18:-0.559608 19:-0.904076 20:-0.602968 21:-0.684275 22:-0.896164 23:0.242295 24:0.277023 25:0.195363 26:-0.889495 27:-0.867352 28:-0.951951 29:-0.571885 30:-0.579899 31:-0.490968 32:-0.20873 33:-0.173923 34:-0.225048 35:0.0214768 36:-0.0351505 37:0.0527156 38:-0.171199 39:-0.255118 40:-0.140859 
7.645674198586858 1:0.699729 2:-1 3:-0.88789 4:-0.993233 5:-1 6:-0.999687 7:-0.992426 8:-0.17654 9:0.587596 10:0.150269 11:-0.832547 12:-0.0337182 13:-0.898644 14:-0.971128 15:-1 16:-1 17:-0.785465 18:-0.982426 19:-0.464236 20:-0.960639 21:-0.9802 22:-0.969801 23:-0.263529 24:0.458422 25:-0.149677 26:-0.609136 27:-0.336032 28:-0.74424 29:-0.652996 30:-0.89297 31:-0.760709 32:0.273068 33:-0.730678 34:0.634914 35:-0.344371 36:0.862287 37:-0.527818 38:-0.27768 39:0.499747 40:-0.0846854 
4.60465954491462 1:0.327813 2:-0.743052 3:-0.704642 4:-0.682772 5:-0.778985 6:-0.690918 7:-0.801616 8:-0.124257 9:0.599703 10:0.0915746 11:-0.657863 12:-0.252733 13:-0.742644 14:-0.712211 15:-0.850688 16:-0.751358 17:-0.571262 18:-0.693155 19:-0.675558 20:-0.595609 21:-0.735629 22:-0.705117 23:0.365264 24:-0.453529 25:-0.292235 26:-0.554242 27:-0.274592 28:-0.778219 29:-0.654542 30:-0.681894 31:-0.614668 32:-0.903546 33:-0.801332 34:0.436346 35:-0.384482 36:-0.77743 37:-0.49533 38:-0.64962 39:-0.562196 40:-0.358478 
9.722411038065617 1:0.251013 2:-0.522137 3:-0.572875 4:-0.658918 5:-0.613046 6:-0.605848 7:-0.774993 8:0.309157 9:0.569432 10:0.290914 11:-0.428464 12:-0.265483 13:-0.695889 14:-0.573713 15:-0.700157 16:-0.633817 17:-0.700216 18:-0.808919 19:-0.681566 20:-0.641669 21:-0.822599 22:-0.850872 23:0.61554 24:0.692028 25:-0.0639137 26:-0.188795 27:-0.120931 28:-0.849714 29:-0.763416 30:-0.65896 31:-0.671279 32:0.416993 33:0.663575 34:-0.895939 35:0.864716 36:0.786205 37:-0.242406 38:0.811538 39:0.711541 40:-0.277665 
8.00444070594593 1:0.206043 2:-0.893824 3:-0.856404 4:-0.834924 5:-0.898777 6:-0.887196 7:-0.92475 8:0.244273 9:0.318897 10:-0.0726828 11:-0.422771 12:-0.683611 13:-0.88186 14:-0.867025 15:-0.927995 16:-0.906908 17:-0.897186 18:-0.937027 19:-0.931113 20:-0.870567 21:-0.938947 22:-0.932536 23:-0.368095 24:0.267544 25:-0.0852704 26:-0.233806 27:-0.7093 28:-0.870667 29:-0.929714 30:-0.92411 31:-0.90903 32:-0.692141 33:-0.275492 34:-0.0335744 35:-0.432449 36:0.0102957 37:-0.613445 38:-0.11445 39:0.342727 40:-0.811574 
0.3745659420417438 1:-0.672242 2:-0.935169 3:-0.862202 4:-0.748121 5:-0.949368 6:-0.885602 7:-0.79546 8:-0.203425 9:-0.337854 10:-0.382014 11:-0.930588 12:-0.36909 13:-0.113604 14:-0.778703 15:-0.879183 16:-0.847599 17:-0.940393 18:-0.933052 19:-0.930388 20:-0.928622 21:-0.935488 22:-0.955571 23:0.281878 24:0.353868 25:-0.370531 26:-0.612697 27:-0.545573 28:-0.64797 29:-0.948269 30:-0.935484 31:-0.932127 32:-0.692154 33:-0.376109 34:0.30729 35:-0.141674 36:-0.576456 37:0.500693 38:0.00852458 39:-0.278915 40:0.140137 
2.249043593223684 1:0.327326 2:-0.863903 3:-0.682275 4:-0.80548 5:-0.849875 6:-0.660706 7:-0.873153 8:0.482736 9:0.733981 10:0.221297 11:0.0240638 12:0.36798 13:-0.604931 14:-0.837065 15:-0.782838 16:-0.804168 17:-0.889277 18:-0.914711 19:-0.941265 20:-0.830361 21:-0.912166 22:-0.951476 23:-0.607022 24:0.0587648 25:-0.00346003 26:0.140953 27:-0.592299 28:-0.943924 29:-0.923036 30:-0.846168 31:-0.875683 32:-0.655472 33:-0.230065 34:-0.0799111 35:-0.670047 36:-0.538658 37:0.0447224 38:-0.392926 39:-0.110007 40:-0.449237 
2.519753794549161 1:-0.670618 2:-0.863202 3:-0.693142 4:-0.408265 5:-0.830802 6:-0.616073 7:-0.268144 8:-0.528955 9:-0.87979 10:-0.94802 11:-0.0817065 12:0.716426 13:0.87185 14:-0.432901 15:-0.370591 16:-0.371804 17:-0.787379 18:-0.905854 19:-0.925726 20:-0.710301 21:-0.907922 22:-0.930935 23:-0.509811 24:0.202622 25:-0.0169237 26:-0.333569 27:-0.45364 28:-0.397327 29:-0.837006 30:-0.818385 31:-0.810931 32:0.493565 33:0.233939 34:-0.609475 35:0.795279 36:0.205638 37:-0.709508 38:0.712743 39:0.2274 40:-0.774491 
11.8146091675 1:0.79054 2:-0.950575 3:-0.945058 4:-0.897538 5:-0.949867 6:-0.931537 7:-0.932042 8:-0.606486 9:0.580866 10:-0.139232 11:-0.0351876 12:-0.197913 13:-0.806881 14:-0.930735 15:-0.951863 16:-0.952741 17:-0.906344 18:-0.932285 19:-0.939089 20:-0.880221 21:-0.933282 22:-0.937224 23:-0.435295 24:0.0827363 25:-0.416506 26:-0.123151 27:-0.655632 28:-0.649128 29:-0.937445 30:-0.915719 31:-0.912516 32:0.581155 33:0.0688828 34:0.275759 35:-0.717386 36:-0.154074 37:0.069957 38:0.049021 39:-0.0670534 40:0.483551 
0.01182238918401828 1:0.133353 2:-0.866077 3:-0.840413 4:-0.677212 5:-0.837625 6:-0.884598 7:-0.75292 8:0.509172 9:0.116598 10:0.649162 11:0.0942111 12:-0.71259 13:0.0858785 14:-0.706553 15:-0.776087 16:-0.773927 17:-0.854729 18:-0.941769 19:-0.834671 20:-0.859452 21:-0.952121 22:-0.870498 23:0.221633 24:0.302767 25:-0.232073 26:-0.659289 27:-0.697979 28:-0.914429 29:-0.893868 30:-0.922059 31:-0.890401 32:-0.769486 33:-0.340482 34:-0.331234 35:0.374514 36:0.0316573 37:-0.379386 38:-0.380022 39:0.0210799 40:-0.680328 
5.605192262144829 1:0.283033 2:-0.714182 3:-0.680941 4:-0.805702 5:-0.755311 6:-0.748509 7:-0.842574 8:0.00373033 9:0.425394 10:-0.136156 11:-0.782851 12:-0.572518 13:-0.285676 14:-0.754897 15:-0.867441 16:-0.777286 17:-0.745754 18:-0.83521 19:-0.546693 20:-0.715408 21:-0.859365 22:-0.623875 23:0.189992 24:0.173139 25:-0.528607 26:-0.517405 27:-0.701535 28:-0.444373 29:-0.708944 30:-0.712661 31:-0.712176 32:0.290174 33:0.497172 34:-0.789394 35:0.366378 36:0.210701 37:-0.386669 38:0.238723 39:0.447894 40:-0.3979 
11.8146091675 1:-0.586169 2:-0.958652 3:-0.87215 4:-0.667011 5:-0.972058 6:-0.873403 7:-0.616238 8:-0.11021 9:-0.452113 10:-0.906101 11:-0.982835 12:-0.113332 13:0.778846 14:-0.696174 15:-0.746514 16:-0.705429 17:-0.886447 18:-0.971617 19:-0.953903 20:-0.843453 21:-0.965847 22:-0.956631 23:-0.479509 24:0.280806 25:-0.0847206 26:-0.356387 27:-0.370718 28:-0.894384 29:-0.920647 30:-0.941264 31:-0.911335 32:0.240899 33:0.0775849 34:0.158981 35:0.863104 36:0.0861697 37:-0.0921041 38:0.693162 39:0.133049 40:-0.126666 
0.7039861525357936 1:-0.568807 2:-0.414361 3:-0.120757 4:-0.227888 5:-0.488954 6:0.263042 7:-0.27644 8:-0.280593 9:-0.941525 10:-0.372411 11:-0.601659 12:0.865957 13:-0.0437766 14:-0.249369 15:-0.139742 16:-0.0902137 17:-0.874043 18:-0.487988 19:-0.704563 20:-0.855453 21:-0.57788 22:-0.724752 23:0.292056 24:0.454942 25:0.0731527 26:-0.662118 27:-0.57994 28:-0.917949 29:-0.499701 30:-0.629498 31:-0.564566 32:-0.317724 33:-0.5457 34:-0.24051 35:-0.390655 36:-0.655808 37:-0.297413 38:0.284482 39:-0.138117 40:0.00928974 
6.631489743500447 1:0.395855 2:-0.840937 3:-0.842847 4:-0.58741 5:-0.845843 6:-0.772808 7:-0.551075 8:-0.279122 9:0.925381 10:-0.761754 11:-0.79353 12:0.711224 13:0.484868 14:-0.61518 15:-0.66491 16:-0.624313 17:-0.825092 18:-0.792322 19:-0.891646 20:-0.698482 21:-0.784113 22:-0.885344 23:-0.805023 24:0.131472 25:-0.283145 26:0.502697 27:-0.426835 28:-0.316799 29:-0.806431 30:-0.787246 31:-0.722718 32:-0.368392 33:-0.318309 34:0.476161 35:-0.834904 36:0.181236 37:0.0176133 38:0.711676 39:-0.281168 40:0.140983 
6.702218293560344 1:0.0757384 2:-0.663058 3:-0.858884 4:-0.680068 5:-0.646116 6:-0.897269 7:-0.664501 8:0.478656 9:0.346172 10:-0.171915 11:-0.0711221 12:-0.618383 13:-0.0636425 14:-0.706664 15:-0.721957 16:-0.657269 17:-0.825175 18:-0.764357 19:-0.822137 20:-0.732981 21:-0.79969 22:-0.76741 23:0.7412 24:0.455556 25:-0.207441 26:0.509874 27:-0.43461 28:-0.502715 29:-0.778246 30:-0.624464 31:-0.734095 32:0.918832 33:0.70118 34:-0.55724 35:0.318877 36:0.191814 37:-0.0970346 38:0.617476 39:0.118807 40:-0.019629 
4.562072562184584 1:-0.848227 2:-0.539944 3:-0.608692 4:0.176281 5:-0.583965 6:-0.689402 7:0.0723935 8:0.0260091 9:-0.0210065 10:-0.233566 11:-0.632545 12:-0.62625 13:-0.0573518 14:0.16187 15:-0.342231 16:-0.0754779 17:-0.249833 18:-0.740158 19:-0.651525 20:0.0358054 21:-0.764309 22:-0.60831 23:-0.380166 24:0.291255 25:-0.250823 26:-0.101411 27:-0.610049 28:-0.743421 29:-0.383166 30:-0.426254 31:-0.324846 32:0.383684 33:-0.246895 34:-0.109381 35:0.573248 36:0.269306 37:-0.440126 38:0.586225 39:-0.1364 40:-0.224019 
4.828477253724014 1:-0.0578771 2:-0.657961 3:-0.650406 4:-0.646234 5:-0.61986 6:-0.78023 7:-0.711252 8:0.598972 9:-0.167854 10:0.681266 11:0.164737 12:-0.665332 13:0.14129 14:-0.675034 15:-0.687384 16:-0.663408 17:-0.26332 18:-0.495589 19:-0.181851 20:-0.07798 21:-0.748942 22:-0.642172 23:-0.389541 24:0.368393 25:-0.260032 26:-0.305204 27:-0.660429 28:-0.584598 29:-0.394553 30:-0.297968 31:-0.241152 32:-0.683604 33:-0.304067 34:0.13049 35:0.00502051 36:-0.407901 37:0.165222 38:-0.820944 39:-0.393927 40:-0.10297 
6.511529948511716 1:0.407525 2:-0.876174 3:-0.865109 4:-0.716086 5:-0.879532 6:-0.882426 7:-0.814533 8:0.190151 9:0.634485 10:0.187732 11:-0.629543 12:0.222415 13:-0.786242 14:-0.746108 15:-0.900245 16:-0.834672 17:-0.822344 18:-0.898323 19:-0.963019 20:-0.796504 21:-0.904031 22:-0.943329 23:0.175763 24:-0.0209694 25:-0.456277 26:-0.510017 27:-0.548609 28:-0.3982 29:-0.866526 30:-0.837591 31:-0.859011 32:0.361607 33:0.188339 34:-0.707396 35:0.507395 36:0.530412 37:-0.333256 38:0.649262 39:0.430608 40:-0.859985 
11.8146091675 1:0.28498 2:-0.930765 3:-0.917969 4:-0.806306 5:-0.929208 6:-0.920231 7:-0.833857 8:0.269275 9:0.432538 10:0.325555 11:-0.64565 12:-0.0444083 13:-0.360041 14:-0.837906 15:-0.902889 16:-0.871272 17:-0.989843 18:-1 19:-0.975656 20:-1 21:-1 22:-0.995389 23:-0.245206 24:0.0436214 25:0.03929 26:-0.723969 27:-0.862745 28:-0.678424 29:-1 30:-1 31:-1 32:-0.573158 33:0.245883 34:0.388326 35:-0.316401 36:0.194563 37:0.240091 38:-0.488236 39:0.105329 40:0.161478 
7.754966219684912 1:0.847489 2:-0.899439 3:-0.851653 4:-0.915083 5:-0.908261 6:-0.861588 7:-0.947583 8:-0.446794 9:0.429547 10:-0.00417196 11:-0.507353 12:-0.649827 13:-0.754931 14:-0.929678 15:-0.942248 16:-0.917911 17:-0.646936 18:-0.858433 19:-0.64127 20:-0.589094 21:-0.877958 22:-0.67572 23:-0.098849 24:0.326397 25:-0.116608 26:-0.657377 27:-0.613554 28:-0.927143 29:-0.718433 30:-0.770464 31:-0.692609 32:0.629156 33:-0.156096 34:0.559823 35:-0.587468 36:0.0676706 37:-0.514461 38:0.408515 39:0.16869 40:-0.138273 
3.731562043044358 1:-0.577041 2:-0.734998 3:-0.645015 4:-0.769391 5:-0.81118 6:-0.686037 7:-0.778184 8:0.188808 9:-0.623154 10:-0.527984 11:-0.848601 12:0.137915 13:0.147188 14:-0.774536 15:-0.790583 16:-0.755563 17:-0.800699 18:-0.781373 19:-0.613819 20:-0.782846 21:-0.83597 22:-0.657623 23:-0.228076 24:0.172542 25:-0.18759 26:-0.463294 27:-0.662484 28:-0.837325 29:-0.75449 30:-0.795077 31:-0.723293 32:0.389329 33:0.191712 34:-0.366876 35:0.734628 36:0.578288 37:-0.0630379 38:0.69283 39:0.291555 40:-0.162624 
11.8146091675 1:0.247363 2:-0.857145 3:-0.882734 4:-0.704955 5:-0.872215 6:-0.905505 7:-0.821385 8:-0.0889898 9:0.435398 10:0.18252 11:-0.741112 12:-0.398158 13:-0.750042 14:-0.734782 15:-0.893684 16:-0.847617 17:-0.772644 18:-0.948115 19:-0.791682 20:-0.756735 21:-0.954709 22:-0.789464 23:0.016368 24:0.130964 25:-0.308568 26:-0.759154 27:-0.718029 28:-0.621228 29:-0.824565 30:-0.828268 31:-0.82744 32:0.571671 33:0.63261 34:-0.503209 35:0.793351 36:0.485908 37:-0.568051 38:0.474801 39:0.180962 40:-0.358445 
0.7068707816551041 1:-0.569396 2:-0.721149 3:-0.608346 4:-0.41742 5:-0.792158 6:-0.462207 7:-0.439836 8:-0.0380191 9:-0.933739 10:-0.746441 11:-0.610025 12:0.843082 13:0.433601 14:-0.442217 15:-0.481329 16:-0.46788 17:-0.834249 18:-0.946232 19:-0.85425 20:-0.778864 21:-0.940506 22:-0.838033 23:0.487008 24:0.172283 25:-0.310366 26:-0.238008 27:-0.549293 28:-0.480075 29:-0.876577 30:-0.796383 31:-0.847301 32:-0.402467 33:-0.336149 34:0.366286 35:-0.833973 36:-0.686768 37:0.759089 38:-0.638663 39:-0.493189 40:0.61014 
2.140124750537363 1:-0.671046 2:-0.682863 3:-0.310515 4:-0.221406 5:-0.684947 6:-0.338032 7:0.00053614 8:-0.460531 9:-0.786043 10:-0.950553 11:-0.199924 12:0.483618 13:0.882909 14:-0.242773 15:-0.0707913 16:-0.0958256 17:-0.622794 18:-0.743854 19:-0.613094 20:-0.559883 21:-0.814539 22:-0.708603 23:-0.122125 24:0.397669 25:-0.201673 26:-0.43802 27:-0.544523 28:-0.903513 29:-0.69805 30:-0.711542 31:-0.637708 32:0.67749 33:0.247212 34:-0.109722 35:0.678837 36:0.329408 37:0.253807 38:0.681268 39:0.217465 40:0.136592 
8.171913154939878 1:-0.613145 2:-0.684156 3:0.0848407 4:-0.181581 5:-0.690974 6:0.161173 7:0.0896335 8:-0.595373 9:-0.871966 10:-0.978754 11:0.0384738 12:0.69344 13:0.946819 14:-0.202252 15:0.173799 16:0.0864093 17:-0.621129 18:-0.744412 19:-0.575076 20:-0.528475 21:-0.788198 22:-0.630758 23:-0.350995 24:0.23152 25:-0.172606 26:-0.298462 27:-0.720216 28:-0.964174 29:-0.696644 30:-0.710423 31:-0.614929 32:0.523393 33:-0.318559 34:-0.174221 35:0.849102 36:-0.0904105 37:-0.281929 38:0.739898 39:-0.278143 40:-0.224463 
0.1441835444523643 1:-0.25796 2:-0.52832 3:-0.334126 4:-0.0486633 5:-0.647856 6:-0.617919 7:-0.34703 8:0.0571534 9:-0.277774 10:-0.00942037 11:-0.899054 12:-0.47843 13:-0.667908 14:-0.067009 15:-0.682184 16:-0.388015 17:-0.0281385 18:-0.479549 19:-0.600456 20:0.188493 21:-0.645533 22:-0.67821 23:0.50537 24:0.554967 25:-0.0785972 26:-0.21754 27:-0.10147 28:-0.800102 29:-0.195994 30:-0.188141 31:-0.170054 32:0.555089 33:0.568845 34:-0.42085 35:-0.671747 36:-0.793351 37:-0.100891 38:0.947865 39:0.812881 40:0.118856 
1.679834570675961 1:0.549932 2:-0.651131 3:-0.299486 4:-0.117636 5:-0.730513 6:-0.482477 7:-0.261079 8:0.473862 9:0.589621 10:-0.551687 11:-0.351057 12:-0.139453 13:0.0268257 14:-0.137189 15:-0.454242 16:-0.319042 17:0.0502831 18:-0.287562 19:-0.538095 20:0.135545 21:-0.585026 22:-0.520247 23:-0.162473 24:-0.0638918 25:-0.272133 26:-0.105636 27:-0.491417 28:-0.766644 29:-0.129784 30:0.00969604 31:-0.043221 32:-0.108138 33:-0.489436 34:-0.368218 35:-0.424791 36:-0.205591 37:-0.406136 38:0.729264 39:0.432835 40:-0.210825 
2.173100656729936 1:-0.0239818 2:-0.444635 3:-0.448458 4:-0.412946 5:-0.529605 6:-0.625 7:-0.586334 8:0.209441 9:0.230872 10:-0.138231 11:-0.489395 12:-0.945036 13:-0.416499 14:-0.437665 15:-0.701885 16:-0.510504 17:-0.28688 18:-0.468182 19:-0.262858 20:-0.266149 21:-0.633835 22:-0.453358 23:0.322937 24:0.173373 25:-0.34149 26:-0.557434 27:-0.862745 28:-0.771273 29:-0.414444 30:-0.508857 31:-0.336921 32:0.656062 33:0.530734 34:-0.643891 35:-0.243199 36:0.0490304 37:-0.511431 38:0.902752 39:0.700018 40:-0.361369 
5.105923893529166 1:-0.430882 2:-0.608034 3:0.358688 4:0.088853 5:-0.650744 6:0.743112 7:0.148112 8:0.374943 9:-0.929764 10:-0.548362 11:-0.451077 12:0.812146 13:0.256684 14:0.072913 15:0.317874 16:0.294909 17:-0.32376 18:-0.629276 19:-0.790542 20:-0.373058 21:-0.808076 22:-0.840604 23:-0.0624442 24:-0.00201293 25:0.0744198 26:-0.977468 27:-0.87884 28:-0.948057 29:-0.445581 30:-0.593138 31:-0.469655 32:-0.437633 33:-0.414123 34:0.500926 35:0.308458 36:0.495454 37:-0.412597 38:0.118123 39:0.263295 40:-0.187084 
1.920934304790216 1:-0.0253641 2:-0.539633 3:-0.558416 4:-0.486676 5:-0.444827 6:-0.679672 7:-0.643608 8:0.877294 9:0.327124 10:0.175932 11:0.688698 12:-0.751399 13:-0.4515 14:-0.512684 15:-0.600992 16:-0.517229 17:-0.38295 18:-0.671397 19:-0.425183 20:-0.351088 21:-0.801438 22:-0.553224 23:-0.017382 24:0.00435393 25:-0.334038 26:-0.463145 27:-0.890873 28:-0.645163 29:-0.495554 30:-0.495245 31:-0.446614 32:-0.614013 33:-0.438441 34:-0.326812 35:0.537694 36:0.343468 37:-0.544873 38:-0.416715 39:-0.541682 40:-0.502852 
5.275359495552026 1:0.146474 2:-0.673547 3:-0.719129 4:-0.818732 5:-0.745018 6:-0.771054 7:-0.885299 8:-0.00594194 9:0.507212 10:0.0908857 11:-0.750396 12:-0.347776 13:-0.780514 14:-0.71656 15:-0.905546 16:-0.792684 17:-0.700133 18:-0.641271 19:-0.3997 20:-0.694869 21:-0.719928 22:-0.391103 23:-0.115635 24:0.227738 25:-0.173617 26:-0.825672 27:-0.773751 28:-0.82125 29:-0.609208 30:-0.67686 31:-0.5548 32:0.652417 33:0.210102 34:0.470168 35:0.367198 36:0.667661 37:-0.419283 38:-0.314385 39:0.310947 40:-0.885291 
3.741219348687192 1:0.731588 2:-0.503437 3:-0.566428 4:-0.671159 5:-0.603718 6:-0.639915 7:-0.780078 8:-0.0444451 9:0.422509 10:0.339487 11:-0.857588 12:-0.518413 13:-0.408109 14:-0.556069 15:-0.747724 16:-0.66063 17:-0.726357 18:-0.735346 19:-0.47387 20:-0.758722 21:-0.784891 22:-0.38414 23:0.0866765 24:-0.214242 25:-0.320085 26:-0.563803 27:-0.655888 28:-0.508163 29:-0.659533 30:-0.639194 31:-0.593776 32:-0.587337 33:0.643146 34:-0.888715 35:0.695932 36:-0.811514 37:0.632109 38:0.638565 39:-0.741422 40:0.769802 
2.0427781256042 1:-0.979988 2:0.913504 3:-0.717819 4:-0.278843 5:0.802586 6:-0.810049 7:-0.494278 8:-0.461434 9:-0.0347282 10:0.290114 11:-0.254754 12:-0.792672 13:-0.437884 14:0.780744 15:-0.283614 16:0.206485 17:0.135698 18:-0.613445 19:-0.709535 20:-0.389527 21:-0.748923 22:-0.556023 23:-0.00982929 24:-0.520985 25:-0.655155 26:-0.91772 27:-0.185607 28:0.306907 29:-0.05767 30:-0.165765 31:-0.202642 32:0.613555 33:0.909153 34:0.900837 35:0.397015 36:0.487164 37:0.405311 38:-0.131276 39:-0.610342 40:-0.167302 
1.307673414679037 1:-0.106051 2:-0.450338 3:-0.521617 4:-0.744705 5:-0.509105 6:-0.872843 7:-0.829614 8:0.256682 9:-0.24491 10:-0.398953 11:-0.533607 12:-0.363425 13:-0.354992 14:-0.505974 15:-0.768053 16:-0.626246 17:-0.211289 18:-0.123958 19:-0.895996 20:-0.156917 21:-0.334373 22:-0.90274 23:-0.229721 24:-0.148508 25:0.0318702 26:-0.848016 27:-0.898317 28:-0.943069 29:-0.132806 30:-0.232706 31:-0.0850851 32:-0.567612 33:-0.515805 34:0.381114 35:0.233156 36:0.187165 37:-0.282053 38:0.50674 39:0.539253 40:-0.389441 
1.2922914589892 1:0.227921 2:-0.205131 3:-0.228363 4:-0.540791 5:-0.15864 6:-0.110474 7:-0.714321 8:0.653808 9:0.928624 10:-0.163464 11:-0.0127799 12:0.748627 13:-0.903097 14:-0.274632 15:-0.309371 16:-0.282047 17:-0.232018 18:-0.356254 19:-0.668618 20:-0.38822 21:-0.618528 22:-0.767278 23:0.0505045 24:0.0412941 25:-0.0769097 26:-1 27:-0.992791 28:-0.987377 29:-0.36693 30:-0.509789 31:-0.263163 32:-0.433069 33:-0.486994 34:0.452157 35:-0.0491805 36:-0.118994 37:0.0936205 38:0.835436 39:0.862293 40:-0.788728 
0.8030749225080203 1:-0.975812 2:0.276336 3:-0.396248 4:0.184271 5:0.407425 6:-0.629751 7:0.0150821 8:-0.293357 9:-0.255324 10:0.217439 11:-0.46718 12:-0.79404 13:-0.271268 14:0.179608 15:-0.203709 16:0.23858 17:0.0155678 18:-0.347955 19:-0.69524 20:-0.555691 21:-0.693472 22:-0.794057 23:-0.0577005 24:-0.0796693 25:0.228422 26:-0.775534 27:-0.867271 28:-0.738105 29:-0.159093 30:-0.512773 31:-0.215037 32:0.522852 33:0.198612 34:-0.328213 35:0.19056 36:-0.213134 37:0.0980471 38:0.184835 39:0.115587 40:0.0521737 
1.6549230284773 1:0.574182 2:-0.127703 3:-0.471102 4:-0.398635 5:-0.377935 6:-0.386091 7:-0.293992 8:-0.0250041 9:0.954877 10:-0.927032 11:-0.88724 12:0.78597 13:0.816437 14:-0.201583 15:-0.342287 16:-0.232888 17:-0.523726 18:-0.760312 19:-0.117108 20:-0.362746 21:-0.783315 22:0.130011 23:-0.542756 24:0.566645 25:0.290522 26:0.0937305 27:-0.219701 28:-0.539111 29:-0.417466 30:-0.0839083 31:-0.297051 32:0.624937 33:-0.0401226 34:0.119467 35:-0.871436 36:0.78036 37:0.650843 38:0.792705 39:-0.860442 40:-0.606499 
6.420187923886916 1:0.0404646 2:-0.235516 3:-0.647531 4:-0.519415 5:-0.234312 6:-0.723122 7:-0.649355 8:0.17631 9:-0.288008 10:-0.0264534 11:-0.625211 12:-0.430639 13:-0.548425 14:-0.303299 15:-0.657206 16:-0.433573 17:-0.304779 18:-0.627672 19:-0.810431 20:-0.733617 21:-0.845319 22:-0.836704 23:-0.575322 24:0.166293 25:0.673899 26:-0.28278 27:-0.882485 28:0.139896 29:-0.429555 30:-0.61253 31:-0.513652 32:-0.944246 33:-0.328514 34:0.761751 35:0.467248 36:0.109825 37:-0.0309862 38:-0.196619 39:-0.58537 40:0.533227 
11.8146091675 1:0.321494 2:-0.397876 3:-0.400784 4:-0.582572 5:-0.50597 6:-0.441198 7:-0.671402 8:0.191323 9:0.706356 10:-0.467267 11:-0.862873 12:0.292025 13:-0.484728 14:-0.456478 15:-0.593972 16:-0.513803 17:-0.893273 18:-0.468531 19:-0.565443 20:-0.872511 21:-0.457858 22:-0.424428 23:-0.063869 24:-0.275957 25:0.0747965 26:-0.691081 27:-0.472028 28:-0.445347 29:-0.480091 30:-0.374231 31:-0.399024 32:0.0139421 33:-0.44419 34:-0.0181812 35:0.457763 36:-0.649558 37:0.791442 38:-0.120336 39:0.317052 40:-0.110895 
6.117396767721492 1:0.880003 2:-0.584637 3:-0.783885 4:-0.537953 5:-0.577282 6:-0.801426 7:-0.563154 8:-0.477402 9:0.544935 10:-0.262051 11:-0.36018 12:-0.296368 13:-0.167841 14:-0.564858 15:-0.596305 16:-0.555068 17:-0.904512 18:-0.67858 19:-0.78298 20:-0.888321 21:-0.676424 22:-0.738476 23:0.262394 24:-0.714024 25:0.168009 26:-0.837443 27:0.394916 28:-0.483943 29:-0.691794 30:-0.623718 31:-0.657067 32:0.156836 33:0.941803 34:-0.690643 35:0.222462 36:-0.543712 37:0.352761 38:0.278328 39:0.636458 40:-0.652403 
1.766220934403232 1:0.681673 2:-0.477631 3:-0.57967 4:-0.578831 5:-0.577863 6:-0.637695 7:-0.64431 8:0.0590549 9:0.378054 10:0.379568 11:-0.846677 12:-0.241808 13:-0.273504 14:-0.531723 15:-0.693378 16:-0.581241 17:-0.874043 18:-0.482827 19:-0.48081 20:-0.840245 21:-0.499506 22:-0.324112 23:0.357464 24:-0.355606 25:0.288882 26:-0.50973 27:-0.558431 28:-0.470505 29:-0.4945 30:-0.301883 31:-0.389822 32:-0.386606 33:0.200117 34:-0.607585 35:0.742686 36:-0.570836 37:0.838736 38:0.833798 39:-0.772618 40:0.932901 
0.1686134346803432 1:-0.991406 2:0.252064 3:-0.485083 4:-0.323695 5:0.345859 6:-0.561624 7:-0.562093 8:-0.658604 9:0.347968 10:-0.0201589 11:0.214103 12:-0.251773 13:-0.7962 14:0.156708 15:-0.359495 16:-0.0561347 17:-0.690643 18:-0.336657 19:-0.308023 20:-0.62705 21:-0.379213 22:-0.112496 23:0.150321 24:-0.308388 25:-0.0195554 26:-0.559666 27:-0.512346 28:-0.574566 29:-0.34718 30:-0.155696 31:-0.224167 32:-0.806129 33:0.859946 34:-0.886393 35:0.505693 36:-0.55276 37:0.489002 38:0.0790118 39:-0.277936 40:0.184456 
8.846357460600098 1:0.225627 2:-0.108946 3:-0.48252 4:-0.471557 5:-0.342414 6:-0.523254 7:-0.63138 8:0.254608 9:0.643066 10:-0.297233 11:-0.790263 12:0.16613 13:-0.52122 14:-0.183887 15:-0.637379 16:-0.4497 17:-0.897602 18:-0.61219 19:-0.586678 20:-0.869635 21:-0.588103 22:-0.49149 23:-0.204365 24:0.654329 25:-0.198532 26:-0.713585 27:-0.155953 28:-0.540822 29:-0.624881 30:-0.381316 31:-0.478688 32:-0.123115 33:0.456114 34:-0.221206 35:-0.545812 36:0.739274 37:-0.619314 38:-0.300623 39:0.339818 40:-0.491124 
7.836584795991562 1:0.233474 2:-0.294831 3:-0.581794 4:-0.644463 5:-0.464354 6:-0.638054 7:-0.704688 8:0.1906 9:0.630472 10:-0.320978 11:-0.894739 12:0.108175 13:-0.541466 14:-0.35926 15:-0.74304 16:-0.553248 17:-0.903513 18:-0.549984 19:-0.700316 20:-0.885914 21:-0.466432 22:-0.553824 23:-0.08915 24:0.615842 25:-0.472508 26:-0.615501 27:-0.250321 28:-0.398262 29:-0.562186 30:-0.375536 31:-0.419585 32:0.0587918 33:0.533017 34:-0.497015 35:-0.0901329 36:0.716643 37:-0.662797 38:-0.0742764 39:-0.0255155 40:-0.0102529 
7.264391161742546 1:-0.946619 2:-0.299441 3:-0.588328 4:-0.537871 5:-0.394188 6:-0.550737 7:-0.69084 8:-0.209534 9:0.854878 10:0.0768995 11:-0.490665 12:0.57758 13:-0.444953 14:-0.36361 15:-0.610277 16:-0.494442 17:-0.772394 18:-0.729279 19:-0.640234 20:-0.706541 21:-0.744003 22:-0.571192 23:0.297046 24:0.00927093 25:-0.191785 26:-0.400328 27:-0.627982 28:-0.666902 29:-0.742892 30:-0.687675 31:-0.636802 32:0.00135627 33:0.59925 34:-0.685144 35:0.680272 36:-0.320559 37:0.277997 38:0.885639 39:-0.520644 40:0.389031 
11.52537342769575 1:-0.96041 2:-0.566456 3:-0.872215 4:-0.716898 5:-0.54691 6:-0.869105 7:-0.739331 8:-0.544591 9:0.355698 10:-0.635245 11:-0.0202574 12:-0.269756 13:0.201453 14:-0.615525 15:-0.676228 16:-0.654432 17:-0.885115 18:-0.816242 19:-0.668618 20:-0.858479 21:-0.82026 22:-0.570876 23:0.119261 24:0.0512957 25:-0.0900622 26:-0.57794 27:-0.657765 28:-0.589102 29:-0.791671 30:-0.728883 31:-0.720674 32:0.840439 33:-0.662488 34:-0.305806 35:-0.115808 36:-0.692357 37:0.0897611 38:0.485934 39:-0.812319 40:-0.185174 
2.298713658955523 1:-0.133206 2:-0.696384 3:-0.780089 4:-0.791842 5:-0.681718 6:-0.826071 7:-0.825593 8:0.278033 9:-0.50192 10:-0.30794 11:-0.23804 12:-0.0348381 13:-0.53487 14:-0.738105 15:-0.798492 16:-0.757642 17:-0.930486 18:-0.833258 19:-0.773554 20:-0.894104 21:-0.78642 22:-0.693146 23:-0.69202 24:0.760295 25:-0.739809 26:0.228693 27:0.130426 28:0.343012 29:-0.847689 30:-0.580086 31:-0.740273 32:-0.657453 33:0.612041 34:-0.875226 35:0.673571 36:-0.551457 37:0.812768 38:0.6679 39:-0.864761 40:0.821821 
5.015592164580594 1:-0.963135 2:-0.272557 3:-0.74239 4:-0.583341 5:-0.0411376 6:-0.787667 7:-0.607828 8:-0.837816 9:-0.0231319 10:-0.698927 11:0.600003 12:-0.457826 13:0.307055 14:-0.338246 15:-0.320252 16:-0.306184 17:-0.845072 18:-0.74225 19:-0.711504 20:-0.821204 21:-0.752309 22:-0.631723 23:0.162197 24:0.00477283 25:-0.220552 26:-0.660607 27:-0.558149 28:-0.524916 29:-0.755966 30:-0.715458 31:-0.688957 32:-0.464284 33:0.791822 34:-0.677647 35:-0.386241 36:0.0155093 37:0.0903393 38:-0.338916 39:0.32459 40:-0.429434 
11.8146091675 1:-0.108665 2:-0.77081 3:-0.87058 4:-0.800219 5:-0.759306 6:-0.892434 7:-0.825626 8:0.410411 9:-0.377794 10:-0.520706 11:-0.167781 12:-0.338294 13:-0.358827 14:-0.808323 15:-0.834382 16:-0.803811 17:-0.845821 18:-0.605914 19:-0.61848 20:-0.815443 21:-0.596952 22:-0.536773 23:0.280356 24:0.0401042 25:-0.174991 26:-0.680164 27:-0.530773 28:-0.654359 29:-0.618556 30:-0.569271 31:-0.540461 32:0.241951 33:-0.681033 34:0.774935 35:-0.272194 36:0.469901 37:-0.526927 38:-0.740063 39:0.618443 40:-0.414967 
0.5609349667143493 1:0.96083 2:-0.497888 3:-0.82152 4:-0.753646 5:-0.529386 6:-0.880481 7:-0.791825 8:-0.313813 9:0.0623149 10:-0.464385 11:-0.423857 12:-0.898074 13:-0.481901 14:-0.550835 15:-0.74327 16:-0.666316 17:-0.90676 18:-0.71582 19:-0.634226 20:-0.859329 21:-0.716304 22:-0.559541 23:0.554428 24:0.0796152 25:-0.260664 26:-0.0434531 27:-0.53549 28:-0.670003 29:-0.729327 30:-0.684132 31:-0.647481 32:-0.536279 33:0.541339 34:-0.702381 35:0.431592 36:-0.316107 37:0.560587 38:-0.567157 39:0.0848556 40:0.295623 
5.253226921977044 1:0.792723 2:-0.753695 3:-0.703932 4:-0.854806 5:-0.744596 6:-0.745624 7:-0.907444 8:-0.549976 9:0.612189 10:0.153816 11:-0.054759 12:-0.0693338 13:-0.607099 14:-0.792176 15:-0.780832 16:-0.79365 17:-0.878788 18:-0.850204 19:-0.884498 20:-0.88097 21:-0.862288 22:-0.932971 23:-0.139415 24:-0.445913 25:-0.182304 26:-0.825002 27:-0.285551 28:-0.899954 29:-0.864769 30:-0.848779 31:-0.840387 32:-0.247103 33:0.624594 34:-0.366994 35:0.38664 36:-0.571634 37:0.170222 38:0.410076 39:-0.0964881 40:0.103147 
5.68657010476305 1:0.976047 2:-0.687977 3:-0.829187 4:-0.855217 5:-0.668698 6:-0.887314 7:-0.914033 8:-0.717995 9:0.307765 10:0.151308 11:0.311941 12:-0.588982 13:-0.692277 14:-0.730174 15:-0.854029 16:-0.78958 17:-0.725191 18:-0.855922 19:-0.623556 20:-0.729218 21:-0.895318 22:-0.604434 23:0.126576 24:0.308799 25:-0.946623 26:-0.863892 27:-0.588101 28:0.863374 29:-0.761096 30:-0.692523 31:-0.723491 32:-0.319934 33:-0.579745 34:0.891496 35:0.136963 36:0.148137 37:-0.190696 38:0.0840263 39:-0.215681 40:-0.225002 
1.458107695466728 1:-0.113215 2:-0.562304 3:-0.820189 4:-0.848227 5:-0.621197 6:-0.855981 7:-0.890075 8:-0.12197 9:-0.440887 10:0.291231 11:-0.484501 12:-0.171197 13:-0.339089 14:-0.611608 15:-0.817629 16:-0.749879 17:-0.812937 18:-0.891907 19:-0.904387 20:-0.811231 21:-0.917353 22:-0.930308 23:0.62768 24:0.681782 25:0.100566 26:-0.123255 27:0.147411 28:-0.885848 29:-0.858584 30:-0.82603 31:-0.855062 32:0.174216 33:0.383965 34:0.019128 35:-0.543706 36:-0.763765 37:-0.342487 38:0.716602 39:0.59799 40:0.493248 
0.601268575937379 1:0.987362 2:-0.228571 3:-0.713294 4:-0.608043 5:0.242995 6:-0.731676 7:-0.614726 8:-0.966041 9:0.707119 10:0.745331 11:0.898729 12:0.190916 13:0.407754 14:-0.296747 15:-0.196985 16:-0.133336 17:-0.723277 18:-0.660867 19:-0.635987 20:-0.816208 21:-0.704345 22:-0.588468 23:0.0430901 24:-0.0866443 25:-0.224797 26:-0.767905 27:-0.667338 28:-0.793211 29:-0.673941 30:-0.696811 31:-0.613064 32:-0.604663 33:0.696933 34:-0.515299 35:0.505653 36:-0.687665 37:0.05558 38:0.711622 39:-0.614213 40:0.327737 
10.1864095136642 1:-0.963764 2:-0.603866 3:-0.690732 4:-0.700201 5:-0.626304 6:-0.773736 7:-0.814456 8:-0.386452 9:0.624279 10:0.201196 11:-0.397088 12:0.114464 13:-0.575436 14:-0.65082 15:-0.778335 16:-0.701163 17:-0.811022 18:-0.757802 19:-0.555602 20:-0.860299 21:-0.792335 22:-0.615713 23:-0.127186 24:0.532398 25:-0.673308 26:-0.875609 27:-0.387288 28:0.0124606 29:-0.714989 30:-0.641059 31:-0.688938 32:0.335983 33:-0.664761 34:0.774151 35:-0.226687 36:0.162501 37:-0.166749 38:-0.099364 39:0.633692 40:-0.750662 
3.452940995548466 1:0.880845 2:-0.316901 3:-0.579374 4:-0.495368 5:-0.227342 6:-0.62015 7:-0.626078 8:-0.716921 9:0.727802 10:-0.176684 11:0.358912 12:0.265726 13:-0.497331 14:-0.380083 15:-0.468913 16:-0.40688 17:-0.705378 18:-0.78751 19:-0.709225 20:-0.653266 21:-0.765701 22:-0.618019 23:0.251079 24:-0.496047 25:0.825756 26:-0.550114 27:0.0643911 28:0.594168 29:-0.767774 30:-0.541302 31:-0.632929 32:-0.153056 33:0.937065 34:-0.872475 35:0.199199 36:-0.824698 37:0.805372 38:0.561091 39:-0.654381 40:0.316747 
2.449638869123827 1:0.947692 2:-0.204972 3:-0.715378 4:-0.660832 5:-0.05339 6:-0.79332 7:-0.721072 8:-0.741787 9:0.480984 10:-0.578699 11:0.224654 12:-0.289039 13:-0.0789288 14:-0.274483 15:-0.398657 16:-0.340996 17:-0.8002 18:-0.897277 19:-0.688921 20:-0.852719 21:-0.978535 22:-0.877744 23:-0.448827 24:-0.0615752 25:-0.201051 26:-0.451074 27:-0.89215 28:-0.785694 29:-0.805447 30:-0.863323 31:-0.7984 32:0.885804 33:-0.0873785 34:0.0844797 35:-0.942438 36:-0.0180041 37:-0.135252 38:0.475147 39:-0.50575 40:0.239749 
5.230957419002741 1:-0.0703441 2:-0.769778 3:-0.924372 4:-0.852922 5:-0.808917 6:-0.91977 7:-0.863244 8:0.285926 9:0.116513 10:-0.702915 11:-0.726844 12:-0.747016 13:0.313808 14:-0.807349 15:-0.932207 16:-0.847129 17:-0.794872 18:-0.894975 19:-0.768581 20:-0.753989 21:-0.892383 22:-0.722249 23:0.101484 24:-0.583684 25:0.5584 26:-0.709493 27:-0.0994278 28:-0.0269125 29:-0.843332 30:-0.744919 31:-0.775991 32:0.34912 33:-0.884663 34:0.785586 35:-0.170017 36:0.604109 37:-0.57484 38:-0.674056 39:-0.0171985 40:0.501789 
8.374149943260107 1:0.806788 2:-0.733268 3:-0.834991 4:-0.756066 5:-0.758688 6:-0.820991 7:-0.859782 8:-0.46124 9:0.70892 10:-0.112955 11:-0.148509 12:0.259894 13:-0.637942 14:-0.772904 15:-0.819126 16:-0.80201 17:-0.777556 18:-0.687716 19:-0.600145 20:-0.809469 21:-0.733677 22:-0.824459 23:-0.184746 24:-0.395051 25:-0.00588837 26:-0.833231 27:-0.59475 28:-0.543725 29:-0.701002 30:-0.719373 31:-0.648286 32:0.0105219 33:0.411849 34:-0.0244004 35:-0.318171 36:-0.699869 37:-0.107486 38:0.443345 39:0.0321386 40:-0.170597 
3.650181317207721 1:0.961497 2:-0.322502 3:-0.618682 4:-0.635408 5:-0.345527 6:-0.750514 7:-0.779327 8:-0.514152 9:0.335391 10:-0.268236 11:-0.238643 12:-0.532251 13:-0.656497 14:-0.385367 15:-0.714312 16:-0.535629 17:-0.786464 18:-0.84595 19:-0.690889 20:-0.742788 21:-0.856702 22:-0.587536 23:-0.147896 24:-0.192326 25:0.67403 26:-0.616295 27:-0.349589 28:0.216017 29:-0.806783 30:-0.672385 31:-0.716949 32:-0.627985 33:0.892358 34:-0.860869 35:0.88144 36:-0.39244 37:0.405156 38:0.807646 39:-0.0287895 40:-0.221668 
3.754465963833371 1:0.83963 2:-0.194839 3:-0.590816 4:-0.750967 5:-0.340959 6:-0.610698 7:-0.786304 8:-0.258105 9:0.780261 10:0.68143 11:-0.462853 12:0.374045 13:0.0916777 14:-0.264923 15:-0.542845 16:-0.523635 17:-0.767566 18:-0.914362 19:-0.628218 20:-0.789894 21:-0.944437 22:-0.658057 23:0.522887 24:0.185963 25:-0.164511 26:-0.242067 27:-0.859448 28:-0.84487 29:-0.764259 30:-0.79862 31:-0.776055 32:-0.554303 33:0.366914 34:-0.0451601 35:0.618804 36:0.0434805 37:-0.244587 38:0.637355 39:0.16057 40:-0.560532 
4.047395969932056 1:0.956621 2:-0.263208 3:-0.646825 4:-0.636096 5:-0.233338 6:-0.681656 7:-0.754113 8:-0.585049 9:0.457875 10:-0.358803 11:-0.0386235 12:-0.218415 13:-0.663875 14:-0.329426 15:-0.579193 16:-0.458795 17:-0.767399 18:-0.982217 19:-0.845963 20:-0.763498 21:-0.979722 22:-0.84875 23:-0.437637 24:-0.450191 25:-0.0294214 26:-0.368233 27:-0.178383 28:-0.865873 29:-0.820137 30:-0.806825 31:-0.812795 32:0.629295 33:-0.185742 34:-0.40566 35:-0.590365 36:-0.427073 37:-0.37659 38:0.577497 39:-0.231348 40:-0.331501 
0.995067597729276 1:0.989983 2:0.0878553 3:-0.605028 4:-0.651807 5:0.223651 6:-0.715671 7:-0.748325 8:-0.636683 9:0.289505 10:-0.10548 11:0.159778 12:-0.379389 13:-0.595993 14:0.0017853 15:-0.411458 16:-0.194691 17:-0.813853 18:-0.962272 19:-0.488061 20:-0.763706 21:-0.963564 22:-0.403347 23:0.41983 24:-0.440938 25:0.352962 26:-0.494668 27:-0.261121 28:-0.268522 29:-0.669162 30:-0.613836 31:-0.681737 32:-0.746531 33:0.598793 34:-0.94353 35:0.648754 36:-0.0752808 37:0.461299 38:0.069747 39:0.616085 40:-0.327961 
3.781817551356311 1:0.349786 2:-0.957275 3:-0.874086 4:-0.942507 5:-0.950139 6:-0.815004 7:-0.982875 8:0.574842 9:0.86235 10:-0.120065 11:-0.130952 12:0.600502 13:-0.936713 14:-0.962626 15:-0.92321 16:-0.930402 17:-0.979271 18:-0.968967 19:-0.926348 20:-0.959656 21:-0.975803 22:-0.893952 23:-0.687694 24:-0.101353 25:0.76118 26:0.0768739 27:-0.400061 28:0.236391 29:-0.966544 30:-0.89036 31:-0.938619 32:-0.636923 33:-0.503455 34:0.688779 35:-0.736118 36:-0.573446 37:0.770835 38:-0.234065 39:0.101228 40:0.346197 
2.606990554142687 1:0.924072 2:-0.644815 3:-0.786466 4:-0.75091 5:-0.481111 6:-0.790388 7:-0.719023 8:-0.972588 9:0.394289 10:-0.96512 11:0.916752 12:-0.278683 13:0.907987 14:-0.689453 15:-0.556953 16:-0.604792 17:-0.955045 18:-0.941839 19:-0.933806 20:-0.938317 21:-0.926391 22:-0.887565 23:-0.468754 24:0.660278 25:0.62959 26:-0.407369 27:0.0011516 28:-0.0395449 29:-0.957125 30:-0.848219 31:-0.913763 32:0.680172 33:-0.841128 34:-0.795585 35:-0.404189 36:0.706606 37:0.456369 38:0.66163 39:-0.839849 40:-0.777054 
3.196135196680543 1:0.943077 2:-0.677192 3:-0.802409 4:-0.626957 5:-0.447819 6:-0.811364 7:-0.58207 8:-0.970113 9:-0.157421 10:-0.918117 11:0.911516 12:-0.181813 13:0.800196 14:-0.65542 15:-0.469272 16:-0.514991 17:-0.93673 18:-0.90425 19:-0.914435 20:-0.918457 21:-0.892081 22:-0.918626 23:-0.420917 24:0.853891 25:0.58603 26:-0.459754 27:0.491361 28:-0.114738 29:-0.919241 30:-0.803468 31:-0.88188 32:0.63137 33:-0.927208 34:-0.795542 35:-0.0729701 36:0.573888 37:0.1021 38:0.585031 39:-0.91836 40:-0.746436 
5.924007376964855 1:-0.160139 2:-0.804809 3:-0.844072 4:-0.834211 5:-0.84076 6:-0.877377 7:-0.870181 8:0.363879 9:-0.44743 10:0.614383 11:-0.562226 12:-0.240174 13:0.0280324 14:-0.840399 15:-0.848424 16:-0.857206 17:-0.965784 18:-0.905924 19:-0.925416 20:-0.962772 21:-0.882583 22:-0.931125 23:0.0521774 24:-0.510628 25:0.0312153 26:-0.805504 27:-0.134965 28:-0.874165 29:-0.920928 30:-0.871714 31:-0.89062 32:-0.21141 33:-0.735198 34:0.349173 35:-0.197934 36:0.394842 37:-0.478306 38:-0.209906 39:-0.673174 40:0.670263 
5.815802797947969 1:0.618246 2:-0.892004 3:-0.614866 4:-0.878323 5:-0.881081 6:-0.565107 7:-0.893224 8:-0.385626 9:0.641881 10:-0.705859 11:-0.0915119 12:0.226755 13:0.348317 14:-0.802979 15:-0.77836 16:-0.78696 17:-0.925491 18:-0.928868 19:-0.833739 20:-0.871113 21:-0.919914 22:-0.827843 23:-0.532745 24:0.356011 25:0.921837 26:-0.288232 27:-0.590197 28:0.798022 29:-0.903708 30:-0.779601 31:-0.85119 32:0.162582 33:-0.759665 34:-0.666276 35:-0.362383 36:0.668121 37:0.722916 38:0.626336 39:-0.369571 40:-0.942387 
4.354718716216405 1:0.987718 2:-0.855754 3:-0.908422 4:-0.856157 5:-0.907393 6:-0.933875 7:-0.913672 8:0.0797381 9:0.080777 10:0.212888 11:-0.884553 12:-0.728428 13:-0.64588 14:-0.888463 15:-0.947807 16:-0.919744 17:-0.964868 18:-0.960808 19:-0.932667 20:-0.95962 21:-0.931904 22:-0.932949 23:-0.173235 24:-0.715537 25:0.167267 26:-0.748438 27:0.07216 28:-0.808461 29:-0.970831 30:-0.895581 31:-0.928126 32:0.235306 33:0.153294 34:-0.243265 35:-0.0647658 36:0.302925 37:0.135737 38:-0.0174742 39:0.0246541 40:0.305513 
5.854331958422068 1:0.206273 2:-0.843808 3:-0.865194 4:-0.834589 5:-0.872247 6:-0.868104 7:-0.895186 8:0.388944 9:0.501724 10:0.106223 11:-0.41508 12:-0.193452 13:-0.698743 14:-0.866684 15:-0.877681 16:-0.88193 17:-0.949301 18:-0.96555 19:-0.856425 20:-0.942948 21:-0.958286 22:-0.902783 23:-0.161395 24:-0.412216 25:0.0521311 26:-0.483046 27:-0.0599843 28:-0.859318 29:-0.9191 30:-0.895767 31:-0.919817 32:-0.417105 33:-0.62908 34:-0.000427853 35:-0.507748 36:-0.656971 37:0.607852 38:-0.1021 39:-0.606242 40:-0.142555 
0.1838309243939702 1:0.989861 2:-0.463912 3:-0.883363 4:-0.67541 5:-0.315048 6:-0.927292 7:-0.7874 8:-0.8102 9:0.0941779 10:0.0741458 11:0.529184 12:-0.891255 13:-0.663664 14:-0.51878 15:-0.632639 16:-0.548285 17:-0.893773 18:-0.896719 19:-0.757187 20:-0.878372 21:-0.848105 22:-0.736993 23:-0.502207 24:0.957797 25:-0.504386 26:-0.336661 27:0.733955 28:0.0785897 29:-0.851766 30:-0.654112 31:-0.777411 32:0.527204 33:-0.895102 34:0.936316 35:-0.102559 36:0.376106 37:-0.756625 38:-0.0210704 39:0.498253 40:-0.838064 
6.118556745016986 1:0.472699 2:-0.746321 3:-0.766759 4:-0.687696 5:-0.784096 6:-0.800033 7:-0.778512 8:0.170826 9:0.622542 10:0.360662 11:-0.687005 12:0.00445465 13:-0.379711 14:-0.717221 15:-0.839273 16:-0.762475 17:-0.711122 18:-0.791625 19:-0.499663 20:-0.722707 21:-0.816991 22:-0.501444 23:0.145593 24:0.419013 25:-0.104182 26:-0.825639 27:-0.566397 28:-0.838129 29:-0.677034 30:-0.773075 31:-0.657126 32:0.676434 33:-0.44188 34:0.526618 35:0.0340064 36:0.516934 37:-0.114989 38:-0.183184 39:0.481393 40:0.117825 
4.651500621383343 1:0.293277 2:-0.787903 3:-0.567292 4:-0.789169 5:-0.793535 6:-0.65433 7:-0.844311 8:0.440465 9:0.169253 10:0.395015 11:-0.564677 12:-0.528754 13:-0.532227 14:-0.77368 15:-0.822377 16:-0.764429 17:-0.988595 18:-0.718191 19:-0.744756 20:-0.979955 21:-0.762933 22:-0.719511 23:0.328734 24:0.02648 25:-0.0635869 26:-0.689359 27:-0.69418 28:-0.773706 29:-0.731717 30:-0.819504 31:-0.735069 32:-0.166505 33:-0.419425 34:-0.308699 35:0.0441217 36:0.178099 37:0.500792 38:0.164872 39:-0.715633 40:0.137603 
2.864155395208203 1:0.972334 2:-0.430153 3:-0.745132 4:-0.698434 5:-0.31022 6:-0.807761 7:-0.71021 8:-0.770345 9:-0.0923591 10:-0.754023 11:0.461432 12:-0.750223 13:0.435909 14:-0.48693 15:-0.529616 16:-0.50842 17:-0.955961 18:-0.826005 19:-0.813746 20:-0.943814 21:-0.83537 22:-0.769507 23:0.359543 24:0.117138 25:-0.305633 26:-0.490534 27:-0.545509 28:-0.574386 29:-0.84038 30:-0.831065 31:-0.808343 32:-0.258754 33:0.699778 34:-0.368318 35:0.251698 36:-0.278361 37:0.704717 38:-0.443816 39:0.521101 40:-0.495062 
2.541610172329822 1:-0.980979 2:-0.228505 3:-0.823499 4:-0.793495 5:0.0234393 6:-0.845556 7:-0.793729 8:-0.869261 9:0.113607 10:-0.591666 11:0.670275 12:-0.569844 13:0.221713 14:-0.296685 15:-0.420733 16:-0.336431 17:-0.893107 18:-0.789672 19:-0.803802 20:-0.870482 21:-0.798913 22:-0.771169 23:0.0593439 24:-0.144692 25:-0.0126515 26:-0.520848 27:-0.6083 28:-0.437553 29:-0.80376 30:-0.745851 31:-0.769435 32:0.638146 33:0.495106 34:-0.735119 35:0.328684 36:0.209054 37:-0.277886 38:0.491444 39:0.284419 40:-0.551588 
1.960221601438461 1:-0.935153 2:-0.63762 3:-0.731729 4:-0.748571 5:-0.516401 6:-0.803926 7:-0.772365 8:-0.935179 9:-0.216536 10:0.521819 11:0.817411 12:-0.380242 13:-0.272701 14:-0.682664 15:-0.68849 16:-0.645146 17:-0.941642 18:-0.805154 19:-0.966023 20:-0.916913 21:-0.785545 22:-0.936826 23:0.154144 24:0.568255 25:0.889268 26:-0.367577 27:-0.241395 28:0.739468 29:-0.819364 30:-0.774753 31:-0.789075 32:-0.824677 33:-0.869549 34:-0.145883 35:-0.306557 36:-0.29797 37:0.29337 38:0.673221 39:0.79616 40:0.837999 
9.525215158567724 1:0.183896 2:-0.670352 3:-0.715688 4:-0.858637 5:-0.677032 6:-0.711555 7:-0.901932 8:0.499776 9:0.355886 10:0.165391 11:-0.293533 12:-0.0514698 13:-0.389599 14:-0.713546 15:-0.763114 16:-0.756736 17:-0.911921 18:-0.813243 19:-0.803077 20:-0.898828 21:-0.825256 22:-0.723348 23:0.0871577 24:-0.222395 25:-0.0946477 26:-0.691347 27:-0.551439 28:-0.255282 29:-0.827517 30:-0.776058 31:-0.784081 32:0.459985 33:-0.826033 34:0.260919 35:0.175178 36:-0.218194 37:0.271385 38:-0.211182 39:-0.732426 40:0.918024 
3.399754251867892 1:0.253368 2:-0.747473 3:-0.696838 4:-0.905324 5:-0.734887 6:-0.741464 7:-0.921733 8:0.430873 9:0.840603 10:-0.384646 11:-0.498508 12:0.499796 13:-0.485729 14:-0.786306 15:-0.814816 16:-0.786161 17:-0.976523 18:-0.905157 19:-0.947377 20:-0.965911 21:-0.876579 22:-0.927136 23:-0.35404 24:0.645747 25:0.544904 26:-0.269058 27:-0.0920524 28:-0.00990855 29:-0.920155 30:-0.88458 31:-0.884362 32:0.143057 33:0.900491 34:0.667084 35:0.359334 36:0.743159 37:0.0505764 38:0.619796 39:0.476302 40:0.152867 
1.7423053029281 1:-0.9884 2:-0.0315205 3:-0.654804 4:-0.672541 5:0.279397 6:-0.716304 7:-0.717714 8:-0.836956 9:-0.0920148 10:0.296543 11:0.617356 12:-0.389342 13:-0.239133 14:-0.11084 15:-0.289022 16:-0.144599 17:-0.913253 18:-0.74504 19:-0.823277 20:-0.884539 21:-0.759566 22:-0.778352 23:0.499669 24:-0.075243 25:-0.535375 26:-0.0833199 27:-0.428226 28:-0.0637783 29:-0.758777 30:-0.76543 31:-0.744127 32:-0.686057 33:0.709375 34:-0.402097 35:0.189197 36:-0.230131 37:-0.202847 38:0.649648 39:-0.798605 40:-0.305348 
3.199955496397573 1:0.202062 2:-0.459745 3:-0.643003 4:-0.84256 5:-0.475872 6:-0.582865 7:-0.855732 8:0.604436 9:0.92382 10:0.514405 11:-0.150407 12:0.722549 13:0.0558911 14:-0.514849 15:-0.645577 16:-0.613761 17:-0.878205 18:-0.695457 19:-0.815093 20:-0.862553 21:-0.698465 22:-0.760717 23:0.258315 24:-0.471112 25:0.430102 26:-0.734607 27:-0.217037 28:-0.251518 29:-0.708803 30:-0.650569 31:-0.683893 32:-0.238139 33:-0.413218 34:0.363922 35:-0.174773 36:-0.726868 37:0.760414 38:0.310751 39:0.0248942 40:-0.0485023 
6.039973156102619 1:0.52509 2:-0.69605 3:-0.527186 4:-0.754756 5:-0.724718 6:-0.467802 7:-0.777806 8:0.138362 9:0.758951 10:-0.352189 11:-0.535303 12:0.451653 13:-0.00999474 14:-0.73779 15:-0.732495 16:-0.66075 17:-0.892857 18:-0.653405 19:-0.799762 20:-0.867817 21:-0.678513 22:-0.766617 23:-0.136206 24:-0.165838 25:-0.191541 26:-0.669778 27:-0.57893 28:-0.434473 29:-0.666421 30:-0.755734 31:-0.663926 32:0.734019 33:0.7756 34:-0.613142 35:0.161961 36:-0.415605 37:0.570357 38:-0.127709 39:0.155062 40:-0.502333 
1.337182135009514 1:-0.989092 2:-0.481197 3:-0.690303 4:-0.759298 5:-0.390463 6:-0.778781 7:-0.814074 8:-0.582485 9:0.0644542 10:0.49414 11:0.197109 12:-0.632331 13:-0.432277 14:-0.535087 15:-0.664693 16:-0.583254 17:-0.951465 18:-0.780606 19:-0.878075 20:-0.939645 21:-0.777879 22:-0.846785 23:-0.0351709 24:-0.288069 25:0.590895 26:-0.690196 27:-0.457443 28:0.049041 29:-0.794623 30:-0.773821 31:-0.778234 32:0.223649 33:0.483949 34:-0.724359 35:0.205379 36:-0.00777218 37:0.102473 38:0.483964 39:-0.877732 40:0.744794 
5.747065327490787 1:-0.982773 2:-0.0622932 3:-0.839942 4:-0.717188 5:0.333446 6:-0.879504 7:-0.715933 8:-0.870306 9:-0.403961 10:0.59736 11:0.64185 12:-0.336468 13:0.164263 14:-0.139872 15:-0.327818 16:-0.128627 17:-0.892191 18:-0.634646 19:-0.777076 20:-0.881541 21:-0.644962 22:-0.7528 23:0.0894999 24:-0.165467 25:-0.126428 26:-0.759149 27:-0.506547 28:-0.639308 29:-0.647514 30:-0.651315 31:-0.629992 32:-0.458876 33:0.788403 34:-0.624569 35:-0.366339 36:0.550867 37:-0.280676 38:-0.276026 39:-0.199309 40:-0.162677 
4.303858488944027 1:-0.00365712 2:-0.683049 3:-0.741304 4:-0.918199 5:-0.662381 6:-0.921333 7:-0.957395 8:0.768513 9:0.0936216 10:0.0844492 11:0.483642 12:-0.815038 13:-0.75913 14:-0.725524 15:-0.872197 16:-0.789971 17:-0.954878 18:-0.817079 19:-0.673072 20:-0.957304 21:-0.79902 22:-0.796242 23:-0.0302178 24:-0.682226 25:-0.0923571 26:-0.930375 27:0.306669 28:-0.567965 29:-0.794693 30:-0.782025 31:-0.756627 32:0.162797 33:-1 34:0.757155 35:0.637299 36:0.572811 37:-0.106025 38:0.0378271 39:0.328078 40:-0.296726 
5.877755017190593 1:0.984144 2:-0.106478 3:-0.745032 4:-0.551521 5:0.258069 6:-0.756434 7:-0.662146 8:-0.916602 9:0.607381 10:0.518159 11:0.765172 12:0.0203886 13:-0.134764 14:-0.181558 15:-0.224055 16:-0.126966 17:-0.811522 18:-0.804108 19:-0.761226 20:-0.768243 21:-0.800324 22:-0.69229 23:-0.341807 24:0.697653 25:-0.677003 26:-0.658216 27:0.0801025 28:0.167384 29:-0.81831 30:-0.590528 31:-0.719149 32:0.454029 33:-0.892598 34:0.916011 35:-0.56167 36:0.622253 37:-0.664255 38:-0.53238 39:0.833827 40:-0.922477 
3.370405548842591 1:0.605352 2:-0.49171 3:-0.683845 4:-0.708391 5:-0.585874 6:-0.703235 7:-0.781656 8:0.00845244 9:0.535356 10:0.296103 11:-0.817333 12:-0.0197513 13:-0.331555 14:-0.545006 15:-0.795052 16:-0.667646 17:-0.858059 18:-0.805921 19:-0.686124 20:-0.842649 21:-0.81744 22:-0.695529 23:-0.176864 24:0.392786 25:-0.720509 26:-0.717202 27:-0.301177 28:0.429754 29:-0.803549 30:-0.698303 31:-0.744582 32:-0.706525 33:-0.724643 34:0.502696 35:0.135112 36:0.976486 37:-1 38:0.170978 39:0.890669 40:-0.961543 
2.025290014707009 1:0.987502 2:0.0717845 3:-0.667987 4:-0.790184 5:-0.0411872 6:-0.677109 7:-0.79459 8:-0.52486 9:0.434685 10:0.719307 11:-0.211087 12:-0.0983618 13:0.333465 14:-0.0133767 15:-0.559226 16:-0.370006 17:-0.847985 18:-0.700896 19:-0.617237 20:-0.849407 21:-0.727116 22:-0.491111 23:0.0846051 24:0.282133 25:-0.426887 26:-0.856708 27:-0.573792 28:-0.612407 29:-0.714286 30:-0.619429 31:-0.614563 32:-0.791328 33:-0.918138 34:0.529754 35:0.658629 36:0.842983 37:-0.65045 38:0.572191 39:0.691124 40:-0.481802 
0.6549520551499186 1:-0.117649 2:-0.808484 3:-0.861258 4:-0.714459 5:-0.778965 6:-0.8917 7:-0.780562 8:0.0821776 9:-0.208614 10:-0.576984 11:-0.303734 12:-0.602023 13:-0.0536775 14:-0.744452 15:-0.8877 16:-0.785934 17:-0.793956 18:-0.717494 19:-0.567204 20:-0.830326 21:-0.711272 22:-0.639484 23:-0.14918 24:0.603586 25:-0.833423 26:-0.859463 27:-0.16594 28:0.403739 29:-0.722861 30:-0.546522 31:-0.632973 32:0.0776053 33:0.849209 34:-0.770649 35:0.265944 36:-0.617822 37:0.757376 38:0.365357 39:-0.707471 40:0.667163 
3.057905894415214 1:0.156486 2:-0.603936 3:-0.793118 4:-0.792663 5:-0.684098 6:-0.866994 7:-0.88186 8:0.0189032 9:0.058539 10:0.0407253 11:-0.90954 12:-0.747053 13:-0.901366 14:-0.650885 15:-0.907695 16:-0.787144 17:-0.889527 18:-0.888002 19:-0.693893 20:-0.862742 21:-0.893077 22:-0.894586 23:-0.339876 24:-0.46276 25:-0.0975364 26:-0.564508 27:-0.411432 28:-0.903842 29:-0.808821 30:-0.798807 31:-0.806405 32:0.18406 33:0.155495 34:0.18478 35:-0.579555 36:-0.661701 37:0.0627722 38:-0.738893 39:-0.797137 40:0.0983884 
3.06774339316281 1:0.920698 2:-0.720952 3:-0.70769 4:-0.82591 5:-0.694281 6:-0.847046 7:-0.913442 8:-0.676438 9:0.514313 10:0.0412222 11:0.0666897 12:-0.0961942 13:-0.928529 14:-0.761284 15:-0.8079 16:-0.773367 17:-0.557026 18:-0.419575 19:-0.766406 20:-0.842803 21:-0.892004 22:-0.81487 23:0.0877912 24:-0.210039 25:0.328192 26:-0.897489 27:-0.71047 28:-0.6472 29:-0.43075 30:-0.678165 31:-0.535964 32:0.249993 33:0.790189 34:-0.658633 35:-0.381394 36:-0.692777 37:0.446171 38:-0.21679 39:-0.598095 40:-0.136741 
2.463848674219348 1:0.426507 2:-0.405223 3:-0.217237 4:-0.550831 5:-0.51032 6:-0.22817 7:-0.644082 8:-0.0960581 9:0.866165 10:0.594238 11:-0.789292 12:0.578782 13:0.0383794 14:-0.463409 15:-0.66427 16:-0.448659 17:0.193973 18:-0.61749 19:-0.687367 20:-0.650977 21:-0.84286 22:-0.836358 23:0.175162 24:-0.525384 25:0.10016 26:-0.767721 27:0.037602 28:-0.792066 29:-0.00846951 30:-0.521723 31:-0.275253 32:0.0484454 33:-0.0421928 34:0.237162 35:-0.292765 36:-0.698024 37:-0.441023 38:0.114072 39:-0.0449216 40:0.175169 
0.7534454612853348 1:-0.929022 2:0.190975 3:-0.542047 4:-0.486131 5:0.289501 6:-0.595994 7:-0.517396 8:-0.636161 9:-0.403904 10:0.72835 11:-0.0673639 12:-0.115124 13:0.12163 14:0.0990732 15:-0.263563 16:-0.0578721 17:-0.155178 18:-0.563025 19:-0.34604 20:-0.244897 21:-0.666369 22:-0.31535 23:-0.190756 24:0.101494 25:0.124106 26:-0.924177 27:-0.907304 28:-0.823128 29:-0.303251 30:-0.549319 31:-0.333632 32:-0.280023 33:-0.344697 34:-0.135125 35:-0.0936202 36:-0.13032 37:-0.159359 38:0.161842 39:0.492718 40:-0.134425 
0.3039136543938992 1:0.26273 2:0.340053 3:-0.20437 4:-0.0603582 5:0.0250468 6:0.0130509 7:-0.195402 8:0.0941625 9:0.991684 10:0.609378 11:-0.721091 12:0.883881 13:-0.100879 14:0.239721 15:0.0671067 16:0.0791852 17:0.0312188 18:-0.435057 19:-0.490651 20:-0.467685 21:-0.724486 22:-0.580468 23:-0.0128954 24:0.0136975 25:-0.0642079 26:-0.915615 27:-0.615398 28:-0.570544 29:-0.145879 30:-0.374604 31:-0.212159 32:0.203318 33:0.0287673 34:0.0462421 35:-0.291936 36:-0.611433 37:-0.624701 38:-0.487494 39:-0.843853 40:-0.565914 
0.4929214480135479 1:-0.883494 2:0.680129 3:0.0167991 4:-0.0431782 5:0.656971 6:-0.159773 7:-0.190515 8:-0.436175 9:-0.553484 10:0.744465 11:-0.182905 12:-0.0528613 13:0.256737 14:0.560566 15:0.272867 16:0.309837 17:0.177822 18:-0.367551 19:-0.713575 20:-0.575789 21:-0.893829 22:-0.588583 23:-0.171094 24:-0.00925677 25:-0.86442 26:-0.456863 27:-0.583177 28:0.705523 29:-0.0221051 30:-0.258065 31:-0.194882 32:0.773914 33:0.563073 34:0.910299 35:0.695418 36:0.248447 37:0.726629 38:-0.85509 39:-0.555713 40:-0.919453 
2.955043799743281 1:-0.910335 2:-0.774447 3:-0.757621 4:-0.834439 5:-0.598464 6:-0.815192 7:-0.90372 8:-0.963419 9:-0.6711 10:0.0284201 11:0.891079 12:0.165262 13:-0.905159 14:-0.811754 15:-0.740473 16:-0.73585 17:-0.612388 18:-0.725165 19:-0.864194 20:-0.621521 21:-0.771578 22:-0.916897 23:-0.124965 24:-0.241889 25:-0.355932 26:-0.931659 27:-0.636608 28:-0.494023 29:-0.689264 30:-0.803468 31:-0.668108 32:-0.0849244 33:0.685243 34:0.389186 35:0.170956 36:0.445929 37:0.0204741 38:0.0975311 39:-0.283682 40:-0.424302 
8.459211022342087 1:-0.0466831 2:-0.38753 3:-0.707868 4:-0.58655 5:-0.393653 6:-0.851296 7:-0.78382 8:0.212697 9:-0.161028 10:0.111784 11:-0.518134 12:-0.889388 13:-0.952221 14:-0.446717 15:-0.743061 16:-0.577053 17:-0.224858 18:-0.889048 19:-0.856322 20:-0.34243 21:-0.939954 22:-0.955769 23:-0.144315 24:0.0952327 25:-0.0684682 26:-0.859282 27:-0.874631 28:-0.845151 29:-0.36208 30:-0.648145 31:-0.460015 32:-0.267918 33:-0.126808 34:0.0687986 35:0.604453 36:-0.17729 37:-0.237078 38:0.389048 39:-0.292384 40:-0.613069 
1.159693793242854 1:-0.588924 2:-0.560388 3:-0.393544 4:-0.667157 5:-0.646272 6:-0.25403 7:-0.820338 8:0.0460693 9:-0.641144 10:0.0170798 11:-0.888454 12:0.346395 13:-0.921467 14:-0.6098 15:-0.706406 16:-0.56442 17:-0.0658508 18:-0.158897 19:-0.813539 20:-0.0750226 21:-0.41104 22:-0.847537 23:-0.145155 24:-0.0795515 25:0.0543044 26:-0.929424 27:-0.986817 28:-0.850916 29:-0.16802 30:-0.381503 31:-0.106107 32:-0.0734133 33:-0.190879 34:-0.356672 35:0.279343 36:0.236328 37:0.144236 38:0.357954 39:0.374919 40:0.413166 
3.138687990404949 1:-0.0829752 2:-0.44777 3:-0.700642 4:-0.621218 5:-0.409195 6:-0.808787 7:-0.761274 8:0.524257 9:-0.23157 10:-0.142921 11:-0.448451 12:-0.722378 13:-0.793204 14:-0.503551 15:-0.721146 16:-0.561506 17:0.191475 18:-0.242861 19:-0.439581 20:0.230874 21:-0.449898 22:-0.339288 23:0.14574 24:0.292652 25:0.206083 26:-0.828855 27:-0.789869 28:-0.587597 29:-0.0105781 30:-0.395674 31:-0.0346682 32:0.724108 33:0.814444 34:-0.130049 35:-0.277326 36:-0.446227 37:-0.109456 38:-0.44056 39:-0.236048 40:-0.0290622 
1.447089712430143 1:0.830594 2:-0.5715 3:-0.647799 4:-0.663912 5:-0.550862 6:-0.655544 7:-0.774925 8:-0.263611 9:0.584134 10:-0.0135771 11:-0.303087 12:-0.342571 13:-0.565795 14:-0.620283 15:-0.694206 16:-0.640586 17:-0.349151 18:-0.672095 19:-0.798001 20:-0.584945 21:-0.819653 22:-0.938888 23:0.0971404 24:0.0547061 25:0.180753 26:-0.975411 27:-0.94206 28:-0.787233 29:-0.467018 30:-0.673131 31:-0.509551 32:0.0329364 33:0.17019 34:0.209788 35:-0.260581 36:-0.162225 37:-0.591474 38:0.293955 39:0.189365 40:-0.412779 
2.515596194970693 1:-0.911372 2:-0.123164 3:-0.478396 4:-0.673318 5:-0.159903 6:-0.564457 7:-0.750217 8:-0.54346 9:0.0705222 10:-0.503317 11:-0.211657 12:-0.421134 13:-0.306019 14:-0.197301 15:-0.476953 16:-0.397188 17:-0.359724 18:-0.479898 19:-0.356399 20:-0.364175 21:-0.571656 22:-0.360653 23:0.166117 24:0.569529 25:-0.0380369 26:-0.843925 27:-0.218663 28:-0.8286 29:-0.475944 30:-0.434458 31:-0.35669 32:-0.488177 33:-0.845938 34:-0.0493582 35:0.0834621 36:-0.199052 37:0.544906 38:-0.490583 39:-0.704454 40:0.42223 
3.657198209332888 1:0.778 2:-0.519484 3:-0.56483 4:-0.681789 5:-0.565015 6:-0.58026 7:-0.803737 8:-0.320936 9:0.789932 10:-0.0924183 11:-0.343803 12:0.39158 13:-0.839381 14:-0.571209 15:-0.703756 16:-0.631586 17:-0.424575 18:-0.693434 19:-0.678148 20:-0.65368 21:-0.804133 22:-0.860024 23:-0.310312 24:-0.094666 25:-0.454717 26:-0.67106 27:-0.842897 28:-0.103315 29:-0.530698 30:-0.641618 31:-0.543475 32:-0.0508925 33:0.166341 34:0.566869 35:-0.393492 36:-0.491396 37:-0.836327 38:0.126496 39:-0.470857 40:-0.512153 
1.246172731557526 1:-0.81221 2:-0.167154 3:-0.448961 4:-0.637473 5:-0.101952 6:-0.292534 7:-0.795013 8:-0.545166 9:-0.786546 10:-0.107649 11:0.0654326 12:0.589325 13:-0.865796 14:-0.238804 15:-0.385565 16:-0.324387 17:-0.121712 18:-0.410998 19:-0.481224 20:-0.175478 21:-0.614983 22:-0.445252 23:0.244582 24:0.574196 25:-0.106802 26:-0.714325 27:-0.323998 28:-0.573388 29:-0.274996 30:-0.275965 31:-0.271565 32:-0.343982 33:-0.706064 34:0.449033 35:-0.468284 36:-0.769043 37:0.791866 38:-0.788621 39:-0.241069 40:0.0400964 
1.438723387801033 1:-0.905599 2:0.341391 3:-0.0398496 4:-0.49521 5:0.158277 6:-0.368778 7:-0.671132 8:-0.306655 9:-0.00450306 10:0.135238 11:-0.715501 12:-0.781328 13:-0.711672 14:0.240984 15:-0.435199 16:-0.158624 17:-0.848651 18:-0.346909 19:-0.671 20:-0.819701 21:-0.310662 22:-0.648105 23:0.120096 24:0.602894 25:-0.347508 26:-0.647377 27:-0.231984 28:-0.524454 29:-0.357512 30:-0.194667 31:-0.232501 32:-0.618296 33:-0.955312 34:0.533197 35:0.643049 36:-0.0245561 37:0.38554 38:0.458449 39:0.875166 40:-0.425494 
11.5697366059733 1:0.795013 2:-0.654535 3:-0.704599 4:-0.880024 5:-0.635065 6:-0.746692 7:-0.87911 8:0.177835 9:0.492007 10:-0.308556 11:-0.429097 12:-0.21894 13:-0.161629 14:-0.698624 15:-0.846992 16:-0.740818 17:-0.936064 18:-0.597685 19:-0.784534 20:-0.91661 21:-0.587158 22:-0.751484 23:0.524819 24:-0.267014 25:0.410044 26:-0.148032 27:-0.48345 28:-0.441133 29:-0.610262 30:-0.650942 31:-0.577441 32:-0.135831 33:-0.0997687 34:0.646887 35:-0.0452688 36:-0.859158 37:0.339316 38:0.352192 39:0.354358 40:-0.772316 
5.207089847774415 1:-0.925551 2:-0.00663252 3:-0.424951 4:-0.436303 5:-0.12314 6:-0.511867 7:-0.627402 8:-0.153771 9:0.275806 10:0.160755 11:-0.616599 12:-0.350811 13:-0.645897 14:-0.0873593 15:-0.566035 16:-0.339504 17:-0.822095 18:-0.336588 19:-0.470865 20:-0.801802 21:-0.372755 22:-0.369115 23:0.179195 24:-0.145283 25:0.223947 26:-0.558172 27:-0.515778 28:-0.618838 29:-0.347109 30:-0.342719 31:-0.296408 32:-0.00985633 33:0.767531 34:-0.632023 35:0.240781 36:-0.382705 37:0.517787 38:0.29363 39:-0.320165 40:0.0614487 
1.905548631194281 1:-0.911153 2:0.401401 3:0.115747 4:-0.0886124 5:0.243507 6:-0.326512 7:-0.45381 8:-0.36122 9:-0.00905817 10:-0.0253342 11:-0.551186 12:-0.895951 13:-0.900886 14:0.2976 15:-0.373469 16:-0.0460705 17:-0.768149 18:0.263084 19:-0.551976 20:-0.773189 21:0.100641 22:-0.488411 23:0.180164 24:0.197174 25:-0.137874 26:-0.654872 27:-0.644079 28:-0.681003 29:0.257283 30:-0.132016 31:0.125928 32:-0.321728 33:-0.86828 34:0.854833 35:0.369713 36:0.0990178 37:0.0673852 38:0.649793 39:0.889924 40:-0.799993 
0.756223970833647 1:0.838801 2:-0.566343 3:-0.64242 4:-0.731673 5:-0.599585 6:-0.700588 7:-0.82259 8:0.0578998 9:0.253696 10:-0.0240621 11:-0.614414 12:-0.615113 13:-0.75855 14:-0.615418 15:-0.806998 16:-0.693665 17:-0.69955 18:-0.469507 19:-0.626146 20:-0.680795 21:-0.490843 22:-0.519415 23:0.0294965 24:-0.23509 25:0.45594 26:-0.830616 27:-0.539282 28:-0.492194 29:-0.481075 30:-0.387843 31:-0.417362 32:-0.323689 33:0.586901 34:-0.42238 35:-0.0391747 36:-0.771576 37:0.696035 38:0.507231 39:-0.408217 40:0.259448 
0.7320426000108385 1:-0.84217 2:-0.449188 3:-0.63595 4:-0.658717 5:-0.488316 6:-0.62938 7:-0.787391 8:-0.53701 9:-0.574636 10:-0.213719 11:-0.148359 12:0.187166 13:-0.69073 14:-0.504889 15:-0.671008 16:-0.607311 17:-0.821262 18:-0.59894 19:-0.862019 20:-0.795368 21:-0.5638 22:-0.850806 23:0.194997 24:0.552738 25:-0.162278 26:-0.649371 27:-0.365372 28:-0.715887 29:-0.611527 30:-0.528809 31:-0.541144 32:-0.737319 33:-0.891045 34:0.757089 35:-0.0225848 36:-0.403465 37:0.527553 38:0.548368 39:0.158004 40:-0.207393 
3.100052027808625 1:-0.0819175 2:-0.633254 3:-0.783537 4:-0.729828 5:-0.676067 6:-0.846138 7:-0.786117 8:0.267881 9:-0.300238 10:-0.378679 11:-0.45353 12:-0.664485 13:-0.345971 14:-0.678546 15:-0.820244 16:-0.729628 17:-0.798785 18:-0.282193 19:-0.435127 20:-0.767301 21:-0.398773 22:-0.40271 23:0.0240659 24:0.0608686 25:0.103418 26:-0.658503 27:-0.704585 28:-0.766242 29:-0.292286 30:-0.465411 31:-0.317579 32:-0.363758 33:-0.921702 34:0.646379 35:0.256302 36:0.562116 37:-0.751841 38:-0.0602703 39:0.531719 40:-0.378885 
8.893362898704368 1:0.738251 2:-0.811092 3:-0.789943 4:-0.871522 5:-0.840573 6:-0.800235 7:-0.925153 8:-0.186179 9:0.568166 10:0.0571074 11:-0.668565 12:-0.0198214 13:-0.927067 14:-0.846327 15:-0.906635 16:-0.869085 17:-0.799201 18:-0.723142 19:-0.778422 20:-0.789568 21:-0.733903 22:-0.953561 23:-0.117284 24:0.502795 25:0.0287973 26:-0.790982 27:-0.400461 28:-0.926043 29:-0.736707 30:-0.764684 31:-0.704088 32:0.317317 33:-0.0933731 34:0.0451761 35:0.575543 36:0.735952 37:-0.186612 38:-0.415927 39:-0.30771 40:-0.133298 
5.785987985370956 1:0.791909 2:-0.698104 3:-0.713177 4:-0.88334 5:-0.754914 6:-0.778393 7:-0.918675 8:-0.456372 9:0.577286 10:-0.493064 11:-0.306826 12:-0.00690789 13:0.00497375 14:-0.739728 15:-0.807807 16:-0.815019 17:-0.767899 18:-0.903553 19:-0.817268 20:-0.778221 21:-0.896288 22:-0.854068 23:0.124483 24:0.669746 25:0.121095 26:-0.897697 27:-0.163503 28:-0.925019 29:-0.820559 30:-0.804587 31:-0.814978 32:0.111299 33:-0.496613 34:0.0120184 35:0.15594 36:0.698775 37:0.236605 38:0.0620631 39:-0.396263 40:-0.0703338 
1.794096329749022 1:0.88962 2:-0.293472 3:-0.435128 4:-0.883174 5:-0.408847 6:-0.650676 7:-0.918983 8:-0.379929 9:0.143585 10:0.218503 11:-0.339044 12:-0.820371 13:-0.731919 14:-0.357978 15:-0.714181 16:-0.601407 17:-0.908591 18:-0.9576 19:-0.76537 20:-0.886143 21:-0.94378 22:-0.75822 23:-0.282911 24:0.705647 25:-0.227061 26:-0.657301 27:0.0613873 28:-0.850075 29:-0.857319 30:-0.910125 31:-0.852373 32:0.614524 33:-0.759629 34:-0.61281 35:-0.85148 36:0.602667 37:0.508019 38:0.346421 39:-0.560197 40:-0.03035 
9.025142126603466 1:-0.121703 2:-0.862987 3:-0.91464 4:-0.857295 5:-0.893866 6:-0.936163 7:-0.919438 8:0.220303 9:-0.0698516 10:-0.0954545 11:-0.61788 12:-0.829093 13:-0.877814 14:-0.889787 15:-0.938888 16:-0.920888 17:-0.979104 18:-0.979776 19:-0.929352 20:-0.974614 21:-0.976871 22:-0.932878 23:-0.178541 24:0.271605 25:0.109243 26:-0.744096 27:-0.662127 28:-0.973733 29:-0.968582 30:-0.97837 31:-0.968635 32:-0.686918 33:0.749197 34:-0.153332 35:0.82686 36:-0.807079 37:-0.102961 38:0.0333085 39:0.116426 40:-0.668196 
0.635270505464017 1:0.382245 2:-0.933339 3:-0.929857 4:-0.889633 5:-0.947242 6:-0.909547 7:-0.954687 8:0.0419975 9:0.741848 10:-0.0732169 11:-0.816212 12:0.290411 13:-0.716573 14:-0.922691 15:-0.956174 16:-0.949104 17:-0.952214 18:-0.942606 19:-0.894132 20:-0.956256 21:-0.941338 22:-0.978129 23:-0.0943695 24:-0.683535 25:0.0401811 26:-0.695487 27:0.29851 28:-0.732282 29:-0.944685 30:-0.914414 31:-0.928999 32:0.0566224 33:-0.0737154 34:-0.336704 35:-0.419464 36:-0.799987 37:0.335746 38:0.222176 39:-0.604024 40:0.301156 
0.5594356733556399 1:-0.988089 2:-0.844696 3:-0.917146 4:-0.930568 5:-0.851227 6:-0.938755 7:-0.937726 8:-0.486644 9:0.0195329 10:-0.228279 11:-0.109141 12:-0.969535 13:-0.281327 14:-0.878031 15:-0.925266 16:-0.910548 17:-0.982184 18:-0.962063 19:-0.93132 20:-0.971749 21:-0.947634 22:-0.935337 23:0.111435 24:-0.434611 25:0.0810687 26:-0.541303 27:-0.211225 28:-0.764396 29:-0.969917 30:-0.929144 31:-0.950204 32:0.691373 33:0.849103 34:-0.505848 35:-0.0311951 36:0.0912985 37:-0.0939264 38:0.603581 39:0.613874 40:-0.167272 
11.70265379105403 1:-0.992411 2:-0.811938 3:-0.953409 4:-0.833692 5:-0.810361 6:-0.961107 7:-0.890803 8:-0.411965 9:0.075186 10:-0.067745 11:-0.4183 12:-0.824298 13:-0.716934 14:-0.847125 15:-0.907738 16:-0.871259 17:-0.93315 18:-0.922591 19:-0.884394 20:-0.935795 21:-0.927811 22:-0.898705 23:0.0769707 24:0.394048 25:0.242638 26:-0.893356 27:-0.565082 28:-0.841935 29:-0.937726 30:-0.953384 31:-0.916178 32:-0.0160835 33:-0.818294 34:-0.107661 35:-0.383132 36:0.179245 37:-0.00729505 38:-0.238871 39:-0.640221 40:0.252414 
3.119326138793874 1:0.507779 2:-0.844999 3:-0.799524 4:-0.862176 5:-0.89232 6:-0.849812 7:-0.92872 8:0.132594 9:0.351365 10:0.0311305 11:-0.93901 12:-0.455971 13:-0.898899 14:-0.878317 15:-0.963056 16:-0.90059 17:-0.914419 18:-0.970501 19:-0.855596 20:-0.907641 21:-0.97119 22:-0.859543 23:-0.242229 24:-0.185642 25:-0.0908352 26:-0.728347 27:-0.788669 28:-0.93427 29:-0.918538 30:-0.930263 31:-0.917308 32:0.407415 33:-0.391618 34:-0.545597 35:-0.615095 36:-0.0637133 37:0.667138 38:0.719717 39:0.140175 40:-0.0824474 
0.8599879812972794 1:0.946676 2:-0.754594 3:-0.884043 4:-0.886535 5:-0.757408 6:-0.924968 7:-0.933742 8:-0.431956 9:-0.0213634 10:-0.0721434 11:-0.139107 12:-0.911666 13:-0.907015 14:-0.793024 15:-0.906288 16:-0.853932 17:-0.891275 18:-0.756616 19:-0.91775 20:-0.873339 21:-0.774257 22:-0.872176 23:0.0765085 24:0.029327 25:0.564727 26:-0.699507 27:-0.574146 28:-0.184389 29:-0.770445 30:-0.77121 31:-0.772258 32:0.593229 33:0.858324 34:-0.699908 35:-0.244323 36:-0.0971333 37:0.540711 38:-0.609333 39:-0.804065 40:0.619478 
8.935698034196033 1:-0.911781 2:-0.733772 3:-0.795711 4:-0.861104 5:-0.630325 6:-0.81475 7:-0.897109 8:-0.839849 9:-0.0753382 10:-0.321453 11:0.620493 12:-0.350874 13:-0.240378 14:-0.773379 15:-0.808503 16:-0.754532 17:-0.896354 18:-0.758639 19:-0.937225 20:-0.884384 21:-0.771412 22:-0.89416 23:0.0488913 24:-0.0829553 25:0.695959 26:-0.648782 27:-0.464918 28:0.265152 29:-0.772483 30:-0.787805 31:-0.771532 32:0.469794 33:0.804437 34:-0.836716 35:0.014336 36:0.669192 37:-0.421785 38:-0.349755 39:-0.0669915 40:0.0335034 
0.3086323919924616 1:0.971569 2:-0.648321 3:-0.90017 4:-0.797128 5:-0.588687 6:-0.884748 7:-0.776133 8:-0.620344 9:-0.511996 10:-0.782473 11:-0.0882787 12:-0.0443298 13:0.546873 14:-0.692761 15:-0.715962 16:-0.695531 17:-0.843823 18:-0.669863 19:-0.851867 20:-0.820821 21:-0.683612 22:-0.73003 23:0.153123 24:0.154735 25:-1 26:-0.680412 27:-0.412977 28:0.984934 29:-0.683008 30:-0.60675 31:-0.657851 32:-0.337208 33:-0.745237 34:0.832092 35:0.0320175 36:0.0675042 37:-0.381627 38:-0.450475 39:-0.732885 40:0.911936 
11.37780708668423 1:0.189017 2:-0.671704 3:-0.636772 4:-0.85817 5:-0.63638 6:-0.706931 7:-0.864345 8:0.438352 9:0.334454 10:0.207319 11:-0.497448 12:-0.203908 13:-0.210515 14:-0.714821 15:-0.782107 16:-0.716179 17:-0.870463 18:-0.660239 19:-0.85715 20:-0.856313 21:-0.676263 22:-0.824426 23:0.217426 24:-0.404297 25:0.468404 26:-0.692972 27:-0.434403 28:-0.395367 29:-0.673309 30:-0.654484 31:-0.673071 32:-0.3484 33:-0.26259 34:0.269165 35:-0.354596 36:-0.350906 37:0.441538 38:-0.275301 39:-0.741964 40:0.712718 
5.863979594081023 1:0.955939 2:-0.387966 3:-0.719017 4:-0.53497 5:-0.188157 6:-0.784734 7:-0.514298 8:-0.798924 9:0.099589 10:-0.857594 11:0.5398 12:-0.725283 13:0.649299 14:-0.447128 15:-0.332171 16:-0.348292 17:-0.791958 18:-0.344817 19:-0.819754 20:-0.771104 21:-0.393535 22:-0.779953 23:0.168066 24:0.149194 25:-0.0385439 26:-0.729966 27:-0.495801 28:-0.497931 29:-0.355403 30:-0.469513 31:-0.386 32:-0.285386 33:-0.753893 34:0.679395 35:0.15357 36:0.283247 37:-0.254317 38:-0.0808092 39:-0.714048 40:0.739381 
2.969852107542449 1:0.839107 2:-0.199718 3:-0.624712 4:-0.314802 5:-0.183389 6:-0.52642 7:-0.644766 8:-0.591588 9:0.930503 10:-0.463743 11:-0.229324 12:0.749152 13:-0.0443698 14:-0.269526 15:-0.421293 16:-0.351872 17:-0.686314 18:-0.548938 19:-0.403947 20:-0.694845 21:-0.528362 22:-0.614289 23:0.102336 24:0.271721 25:0.265255 26:-0.748326 27:-0.218327 28:-0.532299 29:-0.561132 30:-0.495618 31:-0.430643 32:-0.325806 33:-0.800814 34:0.0916549 35:0.207518 36:0.84656 37:-0.529027 38:-0.356116 39:-0.905441 40:0.720615 
0.9627907037972796 1:0.54568 2:-0.753312 3:-0.633205 4:-0.864634 5:-0.763212 6:-0.606117 7:-0.902287 8:-0.336834 9:0.777484 10:0.27789 11:-0.259603 12:0.293693 13:-0.34018 14:-0.791815 15:-0.850724 16:-0.765868 17:-0.801532 18:-0.596639 19:-0.848242 20:-0.781737 21:-0.644459 22:-0.852318 23:0.128883 24:0.020926 25:0.213944 26:-0.67041 27:-0.650437 28:-0.788034 29:-0.609208 30:-0.669961 31:-0.627881 32:0.806742 33:0.821518 34:-0.561486 35:-0.395634 36:-0.431707 37:0.470841 38:-0.0695901 39:-0.062626 40:0.0461551 
11.28885149330864 1:-0.911376 2:-0.784045 3:-0.888616 4:-0.941789 5:-0.828549 6:-0.902427 7:-0.959436 8:-0.147321 9:0.192183 10:0.122971 11:-0.802613 12:-0.576618 13:-0.856934 14:-0.82081 15:-0.952975 16:-0.895038 17:-0.969364 18:-0.969734 19:-0.959497 20:-0.969462 21:-0.961528 22:-0.962034 23:-0.129803 24:-0.417578 25:0.25376 26:-0.883188 27:-0.302583 28:-0.740695 29:-0.98524 30:-0.978743 31:-0.964111 32:0.197377 33:0.660973 34:0.144037 35:-0.498832 36:0.22461 37:0.423961 38:0.111776 39:0.0602726 40:0.625568 
2.525779944754921 1:-0.970305 2:-0.649624 3:-0.798648 4:-0.837165 5:-0.709554 6:-0.859844 7:-0.901468 8:-0.332419 9:0.130233 10:-0.159972 11:-0.467473 12:-0.870218 13:-0.840995 14:-0.69399 15:-0.901072 16:-0.808968 17:-0.739261 18:-0.776561 19:-0.708085 20:-0.749566 21:-0.818696 22:-0.709565 23:0.0372102 24:0.345593 25:-0.287772 26:-0.928066 27:-0.609889 28:-0.72039 29:-0.790546 30:-0.67686 31:-0.714746 32:-0.318512 33:-0.503771 34:0.8841 35:-0.0611695 36:-0.183634 37:-0.374669 38:0.56249 39:0.512342 40:0.257516 
7.701134592178601 1:-0.883451 2:-0.873222 3:-0.804645 4:-0.960968 5:-0.885134 6:-0.872254 7:-0.965665 8:-0.546136 9:-0.0482883 10:-0.255323 11:-0.0628642 12:-0.767104 13:-0.614845 14:-0.904944 15:-0.943542 16:-0.91668 17:-0.878705 18:-0.861292 19:-0.753147 20:-0.903484 21:-0.895534 22:-0.694696 23:0.155408 24:0.342915 25:-0.512543 26:-0.781909 27:-0.47002 28:-0.0562211 29:-0.849025 30:-0.792467 31:-0.809898 32:-0.434484 33:-0.445242 34:0.715562 35:-0.115897 36:-0.530985 37:0.484538 38:-0.615751 39:-0.415829 40:0.266112 
6.166012716314795 1:-0.0375243 2:-0.648711 3:-0.91339 4:-0.908758 5:-0.584057 6:-0.930472 7:-0.941578 8:0.695923 9:-0.190165 10:0.0858994 11:0.237873 12:-0.805024 13:-0.913121 14:-0.693129 15:-0.819356 16:-0.745981 17:-0.430819 18:-0.167196 19:-0.522867 20:-0.673695 21:-0.334947 22:-0.354781 23:0.0187066 24:0.420272 25:-0.521236 26:-0.888153 27:-0.299248 28:-0.0969083 29:-0.176384 30:-0.238486 31:-0.17898 32:0.508361 33:0.812734 34:-0.835112 35:-0.465125 36:-0.575968 37:0.809493 38:0.696024 39:0.46036 40:0.166655 
0.5314822754546612 1:0.860845 2:0.0547345 3:-0.147738 4:-0.213962 5:-0.0337784 6:-0.450476 7:-0.513734 8:-0.0900012 9:0.224424 10:0.252769 11:-0.578765 12:-0.722589 13:-0.770969 14:-0.0294625 15:-0.540832 16:-0.23195 17:0.487762 18:0.405837 19:-0.388201 20:0.0148831 21:-0.0792809 22:-0.342788 23:0.331712 24:0.619136 25:-0.0785783 26:-0.704229 27:0.0499609 28:-0.693108 29:0.40116 30:0.0240537 31:0.409204 32:-0.614755 33:-0.771344 34:0.861105 35:0.41561 36:0.846257 37:-0.565403 38:-0.120865 39:0.203395 40:0.288272 
0.3044545251593759 1:-0.52477 2:-0.423189 3:-0.145473 4:-0.549492 5:-0.549177 6:0.0201148 7:-0.708264 8:0.348782 9:-0.967794 10:-0.216908 11:-0.717933 12:0.918701 13:-0.68012 14:-0.48036 15:-0.527777 16:-0.397459 17:-0.226024 18:-0.357788 19:-0.50795 20:-0.450621 21:-0.67337 22:-0.485618 23:0.104332 24:-0.0316341 25:-0.183732 26:-0.895249 27:-0.963945 28:-0.857578 29:-0.363064 30:-0.42644 31:-0.252082 32:-0.426918 33:0.39173 34:-0.568448 35:0.394529 36:0.370706 37:-0.334793 38:-0.0677545 39:0.160888 40:-0.823132 
3.212635484998197 1:0.690846 2:-0.295661 3:-0.395254 4:-0.550453 5:-0.412365 6:-0.478163 7:-0.705239 8:0.1061 9:0.792399 10:0.0411984 11:-0.743772 12:0.456548 13:-0.701409 14:-0.360043 15:-0.665692 16:-0.494101 17:-0.528055 18:-0.552634 19:-0.526286 20:-0.482501 21:-0.602552 22:-0.668713 23:-0.236107 24:-0.474963 25:-0.457332 26:-0.349483 27:-0.39129 28:-0.3222 29:-0.564857 30:-0.287153 31:-0.404586 32:0.298608 33:0.0349328 34:0.101112 35:-0.773519 36:-0.677101 37:-0.767319 38:0.531533 39:0.586486 40:0.598586 
5.640095283557842 1:0.196809 2:-0.722246 3:-0.61537 4:-0.657673 5:-0.725884 6:-0.718895 7:-0.799984 8:0.0239513 9:0.275401 10:-0.0227799 11:-0.568238 12:-0.759804 13:-0.903187 14:-0.686673 15:-0.896001 16:-0.742313 17:0.0646021 18:-0.464695 19:-0.694619 20:-0.0430217 21:-0.7166 22:-0.750899 23:-0.0634051 24:-0.00358368 25:0.0685656 26:-0.941203 27:-0.960061 28:-0.969378 29:-0.117695 30:-0.325005 31:-0.175437 32:-0.0620984 33:0.053124 34:0.0525634 35:-0.925281 36:-0.865607 37:0.854459 38:-0.0658678 39:0.0664315 40:0.105591 
0.4501922950188393 1:0.733887 2:-0.237171 3:-0.322928 4:-0.697499 5:-0.26708 6:-0.154667 7:-0.803483 8:-0.358092 9:0.986678 10:-0.322431 11:-0.329232 12:0.870677 13:-0.54703 14:-0.304861 15:-0.413634 16:-0.372117 17:-0.174825 18:-0.706196 19:-0.514373 20:-0.748719 21:-0.759386 22:-0.47212 23:0.0517958 24:-0.348998 25:-0.704209 26:-0.722906 27:-0.624715 28:0.0981672 29:-0.319838 30:-0.389707 31:-0.425678 32:0.251108 33:0.349868 34:0.562338 35:-0.650572 36:-0.675357 37:-0.888269 38:0.702202 39:0.47296 40:0.624764 
10.8959492798276 1:-0.171045 2:-0.655386 3:-0.749821 4:-0.812921 5:-0.699791 6:-0.799496 7:-0.89667 8:0.168228 9:-0.434156 10:-0.00926819 11:-0.483923 12:-0.178456 13:-0.99225 14:-0.699426 15:-0.866093 16:-0.787113 17:-0.814103 18:-0.85662 19:-0.750868 20:-0.816086 21:-0.936307 22:-0.653431 23:0.102516 24:0.201449 25:-0.553431 26:-0.767499 27:-0.747876 28:-0.039093 29:-0.847478 30:-0.747902 31:-0.771876 32:0.0699896 33:0.313509 34:-0.10154 35:-0.298492 36:-0.376854 37:-0.0297006 38:0.573308 39:0.461489 40:-0.181754 
1.605384223731565 1:-0.14847 2:-0.555409 3:-0.55579 4:-0.907108 5:-0.554208 6:-0.690489 7:-0.948029 8:0.425375 9:-0.412922 10:-0.0554257 11:-0.220574 12:-0.332851 13:-0.880589 14:-0.605103 15:-0.770833 16:-0.701426 17:-0.952631 18:-0.916455 19:-0.35267 20:-0.956825 21:-0.905899 22:-0.300938 23:0.118111 24:0.877726 25:-0.402619 26:-0.842053 27:0.61866 28:-0.15512 29:-0.577297 30:-0.658773 31:-0.631124 32:-0.110109 33:0.623797 34:-0.808329 35:0.0280925 36:-0.562964 37:0.711341 38:0.160959 39:-0.0560564 40:0.166828 
