svm_type c_svc
kernel_type rbf
gamma 1
nr_class 2
total_sv 295
rho -1.34264
label 1 -1
nr_sv 148 147
SV
5 1:0.708806 
5 1:-0.21258978 
5 1:0.11598725 
5 1:0.92927702 
5 1:-0.88069181 
5 1:0.94517204 
5 1:0.98589125 
5 1:-0.95585191 
5 1:-0.85222782 
5 1:0.97392726 
5 1:0.97668573 
2.919706421770488 1:0.028102899 
5 1:0.98050306 
5 1:0.98279356 
5 1:0.94503131 
5 1:-0.95459118 
5 1:-0.037481963 
5 1:-0.90203741 
5 1:0.94971382 
5 1:-0.054076101 
5 1:-0.95800989 
5 1:0.91320321 
5 1:0.87374125 
5 1:0.06133419 
5 1:0.23206071 
5 1:-0.85376345 
5 1:-0.95680719 
5 1:-0.0024257563 
5 1:-0.933907 
5 1:-0.0013390757 
5 1:-0.10228159 
5 1:0.95523328 
5 1:0.1429625 
5 1:0.15214092 
5 1:0.076595822 
5 1:0.08623561 
5 1:-0.073755963 
5 1:0.066713342 
5 1:0.050776181 
5 1:-0.93803284 
5 1:0.073504272 
5 1:-0.28385327 
5 1:-0.071697853 
5 1:0.11500485 
5 1:-0.11233447 
5 1:-0.8232685 
5 1:-0.076137451 
5 1:0.95516454 
5 1:0.99444402 
5 1:-0.10412691 
5 1:1 
5 1:0.19339443 
5 1:0.91118967 
5 1:-0.19373484 
5 1:0.049080273 
5 1:-0.063425899 
5 1:-0.071425127 
5 1:-0.87020599 
5 1:0.95329721 
5 1:-0.011154636 
5 1:0.065506986 
5 1:-0.9361263 
5 1:-0.95592538 
5 1:-0.11407133 
5 1:-0.89907849 
4.64260917183997 1:0.048511875 
5 1:-0.93001235 
5 1:0.86368691 
5 1:-0.96693504 
5 1:0.71817368 
5 1:0.21129032 
5 1:-0.9423404 
5 1:-0.061284564 
5 1:0.83839402 
5 1:0.51781931 
5 1:0.91100133 
5 1:0.99236394 
5 1:-0.8003242 
5 1:0.050398264 
5 1:-0.9323859 
5 1:0.99640001 
5 1:0.74061847 
5 1:0.056959638 
5 1:0.94923968 
5 1:-0.040390602 
5 1:-0.83985153 
5 1:0.90249523 
5 1:-0.54800709 
5 1:-0.098567034 
5 1:0.99842658 
5 1:-0.19765067 
5 1:0.23773253 
5 1:0.95448635 
5 1:0.1296747 
5 1:0.69191949 
5 1:0.96965765 
5 1:0.14234469 
5 1:0.080543931 
5 1:0.87194472 
5 1:-0.95070884 
5 1:-0.93408516 
5 1:0.72119203 
5 1:0.99704403 
5 1:0.15375708 
5 1:-0.075329735 
5 1:0.1405799 
5 1:-0.080020728 
5 1:-0.034251976 
5 1:0.0079985261 
5 1:0.049386633 
5 1:0.055737899 
5 1:-0.94950391 
5 1:0.087919419 
5 1:0.14482857 
5 1:-0.94229625 
5 1:0.99828923 
0.7762632488508321 1:-0.96755132 
5 1:0.1093652 
5 1:0.91300981 
5 1:0.07261109 
5 1:0.1313252 
5 1:0.022607126 
5 1:0.17655282 
5 1:0.92152804 
5 1:-0.66815275 
5 1:-0.073479413 
5 1:0.091059314 
5 1:-0.92691614 
5 1:0.9995086 
5 1:-0.11920799 
5 1:-0.19063969 
5 1:0.16105701 
5 1:-0.94201679 
5 1:0.068015228 
5 1:0.88870506 
5 1:0.15219248 
5 1:-0.050047173 
5 1:0.93025725 
5 1:0.018653438 
5 1:-0.038895108 
5 1:0.003498358 
5 1:-0.80190878 
5 1:0.089741318 
5 1:0.083774637 
5 1:0.096994154 
5 1:-0.93270441 
5 1:0.081618114 
5 1:-0.83922539 
-5 1:-0.081505247 
-5 1:-0.062164193 
-5 1:-0.62813884 
-5 1:-0.96297314 
-5 1:-0.034527628 
-5 1:0.94264895 
-5 1:0.981948 
-5 1:-0.035097568 
-5 1:-0.21267051 
-5 1:0.90028913 
-5 1:0.91374121 
-5 1:-0.22666723 
-5 1:0.53147739 
-5 1:0.20558993 
-5 1:-0.038802243 
-5 1:-0.91842901 
-5 1:-0.028857035 
-5 1:0.89721121 
-5 1:-0.043989971 
-5 1:-0.69635811 
-5 1:-0.3037081 
-3.338578842461288 1:0.89708524 
-5 1:-0.39910383 
-5 1:-0.98874121 
-5 1:-0.062730125 
-5 1:0.015240063 
-5 1:0.66344564 
-5 1:-0.96566822 
-5 1:-0.50699568 
-5 1:0.43475072 
-5 1:-0.65078401 
-5 1:0.96686125 
-5 1:0.6798416 
-5 1:0.90990604 
-5 1:0.080512654 
-5 1:-0.069953267 
-5 1:0.98023857 
-5 1:-0.10378728 
-5 1:0.41153246 
-5 1:0.96567881 
-5 1:-0.97787583 
-5 1:0.96879385 
-5 1:-0.051998584 
-5 1:0.023024066 
-5 1:0.91128002 
-5 1:0.96658062 
-5 1:-0.11872549 
-5 1:0.14238386 
-5 1:0.076876451 
-5 1:0.17752708 
-5 1:0.72329285 
-5 1:-0.038091309 
-5 1:0.93125511 
-5 1:-0.99108129 
-5 1:0.96630943 
-5 1:-0.17491935 
-5 1:-0.019704214 
-5 1:-0.98656624 
-5 1:0.73577676 
-5 1:0.31090034 
-5 1:-0.05242249 
-5 1:-0.95065541 
-5 1:-0.93013979 
-5 1:-0.098432979 
-5 1:0.10150947 
-5 1:-0.81317328 
-5 1:0.90541147 
-5 1:-0.93916795 
-5 1:0.23676868 
-5 1:0.92266431 
-5 1:-0.057757896 
-5 1:-0.044321058 
-5 1:-0.067897537 
-5 1:0.12791178 
-5 1:0.58578586 
-5 1:-0.12722681 
-5 1:-0.94330675 
-5 1:-0.95303269 
-5 1:0.71134627 
-5 1:-0.98038874 
-5 1:0.1178555 
-5 1:-0.025933212 
-5 1:-0.042127988 
-5 1:0.43654731 
-5 1:0.91660952 
-5 1:-0.64294929 
-5 1:0.75693707 
-5 1:0.9796599 
-5 1:-0.034929325 
-5 1:0.95554772 
-5 1:0.95302488 
-5 1:0.51065195 
-5 1:-0.048466429 
-5 1:-0.044724179 
-5 1:-0.84486943 
-5 1:0.081318833 
-5 1:-0.06319249 
-5 1:0.7122655 
-5 1:0.051833145 
-5 1:-0.066273468 
-5 1:0.51004776 
-5 1:-0.92989193 
-5 1:0.56009143 
-5 1:0.21965547 
-5 1:-0.096166503 
-5 1:-0.22039138 
-5 1:0.90917543 
-5 1:-0.052220126 
-5 1:-0.031364397 
-5 1:-0.97508157 
-5 1:0.34487248 
-5 1:0.10992243 
-5 1:-0.97804125 
-5 1:0.70949852 
-5 1:-0.046989065 
-5 1:0.97257469 
-5 1:0.66250535 
-5 1:0.98082561 
-5 1:-0.84158583 
-5 1:0.32913514 
-5 1:-0.98645324 
-5 1:-0.081857263 
-5 1:0.058507649 
-5 1:-0.0073199368 
-5 1:-0.040732465 
-5 1:-0.75099444 
-5 1:-0.058141596 
-5 1:-0.76193128 
-5 1:0.99487489 
-5 1:0.93639333 
-5 1:0.94788406 
-5 1:-0.04096214 
-5 1:0.96774111 
-5 1:-0.051201496 
-5 1:0.92325699 
-5 1:-0.061089714 
-5 1:-0.22128036 
-5 1:-0.12289065 
-5 1:0.98331281 
-5 1:-0.97338819 
-5 1:-0.99157081 
-5 1:0.094651129 
-5 1:-0.33819364 
-5 1:-0.97012309 
-5 1:-0.18406274 
-5 1:-0.87521067 
-5 1:0.93132937 
