svm_type c_svc
kernel_type rbf
gamma 1
nr_class 2
total_sv 302
rho -0.538656
label 1 -1
nr_sv 151 151
SV
1 1:-0.11407133 
1 1:-0.88069181 
1 1:0.032147619 
1 1:-0.89907849 
1 1:-0.85222782 
1 1:0.049386633 
1 1:-0.8003242 
1 1:-0.10412691 
1 1:0.048511875 
1 1:-0.95800989 
1 1:0.081618114 
1 1:-0.9361263 
1 1:0.068078707 
1 1:0.91300981 
1 1:-0.95585191 
1 1:-0.076137451 
1 1:0.024942881 
1 1:0.21129032 
1 1:0.16105701 
1 1:0.202696 
1 1:0.94923968 
1 1:0.19021869 
1 1:-0.011154636 
0.63229804925732 1:-0.28385327 
1 1:-0.83985153 
1 1:1 
1 1:0.23206071 
1 1:0.10449349 
1 1:0.95523328 
1 1:0.99640001 
1 1:0.050398264 
1 1:-0.95459118 
1 1:0.99828923 
1 1:-0.96693504 
1 1:0.091059314 
1 1:0.96965765 
1 1:0.076595822 
1 1:0.087919419 
1 1:0.028102899 
1 1:-0.66815275 
1 1:0.99236394 
1 1:-0.80190878 
1 1:-0.85376345 
1 1:-0.071425127 
1 1:0.95448635 
1 1:-0.061284564 
1 1:-0.038819919 
1 1:-0.054076101 
1 1:0.98279356 
1 1:0.92152804 
1 1:0.63711438 
1 1:0.11598725 
1 1:-0.94229625 
1 1:0.9995086 
1 1:0.029260054 
1 1:-0.95680719 
1 1:0.050776181 
1 1:-0.018237277 
1 1:0.28073464 
1 1:0.066713342 
1 1:-0.93803284 
1 1:-0.9423404 
1 1:-0.0013390757 
1 1:-0.034251976 
1 1:-0.098567034 
1 1:0.1405799 
1 1:-0.95592538 
1 1:0.74061847 
1 1:0.95329721 
1 1:-0.92691614 
1 1:0.708806 
1 1:0.018653438 
1 1:0.23773253 
1 1:0.022607126 
1 1:-0.075329735 
1 1:-0.050047173 
1 1:0.08623561 
1 1:-0.83922539 
1 1:0.90249523 
1 1:-0.073479413 
1 1:0.0079985261 
1 1:0.065506986 
1 1:0.91320321 
1 1:-0.8232685 
1 1:0.15375708 
1 1:-0.038895108 
1 1:0.06133419 
1 1:0.69191949 
1 1:0.99704403 
1 1:-0.040390602 
1 1:0.1429625 
1 1:0.98589125 
1 1:0.083774637 
1 1:-0.95070884 
1 1:0.039614213 
1 1:0.71817368 
1 1:0.99842658 
1 1:0.19339443 
1 1:-0.933907 
1 1:0.91118967 
1 1:0.91100133 
1 1:-0.93270441 
1 1:-0.93408516 
1 1:0.83839402 
1 1:0.1093652 
1 1:0.86368691 
1 1:0.98050306 
1 1:0.95516454 
1 1:-0.075486938 
0.2997675566255004 1:-0.96755132 
1 1:0.89256927 
1 1:0.97392726 
1 1:-0.94950391 
1 1:0.94503131 
1 1:0.07261109 
1 1:0.92927702 
1 1:0.72119203 
1 1:0.18438848 
1 1:0.15219248 
1 1:0.14482857 
1 1:-0.10228159 
1 1:0.97668573 
1 1:0.94517204 
1 1:0.11500485 
1 1:-0.90203741 
1 1:-0.037481963 
1 1:0.17655282 
1 1:0.003498358 
1 1:0.068015228 
1 1:0.035464634 
1 1:-0.11233447 
1 1:0.14234469 
1 1:0.032814257 
1 1:-0.071697853 
1 1:0.1313252 
1 1:-0.87020599 
1 1:-0.080020728 
1 1:0.021845628 
1 1:0.073504272 
1 1:-0.0024257563 
1 1:0.93025725 
1 1:0.080543931 
1 1:0.15214092 
1 1:0.25814889 
1 1:0.023886379 
1 1:0.039373907 
1 1:0.033333745 
1 1:0.82743342 
1 1:-0.54800709 
1 1:0.089741318 
1 1:-0.063425899 
-1 1:0.84271483 
-1 1:0.86253178 
-1 1:-0.22128036 
-1 1:-0.05242249 
-1 1:-0.044321058 
-1 1:-0.10378728 
-1 1:-0.025933212 
-1 1:-0.028857035 
-1 1:-0.019704214 
-1 1:-0.84486943 
-1 1:0.98331281 
-1 1:0.023024066 
-1 1:-0.99157081 
-1 1:0.32913514 
-1 1:-0.026326053 
-1 1:0.87351569 
-1 1:-0.051998584 
-1 1:-0.01217019 
-1 1:0.82856466 
-1 1:-0.97338819 
-1 1:0.89178809 
-1 1:0.99487489 
-0.002286057217955033 1:0.97257469 
-1 1:0.43654731 
-1 1:0.058507649 
-1 1:-0.21267051 
-1 1:-0.17491935 
-1 1:-0.061089714 
-1 1:-0.64294929 
-1 1:0.89708524 
-1 1:-0.038091309 
-1 1:-0.042127988 
-1 1:0.51065195 
-1 1:-0.96566822 
-1 1:-0.98645324 
-1 1:-0.096166503 
-1 1:-0.95303269 
-1 1:0.84667339 
-1 1:-0.067897537 
-1 1:-0.76193128 
-1 1:-0.042712702 
-1 1:-0.051201496 
-1 1:0.70949852 
-1 1:-0.22666723 
-1 1:0.81539705 
-1 1:0.88646207 
-1 1:0.10992243 
-1 1:-0.031364397 
-1 1:0.34487248 
-1 1:0.981948 
-1 1:0.076876451 
-1 1:-0.046989065 
-1 1:0.88475043 
-1 1:0.72329285 
-1 1:-0.038802243 
-1 1:0.82146054 
-1 1:-0.22039138 
-1 1:-0.069953267 
-1 1:0.87605147 
-1 1:-0.84158583 
-1 1:-0.035097568 
-1 1:0.98023857 
-1 1:-0.91842901 
-1 1:-0.029622899 
-1 1:-0.19099925 
-1 1:-0.94330675 
-1 1:-0.96297314 
-1 1:-0.99108129 
-1 1:0.12791178 
-1 1:0.81798294 
-1 1:-0.041692402 
-1 1:0.094651129 
-1 1:-0.064691215 
-1 1:0.88839489 
-1 1:-0.12289065 
-1 1:-0.98874121 
-1 1:-0.058141596 
-0.929779548664865 1:0.89721121 
-1 1:0.015240063 
-1 1:0.6798416 
-1 1:-0.10467873 
-1 1:0.43475072 
-1 1:0.20558993 
-1 1:-0.081857263 
-1 1:-0.97804125 
-1 1:-0.066273468 
-1 1:-0.044724179 
-1 1:0.051833145 
-1 1:0.31090034 
-1 1:0.71134627 
-1 1:-0.048537646 
-1 1:0.98082561 
-1 1:0.8279932 
-1 1:-0.97012309 
-1 1:0.66344564 
-1 1:-0.034929325 
-1 1:0.58578586 
-1 1:0.88656479 
-1 1:0.56009143 
-1 1:0.84036978 
-1 1:-0.073631005 
-1 1:0.10150947 
-1 1:-0.048466429 
-1 1:0.73577676 
-1 1:-0.12722681 
-1 1:-0.062730125 
-1 1:0.1178555 
-1 1:-0.98038874 
-1 1:0.080512654 
-1 1:0.88954217 
-1 1:0.14238386 
-1 1:0.88748088 
-1 1:0.067878505 
-1 1:0.9796599 
-1 1:-0.97787583 
-1 1:-0.052220126 
-1 1:-0.18406274 
-1 1:-0.93013979 
-1 1:0.21965547 
-1 1:-0.90531831 
-1 1:-0.06319249 
-1 1:0.89462781 
-1 1:-0.99913168 
-1 1:-0.92989193 
-1 1:-0.11872549 
-1 1:-0.098432979 
-1 1:0.17752708 
-1 1:-0.87521067 
-1 1:0.35357338 
-1 1:0.83737166 
-1 1:0.66250535 
-1 1:0.87595754 
-1 1:-0.39910383 
-1 1:-0.062164193 
-1 1:0.7122655 
-1 1:0.80235707 
-1 1:-0.62813884 
-1 1:-0.33819364 
-1 1:0.23676868 
-1 1:-0.81317328 
-1 1:0.79981918 
-1 1:-0.65078401 
-1 1:0.41153246 
-1 1:-0.043989971 
-1 1:0.8790394 
-1 1:0.85127028 
-1 1:0.89080141 
-1 1:-0.081505247 
-1 1:-0.034527628 
-1 1:-0.04096214 
-1 1:-0.0073199368 
