svm_type c_svc
kernel_type rbf
gamma 0.162105
nr_class 5
total_sv 542
rho -0.257906 0.266417 0.0758106 -0.0796127 0.406888 0.204297 0.191237 -0.211496 -0.479686 -0.182248
label 1 2 3 4 5
probA -4.42382 -4.054 -3.60077 -3.80609 -4.05136 -3.58178 -4.35602 -1.86993 -3.17446 -3.32194
probB 0.314954 0.26329 0.058185 -0.0566552 0.135396 -0.0814266 -0.18209 -0.114409 -0.315827 0.0896224
nr_sv 107 89 112 123 111
SV
0 0.5631054716521283 0 0.5757142040037073 1:-0.194956 2:-0.00756434 3:0.161862 4:0.139977 5:-0.85188 6:-0.801352 7:-0.780357 8:0.100562 9:-0.20867 10:0.172017 11:-0.644161 12:-0.672129 13:-0.685144 14:-0.704619 15:-0.87181 16:-0.791123 17:0.41563 18:-0.064617 19:-0.0860229 20:-0.228453 21:-0.706789 22:-0.688166 23:-0.365695 24:-0.257935 25:-0.326802 26:-0.401089 27:-0.693746 28:-0.542984 29:-0.554416 30:-0.454671 31:-0.481726 32:-0.677885 33:-0.345111 34:-0.453717 35:0.8929 36:0.392427 37:0.892362 38:-0.6033 39:-0.421077 40:-0.853575 
1.581979953716605 1.817734133104283 1.819752530102779 1.369603563616504 1:0.708744 2:-0.202678 3:0.296694 4:0.0132333 5:-0.872577 6:-0.797029 7:-0.905696 8:-0.383446 9:0.686121 10:0.451616 11:-0.591364 12:0.00864683 13:-0.304425 14:-0.872523 15:-0.865364 16:-0.877987 17:0.345671 18:-0.0534368 19:-0.135843 20:-0.0866817 21:-0.492564 22:-0.71773 23:-0.49104 24:-0.564663 25:-0.378125 26:-0.428302 27:-0.260428 28:-0.625992 29:-0.522048 30:-0.314489 31:-0.355483 32:0.588594 33:0.785344 34:0.356723 35:-0.865875 36:-0.915443 37:-0.402714 38:-0.584292 39:-0.666378 40:0.0974939 
0.7817897346315821 0 0 0 1:0.871509 2:-0.242511 3:0.316353 4:0.0108982 5:-0.839422 6:-0.870602 7:-0.915707 8:-0.713619 9:0.209467 10:0.0144344 11:0.161526 12:-0.874387 13:-0.55382 14:-0.892823 15:-0.888185 16:-0.886207 17:0.36624 18:-0.126329 19:-0.0972177 20:0.247849 21:-0.583484 22:-0.537131 23:-0.232968 24:0.0862903 25:-0.403973 26:-0.559353 27:-0.728527 28:-0.655101 29:-0.252932 30:-0.217741 31:-0.183658 32:0.433617 33:0.384497 34:0.652652 35:-0.449408 36:-0.358259 37:-0.802736 38:-0.0398053 39:0.11988 40:0.0372769 
0 0 0 0.002236357878076016 1:-0.16669 2:-0.332819 3:0.585061 4:0.289409 5:0.254628 6:-0.0841719 7:-0.325345 8:0.442297 9:-0.570788 10:-0.0755424 11:-0.204261 12:0.0853503 13:-0.658703 14:0.246428 15:-0.133953 16:0.0238997 17:0.572523 18:-0.466662 19:0.109787 20:0.895915 21:0.243003 22:0.606589 23:-0.380979 24:0.0110402 25:-0.469367 26:-0.372389 27:-0.79936 28:-0.527203 29:0.349111 30:0.906009 31:0.758995 32:-0.694316 33:-0.615509 34:-0.260385 35:0.790957 36:0.700186 37:0.508788 38:0.238263 39:0.18366 40:-0.00511677 
0.4400678141309854 0.3558003609300249 0.3060164868877059 0.2423644363555845 1:-0.170652 2:-0.170445 3:-0.0045728 4:0.552757 5:0.226217 6:-0.198432 7:-0.117996 8:0.481575 9:-0.808448 10:-0.150332 11:-0.0866555 12:0.522417 13:-0.403952 14:0.220453 15:-0.0476412 16:0.0992791 17:0.148583 18:-0.695487 19:1 20:0.361141 21:-0.205243 22:-0.244059 23:0.668337 24:0.0859114 25:-0.322933 26:0.135815 27:-0.908122 28:-0.74978 29:0.519946 30:-0.0566471 31:0.56985 32:0.512188 33:0.0511022 34:-0.212289 35:-0.760221 36:-0.130097 37:0.0447363 38:0.817727 39:0.424617 40:0.668872 
0.09546999686424834 0.724448175272127 0.7031470721501323 0.6694175119275042 1:-0.435094 2:-0.375298 3:0.193809 4:0.109875 5:-0.363589 6:-0.198752 7:-0.285892 8:-0.174656 9:-0.652104 10:-0.0618683 11:-0.862761 12:0.265667 13:-0.364489 14:-0.09479 15:-0.476686 16:-0.218265 17:0.171097 18:-0.78765 19:-0.0153846 20:1 21:0.243117 22:1 23:-0.0110341 24:-0.0877686 25:-0.643936 26:-0.567039 27:-0.773595 28:-0.134512 29:0.38728 30:1 31:1 32:0.251188 33:0.3698 34:0.504576 35:0.619217 36:0.545304 37:0.443409 38:-0.90962 39:-0.650746 40:-0.43967 
0.6422343627661444 1.143596619354235 1.663366573220048 1.228635028569374 1:0.876539 2:-0.82794 3:0.787089 4:0.470862 5:-0.207766 6:-0.542149 7:-0.372079 8:-0.685251 9:0.437865 10:0.260733 11:0.136433 12:-0.490075 13:-0.0189951 14:-0.282412 15:-0.244771 16:-0.235529 17:0.449225 18:-0.132948 19:-0.790376 20:-0.264024 21:0.911197 22:-0.0115693 23:-0.095426 24:0.0979496 25:-0.135127 26:-0.893307 27:-0.931722 28:-0.966728 29:0.78839 30:0.0338964 31:0.586502 32:-0.544924 33:-0.660633 34:0.597916 35:0.622586 36:0.799048 37:-0.734699 38:0.0818733 39:-0.0214896 40:0.193387 
1.249117480423516 1.109072338867785 0.7090857170366088 0.3887278090621266 1:-0.137435 2:-0.300471 3:0.22192 4:-0.468822 5:0.294527 6:0.0421019 7:0.267664 8:0.152804 9:-0.496849 10:-0.559477 11:-0.527973 12:-0.371031 13:-0.00577957 14:0.520012 15:0.144131 16:0.387647 17:0.165969 18:-0.780148 19:0.487594 20:-0.325241 21:-0.321045 22:-0.659438 23:-0.793185 24:0.146198 25:-0.0236104 26:-0.0158863 27:-0.779113 28:-0.841725 29:-0.0312329 30:-0.202114 31:0.060039 32:-0.685431 33:-0.678309 34:-0.771323 35:0.82269 36:0.617326 37:0.692686 38:0.522206 39:0.278041 40:0.370218 
0.8809517335577871 0.7850391584786447 0.5160171039324003 0.5921438772574538 1:-0.145864 2:-0.396347 3:0.172869 4:0.166004 5:0.535278 6:0.0683224 7:0.0379429 8:0.460658 9:-0.296816 10:0.276822 11:0.029947 12:-0.407218 13:-0.559777 14:0.404075 15:-0.033089 16:0.34637 17:0.396593 18:-0.586334 19:0.0775123 20:0.429904 21:-0.199044 22:0.959264 23:0.0726838 24:0.0325595 25:-0.554533 26:-0.652813 27:-0.911778 28:-0.373638 29:0.60343 30:0.311502 31:0.639676 32:-0.685077 33:-0.0554833 34:-0.14431 35:0.671888 36:0.182947 37:0.535118 38:-0.195332 39:-0.394794 40:-0.499991 
0.4834217253038282 0.5805952693209964 0.3319398477880734 0.6243160290739322 1:0.882695 2:-0.60716 3:0.854617 4:0.442514 5:-0.153058 6:-0.55167 7:-0.516359 8:-0.50337 9:0.33633 10:0.0782167 11:-0.109431 12:-0.702311 13:-0.113437 14:-0.27413 15:-0.353354 16:-0.300896 17:0.22084 18:-0.308668 19:-0.235417 20:0.486213 21:-0.0342283 22:0.831404 23:-0.228097 24:0.0355084 25:-0.497033 26:-0.461326 27:-0.868444 28:-0.460539 29:0.282273 30:0.462944 31:0.591487 32:0.771508 33:0.239923 34:0.514934 35:-0.465003 36:-0.463707 37:-0.648752 38:-0.640987 39:0.0383373 40:0.0149126 
0.3915958953204136 0.78191360506941 0.6223813668026806 0.5455562482145515 1:-0.0589468 2:0.459621 3:0.150415 4:-0.218536 5:1 6:0.120931 7:0.680251 8:0.568035 9:-0.528564 10:-0.684203 11:0.0494115 12:-0.148138 13:0.382534 14:0.789738 15:0.759505 16:0.916706 17:0.289032 18:-0.19032 19:-0.214534 20:0.56875 21:-0.00816504 22:0.958599 23:-0.151188 24:-0.120787 25:-0.590834 26:-0.314858 27:-0.832289 28:-0.342572 29:0.362226 30:0.939101 31:0.664883 32:-0.888034 33:-0.606976 34:-0.737786 35:0.473155 36:0.657405 37:0.907138 38:0.824694 39:0.377785 40:0.46657 
0.4956461974477072 0 0 0.290960789098866 1:-0.264125 2:-0.311397 3:0.326135 4:0.458342 5:-0.534085 6:-0.550747 7:-0.723138 8:0.128002 9:-0.61928 10:0.271474 11:-0.702228 12:0.0883482 13:-0.775392 14:-0.536156 15:-0.749478 16:-0.584212 17:0.380798 18:0.0209996 19:-0.432471 20:0.121515 21:-0.38612 22:-0.291159 23:-0.260183 24:0.315928 25:-0.332451 26:-0.290634 27:-0.640709 28:-0.766048 29:-0.418807 30:-0.192462 31:-0.108673 32:-0.925639 33:-0.737112 34:-0.391144 35:0.860304 36:0.426288 37:0.488838 38:0.256358 39:0.463722 40:-0.530719 
2.130530564529556 0 0 0 1:-0.15492 2:-0.327267 3:0.280215 4:0.470637 5:-0.874241 6:-0.897744 7:-0.684624 8:0.215492 9:-0.0513798 10:0.458818 11:-0.737564 12:-0.710084 13:-0.466216 14:-0.625192 15:-0.814678 16:-0.724346 17:0.494371 18:0.0802104 19:-0.226514 20:-0.188995 21:-0.536865 22:-0.732036 23:-0.475831 24:0.223037 25:-0.435067 26:0.0136795 27:-0.623388 28:-0.495059 29:-0.571062 30:-0.465931 31:-0.424921 32:-0.714945 33:-0.318353 34:-0.466026 35:0.497587 36:0.129573 37:0.107778 38:-0.692656 39:-0.263113 40:-0.930258 
0.5447234969950484 0.2278525227012636 0 0 1:-0.0731716 2:-0.0461369 3:0.0790258 4:-0.0888485 5:-0.158536 6:-0.733176 7:-0.47481 8:0.980573 9:-0.602791 10:-0.535135 11:0.947442 12:-0.02144 13:0.0248214 14:-0.413235 15:-0.310397 16:-0.337169 17:0.407556 18:-0.0479938 19:-0.22239 20:-0.139787 21:-0.514033 22:-0.748053 23:-0.347468 24:0.00147428 25:-0.452585 26:-0.37342 27:-0.79674 28:-0.571283 29:-0.513473 30:-0.409629 31:-0.40101 32:-0.723163 33:-0.375615 34:-0.535054 35:0.753443 36:0.4258 37:0.711479 38:0.702848 39:0.57923 40:0.0912333 
1.497677691339499 0 0 0.4470682165315428 1:-0.376747 2:-0.547005 3:0.176681 4:-0.0654575 5:-0.735511 6:-0.557121 7:-0.427442 8:0.0108319 9:-0.686514 10:-0.606092 11:-0.73017 12:0.251337 13:0.199725 14:-0.373844 15:-0.542471 16:-0.472533 17:0.486297 18:0.000330982 19:-0.39928 20:0.144755 21:-0.238913 22:-0.304532 23:-0.349566 24:-0.189915 25:-0.325959 26:-0.421094 27:-0.578112 28:-0.734147 29:-0.316911 30:-0.0619327 31:-0.0558962 32:-0.846707 33:-0.688955 34:0.0783543 35:0.806817 36:0.650665 37:0.266846 38:0.616546 39:0.758091 40:-0.21181 
0.6850159684156654 0 0.1136850829635876 0.3167893094905789 1:-0.111773 2:0.199777 3:0.102615 4:-0.574534 5:0.0615835 6:-0.450919 7:-0.0126265 8:0.776469 9:-0.631523 10:-0.669842 11:0.408918 12:-0.0227978 13:0.325657 14:0.0506611 15:0.113802 16:0.0700039 17:0.289385 18:-0.382663 19:-0.381735 20:0.346064 21:0.115529 22:-0.269664 23:-0.040446 24:-0.114555 25:-0.361811 26:-0.61701 27:-0.607757 28:-0.741423 29:-0.0688974 30:0.0217166 31:0.216816 32:-0.58037 33:-0.726102 34:-0.396924 35:0.486181 36:0.559578 37:0.410689 38:0.109674 39:0.515322 40:-0.0576069 
0.6289861489762456 0.5738466314796795 0.09842067822910977 0.2550898004465274 1:-0.0558299 2:0.0791472 3:0.216871 4:0.076194 5:-0.219773 6:-0.758106 7:-0.528635 8:0.910031 9:-0.343462 10:-0.320327 11:0.758987 12:-0.51982 13:-0.213398 14:-0.474366 15:-0.412845 16:-0.391773 17:0.397301 18:0.0277665 19:0.0678887 20:-0.433178 21:-0.401265 22:-0.762085 23:0.749803 24:0.178129 25:-0.854222 26:0.527049 27:-0.351373 28:0.593414 29:-0.605784 30:-0.318626 31:-0.421091 32:0.842608 33:0.621328 34:-0.923284 35:-0.596449 36:-0.42783 37:0.657323 38:-0.879972 39:-0.925457 40:0.723012 
1.400171423480904 0 0 0.4776841470334057 1:-0.26079 2:-0.231213 3:0.372988 4:0.577889 5:-0.723285 6:-0.691061 7:-0.568472 8:-0.0157242 9:-0.469507 10:0.103418 11:-0.731203 12:-0.213245 13:-0.747864 14:-0.367805 15:-0.753654 16:-0.576563 17:0.532976 18:-0.0888162 19:-0.0316858 20:0.0856358 21:-0.348582 22:-0.837611 23:0.329247 24:0.0831219 25:-0.756515 26:-0.451562 27:-0.632949 28:0.431667 29:-0.425869 30:-0.263243 31:-0.223131 32:0.938554 33:0.947789 34:-0.496991 35:-0.930633 36:-0.859124 37:0.730669 38:0.492042 39:0.347128 40:-0.264544 
1.530509777037739 0.1093092259947636 0.9370153364624599 0.8569930933452096 1:-0.742863 2:-0.217795 3:0.14906 4:0.116009 5:-0.721532 6:-0.669666 7:-0.715092 8:-0.139521 9:-0.642977 10:0.259944 11:-0.292978 12:0.186291 13:-0.62061 14:-0.666103 15:-0.766217 16:-0.692554 17:0.386869 18:-0.00746571 19:-0.220818 20:-0.0317448 21:-0.542968 22:-0.657478 23:-0.275213 24:0.00546522 25:-0.44796 26:-0.497456 27:-0.695595 28:-0.576753 29:-0.467485 30:-0.379294 31:-0.344677 32:-0.0377099 33:0.0927836 34:0.0353385 35:0.771596 36:0.607175 37:0.318596 38:-0.18805 39:-0.157097 40:-0.545885 
0 0 0.3383004678183458 0 1:-0.0633158 2:0.183825 3:0.10213 4:0.0345161 5:0.174682 6:-0.514442 7:-0.285906 8:0.710543 9:-0.5107 10:-0.373788 11:0.364058 12:-0.355982 13:-0.179202 14:-0.148535 15:-0.12677 16:-0.0594294 17:0.390935 18:-0.172594 19:0.0730606 20:-0.12605 21:-0.293366 22:-0.804923 23:0.384465 24:-0.370337 25:0.178823 26:0.0605465 27:-0.455183 28:-0.626379 29:-0.551137 30:-0.288751 31:-0.25704 32:0.825542 33:0.402608 34:0.25556 35:-0.616332 36:-0.262343 37:-0.54093 38:-0.962916 39:-0.862881 40:0.367908 
0 0.2744903927299083 0 0 1:-0.81163 2:-0.530522 3:0.0765996 4:0.31498 5:-0.491814 6:-0.580557 7:-0.211353 8:-0.156114 9:-0.506781 10:0.0631746 11:-0.70645 12:-0.376656 13:-0.590217 14:0.034592 15:-0.50459 16:-0.261369 17:0.355455 18:-0.0232798 19:-0.272209 20:0.687393 21:-0.111715 22:-0.558307 23:-0.0910272 24:-0.16667 25:-0.366377 26:-0.629801 27:-0.494137 28:-0.6992 29:0.090504 30:-0.0906584 31:0.160754 32:-0.29194 33:0.820444 34:0.107652 35:0.770655 36:0.437259 37:0.265304 38:-0.020948 39:0.821069 40:-0.58005 
0.004023083690741195 0.5537034596173485 0.5707499434738615 0.3477768989545095 1:-0.659427 2:-0.238091 3:0.180451 4:0.268766 5:-0.90619 6:-0.784201 7:-0.627222 8:-0.465971 9:-0.438131 10:0.115883 11:-0.59051 12:-0.0635419 13:-0.694325 14:-0.484935 15:-0.881068 16:-0.691056 17:0.372547 18:-0.103159 19:-0.0111293 20:-0.0268054 21:-0.648312 22:-0.791497 23:0.100433 24:-0.103528 25:0.239487 26:-0.463865 27:-0.662932 28:-0.839618 29:-0.439489 30:-0.474894 31:-0.369818 32:0.0931171 33:0.160376 34:-0.295685 35:-0.925884 36:-0.882017 37:0.861657 38:0.181416 39:-0.158391 40:0.2068 
3.66801617282 0.04739584633804792 0 0 1:-0.0735753 2:-0.124703 3:0.286866 4:0.479263 5:-0.906324 6:-0.89344 7:-0.662125 8:-0.0173462 9:0.226536 10:0.205193 11:-0.617941 12:-0.899646 13:-0.645353 14:-0.546878 15:-0.846447 16:-0.713178 17:0.440325 18:0.0472583 19:-0.234304 20:-0.0790273 21:-0.721839 22:-0.794258 23:-0.0655788 24:0.0486085 25:-0.443387 26:-0.524673 27:-0.592519 28:-0.575318 29:-0.458489 30:-0.505688 31:-0.445268 32:-0.784753 33:0.457783 34:-0.098559 35:0.452365 36:0.0200929 37:-0.433769 38:-0.452812 39:0.417152 40:-0.837896 
0.701880191689926 0.1218969443320003 0 0 1:-0.491024 2:-0.32804 3:0.297578 4:0.504095 5:-0.793014 6:-0.647189 7:-0.580295 8:0.0392853 9:-0.860337 10:0.277782 11:-0.474726 12:0.651145 13:-0.713897 14:-0.390787 15:-0.811932 16:-0.598199 17:0.429245 18:-0.175536 19:-0.116137 20:-0.0369017 21:-0.554824 22:-0.933767 23:0.534459 24:-0.0317447 25:0.102503 26:0.166262 27:-0.442448 28:-0.809023 29:-0.526924 30:-0.376077 31:-0.37142 32:0.366624 33:0.280339 34:-0.0819903 35:-0.874687 36:-0.655626 37:0.354718 38:-0.445424 39:-0.677085 40:-0.0781709 
3.166442894385163 2.251235315579974 1.953823298685756 1.18131798787594 1:-0.935347 2:-0.276654 3:0.224312 4:0.197312 5:-0.8629 6:-0.895991 7:-0.797168 8:-0.287642 9:0.434615 10:-0.042001 11:-0.842411 12:-0.473787 13:-0.687205 14:-0.731731 15:-0.919629 16:-0.824031 17:0.481051 18:0.0355632 19:-0.16982 20:-0.506484 21:-0.66893 22:-0.809227 23:0.248744 24:0.206031 25:0.173698 26:-0.368133 27:-0.463934 28:-0.639469 29:-0.737694 30:-0.572331 31:-0.630226 32:-0.210083 33:-0.320829 34:-0.171904 35:0.0752728 36:-0.0810866 37:0.158663 38:0.532037 39:0.321731 40:-0.614916 
0 0.2289881941247798 0.07960369943261016 0.2461505668928878 1:0.90308 2:-0.551239 3:0.343989 4:-0.26741 5:-0.693998 6:-0.826931 7:-0.773282 8:-0.587965 9:0.327268 10:-0.428791 11:-0.189515 12:-0.799925 13:-0.431383 14:-0.737274 15:-0.80685 16:-0.720938 17:0.547946 18:-0.206502 19:-0.400393 20:0.276847 21:-0.459187 22:-0.0297191 23:-0.0216475 24:-0.926563 25:-0.379701 26:-0.550043 27:0.833083 28:-0.734816 29:-0.225608 30:0.166264 31:0.0330722 32:0.649375 33:0.749644 34:0.785831 35:-0.222497 36:-0.424131 37:-0.977022 38:0.0818819 39:-0.33289 40:0.755233 
0 0 0 1.033585075956714 1:-0.120902 2:-0.256013 3:0.29165 4:0.279797 5:-0.736319 6:-0.87207 7:-0.90668 8:0.159446 9:-0.289101 10:0.234102 11:-0.702022 12:-0.496529 13:-0.80224 14:-0.737773 15:-0.895616 16:-0.822338 17:0.983438 18:0.98904 19:-0.504484 20:-0.287444 21:-0.157788 22:-0.719539 23:-0.0593889 24:0.116514 25:-0.186841 26:-0.948423 27:-0.901044 28:-0.920604 29:0.0828535 30:-0.0805469 31:0.162873 32:-0.0450553 33:0.119454 34:-0.147722 35:-0.0240208 36:-0.157702 37:0.265955 38:0.4829 39:0.487344 40:-0.733954 
2.257777155837599 1.393810646000502 0.9998482033376463 3.66801617282 1:0.846347 2:-0.254667 3:0.337014 4:0.136419 5:-0.828619 6:-0.879248 7:-0.892998 8:-0.258817 9:0.114054 10:0.39981 11:-0.728647 12:-0.866708 13:-0.478737 14:-0.829238 15:-0.880295 16:-0.867609 17:0.314788 18:-0.222905 19:-0.0895581 20:-0.540844 21:-0.522573 22:-0.541834 23:-0.397576 24:-0.385918 25:-0.290937 26:-0.61276 27:-0.366795 28:-0.801684 29:-0.590735 30:-0.383431 31:-0.457859 32:0.885352 33:0.916214 34:0.738765 35:-0.875891 36:-0.862975 37:-0.646191 38:-0.178877 39:-0.214197 40:-0.355863 
0 2.069374828437812 2.689853624931728 1.584144206409475 1:-0.0148555 2:-0.208951 3:0.317391 4:0.224944 5:-0.571098 6:-0.836947 7:-0.779596 8:-0.0456774 9:0.197265 10:0.288855 11:-0.806523 12:-0.86118 13:-0.695195 14:-0.532179 15:-0.821513 16:-0.689789 17:0.564567 18:0.413262 19:-0.513388 20:-0.466272 21:-0.321367 22:-0.836388 23:-0.330659 24:-0.074003 25:-0.204884 26:-0.659209 27:-0.73806 28:-0.708664 29:-0.261507 30:-0.446168 31:-0.317891 32:-0.0360073 33:0.0782339 34:-0.240843 35:0.132511 36:0.107524 37:0.255248 38:0.514916 39:0.535277 40:-0.30083 
0 0 0 3.485727117186493 1:0.892077 2:-0.297151 3:0.263243 4:-0.0110771 5:-0.856196 6:-0.916183 7:-0.939461 8:-0.449588 9:0.266858 10:-0.234031 11:-0.350134 12:-0.834201 13:-0.636113 14:-0.889391 15:-0.926597 16:-0.912068 17:0.467083 18:-0.0936707 19:0.119411 20:-0.391356 21:-0.77945 22:-0.809053 23:0.644327 24:0.194615 25:0.162839 26:-0.150312 27:-0.557447 28:-0.352965 29:-0.61209 30:-0.575549 31:-0.528273 32:-0.631947 33:-0.37197 34:0.0155199 35:0.642698 36:0.185391 37:-0.0999436 38:-0.112949 39:0.103848 40:-0.197024 
1.88086485136858 0.9441837792454 1.973196207304895 0.785048806647776 1:0.00133223 2:-0.187058 3:0.412625 4:0.377108 5:-0.713076 6:-0.897581 7:-0.858708 8:-0.0125051 9:0.280571 10:0.257508 11:-0.575026 12:-0.800499 13:-0.784224 14:-0.73117 15:-0.854383 16:-0.783832 17:0.620263 18:0.796918 19:-0.50874 20:-0.825619 21:-0.681558 22:-0.951293 23:0.295054 24:0.20041 25:0.118171 26:-0.663477 27:-0.61569 28:-0.810137 29:-0.136744 30:-0.527519 31:-0.32308 32:-0.105099 33:0.0453454 34:-0.159469 35:0.323461 36:0.15722 37:0.0153585 38:0.748235 39:0.695133 40:-0.314624 
1.136783072967638 1.583323634117603 3.66801617282 3.66801617282 1:0.864881 2:-0.2307 3:0.295541 4:0.118787 5:-0.730313 6:-0.854261 7:-0.87568 8:-0.403483 9:0.433812 10:-0.457402 11:-0.554341 12:-0.536624 13:-0.445239 14:-0.764276 15:-0.872582 16:-0.814498 17:0.423292 18:-0.10441 19:0.164975 20:-0.688351 21:-0.562626 22:-0.590676 23:0.334901 24:0.445414 25:-0.430003 26:-0.698501 27:-0.572931 28:-0.477183 29:-0.442936 30:-0.689532 31:-0.473437 32:-0.6308 33:-0.93224 34:0.967872 35:0.714852 36:0.970691 37:-0.909206 38:-0.717924 39:-0.500368 40:0.183165 
1.38447204842671 2.08054059310812 0 0.2386511041414186 1:-0.0683166 2:-0.4346 3:0.299832 4:-0.229373 5:-0.309318 6:-0.711823 7:-0.432851 8:-0.00194577 9:0.177705 10:-0.760806 11:-0.756176 12:-0.857653 13:0.430525 14:-0.25061 15:-0.508915 16:-0.371355 17:0.78523 18:0.585598 19:-0.427038 20:-0.63131 21:-0.712195 22:-0.775737 23:-0.169137 24:-0.0522097 25:-0.296975 26:-0.884202 27:-0.852176 28:-0.78671 29:-0.378284 30:-0.503619 31:-0.368861 32:0.259587 33:0.188951 34:-0.00333999 35:-0.56309 36:-0.516378 37:0.327958 38:-0.0793026 39:-0.118618 40:0.304452 
0 0.1617603213595313 0.4676038181005991 0.4873197576360199 1:-0.0327543 2:0.176295 3:0.33802 4:-0.343636 5:-0.296406 6:-0.847365 7:-0.54069 8:0.52745 9:0.040397 10:-0.839926 11:-0.173671 12:-0.682081 13:0.641506 14:-0.410455 15:-0.459586 16:-0.428264 17:0.831379 18:1 19:-0.6127 20:-0.427445 21:-0.170612 22:-0.887145 23:0.216509 24:0.314888 25:0.0359818 26:-0.818255 27:-0.758707 28:-0.887695 29:0.0953802 30:-0.118005 31:0.0927203 32:0.570991 33:0.642711 34:0.430529 35:-0.406251 36:-0.447395 37:-0.517381 38:-0.357201 39:-0.430513 40:-0.122409 
0 0.3125306793024821 0.8580543529613984 0.2560304361373822 1:-0.0432084 2:0.314855 3:0.306249 4:-0.170493 5:-0.116185 6:-0.774857 7:-0.469961 8:0.681057 9:-0.19285 10:-0.694557 11:0.13612 12:-0.657237 13:0.364951 14:-0.295342 15:-0.327732 16:-0.302035 17:0.470384 18:0.250561 19:-0.523535 20:-0.190229 21:-0.171363 22:-0.480332 23:-0.158602 24:0.17982 25:-0.117016 26:-0.774442 27:-0.786934 28:-0.884327 29:-0.365589 30:-0.199357 31:-0.149693 32:0.40171 33:0.584874 34:-0.643484 35:-0.370335 36:-0.554815 37:0.636906 38:-0.244395 39:-0.371676 40:0.3343 
0 2.164982359608143 0.8415149153327327 1.365609179407828 1:-0.0906531 2:-0.269403 3:0.228885 4:0.0583358 5:-0.605325 6:-0.842775 7:-0.752922 8:0.0706853 9:-0.0785468 10:0.224402 11:-0.676133 12:-0.83544 13:-0.711142 14:-0.578138 15:-0.812211 16:-0.69822 17:0.52054 18:0.0371079 19:0.205696 20:-0.332249 21:-0.699022 22:-0.895123 23:0.457226 24:0.500976 25:0.440851 26:-0.494795 27:-0.459844 28:-0.388626 29:-0.501282 30:-0.439274 31:-0.453078 32:0.645611 33:0.733064 34:0.333899 35:-0.856295 36:-0.766315 37:-0.189016 38:-0.00392447 39:-0.281166 40:-0.147795 
1.590612140774814 1.607394030617866 3.66801617282 3.66801617282 1:0.905696 2:-0.209801 3:0.465013 4:0.128044 5:-0.775283 6:-0.919058 7:-0.837069 8:-0.592859 9:0.302485 10:0.0860002 11:0.00642976 12:-0.727325 13:-0.550758 14:-0.792612 15:-0.835503 16:-0.816269 17:0.460423 18:0.215181 19:-0.185074 20:-0.537441 21:-0.60397 22:-0.377905 23:0.311948 24:0.25404 25:-0.212382 26:-0.687923 27:-0.758426 28:-0.907483 29:-0.461852 30:-0.589567 31:-0.447253 32:-0.0415847 33:-0.261084 34:0.359003 35:-0.0570874 36:0.284486 37:-0.190107 38:0.363882 39:0.156309 40:0.477262 
0.4008915897754676 0 0 0 1:-0.118067 2:-0.11304 3:0.317306 4:0.0923605 5:-0.566224 6:-0.80373 7:-0.582428 8:-0.112299 9:-0.167994 10:-0.37776 11:-0.80488 12:-0.626215 13:-0.21587 14:-0.453618 15:-0.694545 16:-0.575644 17:0.339011 18:0.106616 19:-0.169165 20:-0.29911 21:-0.585387 22:-0.362631 23:-0.153955 24:0.320033 25:-0.550354 26:-0.483608 27:-0.654392 28:-0.384723 29:-0.542141 30:-0.365047 31:-0.369587 32:-0.925954 33:-0.805195 34:-0.534152 35:0.874284 36:0.488913 37:0.897187 38:0.885551 39:0.805369 40:0.578706 
0 1.6392821568823 0.07740272802039645 0.1087894059621715 1:-0.0940443 2:-0.167927 3:0.183493 4:0.312349 5:-0.357709 6:-0.781511 7:-0.674413 8:-0.0251851 9:-0.214928 10:0.0945414 11:-0.745364 12:-0.683642 13:-0.711189 14:-0.304663 15:-0.72817 16:-0.531207 17:0.234219 18:0.102497 19:-0.221473 20:-0.102885 21:-0.64112 22:-0.249581 23:-0.328497 24:0.414581 25:-0.436618 26:-0.49225 27:-0.575282 28:-0.597588 29:-0.460591 30:-0.28967 31:-0.251714 32:-0.900038 33:-0.784668 34:-0.655697 35:1 36:0.534417 37:0.934736 38:0.658854 39:0.949829 40:0.353164 
3.158634733651674 0 1.096269821662437 0 1:-0.113854 2:0.00618802 3:0.281218 4:0.0264084 5:-0.266014 6:-0.697604 7:-0.496737 8:0.110286 9:-0.360997 10:0.136632 11:-0.661834 12:-0.394547 13:-0.7061 14:-0.243925 15:-0.594611 16:-0.391662 17:0.490482 18:0.142731 19:0.318101 20:0.302071 21:-0.465089 22:-0.758402 23:0.331112 24:0.406103 25:-0.103971 26:-0.709281 27:-0.627494 28:-0.987133 29:-0.122283 30:-0.15983 31:-0.0582156 32:0.309125 33:0.456266 34:0.00444756 35:-0.445566 36:-0.572091 37:0.0381649 38:0.0989673 39:-0.0296312 40:-0.254698 
0.01875672246467826 0 0 0 1:-0.0282259 2:0.433971 3:1 4:-0.204954 5:0.251289 6:-0.67214 7:0.163461 8:0.698061 9:-0.119684 10:-0.811726 11:0.351375 12:-0.467552 13:0.594102 14:0.171272 15:0.178185 16:0.248258 17:0.291271 18:-0.0221029 19:-0.145859 20:0.100104 21:-0.242289 22:-0.224052 23:0.140429 24:-0.21974 25:-0.596638 26:-0.631341 27:-0.382434 28:-0.225756 29:-0.191223 30:-0.122831 31:-0.0518901 32:-0.161018 33:-0.758707 34:-0.183194 35:0.43398 36:0.852344 37:0.453739 38:0.0801177 39:0.772538 40:0.291178 
0 0.2750794451234281 0 0.3721958117735292 1:0.981524 2:-0.420204 3:0.343216 4:0.428302 5:-0.540352 6:-0.912924 7:-0.598431 8:-0.62973 9:0.237173 10:0.427623 11:-0.150196 12:-0.588792 13:-0.549663 14:-0.44702 15:-0.668297 16:-0.568005 17:0.261036 18:0.0422566 19:-0.203273 20:0.217668 21:-0.469475 22:-0.328517 23:-0.0992336 24:-0.00610285 25:-0.458235 26:-0.624529 27:-0.573623 28:-0.525147 29:-0.191643 30:-0.14811 31:-0.110351 32:0.798494 33:0.754453 34:0.92999 35:-0.456177 36:-0.278165 37:-0.765933 38:-0.957202 39:-0.973145 40:-0.913234 
0 0 0.2628590931656458 0.6968842409245468 1:-0.160653 2:-0.215573 3:0.161946 4:0.15683 5:-0.336025 6:-0.638753 7:-0.505029 8:0.0535263 9:-0.230768 10:0.0529738 11:-0.719776 12:-0.213266 13:-0.658296 14:-0.279604 15:-0.603144 16:-0.420625 17:0.373254 18:0.0493913 19:-0.172177 20:0.467681 21:-0.211792 22:-0.257364 23:-0.0621157 24:-0.0187932 25:-0.601088 26:-0.545641 27:-0.489573 28:-0.308358 29:-0.121863 30:0.194071 31:0.0892929 32:-0.915526 33:-0.923865 34:-0.693994 35:0.859915 36:0.874525 37:0.908695 38:0.552339 39:0.798597 40:0.255061 
2.326338466268355 1.457112435902689 0 0.2329817530973644 1:0.827228 2:-0.145521 3:0.244094 4:0.0726399 5:-0.823422 6:-0.861447 7:-0.969338 8:-0.244265 9:0.344453 10:-0.655682 11:-0.798592 12:-0.642766 13:0.204252 14:-0.816055 15:-0.934622 16:-0.894982 17:0.450875 18:-0.0165864 19:-0.121899 20:-0.893764 21:-0.922441 22:-0.841849 23:0.525733 24:-0.0146967 25:0.177971 26:0.0696041 27:-0.377995 28:-0.931527 29:-0.884148 30:-0.90555 31:-0.867303 32:-0.502941 33:-0.296153 34:0.166394 35:0.535917 36:0.338575 37:-0.166774 38:-0.122901 39:-0.0556765 40:0.146856 
2.329073658877477 0 1.26179676224129 2.743478244292687 1:0.800188 2:-0.188647 3:0.24777 4:0.0707951 5:-0.88389 6:-0.890133 7:-0.994027 8:-0.345103 9:0.382159 10:0.0829995 11:-0.497986 12:-0.402592 13:-0.943833 14:-0.916802 15:-0.951981 16:-0.937564 17:0.471268 18:0.0126145 19:-0.182455 20:-0.883462 21:-0.862375 22:-0.898196 23:0.660692 24:0.297419 25:0.0282312 26:0.119855 27:-0.244574 28:-0.794818 29:-0.939047 30:-0.835459 31:-0.877773 32:-0.750374 33:-0.638703 34:0.974317 35:0.782606 36:0.688503 37:-0.926884 38:-0.273478 39:-0.0238144 40:-0.00728132 
1.071533879550792 0.2005638047284062 3.66801617282 2.12014495535745 1:0.786733 2:-0.173892 3:0.250506 4:0.0326641 5:-0.947037 6:-0.927079 7:-0.967844 8:-0.270002 9:0.099751 10:-0.320974 11:-0.445955 12:-0.676877 13:-0.545564 14:-0.983868 15:-0.965595 16:-0.968215 17:0.471975 18:0.0301938 19:-0.201047 20:-0.853679 21:-0.833411 22:-0.936108 23:0.713824 24:0.728572 25:0.143663 26:0.272147 27:0.519785 28:-0.959526 29:-0.94468 30:-0.79915 31:-0.86556 32:-0.720981 33:-0.625605 34:0.547143 35:0.641213 36:0.553956 37:-0.565935 38:-0.751264 39:-0.768507 40:0.0733787 
3.66801617282 0.4880273404541831 0.4697840133224564 1.39271901679225 1:-0.0644893 2:-0.226249 3:0.207388 4:0.231059 5:-0.770695 6:-0.855506 7:-0.823194 8:0.0257301 9:0.17035 10:0.286157 11:-0.838879 12:-0.887447 13:-0.364097 14:-0.752768 15:-0.86363 16:-0.801981 17:0.482996 18:0.05785 19:-0.149067 20:-0.710953 21:-0.74173 22:-0.793153 23:0.454856 24:0.287741 25:-0.216397 26:-0.381807 27:-0.376199 28:-0.642221 29:-0.85632 30:-0.684477 31:-0.729043 32:0.424006 33:0.570572 34:-0.739668 35:-0.454541 36:-0.527772 37:0.62437 38:0.729197 39:0.586351 40:-0.862265 
2.242776000435306 1.463239011461057 0.8848393678704973 0 1:-0.0335012 2:-0.102511 3:0.132978 4:-0.110518 5:-0.583516 6:-0.82572 7:-0.634696 8:0.634066 9:0.2408 10:-0.798413 11:0.142914 12:-0.637886 13:0.519761 14:-0.639416 15:-0.633299 16:-0.617917 17:0.396593 18:-0.0218087 19:-0.2491 20:-0.75503 21:-0.681927 22:-0.745955 23:-0.0392563 24:-0.221909 25:-0.222361 26:-0.468805 27:-0.514256 28:-0.83118 29:-0.789735 30:-0.706078 31:-0.707425 32:-0.710921 33:-0.638778 34:-0.355956 35:0.207615 36:-0.10022 37:0.229987 38:0.6272 39:0.764204 40:0.0120155 
3.397183359437117 1.11915446559097 0 0 1:0.710292 2:-0.160881 3:0.35775 4:0.0148083 5:-0.882055 6:-0.858157 7:-0.97011 8:-0.236933 9:0.337102 10:-0.0402375 11:-0.839592 12:-0.63671 13:-0.779845 14:-0.880789 15:-0.947325 16:-0.918991 17:0.452349 18:0.0602037 19:-0.217152 20:-0.623867 21:-0.699077 22:-0.838915 23:-0.407436 24:0.233505 25:-0.092915 26:0.0163978 27:-0.534068 28:-0.842377 29:-0.817563 30:-0.70447 31:-0.698739 32:0.120578 33:-0.32626 34:0.920331 35:-0.358032 36:0.202378 37:-0.719151 38:0.0566753 39:-0.231802 40:0.656186 
2.393550939193456 1.361113393227941 0 0 1:-0.732818 2:-0.261916 3:0.177088 4:0.0705766 5:-0.842874 6:-0.755133 7:-0.842634 8:-0.221013 9:-0.259033 10:-0.0533712 11:-0.783276 12:-0.474926 13:-0.522817 14:-0.818985 15:-0.856655 16:-0.824863 17:0.425119 18:0.00930454 19:-0.231293 20:-0.572336 21:-0.646349 22:-0.787485 23:-0.7017 24:-0.167356 25:-0.284393 26:0.352163 27:-0.254383 28:-0.747593 29:-0.794359 30:-0.539929 31:-0.646262 32:0.337105 33:0.138682 34:0.225003 35:0.701846 36:0.595498 37:0.0863131 38:0.537569 39:0.486641 40:-0.191391 
1.742109991883277 0 1.290541343278356 0.7535255894274685 1:-0.171586 2:-0.177041 3:0.201975 4:0.202929 5:-0.878374 6:-0.853877 7:-0.862709 8:-0.00400253 9:0.102302 10:0.558599 11:-0.913005 12:-0.883125 13:-0.18191 14:-0.859573 15:-0.935719 16:-0.864011 17:0.504332 18:0.0430657 19:-0.145401 20:-0.755704 21:-0.724435 22:-0.929831 23:0.870778 24:0.666951 25:0.178672 26:0.640357 27:0.25253 28:-0.868658 29:-0.862037 30:-0.675514 31:-0.763027 32:0.41985 33:0.434894 34:-0.600944 35:-0.375741 36:-0.424584 37:0.560257 38:0.676481 39:0.617993 40:-0.329447 
2.451341317987594 3.630649492895497 3.66801617282 3.66801617282 1:0.73322 2:-0.182575 3:0.240784 4:0.0251768 5:-0.90793 6:-0.87308 7:-0.936377 8:-0.136462 9:0.353437 10:-0.132429 11:-0.802698 12:-0.477506 13:-0.75061 14:-0.917939 15:-0.939074 16:-0.926347 17:0.459009 18:0.0392409 19:-0.197381 20:-0.774227 21:-0.706513 22:-0.883714 23:0.183155 24:0.288634 25:0.0419627 26:-0.517922 27:-0.379928 28:-0.929117 29:-0.845391 30:-0.742617 31:-0.764452 32:-0.572368 33:-0.48588 34:0.868077 35:0.72475 36:0.693543 37:-0.84269 38:0.0823513 39:0.0573698 40:0.420953 
3.66801617282 2.258461013911942 3.66801617282 3.314850589826715 1:0.815602 2:-0.140151 3:0.308502 4:0.0640239 5:-0.918083 6:-0.892296 7:-0.972423 8:-0.332196 9:0.158588 10:-0.0196035 11:-0.612584 12:-0.873901 13:-0.902933 14:-0.923247 15:-0.978837 16:-0.944152 17:0.395297 18:0.0463021 19:-0.171195 20:-0.599549 21:-0.688765 22:-0.889302 23:-0.559921 24:0.321247 25:-0.177974 26:-0.255885 27:-0.445551 28:-0.844572 29:-0.827063 30:-0.719407 31:-0.691862 32:0.306271 33:-0.10499 34:0.586292 35:-0.323968 36:0.213504 37:-0.731963 38:0.0148304 39:0.163105 40:-0.0366611 
3.66801617282 3.66801617282 3.66801617282 3.66801617282 1:-0.109895 2:-0.149629 3:0.241119 4:0.0868844 5:-0.937872 6:-0.926278 7:-0.944789 8:0.148671 9:0.132274 10:-0.0145204 11:-0.633899 12:-0.796905 13:-0.623679 14:-0.94086 15:-0.98418 16:-0.950147 17:0.45341 18:0.00775991 19:-0.180033 20:-0.956667 21:-0.926329 22:-0.937446 23:0.0718475 24:0.36909 25:-0.617393 26:-0.586804 27:-0.263746 28:0.0992332 29:-0.960654 30:-0.931977 31:-0.941715 32:0.363652 33:0.601367 34:-0.80165 35:-0.474672 36:-0.63269 37:0.391759 38:0.799321 39:0.374847 40:-0.142649 
1.139771906777034 0 0 0.4973063579912352 1:-0.0530438 2:-0.160487 3:0.229967 4:0.0326601 5:-0.627278 6:-0.817755 7:-0.629027 8:0.339216 9:0.300717 10:-0.242456 11:-0.469553 12:-0.711847 13:-0.486276 14:-0.480589 15:-0.724168 16:-0.631316 17:0.454588 18:-0.0369608 19:-0.14743 20:-0.646234 21:-0.781477 22:-0.864508 23:0.825201 24:0.634018 25:0.00812756 26:0.428478 27:0.0681349 28:-0.982073 29:-0.848754 30:-0.686775 31:-0.743619 32:0.908865 33:0.579495 34:-0.477339 35:-0.536291 36:-0.00551314 37:0.728338 38:-0.555808 39:-0.742433 40:-0.0677227 
0 2.284260508564239 1.737280673522333 2.110976669319909 1:-0.316444 2:-0.146807 3:0.197107 4:0.148119 5:-0.84218 6:-0.782141 7:-0.851532 8:-0.189831 9:-0.182449 10:-0.0476372 11:-0.908679 12:-0.52308 13:-0.887173 14:-0.753202 15:-0.919792 16:-0.833148 17:0.480403 18:0.0424037 19:-0.15293 20:-0.690535 21:-0.758519 22:-0.885644 23:0.530877 24:0.737098 25:-0.0611645 26:-0.248869 27:0.117137 28:-0.971196 29:-0.861196 30:-0.705619 31:-0.75452 32:0.574453 33:0.44666 34:-0.814407 35:-0.864275 36:-0.719106 37:0.688417 38:0.607361 39:0.310337 40:-0.424756 
0 0 2.004077860868038 2.894602201227479 1:0.836336 2:-0.216061 3:0.251185 4:0.00580088 5:-0.846025 6:-0.848607 7:-0.938335 8:-0.340221 9:0.334364 10:-0.0477183 11:-0.692162 12:-0.738449 13:-0.837592 14:-0.847171 15:-0.94564 16:-0.895775 17:0.489067 18:0.108087 19:-0.281571 20:-0.84788 21:-0.831887 22:-0.873773 23:0.658811 24:0.52159 25:-0.505119 26:-0.146589 27:-0.367444 28:-0.47517 29:-0.901551 30:-0.746524 31:-0.82265 32:-0.910442 33:-0.785767 34:0.953094 35:0.925776 36:0.775033 37:-0.932273 38:-0.269189 39:-0.234518 40:0.519969 
1.13228248525068 0 0 0 1:-0.250188 2:-0.144108 3:0.253916 4:0.238309 5:-0.833427 6:-0.766769 7:-0.834936 8:-0.155737 9:-0.114972 10:0.355544 11:-0.602856 12:-0.659718 13:-0.43159 14:-0.791825 15:-0.888616 16:-0.812121 17:0.423587 18:-0.086536 19:-0.0534206 20:-0.37394 21:-0.747357 22:-0.57986 23:-0.147704 24:0.434037 25:-0.365737 26:-0.329755 27:-0.369497 28:-0.739634 29:-0.588381 30:-0.580834 31:-0.516324 32:-0.688552 33:-0.561608 34:-0.080771 35:0.747445 36:0.539344 37:0.466415 38:-0.250399 39:-0.0535001 40:-0.856694 
0.393653383406508 0 0 0 1:-0.124636 2:-0.24679 3:0.221614 4:0.373897 5:-0.777755 6:-0.865748 7:-0.738516 8:0.0440389 9:-0.0136651 10:0.446165 11:-0.625392 12:-0.731446 13:-0.45173 14:-0.668303 15:-0.858525 16:-0.744637 17:0.491778 18:-0.0660145 19:0.0504092 20:-0.534484 21:-0.864391 22:-0.866647 23:0.630101 24:-0.451041 25:0.36522 26:-0.0828776 27:-0.488543 28:-0.192046 29:-0.700702 30:-0.644261 31:-0.646503 32:0.568109 33:0.565011 34:0.239781 35:-0.740202 36:0.0426514 37:-0.580012 38:0.557987 39:-0.787177 40:0.485191 
1.980124434309441 1.165673852434144 3.579198461558565 3.382887220145224 1:0.807671 2:-0.188048 3:0.301002 4:0.0461521 5:-0.958266 6:-0.925127 7:-0.923325 8:-0.414382 9:0.225923 10:-0.00405985 11:-0.563316 12:-0.841855 13:-0.80061 14:-0.903539 15:-0.9598 16:-0.945274 17:0.472505 18:0.0257806 19:-0.167398 20:-0.8109 21:-0.916828 22:-0.957145 23:0.586013 24:0.748782 25:-0.106627 26:-0.124179 27:0.446009 28:-0.954078 29:-0.930136 30:-0.853154 31:-0.883315 32:-0.939208 33:-0.542212 34:-0.0770683 35:0.834502 36:0.205984 37:0.0147899 38:0.105992 39:0.728107 40:-0.389496 
0 0.6561807423338212 0 0 1:-0.0468854 2:0.0791511 3:0.220638 4:-0.271923 5:-0.449466 6:-0.813728 7:-0.457488 8:0.860351 9:0.0270685 10:-0.682692 11:0.667179 12:-0.817948 13:0.271526 14:-0.345421 15:-0.446997 16:-0.445378 17:0.442624 18:-0.0635137 19:-0.181866 20:-0.668367 21:-0.746641 22:-0.866849 23:0.354018 24:0.517042 25:-0.222485 26:-0.504734 27:0.0261324 28:-0.74539 29:-0.817899 30:-0.693899 31:-0.740869 32:0.74837 33:0.947872 34:-0.78741 35:-0.560179 36:-0.486214 37:0.86393 38:-0.342083 39:-0.803464 40:0.492117 
0.9441717763681388 0 0.4365580526276835 0 1:0.86282 2:-0.192408 3:0.306367 4:-0.00710504 5:-0.916468 6:-0.902015 7:-0.930482 8:-0.570337 9:0.280051 10:0.102346 11:-0.0592908 12:-0.678896 13:-0.830481 14:-0.935344 15:-0.966596 16:-0.931765 17:0.419638 18:0.017469 19:-0.187889 20:-0.628073 21:-0.797582 22:-0.86154 23:-0.281004 24:0.618574 25:-0.279756 26:-0.462012 27:0.0255465 28:-0.807492 29:-0.802093 30:-0.769505 31:-0.747753 32:0.565266 33:0.142936 34:0.770889 35:-0.329698 36:0.244449 37:-0.95945 38:-0.29001 39:-0.35298 40:0.410121 
0.04891231499568882 1.366244989584763 2.253199877403881 3.66801617282 1:0.882804 2:-0.371001 3:0.412287 4:0.155911 5:-0.672949 6:-0.843241 7:-0.825086 8:-0.389454 9:0.415254 10:-0.291804 11:-0.63138 12:-0.572118 13:-0.357255 14:-0.694469 15:-0.833692 16:-0.754588 17:0.582602 18:-0.0889633 19:0.107889 20:-0.454193 21:-0.774346 22:-0.804407 23:0.255919 24:0.491421 25:0.660855 26:-0.433992 27:-0.137789 28:0.158513 29:-0.626886 30:-0.577157 31:-0.537955 32:-0.764557 33:-0.594866 34:-0.655876 35:0.715211 36:0.617399 37:0.825499 38:0.783637 39:0.409825 40:0.204066 
0 0.3604804420810719 0.187318450237268 0 1:-0.087914 2:0.17333 3:0.18104 4:-0.346366 5:-0.151637 6:-0.671873 7:-0.421677 8:0.974991 9:-0.806925 10:-0.756824 11:0.939209 12:0.529695 13:0.458279 14:-0.475135 15:-0.210328 16:-0.287772 17:0.386102 18:-0.0660145 19:-0.267692 20:-0.463617 21:-0.609208 22:-0.703289 23:-0.355449 24:-1 25:-0.65676 26:-0.3985 27:0.997711 28:-0.0827561 29:-0.745344 30:-0.365506 31:-0.560721 32:-0.580385 33:-0.952944 34:-0.766734 35:0.818173 36:0.914348 37:0.908816 38:0.321554 39:0.931042 40:0.598216 
0.6820301370310151 1.547827895603822 1.878496976944431 1.193807025224463 1:-0.853964 2:-0.243806 3:0.239264 4:0.135962 5:-0.88908 6:-0.880744 7:-0.80514 8:-0.783756 9:-0.119027 10:0.208865 11:0.416943 12:-0.318138 13:-0.445187 14:-0.807219 15:-0.876609 16:-0.838347 17:0.43231 18:0.0254864 19:-0.196007 20:-0.657749 21:-0.918208 22:-0.899213 23:-0.391083 24:-0.186144 25:-0.236474 26:0.106498 27:-0.834301 28:-0.327269 29:-0.86809 30:-0.786051 31:-0.805682 32:0.863125 33:-0.151779 34:0.675766 35:0.728312 36:-0.557631 37:0.976112 38:-0.492763 39:0.0191258 40:-0.0155244 
0.1144578250687789 0.1147535876588912 1.047579422034854 1.727675326967139 1:0.988078 2:-0.448664 3:0.269574 4:-0.147005 5:-0.81231 6:-0.929563 7:-0.862811 8:-0.787919 9:0.694075 10:-0.520077 11:0.442042 12:0.212119 13:-0.312877 14:-0.86518 15:-0.902085 16:-0.842576 17:0.572523 18:-0.0803575 19:-0.0511293 20:-0.364187 21:-0.714591 22:-0.923696 23:0.704262 24:0.148075 25:-0.0878849 26:0.0435616 27:-0.694153 28:-0.915631 29:-0.752491 30:-0.60979 31:-0.561134 32:-0.841001 33:-0.391755 34:0.688719 35:0.577132 36:0.629604 37:-0.228261 38:-0.744687 39:-0.893962 40:0.166616 
0.2126279053835899 0 0 0.01297579071759244 1:-0.246389 2:-0.141914 3:0.236099 4:-0.359882 5:-0.803376 6:-0.702064 7:-0.540843 8:0.650162 9:-0.558335 10:-0.842523 11:0.132884 12:0.145479 13:0.641344 14:-0.637256 15:-0.578299 16:-0.594222 17:0.470502 18:-0.0645434 19:-0.242881 20:-0.0834243 21:-0.257493 22:-0.815047 23:-0.322436 24:-0.126963 25:-0.564802 26:-0.447431 27:-0.594529 28:-0.288649 29:-0.466644 30:-0.321843 31:-0.273283 32:-0.801134 33:-0.799773 34:-0.826628 35:0.672029 36:0.636095 37:0.703139 38:0.318747 39:0.416232 40:0.576224 
0.337918118880607 0.4404850847599419 0.6353038933080473 1.187891819576431 1:-0.103031 2:0.126459 3:0.160639 4:-0.15761 5:-0.659477 6:-0.835253 7:-0.589156 8:0.950081 9:-0.716769 10:-0.544986 11:0.88367 12:0.446493 13:0.293469 14:-0.675542 15:-0.578005 16:-0.604234 17:0.490953 18:-0.0335773 19:-0.183241 20:-0.723002 21:-0.722308 22:-0.934461 23:0.228743 24:-0.703477 25:-0.541201 26:-0.332088 27:0.358617 28:-0.175492 29:-0.855984 30:-0.717109 31:-0.759664 32:-0.678533 33:-0.936634 34:-0.793905 35:0.558813 36:0.809533 37:0.574838 38:0.405299 39:0.690168 40:0.554685 
1.261998700379713 2.206251856910125 3.292413879869026 0.6852165199730992 1:-0.894016 2:-0.5217 3:0.244391 4:-0.0256395 5:-0.65192 6:-0.814444 7:-0.75953 8:-0.731307 9:-0.68222 10:0.366209 11:0.182966 12:0.294618 13:-0.24205 14:-0.749235 15:-0.806965 16:-0.70578 17:0.538575 18:0.0402707 19:-0.128118 20:-0.39489 21:-0.579967 22:-0.973114 23:0.349405 24:-0.0608557 25:-0.0699731 26:-0.105572 27:-0.521597 28:-0.820799 29:-0.695994 30:-0.535103 31:-0.553107 32:-0.734594 33:-0.48227 34:0.692721 35:-0.732373 36:-0.596152 37:0.44302 38:0.661565 39:0.790856 40:-0.140039 
0.4267481724910359 0.688770314070605 0.3952528359333192 0.4578164458755541 1:-0.0693209 2:0.445192 3:0.169691 4:-0.538683 5:-0.162871 6:-0.746925 7:-0.163777 8:0.948864 9:-0.792187 10:-0.676215 11:0.879531 12:0.518044 13:0.330198 14:-0.173563 15:-0.0892174 16:-0.121349 17:0.549125 18:0.0611599 19:-0.08491 20:-0.107736 21:-0.353465 22:-0.900521 23:0.243391 24:0.0989594 25:-0.833044 26:-0.517122 27:-0.486329 28:0.587181 29:-0.500862 30:-0.317247 31:-0.32086 32:0.629076 33:0.708872 34:-0.912336 35:-0.779482 36:-0.709062 37:1 38:-0.223587 39:-0.359269 40:0.752072 
0.007918407338526487 0.3732797696959601 0.6798104015661351 0.5973685122723519 1:-0.966559 2:-0.64603 3:0.101999 4:0.0828687 5:-0.528046 6:-0.789178 7:-0.421482 8:-0.519875 9:-0.0136376 10:-0.060836 11:-0.299644 12:-0.804697 13:-0.190211 14:-0.397957 15:-0.573133 16:-0.439526 17:0.428538 18:-0.373616 19:-0.0901473 20:-0.0875403 21:0.253026 22:-0.686759 23:-0.444923 24:-0.723391 25:-0.595361 26:-0.466661 27:0.366353 28:-0.215929 29:-0.180125 30:0.331955 31:0.0573439 32:0.800257 33:0.805273 34:0.910175 35:0.438847 36:0.238502 37:0.416546 38:0.199501 39:0.755732 40:0.322902 
0 0.3887355687990278 0 0 1:-0.917786 2:-0.658305 3:0.234432 4:0.00439343 5:-0.571651 6:-0.795983 7:-0.329986 8:-0.817977 9:-0.45209 10:-0.0635775 11:0.501171 12:-0.14899 13:-0.309424 14:-0.294623 15:-0.486847 16:-0.387899 17:0.394354 18:-0.138024 19:-0.235221 20:-0.063498 21:-0.463805 22:-0.611916 23:-0.0761081 24:-0.397098 25:-0.575621 26:-0.466394 27:-0.305409 28:-0.120456 29:-0.462861 30:-0.165115 31:-0.313465 32:0.314059 33:0.653324 34:0.836726 35:0.425807 36:0.498335 37:0.716817 38:0.236769 39:0.759085 40:0.319137 
0.2879673815879241 0.03851417803631834 0.06086150581203659 0 1:-0.097647 2:-0.243032 3:0.353868 4:-0.315912 5:-0.623783 6:-0.700372 7:0.129867 8:0.392124 9:-0.174985 10:-0.487738 11:-0.21844 12:-0.78407 13:0.0606557 14:0.238067 15:-0.282668 16:-0.0450592 17:0.348146 18:-0.322423 19:-0.261408 20:0.666652 21:-0.142954 22:-0.691602 23:-0.338408 24:-0.912937 25:-0.273353 26:-0.555766 27:0.816037 28:-0.767046 29:-0.0100466 30:0.217511 31:0.147145 32:-0.496833 33:-0.716255 34:-0.369563 35:0.774258 36:0.354337 37:0.573851 38:0.152843 39:0.986941 40:0.21093 
0.4394593643549751 0.2219441412290322 0.2013642391050551 0.353666750865022 1:-0.068146 2:0.977705 3:0.410087 4:-0.413941 5:0.300509 6:-0.551267 7:-0.184785 8:0.961556 9:-0.709483 10:-0.714212 11:0.906138 12:0.36857 13:0.400915 14:-0.0712463 15:0.163956 16:0.104808 17:0.518006 18:-0.0193079 19:-0.0953846 20:-0.508463 21:-0.443901 22:-0.864135 23:0.631372 24:0.313193 25:-0.423157 26:0.115158 27:-0.316547 28:-0.328474 29:-0.611501 30:-0.454211 31:-0.518496 32:0.828261 33:0.748107 34:-0.295258 35:-0.68717 36:-0.651587 37:0.247931 38:-0.683605 39:-0.559431 40:-0.0628592 
0.08245059924834439 0.3165021324586994 0.6606287031360459 0 1:-0.912687 2:-0.775396 3:0.278693 4:0.0762913 5:-0.418704 6:-0.649033 7:-0.270694 8:-0.846859 9:-0.154069 10:-0.0318526 11:0.539435 12:-0.461359 13:-0.278923 14:-0.193693 15:-0.37893 16:-0.281702 17:0.36848 18:-0.167592 19:-0.253944 20:0.222035 21:-0.205041 22:-0.631277 23:-0.242112 24:0.0772918 25:-0.348299 26:-0.481642 27:-0.637528 28:-0.565251 29:-0.355837 30:-0.0504424 31:-0.0882498 32:0.565653 33:0.535749 34:0.667737 35:0.564218 36:0.471195 37:0.471072 38:0.0866723 39:0.13882 40:0.28366 
2.161793226409884 0.2436403396695941 0.4264365003718741 1.115471756289646 1:-0.592282 2:-0.18113 3:0.287033 4:0.421527 5:-0.871133 6:-0.660475 7:-0.424604 8:-0.0740957 9:-0.914185 10:0.391817 11:-0.643394 12:0.788482 13:-0.312324 14:-0.347872 15:-0.687406 16:-0.506675 17:0.601521 18:-0.289765 19:-0.569951 20:0.122018 21:-0.163305 22:-0.759858 23:0.480588 24:0.321072 25:-0.216659 26:-0.364342 27:-0.520818 28:-0.629422 29:-0.233259 30:-0.156153 31:-0.0553073 32:0.0166051 33:-0.0343394 34:-0.16589 35:-0.572042 36:-0.567531 37:0.0645176 38:0.809123 39:0.787019 40:0.339617 
3.66801617282 3.66801617282 3.66801617282 2.229156378868377 1:-0.00850155 2:-0.128892 3:0.218801 4:0.0686228 5:-0.812216 6:-0.940543 7:-0.730465 8:0.215512 9:0.0926231 10:-0.348481 11:-0.643102 12:-0.844142 13:-0.122847 14:-0.691607 15:-0.839529 16:-0.771413 17:0.429363 18:-0.0031996 19:-0.156792 20:-0.728736 21:-0.75977 22:-0.889928 23:0.0354826 24:0.369374 25:-0.0741762 26:-0.698753 27:-0.246765 28:-0.611892 29:-0.835134 30:-0.747673 31:-0.775815 32:0.527841 33:0.184909 34:-0.415519 35:-0.240129 36:0.070256 37:-0.135919 38:-0.440373 39:-0.796094 40:0.811687 
0 1.344476829640346 1.781430138877159 1.829990278114664 1:0.938262 2:-0.280079 3:0.309698 4:-0.112797 5:-0.877354 6:-0.951067 7:-0.887109 8:-0.612771 9:-0.0398207 10:-0.291613 11:0.0773909 12:-0.603117 13:-0.669712 14:-0.873399 15:-0.91618 16:-0.896684 17:0.402016 18:-0.0399029 19:-0.201964 20:-0.721827 21:-0.796883 22:-0.823294 23:-0.122467 24:0.00767836 25:-0.126859 26:-0.719455 27:-0.524293 28:-0.567206 29:-0.845223 30:-0.805354 31:-0.773346 32:0.391295 33:0.023604 34:0.698687 35:0.309393 36:0.621818 37:-0.87483 38:-0.341977 39:-0.262794 40:0.892274 
0 3.66801617282 3.262438389880693 0.9765219613877615 1:-0.0249498 2:-0.111802 3:0.237458 4:0.0614293 5:-0.598029 6:-0.90342 7:-0.793661 8:0.558847 9:0.228131 10:-0.167382 11:0.0370025 12:-0.701879 13:-0.726241 14:-0.680397 15:-0.791482 16:-0.720281 17:0.45836 18:-0.0218087 19:-0.174337 20:-0.732684 21:-0.801428 22:-0.850334 23:0.312974 24:0.24619 25:-0.311891 26:-0.376095 27:0.155837 28:-0.460874 29:-0.870108 30:-0.719867 31:-0.786718 32:0.94955 33:0.836124 34:-0.936795 35:-0.860855 36:-0.185932 37:0.616763 38:0.122902 39:-0.593262 40:0.22009 
0 1.122308612638182 2.134783982100483 2.744077581270515 1:-0.0890711 2:-0.231566 3:0.266641 4:0.173362 5:-0.867628 6:-0.940104 7:-0.873255 8:0.0745428 9:0.00168087 10:0.0962786 11:-0.460588 12:-0.662659 13:-0.625183 14:-0.841625 15:-0.917698 16:-0.881188 17:0.469441 18:-0.0301203 19:-0.145728 20:-0.770629 21:-0.883832 22:-0.926602 23:0.429212 24:-0.497358 25:0.259705 26:-0.11256 27:-0.338916 28:-0.708161 29:-0.892639 30:-0.869011 31:-0.844124 32:0.678786 33:0.638844 34:-0.737255 35:-0.94672 36:-0.294759 37:0.420034 38:0.928574 39:-0.0991763 40:0.0117656 
0.9493329079004318 1.724015632588734 3.244964017544011 2.338568646839883 1:0.991624 2:-0.308207 3:0.297283 4:-0.0776115 5:-0.88947 6:-0.947367 7:-0.89757 8:-0.643307 9:0.302193 10:-0.408184 11:-0.106088 12:-0.701641 13:-0.487323 14:-0.905727 15:-0.927287 16:-0.907121 17:0.448753 18:-0.00555331 19:-0.201964 20:-0.713998 21:-0.72644 22:-0.862468 23:0.307472 24:-0.0988669 25:-0.473806 26:-0.423891 27:-0.302236 28:-0.187262 29:-0.874228 30:-0.712513 31:-0.752568 32:-0.89079 33:-0.656852 34:0.901784 35:0.438199 36:-0.371199 37:-0.109464 38:-0.842672 39:-0.0702626 40:0.508769 
1.076736212531204 3.66801617282 3.66801617282 3.575696939251967 1:-0.0697288 2:-0.181165 3:0.208795 4:0.0944019 5:-0.799257 6:-0.937064 7:-0.848058 8:0.235837 9:-0.167219 10:-0.177929 11:-0.550034 12:-0.800958 13:-0.49665 14:-0.801461 15:-0.882835 16:-0.843943 17:0.430129 18:-0.0508624 19:-0.234304 20:-0.823374 21:-0.861099 22:-0.851917 23:-0.210113 24:0.0359025 25:0.106022 26:-0.540673 27:-0.635475 28:-0.789902 29:-0.904241 30:-0.84557 31:-0.843885 32:-0.864406 33:-0.172094 34:-0.360859 35:0.504408 36:-0.112228 37:0.459261 38:0.344153 39:0.926204 40:-0.126289 
0 1.046075962948855 0 0.531510666768683 1:-0.0770491 2:0.00929188 3:0.179583 4:-0.0587505 5:-0.821497 6:-0.939005 7:-0.685135 8:0.51742 9:-0.334231 10:-0.678615 11:-0.208124 12:-0.510829 13:0.32617 14:-0.699994 15:-0.751012 16:-0.735193 17:0.441917 18:-0.0650583 19:-0.184354 20:-0.708019 21:-0.70427 22:-0.896785 23:-0.0242783 24:-0.604913 25:-0.041756 26:-0.462533 27:0.241131 28:-0.903855 29:-0.867334 30:-0.706768 31:-0.741333 32:-0.870715 33:-0.894725 34:-0.270091 35:0.682294 36:0.729556 37:0.289531 38:0.461284 39:0.839692 40:0.0339282 
2.390482505153936 1.472060523496207 2.78376828670697 1.699705222762442 1:-0.0612666 2:-0.243475 3:0.322725 4:0.18592 5:-0.729807 6:-0.864732 7:-0.829189 8:0.130882 9:-0.0235506 10:0.408206 11:-0.438692 12:-0.757345 13:-0.614654 14:-0.758008 15:-0.899869 16:-0.790287 17:0.403018 18:-0.115148 19:-0.228674 20:-0.418043 21:-0.564322 22:-0.739522 23:-0.60073 24:-0.678136 25:-0.0868067 26:-0.375729 27:0.0748873 28:-0.870616 29:-0.680188 30:-0.498334 31:-0.530887 32:-0.520264 33:-0.75735 34:0.232357 35:0.730387 36:0.645843 37:0.01264 38:-0.817947 39:-0.33996 40:-0.558903 
0 0.1821040818334005 0 0 1:-0.0650759 2:0.216141 3:0.191377 4:-0.0889087 5:-0.578524 6:-0.846189 7:-0.639202 8:0.707549 9:-0.312085 10:-0.49324 11:0.310705 12:-0.592485 13:-0.0335022 14:-0.599032 15:-0.61051 16:-0.602949 17:0.395945 18:-0.0284285 19:-0.215254 20:-0.622863 21:-0.708127 22:-0.711189 23:-0.332267 24:0.182343 25:-0.230459 26:-0.25835 27:-0.300304 28:-0.813043 29:-0.791668 30:-0.637826 31:-0.667113 32:-0.654387 33:-0.257315 34:-0.720231 35:0.350191 36:-0.0957775 37:0.998098 38:0.990877 39:0.775648 40:0.125331 
0.9878316816724514 1.17415666564964 0.03547186076658427 0.2987642697657004 1:-0.0497346 2:-0.0380917 3:0.236073 4:0.0580258 5:-0.469188 6:-0.862586 7:-0.716638 8:0.94847 9:-0.387983 10:-0.779896 11:0.87572 12:-0.486913 13:0.545508 14:-0.717758 15:-0.595932 16:-0.615878 17:0.448577 18:-0.0676327 19:0.0645499 20:-0.71883 21:-0.844988 22:-0.929316 23:0.17502 24:0.105762 25:-0.117202 26:-0.558608 27:-0.669665 28:-0.929393 29:-0.682542 30:-0.815236 31:-0.713597 32:0.696814 33:0.653625 34:-0.410747 35:-0.917205 36:-0.688413 37:0.389025 38:-0.504201 39:-0.533967 40:0.274915 
0 0 0 0.153163801774761 1:0.883072 2:-0.361982 3:0.427744 4:-0.0745871 5:-0.681193 6:-0.797701 7:-0.851288 8:-0.531442 9:0.156351 10:-0.203301 11:-0.245782 12:-0.90745 13:-0.697538 14:-0.720919 15:-0.816406 16:-0.765487 17:0.506336 18:-0.270935 19:-0.0295254 20:-0.150801 21:-0.654182 22:-0.158438 23:0.211335 24:-0.500482 25:-0.371395 26:-0.67165 27:-0.0615515 28:-0.702794 29:-0.275211 30:-0.371711 31:-0.215598 32:0.299222 33:0.62184 34:0.497543 35:0.134536 36:-0.192741 37:-0.839848 38:-0.183827 39:-0.394858 40:0.488372 
0.1320302321013136 0 0 0 1:-0.142533 2:-0.297791 3:0.214528 4:0.173715 5:-0.431386 6:-0.643713 7:-0.700242 8:0.173211 9:-0.392353 10:0.0997698 11:-0.43173 12:-0.518465 13:-0.754335 14:-0.494733 15:-0.713319 16:-0.562608 17:0.460011 18:-0.175683 19:0.238101 20:-0.298032 21:-0.677083 22:-0.829074 23:0.487011 24:-0.03356 25:-0.233241 26:0.0546721 27:-0.859259 28:-0.845356 29:-0.459666 30:-0.547512 31:-0.401593 32:0.917199 33:0.589227 34:0.114394 35:-0.84896 36:-0.370273 37:0.0464971 38:-0.370528 39:-0.470452 40:-0.0614002 
1.388659181445476 0 0.4018642009399085 1.472188623926728 1:0.936881 2:-0.307404 3:0.237024 4:0.0466598 5:-0.746823 6:-0.892133 7:-0.895634 8:-0.60851 9:0.427795 10:-0.168381 11:-0.214089 12:-0.458445 13:-0.711197 14:-0.810133 15:-0.881811 16:-0.837341 17:0.411681 18:-0.0784451 19:-0.115941 20:-0.3402 21:-0.548642 22:-0.662257 23:-0.77843 24:-0.610045 25:-0.103129 26:0.367879 27:0.220921 28:-0.831117 29:-0.711547 30:-0.335402 31:-0.473133 32:0.868721 33:0.699805 34:0.518942 35:-0.67732 36:-0.328892 37:-0.523208 38:0.715462 39:0.374448 40:0.246252 
0.1432268155528797 0.2577686671576082 0 0 1:-0.0155404 2:0.0971366 3:0.282082 4:-0.102624 5:-0.270833 6:-0.802475 7:-0.603622 8:0.798164 9:-0.187611 10:-0.72192 11:0.512637 12:-0.294773 13:0.459676 14:-0.511095 15:-0.481457 16:-0.455911 17:0.446455 18:-0.00459712 19:-0.209296 20:-0.683761 21:-0.827998 22:-0.657713 23:-0.896152 24:-0.126334 25:-0.446526 26:0.591632 27:-0.484866 28:-0.434667 29:-0.77931 30:-0.594852 31:-0.710731 32:-0.862065 33:-0.554642 34:-0.828413 35:0.0716591 36:0.151592 37:0.846241 38:0.995305 39:0.616038 40:0.538642 
0 0 0 0.0411671897757832 1:-0.201561 2:-0.165688 3:0.210527 4:0.316052 5:-0.812704 6:-0.848618 7:-0.819439 8:-0.0180749 9:-0.64675 10:0.600694 11:-0.228318 12:0.231239 13:-0.214012 14:-0.793991 15:-0.859775 16:-0.807509 17:0.441033 18:-0.0366666 19:-0.178658 20:-0.569798 21:-0.820684 22:-0.759901 23:-0.71831 24:-0.619139 25:-0.165976 26:0.40234 27:0.204455 28:-0.687199 29:-0.833452 30:-0.582213 31:-0.70037 32:-0.890953 33:-0.583973 34:-0.200722 35:0.945061 36:0.853858 37:0.371172 38:-0.319773 39:0.00943785 40:-0.753053 
3.66801617282 3.66801617282 3.66801617282 3.66801617282 1:1 2:-0.423313 3:0.381245 4:-0.0412319 5:-0.762833 6:-0.887944 7:-0.918644 8:-0.528304 9:0.597923 10:-0.3257 11:-0.392133 12:-0.263585 13:-0.584243 14:-0.813411 15:-0.878931 16:-0.841433 17:0.394531 18:-0.178625 19:-0.0627823 20:-0.882098 21:-0.732905 22:-0.872951 23:-0.292811 24:-0.500375 25:0.160393 26:-0.663138 27:-0.38409 28:-0.691236 29:-0.808063 30:-0.724463 31:-0.739082 32:0.494623 33:0.888831 34:-0.441837 35:-0.904446 36:-0.351652 37:0.759475 38:0.781567 39:0.510648 40:-0.561186 
3.585833887153021 1.822304213974428 2.594451926148738 3.66801617282 1:-0.193587 2:-0.211343 3:0.201931 4:0.305937 5:-0.703575 6:-0.807992 7:-0.789058 8:-0.153804 9:-0.406703 10:0.341931 11:-0.524938 12:-0.0915863 13:-0.618084 14:-0.725604 15:-0.79839 16:-0.745292 17:0.422821 18:-0.0014343 19:-0.213879 20:-0.45023 21:-0.697138 22:-0.626146 23:-0.346347 24:0.0222871 25:-0.167269 26:-0.365551 27:-0.399397 28:-0.749763 29:-0.709614 30:-0.634609 31:-0.571618 32:-0.806213 33:-0.823861 34:0.632198 35:0.957244 36:0.779947 37:-0.214363 38:-0.896137 39:-0.31817 40:-0.233837 
0 0.2599258271001665 0.1489503279710266 0.4970379709769812 1:-0.0592171 2:1 3:0.071968 4:-0.579457 5:0.577977 6:-0.390787 7:-0.158554 8:0.787412 9:-0.350965 10:-0.771345 11:0.500159 12:-0.638796 13:0.520484 14:0.161112 15:0.269411 16:0.260256 17:0.392703 18:-0.347284 19:-0.411718 20:0.00246107 21:-0.388698 22:0.168472 23:-0.136613 24:-0.424505 25:-0.387302 26:-0.58351 27:-0.385065 28:-0.723479 29:-0.190802 30:-0.0890498 31:0.0522343 32:-0.407625 33:-0.615626 34:-0.278452 35:0.795859 36:0.561755 37:0.73248 38:0.129183 39:0.560064 40:0.0200475 
1.57672745405552 0 0 0.9785437009290944 1:-0.242665 2:-0.256427 3:0.178783 4:0.194677 5:-0.850108 6:-0.813357 7:-0.804599 8:0.187217 9:-0.311361 10:0.246454 11:-0.409086 12:-0.348827 13:-0.527605 14:-0.770865 15:-0.91228 16:-0.812876 17:0.434373 18:-0.0296789 19:-0.0684124 20:-0.559742 21:-0.79139 22:-0.910893 23:0.717068 24:0.0164727 25:-0.575688 26:0.482005 27:-0.707176 28:-0.0291977 29:-0.807474 30:-0.679191 31:-0.700207 32:0.889625 33:0.649955 34:-0.663447 35:-0.917417 36:-0.594654 37:0.810427 38:-0.147599 39:-0.321798 40:-0.201986 
3.66801617282 0.5010567974019808 0.08674862987723869 2.033081285920276 1:0.868244 2:-0.214043 3:0.3044 4:0.0233658 5:-0.808888 6:-0.857694 7:-0.902336 8:-0.65438 9:0.351007 10:-0.345166 11:0.0532289 12:-0.741329 13:-0.575051 14:-0.84552 15:-0.890434 16:-0.864964 17:0.35905 18:-0.0643228 19:-0.0955155 20:-0.42443 21:-0.756267 22:-0.52075 23:-0.0947323 24:-0.109697 25:-0.355855 26:-0.582793 27:-0.877136 28:-0.744367 29:-0.576023 30:-0.699874 31:-0.522462 32:0.463919 33:0.585495 34:0.242283 35:-0.508277 36:-0.370294 37:-0.75224 38:0.400829 39:0.229879 40:0.656529 
1.636842987878127 0.8510610974719127 0.02885911566936252 0 1:-0.0553507 2:0.0447081 3:0.151066 4:-0.289179 5:-0.395058 6:-0.739393 7:-0.371214 8:0.722282 9:-0.0455086 10:-0.741011 11:0.358791 12:-0.799092 13:0.4252 14:-0.379015 15:-0.378145 16:-0.364671 17:0.499853 18:-0.109485 19:-0.210802 20:-0.23028 21:-0.416524 22:-0.565526 23:0.242111 24:-0.379031 25:-0.372496 26:-0.565553 27:-0.287531 28:-0.757395 29:-0.554164 30:-0.505917 31:-0.351685 32:-0.418414 33:-0.844254 34:0.0353136 35:0.752557 36:0.550401 37:0.175076 38:0.0507527 39:0.736763 40:-0.368337 
0 0 0.2993336793656683 0 1:-0.0608386 2:0.468816 3:0.0606111 4:-0.617646 5:0.312384 6:-0.535116 7:-0.159525 8:0.924391 9:-0.252459 10:-0.945218 11:0.790332 12:-0.669493 13:0.884989 14:-0.284537 15:0.167249 16:0.0897947 17:0.421878 18:-0.129271 19:-0.197709 20:-0.168589 21:-0.347378 22:-0.470382 23:-0.292501 24:-0.880711 25:-0.398664 26:-0.588117 27:0.718279 28:-0.661342 29:-0.525327 30:-0.221188 31:-0.274004 32:-0.569882 33:-0.958937 34:-0.504915 35:0.899916 36:0.794917 37:0.682149 38:0.306997 39:0.937013 40:0.28666 
0 0.5864980460442833 1.090448854377944 0.4675738341258127 1:-0.826431 2:-0.41256 3:0.354896 4:0.0403659 5:-0.896493 6:-0.860486 7:-0.821558 8:-0.0732785 9:-0.4555 10:0.136296 11:-0.82481 12:-0.430955 13:-0.4374 14:-0.794088 15:-0.890943 16:-0.839207 17:0.474215 18:-0.11228 19:-0.185663 20:-0.522909 21:-0.584977 22:-0.777989 23:-0.475399 24:-0.875917 25:-0.0807789 26:-0.115695 27:0.691863 28:-0.853941 29:-0.743747 30:-0.458118 31:-0.586786 32:0.26535 33:0.567179 34:0.466629 35:0.875514 36:0.77465 37:0.400579 38:0.325257 39:0.489853 40:-0.254898 
0.5062785812329771 0.08125471357384448 1.77774880272784 0.3476676805256147 1:0.863489 2:-0.415046 3:0.580874 4:0.134243 5:-0.417798 6:-0.603697 7:-0.675682 8:-0.322599 9:0.267549 10:0.0299719 11:-0.77536 12:-0.874146 13:-0.844413 14:-0.341431 15:-0.705613 16:-0.527857 17:0.560618 18:-0.528668 19:0.285237 20:0.670267 21:0.323637 22:-0.329345 23:0.404182 24:0.526241 25:-0.19322 26:-0.441351 27:-0.369366 28:-0.640566 29:0.297575 30:0.450075 31:0.493483 32:-0.0276452 33:-0.0631458 34:0.294822 35:0.175444 36:0.272427 37:-0.310647 38:-0.102152 39:-0.117216 40:0.0658449 
0 1.095407853012493 0.2487155381543857 0.2566803078844936 1:0.944949 2:-0.312341 3:0.374096 4:0.163287 5:-0.237909 6:-0.765279 7:-0.322123 8:-0.587378 9:0.1378 10:-0.345084 11:-0.109694 12:-0.892205 13:-0.167066 14:-0.162567 15:-0.503568 16:-0.282386 17:0.51441 18:-0.553897 19:0.141342 20:0.515307 21:0.108671 22:-0.35481 23:0.314202 24:0.244655 25:0.406145 26:-0.545658 27:-0.665881 28:-0.551938 29:0.0795746 30:0.307825 31:0.314825 32:-0.76231 33:-0.651178 34:-0.773719 35:0.204945 36:0.21626 37:0.512522 38:0.461855 39:0.256112 40:0.0676269 
0.423263729230654 1.076690826377384 0.5856422321946568 1.257903940283893 1:-0.122386 2:0.109741 3:0.12959 4:0.662045 5:0.116685 6:-0.4148 7:-0.388122 8:0.468535 9:-0.527412 10:0.133654 11:-0.00788822 12:-0.0724507 13:-0.832624 14:-0.0128649 15:-0.248193 16:-0.110487 17:0.577415 18:-0.135229 19:0.149984 20:0.129967 21:-0.357425 22:-0.665193 23:0.0664129 24:0.176762 25:0.315276 26:-0.534731 27:-0.854407 28:-0.613052 29:-0.272689 30:-0.106975 31:-0.134874 32:0.364064 33:0.173329 34:0.411804 35:-0.799489 36:-0.463211 37:-0.556096 38:0.793905 39:0.630122 40:0.475347 
0.5578614410202607 0 0.08332037128665322 0 1:-0.1016 2:-0.178419 3:0.489405 4:-0.16709 5:0.0253296 6:-0.188261 7:-0.126216 8:0.197445 9:-0.459803 10:-0.0738814 11:-0.461975 12:-0.345276 13:-0.544552 14:0.199675 15:-0.267013 16:0.0114115 17:0.480521 18:-0.218565 19:0.415123 20:0.42633 21:0.0403751 22:-0.37669 23:0.24716 24:0.304394 25:-0.326768 26:-0.445249 27:-0.572775 28:-0.567155 29:-0.0745302 30:0.366196 31:0.266647 32:0.424728 33:0.40049 34:0.42669 35:-0.703083 36:-0.594964 37:-0.536499 38:-0.178827 39:-0.219598 40:-0.102629 
0.9583618405216836 0.4338038517759907 0.7413370803906547 0.1521016646554877 1:-0.145384 2:-0.308529 3:0.306554 4:0.567963 5:0.0494068 6:-0.392571 7:-0.470918 8:0.385608 9:-0.640245 10:0.202177 11:-0.0877696 12:0.195167 13:-0.624002 14:-0.111998 15:-0.320632 16:-0.184272 17:0.52832 18:-0.417381 19:0.354173 20:0.127977 21:-0.361274 22:-0.530633 23:0.200762 24:0.0648001 25:0.109745 26:-0.57518 27:-0.890425 28:-0.399903 29:-0.273278 30:-0.256119 31:-0.00232643 32:0.0743521 33:-0.273206 34:-0.445984 35:-0.419801 36:0.132137 37:0.0614486 38:0.888538 39:0.466344 40:0.86255 
0.2250758562909414 0.8478494273135584 0.4611807757448372 0.4038253475012539 1:-0.0909399 2:0.096583 3:0.147961 4:-0.349447 5:0.440624 6:-0.240276 7:-0.0763475 8:0.578291 9:-0.3774 10:-0.650488 11:-0.0932561 12:-0.624505 13:0.211032 14:0.189909 15:0.134696 16:0.201853 17:0.557199 18:-0.347063 19:0.262782 20:0.0405228 21:-0.145174 22:-0.653265 23:0.437029 24:0.568163 25:-0.230314 26:-0.11385 27:-0.0195452 28:-0.694008 29:-0.227122 30:0.152476 31:-0.0210409 32:0.99536 33:0.927827 34:0.724994 35:-0.807111 36:-0.651603 37:-0.436482 38:-0.768136 39:-0.85091 40:-0.603363 
0.9274707738922442 0.7284765403136767 0.414057383953467 0.593097830188947 1:-0.286425 2:-0.596782 3:0.483209 4:0.57002 5:-0.13003 6:-0.0480953 7:-0.396819 8:0.147524 9:-0.829117 10:0.518922 11:-0.6367 12:0.581566 13:-0.344891 14:-0.0667989 15:-0.327341 16:-0.144911 17:0.392703 18:-0.540436 19:-0.14383 20:0.314971 21:-0.412609 22:0.379113 23:-0.0888126 24:0.316088 25:-0.449867 26:-0.563846 27:-0.685053 28:-0.52574 29:0.0180336 30:0.0534298 31:0.267134 32:-0.590484 33:-0.0913468 34:-0.0878749 35:0.69515 36:-0.0731603 37:0.684505 38:-0.531044 39:-0.125572 40:-0.948144 
1.036801614805376 0.9348493745847366 0.5140718495290807 0 1:0.995095 2:-0.547566 3:0.649433 4:0.169803 5:-0.189109 6:-0.695844 7:-0.407786 8:-0.48644 9:0.30164 10:0.288097 11:-0.382262 12:-0.760789 13:-0.0401715 14:-0.2687 15:-0.460353 16:-0.295565 17:0.413155 18:-0.428267 19:0.444124 20:0.167343 21:-0.415031 22:-0.458082 23:0.427173 24:0.320833 25:0.328015 26:-0.064698 27:-0.421474 28:-0.397508 29:-0.19509 30:0.00907732 31:0.0468165 32:-0.876837 33:-0.836864 34:-0.748996 35:-0.409393 36:-0.257229 37:-0.0540351 38:0.880663 39:0.827936 40:0.388789 
-3.66801617282 3.66801617282 3.66801617282 3.66801617282 1:0.942684 2:-0.243385 3:0.212623 4:0.106362 5:-0.922693 6:-0.962108 7:-0.953041 8:-0.776729 9:0.433722 10:-0.198702 11:0.398449 12:-0.427841 13:-0.842545 14:-0.928459 15:-0.963935 16:-0.954488 17:0.37072 18:-0.140304 19:-0.0842553 20:-0.655233 21:-0.819323 22:-0.842318 23:-0.311138 24:-0.313191 25:-0.344484 26:-0.571297 27:-0.681027 28:-0.543688 29:-0.80327 30:-0.711134 31:-0.718498 32:0.499617 33:0.453613 34:-0.1319 35:-0.656547 36:-0.719867 37:0.0941234 38:0.727794 39:0.676829 40:-0.294345 
-1.271654894146139 0.9640438548347103 0.7617988055380712 0.8589030045582644 1:-0.324012 2:0.415401 3:-1 4:-0.14518 5:-0.083344 6:1 7:1 8:0.849785 9:-0.831541 10:-0.368758 11:0.618756 12:0.492476 13:0.102676 14:1 15:1 16:1 17:0.0102552 18:-0.313376 19:-0.293355 20:0.231367 21:-0.64941 22:-0.465532 23:-0.097212 24:0.118648 25:-0.0763897 26:-0.530979 27:-0.789409 28:-0.942215 29:-0.0499811 30:-0.286683 31:-0.0816376 32:-0.748508 33:-0.0339273 34:-0.25556 35:0.771617 36:-0.00232976 37:0.352947 38:0.282674 39:0.138611 40:-0.0581085 
-2.453836497136991 2.210935784373261 1.753514906439641 1.523644821750076 1:-0.117873 2:-0.122815 3:0.145682 4:-0.0583406 5:-0.197689 6:-0.205081 7:-0.372631 8:0.706414 9:-0.224185 10:-0.119436 11:0.279916 12:-0.648204 13:-0.471887 14:-0.148033 15:-0.334486 16:-0.216331 17:0.120351 18:-0.359568 19:-0.0559083 20:0.0478671 21:-0.395212 22:-0.295951 23:0.234537 24:-0.309418 25:-0.0467875 26:-0.575026 27:-0.213556 28:-0.990093 29:-0.132708 30:-0.209698 31:-0.0656424 32:-0.528311 33:-0.785829 34:-0.0121712 35:0.632417 36:0.681319 37:-0.0985942 38:0.106943 39:0.32956 40:0.0439741 
-1.751283752505411 2.035027052473918 2.794154411128055 1.199928391839915 1:0.203639 2:-0.379802 3:0.730589 4:0.277657 5:-0.531447 6:-0.422763 7:-0.437696 8:0.0727266 9:0.0850358 10:0.584056 11:-0.783337 12:-0.98663 13:-0.098183 14:-0.341479 15:-0.542573 16:-0.393899 17:-0.151883 18:-1 19:0.123797 20:0.0961272 21:0.170392 22:-0.635572 23:-0.213521 24:-0.179073 25:0.0933717 26:-0.914106 27:-0.941055 28:-0.963135 29:0.127244 30:0.145812 31:0.411471 32:-0.0755067 33:-0.0487666 34:0.0211181 35:-0.806881 36:-0.725932 37:0.866536 38:-0.44565 39:-0.454017 40:0.453465 
-0.9730901644484651 0.7621959495207542 0.4893652140058198 0.6223186318283912 1:-0.424694 2:-0.0954592 3:-0.735069 4:0.402853 5:-0.34501 6:0.70833 7:0.462698 8:0.101651 9:-0.570157 10:0.323863 11:-0.759379 12:-0.114836 13:0.00899193 14:0.402046 15:0.092212 16:0.508465 17:1 18:0.737119 19:-0.334664 20:-0.629688 21:-0.374712 22:-0.724313 23:0.616137 24:0.233275 25:-0.0728856 26:-0.0710839 27:-0.712125 28:-0.965134 29:-0.205095 30:-0.162817 31:-0.100576 32:0.601944 33:0.235028 34:-0.0866457 35:-0.858603 36:-0.511039 37:0.294576 38:-0.10534 39:-0.0503954 40:-0.161472 
-1.488532238560952 1.184384760858437 2.193854760569838 0.5598620614565927 1:0.675268 2:-0.318763 3:0.469794 4:-0.0643199 5:-0.778001 6:-0.581908 7:-0.967097 8:-0.355803 9:0.465282 10:-0.114799 11:-0.74402 12:-0.507405 13:-0.763873 14:-0.739719 15:-0.831615 16:-0.781025 17:0.0899393 18:-0.600235 19:0.0509984 20:-0.193855 21:-0.437043 22:-0.497857 23:0.126209 24:0.145278 25:-0.217362 26:-0.263068 27:-0.730138 28:-0.87029 29:-0.229308 30:-0.4202 31:-0.114185 32:-0.06287 33:-0.457127 34:0.847376 35:-0.140863 36:0.264671 37:-0.696415 38:0.562666 39:0.322543 40:0.0205681 
-0 0.6341578587716126 0 0 1:-0.404938 2:-0.286389 3:0.437549 4:0.620483 5:-0.565304 6:-0.154542 7:0.147321 8:0.249179 9:-0.320913 10:0.822264 11:-0.646448 12:-0.371504 13:0.49847 14:-0.0150648 15:-0.120562 16:0.0563803 17:0.107208 18:-0.612225 19:0.0284124 20:-0.373155 21:-0.144946 22:-0.756677 23:-0.179625 24:-0.140221 25:0.0566464 26:-0.917671 27:-0.873843 28:-0.835624 29:-0.16886 30:-0.174078 31:-0.0995125 32:-0.0608949 33:-0.0987381 34:0.152699 35:-0.0841136 36:0.00960133 37:-0.0589611 38:-0.379751 39:-0.458523 40:0.513188 
-0.07027101324289488 0 0 0 1:0.0101841 2:-0.235563 3:0.424019 4:0.402767 5:-0.432819 6:-0.573184 7:-0.643375 8:0.182881 9:0.248364 10:0.0405268 11:-0.431739 12:-0.902714 13:-0.444632 14:-0.483757 15:-0.696107 16:-0.51284 17:0.0566983 18:-0.432018 19:-0.0309656 20:0.27162 21:-0.687186 22:-0.345873 23:-0.644814 24:-0.0357306 25:-0.387806 26:0.0945408 27:-0.874056 28:-0.633159 29:-0.249569 30:-0.104217 31:-0.0222241 32:-0.87102 33:-0.540297 34:0.494573 35:0.266983 36:0.483442 37:-0.701246 38:-0.179838 39:0.00667904 40:-0.0996611 
-0.8170769125020071 0.4010156743463963 0.6458461049254177 0.4417321161238345 1:-0.466664 2:-0.416279 3:-0.444753 4:-0.586818 5:-0.625617 6:0.864349 7:0.072626 8:-0.337929 9:-0.763773 10:-0.733996 11:-0.513741 12:0.487654 13:0.335971 14:0.136658 15:0.215999 16:0.263276 17:0.275122 18:-0.0918319 19:0.0915221 20:0.111785 21:-0.102363 22:-0.521524 23:0.293949 24:0.41521 25:-0.0891679 26:-0.203475 27:-0.394848 28:-0.811746 29:-0.272353 30:-0.0127542 31:-0.0301701 32:0.323023 33:0.326057 34:-0.799405 35:-0.750416 36:-0.642509 37:0.708072 38:-0.573177 39:-0.521644 40:0.435054 
-1.624038296111393 0 0 0.172836382449849 1:-0.107671 2:-0.265027 3:0.526033 4:0.089342 5:-0.189488 6:-0.453593 7:-0.40543 8:0.826528 9:-0.186305 10:0.341887 11:0.593035 12:-0.556081 13:-0.353232 14:-0.312587 15:-0.453747 16:-0.274519 17:0.364413 18:-0.170976 19:-0.220491 20:0.243881 21:-0.388164 22:-0.147551 23:-0.0676035 24:0.245467 25:-0.32973 26:-0.310612 27:-0.759538 28:-0.708092 29:-0.319265 30:-0.0582558 31:-0.0208117 32:-0.673895 33:-0.333411 34:-0.439593 35:0.690782 36:0.548687 37:0.185828 38:0.0782244 39:-0.150663 40:-0.182493 
-0.2583498722278351 0.4821513717364523 0.6373072772557261 0.361725010176086 1:-0.698533 2:-0.337431 3:-0.3157 4:-0.167372 5:-0.372346 6:-0.0114573 7:-0.489795 8:-0.491817 9:-0.971812 10:-0.894426 11:-0.0500931 12:0.931855 13:0.75236 14:-0.518272 15:-0.152949 16:-0.277231 17:0.526139 18:0.0725608 19:-0.196007 20:-0.709696 21:-0.61979 22:-0.755556 23:0.0931472 24:0.379562 25:-0.732769 26:-0.453174 27:-0.175263 28:0.288514 29:-0.771995 30:-0.5027 31:-0.656029 32:-0.745112 33:-0.698343 34:0.750056 35:-0.624596 36:-0.776037 37:0.935711 38:-0.657382 39:-0.788192 40:0.886802 
-0.699124134684682 0.452871054503499 0.6411993649383365 0.6425354357853733 1:-0.537104 2:-0.374092 3:-0.287831 4:-0.518284 5:-0.74681 6:0.440028 7:0.069043 8:0.0227302 9:-1 10:-0.809601 11:-0.807904 12:1 13:0.623292 14:-0.0870682 15:0.115747 16:0.115061 17:0.47339 18:0.0668236 19:-0.22239 20:-0.45503 21:-0.543516 22:-0.709065 23:-0.679293 24:-0.565259 25:-0.296278 26:-0.0944055 27:0.174438 28:-0.648532 29:-0.658498 30:-0.414685 31:-0.533358 32:0.584919 33:0.691033 34:-0.518713 35:0.772019 36:0.850189 37:-0.443874 38:0.864461 39:0.780204 40:-0.393221 
-0 2.771001867130868 2.826529416996235 1.361690972016896 1:0.12976 2:-0.116482 3:0.492169 4:-0.00775334 5:-0.748552 6:-0.794917 7:-0.878403 8:0.586958 9:0.196877 10:-0.106027 11:0.0790356 12:-0.929712 13:-0.608353 14:-0.840283 15:-0.822911 16:-0.805203 17:0.452643 18:-0.0855062 19:-0.168052 20:-0.764958 21:-0.59677 22:-0.746108 23:-0.0982543 24:-0.315747 25:-0.352021 26:-0.769283 27:-0.453317 28:-0.627027 29:-0.725672 30:-0.685855 31:-0.660488 32:-0.596727 33:-0.94229 34:0.563371 35:-0.326372 36:-0.275154 37:-0.270015 38:-0.332513 39:0.17368 40:-0.319607 
-0.9186117765433904 0 0 0 1:0.473164 2:-0.244535 3:0.368482 4:-0.206377 5:-0.768449 6:-0.656881 7:-0.466742 8:0.0996727 9:0.610516 10:-0.939196 11:-0.22304 12:-0.0707879 13:0.859778 14:-0.584178 15:-0.601064 16:-0.530281 17:0.399187 18:0.101247 19:-0.200786 20:-0.523027 21:-0.728709 22:-0.784999 23:-0.839244 24:0.188401 25:-0.341232 26:0.339928 27:-0.68055 28:-0.689266 29:-0.769557 30:-0.674135 31:-0.651561 32:-0.334419 33:-0.163878 34:-0.0086552 35:-0.95334 36:-0.437834 37:0.0381669 38:0.888904 39:0.518304 40:-0.30449 
-2.436797958277908 3.120045872510435 3.265365630609794 1.038064578109211 1:0.099557 2:-0.134053 3:0.120132 4:0.208855 5:-0.714255 6:-0.849822 7:-0.888635 8:-0.0346053 9:0.234132 10:0.614328 11:-0.628156 12:-0.871182 13:-0.0878256 14:-0.765904 15:-0.897916 16:-0.806687 17:0.486827 18:0.0653525 19:-0.108543 20:-0.76437 21:-0.711695 22:-0.864189 23:0.177609 24:0.357561 25:-0.0313554 26:-0.433641 27:-0.124616 28:-0.607008 29:-0.828156 30:-0.693439 31:-0.740373 32:0.82341 33:0.94466 34:-0.937539 35:0.424628 36:0.303011 37:0.0668543 38:0.255546 39:0.255195 40:-0.242585 
-2.368976474982453 0 0 0 1:0.126808 2:-0.132902 3:0.321144 4:0.220043 5:-0.771311 6:-0.859447 7:-0.80461 8:0.378022 9:0.316181 10:-0.153217 11:-0.375661 12:-0.777973 13:-0.119077 14:-0.77039 15:-0.818947 16:-0.790323 17:0.335416 18:-0.0567467 19:-0.116661 20:-0.101629 21:-0.550473 22:-0.819952 23:-0.615577 24:-0.38909 25:-0.268174 26:-0.0873588 27:-0.53941 28:-0.831581 29:-0.528438 30:-0.476273 31:-0.395767 32:-0.949052 33:0.0745353 34:-0.179491 35:-0.431656 36:-0.0546313 37:-0.876128 38:-0.619683 39:0.495605 40:-0.211831 
-2.390757540346159 0 0.2119895439453231 1.291972039671586 1:0.01457 2:-0.166706 3:0.274341 4:0.234119 5:-0.681782 6:-0.817179 7:-0.853126 8:0.261492 9:0.22103 10:0.378866 11:-0.265442 12:-0.896382 13:-0.470365 14:-0.770844 15:-0.884704 16:-0.771286 17:0.539636 18:0.0801368 19:-0.160262 20:-0.54689 21:-0.66818 22:-0.761236 23:0.369077 24:0.188109 25:-0.716688 26:-0.272951 27:-0.399288 28:0.25326 29:-0.765606 30:-0.472596 31:-0.620836 32:0.957745 33:0.939663 34:-0.976916 35:0.0300831 36:-0.133997 37:0.0458364 38:0.379999 39:0.296806 40:-0.386869 
-0 0.1373474241148814 0 0 1:-0.586192 2:-0.265467 3:0.469121 4:0.493272 5:-0.658558 6:-0.439476 7:-0.396803 8:0.0975336 9:-0.534134 10:0.996727 11:-0.746502 12:0.124871 13:0.788426 14:-0.513877 15:-0.534099 16:-0.404975 17:0.439972 18:-0.122651 19:-0.176498 20:-0.531297 21:-0.544323 22:-0.772856 23:-0.328331 24:-0.28942 25:-0.248331 26:-0.556996 27:-0.589462 28:-0.77186 29:-0.687923 30:-0.56199 31:-0.568921 32:0.504852 33:0.135642 34:-0.682865 35:0.409818 36:0.173655 37:-0.341459 38:-0.136473 39:-0.485234 40:-0.0427399 
-0.5503827400606249 0 0 0 1:-0.656736 2:-0.220759 3:-0.0306537 4:-0.779382 5:-0.605424 6:-0.171242 7:0.215956 8:-0.377108 9:-0.885314 10:-0.966538 11:-0.342279 12:0.725841 13:0.927608 14:-0.0890951 15:0.111717 16:0.103084 17:0.332587 18:-0.108014 19:-0.13617 20:-0.234413 21:-0.393019 22:-0.744453 23:-0.623373 24:-0.138146 25:-0.20774 26:-0.0521979 27:-0.547261 28:-0.684454 29:-0.577368 30:-0.513961 31:-0.374979 32:0.454811 33:-0.503422 34:-0.0494741 35:0.697877 36:-0.30444 37:-0.129658 38:0.776996 39:-0.237316 40:-0.145265 
-0 0.845245193061705 0 0.4269998567239361 1:-0.837478 2:-0.494138 3:0.245537 4:-0.276347 5:-0.587488 6:-0.706662 7:-0.738115 8:-0.104252 9:-0.0867914 10:-0.53604 11:-0.690453 12:-0.554935 13:0.0269228 14:-0.609678 15:-0.709759 16:-0.648476 17:0.424707 18:0.0458608 19:-0.166809 20:-0.339634 21:-0.71361 22:-0.579177 23:-0.356674 24:0.0902971 25:-0.375965 26:-0.425843 27:-0.662527 28:-0.563857 29:-0.607213 30:-0.570033 31:-0.512762 32:-0.0101632 33:-0.652954 34:0.318159 35:0.282094 36:-0.320132 37:-0.111661 38:0.689013 39:0.000827582 40:-0.419356 
-1.482915552231669 2.383507199594146 1.842719969962121 1.897260843705035 1:0.218599 2:-0.302302 3:0.381905 4:0.0727132 5:-0.670083 6:-0.617774 7:-0.930916 8:0.965877 9:0.687936 10:-0.100638 11:0.91648 12:0.0998681 13:-0.625664 14:-0.744734 15:-0.736757 16:-0.746857 17:0.553309 18:-0.115957 19:-0.0176759 20:-0.423866 21:-0.658862 22:-0.400676 23:0.255778 24:-0.369129 25:0.324611 26:-0.676194 27:-0.141275 28:-0.367485 29:-0.663206 30:-0.41974 31:-0.422049 32:0.0902384 33:-0.771701 34:0.651609 35:0.54467 36:-0.65119 37:0.694612 38:-0.536901 39:0.512131 40:-0.688984 
-0 1.525105798479735 0 0 1:0.570485 2:-0.242857 3:0.349315 4:0.302294 5:-0.790388 6:-0.650413 7:-0.651801 8:0.163656 9:0.77386 10:0.425193 11:-0.650703 12:0.3543 13:0.00778361 14:-0.639718 15:-0.705833 16:-0.659168 17:0.427418 18:0.083079 19:-0.227365 20:-0.738715 21:-0.730436 22:-0.78594 23:0.184092 24:0.285996 25:-0.232413 26:-0.23429 27:-0.448497 28:-0.558668 29:-0.842364 30:-0.66908 31:-0.736256 32:0.119979 33:0.494594 34:-0.575123 35:0.708102 36:0.677453 37:-0.490027 38:0.903526 39:0.723135 40:-0.493609 
-3.66801617282 3.265251040184163 3.66801617282 3.66801617282 1:0.864522 2:-0.322695 3:0.272674 4:0.0951212 5:-0.922728 6:-0.96102 7:-0.988007 8:-0.166131 9:0.311222 10:-0.0629158 11:-0.706457 12:-0.570061 13:-0.796898 14:-0.920709 15:-0.963101 16:-0.961048 17:0.343431 18:0.0302674 19:-0.19234 20:-0.723653 21:-0.682243 22:-0.695954 23:0.473947 24:0.279647 25:0.0582384 26:0.11963 27:-0.587687 28:-0.984471 29:-0.752995 30:-0.711824 31:-0.673971 32:-0.653328 33:-0.203932 34:-0.29122 35:0.733652 36:0.150945 37:0.448469 38:0.78164 39:0.159068 40:0.521691 
-0.380906909874792 0.4548517867315992 0 0.4219511435495347 1:-0.0630206 2:-0.208803 3:0.299193 4:0.477854 5:-0.797099 6:-0.870107 7:-0.731197 8:0.417777 9:0.234859 10:0.80168 11:-0.244819 12:-0.858194 13:0.303957 14:-0.694121 15:-0.764142 16:-0.736079 17:0.441563 18:0.0415946 19:-0.173944 20:-0.726487 21:-0.808026 22:-0.777384 23:0.129537 24:-0.10448 25:-0.153332 26:-0.578396 27:-0.529936 28:-0.979566 29:-0.803859 30:-0.811329 31:-0.763833 32:-0.891268 33:-0.823688 34:-0.0991942 35:0.907393 36:0.971748 37:-0.55687 38:-0.431534 39:-0.472347 40:-0.646772 
-2.605728651388235 3.197121780571962 3.66801617282 2.59756144535502 1:0.860944 2:-0.316245 3:0.254918 4:0.0673521 5:-0.850624 6:-0.931487 7:-0.964926 8:-0.331818 9:0.625184 10:-0.257634 11:-0.622049 12:0.0358026 13:-0.617806 14:-0.880179 15:-0.927414 16:-0.918066 17:0.334709 18:0.038726 19:-0.0591817 20:-0.763518 21:-0.798072 22:-0.684024 23:-0.308385 24:0.19418 25:-0.100669 26:-0.346077 27:-0.759827 28:-0.98541 29:-0.69818 30:-0.817075 31:-0.696879 32:0.864287 33:0.780756 34:0.460487 35:-0.686533 36:-0.482172 37:0.0637807 38:0.302502 39:-0.0635453 40:0.540807 
-0.3585997407849291 0 1.304486523589247 0 1:-0.0214893 2:-0.29775 3:0.339649 4:0.237535 5:-0.809295 6:-0.795902 7:-0.854663 8:0.267683 9:0.251419 10:0.287042 11:-0.442049 12:-0.848256 13:-0.843555 14:-0.813756 15:-0.90605 16:-0.817945 17:0.390287 18:-0.0751352 19:-0.100229 20:-0.343436 21:-0.713356 22:-0.682454 23:-0.189145 24:0.287543 25:-0.222799 26:-0.523511 27:-0.649918 28:-0.923682 29:-0.615789 30:-0.695048 31:-0.534075 32:-0.901518 33:-0.38991 34:-0.0340223 35:0.623804 36:0.560381 37:-0.6472 38:0.190606 39:0.358869 40:-1 
-0 0.500237652110082 1.124587056177091 0.4833577713612389 1:-0.759068 2:-0.255648 3:0.173075 4:0.0559437 5:-0.795817 6:-0.835576 7:-0.853304 8:-0.266838 9:-0.424178 10:-0.474241 11:-0.784276 12:-0.152927 13:0.0102784 14:-0.822631 15:-0.855671 16:-0.831961 17:0.437319 18:-0.0185723 19:-0.0767921 20:-0.772978 21:-0.813956 22:-0.846994 23:0.149826 24:0.360898 25:-0.868919 26:-0.551078 27:-0.296376 28:0.647788 29:-0.806045 30:-0.755487 31:-0.781427 32:-0.693687 33:-0.681884 34:0.505239 35:-0.469645 36:-0.556385 37:0.886275 38:-0.626225 39:-0.653698 40:0.790508 
-1.718669510527203 2.36052416869794 0.484924886591204 2.147998205942869 1:-0.58258 2:-0.257672 3:0.132844 4:0.0228397 5:-0.836684 6:-0.57651 7:-0.747597 8:0.00393056 9:-0.451544 10:-0.300323 11:-0.800814 12:-0.176193 13:-0.344041 14:-0.68997 15:-0.768335 16:-0.720718 17:0.363411 18:-0.0540988 19:-0.0954501 20:-0.528982 21:-0.753372 22:-0.543206 23:-0.31896 24:-0.0876186 25:-0.255811 26:-0.498069 27:-0.805233 28:-0.865515 29:-0.585691 30:-0.685166 31:-0.569452 32:0.395551 33:0.0506756 34:-0.467 35:0.569826 36:0.492233 37:0.293775 38:0.822156 39:0.487011 40:-0.10632 
-2.472482530832175 0 0 1.861762691284668 1:0.736237 2:-0.398303 3:0.402621 4:0.128177 5:-0.793549 6:-0.775476 7:-0.906921 8:-0.270738 9:0.614448 10:0.257723 11:-0.797223 12:-0.236747 13:-0.452319 14:-0.806133 15:-0.845264 16:-0.82732 17:0.33742 18:0.0375492 19:-0.0724059 20:-0.24677 21:-0.37393 22:-0.528296 23:-0.360488 24:0.446706 25:-0.393763 26:-0.315199 27:-0.532239 28:-0.680937 29:-0.553239 30:-0.381363 31:-0.320571 32:0.562037 33:-0.039646 34:0.983679 35:-0.904047 36:-0.382606 37:-0.851717 38:-0.292504 39:-0.171931 40:-0.0737508 
-0.8328193327926893 0 0 0.1116196179532623 1:-0.307245 2:-0.415405 3:0.441147 4:0.278428 5:-0.701602 6:-0.51747 7:-0.561236 8:0.142928 9:-0.324971 10:0.466487 11:-0.673154 12:-0.174314 13:-0.277167 14:-0.476358 15:-0.614186 16:-0.545736 17:0.336889 18:0.178037 19:0.074239 20:-0.452853 21:-0.66864 22:-0.839581 23:0.567798 24:0.554788 25:-0.56911 26:-0.274514 27:-0.368381 28:-0.287173 29:-0.603682 30:-0.601747 31:-0.526953 32:0.387755 33:0.454885 34:-0.561491 35:-0.512522 36:-0.46624 37:0.540531 38:0.797887 39:0.7958 40:-0.879632 
-0.8182922830886217 0 0 0 1:-0.578383 2:-0.367105 3:0.105536 4:-0.0633423 5:-0.728712 6:-0.303548 7:-0.12569 8:-0.21919 9:-0.590363 10:-0.810617 11:-0.799099 12:0.183956 13:0.57807 14:-0.110401 15:-0.295572 16:-0.210301 17:0.709613 18:0.482476 19:-0.175385 20:-0.470761 21:-0.426289 22:-0.900546 23:0.195661 24:0.259741 25:0.195363 26:-0.887346 27:-0.865465 28:-0.964348 29:-0.487915 30:-0.482247 31:-0.353311 32:-0.212105 33:-0.173923 34:-0.212682 35:0.0140527 36:-0.0415158 37:0.0849754 38:-0.17634 39:-0.24868 40:-0.135045 
-3.370957943115008 1.625488254250344 0.7896959219023926 1.113012259759358 1:-0.515731 2:-0.150059 3:0.142743 4:0.0275187 5:-0.805885 6:-0.605668 7:-0.552494 8:0.333736 9:-0.483478 10:-0.479098 11:-0.343977 12:-0.083861 13:0.181283 14:-0.561367 15:-0.689269 16:-0.594133 17:0.37402 18:0.142584 19:0.0208183 20:-0.797821 21:-0.867041 22:-0.937854 23:0.588775 24:0.357739 25:-0.52826 26:-0.0236153 27:-0.465661 28:-0.249598 29:-0.738703 30:-0.830403 31:-0.750915 32:0.0526737 33:0.545684 34:-0.568515 35:-0.747929 36:-0.908758 37:0.938035 38:-0.553841 39:-0.426772 40:0.47034 
-3.66801617282 0 1.665722527239681 2.231438219894115 1:-0.333333 2:-0.358639 3:0.331205 4:0.0580305 5:-0.831293 6:-0.720598 7:-0.790274 8:-0.160078 9:-0.0922473 10:0.06713 11:-0.775219 12:-0.543605 13:-0.877488 14:-0.667332 15:-0.888273 16:-0.777939 17:0.32133 18:0.171417 19:0.133748 20:-0.434158 21:-0.842083 22:-0.817491 23:0.359943 24:-0.0079436 25:-0.446556 26:-0.564003 27:-0.61444 28:-0.543018 29:-0.58754 30:-0.749741 31:-0.531674 32:0.0173626 33:0.805992 34:-0.438933 35:-0.0927953 36:-0.658297 37:0.211145 38:0.576293 39:0.293588 40:-0.825772 
-0.374194258271173 1.519329000450877 3.11615793602081 2.430645078052091 1:0.697312 2:-0.429393 3:0.382785 4:0.177001 5:-0.795923 6:-0.724625 7:-0.795286 8:-0.197121 9:0.622442 10:0.339049 11:-0.916141 12:-0.10551 13:-0.339155 14:-0.740936 15:-0.778715 16:-0.761729 17:0.335121 18:-0.0438748 19:0.0886416 20:-0.502568 21:-0.594227 22:-0.888817 23:0.601623 24:0.60863 25:-0.349875 26:-0.028335 27:-0.144853 28:-0.487712 29:-0.651604 30:-0.583822 31:-0.53271 32:-0.545465 33:-0.499829 34:0.293852 35:0.951525 36:0.888265 37:-0.768219 38:0.601292 39:0.45529 40:-0.578417 
-3.385235710055559 1.269781964329083 1.22107197548365 2.275496337205281 1:-0.223451 2:-0.236829 3:0.386385 4:0.207704 5:-0.595825 6:-0.630551 7:-0.758928 8:0.0428681 9:-0.166911 10:0.327193 11:-0.829515 12:-0.389357 13:-0.785711 14:-0.566107 15:-0.755014 16:-0.655441 17:0.328107 18:0.0371079 19:-0.129034 20:-0.382009 21:-0.663763 22:-0.488486 23:-0.183352 24:-0.327369 25:-0.30006 26:-0.709971 27:-0.519992 28:-0.79319 29:-0.557863 30:-0.567965 31:-0.471055 32:-0.939835 33:-0.839151 34:-0.219831 35:0.652834 36:0.78466 37:-0.259074 38:-0.320443 39:-0.219602 40:-0.649777 
-0.5417817730562525 3.66801617282 3.206265999005715 1.410010381650623 1:0.69923 2:-0.207322 3:0.381882 4:0.0235848 5:-1 6:-1 7:-0.994812 8:-0.177906 9:0.588268 10:0.184426 11:-0.832547 12:0.000620859 13:-0.897727 14:-0.975299 15:-1 16:-1 17:0.264042 18:0.0337244 19:0.140556 20:-0.947532 21:-0.964021 22:-0.974353 23:-0.341295 24:0.445476 25:-0.149677 26:-0.601536 27:-0.295618 28:-0.755318 29:-0.584934 30:-0.868091 31:-0.695998 32:0.272948 33:-0.730678 34:0.661001 35:-0.354738 36:0.86144 37:-0.513348 38:-0.283288 39:0.534698 40:-0.0767935 
-1.741510548100366 0.2321471951416198 0 0.6071204809943168 1:-0.366534 2:-0.172718 3:0.268326 4:-0.0494368 5:-0.686555 6:-0.614153 7:-0.53792 8:0.0759843 9:-0.299876 10:-0.684583 11:-0.800991 12:-0.227991 13:0.350502 14:-0.516924 15:-0.638295 16:-0.558673 17:0.38292 18:0.0942591 19:-0.107496 20:-0.401062 21:-0.776223 22:-0.593584 23:-0.289243 24:0.15196 25:-0.386327 26:-0.484097 27:-0.801599 28:-0.678765 29:-0.643196 30:-0.694818 31:-0.547155 32:-0.857823 33:-0.824703 34:-0.104679 35:0.809575 36:0.774769 37:-0.220637 38:0.619552 39:0.580831 40:-0.285359 
-1.735516772537853 1.637167075052999 0.8597544638028572 0.6213280668096682 1:-0.186458 2:-0.105891 3:0.743303 4:0.126019 5:-0.603572 6:-0.549676 7:-0.67744 8:0.112753 9:-0.0309433 10:0.35817 11:-0.78782 12:-0.553863 13:-0.653315 14:-0.537011 15:-0.707944 16:-0.584956 17:0.394472 18:0.178919 19:0.130147 20:-0.434789 21:-0.640668 22:-0.877802 23:0.399747 24:0.411721 25:-0.125217 26:-0.45942 27:-0.386064 28:-0.900338 29:-0.598302 30:-0.559462 31:-0.498327 32:0.584509 33:0.898106 34:-0.8463 35:-0.175043 36:-0.393439 37:0.466149 38:0.82977 39:0.766544 40:-0.650983 
-0 0 0 0.1149842188625861 1:0.326694 2:-0.305587 3:0.415624 4:0.154751 5:-0.767007 6:-0.676554 7:-0.803773 8:-0.125563 9:0.600604 10:0.123637 11:-0.657863 12:-0.226177 13:-0.740316 14:-0.715835 15:-0.850688 16:-0.751358 17:0.308658 18:0.0535839 19:-0.147234 20:-0.460951 21:-0.519606 22:-0.709058 23:0.326198 24:-0.488275 25:-0.292235 26:-0.545575 27:-0.229723 28:-0.789513 29:-0.586784 30:-0.607951 31:-0.510463 32:-0.911617 33:-0.801332 34:0.459264 35:-0.395172 36:-0.788359 37:-0.479865 38:-0.656861 39:-0.567356 40:-0.360715 
-3.66801617282 0.8916736400573435 3.66801617282 3.66801617282 1:0.726402 2:-0.234833 3:0.237377 4:-0.00176173 5:-0.941779 6:-0.893758 7:-0.960954 8:0.0401198 9:0.156544 10:0.0515355 11:-0.728457 12:-0.618937 13:-0.965101 14:-0.962719 15:-0.972822 16:-0.955951 17:0.446042 18:-0.0052591 19:-0.187627 20:-0.909577 21:-0.921698 22:-0.926462 23:0.402715 24:-0.039709 25:-0.068699 26:-0.347149 27:-0.236102 28:-0.872499 29:-0.95376 30:-0.911525 31:-0.925073 32:-0.642827 33:-0.344862 34:0.763677 35:0.527851 36:0.499824 37:-0.92579 38:-0.368595 39:-0.0500716 40:-0.58147 
-1.112375083038032 2.0357727395162 1.989110906486608 0.6664525988343339 1:-0.675026 2:-0.28947 3:0.221474 4:0.0222118 5:-0.946624 6:-0.880492 7:-0.79761 8:-0.204823 9:-0.354688 10:-0.366855 11:-0.930588 12:-0.346669 13:-0.105586 14:-0.782468 15:-0.879183 16:-0.847599 17:0.436789 18:-0.00422935 19:-0.176039 20:-0.904854 21:-0.882773 22:-0.96009 23:0.23768 24:0.338423 25:-0.370531 26:-0.605166 27:-0.520353 28:-0.658437 29:-0.938123 30:-0.920487 31:-0.913772 32:-0.698796 33:-0.376109 34:0.32815 35:-0.150411 36:-0.58615 37:0.546681 38:0.00417262 39:-0.273376 40:0.156346 
-0 0.08854123469960322 0 0 1:0.326206 2:-0.199528 3:0.360803 4:0.0977267 5:-0.841739 6:-0.644905 7:-0.875397 8:0.482135 9:0.737422 10:0.257989 11:0.0240638 12:0.416594 13:-0.601357 14:-0.840954 15:-0.782838 16:-0.804168 17:0.396593 18:-0.00915745 19:-0.178462 20:-0.773873 21:-0.840394 22:-0.955985 23:-0.705928 24:0.0362651 25:-0.00346003 26:0.163136 27:-0.570467 28:-0.956271 29:-0.907941 30:-0.81041 31:-0.842064 32:-0.661866 33:-0.230065 34:-0.0652298 35:-0.683035 36:-0.54812 37:0.0767372 38:-0.399041 39:-0.0980872 40:-0.454832 
-0 0.4682740399138779 0.23205809340864 0.2411511976752089 1:-0.673399 2:-0.308984 3:0.0151348 4:-0.454163 5:-0.821632 6:-0.59815 7:-0.269662 8:-0.530731 9:-0.906876 10:-0.953062 11:-0.0817065 12:0.777423 13:0.888783 14:-0.435934 15:-0.370591 16:-0.371804 17:0.370425 18:-0.0205583 19:-0.178723 20:-0.613835 21:-0.832683 22:-0.935397 23:-0.602735 24:0.183561 25:-0.0169237 26:-0.320612 27:-0.421754 28:-0.406202 29:-0.805036 30:-0.776169 31:-0.759801 32:0.494935 33:0.233939 34:-0.603244 35:0.79408 36:0.200754 37:-0.700606 38:0.711482 39:0.252064 40:-0.792119 
-2.704161875683258 0.5645798389879392 1.368805844521762 1.559010375911 1:0.790191 2:-0.220511 3:0.24157 4:-0.0361125 5:-0.94715 6:-0.92861 7:-0.934356 8:-0.608352 9:0.581411 10:-0.115407 11:-0.0351876 12:-0.169409 13:-0.805134 14:-0.934821 15:-0.951863 16:-0.952741 17:0.431544 18:0.0140855 19:-0.212177 20:-0.840335 21:-0.878765 22:-0.9417 23:-0.523632 24:0.0608096 25:-0.416506 26:-0.106102 27:-0.638393 28:-0.659602 29:-0.925176 30:-0.896128 31:-0.888858 32:0.583117 33:0.0688828 34:0.296115 35:-0.730755 36:-0.16117 37:0.102745 38:0.0448468 39:-0.0535112 40:0.512466 
-0.8484372571214814 2.689322250153239 3.66801617282 3.66801617282 1:-0.161869 2:-0.208626 3:0.240477 4:0.196676 5:-0.955784 6:-0.951395 7:-0.922109 8:0.43201 9:-0.290791 10:-0.0393009 11:-0.210664 12:-0.226302 13:-0.691421 14:-0.878911 15:-0.96615 16:-0.939056 17:0.447634 18:-0.00592108 19:-0.171784 20:-0.947764 21:-0.920866 22:-0.956167 23:0.185911 24:0.480352 25:-0.329596 26:-0.570006 27:-0.123671 28:-0.599271 29:-0.96284 30:-0.969436 31:-0.941539 32:0.403548 33:0.902779 34:-0.290301 35:-0.192858 36:-0.888932 37:-0.0165649 38:0.591925 39:0.18431 40:-0.758879 
-0 0 1.800021897230301 1.536598757805578 1:0.213252 2:-0.204078 3:0.337221 4:0.0676654 5:-0.920753 6:-0.88255 7:-0.920331 8:0.266917 9:0.12796 10:-0.0763711 11:-0.293448 12:-0.79178 13:-0.822994 14:-0.892504 15:-0.944597 16:-0.920392 17:0.401191 18:-0.0119525 19:-0.217283 20:-0.811686 21:-0.87476 22:-0.946586 23:-0.391221 24:0.123767 25:-0.416122 26:-0.308003 27:-0.528079 28:-0.529935 29:-0.912481 30:-0.880731 31:-0.873793 32:-0.52466 33:-0.130195 34:0.204478 35:-0.0281726 36:-0.105373 37:-0.382001 38:0.575988 39:0.603753 40:-0.643029 
-2.272274833184931 2.152776659081734 1.639378060399926 0 1:-0.413238 2:-0.202608 3:0.205983 4:-0.0450267 5:-0.976726 6:-0.899472 7:-0.768196 8:0.119429 9:-0.0523996 10:-0.574242 11:-0.813107 12:-0.837674 13:0.0686361 14:-0.726327 15:-0.880356 16:-0.833372 17:0.386751 18:0.00915743 19:-0.220229 20:-0.713234 21:-0.899388 22:-0.916255 23:-0.501696 24:0.128093 25:-0.196409 26:-0.324727 27:-0.737663 28:-0.885912 29:-0.86313 30:-0.836148 31:-0.829274 32:-0.481964 33:-0.14977 34:0.095462 35:0.916767 36:0.592122 37:-0.499096 38:0.734719 39:0.837459 40:-0.683846 
-1.726199982832081 0 1.586447826815921 1.421078934695824 1:0.575319 2:-0.185145 3:0.267947 4:0.289522 5:-0.987142 6:-0.908417 7:-0.867987 8:-0.0185621 9:0.249344 10:0.413033 11:-0.923286 12:-0.596248 13:-0.547496 14:-0.814019 15:-0.922551 16:-0.892783 17:0.441092 18:0.00114008 19:-0.186252 20:-0.896894 21:-0.943359 22:-0.939396 23:0.747631 24:0.522608 25:-0.31225 26:0.479881 27:0.127253 28:-0.606152 29:-0.959729 30:-0.887165 31:-0.932999 32:-0.0534365 33:-0.483425 34:-0.0785329 35:0.459044 36:0.781364 37:-0.109671 38:0.853632 39:0.524971 40:-0.318292 
-1.297318728240795 1.395743031123487 0.5481845674050918 2.253203092037617 1:0.837747 2:-0.369647 3:0.212608 4:0.196214 5:-0.882908 6:-0.797213 7:-0.970679 8:-0.497625 9:0.240446 10:0.366448 11:-0.386939 12:-0.854944 13:-0.691434 14:-0.869085 15:-0.928471 16:-0.890368 17:0.382448 18:-0.0258541 19:-0.187692 20:-0.668339 21:-0.681161 22:-0.470597 23:-0.424319 24:0.459256 25:-0.160126 26:-0.273446 27:-0.46898 28:-0.96772 29:-0.549456 30:-0.69252 31:-0.570805 32:0.618991 33:-0.0487597 34:0.833622 35:-0.452274 36:0.150461 37:-0.837853 38:-0.0632308 39:0.361544 40:-0.851618 
-0 0 0 0.003246720275896849 1:0.843315 2:-0.328575 3:0.326563 4:0.0128376 5:-0.879033 6:-0.857493 7:-0.958167 8:-0.712995 9:0.35673 10:0.204355 11:0.128677 12:-0.707119 13:-0.899776 14:-0.939435 15:-0.926805 16:-0.911867 17:0.372606 18:-0.0676327 19:-0.144157 20:-0.486583 21:-0.725204 22:-0.647454 23:-0.485174 24:0.220336 25:-0.551186 26:-0.218156 27:-0.675847 28:-0.297345 29:-0.725083 30:-0.610709 31:-0.591604 32:0.824592 33:0.414545 34:0.0181279 35:-0.603878 36:-0.253936 37:-0.22611 38:0.680965 39:0.951918 40:-0.707341 
-0.05479068985931748 0.1777822552278091 0 0 1:-0.588809 2:-0.220024 3:0.133033 4:-0.201321 5:-0.970544 6:-0.867713 7:-0.618174 8:-0.1115 9:-0.471109 10:-0.909646 11:-0.982835 12:-0.0818221 13:0.794937 14:-0.699764 15:-0.746514 16:-0.705429 17:0.397301 18:0.0055533 19:-0.200065 20:-0.791325 21:-0.93794 22:-0.961152 23:-0.570568 24:0.263614 25:-0.0847206 26:-0.343873 27:-0.332819 28:-0.906416 29:-0.905082 30:-0.927611 31:-0.887358 32:0.240562 33:0.0775849 34:0.177475 35:0.862452 36:0.0805504 37:-0.0642823 38:0.691815 39:0.154149 40:-0.120327 
-3.66801617282 2.248897401690904 3.66801617282 3.66801617282 1:0.729503 2:-0.222557 3:0.286708 4:-0.0629129 5:-0.924249 6:-0.873328 7:-0.920568 8:-0.411385 9:0.577014 10:-0.0104606 11:-0.504817 12:-0.217375 13:-0.912029 14:-0.913221 15:-0.939505 16:-0.92303 17:0.455944 18:-0.0101136 19:-0.16982 20:-0.844415 21:-0.930084 22:-0.889205 23:0.314488 24:0.907739 25:-0.319679 26:-0.520456 27:0.790888 28:-0.52573 29:-0.920636 30:-0.848098 31:-0.886644 32:-0.948944 33:-0.675898 34:0.654883 35:0.952078 36:0.709463 37:-0.80689 38:-0.831541 39:-0.0626542 40:0.321284 
-0 0.2815065930461648 1.992326929732213 0.7323052627601493 1:0.199786 2:-0.23726 3:0.358142 4:0.0367034 5:-0.843981 6:-0.832263 7:-0.888126 8:0.306455 9:0.377935 10:0.0290319 11:-0.431934 12:-0.51193 13:-0.949277 14:-0.822567 15:-0.89372 16:-0.865022 17:0.506925 18:-0.0307087 19:-0.281964 20:-0.740362 21:-0.781612 22:-0.869482 23:-0.0486415 24:-0.140429 25:-0.16653 26:-0.611165 27:-0.766063 28:-0.837207 29:-0.829585 30:-0.830633 31:-0.774224 32:-0.734695 33:-0.639485 34:0.387071 35:-0.104772 36:-0.821547 37:-0.425923 38:-0.446213 39:0.0308121 40:0.378822 
-1.200567079961413 0.6747975768547818 0 0.1056335438643218 1:0.116694 2:-0.132165 3:0.328086 4:0.00705615 5:-0.824956 6:-0.883876 7:-0.939486 8:0.526687 9:0.0341812 10:-0.0528205 11:0.0521693 12:-0.5794 13:-0.809987 14:-0.887995 15:-0.906993 16:-0.889806 17:0.440031 18:0.0436541 19:-0.239083 20:-0.740661 21:-0.826453 22:-0.860612 23:-0.607637 24:0.127421 25:-0.359127 26:0.205462 27:-0.498453 28:-0.461683 29:-0.896339 30:-0.83431 31:-0.804396 32:-0.823519 33:-0.322843 34:0.613627 35:-0.304822 36:-0.289952 37:-0.329341 38:-0.421523 39:0.884997 40:-0.00430411 
-0.04542053574043956 2.834763294735318 0.3966934298814752 0 1:0.422407 2:-0.244779 3:0.413804 4:0.226378 5:-0.791705 6:-0.716673 7:-0.612578 8:0.324237 9:0.659978 10:0.558982 11:-0.387699 12:0.107831 13:0.0787279 14:-0.638525 15:-0.706871 16:-0.647098 17:0.439206 18:-0.082417 19:-0.196072 20:-0.427497 21:-0.700246 22:-0.747938 23:0.028972 24:-0.36666 25:-0.287261 26:-0.389273 27:-0.305651 28:-0.776457 29:-0.721384 30:-0.57371 31:-0.594212 32:0.141082 33:-0.564417 34:0.1748 35:-0.646577 36:-0.92761 37:0.325195 38:-0.698891 39:-0.985793 40:0.547323 
-0 0.579834360931585 0.9215475566190489 0.7167975206679472 1:-0.571418 2:-0.30202 3:-0.396048 4:-0.0561963 5:-0.461259 6:0.322753 7:-0.277969 8:-0.282081 9:-0.969779 10:-0.356909 11:-0.601659 12:0.932268 13:-0.0351265 14:-0.252013 15:-0.139742 16:-0.0902137 17:0.487181 18:0.050936 19:-0.171326 20:-0.807321 21:-0.232957 22:-0.728738 23:0.248485 24:0.441913 25:0.0731527 26:-0.655549 27:-0.557212 28:-0.93013 29:-0.401572 30:-0.543376 31:-0.446812 32:-0.321836 33:-0.5457 34:-0.228392 35:-0.401395 36:-0.66599 37:-0.275882 38:0.281342 39:-0.127259 40:0.0206584 
-0.06993471679804125 1.178233036786154 0 0 1:0.39485 2:-0.291963 3:0.287987 4:-0.169695 5:-0.837489 6:-0.762336 7:-0.552932 8:-0.280608 9:0.932443 10:-0.760147 11:-0.79353 12:0.772036 13:0.4983 14:-0.618599 15:-0.66491 16:-0.624313 17:0.349973 18:0.00592107 19:-0.174992 20:-0.59808 21:-0.607706 22:-0.889701 23:-0.916115 24:0.11071 25:-0.283145 26:0.531913 27:-0.393005 28:-0.325163 29:-0.768464 30:-0.737792 31:-0.647733 32:-0.372847 33:-0.318309 34:0.499715 35:-0.849218 36:0.176202 37:0.0487973 38:0.710411 39:-0.275713 40:0.157224 
-0.2384050355813991 0.7587114597880341 0 0.2463506905492936 1:0.239781 2:-0.0583088 3:0.380077 4:0.376651 5:-0.697359 6:-0.745502 7:-0.706952 8:0.201338 9:0.449691 10:0.977265 11:-0.744752 12:-0.350748 13:0.695773 14:-0.73037 15:-0.685755 16:-0.67683 17:0.406613 18:-0.100953 19:-0.195025 20:-0.615139 21:-0.692793 22:-0.766278 23:0.00339244 24:-0.174845 25:-0.561714 26:-0.214889 27:-0.624302 28:0.133502 29:-0.771743 30:-0.665862 31:-0.667855 32:0.156996 33:-0.391937 34:-0.440228 35:-0.483854 36:-0.228416 37:-0.158145 38:-0.5325 39:-0.611839 40:-0.0922578 
-3.66801617282 1.157622519806114 0.6936855707191542 0.744209979185331 1:0.120866 2:-0.239358 3:0.269747 4:0.00262994 5:-0.845973 6:-0.8904 7:-0.907404 8:0.238457 9:0.306696 10:-0.570686 11:-0.535539 12:-0.783299 13:0.0550295 14:-0.872903 15:-0.93418 16:-0.890572 17:0.489008 18:0.0183517 19:-0.232013 20:-0.678142 21:-0.84223 22:-0.847009 23:0.669027 24:0.486309 25:-0.202616 26:0.171399 27:-0.224475 28:-0.711237 29:-0.851444 30:-0.748592 31:-0.77719 32:0.494227 33:-0.241079 34:-0.0032649 35:0.150999 36:0.168093 37:-0.170448 38:-0.0254324 39:-0.52882 40:0.395748 
-1.012807156056232 0 0 0 1:-0.851304 2:-0.320873 3:0.403242 4:-0.422889 5:-0.561418 6:-0.674965 7:0.0712827 8:0.0248777 9:-0.0318473 10:-0.213108 11:-0.632545 12:-0.612968 13:-0.0488244 14:0.160096 15:-0.342231 16:-0.0754779 17:0.464313 18:0.0563789 19:-0.237185 20:0.380716 21:-0.57172 22:-0.612026 23:-0.46511 24:0.274313 25:-0.250823 26:-0.0839397 27:-0.589505 28:-0.754494 29:-0.26218 30:-0.292888 31:-0.142264 32:0.384312 33:-0.246895 34:-0.0951702 35:0.570263 36:0.264813 37:-0.422969 38:0.584409 39:-0.125477 40:-0.221282 
-0.1324176687617399 0 0 0 1:0.257847 2:-0.243757 3:0.391613 4:-0.405813 5:-0.602142 6:-0.599514 7:-0.169845 8:0.305863 9:0.666943 10:-0.858192 11:-0.663502 12:0.0201353 13:0.675893 14:-0.223836 15:-0.308663 16:-0.262134 17:0.391819 18:0.0707955 19:-0.131522 20:-0.083593 21:-0.422101 22:-0.590055 23:-0.573563 24:0.140464 25:-0.30595 26:0.117446 27:-0.772999 28:-0.789095 29:-0.521628 30:-0.36091 31:-0.303446 32:-0.653863 33:-0.62712 34:0.0865962 35:-0.664628 36:-0.149072 37:-0.194371 38:0.766345 39:0.27845 40:-0.0750308 
-2.080854818962799 0.5771395289826671 0.1024986606091384 0.9632340040213079 1:-0.634878 2:-0.315649 3:0.206548 4:0.291382 5:-0.475552 6:-0.271429 7:-0.262522 8:-0.145919 9:-0.593651 10:0.662193 11:-0.601623 12:0.213776 13:0.308638 14:-0.316219 15:-0.37576 16:-0.247703 17:0.581894 18:0.197308 19:-0.284845 20:-0.488932 21:-0.296547 22:-0.630472 23:0.253173 24:0.267235 25:-0.553904 26:-0.645739 27:-0.582502 28:-0.195883 29:-0.485476 30:-0.238653 31:-0.36937 32:-0.387494 33:-0.335253 34:0.448907 35:-0.447387 36:-0.442054 37:0.638648 38:0.207475 39:0.267797 40:-0.0722561 
-0 2.267025411278135 2.929880631843546 0.5546009395069457 1:0.400804 2:-0.0411421 3:0.804178 4:-0.140478 5:-0.55365 6:-0.123343 7:-0.709982 8:0.242314 9:0.80084 10:-0.387516 11:-0.64526 12:0.469777 13:-0.163038 14:-0.534166 15:-0.498362 16:-0.45701 17:0.428361 18:-0.0390938 19:-0.244583 20:-0.214389 21:-0.314292 22:-0.580303 23:-0.198183 24:0.132101 25:-0.32587 26:-0.517888 27:-0.738577 28:-0.636743 29:-0.463786 30:-0.394462 31:-0.310753 32:-0.348583 33:-0.392992 34:-0.0293639 35:-0.500268 36:-0.131203 37:-0.224947 38:0.533511 39:0.138792 40:-0.0224647 
-0.7458182983265914 0 0 0 1:-0.0596379 2:-0.243374 3:0.346404 4:0.0723487 5:-0.599259 6:-0.770111 7:-0.713301 8:0.598506 9:-0.181473 10:0.734375 11:0.164737 12:-0.653439 13:0.151614 14:-0.67858 15:-0.687384 16:-0.663408 17:0.225614 18:-0.397521 19:-0.752799 20:0.229042 21:-0.543796 22:-0.645966 23:-0.475062 24:0.353294 25:-0.260032 26:-0.291695 27:-0.643538 28:-0.594663 29:-0.2758 30:-0.134781 31:-0.0359369 32:-0.690189 33:-0.304067 34:0.148529 35:-0.00253601 36:-0.416558 37:0.200929 38:-0.828937 39:-0.392731 40:-0.0957549 
-0.6374373394149695 0.2851561521276559 0.8020815080000918 1.106171709448092 1:-0.183055 2:-0.112495 3:0.0354171 4:0.38948 5:-0.773125 6:-0.794267 7:-0.821585 8:0.453175 9:-0.218584 10:0.419342 11:-0.060354 12:-0.244938 13:-0.269181 14:-0.748191 15:-0.766866 16:-0.77531 17:0.3119 18:0.024236 19:-0.151948 20:-0.0471986 21:-0.420442 22:-0.818233 23:-0.495453 24:-0.0500732 25:-0.911772 26:-0.294376 27:-0.507588 28:0.7732 29:-0.508344 30:-0.445249 31:-0.322732 32:-0.963355 33:-0.426952 34:0.606264 35:0.277131 36:-0.365395 37:-0.156235 38:-0.986711 39:-0.433137 40:0.685751 
-0 3.66801617282 1.658699844132355 0.6061707173605352 1:0.397064 2:-0.278934 3:0.396845 4:0.129436 5:-0.887031 6:-0.846826 7:-0.851793 8:0.309235 9:0.753298 10:0.583651 11:-0.46631 12:0.35695 13:-0.297556 14:-0.869046 15:-0.889533 16:-0.856496 17:0.441327 18:-0.00570042 19:-0.223699 20:-0.739207 21:-0.780956 22:-0.935857 23:-0.11308 24:-0.482818 25:-0.331834 26:-0.362434 27:0.105319 28:-0.702706 29:-0.878767 30:-0.780995 31:-0.803043 32:-0.169737 33:-0.271347 34:0.0775251 35:-0.674819 36:-0.838878 37:0.156192 38:-0.158024 39:-0.319453 40:-0.100587 
-0 0.09508149543059422 1.327253704270941 0 1:0.406538 2:-0.193816 3:0.361386 4:0.200671 5:-0.873003 6:-0.877165 7:-0.816706 8:0.18921 9:0.636044 10:0.223226 11:-0.629543 12:0.265856 13:-0.784309 14:-0.749804 15:-0.900245 16:-0.834672 17:0.433135 18:-0.000110336 19:-0.215254 20:-0.728742 21:-0.825613 22:-0.947819 23:0.125034 24:-0.0453751 25:-0.456277 26:-0.50049 27:-0.52361 28:-0.407081 29:-0.840346 30:-0.799839 31:-0.820884 32:0.362086 33:0.188339 34:-0.702727 35:0.50388 36:0.527525 37:-0.312824 38:0.647723 39:0.462948 40:-0.880777 
-0 0 0 0.3100095585112246 1:-0.687094 2:-0.320993 3:0.0555595 4:-0.275387 5:-0.787882 6:-0.79491 7:-0.485605 8:0.240471 9:-0.846373 10:-0.616846 11:-0.475844 12:0.632428 13:0.251102 14:-0.473186 15:-0.626457 16:-0.563668 17:0.452113 18:0.0467434 19:-0.242619 20:-0.608189 21:-0.726313 22:-0.878255 23:0.639678 24:0.376976 25:-0.495666 26:0.0651332 27:-0.200775 28:-0.391606 29:-0.832275 30:-0.590026 31:-0.712847 32:0.183302 33:0.214087 34:-0.307192 35:-0.6888 36:-0.550003 37:0.558048 38:-0.475818 39:-0.3903 40:0.407725 
-0.4727025942670881 3.66801617282 3.09311918185331 2.178641876447539 1:0.28379 2:-0.180087 3:0.305068 4:0.159051 5:-0.925372 6:-0.916767 7:-0.836054 8:0.268426 9:0.430276 10:0.365969 11:-0.64565 12:-0.0104492 13:-0.354252 14:-0.841796 15:-0.902889 16:-0.871272 17:0.451877 18:-0.0171748 19:-0.247463 20:-1 21:-1 22:-1 23:-0.321844 24:0.0207597 25:0.03929 26:-0.718602 27:-0.860524 28:-0.689085 29:-1 30:-1 31:-1 32:-0.578996 33:0.245883 34:0.410478 35:-0.326544 36:0.18961 37:0.278092 38:-0.494768 39:0.125382 40:0.178477 
-0 0.04862433310784677 0 0 1:-0.648017 2:-0.319124 3:0.19711 4:-0.127368 5:-0.875501 6:-0.695974 7:-0.7676 8:0.0131961 9:-0.922188 10:-0.641199 11:-0.453589 12:0.76854 13:0.200757 14:-0.793732 15:-0.750394 16:-0.771931 17:0.467142 18:0.0319591 19:-0.19856 20:-0.793295 21:-0.89886 22:-0.934605 23:-0.360766 24:0.28634 25:-0.513386 26:-0.533784 27:-0.475788 28:-0.0448639 29:-0.867165 30:-0.851545 31:-0.870265 32:-0.424302 33:-0.601458 34:0.574498 35:-0.445951 36:-0.730422 37:0.871491 38:-0.516084 39:-0.636143 40:0.775046 
-0 0.8602136924365277 0 0.1750620755642561 1:0.0369597 2:-0.309164 3:0.320395 4:-0.0914646 5:-0.744684 6:-0.957784 7:-0.824248 8:0.113403 9:0.0793904 10:0.161877 11:-0.49887 12:-0.959974 13:-0.42205 14:-0.778231 15:-0.870148 16:-0.806017 17:0.425414 18:-0.00121364 19:-0.179771 20:-0.74546 21:-0.803674 22:-0.850798 23:0.225616 24:0.139717 25:-0.483513 26:-0.249554 27:-0.295084 28:-0.172297 29:-0.875573 30:-0.724003 31:-0.794832 32:0.704783 33:0.823273 34:-0.567626 35:-0.0612622 36:0.352535 37:0.13896 38:0.754231 39:0.855653 40:-0.594173 
-2.173435779504511 0.8255573502753309 0 0.2130892438952043 1:0.847235 2:-0.313237 3:0.321529 4:0.0678998 5:-0.903289 6:-0.855336 7:-0.949916 8:-0.448475 9:0.427229 10:0.0244731 11:-0.507353 12:-0.637382 13:-0.752714 14:-0.933762 15:-0.942248 16:-0.917911 17:0.408204 18:-0.00261116 19:-0.142062 20:-0.452267 21:-0.778235 22:-0.679592 23:-0.166479 24:0.310295 25:-0.116608 26:-0.650716 27:-0.593263 28:-0.939384 29:-0.663206 30:-0.717109 31:-0.609482 32:0.631442 33:-0.156096 34:0.584712 35:-0.599792 36:0.0619375 37:-0.499582 38:0.405919 39:0.191137 40:-0.132364 
-3.66801617282 0 1.244882516360883 3.66801617282 1:0.796956 2:-0.350915 3:0.359025 4:0.0104599 5:-0.889418 6:-0.80865 7:-0.948253 8:-0.45572 9:0.317902 10:0.0705671 11:-0.590996 12:-0.773214 13:-0.674783 14:-0.894377 15:-0.925087 16:-0.895729 17:0.441622 18:0.00636239 19:-0.192144 20:-0.446502 21:-0.655439 22:-0.706257 23:-0.257246 24:0.0396527 25:-0.288234 26:-0.56935 27:-0.678535 28:-0.79216 29:-0.668334 30:-0.642882 31:-0.579421 32:0.619466 33:0.578767 34:0.542234 35:-0.409548 36:-0.393312 37:-0.60224 38:0.448562 39:0.282135 40:-0.306769 
