svm_type c_svc
kernel_type rbf
gamma 0.00150607
nr_class 2
total_sv 144
rho 16.3349
label 1 -1
probA -2.23095
probB 0.103264
nr_sv 73 71
SV
335.5114087136517 1:-0.0419964 2:0.286866 3:0.351238 4:-0.876598 5:-0.879994 6:-0.64541 7:-0.0161659 8:0.23258 9:0.17032 10:-0.555414 11:-0.853755 12:-0.620044 13:-0.499497 14:-0.81919 15:-0.674837 16:0.259291 17:-0.0586761 18:-0.259702 19:-0.263802 20:-0.856455 21:-0.77813 22:0.0106683 23:0.07082 24:-0.443387 25:-0.523162 26:-0.61508 27:-0.550088 28:-0.655249 29:-0.578027 30:-0.61429 31:-0.770021 32:0.474084 33:-0.122498 34:0.444884 35:0.0217697 36:-0.449549 37:-0.480842 38:0.388688 39:-0.809616 
861.07792922 1:-0.075514 2:0.35775 3:-0.0730197 4:-0.853993 5:-0.846631 6:-0.950298 7:-0.235497 8:0.341094 9:-0.0666526 10:-0.768498 11:-0.606425 12:-0.751027 13:-0.823179 14:-0.918579 15:-0.876044 16:0.251661 17:-0.103335 18:-0.210771 19:-0.963869 20:-0.953146 21:-0.874676 22:-0.112907 23:-0.468167 24:0.17733 25:-0.688804 26:-0.41 27:-0.884316 28:-0.937971 29:-0.950681 30:-0.928384 31:-0.273273 32:0.934468 33:0.22017 34:0.512203 35:-0.889606 36:-0.373561 37:-0.410293 38:0.495813 39:0.0163284 
119.2057875533735 1:-0.090485 2:0.201975 3:0.0988197 4:-0.850565 5:-0.842583 6:-0.843977 7:-0.00283769 8:0.110652 9:0.511548 10:-0.839075 11:-0.838215 12:-0.168692 13:-0.802614 14:-0.907145 15:-0.822295 16:0.33125 17:-0.0280336 18:-0.188297 19:-0.757745 20:-0.834959 21:-0.865241 22:0.577042 23:0.480655 24:-0.190712 25:-0.0822811 26:-0.41585 27:-0.657837 28:-0.8667 29:-0.714023 30:-0.790656 31:-0.695875 32:-0.360506 33:-0.137007 34:0.494468 35:0.124885 36:0.0611944 37:0.13645 38:0.426938 39:-0.780304 
861.07792922 1:-0.0650889 2:0.241119 3:-0.00718149 4:-0.905983 5:-0.911045 6:-0.925232 7:0.149659 8:0.140067 9:-0.0418218 10:-0.570754 11:-0.757112 12:-0.598936 13:-0.881411 14:-0.954891 15:-0.906503 16:0.261593 17:-0.078627 18:-0.217858 19:-0.932908 20:-0.954918 21:-0.883669 22:-0.0746579 23:0.275246 24:-0.529867 25:-0.536516 26:-0.500582 27:-0.351547 28:-0.944751 29:-0.919028 30:-0.927546 31:-0.63891 32:0.0338651 33:-0.440123 34:0.259878 35:-0.645004 36:0.549919 37:-0.296877 38:0.200793 39:-0.464101 
411.2384195313458 1:-0.0624742 2:0.197107 3:0.0487533 4:-0.816852 5:-0.774751 6:-0.832912 7:-0.188451 8:-0.168813 9:-0.0737973 10:-0.834915 11:-0.499539 12:-0.855555 13:-0.6995 14:-0.891452 15:-0.792122 16:0.245478 17:-0.0311541 18:-0.226834 19:-0.622335 20:-0.858694 21:-0.750101 22:0.0297936 23:0.526501 24:-0.387436 25:-0.569487 26:-0.478636 27:-0.580005 28:-0.821899 29:-0.73813 30:-0.751134 31:-0.861681 32:-0.771094 33:-0.273235 34:0.798255 35:0.429651 36:0.499236 37:-0.126291 38:0.30266 39:-0.432905 
861.07792922 1:-0.225428 2:0.272674 3:0.00034238 4:-0.891878 5:-0.943897 6:-0.968015 7:-0.164778 8:0.315693 9:-0.0885493 10:-0.640509 11:-0.543731 12:-0.767635 13:-0.861877 14:-0.934122 15:-0.91716 16:0.0604486 17:-0.302947 18:0.154417 19:-0.929937 20:-0.956687 21:-0.85186 22:0.334828 23:0.619531 24:0.135067 25:-0.708516 26:-0.240247 27:-0.719053 28:-0.710196 29:-0.790026 30:-0.712139 31:-0.391344 32:-0.58906 33:0.16383 34:0.0614168 35:0.461294 36:-0.00639928 37:0.0142868 38:0.481174 39:-0.0997032 
861.07792922 1:-0.11854 2:0.381882 3:-0.0650028 4:-0.963853 5:-0.980755 6:-0.974751 7:-0.17654 8:0.587596 9:0.150269 10:-0.761725 11:-0.0069206 12:-0.865833 13:-0.914795 14:-0.970477 15:-0.95524 16:0.308821 17:-0.120984 18:-0.300466 19:-0.948894 20:-0.980851 21:-0.970471 22:0.368844 23:-0.309886 24:-0.273359 25:-0.672413 26:-0.652459 27:-0.766715 28:-0.960874 29:-0.950865 30:-0.943721 31:-0.272363 32:0.225005 33:0.458253 34:0.0540649 35:-0.624182 36:-0.558146 37:-0.493941 38:-0.291645 39:-0.900375 
861.07792922 1:-0.103961 2:0.314743 3:0.0891915 4:-0.864459 5:-0.869329 6:-0.907676 7:0.244273 8:0.318897 9:-0.0726828 10:-0.367786 11:-0.639966 12:-0.849339 13:-0.813668 14:-0.899535 15:-0.864231 16:0.278563 17:-0.0790874 18:-0.224809 19:-0.847257 20:-0.938537 21:-0.914224 22:-0.373424 23:0.267544 24:-0.0852704 25:-0.215136 26:-0.711653 27:-0.852398 28:-0.928528 29:-0.898969 30:-0.900413 31:-0.684714 32:-0.262552 33:-0.0409329 34:-0.459802 35:0.00605005 36:-0.614772 37:-0.139208 38:0.345093 39:-0.802582 
861.07792922 1:-0.144028 2:0.237377 3:-0.0881557 4:-0.909622 5:-0.880295 6:-0.941234 7:0.0412334 8:0.163887 9:0.0219578 10:-0.661659 11:-0.589707 12:-0.931449 13:-0.9026 14:-0.9437 15:-0.912177 16:0.247714 17:-0.10487 18:-0.197746 19:-0.940873 20:-0.965414 21:-0.918072 22:0.280476 23:-0.493788 24:-0.0482571 25:-0.587433 26:0.0159584 27:-0.879756 28:-0.953491 29:-0.925285 30:-0.940871 31:-0.631942 32:0.135312 33:0.263121 34:0.45002 35:-0.0251572 36:-0.640563 37:-0.484744 38:-0.421088 39:-0.481649 
25.21013337267123 1:-0.114172 2:0.205983 3:-0.127676 4:-0.942174 5:-0.885698 6:-0.750414 7:0.120451 8:-0.0411772 9:-0.582255 10:-0.743037 11:-0.795461 12:0.0753164 13:-0.673449 14:-0.852599 15:-0.792341 16:0.1995 17:-0.0851749 18:-0.245191 19:-0.758205 20:-0.943607 21:-0.894444 22:-0.422488 23:0.148449 24:-0.196409 25:-0.321737 26:-0.750597 27:-0.855708 28:-0.896986 29:-0.842657 30:-0.864479 31:-0.469571 32:-0.136254 33:0.0743213 34:0.913845 35:0.587914 36:-0.513862 37:0.735764 38:0.792238 39:-0.661619 
861.07792922 1:-0.0979935 2:0.267947 3:0.177918 4:-0.951876 5:-0.894155 6:-0.849202 7:-0.0173804 8:0.254964 9:0.370998 10:-0.848957 11:-0.568364 12:-0.52474 13:-0.758455 14:-0.894171 15:-0.850422 16:0.263106 17:-0.0817475 18:-0.241884 19:-0.860972 20:-0.941563 21:-0.893362 22:0.327003 23:0.383388 24:-0.0910291 25:-0.46681 26:-0.577926 27:-0.889149 28:-0.941035 29:-0.883143 30:-0.904175 31:-0.315246 32:0.0680756 33:-0.0225236 34:0.225114 35:0.0429869 36:-0.434524 37:-0.157771 38:0.207053 39:-0.754406 
861.07792922 1:-0.216666 2:0.321529 3:-0.0245231 4:-0.873771 5:-0.843963 6:-0.930307 7:-0.446794 8:0.429547 9:-0.00417196 10:-0.449099 11:-0.607057 12:-0.724603 13:-0.87453 14:-0.913577 15:-0.874987 16:0.254095 17:-0.159607 18:0.0162651 19:-0.822845 20:-0.934936 21:-0.820177 22:-0.145823 23:0.180616 24:-0.497278 25:-0.640074 26:-0.646377 27:-0.35691 28:-0.798041 29:-0.8629 30:-0.807323 31:0.219614 32:-0.310368 33:0.979331 34:-0.599749 35:-0.103479 36:-0.902235 37:-0.61572 38:-0.718221 39:0.127186 
594.6536691972929 1:-0.146846 2:0.255397 3:0.0417929 4:-0.872919 5:-0.915566 6:-0.896696 7:0.0797381 8:0.080777 9:0.212888 10:-0.811721 11:-0.683622 12:-0.617438 13:-0.834493 14:-0.919054 15:-0.87678 16:0.225087 17:-0.125384 18:-0.208747 19:-0.940281 20:-0.93205 21:-0.915739 22:-0.124347 23:-0.719955 24:0.247854 25:-0.749177 26:0.0769483 27:-0.726584 28:-0.962481 29:-0.870813 30:-0.917153 31:0.0129404 32:-0.565541 33:0.284797 34:-0.356458 35:0.0473468 36:-0.0408583 37:-0.536874 38:-0.661298 39:0.863347 
861.07792922 1:-0.0919568 2:0.255044 3:0.0284089 4:-0.849174 5:-0.897731 6:-0.920154 7:0.002177 8:0.0881318 9:0.162687 10:-0.922707 11:-0.742612 12:-0.619945 13:-0.80896 14:-0.919606 15:-0.87579 16:0.247977 17:-0.0870166 18:-0.202875 19:-0.894506 20:-0.96323 21:-0.829557 22:-0.117152 23:-0.0993128 24:0.0442958 25:-0.822639 26:-0.68092 27:-0.847169 28:-0.912205 29:-0.895841 30:-0.904497 31:-0.0712642 32:-0.11558 33:0.273335 34:-0.500093 35:-0.308729 36:0.305988 37:-0.267704 38:-0.159943 39:0.42998 
861.07792922 1:-0.100398 2:0.257482 3:-0.072485 4:-0.911916 5:-0.940445 6:-0.953251 7:-0.0478674 8:0.117556 9:-0.128747 10:-0.845903 11:-0.715363 12:-0.804206 13:-0.893692 14:-0.961523 15:-0.932174 16:0.247451 17:-0.0833333 18:-0.207194 19:-0.963231 20:-0.988189 21:-0.937378 22:0.0311076 23:0.272146 24:-0.113035 25:-0.813133 26:-0.309232 27:-0.828815 28:-0.963335 29:-0.968347 30:-0.963314 31:0.378497 32:0.0467111 33:-0.0499893 34:-0.190363 35:-0.167545 36:-0.165368 37:-0.103024 38:0.146982 39:0.447139 
536.8802204965344 1:-0.111865 2:0.190989 3:-0.0236973 4:-0.814962 5:-0.922825 6:-0.940395 7:0.346112 8:-0.127413 9:0.0196899 10:-0.344598 11:-0.806712 12:-0.893725 13:-0.797145 14:-0.908177 15:-0.873886 16:0.224495 17:-0.0729998 18:-0.30654 19:-0.829449 20:-0.894525 21:-0.787883 22:0.0536505 23:0.270766 24:-0.214935 25:-0.937575 26:-0.656533 27:-0.708393 28:-0.89548 29:-0.809165 30:-0.840574 31:0.480959 32:0.512588 33:0.210129 34:-0.866246 35:-0.841795 36:0.210416 37:-0.118276 38:0.152981 39:0.253174 
172.7105357275093 1:0.020631 2:0.157572 3:0.00530359 4:-0.82614 5:-0.896596 6:-0.920475 7:-0.0750459 8:0.112429 9:-0.155471 10:-0.858723 11:-0.75667 12:-0.280939 13:-0.773054 14:-0.917799 15:-0.859877 16:0.286128 17:-0.0573972 18:-0.213741 19:-0.906438 20:-0.855233 21:-0.722828 22:0.22478 23:0.305708 24:-0.051568 25:-0.696972 26:-0.542868 27:-0.76709 28:-0.871572 29:-0.795731 30:-0.814487 31:0.65484 32:-0.0296056 33:0.336952 34:-0.537384 35:-0.693836 36:0.265235 37:-0.372946 38:-0.762467 39:0.457626 
861.07792922 1:-0.0656636 2:0.212891 3:-0.0577176 4:-0.907153 5:-0.940357 6:-0.9736 7:0.34046 8:-0.141139 9:0.0534507 10:-0.534647 11:-0.672015 12:-0.715938 13:-0.913092 14:-0.959234 15:-0.935972 16:0.252845 17:-0.0809801 18:-0.234123 19:-0.964797 20:-0.970794 21:-0.956928 22:0.564512 23:0.621478 24:-0.0783058 25:-0.326139 26:-0.29244 27:-0.64052 28:-0.980964 29:-0.950313 30:-0.964288 31:0.96463 32:0.808311 33:0.499356 34:-0.948471 35:-0.659403 36:-0.425769 37:-0.0253277 38:0.126526 39:0.536721 
861.07792922 1:-0.0665002 2:0.148061 3:-0.0188618 4:-0.859637 5:-0.917832 6:-0.902411 7:0.220303 8:-0.0698516 9:-0.0954545 10:-0.555354 11:-0.781677 12:-0.845363 13:-0.83578 14:-0.910266 15:-0.877899 16:0.231928 17:-0.0895232 18:-0.198826 19:-0.93642 20:-0.97173 21:-0.882317 22:-0.0357619 23:0.275285 24:0.21992 25:-0.933743 26:-0.694976 27:-0.685792 28:-0.941537 29:-0.931358 30:-0.932792 31:0.205908 32:-0.492013 33:0.50665 34:-0.501354 35:0.736016 36:-0.170756 37:-0.439915 38:0.300122 39:0.888443 
861.07792922 1:-0.127282 2:0.224014 3:-0.0934388 4:-0.855056 5:-0.918531 6:-0.940835 7:0.246233 8:-0.128068 9:-0.0547264 10:-0.621049 11:-0.795956 12:-0.772492 13:-0.841629 14:-0.947632 15:-0.896429 16:0.244886 17:-0.0745856 18:-0.253088 19:-0.944401 20:-0.983362 21:-0.922315 22:0.128716 23:0.232354 24:-0.154093 25:-0.808986 26:-0.787989 27:-0.781164 28:-0.964942 29:-0.950865 30:-0.954799 31:0.978052 32:0.104416 33:0.0554794 34:-0.98118 35:0.00101763 36:-0.038061 37:-0.302799 38:0.0225201 39:0.658592 
861.07792922 1:-0.0604328 2:0.192077 3:-0.0538514 4:-0.819627 5:-0.919596 6:-0.937328 7:0.11978 8:0.102979 9:0.178465 10:-0.850769 11:-0.903717 12:-0.753088 13:-0.772589 14:-0.932868 15:-0.874666 16:0.270802 17:-0.0670145 18:-0.248363 19:-0.940396 20:-0.968225 21:-0.91293 22:0.416185 23:0.478543 24:-0.0209897 25:-0.539952 26:-0.537658 27:-0.764593 28:-0.959216 29:-0.935039 30:-0.943112 31:0.80569 32:0.497172 33:0.581943 34:-0.894035 35:-0.349216 36:-0.362469 37:-0.186947 38:-0.111591 39:0.817497 
861.07792922 1:-0.0975638 2:0.235774 3:-0.0977347 4:-0.872917 5:-0.928334 6:-0.921588 7:0.462009 8:-0.197401 9:-0.00352541 10:-0.274787 11:-0.727714 12:-0.896107 13:-0.87649 14:-0.931221 15:-0.898207 16:0.237914 17:-0.109883 18:-0.256395 19:-0.949286 20:-0.984289 21:-0.934364 22:0.406001 23:-0.148309 24:-0.164948 25:-0.507154 26:-0.860387 27:-0.83328 28:-0.969613 29:-0.953993 30:-0.9582 31:0.176409 32:-0.471361 33:0.313541 34:-0.273218 35:0.400771 36:-0.208538 37:-0.105537 38:0.157867 39:0.557214 
861.07792922 1:-0.101759 2:0.218508 3:-0.187512 4:-0.887864 5:-0.903402 6:-0.960205 7:-0.0115316 8:-0.146254 9:0.0668444 10:-0.877607 11:-0.683633 12:-0.772588 13:-0.857548 14:-0.952194 15:-0.913718 16:0.217326 17:-0.0676796 18:-0.27077 19:-0.932113 20:-0.956593 21:-0.927529 22:0.155597 23:0.261287 24:0.0443237 25:-0.377745 26:-0.861594 27:-0.940789 28:-0.958413 29:-0.93191 30:-0.935319 31:0.107861 32:0.653236 33:0.203227 34:-0.22275 35:-0.659958 36:-0.201883 37:-0.146896 38:-0.182025 39:-0.158385 
625.4712096376991 1:-0.112205 2:0.267723 3:0.0690819 4:-0.858118 5:-0.832299 6:-0.911611 7:0.132594 8:0.351365 9:0.0311305 10:-0.864074 11:-0.418227 12:-0.866083 13:-0.824637 14:-0.934078 15:-0.858055 16:0.220483 17:-0.106661 18:-0.256192 19:-0.874092 20:-0.943905 21:-0.830907 22:-0.159959 23:0.513753 24:-0.0708708 25:-0.836282 26:-0.119423 27:-0.931408 28:-0.912406 29:-0.905042 30:-0.891904 31:-0.154576 32:-0.149044 33:0.313007 34:0.124605 35:0.720954 36:0.24305 37:-0.451229 38:-0.355255 39:0.469178 
409.99732268561 1:-0.0740765 2:0.270193 3:-0.0906145 4:-0.922583 5:-0.767283 6:-0.91837 7:0.0470708 8:0.565246 9:-0.253744 10:-0.732749 11:-0.0755408 12:-0.560818 13:-0.846876 14:-0.927124 15:-0.866192 16:0.2783 17:-0.0479844 18:-0.226024 19:-0.834168 20:-0.731925 21:-0.867048 22:0.186432 23:0.114685 24:0.0897132 25:-0.717474 26:-0.741226 27:-0.640763 28:-0.73109 29:-0.760213 30:-0.7335 31:0.206863 32:0.318452 33:0.0274322 34:-0.451656 35:-0.198969 36:-0.297538 37:0.385366 38:0.154827 39:-0.413835 
861.07792922 1:-0.116295 2:0.244441 3:-0.0508363 4:-0.860114 5:-0.922548 6:-0.932132 7:0.133093 8:-0.0612244 9:-0.0956881 10:-0.488292 11:-0.861634 12:-0.820945 13:-0.86912 14:-0.956022 15:-0.895093 16:0.207327 17:-0.122672 18:-0.113383 19:-0.827264 20:-0.844476 21:-0.840429 22:0.207701 23:0.336268 24:-0.179899 25:-0.725432 26:-0.35326 27:-0.795221 28:-0.856052 29:-0.800883 30:-0.807043 31:-0.212813 32:-0.266582 33:-0.150765 34:-0.260414 35:-0.206681 36:-0.158321 37:0.497577 38:0.610305 39:-0.0611159 
861.07792922 1:-0.0567343 2:0.278967 3:-0.0462063 4:-0.832639 5:-0.865155 6:-0.955132 7:-0.0163231 8:0.294871 9:0.137906 10:-0.901719 11:-0.555796 12:-0.833935 13:-0.775783 14:-0.926371 15:-0.874284 16:0.271525 17:-0.0500818 18:-0.255112 19:-0.912266 20:-0.878733 21:-0.750521 22:0.255587 23:0.155008 24:-0.262294 25:-0.758799 26:-0.596199 27:-0.729667 28:-0.887092 29:-0.812661 30:-0.838497 31:0.595215 32:0.54512 33:0.0875778 34:-0.559367 35:-0.788831 36:0.204093 37:-0.504051 38:-0.672472 39:0.370108 
3.906493438919391 1:-0.0502286 2:0.404249 3:-0.0571921 4:-0.87564 5:-0.83796 6:-0.953098 7:-0.189805 8:0.358678 9:-0.093833 10:-0.569429 11:-0.393012 12:-0.743676 13:-0.853125 14:-0.929221 15:-0.878505 16:0.139315 17:-0.177461 18:-0.156172 19:-0.86953 20:-0.909731 21:-0.868069 22:-0.031766 23:0.267953 24:-0.43357 25:-0.894919 26:-0.655254 27:-0.385897 28:-0.876996 29:-0.869341 30:-0.848315 31:-0.0657461 32:0.17479 33:0.4276 34:-0.171825 35:-0.397165 36:-0.472447 37:0.200222 38:0.489392 39:0.019458 
861.07792922 1:-0.196151 2:0.26949 3:-0.0498075 4:-0.837541 5:-0.908109 6:-0.95063 7:-0.322214 8:0.250532 9:0.186566 10:-0.571512 11:-0.580361 12:-0.800486 13:-0.828969 14:-0.936944 15:-0.884291 16:0.185095 17:-0.1593 18:-0.232571 19:-0.885471 20:-0.936896 21:-0.682078 22:0.0901691 23:-0.122296 24:-0.446292 25:-0.808557 26:-0.429735 27:-0.116221 28:-0.884279 29:-0.781745 30:-0.832705 31:-0.567206 32:0.432733 33:0.781558 34:0.312131 35:0.206897 36:-0.130435 37:-0.391378 38:-0.556648 39:-0.155546 
798.6988576691609 1:-0.136404 2:0.314287 3:-0.0872404 4:-0.784146 5:-0.857358 6:-0.880514 7:-0.319212 8:0.127684 9:0.0709802 10:-0.499354 11:-0.832512 12:-0.893395 13:-0.745079 14:-0.909542 15:-0.823217 16:0.195093 17:-0.183139 18:-0.299453 19:-0.608756 20:-0.882669 21:-0.654421 22:0.168973 23:0.146752 24:-0.105025 25:-0.781554 26:-0.892939 27:-0.654461 28:-0.776494 29:-0.740339 30:-0.728255 31:-0.7974 32:-0.49983 33:0.934736 34:0.77254 35:0.557537 36:-0.688221 37:-0.678428 38:-0.64352 39:0.323437 
861.07792922 1:-0.170697 2:0.239431 3:-0.0822002 4:-0.867391 5:-0.942078 6:-0.960156 7:-0.217224 8:-0.130868 9:-0.486876 10:-0.543831 11:-0.604383 12:-0.204978 13:-0.865394 14:-0.931426 15:-0.911654 16:0.228508 17:-0.0841518 18:-0.16616 19:-0.959025 20:-0.968469 21:-0.930851 22:-0.0963984 23:0.028352 24:0.130236 25:-0.376345 26:-0.471185 27:-0.796568 28:-0.948267 29:-0.929334 30:-0.940155 31:0.0926708 32:0.326566 33:-0.00267624 34:-0.0075075 35:0.00155378 36:0.174789 37:-0.134415 38:-0.0908181 39:-0.661899 
861.07792922 1:-0.167181 2:0.196137 3:-0.0447163 4:-0.838927 5:-0.93059 6:-0.917121 7:-0.144578 8:-0.387951 9:-0.0857026 10:-0.636372 11:-0.261269 12:-0.675024 13:-0.839287 14:-0.92537 15:-0.878715 16:0.193251 17:-0.0921322 18:-0.212999 19:-0.925282 20:-0.93106 21:-0.916021 22:-0.00394781 23:-0.129819 24:0.253611 25:-0.600899 26:-0.650747 27:-0.878328 28:-0.939578 29:-0.890136 30:-0.91332 31:0.117749 32:0.158837 33:0.093148 34:-0.318583 35:-0.204631 36:-0.313644 37:-0.278219 38:-0.38856 39:-0.222879 
861.07792922 1:0.0101166 2:0.102355 3:-0.0292368 4:-0.910084 5:-0.927455 6:-0.967893 7:0.267844 8:-0.210635 9:-0.246108 10:-0.731617 11:-0.800319 12:-0.644271 13:-0.892486 14:-0.949916 15:-0.920574 16:0.227587 17:-0.0619501 18:-0.250388 19:-0.950709 20:-0.960382 21:-0.878869 22:0.156336 23:0.535208 24:0.233459 25:-0.446675 26:-0.20258 27:-0.519033 28:-0.953089 29:-0.899522 30:-0.930237 31:-0.143419 32:-0.131281 33:0.480796 34:-0.0182375 35:0.0428249 36:-0.469146 37:-0.351943 38:-0.568475 39:-0.429568 
593.0568763568366 1:-0.119454 2:0.222318 3:-0.067176 4:-0.819165 5:-0.921004 6:-0.933127 7:-0.330805 8:0.0171975 9:0.00238202 10:-0.423534 11:-0.925589 12:-0.462073 13:-0.799092 14:-0.90932 15:-0.874703 16:0.228902 17:-0.0899325 18:-0.15354 19:-0.926662 20:-0.965104 21:-0.923845 22:-0.0599706 23:-0.113848 24:-0.0360947 25:-0.615723 26:-0.670603 27:-0.865998 28:-0.936565 29:-0.913876 30:-0.926931 31:0.337226 32:0.378804 33:0.183657 34:-0.247625 35:-0.0989148 36:-0.331403 37:0.0665909 38:0.233947 39:0.257831 
861.07792922 1:-0.0321616 2:0.164877 3:-0.0402337 4:-0.86545 5:-0.909828 6:-0.944889 7:0.156922 8:0.340785 9:0.0871579 10:-0.52001 11:-0.628542 12:-0.669735 13:-0.862493 14:-0.94446 15:-0.896815 16:0.22239 17:-0.0163188 18:-0.188905 19:-0.865377 20:-0.872593 21:-0.87876 22:0.451963 23:0.496554 24:0.129478 25:-0.449655 26:-0.501139 27:-0.790117 28:-0.898594 29:-0.826647 30:-0.845827 31:-0.051956 32:-0.352755 33:0.315603 34:0.53767 35:0.755796 36:-0.00825733 37:-0.655331 38:-0.572418 39:0.0138188 
861.07792922 1:-0.0923377 2:0.245568 3:-0.0359314 4:-0.929092 5:-0.940607 6:-0.934676 7:0.0969751 8:0.313582 9:-0.0512057 10:-0.873822 11:-0.0244378 12:-0.743638 13:-0.897498 14:-0.964207 15:-0.928783 16:0.235348 17:-0.105791 18:-0.244111 19:-0.939527 20:-0.97664 21:-0.932127 22:-0.247426 23:-0.356018 24:0.0122196 25:-0.507635 26:-0.57902 27:-0.810309 28:-0.969613 29:-0.934671 30:-0.953153 31:-0.363468 32:-0.440895 33:0.636081 34:0.368514 35:0.626102 36:-0.575721 37:-0.385635 38:-0.152564 39:0.458863 
861.07792922 1:-0.10963 2:0.222954 3:-0.0377431 4:-0.862889 5:-0.881965 6:-0.9243 7:-0.129805 8:0.0327433 9:0.133751 10:-0.75646 11:-0.545765 12:-0.85082 13:-0.845082 14:-0.932938 15:-0.884988 16:0.234954 17:-0.109986 18:-0.200783 19:-0.924983 20:-0.927236 21:-0.696067 22:2.80054e-05 23:-0.349866 24:0.0674665 25:-0.880384 26:-0.381556 27:-0.678275 28:-0.866549 29:-0.825359 30:-0.848698 31:-0.111546 32:0.19174 33:0.546822 34:0.160928 35:-0.105084 36:-0.578864 37:0.0815434 38:0.369775 39:-0.0769597 
861.07792922 1:-0.178258 2:0.296554 3:-0.0356527 4:-0.84744 5:-0.921197 6:-0.956234 7:-0.28924 8:0.273042 9:0.13924 10:-0.606819 11:-0.590751 12:-0.965438 13:-0.843881 14:-0.93362 15:-0.892798 16:0.242452 17:-0.105075 18:-0.238577 19:-0.908469 20:-0.941046 21:-0.900422 22:-0.642769 23:-0.347335 24:-0.00943298 25:0.240322 26:-0.0932393 27:-0.685661 28:-0.955349 29:-0.86106 30:-0.918855 31:-0.535602 32:-0.468813 33:0.439886 34:0.554777 35:0.446267 36:-0.325563 37:-0.442465 38:-0.137045 39:-0.0268257 
47.04805940096137 1:-0.17551 2:0.322138 3:0.0542528 4:-0.877076 5:-0.85614 6:-0.943905 7:-0.358204 8:0.0376298 9:-0.0458428 10:-0.482245 11:-0.891055 12:-0.696305 13:-0.851269 14:-0.915335 15:-0.881557 16:0.213116 17:-0.149069 18:-0.180198 19:-0.801104 20:-0.88666 21:-0.737896 22:0.275032 23:0.39131 24:-0.257785 25:-0.465368 26:-0.525003 27:-0.35974 28:-0.870919 29:-0.784873 30:-0.812225 31:0.707492 32:0.578773 33:0.813746 34:-0.540847 35:-0.30233 36:-0.458933 37:-0.478613 38:-0.349533 39:-0.280252 
104.2427173830398 1:-0.135261 2:0.151332 3:-0.127901 4:-0.86247 5:-0.841318 6:-0.938699 7:0.415519 8:0.320151 9:0.209048 10:-0.570385 11:-0.643706 12:-0.802643 13:-0.843222 14:-0.921926 15:-0.880481 16:0.191936 17:-0.0716697 18:-0.392792 19:-0.894722 20:-0.904582 21:-0.788518 22:0.37665 23:0.378407 24:-0.0760709 25:-0.492923 26:-0.694904 27:-0.918969 28:-0.871723 29:-0.843393 30:-0.840235 31:0.71424 32:0.69689 33:-0.254506 34:0.603908 35:0.559942 36:0.0111277 37:-0.721828 38:-0.405453 39:0.682647 
861.07792922 1:-0.0242295 2:0.380828 3:-0.0566052 4:-0.941884 5:-0.954114 6:-0.982258 7:0.192086 8:0.0996526 9:-0.0984781 10:-0.811191 11:-0.926552 12:-0.719404 13:-0.915399 14:-0.968567 15:-0.938986 16:0.374005 17:-0.180223 18:-0.131673 19:-0.976463 20:-0.970892 21:-0.882199 22:0.155453 23:-0.199573 24:0.229766 25:-0.632456 26:-0.816981 27:-0.797913 28:-0.9111 29:-0.877622 30:-0.879321 31:0.529526 32:-0.179572 33:1 34:0.386316 35:-0.113328 36:0.994552 37:-0.153585 38:-0.171625 39:-0.417543 
861.07792922 1:-0.0849855 2:0.233469 3:-0.0240042 4:-0.908329 5:-0.930877 6:-0.927284 7:-0.479244 8:-0.214515 9:0.294959 10:-0.347072 11:-0.734343 12:-0.709633 13:-0.898854 14:-0.954147 15:-0.914446 16:0.181543 17:-0.0358604 18:-0.287845 19:-0.847569 20:-0.89492 21:-0.787254 22:-0.097463 23:0.0986753 24:0.318224 25:-0.556098 26:-0.444017 27:-0.676512 28:-0.890758 29:-0.780272 30:-0.838938 31:0.881979 32:-0.801291 33:-0.558389 34:0.723816 35:-0.500879 36:-0.584881 37:0.0957436 38:-0.284726 39:0.616245 
861.07792922 1:-0.159074 2:0.105653 3:-0.274163 4:-0.846656 5:-0.909484 6:-0.920158 7:-0.273799 8:-0.272712 9:-0.139458 10:-0.654237 11:-0.757748 12:-0.65641 13:-0.843392 14:-0.92901 15:-0.872286 16:0.937512 17:-0.928842 18:0.468988 19:-0.781112 20:-0.800603 21:-0.85027 22:0.422185 23:0.00859649 24:0.339971 25:-0.61875 26:-0.859718 27:-0.595452 28:-0.180763 29:-0.309349 30:-0.174735 31:-0.546954 32:0.53701 33:-0.352624 34:-0.840803 35:0.804938 36:-0.696763 37:0.102808 38:0.0162885 39:-0.179287 
816.3790107953549 1:-0.0916125 2:0.157679 3:-0.10646 4:-0.910794 5:-0.873426 6:-0.809548 7:0.0114628 8:-0.569321 9:-0.527786 10:-0.835757 11:-0.0174333 12:-0.289693 13:-0.73388 14:-0.879793 15:-0.829962 16:0.0124317 17:0.0707489 18:-0.400013 19:-0.772743 20:-0.810847 21:-0.757799 22:0.139662 23:-0.228778 24:0.312888 25:-0.681677 26:-0.567185 27:-0.732496 28:-0.741688 29:-0.698381 30:-0.702009 31:-0.0826293 32:-0.296073 33:-0.00700729 34:0.275095 35:-0.440456 36:-0.676801 37:0.260948 38:-0.101983 39:-0.603783 
500.883876730266 1:-0.0247915 2:-0.093992 3:-0.353043 4:-0.731574 5:-0.780043 6:-0.943981 7:-0.360613 8:0.0179987 9:0.0505015 10:-0.653492 11:-0.936079 12:-0.797325 13:-0.644306 14:-0.894128 15:-0.779341 16:0.722818 17:-0.759208 18:1 19:-0.858909 20:-0.857572 21:-0.646103 22:-0.123484 23:0.213844 24:-0.0687721 25:-0.853037 26:-0.784816 27:-0.723119 28:-0.0809141 29:-0.382591 30:-0.12204 31:0.175628 32:-0.215334 33:-0.273314 34:-0.331651 35:0.295655 36:-0.754952 37:-0.410524 38:0.38713 39:0.0871304 
861.07792922 1:-0.199019 2:0.239863 3:0.0901452 4:-0.934361 5:-0.972218 6:-0.956784 7:-0.516187 8:-0.323132 9:0.0386117 10:-0.37471 11:-0.459593 12:-0.859226 13:-0.887054 14:-0.967614 15:-0.927824 16:0.353549 17:-0.224268 18:-0.0435311 19:-0.823751 20:-0.824067 21:-0.871553 22:0.152726 23:-0.189781 24:0.166395 25:-0.922348 26:-0.887206 27:-0.875827 28:-0.818885 29:-0.725616 30:-0.757486 31:0.421892 32:-0.221677 33:0.384138 34:0.525261 35:-0.421536 36:0.563318 37:-0.73023 38:0.762242 39:-0.708107 
409.4422190778447 1:0.0954773 2:0.0901682 3:-0.290565 4:-0.738158 5:-0.893311 6:-0.925701 7:-0.341007 8:-0.130618 9:-0.155961 10:-0.675112 11:-0.855433 12:-0.735639 13:-0.613401 14:-0.923233 15:-0.803267 16:0.77465 17:-0.922805 18:0.637578 19:-0.521767 20:-0.374689 21:-0.332452 22:0.208209 23:-0.124142 24:-0.0168036 25:-0.918384 26:-0.936467 27:-0.885636 28:-0.168006 29:0.0520795 30:0.0558579 31:-0.453105 32:0.545623 33:-0.281159 34:-0.711772 35:0.707996 36:-0.380867 37:-0.15325 38:0.091999 39:-0.413995 
861.07792922 1:-0.0498345 2:0.136511 3:-0.0256102 4:-0.847218 5:-0.857329 6:-0.915253 7:-0.254284 8:-0.195722 9:0.127138 10:-0.442961 11:-0.658535 12:-0.903143 13:-0.830813 14:-0.903115 15:-0.865808 16:0.135763 17:0.0458871 18:-0.348384 19:-0.786523 20:-0.80314 21:-0.650757 22:-0.17272 23:0.0220904 24:0.431512 25:-0.698421 26:-0.847853 27:-0.479495 28:-0.766901 29:-0.655134 30:-0.715075 31:0.878791 32:-0.887315 33:-0.285185 34:0.792971 35:-0.678364 36:-0.450737 37:-0.137148 38:0.0493599 39:0.308113 
861.07792922 1:0.230326 2:0.185305 3:-0.157775 4:-0.900986 5:-0.944537 6:-0.925496 7:0.205545 8:-0.0536208 9:-0.129669 10:-0.787771 11:-0.936929 12:-0.769652 13:-0.738392 14:-0.934581 15:-0.862311 16:0.672433 17:-0.460661 18:0.245394 19:-0.832115 20:-0.806142 21:-0.72537 22:0.0957377 23:-0.337639 24:0.00203559 25:-0.902811 26:-0.511431 27:-0.862907 28:-0.640432 29:-0.494295 30:-0.510776 31:0.772285 32:-0.693253 33:0.701293 34:0.866003 35:-0.527628 36:0.863093 37:0.0679494 38:-0.471261 39:0.371281 
861.07792922 1:-0.10503 2:0.249156 3:-0.134147 4:-0.910953 5:-0.957696 6:-0.904087 7:0.340983 8:0.350126 9:-0.593306 10:-0.507792 11:-0.405725 12:0.0498944 13:-0.887342 14:-0.923024 15:-0.907548 16:0.244623 17:-0.0537651 18:-0.284875 19:-0.882346 20:-0.915577 21:-0.937968 22:-0.302101 23:0.301907 24:-0.184439 25:-0.724818 26:-0.609748 27:-0.858482 28:-0.921899 29:-0.877806 30:-0.896536 31:-0.105543 32:0.526714 33:-0.0481339 34:-0.512489 35:0.466538 36:-0.0299378 37:-0.336249 38:-0.0118319 39:-0.0948686 
861.07792922 1:-0.116958 2:0.201369 3:-0.022355 4:-0.820422 5:-0.834 6:-0.733329 7:-0.250983 8:-0.0917239 9:-0.014389 10:-0.582906 11:-0.635508 12:-0.891193 13:-0.561149 14:-0.912463 15:-0.746491 16:0.514635 17:-0.156896 18:-0.180198 19:-0.19416 20:-0.301701 21:-0.710881 22:0.0167084 23:0.247559 24:0.244006 25:-0.877824 26:-0.754032 27:-0.521454 28:-0.293069 29:-0.47258 30:-0.223761 31:-0.377982 32:-0.135333 33:-0.135625 34:-0.106878 35:0.355052 36:0.601446 37:-0.64785 38:0.597699 39:-0.0277052 
861.07792922 1:-0.0371654 2:0.183662 3:-0.182554 4:-0.945829 5:-0.927097 6:-0.867331 7:-0.265454 8:0.337756 9:0.289181 10:-0.808614 11:-0.758549 12:-0.740613 13:-0.769887 14:-0.952384 15:-0.883775 16:0.141156 17:-0.0585738 18:-0.45873 19:-0.765682 20:-0.950173 21:-0.893806 22:-0.175636 23:0.279131 24:0.12591 25:-0.857955 26:-0.863057 27:-0.858156 28:-0.843546 29:-0.828487 30:-0.817769 31:0.887609 32:-0.905007 33:0.742456 34:0.584274 35:-0.558708 36:0.939926 37:0.0966147 38:-0.148513 39:0.592416 
861.07792922 1:0.0393018 2:0.316557 3:0.097969 4:-0.904094 5:-0.834001 6:-0.879619 7:-0.388404 8:0.105262 9:0.375197 10:-0.372424 11:-0.863508 12:-0.453358 13:-0.827423 14:-0.886429 15:-0.845698 16:0.128198 17:-0.14559 18:-0.453263 19:-0.864656 20:-0.867217 21:-0.758742 22:-0.28055 23:-0.218527 24:0.0533471 25:-0.695301 26:-0.802145 27:-0.904767 28:-0.825816 29:-0.87247 30:-0.781382 31:0.256338 32:-0.495603 33:0.0395564 34:-0.396105 35:-0.0344301 36:0.378477 37:-0.519809 38:0.261102 39:0.257969 
861.07792922 1:0.0836568 2:0.259892 3:-0.11092 4:-0.920228 5:-0.868601 6:-0.937605 7:0.314531 8:0.238705 9:0.282871 10:-0.626149 11:-0.695441 12:-0.622052 13:-0.857358 14:-0.913583 15:-0.890924 16:0.107545 17:-0.0354 18:-0.410272 19:-0.73286 20:-0.847198 21:-0.721049 22:0.294746 23:-0.0178474 24:0.222108 25:-0.765613 26:-0.804394 27:-0.735195 28:-0.814817 29:-0.771071 30:-0.744502 31:-0.0150912 32:0.190661 33:0.569457 34:-0.0985223 35:0.1957 36:0.474843 37:-0.143552 38:0.265935 39:0.519923 
861.07792922 1:0.00739605 2:0.219929 3:-0.0174206 4:-0.920856 5:-0.851811 6:-0.93371 7:0.268574 8:0.267337 9:0.245928 10:-0.787748 11:-0.745336 12:-0.744374 13:-0.87108 14:-0.92219 15:-0.894644 16:0.130237 17:-0.0701862 18:-0.378619 19:-0.818862 20:-0.910823 21:-0.799448 22:0.233785 23:-0.100272 24:0.30377 25:-0.732756 26:-0.762519 27:-0.622381 28:-0.865495 29:-0.846522 30:-0.824419 31:-0.400444 32:0.396054 33:0.379134 34:-0.0920968 35:0.105803 36:0.680628 37:-0.148134 38:0.228711 39:0.506118 
861.07792922 1:-0.0960726 2:0.270548 3:0.327271 4:-0.935878 5:-0.788712 6:-0.811212 7:0.19428 8:-0.150608 9:0.127062 10:-0.734271 11:-0.43924 12:-0.897902 13:-0.653775 14:-0.883786 15:-0.784286 16:0.304414 17:-0.0467567 18:-0.266518 19:-0.477763 20:-0.800409 21:-0.837494 22:0.0285264 23:-0.215533 24:0.255316 25:-0.753375 26:-0.682942 27:-0.783745 28:-0.743345 29:-0.71071 30:-0.681099 31:-0.111763 32:-0.0535393 33:-0.24793 34:0.418805 35:-0.23358 36:0.027913 37:-0.416112 38:0.450414 39:0.454925 
861.07792922 1:-0.0319931 2:0.24098 3:-0.174815 4:-0.920957 5:-0.885741 6:-0.931922 7:0.292571 8:0.222932 9:-0.302972 10:-0.640215 11:-0.789379 12:-0.0896993 13:-0.90619 14:-0.915355 15:-0.907937 16:0.128527 17:0.0161653 18:-0.552743 19:-0.938467 20:-0.954682 21:-0.928925 22:0.0996756 23:-0.149004 24:0.316909 25:-0.811011 26:-0.854227 27:-0.608345 28:-0.773581 29:-0.870629 30:-0.801148 31:0.32728 32:-0.383037 33:0.941954 34:-0.0327203 35:-0.226448 36:0.88041 37:-0.558747 38:0.314077 39:-0.395052 
861.07792922 1:-0.061122 2:0.171768 3:-0.193422 4:-0.934286 5:-0.908374 6:-0.948478 7:0.490527 8:0.372059 9:-0.139873 10:-0.370335 11:-0.648117 12:-0.863137 13:-0.92177 14:-0.958888 15:-0.927613 16:0.173913 17:0.00987314 18:-0.40548 19:-0.880798 20:-0.940887 21:-0.957338 22:-0.068843 23:-0.0233217 24:0.563251 25:-0.960722 26:-0.90632 27:-0.166342 28:-0.883174 29:-0.884431 30:-0.858793 31:0.623665 32:-0.765439 33:0.760638 34:0.451476 35:-0.722894 36:0.79481 37:0.191298 38:-0.664449 39:0.551862 
861.07792922 1:-0.123854 2:0.0987693 3:-0.148483 4:-0.8601 5:-0.946771 6:-0.912386 7:-0.218141 8:0.258968 9:0.161398 10:-0.680783 11:-0.636118 12:-0.679928 13:-0.840834 14:-0.948244 15:-0.888103 16:0.400973 17:-0.423163 18:-0.206047 19:-0.658216 20:-0.667866 21:-0.748054 22:0.147832 23:0.0535916 24:0.117518 25:-0.859636 26:-0.962345 27:-0.872718 28:-0.54656 29:-0.582812 30:-0.5602 31:0.312184 32:-0.213327 33:0.29279 34:-0.0558077 35:0.00239199 36:-0.191396 37:0.028587 38:-0.0887133 39:-0.291812 
861.07792922 1:-0.300711 2:0.101572 3:-0.08291 4:-0.83043 5:-0.947725 6:-0.900679 7:-0.385149 8:-0.122461 9:-0.0639926 10:-0.440938 11:-0.860977 12:-0.630972 13:-0.818204 14:-0.926318 15:-0.8572 16:0.209564 17:-0.200225 18:-0.268003 19:-0.856525 20:-0.71522 21:-0.871446 22:0.293688 23:-0.00242762 24:-0.274337 25:-0.664621 26:-0.684852 27:-0.585897 28:-0.736213 29:-0.741075 30:-0.712532 31:0.483935 32:-0.233196 33:0.699309 34:0.244447 35:-0.1647 36:0.194207 37:0.622138 38:-0.0222641 39:0.535475 
861.07792922 1:-0.0472014 2:0.261098 3:-0.15888 4:-0.919143 5:-0.93345 6:-0.928055 7:-0.24248 8:-0.424521 9:-0.294057 10:-0.532083 11:-0.515842 12:-0.597784 13:-0.904588 14:-0.958377 15:-0.917497 16:0.242321 17:-0.0657356 18:-0.256327 19:-0.940897 20:-0.8801 21:-0.920743 22:0.383599 23:-0.470741 24:0.0100108 25:-0.526577 26:-0.0269752 27:-0.788465 28:-0.899096 29:-0.851675 30:-0.88149 31:-0.519664 32:0.260869 33:-0.315187 34:-0.546999 35:0.24436 36:-0.225505 37:-0.218831 38:0.71039 39:0.784003 
440.3361749950396 1:0.0328452 2:0.24847 3:-0.178644 4:-0.814014 5:-0.919049 6:-0.944264 7:0.455857 8:0.109055 9:-0.114699 10:-0.475635 11:-0.85298 12:-0.847206 13:-0.819381 14:-0.904047 15:-0.864856 16:0.21259 17:-0.106507 18:-0.311804 19:-0.850754 20:-0.719931 21:-0.883427 22:-0.143404 23:-0.364258 24:0.183749 25:-0.91409 26:-0.670805 27:-0.804628 28:-0.722451 29:-0.760766 30:-0.725307 31:0.732033 32:-0.885986 33:0.497178 34:0.927802 35:-0.807276 36:0.73179 37:-0.328347 38:0.676497 39:0.0902225 
861.07792922 1:-0.140832 2:0.258243 3:-0.0119162 4:-0.920369 5:-0.953516 6:-0.958259 7:-0.479048 8:-0.0727791 9:0.319265 10:-0.339826 11:-0.691481 12:-0.395538 13:-0.927316 14:-0.946193 15:-0.936941 16:0.255871 17:-0.0847145 18:-0.234528 19:-0.971513 20:-0.978198 21:-0.962958 22:-0.158986 23:-0.146448 24:-0.0851115 25:-0.688974 26:-0.624123 27:-0.358858 28:-0.980512 29:-0.964115 30:-0.97212 31:0.372135 32:-0.228169 33:0.0926187 34:0.156225 35:0.014443 36:0.325733 37:-0.527017 38:0.344036 39:-0.204255 
861.07792922 1:-0.10176 2:0.229072 3:0.031292 4:-0.781865 5:-0.916665 6:-0.957276 7:0.319761 8:0.0499097 9:0.00507137 10:-0.218381 11:-0.752861 12:-0.932117 13:-0.803473 14:-0.913296 15:-0.855537 16:0.194501 17:0.0528443 18:-0.371398 19:-0.883999 20:-0.873535 21:-0.928456 22:-0.252488 23:0.121224 24:-0.0597492 25:-0.667398 26:-0.852274 27:-0.846216 28:-0.836213 29:-0.80254 30:-0.819855 31:0.513051 32:-0.35232 33:0.42074 34:-0.263463 35:0.177954 36:-0.125534 37:-0.586165 38:0.480403 39:-0.581422 
861.07792922 1:-0.0427314 2:0.270104 3:-0.0794822 4:-0.88011 5:-0.915604 6:-0.95895 7:0.281594 8:0.338611 9:-0.0634626 10:-0.795958 11:-0.798762 12:-0.735701 13:-0.877285 14:-0.941159 15:-0.91044 16:0.177991 17:-0.0114078 18:-0.398934 19:-0.940234 20:-0.972755 21:-0.871296 22:0.505502 23:0.460998 24:0.375278 25:-0.0533623 26:-0.440854 27:-0.5141 28:-0.874586 29:-0.916084 30:-0.876331 31:0.442974 32:0.456658 33:0.666091 34:0.441109 35:0.54953 36:0.721069 37:-0.797209 38:-0.198966 39:-0.826958 
861.07792922 1:-0.279217 2:0.182937 3:-0.0477982 4:-0.8292 5:-0.94725 6:-0.939084 7:-0.348273 8:-0.213161 9:-0.12919 10:-0.609269 11:-0.444637 12:-0.697488 13:-0.808156 14:-0.918168 15:-0.87508 16:0.176676 17:0.131676 18:-0.0622933 19:-0.91213 20:-0.886744 21:-0.766814 22:0.279126 23:-0.0788933 24:-0.0330561 25:-0.675206 26:-0.742576 27:-0.563409 28:-0.772577 29:-0.760766 30:-0.762425 31:0.126197 32:0.141263 33:0.371593 34:0.0622154 35:0.0604106 36:0.16608 37:-0.247399 38:0.200629 39:0.44979 
861.07792922 1:-0.0436652 2:0.262039 3:-0.103332 4:-0.826905 5:-0.903513 6:-0.927355 7:0.360872 8:0.276448 9:-0.173338 10:-0.566468 11:-0.705251 12:-0.783624 13:-0.823469 14:-0.927246 15:-0.871312 16:0.274354 17:-0.102773 18:-0.298643 19:-0.808757 20:-0.880696 21:-0.86262 22:0.0881359 23:0.108938 24:0.0752243 25:-0.869602 26:-0.843259 27:-0.708502 28:-0.867956 29:-0.863636 30:-0.84313 31:0.512798 32:-0.497078 33:0.709288 34:0.357738 35:-0.346812 36:0.376545 37:-0.565933 38:0.500291 39:0.183874 
861.07792922 1:-0.106786 2:0.28684 3:-0.10702 4:-0.796132 5:-0.937449 6:-0.837427 7:0.189386 8:0.388547 9:0.144286 10:-0.761181 11:-0.677269 12:-0.727239 13:-0.756364 14:-0.912015 15:-0.81797 16:0.0610406 17:0.0367813 18:-0.382736 19:-0.563367 20:-0.547213 21:-0.816091 22:-0.340345 23:-0.108391 24:-0.00327886 25:-0.707494 26:-0.770164 27:-0.827365 28:-0.513059 29:-0.542326 30:-0.502288 31:-0.499778 32:0.311786 33:0.0767543 34:-0.224979 35:-0.258268 36:-0.493491 37:-0.173058 38:-0.011513 39:-0.670582 
861.07792922 1:-0.194801 2:0.173381 3:-0.0122303 4:-0.871026 5:-0.887314 6:-0.931088 7:0.158 8:-0.297663 9:0.0864892 10:-0.452875 11:-0.495604 12:-0.838906 13:-0.873715 14:-0.927047 15:-0.889223 16:0.230941 17:-0.0591876 18:-0.301748 19:-0.887466 20:-0.949403 21:-0.777741 22:0.0208173 23:0.104082 24:-0.26155 25:-0.64158 26:-0.698167 27:-0.644513 28:-0.911452 29:-0.854803 30:-0.876455 31:0.669666 32:-0.837239 33:0.685909 34:-0.467183 35:0.194521 36:-0.264027 37:-0.665018 38:0.709204 39:-0.694379 
861.07792922 1:-0.0570154 2:0.296637 3:-0.0326628 4:-0.827533 5:-0.905772 6:-0.963291 7:0.150496 8:-0.133506 9:-0.187183 10:-0.642303 11:-0.497776 12:-0.659649 13:-0.822737 14:-0.92725 15:-0.880833 16:0.261988 17:-0.0812871 18:-0.241412 19:-0.936334 20:-0.962643 21:-0.699068 22:-0.0826841 23:0.0272753 24:0.270846 25:-0.707601 26:-0.70582 27:-0.159484 28:-0.896283 29:-0.849834 30:-0.865225 31:-0.567499 32:-0.0751833 33:0.703688 34:-0.653473 35:0.24498 36:0.472075 37:0.210804 38:0.199359 39:-0.821879 
778.6677076548664 1:-0.219741 2:0.208228 3:-0.0853383 4:-0.893404 5:-0.872294 6:-0.94045 7:0.244292 8:0.44911 9:0.256004 10:-0.427852 11:-0.447727 12:-0.657029 13:-0.867928 14:-0.923039 15:-0.899035 16:0.148129 17:0.0174442 18:-0.113113 19:-0.849933 20:-0.872 21:-0.59813 22:0.204037 23:-0.229478 24:-0.335776 25:-0.673372 26:-0.665225 27:-0.71223 28:-0.76454 29:-0.801435 30:-0.75238 31:0.315368 32:0.127298 33:0.429853 34:0.289873 35:0.238821 36:-0.117668 37:0.31407 38:-0.55176 39:0.302972 
861.07792922 1:-0.187108 2:0.209876 3:0.0782653 4:-0.875123 5:-0.938104 6:-0.902372 7:-0.108214 8:-0.415637 9:0.33585 10:-0.839763 11:-0.28329 12:-0.662555 13:-0.845075 14:-0.929866 15:-0.879682 16:0.279353 17:-0.0671168 18:-0.309307 19:-0.85285 20:-0.926894 21:-0.852107 22:0.0885753 23:0.24256 24:-0.082477 25:-0.296657 26:-0.576493 27:-0.719581 28:-0.92883 29:-0.83364 30:-0.878014 31:0.118959 32:-0.0645349 33:0.897581 34:-0.356988 35:0.114389 36:0.401515 37:-0.319895 38:0.171892 39:-0.872178 
294.0368207821127 1:-0.179492 2:0.160311 3:-0.0102714 4:-0.843017 5:-0.8415 6:-0.951278 7:-0.166169 8:-0.406853 9:-0.0465759 10:-0.619768 11:-0.204312 12:-0.897356 13:-0.809962 14:-0.89492 15:-0.872227 16:0.293626 17:-0.0524862 18:-0.0971182 19:-0.863344 20:-0.911256 21:-0.79899 22:0.300305 23:-0.407051 24:0.0249481 25:-0.681693 26:-0.616292 27:-0.892664 28:-0.875691 29:-0.837689 30:-0.842095 31:4.80603e-05 32:0.206387 33:0.115886 34:-0.286368 35:0.463309 36:0.235005 37:0.0319718 38:-0.0639764 39:0.411745 
-36.37205042295896 1:-0.425161 2:0.55477 3:-0.122422 4:-0.905367 5:-0.90334 6:-0.961517 7:-0.115386 8:0.0627495 9:0.0914704 10:-0.782759 11:-0.938241 12:-0.830827 13:-0.775129 14:-0.935103 15:-0.856459 16:0.218246 17:-0.111162 18:-0.776136 19:-0.944998 20:-0.91227 21:-0.532537 22:0.190766 23:0.0348169 24:0.0567465 25:-0.898264 26:-0.972667 27:-0.95707 28:-0.607333 29:-0.769415 30:-0.643303 31:0.0400963 32:0.555105 33:0.396518 34:0.101895 35:-0.148553 36:-0.0824351 37:-0.546969 38:0.215009 39:0.289611 
-861.07792922 1:-0.143196 2:0.357875 3:0.0470395 4:-0.7313 5:-0.882454 6:-0.806854 7:-0.0538704 8:0.124953 9:-0.0376284 10:-0.926322 11:-0.842067 12:-0.942182 13:-0.624927 14:-0.89505 15:-0.761212 16:0.164441 17:-0.489666 18:-0.348654 19:-0.514982 20:-0.341279 21:-0.617607 22:-0.0569508 23:-0.00155129 24:-0.378446 25:-0.884437 26:-0.953315 27:-0.352827 28:-0.210447 29:-0.470924 30:-0.268616 31:0.77728 32:0.652406 33:0.489004 34:-0.668318 35:-0.54322 36:-0.471955 37:-0.956822 38:-0.556211 39:-0.464375 
-75.94143076639658 1:-0.0594732 2:0.400217 3:-0.0353849 4:-0.981862 5:-0.993025 6:-0.990426 7:0.214253 8:-0.708388 9:0.111137 10:-0.810579 11:0.317308 12:-0.917306 13:-0.904302 14:-0.989005 15:-0.955762 16:0.336644 17:-0.123593 18:-0.28636 19:-0.983343 20:-0.986631 21:-0.982681 22:0.275816 23:-0.36363 24:0.340919 25:-0.672771 26:-0.563728 27:-0.519112 28:-0.939628 29:-0.964851 30:-0.944305 31:0.235275 32:-0.687212 33:0.657053 34:-0.697283 35:0.481197 36:-0.629445 37:-0.135362 38:0.253879 39:-0.17897 
-861.07792922 1:0.199666 2:0.96253 3:-0.0106091 4:-0.985039 5:-0.989273 6:-0.988392 7:-0.103844 8:0.0156304 9:-0.202059 10:-0.868294 11:-0.797015 12:-0.624403 13:-0.582462 14:-0.945162 15:-0.805161 16:0.302901 17:-0.122468 18:-0.268003 19:-0.978988 20:-0.989342 21:-0.990684 22:0.343682 23:0.0286874 24:0.0316647 25:-0.573428 26:-0.93758 27:-0.893278 28:-0.965394 29:-0.97534 30:-0.962199 31:-0.17583 32:0.143588 33:0.588127 34:0.0237397 35:0.357574 36:0.31881 37:-0.599891 38:-0.68354 39:-0.217909 
-525.9758770611471 1:-0.158668 2:0.273677 3:-0.0233534 4:-0.906915 5:-0.925827 6:-0.868538 7:-0.0643979 8:0.105646 9:0.294835 10:-0.726385 11:-0.841682 12:-0.528625 13:-0.798809 14:-0.924835 15:-0.87601 16:0.0937973 17:-0.386075 18:-0.102315 19:-0.80679 20:-0.840087 21:-0.863167 22:-0.0370395 23:-0.203173 24:-0.455159 25:-0.891092 26:-0.841613 27:-0.33753 28:-0.713661 29:-0.779536 30:-0.701883 31:-0.347349 32:0.708534 33:0.616117 34:-0.213096 35:-0.72911 36:-0.250887 37:0.138493 38:-0.28427 39:-0.460153 
-268.001355536435 1:-0.0363013 2:0.21948 3:0.100815 4:-0.886435 5:-0.924845 6:-0.939764 7:0.0210441 8:-0.154409 9:-0.0957627 10:-0.736984 11:-0.782522 12:-0.804107 13:-0.855727 14:-0.943129 15:-0.895509 16:0.0425574 17:-0.356507 18:-0.0990079 19:-0.697333 20:-0.812604 21:-0.863597 22:-0.0821018 23:-0.0863861 24:-0.145566 25:-0.912097 26:-0.925643 27:-0.754589 28:-0.730437 29:-0.711814 30:-0.67283 31:0.431162 32:0.337516 33:0.098054 34:-0.67657 35:-0.596721 36:0.449546 37:0.439381 38:0.618428 39:0.0106641 
-861.07792922 1:0.00374841 2:0.0352687 3:-0.206342 4:-0.85371 5:-0.821094 6:-0.889684 7:0.13678 8:0.300812 9:-0.0447399 10:-0.798223 11:-0.776568 12:-0.849448 13:-0.800471 14:-0.928066 15:-0.840165 16:0.0251924 17:-0.0972989 18:0.522913 19:-0.651408 20:-0.909038 21:-0.687506 22:0.0175618 23:0.249298 24:0.155385 25:-0.821447 26:-0.746568 27:-0.751265 28:-0.435962 29:-0.624034 30:-0.518055 31:-0.728444 32:0.211555 33:0.404728 34:-0.256734 35:0.36311 36:-0.300216 37:0.0451989 38:0.120283 39:-0.75847 
-852.4377282063081 1:-0.140082 2:0.0959361 3:-0.0178605 4:-0.953292 5:-0.933772 6:-0.840512 7:-0.131123 8:-0.020353 9:0.359087 10:-0.747806 11:-0.828272 12:-0.43663 13:-0.774444 14:-0.914143 15:-0.866547 16:0.196277 17:-0.115152 18:-0.0716069 19:-0.754876 20:-0.837791 21:-0.781002 22:0.19121 23:-0.188876 24:-0.0351101 25:-0.886074 26:-0.704574 27:-0.908722 28:-0.843948 29:-0.817262 30:-0.7684 31:-0.416282 32:-0.0732936 33:0.135521 34:0.148041 35:0.174373 36:-0.295427 37:0.130746 38:-0.232888 39:-0.0780079 
-861.07792922 1:-0.141177 2:0.179988 3:-0.0367023 4:-0.96866 5:-0.965985 6:-0.962365 7:-0.444139 8:0.757965 9:-0.485162 10:-0.389317 11:0.339036 12:-0.144415 13:-0.942818 14:-0.965585 15:-0.963879 16:0.190357 17:-0.0754553 18:-0.304313 19:-0.958541 20:-0.984114 21:-0.945289 22:-0.0421494 23:0.226401 24:-0.0129475 25:-0.524851 26:-0.515656 27:-0.709568 28:-0.954746 29:-0.959146 30:-0.944262 31:0.644682 32:-0.640463 33:-0.646537 34:-0.680332 35:0.681707 36:0.333256 37:0.202597 38:-0.372215 39:-0.253464 
-861.07792922 1:-0.0523823 2:0.506393 3:-0.0785395 4:-0.9839 5:-0.996507 6:-0.987203 7:0.0602703 8:-0.0248937 9:-0.116765 10:-0.821496 11:-0.693625 12:-0.763409 13:-0.843532 14:-0.98051 15:-0.935577 16:0.258238 17:-0.0818498 18:-0.252885 19:-0.985736 20:-0.981055 21:-0.985327 22:0.280225 23:0.376164 24:0.244641 25:-0.478297 26:-0.542664 27:-0.794881 28:-0.985033 29:-0.97442 30:-0.980657 31:0.0166349 32:-0.365756 33:0.0325623 34:-0.49974 35:-0.685388 36:-0.115484 37:0.300567 38:0.671817 39:0.1447 
-861.07792922 1:-0.10705 2:0.235742 3:-0.00316257 4:-0.976448 5:-0.974667 6:-0.981706 7:0.02594 8:0.163859 9:0.217545 10:-0.944091 11:-0.72546 12:-0.779979 13:-0.955625 14:-0.989309 15:-0.971978 16:0.256857 17:-0.0923368 18:-0.249781 19:-0.980091 20:-0.978152 21:-0.966661 22:-0.300395 23:-0.757924 24:0.116745 25:-0.661908 26:0.384752 27:-0.94255 28:-0.982471 29:-0.969452 30:-0.974771 31:0.071864 32:-0.0375946 33:0.775057 34:-0.562022 35:-0.414976 36:-0.15666 37:-0.386518 38:0.058762 39:0.757345 
-861.07792922 1:0.0215533 2:-0.174902 3:0.0634418 4:-0.881807 5:-0.780755 6:-0.933511 7:-0.0355313 8:0.137056 9:0.266188 10:-0.911473 11:-0.858917 12:-0.610429 13:-0.720282 14:-0.92886 15:-0.832078 16:0.253963 17:-0.0869654 18:-0.545994 19:-0.630166 20:-0.65291 21:-0.722856 22:0.0931228 23:0.174422 24:0.144683 25:-0.863325 26:-0.860778 27:-0.737945 28:-0.616675 29:-0.647773 30:-0.583698 31:0.158356 32:0.119148 33:0.331376 34:-0.468543 35:-0.441884 36:-0.120862 37:0.0339126 38:0.293535 39:0.44906 
-861.07792922 1:-0.0736239 2:0.198115 3:-0.0696407 4:-0.841788 5:-0.904537 6:-0.977031 7:0.221191 8:-0.229782 9:-0.115504 10:-0.852153 11:-0.693936 12:-0.696999 13:-0.812658 14:-0.943466 15:-0.895132 16:0.236401 17:-0.0811848 18:-0.221165 19:-0.954274 20:-0.956956 21:-0.806046 22:0.100608 23:-0.202444 24:-0.157395 25:-0.864068 26:-0.809704 27:-0.792526 28:-0.904721 29:-0.931726 30:-0.906314 31:0.280439 32:0.401034 33:0.366425 34:-0.340371 35:-0.47888 36:-0.490544 37:-0.404453 38:-0.107077 39:-0.131197 
-861.07792922 1:-0.0532253 2:0.258914 3:-0.0253168 4:-0.986517 5:-0.989514 6:-0.972784 7:0.0618582 8:-0.548058 9:0.317365 10:-0.787186 11:0.0103867 12:-0.687358 13:-0.963465 14:-0.983456 15:-0.968934 16:0.2537 17:-0.045887 18:-0.240939 19:-0.925843 20:-0.975489 21:-0.98413 22:-0.61857 23:-0.745373 24:0.114711 25:-0.117953 26:0.449958 27:-0.829802 28:-0.952436 29:-0.947736 30:-0.950118 31:-0.122297 32:-0.0119208 33:0.0213134 34:0.680987 35:0.915957 36:0.467588 37:-0.439471 38:0.273524 39:0.0728502 
-861.07792922 1:-0.2586 2:0.248431 3:-0.0242999 4:-0.80841 5:-0.831803 6:-0.883891 7:-0.0342707 8:0.351091 9:-0.0459425 10:-0.802497 11:-0.560426 12:-0.872712 13:-0.762837 14:-0.901668 15:-0.825519 16:0.309478 17:0.0479333 18:-0.219208 19:-0.647505 20:-0.853169 21:-0.799533 22:0.0359617 23:0.213786 24:0.061238 25:-0.849692 26:-0.783891 27:-0.867008 28:-0.801959 29:-0.801435 30:-0.747646 31:-0.5922 32:-0.38251 33:0.17787 34:0.760534 35:0.131445 36:0.0872414 37:-0.462717 38:0.148147 39:-0.398077 
-158.4471543952893 1:-0.156261 2:0.154246 3:-0.00584242 4:-0.913601 5:-0.88098 6:-0.918927 7:-0.0492939 8:0.0224601 9:-0.0749187 10:-0.925211 11:-0.777954 12:-0.79181 13:-0.867337 14:-0.961229 15:-0.899876 16:0.281852 17:-0.235216 18:-0.293447 19:-0.801019 20:-0.815502 21:-0.862354 22:0.695954 23:0.0345583 24:-0.0409049 25:0.0667528 26:-0.865901 27:-0.866456 28:-0.790859 29:-0.792786 30:-0.771388 31:-0.262757 32:0.344112 33:0.271449 34:-0.342797 35:-0.618802 36:0.0699381 37:-0.605249 38:-0.234757 39:0.0332207 
-861.07792922 1:-0.122408 2:0.21816 3:-0.0219168 4:-0.964393 5:-0.975752 6:-0.986571 7:-0.110784 8:-0.0816993 9:-0.0622097 10:-0.857681 11:-0.931973 12:-0.725668 13:-0.964218 14:-0.989225 15:-0.973535 16:0.243833 17:-0.0968385 18:-0.251468 19:-0.99529 20:-0.989902 21:-0.969346 22:0.0816235 23:0.726054 24:0.451541 25:-0.753119 26:0.168756 27:-0.169263 28:-0.988046 29:-0.978469 30:-0.984159 31:0.0878805 32:0.204692 33:0.491846 34:0.0122527 35:-0.155983 36:-0.61996 37:-0.212477 38:0.267247 39:0.690191 
-861.07792922 1:-0.07719 2:0.239084 3:0.00587087 4:-0.990061 5:-0.986419 6:-0.984805 7:-0.205214 8:0.124804 9:-0.0280361 10:-0.372336 11:-0.958098 12:-0.841083 13:-0.949513 14:-0.990619 15:-0.973828 16:0.225613 17:-0.0925414 18:-0.134643 19:-0.981955 20:-0.993471 21:-0.942771 22:0.452593 23:0.627904 24:-0.050858 25:-0.284852 26:0.107803 27:-0.886259 28:-0.925314 29:-0.958594 30:-0.939447 31:-0.855762 32:-0.635423 33:-0.139585 34:0.702451 35:-0.091825 36:-0.556814 37:0.310286 38:0.495785 39:0.615679 
-861.07792922 1:-0.0210301 2:0.269689 3:-0.0820674 4:-0.974258 5:-0.980052 6:-0.979749 7:-0.458731 8:0.720681 9:0.139287 10:-0.379415 11:0.26538 12:-0.916828 13:-0.933536 14:-0.988044 15:-0.96545 16:0.253042 17:-0.0784223 18:-0.267396 19:-0.993086 20:-0.987787 21:-0.975696 22:-0.0434604 23:0.0186336 24:0.0908037 25:-0.789696 26:-0.809378 27:-0.815812 28:-0.982823 29:-0.988406 30:-0.980728 31:-0.092937 32:-0.341341 33:-0.104275 34:-0.118294 35:0.300193 36:0.214698 37:0.0854565 38:-0.0425758 39:-0.0318606 
-861.07792922 1:-0.196515 2:0.279128 3:-0.0648244 4:-0.961713 5:-0.951722 6:-0.918233 7:0.0958218 8:0.48436 9:0.19629 10:-0.581118 11:-0.145751 12:-0.809132 13:-0.876867 14:-0.958929 15:-0.926495 16:0.36085 17:-0.0296194 18:-0.267193 19:-0.889581 20:-0.846987 21:-0.922448 22:-0.0924443 23:-0.139402 24:-0.238063 25:-0.665307 26:-0.760987 27:-0.718127 28:-0.828679 29:-0.891424 30:-0.830712 31:0.255713 32:-0.420819 33:0.049833 34:-0.312753 35:-0.421342 36:0.197271 37:-0.635876 38:-0.709534 39:0.650629 
-861.07792922 1:-0.154949 2:0.236769 3:-0.0539002 4:-0.985178 5:-0.988375 6:-0.99014 7:0.305408 8:-0.014602 9:0.0596892 10:-0.617102 11:-0.772375 12:-0.488015 13:-0.982998 14:-0.993697 15:-0.986043 16:0.262317 17:-0.0942807 18:-0.236958 19:-0.977227 20:-0.994393 21:-0.987041 22:0.445703 23:-0.128948 24:0.0984669 25:-0.547354 26:-0.646889 27:-0.889683 28:-0.990758 29:-0.988222 30:-0.986755 31:0.586851 32:0.52488 33:0.365322 34:-0.724951 35:-0.252591 36:0.0930514 37:0.0669143 38:0.583144 39:0.562004 
-861.07792922 1:-0.19603 2:0.254785 3:-0.010856 4:-0.88406 5:-0.91877 6:-0.914972 7:0.177195 8:0.00941488 9:0.00754132 10:-0.578963 11:-0.599898 12:-0.590995 13:-0.869937 14:-0.923957 15:-0.89276 16:0.164047 17:-0.0876304 18:-0.203078 19:-0.873576 20:-0.765202 21:-0.882015 22:0.246308 23:0.0883635 24:-0.0204831 25:-0.730956 26:-0.934388 27:-0.422747 28:-0.730537 29:-0.830696 30:-0.765461 31:-0.219435 32:-0.330895 33:-0.115411 34:0.270358 35:0.125717 36:-0.0664449 37:-0.107754 38:-0.113622 39:0.179835 
-861.07792922 1:-0.0314449 2:0.135607 3:-0.0453427 4:-0.943406 5:-0.949472 6:-0.919145 7:-0.2096 8:0.078569 9:-0.467061 10:-0.74974 11:-0.877496 12:-0.133421 13:-0.899212 14:-0.96122 15:-0.921549 16:0.196803 17:-0.114539 18:-0.0592563 19:-0.692982 20:-0.88973 21:-0.8549 22:-0.0700095 23:-0.00978667 24:-0.424449 25:-0.824009 26:-0.821978 27:-0.531166 28:-0.830136 29:-0.82223 30:-0.786613 31:0.66603 32:0.439408 33:0.550007 34:-0.70651 35:-0.320232 36:-0.295917 37:0.122031 38:0.287946 39:0.595451 
-861.07792922 1:-0.1155 2:0.195068 3:-0.00400428 4:-0.892873 5:-0.834733 6:-0.904912 7:0.641803 8:-0.799949 9:0.378665 10:0.111752 11:0.478591 12:-0.382506 13:-0.872691 14:-0.862723 15:-0.874145 16:0.276064 17:-0.0650706 18:-0.186542 19:-0.938395 20:-0.851725 21:-0.905317 22:0.0537175 23:-0.692912 24:-0.0371224 25:-0.861299 26:0.254549 27:-0.823771 28:-0.870718 29:-0.833272 30:-0.851873 31:-0.0224553 32:-0.363794 33:-0.0680805 34:-0.0942161 35:0.218581 36:-0.0886242 37:0.0763327 38:-0.0925037 39:0.0887814 
-861.07792922 1:-0.148754 2:0.272974 3:-0.136342 4:-0.901505 5:-0.953158 6:-0.917005 7:0.0137291 8:0.262323 9:0.129911 10:-0.770631 11:-0.564127 12:-0.72237 13:-0.877555 14:-0.957703 15:-0.910101 16:0.384069 17:-0.123696 18:-0.175272 19:-0.783771 20:-0.866814 21:-0.833464 22:0.0023604 23:-0.213788 24:0.354789 25:-0.782867 26:-0.792564 27:-0.688143 28:-0.8556 29:-0.810637 30:-0.806762 31:-0.44144 32:-0.403332 33:0.225938 34:0.118207 35:0.0704871 36:0.0921146 37:-0.315679 38:-0.1945 39:0.0884755 
-861.07792922 1:-0.0979597 2:0.245476 3:0.00972784 4:-0.878744 5:-0.885369 6:-0.948936 7:0.0838862 8:-0.373593 9:-0.0187348 10:-0.611746 11:-0.276317 12:-0.778259 13:-0.884923 14:-0.943336 15:-0.899129 16:0.200421 17:-0.142572 18:-0.262604 19:-0.87698 20:-0.893611 21:-0.855102 22:0.0864459 23:0.171085 24:-0.44647 25:-0.897232 26:-0.775345 27:-0.449242 28:-0.875791 29:-0.871181 30:-0.863008 31:-0.203738 32:0.0981301 33:0.136407 34:0.149445 35:-0.040909 36:-0.213485 37:0.00875046 38:0.117135 39:-0.467891 
-861.07792922 1:-0.186284 2:-0.0637467 3:-0.51593 4:-0.947283 5:-0.954727 6:-0.956966 7:-0.0943121 8:0.105235 9:-0.285185 10:-0.857952 11:-0.806692 12:-0.65383 13:-0.742654 14:-0.95145 15:-0.871442 16:0.417944 17:-0.427051 18:-0.610717 19:-0.932862 20:-0.938965 21:-0.802003 22:0.21206 23:-0.167082 24:-0.354084 25:-0.868471 26:-0.792503 27:-0.696408 28:-0.67343 29:-0.760582 30:-0.664133 31:-0.451513 32:-0.266243 33:0.224834 34:0.418562 35:0.226656 36:-0.542962 37:-0.48527 38:-0.00371574 39:0.924526 
-861.07792922 1:-0.0327027 2:0.241319 3:0.0542494 4:-0.875643 5:-0.880307 6:-0.896333 7:-0.368135 8:0.0680419 9:0.170529 10:-0.586142 11:-0.732764 12:-0.733517 13:-0.830323 14:-0.942664 15:-0.867959 16:0.330264 17:-0.0923368 18:-0.296889 19:-0.761322 20:-0.920541 21:-0.812999 22:0.128263 23:-0.2297 24:-0.140022 25:-0.657126 26:-0.674599 27:-0.87583 28:-0.876494 29:-0.848914 30:-0.835767 31:-0.813291 32:-0.363543 33:0.540573 34:0.516686 35:0.0859354 36:-0.696815 37:-0.431095 38:-0.759428 39:-0.24128 
-861.07792922 1:-0.102596 2:0.230704 3:-0.0546896 4:-0.992319 5:-0.992433 6:-0.984228 7:0.00785263 8:0.13034 9:-0.222028 10:-0.739101 11:-0.875555 12:-0.642176 13:-0.975594 14:-0.996862 15:-0.98828 16:0.255739 17:-0.0857377 18:-0.231288 19:-0.986538 20:-0.994519 21:-0.990393 22:0.43581 23:-0.517983 24:0.20826 25:-0.447792 26:-0.335782 27:-0.769309 28:-0.995932 29:-0.985462 30:-0.990807 31:0.526962 32:-0.669664 33:0.605608 34:-0.266923 35:0.521784 36:-0.243244 37:-0.264132 38:0.431885 39:0.262488 
-861.07792922 1:-0.121279 2:0.268776 3:0.10733 4:-0.855546 5:-0.870931 6:-0.935326 7:0.161003 8:-0.036981 9:0.064653 10:-0.727248 11:-0.803589 12:-0.856851 13:-0.831594 14:-0.931259 15:-0.871595 16:0.300335 17:-0.0357581 18:-0.276912 19:-0.836166 20:-0.859566 21:-0.88076 22:-0.205628 23:0.161138 24:-0.272899 25:-0.672048 26:-0.752707 27:-0.636148 28:-0.853692 29:-0.844866 30:-0.834282 31:0.16452 32:-0.298551 33:0.0262304 34:0.554872 35:0.213978 36:0.109746 37:0.28116 38:0.289596 39:-0.0904449 
-861.07792922 1:-0.158473 2:0.167684 3:-0.00060559 4:-0.91194 5:-0.886531 6:-0.745678 7:0.177733 8:0.137933 9:-0.0425955 10:-0.660517 11:-0.805544 12:-0.942588 13:-0.525417 14:-0.926234 15:-0.782499 16:0.459251 17:0.0244526 18:-0.0754539 19:-0.423523 20:-0.781339 21:-0.605863 22:-0.0995871 23:-0.0125711 24:0.135896 25:-0.809413 26:-0.865647 27:-0.89967 28:-0.643094 29:-0.56809 30:-0.586571 31:-0.662617 32:-0.783568 33:0.342918 34:0.389996 35:-0.129053 36:-0.127824 37:-0.030123 38:0.452598 39:-0.449821 
-504.8830802616212 1:-0.393887 2:0.42148 3:-0.159409 4:-0.866192 5:-0.916434 6:-0.932679 7:0.0233611 8:0.0534508 9:0.0388222 10:-0.952634 11:-0.9076 12:-0.905824 13:-0.765501 14:-0.938798 15:-0.857885 16:0.322634 17:-0.529926 18:-0.529392 19:-0.695669 20:-0.506242 21:-0.578836 22:-0.164768 23:-0.368324 24:-0.244992 25:-0.74454 26:-0.650153 27:-0.782221 28:-0.547112 29:-0.254325 30:-0.382066 31:-0.119585 32:0.437149 33:0.606641 34:0.796821 35:0.305737 36:0.0427366 37:-0.692393 38:-0.819254 39:-0.861181 
-693.3321501596112 1:-0.141027 2:0.313527 3:-0.0500096 4:-0.986096 5:-0.989382 6:-0.978809 7:-0.305691 8:0.663826 9:-0.183035 10:-0.676574 11:0.0884693 12:-0.644647 13:-0.953918 14:-0.98561 15:-0.973066 16:0.273959 17:-0.110753 18:-0.295066 19:-0.975649 20:-0.988967 21:-0.965923 22:0.146774 23:-0.326484 24:-0.51921 25:-0.506558 26:-0.686778 27:-0.355602 28:-0.965344 29:-0.948841 30:-0.962795 31:-0.500834 32:0.970177 33:0.857249 34:0.721601 35:-0.865963 36:-0.89247 37:-0.810237 38:0.716119 39:0.873606 
-180.3707721476647 1:-0.123551 2:0.243225 3:-0.0494776 4:-0.959815 5:-0.965943 6:-0.961467 7:0.312631 8:-0.201309 9:0.084008 10:-0.504027 11:-0.621003 12:-0.830847 13:-0.946911 14:-0.984113 15:-0.960806 16:0.256134 17:-0.0851749 18:-0.261591 19:-0.966326 20:-0.980893 21:-0.957361 22:0.158825 23:0.0722465 24:0.0540225 25:-0.605433 26:-0.767472 27:-0.841843 28:-0.979006 29:-0.965219 30:-0.969646 31:0.525997 32:0.171294 33:0.451755 34:-0.504468 35:-0.174253 36:-0.431588 37:-0.227555 38:0.413383 39:0.429973 
-861.07792922 1:-0.11117 2:0.263236 3:-0.017182 4:-0.951934 5:-0.933993 6:-0.877939 7:0.0328379 8:-0.189874 9:-0.0660414 10:-0.594278 11:-0.75967 12:-0.903093 13:-0.788277 14:-0.960538 15:-0.895242 16:0.432217 17:-0.0644567 18:-0.236823 19:-0.743228 20:-0.815173 21:-0.860483 22:0.189635 23:-0.0436154 24:0.194111 25:-0.689825 26:-0.839066 27:-0.793602 28:-0.798493 29:-0.822414 30:-0.761178 31:0.771279 32:0.125312 33:0.360224 34:-0.658857 35:-0.219959 36:-0.164219 37:-0.0777398 38:-0.0806787 39:0.768639 
-861.07792922 1:-0.205204 2:0.495527 3:0.0491182 4:-0.934226 5:-0.953177 6:-0.899985 7:-0.163063 8:0.108832 9:-0.081873 10:-0.730804 11:-0.824557 12:-0.829332 13:-0.825373 14:-0.95038 15:-0.881593 16:0.376044 17:-0.262942 18:-0.484376 19:-0.734375 20:-0.759542 21:-0.787287 22:0.0712865 23:-0.23521 24:0.53337 25:-0.749984 26:-0.758699 27:-0.269853 28:-0.757509 29:-0.701693 30:-0.669955 31:0.237246 32:0.177259 33:0.605345 34:0.351371 35:0.323625 36:-0.540447 37:0.0306941 38:0.195614 39:0.367735 
-391.3878938287331 1:-0.0538949 2:0.216895 3:0.0392631 4:-0.903864 5:-0.951829 6:-0.956914 7:0.238929 8:0.155623 9:-0.281826 10:-0.746257 11:-0.923322 12:-0.612878 13:-0.893377 14:-0.950941 15:-0.922168 16:0.189502 17:-0.117403 18:-0.101168 19:-0.873806 20:-0.892074 21:-0.951962 22:-0.098047 23:0.0189704 24:-0.199146 25:-0.54826 26:-0.599649 27:-0.534638 28:-0.900402 29:-0.841921 30:-0.857068 31:-0.765824 32:0.733801 33:0.0458655 34:-0.623556 35:0.612927 36:-0.245358 37:-0.677051 38:0.764027 39:0.426508 
-861.07792922 1:-0.0396164 2:0.151451 3:-0.055657 4:-0.889994 5:-0.906697 6:-0.87851 7:-0.0382089 8:0.129162 9:-0.173972 10:-0.890287 11:-0.894407 12:-0.80675 13:-0.804369 14:-0.951204 15:-0.874264 16:0.245544 17:-0.288469 18:-0.194709 19:-0.790152 20:-0.939595 21:-0.734974 22:0.0852543 23:0.0120197 24:0.0637424 25:-0.91933 26:-0.727112 27:-0.900514 28:-0.809493 29:-0.81671 30:-0.787056 31:0.0260049 32:0.435428 33:0.186439 34:-0.114323 35:0.395304 36:0.270741 37:-0.59129 38:0.304689 39:0.715702 
-861.07792922 1:-0.152802 2:0.218855 3:-0.0986448 4:-0.89076 5:-0.959714 6:-0.94111 7:0.0171882 8:-0.0432724 9:-0.47862 10:-0.886453 11:-0.799177 12:-0.42763 13:-0.866914 14:-0.963406 15:-0.920426 16:-0.0330198 17:0.21946 18:-0.5902 19:-0.870394 20:-0.869686 21:-0.904033 22:0.160582 23:-0.298385 24:0.355492 25:-0.511087 26:-0.607048 27:-0.577658 28:-0.684078 29:-0.736474 30:-0.647999 31:-0.428334 32:-0.247062 33:0.723078 34:-0.69423 35:-0.137905 36:0.45943 37:-0.447866 38:0.438717 39:-0.823553 
-579.7322083028805 1:-0.0738554 2:0.218411 3:-0.144749 4:-0.96087 5:-0.983395 6:-0.980601 7:0.352099 8:0.381204 9:-0.164001 10:-0.597181 11:-0.576946 12:-0.788473 13:-0.968681 14:-0.977099 15:-0.972479 16:0.296323 17:-0.0708001 18:-0.189175 19:-0.94892 20:-0.981836 21:-0.941108 22:0.220408 23:0.210708 24:0.24251 25:-0.841899 26:-0.797339 27:-0.816258 28:-0.965394 29:-0.949577 30:-0.947112 31:0.417798 32:-0.148553 33:0.456266 34:0.510323 35:0.0133168 36:0.59038 37:-0.454096 38:0.362691 39:-0.554498 
-861.07792922 1:-0.0694744 2:0.157372 3:0.00195499 4:-0.845273 5:-0.865144 6:-0.871313 7:-0.286787 8:0.109707 9:0.2646 10:-0.659243 11:-0.891686 12:-0.698823 13:-0.802195 14:-0.897218 15:-0.845587 16:0.12662 17:0.0660426 18:-0.348856 19:-0.749961 20:-0.843064 21:-0.7044 22:-0.0850469 23:-0.201785 24:0.230848 25:-0.537677 26:-0.691458 27:-0.799801 28:-0.790407 29:-0.756165 30:-0.734999 31:0.949932 32:-0.765566 33:-0.362471 34:0.780342 35:-0.69471 36:-0.221088 37:-0.544861 38:0.286992 39:0.800419 
-861.07792922 1:-0.0198134 2:0.131471 3:-0.158927 4:-0.824954 5:-0.909099 6:-0.888146 7:-0.106206 8:-0.155875 9:-0.348134 10:-0.915259 11:-0.893152 12:-0.714841 13:-0.755682 14:-0.93241 15:-0.852108 16:0.448661 17:-0.509157 18:0.480462 19:-0.824152 20:-0.743833 21:-0.663935 22:0.161373 23:-0.169572 24:0.224331 25:-0.742531 26:-0.846069 27:-0.850633 28:-0.467554 29:-0.426757 30:-0.426158 31:-0.426985 32:0.836135 33:-0.0767461 34:-0.581113 35:0.959252 36:-0.745715 37:-0.440431 38:0.566315 39:-0.955197 
-861.07792922 1:0.0187779 2:0.151367 3:-0.121928 4:-0.908552 5:-0.91665 6:-0.931426 7:0.245381 8:0.264321 9:0.0976866 10:-0.638072 11:-0.649641 12:-0.625018 13:-0.883447 14:-0.947333 15:-0.906587 16:0.309807 17:-0.0756599 18:-0.427684 19:-0.696265 20:-0.8184 21:-0.932739 22:0.130454 23:0.307653 24:0.109798 25:-0.843259 26:-0.793352 27:-0.746416 28:-0.805977 29:-0.776408 30:-0.755129 31:0.0221954 32:0.311575 33:0.57482 34:0.112543 35:0.197613 36:0.692027 37:-0.185334 38:0.139006 39:0.450764 
-861.07792922 1:-0.0886786 2:0.266135 3:-0.0907058 4:-0.914314 5:-0.973988 6:-0.909773 7:0.14325 8:-0.427709 9:0.122136 10:-0.715698 11:-0.242705 12:-0.763848 13:-0.866554 14:-0.958292 15:-0.913266 16:0.326251 17:-0.089779 18:-0.22265 19:-0.827306 20:-0.971667 21:-0.905192 22:0.424768 23:0.136381 24:-0.148806 25:-0.544533 26:-0.816609 27:-0.70668 28:-0.915118 29:-0.895841 30:-0.897546 31:-0.21124 32:-0.400634 33:0.113145 34:-0.589703 35:0.286675 36:0.372258 37:-0.0472537 38:-0.477324 39:-0.0155046 
-861.07792922 1:-0.0675103 2:0.306313 3:-0.0777665 4:-0.964821 5:-0.982996 6:-0.974974 7:0.349331 8:0.0828422 9:0.111476 10:-0.265696 11:-0.798258 12:-0.864619 13:-0.958047 14:-0.982791 15:-0.964884 16:0.301717 17:-0.17434 18:-0.181886 19:-0.932657 20:-0.950315 21:-0.968603 22:0.209838 23:-0.300863 24:-0.0284208 25:-0.889734 26:-0.673436 27:-0.843282 28:-0.921547 29:-0.896393 30:-0.909912 31:0.646742 32:-0.527436 33:0.44826 34:-0.0822389 35:0.11499 36:-0.0402235 37:-0.270355 38:0.155629 39:0.300358 
-861.07792922 1:-0.193855 2:0.210657 3:-0.0374904 4:-0.907878 5:-0.96127 6:-0.946634 7:-0.474482 8:-0.359456 9:0.0623394 10:-0.318202 11:-0.348113 12:-0.865898 13:-0.915453 14:-0.955679 15:-0.927107 16:0.224561 17:-0.204113 18:-0.298643 19:-0.896109 20:-0.91488 21:-0.934434 22:-0.201765 23:0.486191 24:-0.120066 25:-0.811562 26:-0.334255 27:-0.827931 28:-0.857157 29:-0.903938 30:-0.87185 31:-0.504012 32:-0.452216 33:0.646644 34:-0.715069 35:-0.612716 36:0.557062 37:0.113938 38:-0.211885 39:-0.215033 
-861.07792922 1:-0.155043 2:0.277187 3:-0.0336201 4:-0.890733 5:-0.844219 6:-0.892309 7:0.260038 8:0.0920235 9:0.247735 10:-0.476839 11:-0.912507 12:-0.656658 13:-0.846115 14:-0.938738 15:-0.869199 16:0.539959 17:-0.260027 18:-0.346831 19:-0.76642 20:-0.814119 21:-0.868405 22:0.0580558 23:-0.307351 24:0.0578359 25:-0.701967 26:-0.665204 27:-0.816807 28:-0.772627 29:-0.673905 30:-0.706056 31:0.307331 32:-0.027309 33:0.35098 34:0.168209 35:0.359638 36:0.0882147 37:-0.0782186 38:-0.302445 39:0.0416546 
-861.07792922 1:-0.103378 2:0.176818 3:0.0502807 4:-0.922275 5:-0.929963 6:-0.943576 7:0.16646 8:0.281845 9:0.427079 10:-0.304162 11:-0.692769 12:-0.33873 13:-0.908648 14:-0.951888 15:-0.921862 16:0.157008 17:0.0641498 18:-0.31889 19:-0.906005 20:-0.957439 21:-0.903675 22:-0.132573 23:-0.123855 24:-0.076832 25:-0.871635 26:-0.781806 27:-0.948985 28:-0.854345 29:-0.870445 30:-0.857367 31:-0.417647 32:0.173077 33:0.118778 34:-0.0327331 35:-0.338251 36:-0.382706 37:-0.0735107 38:-0.283902 39:-0.307951 
-861.07792922 1:-0.0091723 2:0.245439 3:-0.125577 4:-0.966503 5:-0.987967 6:-0.976779 7:-0.251046 8:-0.0526353 9:-0.315674 10:-0.590777 11:-0.843251 12:-0.604511 13:-0.920759 14:-0.977179 15:-0.961834 16:0.257055 17:-0.0432269 18:-0.266248 19:-0.972232 20:-0.974585 21:-0.969942 22:0.23805 23:0.525431 24:0.0497574 25:-0.764865 26:-0.19996 27:-0.746238 28:-0.959769 29:-0.950313 30:-0.956925 31:0.104168 32:-0.704005 33:0.551749 34:-0.540588 35:-0.248764 36:-0.407042 37:-0.409389 38:0.323438 39:-0.668563 
-861.07792922 1:-0.179376 2:0.154511 3:-0.0201191 4:-0.916443 5:-0.963907 6:-0.962139 7:-0.172973 8:-0.309629 9:0.343382 10:-0.86376 11:-0.687028 12:-0.696567 13:-0.905938 14:-0.957464 15:-0.937607 16:0.258173 17:-0.0736648 18:-0.28528 19:-0.925899 20:-0.963848 21:-0.868016 22:-0.96108 23:0.648476 24:-0.547569 25:0.811219 26:0.171635 27:-0.263775 28:-0.950527 29:-0.853147 30:-0.922838 31:0.709841 32:-0.157389 33:0.898246 34:0.827796 35:-0.272162 36:0.957552 37:-0.88778 38:0.32976 39:-1 
-141.3235767565412 1:-0.0719009 2:0.1999 3:-0.086302 4:-0.973506 5:-0.986044 6:-0.993214 7:-0.593848 8:-0.143901 9:-0.0735426 10:-0.0229891 11:-0.799068 12:-0.921324 13:-0.964716 14:-0.991616 15:-0.9845 16:0.280339 17:-0.157714 18:-0.260849 19:-0.973825 20:-0.964581 21:-0.979309 22:-0.33635 23:0.236696 24:-0.191463 25:-0.547305 26:-0.595098 27:-0.912095 28:-0.930839 29:-0.946816 30:-0.940451 31:0.524473 32:-0.364725 33:0.452167 34:0.213805 35:-0.0259851 36:0.11171 37:0.0698687 38:-0.0953663 39:-0.143088 
-861.07792922 1:-0.0914201 2:0.229064 3:-0.0321436 4:-0.946898 5:-0.960686 6:-0.928122 7:-0.425335 8:0.106454 9:0.353563 10:-0.325431 11:-0.773293 12:-0.353633 13:-0.90718 14:-0.961954 15:-0.934139 16:0.256594 17:-0.0820544 18:-0.340555 19:-0.879568 20:-0.830102 21:-0.823792 22:0.273974 23:0.445078 24:-0.210955 25:-0.820614 26:-0.508608 27:-0.698869 28:-0.841487 29:-0.783953 30:-0.810893 31:-0.171127 32:-0.175629 33:0.0209749 34:-0.0157213 35:-0.338842 36:0.452829 37:-0.340857 38:0.726424 39:-0.689068 
-861.07792922 1:-0.118042 2:0.20426 3:-0.0918128 4:-0.975335 5:-0.983386 6:-0.983278 7:-0.300279 8:-0.28176 9:-0.123794 10:-0.486999 11:-0.431406 12:-0.684963 13:-0.986424 14:-0.991688 15:-0.985429 16:0.249622 17:-0.0858911 18:-0.275967 19:-0.985282 20:-0.9885 21:-0.977937 22:-0.0306492 23:0.407236 24:-0.297607 25:-0.90372 26:-0.423839 27:-0.557312 28:-0.979257 29:-0.976077 30:-0.978585 31:0.566091 32:-0.0775259 33:0.572024 34:0.456141 35:-0.318738 36:0.647218 37:-0.171392 38:-0.047336 39:0.396526 
-861.07792922 1:0.0350174 2:-0.0146006 3:0.0486426 4:-0.84515 5:-0.881151 6:-0.858188 7:-0.402246 8:-0.107014 9:0.206006 10:-0.434248 11:-0.829966 12:-0.797424 13:-0.767202 14:-0.922974 15:-0.826043 16:0.335986 17:-0.0521281 18:-0.160559 19:-0.590352 20:-0.445683 21:-0.679986 22:0.0961164 23:-0.44007 24:-0.273877 25:-0.860381 26:-0.563318 27:-0.740321 28:-0.409493 29:-0.368605 30:-0.431677 31:-0.525541 32:0.443534 33:0.503705 34:0.026419 35:-0.12652 36:0.0766615 37:-0.37643 38:0.141481 39:-0.0350358 
-482.2368421594833 1:-0.136401 2:0.242958 3:-0.041762 4:-0.991425 5:-0.992177 6:-0.98756 7:0.425101 8:0.417906 9:-0.0659646 10:-0.22958 11:-0.31245 12:-0.802624 13:-0.975273 14:-0.994559 15:-0.986721 16:0.249359 17:-0.0830775 18:-0.252818 19:-0.988375 20:-0.995805 21:-0.987365 22:0.00882972 23:-0.0128967 24:-0.175758 25:-0.907609 26:-0.775642 27:-0.771463 28:-0.994375 29:-0.991167 30:-0.990865 31:-0.0895945 32:-0.187872 33:0.0375765 34:-0.136407 35:0.115584 36:-0.0453533 37:-0.41389 38:0.386555 39:-0.491888 
-861.07792922 1:-0.102007 2:0.13269 3:0.0901148 4:-0.89527 5:-0.941879 6:-0.878636 7:0.0945645 8:0.0381153 9:0.116764 10:-0.500209 11:-0.705891 12:-0.636788 13:-0.812467 14:-0.931407 15:-0.873602 16:0.101493 17:0.0652752 18:-0.228656 19:-0.779653 20:-0.86458 21:-0.850918 22:-0.0476267 23:0.397369 24:0.244101 25:-0.495539 26:-0.603199 27:-0.537549 28:-0.840281 29:-0.71936 30:-0.779872 31:-0.461775 32:0.117576 33:-0.0843832 34:-0.476943 35:0.00722184 36:-0.00838119 37:0.301579 38:-0.289003 39:-0.705232 
-861.07792922 1:-0.0836066 2:0.183744 3:-0.0112185 4:-0.898123 5:-0.943594 6:-0.973954 7:0.0539374 8:0.0343723 9:-0.0785943 10:-0.504173 11:-0.768569 12:-0.859609 13:-0.89892 14:-0.95875 15:-0.93027 16:0.106426 17:0.0410272 18:-0.203078 19:-0.926418 20:-0.93322 21:-0.794744 22:0.0201782 23:0.259402 24:0.384604 25:-0.851818 26:-0.787086 27:-0.625117 28:-0.877047 29:-0.849282 30:-0.835751 31:-0.25771 32:0.521726 33:0.153902 34:-0.385752 35:0.456632 36:0.00584074 37:-0.0444728 38:-0.22412 39:-0.125669 
-861.07792922 1:0.0052974 2:0.291145 3:-0.111872 4:-0.88131 5:-0.925566 6:-0.903832 7:0.0442947 8:0.444559 9:-0.146035 10:-0.814176 11:-0.538671 12:-0.725287 13:-0.843037 14:-0.927909 15:-0.883955 16:0.549365 17:-0.185287 18:-0.291422 19:-0.854798 20:-0.958183 21:-0.864574 22:0.17059 23:0.130185 24:-0.213687 25:-0.840917 26:-0.829552 27:-0.642399 28:-0.777197 29:-0.871549 30:-0.799147 31:0.44817 32:0.437616 33:-0.14233 34:-0.241849 35:0.284449 36:-0.672072 37:-0.195364 38:-0.290729 39:0.405269 
-861.07792922 1:-0.098589 2:0.378327 3:0.182387 4:-0.958128 5:-0.894248 6:-0.942586 7:0.489244 8:0.173895 9:0.12558 10:-0.362034 11:-0.639862 12:-0.870365 13:-0.830089 14:-0.948339 15:-0.894137 16:0.362297 17:-0.16283 18:-0.275764 19:-0.856082 20:-0.9738 21:-0.853946 22:0.102609 23:0.0424003 24:0.296921 25:-0.864347 26:-0.855224 27:-0.735508 28:-0.902762 29:-0.890504 30:-0.876216 31:0.278301 32:-0.290584 33:0.842627 34:0.0922722 35:-0.286856 36:0.65628 37:0.25792 38:-0.788215 39:0.324142 
-861.07792922 1:-0.0431991 2:0.203703 3:0.0139792 4:-0.934043 5:-0.958653 6:-0.960229 7:-0.324019 8:-0.355172 9:0.187062 10:-0.401034 11:-0.381592 12:-0.79992 13:-0.913537 14:-0.957574 15:-0.939232 16:0.251727 17:-0.0618989 18:-0.325032 19:-0.896787 20:-0.93089 21:-0.948555 22:0.135356 23:0.0858007 24:0.243652 25:-0.567417 26:-0.908532 27:-0.643681 28:-0.922049 29:-0.912403 30:-0.905593 31:0.515152 32:0.00859211 33:0.218873 34:0.143332 35:0.109514 36:-0.200487 37:-0.241863 38:0.0297853 39:0.176809 
-861.07792922 1:-0.00323585 2:0.238485 3:-0.173874 4:-0.909797 5:-0.931068 6:-0.91483 7:0.0357383 8:0.176746 9:0.0861177 10:-0.927681 11:-0.824869 12:-0.957891 13:-0.843151 14:-0.946527 15:-0.902245 16:0.260606 17:-0.178484 18:-0.17129 19:-0.846995 20:-0.935407 21:-0.788982 22:0.188431 23:-0.0382766 24:0.313625 25:-0.542321 26:-0.813566 27:-0.748664 28:-0.905625 29:-0.827935 30:-0.85212 31:0.741997 32:-0.396418 33:0.798458 34:0.557211 35:-0.178405 36:0.850493 37:-0.766964 38:0.444894 39:-0.720385 
-861.07792922 1:-0.175785 2:0.00276421 3:0.0446986 4:-0.820768 5:-0.872525 6:-0.936461 7:0.104373 8:0.351701 9:-0.135539 10:-0.862619 11:-0.615813 12:-0.814587 13:-0.771733 14:-0.943321 15:-0.855577 16:0.173847 17:0.228003 18:-0.094891 19:-0.875605 20:-0.767423 21:-0.661908 22:0.0313024 23:0.0626191 24:-0.0352056 25:-0.810553 26:-0.819548 27:-0.906543 28:-0.648167 29:-0.644461 30:-0.643555 31:0.759602 32:-0.197233 33:0.119269 34:0.6809 35:-0.299838 36:-0.0314199 37:-0.747283 38:0.663841 39:0.376653 
-380.2328695467447 1:-0.119768 2:0.188249 3:0.0548498 4:-0.813589 5:-0.929468 6:-0.93767 7:0.176884 8:0.0347908 9:-0.226179 10:-0.787143 11:-0.739313 12:-0.763717 13:-0.773754 14:-0.937143 15:-0.868346 16:0.234427 17:-0.201811 18:0.412567 19:-0.759228 20:-0.840007 21:-0.765037 22:0.00141337 23:-0.236482 24:-0.0444686 25:-0.901754 26:-0.724299 27:-0.629928 28:-0.518081 29:-0.622746 30:-0.585824 31:0.134013 32:-0.070084 33:-0.319861 34:0.289177 35:0.0203494 36:-0.596772 37:-0.61047 38:0.313074 39:0.157751 
-861.07792922 1:0.174294 2:0.319929 3:-0.0583369 4:-0.910759 5:-0.937031 6:-0.928069 7:-0.12666 8:-0.0833385 9:-0.220154 10:-0.712496 11:-0.755256 12:-0.771092 13:-0.771897 14:-0.952262 15:-0.875961 16:0.229034 17:-0.00532023 18:0.282108 19:-0.92556 20:-0.894961 21:-0.445932 22:0.0284959 23:0.544314 24:-0.0436616 25:-0.784262 26:-0.364723 27:-0.911809 28:-0.584329 29:-0.656791 30:-0.616836 31:-0.225576 32:-0.414714 33:0.190996 34:-0.597474 35:-0.746109 36:-0.378006 37:-0.419898 38:-0.541076 39:-0.751791 
-163.668743988276 1:-0.179069 2:0.219212 3:0.0782314 4:-0.816213 5:-0.866379 6:-0.813952 7:-0.132678 8:-0.0142063 9:0.304855 10:-0.775434 11:-0.845585 12:-0.767198 13:-0.721041 14:-0.915484 15:-0.797753 16:1 17:-0.124156 18:0.165958 19:-0.355567 20:-0.46815 21:-0.647748 22:-0.467281 23:0.489507 24:-0.158394 25:-0.322766 26:-0.417427 27:-0.881557 28:-0.340382 29:-0.364556 30:-0.242527 31:-0.664118 32:0.31389 33:0.0337463 34:-0.557164 35:-0.0887594 36:0.516819 37:-0.534429 38:0.780714 39:-0.839764 
-861.07792922 1:-0.103964 2:0.182077 3:-0.0628789 4:-0.989026 5:-0.991363 6:-0.97775 7:-0.0515672 8:-0.149252 9:0.407028 10:-0.799437 11:-0.768182 12:-0.493672 13:-0.982016 14:-0.989721 15:-0.98583 16:0.22239 17:-0.0520258 18:-0.212594 19:-0.958686 20:-0.983625 21:-0.977971 22:-0.77502 23:0.80126 24:0.101199 25:0.338945 26:0.441025 27:-0.891101 28:-0.968408 29:-0.939823 30:-0.959667 31:0.694226 32:-0.429437 33:-0.141011 34:0.493382 35:-0.123367 36:-0.262701 37:-0.273247 38:-0.101895 39:0.550767 
-861.07792922 1:-0.136756 2:0.237621 3:-0.0958573 4:-0.951293 5:-0.983108 6:-0.954448 7:0.350416 8:0.0242562 9:0.154982 10:-0.561919 11:-0.8227 12:-0.872567 13:-0.93348 14:-0.981444 15:-0.957687 16:0.213971 17:-0.119552 18:-0.338058 19:-0.933731 20:-0.967432 21:-0.928408 22:0.42281 23:0.152836 24:0.550636 25:-0.444089 26:-0.882191 27:-0.237881 28:-0.924008 29:-0.936143 30:-0.92304 31:0.75757 32:-0.547854 33:0.880648 34:-0.101405 35:-0.517775 36:0.147834 37:-0.562631 38:-0.075075 39:-0.467405 
-861.07792922 1:-0.161863 2:0.183045 3:-0.0487952 4:-0.97027 5:-0.971743 6:-0.981671 7:0.50529 8:0.376811 9:-0.235511 10:-0.360177 11:-0.631914 12:-0.731949 13:-0.961294 14:-0.990226 15:-0.974746 16:0.251003 17:-0.0775015 18:-0.21725 19:-0.984035 20:-0.988446 21:-0.962552 22:0.804209 23:0.0590068 24:0.513586 25:0.340157 26:-0.866496 27:-0.297628 28:-0.985183 29:-0.962459 30:-0.976564 31:0.968661 32:0.58851 33:0.854031 34:0.434081 35:0.589071 36:0.278964 37:-0.928225 38:-0.572923 39:-0.746387 
-861.07792922 1:-0.113531 2:0.255927 3:0.0119673 4:-0.986193 5:-0.981771 6:-0.979329 7:-0.645099 8:0.100971 9:-0.188002 10:0.0722312 11:-0.629946 12:-0.821385 13:-0.940209 14:-0.990903 15:-0.970513 16:0.249096 17:-0.0841007 18:-0.234123 19:-0.980952 20:-0.990589 21:-0.98272 22:0.187457 23:0.0100828 24:-0.317513 25:-0.60806 26:-0.925318 27:-0.648493 28:-0.99116 29:-0.990615 30:-0.98611 31:0.149795 32:-0.386404 33:0.424008 34:-0.46873 35:-0.394261 36:0.271965 37:-0.440317 38:-0.320248 39:0.134139 
-861.07792922 1:-0.103469 2:0.174556 3:-0.083618 4:-0.548489 5:-0.786863 6:-0.939255 7:0.152605 8:-0.0500404 9:-0.111737 10:-0.730212 11:-0.822535 12:-0.827909 13:-0.46209 14:-0.85429 15:-0.699714 16:0.174571 17:-0.212554 18:0.500979 19:-0.908975 20:-0.796202 21:-0.285605 22:0.219775 23:0.189672 24:0.30231 25:-0.634841 26:-0.883263 27:-0.647248 28:-0.452285 29:-0.599926 30:-0.456703 31:0.148008 32:-0.255924 33:-0.325044 34:-0.0263071 35:-0.38028 36:-0.489414 37:0.307874 38:-0.655809 39:-0.65254 
-861.07792922 1:-0.226607 2:0.0812209 3:0.110547 4:-0.748899 5:-0.954928 6:-0.754056 7:0.00402477 8:0.23408 9:0.11521 10:-0.773202 11:-0.506699 12:-0.941102 13:-0.568674 14:-0.89476 15:-0.739394 16:0.111425 17:-0.0282382 18:-0.184383 19:-0.658888 20:-0.919783 21:-0.703613 22:0.0749038 23:0.204859 24:0.108529 25:-0.869261 26:-0.853003 27:-0.945222 28:-0.789754 29:-0.793522 30:-0.76368 31:0.912031 32:-0.534305 33:0.317173 34:0.40909 35:-0.0318284 36:0.67561 37:0.106402 38:0.339047 39:1 
