svm_type c_svc
kernel_type rbf
gamma 0.109766
nr_class 5
total_sv 267
rho -0.32365 0.421332 0.122253 0.478382 0.208727 0.463619 0.484197 0.454581 0.593828 0.585832
label 1 2 3 4 5
probA -2.50459 -3.60635 -3.92267 -3.8604 -3.57475 -4.12194 -4.2568 -3.83553 -4.359 -4.22634
probB -0.0691888 0.187636 -0.264994 0.0253212 0.0330736 0.0811642 -0.161857 -0.0371279 0.227917 -0.0867909
nr_sv 55 47 52 58 55
SV
0 0 1.174597552751073 0 1:0.897503 2:0.00179634 3:-0.00461856 4:0.234001 5:-0.848828 6:-0.847478 7:-0.823747 8:0.0684479 9:-0.535134 10:-0.622096 11:-0.506413 12:0.0759268 13:-0.308443 14:-0.841344 15:-0.85808 16:-0.82934 17:0.653174 18:0.448678 19:0.0826473 20:-0.845219 21:-0.776358 22:-0.741677 23:-0.28133 24:0.204341 25:0.212393 26:-0.625952 27:-0.863265 28:-0.803301 29:-0.895586 30:-0.707805 31:-0.803247 32:-0.286864 33:-0.323208 34:0.387336 35:0.372885 36:0.180808 37:-0.452125 38:-0.0812605 39:-0.151342 40:0.0815771 
0 0.08793460587583354 0 1.558468833327629 1:0.926071 2:0.146604 3:-0.168468 4:0.324047 5:-0.817694 6:-0.890941 7:-0.616292 8:0.014556 9:-0.0340759 10:-0.555994 11:-0.442506 12:-0.391183 13:-0.010317 14:-0.746615 15:-0.727758 16:-0.698941 17:0.555526 18:0.313423 19:0.0884106 20:-0.602402 21:-0.537208 22:-0.601412 23:-0.480783 24:-0.631865 25:0.539577 26:-0.309488 27:-0.27652 28:-0.495474 29:-0.778974 30:-0.261571 31:-0.566314 32:-0.35256 33:-0.818769 34:-0.00651227 35:-0.056702 36:0.398598 37:0.276322 38:-0.0913219 39:-0.644058 40:-0.18658 
1.929653897241745 2.464469028028217 3.318266082383962 1.457964699151781 1:-0.947143 2:-0.0549419 3:0.0861868 4:0.343333 5:-0.841724 6:-0.903595 7:-0.855237 8:-1 9:0.0230373 10:-0.1381 11:1 12:-0.791754 13:-0.695437 14:-0.93418 15:-0.831218 16:-0.851053 17:0.736374 18:0.573313 19:-0.178589 20:-0.854289 21:-0.71471 22:-0.868434 23:-0.242633 24:0.561487 25:-1 26:-0.654373 27:-0.1326 28:1 29:-0.875605 30:-0.594766 31:-0.808563 32:-0.455995 33:-0.736816 34:1 35:-0.949357 36:-0.801046 37:0.495483 38:-0.306622 39:-0.719331 40:0.667461 
0 3.577401001140445 2.703653191503336 2.148396258333088 1:-1 2:-0.0863313 3:0.0368985 4:0.305983 5:-0.837678 6:-1 7:-0.920399 8:-0.0672715 9:0.535598 10:-0.141074 11:-0.712679 12:-0.0828774 13:-0.711521 14:-0.804075 15:-0.978234 16:-0.880454 17:0.671015 18:0.317652 19:0.0165243 20:-0.945076 21:-0.723422 22:-0.84223 23:-0.294871 24:-0.441793 25:-0.163936 26:-0.630473 27:-0.687339 28:-0.480325 29:-0.891998 30:-0.748664 31:-0.84775 32:-0.815274 33:-0.148958 34:0.613171 35:-0.344462 36:-0.823475 37:0.588298 38:0.289726 39:0.912574 40:-0.536495 
0 1.427467293275603 0 0 1:-0.0453011 2:0.246733 3:-0.0215279 4:0.290562 5:-0.228119 6:-0.818978 7:-0.716075 8:0.705132 9:-0.233407 10:0.139004 11:0.238035 12:-0.167621 13:-0.706678 14:-0.307755 15:-0.417491 16:-0.332221 17:0.741507 18:0.328562 19:-0.138054 20:-0.702798 21:-0.710467 22:-0.479558 23:0.512797 24:0.226341 25:-0.248019 26:-0.516532 27:-0.68842 28:-0.607627 29:-0.767344 30:-0.441274 31:-0.63773 32:-0.101115 33:-0.313399 34:-0.0083536 35:0.37595 36:0.354016 37:-0.34318 38:0.24754 39:-0.233264 40:-0.092321 
0 4.212514766944379 0 0 1:0.0385771 2:-0.116778 3:0.12196 4:0.377726 5:-0.754648 6:-0.917194 7:-0.728141 8:0.647121 9:-0.162065 10:-0.0767886 11:0.232054 12:-0.35203 13:-0.770636 14:-0.750509 15:-0.834937 16:-0.732006 17:0.769387 18:0.491707 19:-0.123652 20:-0.687549 21:-0.539631 22:-0.752205 23:0.242373 24:0.0626228 25:-0.371726 26:-0.718893 27:-0.920762 28:-0.627408 29:-0.75597 30:-0.592077 31:-0.662805 32:-0.0691522 33:-0.348361 34:-0.0764609 35:-0.179437 36:0.00736733 37:0.115171 38:0.158304 39:-0.408368 40:-0.114098 
1.979599448525596 1.362723458297517 3.079811337016471 3.354770463747711 1:-0.860153 2:-0.26162 3:-0.00955259 4:0.451441 5:-0.802463 6:-0.818874 7:-0.621214 8:-0.546786 9:-0.623948 10:-0.0404711 11:-0.0790058 12:0.26015 13:-0.308385 14:-0.730489 15:-0.747271 16:-0.671369 17:0.77213 18:0.377897 19:-0.0290909 20:-0.764229 21:-0.578117 22:-0.839026 23:0.311857 24:-0.133574 25:-0.18725 26:-0.774326 27:-0.8871 28:-0.84534 29:-0.789379 30:-0.736433 31:-0.7343 32:0.165784 33:-0.235386 34:0.0135081 35:0.503227 36:0.127521 37:0.0745761 38:0.0324928 39:-0.327021 40:-0.551088 
0 0 0.4224958219379433 0.6021513827607443 1:-0.18333 2:-0.275939 3:0.0263347 4:0.664289 5:-0.208893 6:-0.4319 7:0.116873 8:0.0411584 9:-0.609759 10:-0.174305 11:-0.499219 12:0.179416 13:-0.786919 14:0.255032 15:-0.107863 16:0.13973 17:0.816331 18:0.212595 19:-0.00202274 20:0.179473 21:1 22:0.11849 23:0.0940601 24:0.102659 25:-0.418162 26:-0.637091 27:-0.629612 28:-0.414077 29:0.083953 30:0.572587 31:0.499218 32:-0.554348 33:0.463284 34:-0.211116 35:0.873711 36:0.58781 37:0.905745 38:-0.441909 39:-0.96294 40:-0.745891 
1.880629705471072 0 0 0 1:-0.0787696 2:-0.117323 3:-0.286335 4:0.0516375 5:0.182982 6:-0.123577 7:-0.0935842 8:0.162656 9:-0.469196 10:-0.626345 11:-0.653038 12:-0.339721 13:0.0142858 14:0.404779 15:0.199506 16:0.307998 17:0.775596 18:0.473006 19:0.412775 20:-0.57175 21:-0.00969807 22:0.495449 23:0.0852137 24:-0.344392 25:-0.320054 26:-0.643429 27:-0.52192 28:-0.639228 29:-0.167001 30:-0.0580438 31:-0.00104735 32:-0.426467 33:0.430121 34:-0.199871 35:0.543409 36:-0.125633 37:0.541434 38:-0.262188 39:-0.361842 40:-0.373804 
2.634613739038937 0 2.487448389154162 0.06111815286129983 1:-0.143198 2:-0.341102 3:0.328886 4:0.488704 5:-0.259812 6:-0.378456 7:-0.633671 8:0.226754 9:-0.255105 10:0.473567 11:-0.580395 12:-0.731883 13:0.00400056 14:-0.131026 15:-0.526982 16:-0.242052 17:0.728429 18:-0.119411 19:-0.066864 20:-0.735345 21:-0.341477 22:-0.0678307 23:-0.0884804 24:0.0377263 25:-0.164639 26:-0.807122 27:-0.760402 28:-0.784489 29:-0.504466 30:-0.269346 31:-0.316682 32:-0.473577 33:0.975608 34:-0.188765 35:0.383258 36:-0.339871 37:0.544186 38:-0.585759 39:-0.449399 40:-0.835478 
1.809575176293517 0.4564226831337886 0 0 1:-0.200582 2:-0.187683 3:-0.303383 4:0.660738 5:0.112311 6:-0.0172039 7:-0.121146 8:0.259599 9:-0.689105 10:0.0905152 11:-0.353902 12:0.238595 13:-0.455871 14:0.173538 15:0.419993 16:0.278348 17:0.537253 18:-0.768446 19:0.276964 20:-0.418047 21:-0.269786 22:0.197058 23:0.367787 24:0.471773 25:-0.475918 26:-0.807201 27:-0.678831 28:-0.355412 29:-0.101299 30:-0.0915537 31:0.100714 32:-0.203258 33:0.197132 34:-0.571487 35:-0.317098 36:-0.0281571 37:0.755571 38:0.568849 39:0.151089 40:-0.91844 
2.512202752499394 0 0.0363120960049544 0 1:-0.0810073 2:0.284375 3:-0.0262138 4:0.576433 5:0.119231 6:-0.370282 7:-0.0790059 8:0.290248 9:-0.221127 10:-0.186531 11:-0.518127 12:-0.638334 13:-0.496824 14:0.219246 15:-0.186728 16:0.226418 17:0.782308 18:-0.114665 19:-0.348273 20:-0.105648 21:0.417764 22:0.285255 23:0.135992 24:0.225674 25:-0.196188 26:-0.607123 27:-0.485672 28:-0.631766 29:-0.200363 30:0.398394 31:0.248342 32:-0.866907 33:0.273986 34:-0.214641 35:0.673931 36:0.609649 37:0.795679 38:-0.594898 39:-0.809563 40:-0.956225 
0.9058576163573798 0.470897571127091 0 0.1998288669515565 1:-0.00243377 2:0.355607 3:-0.206105 4:0.364247 5:-0.0540036 6:-0.366389 7:-0.00477181 8:0.314725 9:-0.209683 10:-0.0327794 11:-0.266857 12:-0.593683 13:-0.198875 14:-0.0444616 15:-0.0318226 16:0.157964 17:0.628981 18:-0.12483 19:0.246436 20:-0.341564 21:-0.137234 22:-0.0571653 23:0.383761 24:0.0799998 25:-0.298039 26:-0.828794 27:-0.821041 28:-0.665888 29:-0.44386 30:-0.284552 31:-0.116562 32:-0.433615 33:0.298528 34:-0.565659 35:-0.336566 36:-0.0361282 37:0.688646 38:0.645312 39:-0.0181299 40:-0.245136 
0 0 0 0.7066263839651208 1:-0.135609 2:0.198899 3:-0.504702 4:0.608175 5:0.772756 6:0.163123 7:0.0597008 8:0.184751 9:-0.265067 10:-0.0138334 11:-0.575431 12:-0.642929 13:-0.529932 14:0.838519 15:0.466532 16:0.821374 17:0.776246 18:-0.278183 19:0.248394 20:-0.306174 21:0.10292 22:0.731168 23:0.325384 24:0.48752 25:-0.453554 26:-0.710217 27:-0.474148 28:-0.379366 29:-0.104153 30:0.379673 31:0.262378 32:-0.600726 33:0.146384 34:-0.698988 35:-0.011005 36:0.472855 37:0.915959 38:-0.0650178 39:-0.356282 40:-1 
3.274075165723974 0.7086507224876188 2.094419297496282 4.949121309250719 1:0.883393 2:-0.275621 3:0.162757 4:-0.0456418 5:-0.410683 6:-0.413662 7:-0.288431 8:-0.519918 9:0.188332 10:-0.525119 11:-0.41396 12:-0.900988 13:-0.351382 14:-0.343541 15:-0.286874 16:-0.188073 17:0.401686 18:0.109098 19:1 20:-0.44545 21:-0.486054 22:-0.55868 23:0.511552 24:-0.0746624 25:0.185622 26:-0.524872 27:-0.82653 28:-0.924273 29:-0.518904 30:-0.395066 31:-0.30429 32:-0.909378 33:0.0717167 34:-0.622157 35:0.625032 36:0.010551 37:0.550628 38:-0.468426 39:-0.547147 40:-0.86263 
0 0.5535761431736607 0.2823764536022612 0.6421028102359946 1:-0.167362 2:-0.209353 3:-0.705492 4:0.610674 5:1 6:0.503146 7:-0.117101 8:0.465141 9:-0.665446 10:0.252973 11:-0.126055 12:0.226666 13:-0.550751 14:1 15:0.960708 16:1 17:0.615548 18:-0.279518 19:0.164314 20:-0.215506 21:-0.245952 22:1 23:0.359746 24:0.0485496 25:-0.506049 26:-0.757843 27:-0.42669 28:-0.343956 29:-0.0674758 30:0.572047 31:0.326675 32:-0.714418 33:0.331996 34:-0.5676 35:0.381094 36:0.123917 37:0.911365 38:0.226939 39:-0.38387 40:-0.818146 
0 0.8975173463649794 0.2695346337902037 1.694248941048466 1:0.905682 2:-0.0237239 3:0.0690349 4:0.315942 5:-0.706381 6:-0.883163 7:-0.843604 8:-0.0803908 9:0.482462 10:-0.101856 11:-0.717774 12:-0.450645 13:-0.888089 14:-0.673823 15:-0.853666 16:-0.748475 17:0.572206 18:0.418704 19:0.303923 20:-0.762464 21:-0.526154 22:-0.625847 23:-0.261743 24:0.112212 25:0.521064 26:-0.692714 27:-0.672478 28:-0.510824 29:-0.764227 30:-0.562911 31:-0.627644 32:-0.654962 33:-0.969205 34:-0.140704 35:0.388387 36:0.923486 37:0.208973 38:0.290675 39:-0.0979845 40:-0.77977 
0 0 2.95831257247481 0 1:-0.00944231 2:0.0351104 3:0.0588374 4:0.33038 5:-0.558168 6:-0.797985 7:-0.684524 8:0.558599 9:-0.0638482 10:0.222319 11:-0.0922182 12:-0.724438 13:-0.518901 14:-0.552664 15:-0.728087 16:-0.570989 17:0.729518 18:0.386801 19:0.0353044 20:-0.732917 21:-0.659196 22:-0.605558 23:0.539843 24:0.115935 25:-0.154626 26:-0.394528 27:-0.75107 28:-0.676245 29:-0.813245 30:-0.562243 31:-0.686382 32:-0.295455 33:-0.152798 34:0.140053 35:0.252803 36:0.593926 37:0.0227661 38:0.114792 39:-0.380494 40:-0.44221 
0.2776560246147886 0 0 0 1:-0.130254 2:-0.583088 3:0.398264 4:0.667582 5:0.373456 6:-0.0962285 7:-0.398565 8:0.483235 9:-0.531798 10:0.0651195 11:-0.0625498 12:-0.144858 13:-0.878556 14:0.36373 15:0.213234 16:0.352915 17:0.687768 18:-0.281447 19:0.0924258 20:-0.492181 21:0.521459 22:0.646825 23:0.206191 24:0.137041 25:-0.465272 26:-0.676027 27:-0.681514 28:-0.490974 29:-0.105192 30:0.256461 31:0.305648 32:-0.641629 33:0.627873 34:-0.516363 35:0.489162 36:-0.0461087 37:0.795945 38:-0.184318 39:-0.575811 40:-0.754926 
0.8301317915318135 1.053478803800171 0.1641132893243885 0.8126065967042825 1:-0.496567 2:-0.609716 3:0.109519 4:0.0462697 5:-0.503867 6:-0.0403459 7:-0.142519 8:-0.370611 9:-0.546557 10:0.48707 11:-0.688945 12:-0.224841 13:0.115636 14:-0.28495 15:-0.382146 16:-0.0359038 17:0.809109 18:-0.300741 19:0.131827 20:-0.56105 21:0.116099 22:0.0530261 23:-0.134102 24:-0.10647 25:-0.538568 26:-0.71923 27:-0.903169 28:-0.19287 29:-0.293239 30:0.0315609 31:-0.0431838 32:-0.0652 33:-0.0913574 34:-0.58004 35:-0.518716 36:-0.215907 37:0.725057 38:0.0392913 39:-0.322378 40:-0.55742 
0 0.8133853320890018 0.6636775811261916 0.434056113293549 1:-0.054309 2:0.228043 3:-0.112012 4:0.0674511 5:0.741374 6:-0.213441 7:-0.00649706 8:0.62212 9:-0.284572 10:-0.161872 11:-0.0127328 12:-0.622021 13:-0.581574 14:0.684031 15:0.592178 16:0.705727 17:0.563832 18:-0.736764 19:-0.0259791 20:-0.123063 21:-0.152888 22:0.931084 23:0.446479 24:0.474413 25:-0.410821 26:-0.735569 27:-0.182021 28:-0.630567 29:0.0229418 30:0.472417 31:0.45281 32:-0.215582 33:0.178393 34:-0.443353 35:-0.0848137 36:0.364828 37:0.678953 38:0.09716 39:-0.715287 40:-0.299927 
0 0 0.4453838403680614 0 1:-0.0327317 2:0.290371 3:-0.0966811 4:0.472713 5:-0.110145 6:-0.880215 7:-0.549369 8:0.67876 9:-0.441037 10:0.170656 11:0.32072 12:-0.0992707 13:-0.638814 14:-0.331002 15:-0.304676 16:-0.191421 17:0.804633 18:0.524495 19:-0.370158 20:-0.55499 21:-0.502451 22:-0.472269 23:0.157705 24:-0.0578664 25:-0.383466 26:-0.622752 27:-0.827991 28:-0.628491 29:-0.7304 30:-0.345038 31:-0.497735 32:-0.194003 33:0.109665 34:0.15476 35:0.290139 36:-0.548456 37:-0.382482 38:0.0741855 39:-0.139306 40:-0.127139 
0 0 0.4805668309223851 0 1:0.915486 2:0.0593116 3:-0.0554772 4:0.255065 5:-0.400188 6:-0.811455 7:-0.545892 8:-0.0211372 9:0.501176 10:-0.10923 11:-0.735328 12:-0.349191 13:-0.890781 14:-0.287478 15:-0.661786 16:-0.402093 17:0.655919 18:0.529693 19:0.0850614 20:-0.468294 21:0.013363 22:-0.415744 23:-0.0418452 24:0.15597 25:0.220123 26:-0.785082 27:-0.92569 28:-0.58949 29:-0.432701 30:-0.313717 31:-0.277393 32:-0.88308 33:-0.728688 34:0.171712 35:0.665979 36:0.421864 37:-0.0276767 38:0.194705 39:-0.0429424 40:-0.727775 
2.00884811793454 0 0 0 1:-0.0169276 2:-0.00696417 3:-0.112633 4:0.346094 5:-0.42709 6:-0.828218 7:-0.63035 8:0.534307 9:0.0228735 10:0.409475 11:-0.0895231 12:-0.346868 13:-0.24656 14:-0.445699 15:-0.609248 16:-0.459149 17:0.687265 18:0.466702 19:-0.124689 20:-0.721633 21:-0.775594 22:-0.55765 23:0.396368 24:0.0365405 25:-0.0715786 26:-0.513959 27:-0.598715 28:-0.725905 29:-0.809055 30:-0.630518 31:-0.688589 32:-0.225351 33:-0.817399 34:0.110067 35:0.763418 36:0.708902 37:-0.118511 38:-0.211641 39:-0.242151 40:-0.626 
0 1.923645935219165 6.447956602509931 0.1168730225524798 1:0.908204 2:-0.127618 3:0.117766 4:0.281942 5:-0.714479 6:-0.88008 7:-0.812563 8:-0.471804 9:0.644489 10:-0.280032 11:-0.18562 12:0.0203033 13:-0.699569 14:-0.757237 15:-0.741496 16:-0.737143 17:0.691957 18:0.520713 19:0.0691672 20:-0.819709 21:-0.750946 22:-0.696783 23:-0.258734 24:-0.569457 25:-0.0452903 26:-0.513373 27:-0.390326 28:-0.355268 29:-0.859733 30:-0.632264 31:-0.77027 32:-0.765323 33:-0.344351 34:0.654153 35:0.522175 36:0.0684462 37:-0.527022 38:-0.0636986 39:0.0362903 40:-0.134574 
2.998085451982726 1.651759092390559 0.3966517769887113 0.6908171239518096 1:-0.0497623 2:0.464503 3:0.0801742 4:0.1955 5:0.251182 6:-0.666009 7:-0.164789 8:0.796211 9:-0.433849 10:-0.514753 11:0.364475 12:-0.00654457 13:0.131098 14:0.0116862 15:0.458312 16:0.244018 17:0.823838 18:0.409499 19:-0.15591 20:-0.820464 21:-0.894308 22:-0.379206 23:-0.126656 24:-0.257138 25:-0.350697 26:-0.440908 27:-0.829782 28:-0.598194 29:-0.715045 30:-0.548639 31:-0.671659 32:-0.552826 33:0.19111 34:-0.248577 35:0.423635 36:-0.577954 37:0.138428 38:-0.148656 39:-0.467155 40:-0.294165 
9.760980956192494 0 0 0 1:-0.338989 2:-0.0948422 3:-0.0567692 4:0.444293 5:-0.860655 6:-0.623353 7:-0.61171 8:-0.086379 9:-0.201744 10:-0.188779 11:-0.641762 12:-0.418166 13:-0.857532 14:-0.576777 15:-0.764972 16:-0.657028 17:0.788559 18:0.941635 19:-0.0773848 20:-0.543873 21:-0.596316 22:-0.732588 23:0.0394595 24:-0.152721 25:-0.449974 26:-0.719864 27:-0.749483 28:-0.51161 29:-0.611494 30:-0.359764 31:-0.507734 32:-0.239267 33:-0.470509 34:0.111118 35:0.22968 36:0.215377 37:0.00578463 38:-0.0159978 39:-0.709004 40:-0.14582 
0 0 0.8539417024072672 0 1:-0.768017 2:-0.603913 3:0.417637 4:0.424285 5:-0.669846 6:-0.411221 7:-0.581343 8:-0.434844 9:-0.7606 10:-0.0559099 11:-0.546449 12:0.23596 13:-0.777396 14:-0.565369 15:-0.46823 16:-0.441812 17:0.674766 18:0.283011 19:-0.295171 20:-0.381643 21:-0.613497 22:-0.468787 23:-0.573436 24:0.0855922 25:-0.571206 26:0.32076 27:-0.68282 28:-0.317143 29:-0.710554 30:-0.0147707 31:-0.435802 32:0.427696 33:0.307391 34:0.695828 35:0.923367 36:0.172462 37:0.957984 38:-0.0853738 39:-0.605912 40:-0.443261 
0 5.395048256811622 0 1.55213365421203 1:0.877728 2:-0.226732 3:-0.016298 4:0.216007 5:-0.727998 6:-0.854088 7:-0.798461 8:-0.130285 9:0.785437 10:-0.518896 11:-0.660077 12:0.479335 13:-0.283763 14:-0.625007 15:-0.704182 16:-0.726917 17:0.530252 18:0.302962 19:-0.0142268 20:-0.874657 21:-0.517157 22:-0.671479 23:-0.378112 24:-0.275417 25:0.328584 26:-0.484239 27:-0.6502 28:-0.540343 29:-0.761072 30:-0.487646 31:-0.674825 32:-0.525643 33:-0.358818 34:-0.0160956 35:0.198952 36:-0.301496 37:0.190735 38:0.19163 39:0.472026 40:-0.577616 
4.097416962048801 1.514558492068068 5.759444343581595 0.4246619421005026 1:0.9426 2:-0.16564 3:0.102316 4:0.295909 5:-0.75934 6:-0.900684 7:-0.775836 8:-0.427153 9:0.361137 10:-0.239336 11:-0.504783 12:-0.581072 13:-0.753391 14:-0.784961 15:-0.807915 16:-0.752908 17:0.615402 18:0.43176 19:0.316127 20:-0.761243 21:-0.743166 22:-0.715863 23:-0.263308 24:0.225123 25:-0.188092 26:-0.610873 27:-0.166257 28:-0.394146 29:-0.822901 30:-0.588988 31:-0.722521 32:-0.642289 33:-0.960234 34:0.778897 35:0.420787 36:0.620872 37:-0.606077 38:-0.501005 39:-0.893208 40:0.572356 
0.8638298255850391 0.2787411644521874 0.9644445628931568 0 1:0.92926 2:-0.391685 3:0.258158 4:0.304723 5:-0.749743 6:-0.900664 7:-0.903069 8:-0.265772 9:0.125628 10:-0.012975 11:-0.654004 12:-0.929222 13:-0.955432 14:-0.679902 15:-0.831193 16:-0.757117 17:0.75985 18:0.432578 19:0.274426 20:-0.795151 21:-0.646817 22:-0.667477 23:-0.0217321 24:0.0999261 25:-0.475625 26:-0.69955 27:-0.807436 28:-0.111123 29:-0.806053 30:-0.566272 31:-0.712222 32:-0.666141 33:-0.972114 34:0.727257 35:0.0865246 36:0.481717 37:-0.678522 38:-0.303909 39:-0.520903 40:0.206051 
2.219868760171552 0 0 0 1:-0.215651 2:0.203365 3:0.0120493 4:0.227273 5:-0.756068 6:-0.805021 7:-0.696024 8:-0.0846605 9:-0.35037 10:-0.102831 11:-0.845051 12:-0.250218 13:-0.877979 14:-0.683769 15:-0.826711 16:-0.697298 17:0.703949 18:0.434282 19:-0.179058 20:-0.614326 21:-0.467967 22:-0.6454 23:0.0336168 24:0.0871083 25:-0.00561501 26:-0.578104 27:-0.592578 28:-0.718993 29:-0.745431 30:-0.399068 31:-0.577392 32:-0.400623 33:-0.659394 34:-0.344732 35:0.12315 36:0.432982 37:0.34258 38:0.297872 39:-0.147093 40:-0.822707 
2.061339424003701 0.4596077451504251 3.505887267187317 2.31256857068595 1:-0.00198904 2:0.134538 3:0.0703947 4:0.286128 5:-0.464087 6:-0.892574 7:-0.772402 8:0.796703 9:0.377292 10:-0.0442175 11:0.446954 12:-0.643679 13:-0.851205 14:-0.577343 15:-0.666538 16:-0.541461 17:0.748659 18:0.410692 19:-0.108333 20:-0.655133 21:-0.453436 22:-0.672839 23:0.234369 24:0.239942 25:-0.164832 26:-0.556455 27:-0.396751 28:-0.693757 29:-0.755912 30:-0.495838 31:-0.601838 32:-0.177871 33:-0.323719 34:-0.381819 35:0.443379 36:0.871326 37:-0.299228 38:-0.645331 39:-0.9595 40:0.254778 
4.468978036918622 0 2.016955172432063 0.9161406741017956 1:-0.0763484 2:-0.00689369 3:-0.307486 4:0.375551 5:-0.727829 6:-0.900983 7:-0.839574 8:0.481269 9:0.0210926 10:0.168269 11:0.0915608 12:-0.794765 13:-0.586934 14:-0.7953 15:-0.759114 16:-0.758427 17:0.630932 18:0.167714 19:-0.273737 20:-0.806087 21:-0.547411 22:-0.711752 23:0.485219 24:-0.177535 25:-0.467379 26:-0.582392 27:-0.551931 28:-0.432518 29:-0.761022 30:-0.533215 31:-0.661643 32:0.0471853 33:-0.88218 34:-0.458082 35:0.236965 36:0.961061 37:-0.116328 38:-0.307186 39:-0.833498 40:0.03278 
0 0 0.2978918694903046 0 1:0.957539 2:0.0597186 3:-0.128946 4:0.28791 5:-0.818507 6:-0.942499 7:-0.78341 8:-0.245539 9:-0.246442 10:-0.636945 11:-0.578485 12:-0.344384 13:-0.191811 14:-0.786162 15:-0.825648 16:-0.806796 17:0.608323 18:0.470491 19:0.196328 20:-0.86483 21:-0.785554 22:-0.764911 23:-0.391393 24:0.333415 25:0.271509 26:-0.617611 27:-0.642763 28:-0.518319 29:-0.895206 30:-0.716934 31:-0.801453 32:-0.234056 33:-0.960666 34:-0.114404 35:0.551802 36:0.481356 37:0.344449 38:0.144595 39:-0.383957 40:-0.730804 
0.2776489646989398 5.122712896735849 3.379364780330274 1.357705732474353 1:-0.0651684 2:-0.033134 3:0.0735629 4:0.111563 5:-0.456849 6:-0.7811 7:-0.716258 8:-0.00334344 9:0.0599672 10:-0.411035 11:-0.844178 12:-0.642029 13:-0.538058 14:-0.33882 15:-0.641923 16:-0.498811 17:0.742087 18:0.325 19:-0.0242426 20:-0.545167 21:-0.438366 22:-0.265249 23:0.47729 24:0.0926679 25:0.0652874 26:-0.568745 27:-0.711697 28:-0.81497 29:-0.630403 30:-0.373129 31:-0.426146 32:0.010198 33:-0.504311 34:-0.20898 35:0.19185 36:0.295799 37:0.00608757 38:-0.050071 39:-0.109977 40:-0.158556 
6.280473641734119 1.564851798392998 0 0 1:-0.0105555 2:0.063396 3:0.103741 4:0.315776 5:-0.62606 6:-0.948039 7:-0.788188 8:0.658992 9:0.145576 10:-0.214229 11:0.140698 12:-0.825629 13:-0.761654 14:-0.654411 15:-0.745809 16:-0.675917 17:0.769021 18:0.351485 19:-0.0728545 20:-0.747949 21:-0.719037 22:-0.745128 23:0.0937425 24:-0.0229491 25:-0.233393 26:-0.756519 27:-0.732424 28:-0.660002 29:-0.822435 30:-0.7113 31:-0.752234 32:0.00537217 33:-0.391242 34:-0.162185 35:0.0224431 36:0.462988 37:-0.125881 38:0.0749021 39:-0.502931 40:-0.108101 
0 1.071047684867071 0 0 1:0.0305124 2:0.0928268 3:0.0152042 4:0.500605 5:-0.845122 6:-0.953295 7:-0.931516 8:0.429256 9:-0.334301 10:-0.13722 11:-0.365493 12:-0.546548 13:-0.95526 14:-0.844331 15:-0.932965 16:-0.879471 17:0.641186 18:0.457648 19:0.104758 20:-0.815463 21:-0.671399 22:-0.811112 23:-0.61537 24:-0.261606 25:0.184096 26:-0.150704 27:-0.495746 28:-0.40027 29:-0.862831 30:-0.550811 31:-0.772798 32:-0.796133 33:-0.986489 34:0.754998 35:0.310614 36:0.272597 37:0.40562 38:-0.640441 39:-0.0983613 40:-0.043609 
0 0 0 0.5717932336869831 1:0.919853 2:-0.00387712 3:0.0258064 4:0.239991 5:-0.773912 6:-0.898503 7:-0.819543 8:-0.212034 9:-0.133497 10:-0.503516 11:-0.733595 12:-0.412816 13:-0.48124 14:-0.750712 15:-0.822228 16:-0.788082 17:0.591132 18:0.385912 19:0.164656 20:-0.880551 21:-0.705528 22:-0.736945 23:-0.251574 24:-0.289172 25:0.00122555 26:-0.729622 27:-0.501532 28:-0.719316 29:-0.869593 30:-0.631459 31:-0.775101 32:-0.262845 33:-0.383055 34:-0.228796 35:0.3878 36:0.472469 37:0.260362 38:0.213277 39:0.146336 40:-0.319586 
0 0 3.829816277317326 0 1:0.0109301 2:-9.12656e-05 3:0.0416734 4:0.291762 5:-0.592193 6:-0.849663 7:-0.590357 8:0.116379 9:0.0951884 10:0.338093 11:-0.849426 12:-0.6017 13:-0.175136 14:-0.493196 15:-0.727898 16:-0.555535 17:0.765344 18:0.367139 19:-0.260265 20:-0.65767 21:-0.651604 22:-0.478323 23:0.494674 24:0.096475 25:0.131013 26:-0.512978 27:-0.8765 28:-0.846472 29:-0.723167 30:-0.534296 31:-0.598809 32:-0.172341 33:-0.104945 34:-0.155992 35:-0.156866 36:0.0589562 37:0.461543 38:0.519522 39:-0.225642 40:-0.387623 
1.44755756708239 0 0.5565413994020757 3.030955521352367 1:0.977506 2:-0.329347 3:-0.0308991 4:0.327101 5:-0.444 6:-0.645131 7:-0.463556 8:0.0670743 9:-0.624713 10:0.101454 11:-1 12:0.105458 13:-0.487117 14:-0.219942 15:-0.652283 16:-0.356538 17:0.644002 18:0.598842 19:0.0621438 20:-0.45788 21:-0.431496 22:-0.396235 23:0.117447 24:0.377248 25:0.00924174 26:-0.803165 27:-0.673846 28:-0.840139 29:-0.583627 30:-0.24289 31:-0.413636 32:-0.0640462 33:-0.0336837 34:-0.401883 35:-0.225986 36:0.196787 37:0.0429977 38:0.180815 39:-0.425202 40:0.0158358 
17.4481237226 3.642661346689732 0.6608734089561973 5.633115724926656 1:-0.145125 2:0.0120754 3:0.0406119 4:0.342694 5:-0.720849 6:-0.819438 7:-0.813432 8:0.199039 9:-0.362914 10:0.20979 11:-0.749249 12:-0.185568 13:-0.387074 14:-0.681221 15:-0.764767 16:-0.738975 17:0.782314 18:0.332941 19:-0.19115 20:-0.810787 21:-0.758394 22:-0.687966 23:0.314222 24:0.181636 25:-0.104729 26:-0.327195 27:-0.33844 28:-0.800589 29:-0.855068 30:-0.693959 31:-0.766746 32:-0.106618 33:-0.552268 34:0.0497456 35:0.175059 36:0.323155 37:-0.118713 38:-0.136167 39:-0.358525 40:-0.00523096 
3.865556838747359 0.3042314372484032 0 0 1:-0.805866 2:-0.178203 3:-0.00932394 4:0.459939 5:-0.721187 6:-0.721789 7:-0.397644 8:-0.251246 9:-0.793245 10:-0.0590012 11:-0.572975 12:0.497391 13:-0.435195 14:-0.480991 15:-0.718883 16:-0.483309 17:0.721427 18:0.317058 19:0.14796 20:-0.379064 21:-0.194365 22:-0.693727 23:0.427021 24:0.169929 25:0.0754037 26:-0.503985 27:-0.553757 28:-0.844862 29:-0.581677 30:-0.329178 31:-0.371025 32:-0.169913 33:-0.634269 34:0.209378 35:0.29956 36:-0.162355 37:0.18324 38:-0.0933192 39:-0.770499 40:-0.101334 
3.077904083098963 0.3198252813632975 0 0.6292126287516046 1:-0.208062 2:-0.0607774 3:0.0249082 4:0.205288 5:-0.819033 6:-0.774824 7:-0.235115 8:0.449259 9:-0.761692 10:-0.308077 11:-0.224259 12:0.36432 13:-0.415639 14:-0.379846 15:-0.46005 16:-0.412711 17:0.76657 18:0.370926 19:-0.086795 20:-0.645967 21:-0.507695 22:-0.778211 23:0.300559 24:0.0581141 25:-0.256191 26:-0.607908 27:-0.713945 28:-0.753841 29:-0.762737 30:-0.63347 31:-0.639335 32:-0.563736 33:-0.481939 34:-0.703389 35:0.683272 36:0.0824006 37:0.586637 38:0.450184 39:-0.446861 40:0.0683616 
0 0.2072108528346228 0 0.006059269252597047 1:0.0372259 2:-0.0962573 3:-0.420007 4:1 5:-0.580131 6:-0.748352 7:-0.319828 8:0.824887 9:0.0772308 10:0.120072 11:0.540733 12:-0.733634 13:-0.556583 14:-0.165109 15:-0.558029 16:-0.317164 17:0.546642 18:1 19:0.386275 20:-0.369323 21:0.0342077 22:-0.731901 23:0.00927741 24:0.212312 25:0.409487 26:-0.823139 27:-0.916751 28:-0.687637 29:-0.393559 30:-0.214954 31:-0.187807 32:-0.436569 33:-0.390747 34:0.510418 35:0.304785 36:0.270099 37:0.538236 38:-0.239685 39:-0.372824 40:-0.668618 
1.213579148429835 0.4235204327770805 0.09057163883086317 0.4788826169002254 1:0.0371872 2:-0.00383548 3:0.242608 4:0.209987 5:-0.306489 6:-0.461324 7:0.730055 8:0.61914 9:-0.607575 10:-0.484201 11:0.0833327 12:0.182055 13:-0.182483 14:0.629482 15:0.412287 16:0.499895 17:0.561521 18:0.421224 19:-0.10407 20:0.501962 21:-0.140855 22:-0.0906671 23:-0.188315 24:-0.0389375 25:-0.304125 26:-0.593038 27:-0.569906 28:-0.591899 29:0.0417656 30:0.844896 31:0.279165 32:-0.441187 33:0.31824 34:-0.30819 35:0.631845 36:0.873432 37:0.701976 38:0.185219 39:-0.465036 40:-0.0508955 
6.277493132078868 0.3913334475699643 2.333545635041863 0 1:-0.344616 2:-0.169707 3:0.0269465 4:0.741823 5:-0.897155 6:-0.59962 7:-0.447945 8:0.522434 9:-0.590825 10:0.18322 11:-0.253558 12:0.0551926 13:-0.628748 14:-0.419722 15:-0.53845 16:-0.527839 17:1 18:0.41158 19:0.182968 20:-0.587614 21:-0.477454 22:-0.802287 23:0.137503 24:0.180541 25:-0.842339 26:-0.774022 27:-0.686535 28:0.598829 29:-0.681003 30:-0.555817 31:-0.577043 32:-0.552354 33:-0.383526 34:-0.715928 35:0.377635 36:0.664178 37:0.79648 38:0.0341702 39:-0.687273 40:-0.782305 
17.4481237226 0 0 0 1:-0.163253 2:-0.0878523 3:-0.0168188 4:0.479781 5:-0.745945 6:-0.58923 7:-0.566432 8:0.392509 9:-0.33464 10:0.00660364 11:-0.429556 12:-0.508489 13:-0.797427 14:-0.569217 15:-0.694838 16:-0.573023 17:0.654255 18:0.250882 19:0.0306921 20:-0.353442 21:-0.293481 22:-0.78799 23:-0.251867 24:-0.135975 25:-0.41221 26:-0.413946 27:-0.626146 28:-0.515863 29:-0.61443 30:-0.185741 31:-0.399211 32:-0.931863 33:-0.570521 34:-0.691566 35:0.718641 36:0.837108 37:0.617307 38:-0.154342 39:-0.841715 40:-0.64252 
0 0 0 2.665565346195754 1:-0.204493 2:0.00839271 3:-0.0124086 4:0.314831 5:-0.759683 6:-0.796761 7:-0.779925 8:-0.0546316 9:-0.312469 10:-0.160419 11:-0.771171 12:-0.287335 13:-0.751981 14:-0.728863 15:-0.830584 16:-0.746623 17:0.776822 18:0.421079 19:-0.0667474 20:-0.692226 21:-0.600179 22:-0.589251 23:0.305878 24:0.134142 25:0.0954334 26:-0.473126 27:-0.523993 28:-0.726108 29:-0.806507 30:-0.499605 31:-0.646574 32:-0.314192 33:-0.682494 34:0.183935 35:0.319628 36:0.589163 37:-0.189268 38:-0.135321 39:-0.767895 40:0.0837296 
0 0 1.730623079659094 4.104347649870593 1:0.845784 2:-0.0893669 3:0.0739208 4:0.188383 5:-0.743083 6:-0.800909 7:-0.80347 8:0.0282728 9:0.0439981 10:-0.44769 11:-0.704888 12:-0.506048 13:-0.565548 14:-0.73289 15:-0.795183 16:-0.737457 17:0.609479 18:0.401712 19:0.186663 20:-0.841406 21:-0.81655 22:-0.599386 23:-0.194264 24:-0.0680018 25:0.233295 26:-0.642237 27:-0.794348 28:-0.749018 29:-0.815204 30:-0.619631 31:-0.746172 32:-0.327132 33:-0.298519 34:0.217927 35:0.564805 36:0.281884 37:-0.446142 38:-0.243128 39:-0.00174081 40:0.238869 
0 0 0.6562112649791794 0 1:-0.0551446 2:0.381894 3:0.333837 4:0.325569 5:-0.0240062 6:-0.680679 7:-0.629859 8:0.463454 9:-0.409127 10:0.0328559 11:-0.132347 12:-0.421682 13:-0.901883 14:-0.0840088 15:-0.334291 16:-0.127733 17:0.624066 18:0.147604 19:-0.161898 20:-0.487489 21:-0.389274 22:-0.000447023 23:0.17648 24:0.120979 25:-0.252876 26:-0.92656 27:-0.823028 28:-0.767417 29:-0.456969 30:-0.307681 31:-0.270996 32:0.0435237 33:-0.296477 34:-0.284345 35:0.0411732 36:0.487838 37:0.289383 38:-0.291338 39:-0.538715 40:0.00961031 
0.8114242436575971 0 0.5989947583992939 1.226290681045516 1:0.960544 2:-0.0523734 3:-0.379901 4:0.692347 5:-0.726986 6:-0.934434 7:-0.520466 8:-0.23101 9:0.750672 10:0.100738 11:-0.501709 12:0.347458 13:-0.811055 14:-0.465801 15:-0.776495 16:-0.569474 17:0.541805 18:0.498898 19:0.13298 20:-0.565117 21:-0.542701 22:-0.669533 23:-0.171134 24:-0.219835 25:-0.0138271 26:-0.60945 27:-0.427942 28:-0.784242 29:-0.688922 30:-0.363181 31:-0.562638 32:-0.826583 33:-0.887131 34:0.595883 35:0.36545 36:0.531056 37:-0.313257 38:-0.576535 39:-0.868617 40:-0.136422 
1.160552252425249 0 0 0 1:-0.0750198 2:0.0703692 3:0.423809 4:0.665627 5:-0.693952 6:-0.785024 7:-0.493428 8:0.0999415 9:0.00833553 10:-0.156257 11:-0.85124 12:-0.783115 13:-0.825695 14:-0.390246 15:-0.719957 16:-0.524977 17:0.73103 18:0.526574 19:-0.172376 20:-0.613855 21:-0.533207 22:-0.682276 23:-0.197482 24:-0.366793 25:0.110786 26:-0.687816 27:-0.801785 28:-0.681174 29:-0.717981 30:-0.614937 31:-0.604076 32:-0.560579 33:-0.500798 34:0.345159 35:0.221809 36:0.460819 37:-0.0453905 38:-0.193388 39:-0.493899 40:-0.246072 
8.414367031640484 0.1086601208537293 0 0.6206680668466376 1:-0.018076 2:0.077711 3:0.452852 4:0.721313 5:-0.496119 6:-0.719462 7:-0.608011 8:0.537226 9:0.165364 10:-0.0850674 11:0.0346686 12:-0.807609 13:-0.905734 14:-0.534027 15:-0.581906 16:-0.454589 17:0.731319 18:0.381383 19:0.147726 20:-0.585202 21:-0.463438 22:-0.569689 23:-0.153975 24:0.119233 25:-0.10645 26:-0.702296 27:-0.823135 28:-0.675481 29:-0.70361 30:-0.46722 31:-0.543949 32:-0.184166 33:-0.540495 34:0.0315701 35:0.106537 36:0.441328 37:-0.417648 38:-0.385149 39:-0.771974 40:0.517796 
5.979654077953366 0 0 0 1:0.0443618 2:-0.0785078 3:0.473215 4:0.644599 5:-0.391908 6:-0.707622 7:-0.572207 8:0.652713 9:0.131476 10:0.114725 11:0.0682614 12:-0.75286 13:-0.723303 14:-0.365642 15:-0.615015 16:-0.374907 17:0.832939 18:0.365283 19:0.121345 20:-0.635313 21:-0.481652 22:-0.539796 23:0.144193 24:0.127852 25:-0.0880424 26:-0.769425 27:-0.702638 28:-0.648268 29:-0.735765 30:-0.5101 31:-0.564111 32:-0.368812 33:-0.254724 34:0.215507 35:0.724354 36:-0.0157443 37:-0.39183 38:-0.0934029 39:-0.360967 40:-0.423049 
-0 0.6003034504302297 0.2270866717573738 1.021931109758578 1:0.519389 2:0.12987 3:0.472725 4:0.792036 5:-0.780415 6:-0.406674 7:-0.0620091 8:0.488155 9:0.814339 10:0.971428 11:0.0871905 12:0.540948 13:0.928383 14:-0.516925 15:-0.0887297 16:-0.185066 17:0.672817 18:0.402902 19:0.0833336 20:-0.672265 21:-0.836767 22:-0.774501 23:-0.84887 24:-0.468446 25:0.0334336 26:0.585075 27:0.129124 28:-0.544601 29:-0.851085 30:-0.558869 31:-0.741611 32:0.281763 33:-0.867298 34:-0.221277 35:-1 36:0.36284 37:0.23854 38:-0.978911 39:0.172958 40:0.418286 
-0.7016179795000278 0.3692831373028663 0.3189870113110176 0.2249376431459949 1:0.220032 2:0.0878725 3:0.321566 4:0.524592 5:-0.719558 6:-0.5103 7:-0.529006 8:0.883763 9:0.239828 10:0.922896 11:0.607113 12:-0.151563 13:0.802913 14:-0.756542 15:-0.297898 16:-0.513405 17:0.799785 18:0.422489 19:-0.0349605 20:-0.665267 21:-0.869127 22:-0.838372 23:-0.816244 24:0.256488 25:-0.26423 26:0.625452 27:-0.695796 28:-0.800323 29:-0.836814 30:-0.677414 31:-0.763933 32:-0.850159 33:0.10207 34:0.082465 35:-0.916362 36:-0.21204 37:0.0708173 38:-0.999379 39:0.0675768 40:0.23935 
-0 2.226246921416853 1.39405344556408 1.059814166326987 1:-0.850712 2:-0.261183 3:-0.137016 4:0.155492 5:-0.503912 6:-0.611754 7:-0.417524 8:-0.659084 9:-0.864438 10:-0.733809 11:0.2259 12:0.657637 13:0.384871 14:-0.596708 15:-0.115853 16:-0.361039 17:0.718173 18:0.32537 19:0.110289 20:-0.859001 21:-0.655845 22:-0.787516 23:-0.224982 24:-0.585643 25:0.172883 26:-0.424616 27:-0.160705 28:-0.297284 29:-0.88335 30:-0.741943 31:-0.782606 32:0.791875 33:-0.388237 34:-0.765915 35:0.878366 36:0.0313529 37:-0.895137 38:0.544973 39:-0.229144 40:-0.56392 
-0 0 0 1.149538653262982 1:-0.47983 2:0.0852361 3:-0.133147 4:0.465334 5:-0.788301 6:-0.446109 7:-0.461985 8:0.118523 9:-0.500219 10:0.252848 11:-0.74866 12:0.125906 13:-0.280951 14:-0.557737 15:-0.541964 16:-0.489101 17:0.82442 18:0.420856 19:-0.0647923 20:-0.661445 21:-0.603262 22:-0.777292 23:0.245573 24:-0.129753 25:-0.066675 26:-0.633999 27:-0.342956 28:-0.757792 29:-0.793063 30:-0.567625 31:-0.67976 32:0.271309 33:-0.590926 34:-0.335363 35:-0.0397446 36:0.157322 37:-0.228951 38:-0.195965 39:-0.639078 40:0.0780676 
-1.01092433321164 4.393773795921577 0 1.736604930269522 1:-0.656911 2:-0.0293404 3:-0.0427039 4:0.225444 5:-0.875414 6:-0.711578 7:-0.659997 8:0.163147 9:-0.760055 10:-0.481072 11:-0.673564 12:0.457574 13:0.0232514 14:-0.792388 15:-0.67159 16:-0.717867 17:0.782817 18:0.403716 19:0.0313869 20:-0.936661 21:-0.779752 22:-0.910418 23:0.225756 24:-0.216446 25:-0.446902 26:-0.666807 27:-0.0490792 28:-0.112059 29:-0.930159 30:-0.851228 31:-0.900969 32:0.855718 33:-0.727843 34:-0.120582 35:0.372979 36:-0.0248913 37:-0.153044 38:0.127914 39:-0.0479279 40:0.257947 
-0 0.5490605123014269 0 0.0825142705422014 1:0.529514 2:0.00447319 3:0.204805 4:0.206501 5:-0.881874 6:-0.70301 7:-0.634516 8:0.0593433 9:0.583004 10:-0.714544 11:-0.680145 12:0.09096 13:0.176923 14:-0.762593 15:-0.705531 16:-0.699482 17:0.725471 18:0.40201 19:0.0232082 20:-0.815756 21:-0.831284 22:-0.898559 23:-0.260791 24:-0.272022 25:-0.46871 26:-0.475129 27:-0.488767 28:-0.419934 29:-0.908574 30:-0.843815 31:-0.8594 32:0.537066 33:-0.357538 34:-0.440253 35:-0.759725 36:0.284754 37:0.151357 38:0.856727 39:-0.564905 40:-0.261362 
-7.452358209931156 0 1.590545415298091 1.005712007602426 1:-0.191298 2:-0.11646 3:0.125144 4:0.598999 5:-0.618829 6:-0.52039 7:-0.416463 8:0.36857 9:-0.207734 10:-0.11769 11:-0.625791 12:-0.766693 13:-0.791279 14:-0.368198 15:-0.507945 16:-0.403291 17:0.612154 18:0.17513 19:0.137012 20:-0.442149 21:-0.467543 22:-0.44505 23:0.405748 24:0.109401 25:-0.293201 26:-0.608169 27:-0.800167 28:-0.671949 29:-0.602058 30:-0.566111 31:-0.418445 32:-0.605642 33:0.0219676 34:-0.605921 35:0.323185 36:0.291515 37:0.451966 38:-0.0782749 39:-0.637938 40:-0.487521 
-0 0 1.173235697273201 0 1:0.277989 2:0.14706 3:0.421986 4:0.46475 5:-0.563541 6:-0.328172 7:-0.267409 8:0.392603 9:0.612087 10:-0.119814 11:-0.533115 12:0.167065 13:-0.654143 14:-0.299372 15:-0.323237 16:-0.24596 17:0.725544 18:0.27685 19:0.0653678 20:-0.421252 21:-0.306464 22:-0.636903 23:-0.0157541 24:0.274268 25:-0.386552 26:-0.236342 27:-0.62582 28:-0.525264 29:-0.628549 30:-0.456174 31:-0.42223 32:-0.687013 33:0.296406 34:-0.115445 35:0.296687 36:0.213806 37:0.267464 38:-0.40206 39:-0.623385 40:-0.88639 
-5.410836515858301 1.095954431835847 0.905423731151756 1.020807766546919 1:-0.141507 2:-0.0554826 3:0.390417 4:0.398421 5:0.0595202 6:-0.225817 7:-0.0325809 8:0.334936 9:-0.549882 10:-0.0273273 11:-0.112078 12:-0.0943718 13:-0.69137 14:-0.0162101 15:-0.00131998 16:0.233644 17:0.589545 18:-0.132172 19:-0.0475199 20:-0.314795 21:-0.414102 22:-0.0268409 23:0.575899 24:0.152796 25:-0.292 26:-0.319081 27:-0.857865 28:-0.685285 29:-0.499661 30:-0.127404 31:-0.165397 32:-0.767749 33:0.668885 34:-0.103156 35:0.638545 36:-0.0897783 37:0.224757 38:-0.563396 39:-0.477007 40:-0.778209 
-0 0 1.424804193923015 2.883215675611483 1:-0.181143 2:-0.315203 3:0.414143 4:0.408275 5:-0.675249 6:-0.610168 7:-0.619169 8:0.291396 9:-0.315208 10:-0.235267 11:-0.406324 12:-0.573548 13:-0.634816 14:-0.600036 15:-0.68014 16:-0.551404 17:0.709655 18:0.366175 19:-0.141048 20:-0.691949 21:-0.60132 22:-0.569658 23:0.447511 24:0.407523 25:-0.239467 26:-0.262541 27:-0.601816 28:-0.780318 29:-0.776519 30:-0.642454 31:-0.636159 32:-0.841793 33:-0.00593193 34:-0.277926 35:0.548608 36:0.757474 37:0.389136 38:-0.568486 39:-0.656645 40:-0.665793 
-2.054579348820727 0.09395277219898354 1.248278724805819 0 1:-0.0563002 2:-0.151497 3:0.317288 4:-0.0074317 5:-0.249271 6:-0.200179 7:0.00510276 8:0.724188 9:-0.141879 10:-0.728383 11:0.309618 12:-0.780277 13:0.188372 14:-0.228585 15:-0.344968 16:0.0977701 17:0.596333 18:0.189375 19:0.0452066 20:-0.26813 21:-0.338061 22:-0.173764 23:0.446226 24:0.0971406 25:-0.380082 26:-0.636229 27:-0.486356 28:-0.579362 29:-0.442944 30:-0.357954 31:-0.22358 32:-0.252635 33:0.31702 34:-0.473056 35:-0.0225962 36:0.232237 37:0.358407 38:-0.447968 39:-0.137889 40:-0.0704808 
-0 0 0.3584242756744631 0 1:-0.195668 2:-0.158472 3:0.17318 4:0.589713 5:-0.300887 6:-0.14772 7:-0.208912 8:0.415964 9:-0.307175 10:-0.65575 11:-0.208574 12:-0.47322 13:0.0969016 14:-0.270834 15:-0.301184 16:-0.0373254 17:0.511252 18:0.247245 19:0.180782 20:-0.123632 21:-0.110151 22:-0.257628 23:0.293406 24:0.475686 25:-0.421741 26:-0.712927 27:-0.529071 28:-0.466265 29:-0.30073 30:-0.11335 31:-0.104536 32:-0.746792 33:0.424958 34:-0.0484174 35:0.850785 36:0.247424 37:0.294626 38:-0.535822 39:-0.616593 40:-0.774676 
-1.705550940826816 0.5065309386555913 0.4773921735663883 0.7417527279398943 1:-0.396753 2:0.119301 3:-0.627866 4:-0.130689 5:-0.347369 6:0.432744 7:1 8:0.269347 9:-0.552259 10:-0.867896 11:-0.599577 12:-0.366251 13:0.541368 14:0.406399 15:0.979654 16:0.860171 17:0.580731 18:0.304079 19:-0.0563877 20:-0.150063 21:-0.150519 22:-0.228141 23:-0.292445 24:0.334915 25:-0.412449 26:-0.519605 27:-0.578901 28:-0.466795 29:-0.454224 30:0.16829 31:-0.134844 32:-1 33:0.1705 34:-0.770756 35:0.90944 36:-0.0140077 37:0.402107 38:0.593942 39:-0.318003 40:-0.152275 
-7.033804532556441 1.494917094360562 0 0 1:-0.261093 2:-0.163077 3:0.277541 4:0.382262 5:-0.788761 6:-0.59962 7:-0.835514 8:0.265767 9:-0.262954 10:-0.0267006 11:-0.525026 12:-0.27357 13:-0.960199 14:-0.723093 15:-0.811777 16:-0.715777 17:0.792062 18:0.396296 19:-0.0182622 20:-0.822612 21:-0.681486 22:-0.612384 23:0.211621 24:0.189579 25:-0.40456 26:-0.665749 27:-0.663711 28:-0.608564 29:-0.825583 30:-0.688326 31:-0.732309 32:0.0932337 33:-0.447808 34:-0.665179 35:0.576326 36:0.341198 37:-0.0788332 38:0.36025 39:-0.623521 40:-0.637217 
-0.7670949003167805 0.2026430399327832 0.08740429174432715 0.8932687675145125 1:0.0854387 2:0.0194195 3:0.244465 4:0.537317 5:-0.754295 6:-0.812274 7:-0.487531 8:0.339868 9:-0.0209425 10:0.869282 11:-0.644316 12:-0.653287 13:0.693373 14:-0.709633 15:-0.534128 16:-0.569441 17:0.781159 18:0.461811 19:0.00362107 20:-0.790572 21:-0.744415 22:-0.685364 23:0.190675 24:-0.066987 25:-0.235833 26:-0.818541 27:-0.763575 28:-0.822135 29:-0.831421 30:-0.73509 31:-0.762674 32:0.0545413 33:-0.321162 34:-0.560946 35:0.379783 36:0.470765 37:-0.347676 38:-0.19746 39:-0.207288 40:-0.271636 
-0 0 0.8248829566711605 0 1:0.234226 2:-0.00227852 3:0.288906 4:0.461071 5:-0.805433 6:-0.719539 7:-0.564386 8:0.271297 9:0.193569 10:0.69068 11:-0.783013 12:-0.602954 13:0.298308 14:-0.724702 15:-0.586796 16:-0.628051 17:0.745481 18:0.42894 19:0.088061 20:-0.822654 21:-0.787361 22:-0.746179 23:-0.171526 24:-0.165272 25:-0.36302 26:-0.459372 27:-0.669771 28:-0.629499 29:-0.866548 30:-0.829439 31:-0.807284 32:-0.478955 33:-0.260465 34:-0.277621 35:-0.0860416 36:0.412419 37:-0.415297 38:-0.621493 39:-0.0392321 40:-0.233117 
-6.289763193950796 0 0 0.03645104874869702 1:-0.227718 2:-0.136031 3:0.084286 4:0.769973 5:-0.389687 6:-0.280374 7:-0.503114 8:0.201155 9:-0.517271 10:-0.0157148 11:-0.504984 12:-0.204387 13:-0.717031 14:-0.342454 15:-0.250035 16:-0.246472 17:0.659168 18:0.314466 19:0.172143 20:-0.514157 21:-0.524055 22:-0.276937 23:-0.0876169 24:-0.363088 25:-0.317686 26:-0.302294 27:-0.390894 28:-0.638191 29:-0.61272 30:-0.356974 31:-0.430845 32:-0.88538 33:-0.265238 34:-0.456003 35:0.666364 36:0.627346 37:0.568516 38:-0.225869 39:-0.787768 40:-0.865031 
-0 1.007556586113907 0.4878039200555833 0.8585959982208876 1:-0.457889 2:-0.114038 3:-0.719357 4:-0.0958828 5:-0.0329375 6:0.44851 7:0.76545 8:0.185718 9:-0.538402 10:-0.631574 11:-0.492499 12:-0.1121 13:-0.0442942 14:0.613602 15:0.686628 16:0.814546 17:0.232027 18:-0.127056 19:0.29482 20:-0.168741 21:-0.302453 22:-0.223885 23:0.462903 24:0.172382 25:-0.417942 26:-0.662274 27:-0.79499 28:-0.538145 29:-0.206761 30:-0.239258 31:-0.0710304 32:-0.210836 33:0.215606 34:-0.371078 35:-0.106243 36:-0.232029 37:-0.0153454 38:-0.215615 39:-0.471907 40:-0.270745 
-0.3258754353375842 0 0 0 1:-0.413464 2:-0.164777 3:-0.395626 4:-0.175903 5:-0.447716 6:0.120819 7:0.68489 8:-0.154171 9:-0.500948 10:-0.798332 11:-0.504175 12:-0.394646 13:0.295494 14:0.415819 15:0.552375 16:0.542678 17:0.354663 18:0.0851341 19:0.388236 20:-0.241217 21:-0.354251 22:-0.432024 23:-0.0680218 24:-0.278236 25:-0.373801 26:-0.78992 27:-0.810492 28:-0.634325 29:-0.418357 30:-0.144637 31:-0.221025 32:-0.125762 33:0.119103 34:-0.294767 35:-0.066505 36:-0.283802 37:0.207535 38:-0.184572 39:-0.512814 40:-0.13207 
-0.6041456238579477 2.136097508317854 0 0 1:0.250495 2:0.204942 3:0.110483 4:0.180239 5:-0.805912 6:-0.708204 7:-0.240212 8:0.32252 9:0.463741 10:-0.413256 11:-0.677343 12:-0.382118 13:-0.297833 14:-0.385116 15:-0.431563 16:-0.400314 17:0.783825 18:0.423674 19:0.0563791 20:-0.571636 21:-0.503989 22:-0.864206 23:-0.036568 24:-0.326644 25:0.00457853 26:-0.710096 27:-0.00630556 28:-0.633756 29:-0.714525 30:-0.590233 31:-0.612449 32:0.181525 33:-0.669151 34:0.220674 35:-0.808424 36:0.28813 37:-0.0534656 38:0.515668 39:-0.646516 40:0.47476 
-0.4522987599599527 0 0 0 1:-0.203571 2:-0.0548694 3:0.144776 4:0.483306 5:-0.894987 6:-0.82248 7:-0.634475 8:0.0497887 9:-0.00574452 10:0.168677 11:-0.635186 12:-0.580056 13:-0.64513 14:-0.700563 15:-0.795684 16:-0.730377 17:0.835538 18:0.410989 19:0.0660569 20:-0.741046 21:-0.771453 22:-0.815898 23:0.280408 24:-0.17423 25:-0.369203 26:-0.189825 27:-0.248642 28:-0.639106 29:-0.875395 30:-0.583217 31:-0.779819 32:0.205527 33:-0.635076 34:-0.529115 35:-0.123922 36:0.152181 37:0.21219 38:-0.0449987 39:-0.348842 40:-0.402049 
-0 0.7309138456510469 0 1.149407470659276 1:0.370497 2:-0.0156198 3:0.535203 4:0.332167 5:-0.848905 6:-0.309621 7:-0.676877 8:0.685758 9:0.73857 10:0.0353969 11:0.176441 12:0.34343 13:-0.874199 14:-0.668983 15:-0.54776 16:-0.561003 17:0.769853 18:0.442998 19:-0.0136786 20:-0.713087 21:-0.737449 22:-0.849949 23:-0.0934464 24:-0.241697 25:-0.093797 26:-0.775159 27:-0.277607 28:-0.910746 29:-0.787485 30:-0.708574 31:-0.765665 32:-0.0396972 33:-0.319935 34:-0.369549 35:-0.282336 36:0.33635 37:-0.345923 38:-0.551807 39:-0.3603 40:0.604748 
-0.152199958568645 5.452539091817788 0.4364122082425124 2.900383347568013 1:0.116569 2:0.0604408 3:0.251315 4:0.336803 5:-0.78693 6:-0.832788 7:-0.721938 8:0.499923 9:0.312249 10:-0.3599 11:-0.315009 12:-0.684629 13:-0.375126 14:-0.78747 15:-0.818249 16:-0.737913 17:0.778884 18:0.416586 19:0.110371 20:-0.811305 21:-0.765906 22:-0.86452 23:0.148417 24:0.175257 25:-0.146176 26:-0.651866 27:-0.362261 28:-0.784447 29:-0.888157 30:-0.803947 31:-0.826792 32:-0.159339 33:-0.404869 34:0.0330185 35:-0.201282 36:-0.0713968 37:-0.434978 38:-0.710389 39:0.133756 40:0.61517 
-10.51214636485826 2.202750335447936 1.322626901304816 0.9118713119942315 1:-0.160871 2:0.0937169 3:-0.165439 4:0.626456 5:-0.730914 6:-0.755721 7:-0.73155 8:0.207469 9:-0.247843 10:-0.0153431 11:-0.116307 12:-0.285981 13:-0.903367 14:-0.700145 15:-0.709672 16:-0.677886 17:0.772632 18:0.387174 19:0.0530371 20:-0.736938 21:-0.400023 22:-0.784857 23:-0.0744249 24:-0.0114451 25:-0.328603 26:-0.828958 27:-0.149306 28:-0.659079 29:-0.768009 30:-0.581165 31:-0.63841 32:-0.673743 33:-0.453375 34:0.139625 35:0.365607 36:0.161781 37:-0.140275 38:-0.790721 39:-0.537815 40:0.109646 
-0 0.3137814469122405 0.1533796800919042 0 1:0.422441 2:0.383487 3:0.731706 4:0.505816 5:-0.792345 6:-0.0600756 7:-0.796023 8:0.125558 9:0.895483 10:0.0692675 11:-0.597092 12:0.78239 13:-0.376654 14:-0.663006 15:-0.375475 16:-0.439362 17:0.815822 18:0.513221 19:-0.0145764 20:-0.853331 21:-0.532469 22:-0.823181 23:0.0769214 24:-0.304277 25:-0.640636 26:-0.616252 27:0.086612 28:-0.0511584 29:-0.818305 30:-0.620312 31:-0.740202 32:0.280997 33:-0.770318 34:-0.374741 35:-0.744999 36:0.0972905 37:0.152678 38:-0.349774 39:-0.511836 40:0.0476332 
-0.3155256951256111 2.100598463718677 0.0252865848696835 0.6852615977086036 1:0.300504 2:0.171582 3:0.399944 4:0.17777 5:-0.61912 6:-0.136829 7:-0.492809 8:0.732618 9:0.855278 10:0.470728 11:0.273948 12:0.656387 13:0.0124077 14:-0.590726 15:-0.073284 16:-0.325028 17:0.756963 18:0.278777 19:0.0123767 20:-0.691678 21:-0.687616 22:-0.749921 23:0.808279 24:-0.493692 25:-0.432121 26:0.0400364 27:-0.256227 28:-0.484591 29:-0.84036 30:-0.436714 31:-0.708863 32:0.199651 33:-0.276731 34:-0.116046 35:-0.445497 36:-0.16938 37:0.30712 38:0.0229868 39:-0.486921 40:0.348346 
-2.506074850932297 2.627573971637154 3.676632253693597 1.886217373300546 1:0.963659 2:-0.0543752 3:0.281287 4:0.240298 5:-0.755284 6:-0.860962 7:-0.827575 8:-0.197924 9:-0.130336 10:0.0560785 11:-0.789126 12:-0.583056 13:-0.431784 14:-0.745133 15:-0.862957 16:-0.765708 17:0.747647 18:0.529243 19:0.43108 20:-0.874871 21:-0.750169 22:-0.789047 23:0.526231 24:-0.244928 25:-0.494241 26:-0.517843 27:0.0880424 28:-0.270629 29:-0.787491 30:-0.812243 31:-0.772349 32:0.176324 33:-0.595818 34:0.101938 35:-0.409262 36:0.0773526 37:0.626341 38:-0.00384703 39:-0.289158 40:0.156722 
-0 0 0 1.051368977092831 1:-0.497634 2:-0.0969972 3:-0.33625 4:0.439099 5:-0.844357 6:0.620516 7:0.0318765 8:-0.13595 9:-0.694933 10:0.345383 11:-0.543908 12:0.379347 13:-0.0828869 14:-0.223228 15:-0.00162217 16:0.184797 17:0.733919 18:0.443927 19:0.07976 20:-0.625478 21:-0.792733 22:-0.854064 23:-0.328041 24:0.0160926 25:-0.0922029 26:-0.0908319 27:-0.372181 28:-0.814434 29:-0.812218 30:-0.659919 31:-0.723977 32:-0.573176 33:-0.106629 34:0.0257574 35:-0.365925 36:-0.0584145 37:0.0405742 38:-0.724328 39:-0.0695691 40:-0.0567124 
-0.6931335926279176 1.342847705099196 0 1.562924363649192 1:-0.530624 2:-0.18632 3:0.532075 4:0.429296 5:-0.836265 6:0.0750777 7:-0.377689 8:-0.248579 9:-0.887061 10:0.144065 11:-0.520328 12:0.71511 13:-0.202888 14:-0.338145 15:-0.322357 16:-0.25039 17:0.823046 18:0.335386 19:-0.0660569 20:-0.798453 21:-0.781998 22:-0.871859 23:-0.102004 24:-0.356095 25:-0.180215 26:-0.779432 27:-0.598967 28:-0.490482 29:-0.853677 30:-0.775688 31:-0.82452 32:0.823187 33:-0.327071 34:-0.648734 35:0.42726 36:-0.411545 37:0.304985 38:0.513373 39:-0.415059 40:0.370004 
-10.11216667524409 0 2.410194651105008 0 1:0.139766 2:-0.0488903 3:0.220917 4:0.462509 5:-0.822028 6:-0.822289 7:-0.722852 8:0.173878 9:0.314704 10:0.0137896 11:-0.443677 12:-0.726952 13:-0.481262 14:-0.810534 15:-0.787454 16:-0.751845 17:0.750247 18:0.432574 19:0.0619035 20:-0.782136 21:-0.774485 22:-0.807358 23:0.0131267 24:0.154874 25:-0.514408 26:-0.710815 27:-0.676167 28:-0.39354 29:-0.863044 30:-0.76062 31:-0.803214 32:-0.43728 33:-0.552747 34:0.341992 35:-0.258099 36:0.493936 37:-0.343936 38:-0.381747 39:-0.718441 40:0.0730011 
-0 0 8.661969243821355 0 1:-0.0311022 2:-0.0095838 3:0.0828508 4:0.379618 5:-0.808039 6:-0.843193 7:-0.711705 8:0.127534 9:0.293784 10:-0.0231592 11:-0.317616 12:-0.737083 13:-0.333567 14:-0.815717 15:-0.815266 16:-0.74912 17:0.8445 18:0.487552 19:-0.0111236 20:-0.770193 21:-0.673824 22:-0.759612 23:0.230643 24:0.32699 25:-0.521955 26:-0.615412 27:-0.64585 28:-0.330013 29:-0.859626 30:-0.624066 31:-0.748892 32:0.220515 33:-0.749806 34:-0.402651 35:-0.192923 36:0.568142 37:-0.0604375 38:0.24933 39:-0.790993 40:-0.320356 
-4.54334371879293 0.06604901135168303 2.68153445904185 8.001396936393395 1:0.75339 2:-0.259899 3:0.411089 4:0.280001 5:-0.755192 6:-0.5869 7:-0.755355 8:-0.178627 9:0.413572 10:0.00288297 11:-0.518978 12:-0.376249 13:-0.804561 14:-0.729122 15:-0.702157 16:-0.651425 17:0.767216 18:0.437696 19:-0.0190664 20:-0.759728 21:-0.86289 22:-0.710202 23:-0.139619 24:-0.134788 25:-0.203788 26:-0.742897 27:-0.836045 28:-0.854523 29:-0.833517 30:-0.778911 31:-0.785079 32:0.310767 33:-0.211002 34:0.0184242 35:-0.518493 36:0.151119 37:-0.276858 38:-0.119255 39:-0.55898 40:0.130177 
-4.492010591265794 4.760055423558448 1.626786803007903 0.01001726979487221 1:0.0230503 2:0.0485297 3:0.232465 4:0.253409 5:-0.517235 6:-0.742214 7:-0.633479 8:0.364832 9:-0.124763 10:-0.796492 11:-0.403466 12:-0.144627 13:0.266219 14:-0.526939 15:-0.535038 16:-0.509514 17:0.652885 18:0.39088 19:0.162465 20:-0.775639 21:-0.534989 22:-0.644173 23:-0.0159708 24:-0.387772 25:-0.509784 26:-0.706021 27:-0.146432 28:-0.317075 29:-0.799633 30:-0.556878 31:-0.663532 32:-0.216313 33:-0.352437 34:0.00768116 35:0.146893 36:0.0527989 37:0.293558 38:-0.315978 39:-0.144582 40:0.362187 
-4.876081139174899 1.259404341746697 1.43504335584075 0 1:0.0684033 2:0.143025 3:0.0540009 4:0.393871 5:-0.848713 6:-0.908058 7:-0.840169 8:0.633585 9:0.167343 10:0.52434 11:0.122483 12:-0.864848 13:-0.0679865 14:-0.886142 15:-0.810466 16:-0.848224 17:0.856271 18:0.429982 19:-0.0579918 20:-0.859852 21:-0.816292 22:-0.886147 23:0.58015 24:0.171168 25:-0.345786 26:-0.471546 27:-0.286845 28:-0.519494 29:-0.935542 30:-0.810356 31:-0.869925 32:0.733021 33:-0.581227 34:-0.346036 35:0.710945 36:0.542394 37:-0.799728 38:0.692257 39:-0.206298 40:-0.28311 
-0 0.8208954224387272 2.061524974026716 0 1:0.58498 2:0.0759025 3:0.102099 4:0.479587 5:-0.861467 6:-0.756481 7:-0.667105 8:0.141018 9:0.700944 10:0.369019 11:-0.633071 12:0.207048 13:-0.281679 14:-0.768764 15:-0.754942 16:-0.726589 17:0.790401 18:0.416777 19:-0.015031 20:-0.767436 21:-0.785435 22:-0.843465 23:0.0477988 24:0.203254 25:-0.314872 26:-0.435887 27:-0.418873 28:-0.5075 29:-0.87691 30:-0.77272 31:-0.809007 32:0.140948 33:-0.756749 34:0.21991 35:-0.467539 36:0.432908 37:-0.277335 38:-0.555952 39:-0.22575 40:0.188275 
-1.809306756810572 0.1405864403874973 0 0 1:-0.62252 2:0.0237138 3:-0.291957 4:-0.0168257 5:-0.512841 6:-0.398046 7:0.219878 8:0.190096 9:-0.961828 10:-0.639519 11:-0.65519 12:0.864323 13:-0.0597158 14:0.000926407 15:0.0821297 16:0.081662 17:0.780001 18:0.41707 19:0.063978 20:-0.226357 21:-0.430299 22:-0.502333 23:0.0160186 24:0.11957 25:-0.366216 26:-0.469333 27:-0.684104 28:-0.554177 29:-0.52978 30:-0.209824 31:-0.326565 32:0.166245 33:-0.670199 34:0.333465 35:0.68046 36:-0.0387296 37:-0.175731 38:0.513852 39:-0.340566 40:0.21713 
-1.19610688464667 2.499727622713826 0.9890551987296253 0 1:0.0266968 2:0.0474019 3:0.0538802 4:0.333661 5:-0.79086 6:-0.906951 7:-0.778969 8:0.470033 9:0.245302 10:-0.227705 11:-0.0426463 12:-0.659369 13:-0.465331 14:-0.847911 15:-0.842652 16:-0.785246 17:0.804415 18:0.424933 19:-0.0125018 20:-0.761113 21:-0.690655 22:-0.732969 23:0.347017 24:0.525109 25:-0.329419 26:-0.537018 27:-0.278332 28:-0.498951 29:-0.870929 30:-0.631871 31:-0.748474 32:0.769023 33:-0.634842 34:-0.575717 35:-0.529732 36:-0.564077 37:0.491637 38:0.529269 39:-0.901707 40:-0.0567888 
-8.021945070622383 0 0 0 1:0.0146915 2:-0.0672578 3:0.361141 4:0.569207 5:-0.846144 6:-0.824091 7:-0.495185 8:0.406888 9:-0.428018 10:0.30306 11:-0.576874 12:-0.269971 13:-0.519853 14:-0.554932 15:-0.704001 16:-0.605018 17:0.614967 18:0.357642 19:0.0458971 20:-0.347435 21:-0.500531 22:-0.766454 23:-0.190313 24:0.261175 25:-0.519606 26:-0.523064 27:-0.582845 28:-0.314908 29:-0.614889 30:-0.418803 31:-0.457722 32:-0.835381 33:-0.520631 34:-0.109804 35:0.746099 36:0.695595 37:-0.025583 38:-0.532041 39:-0.91865 40:-0.53747 
-6.793353681910085 0 0 0 1:-0.249569 2:-0.00960149 3:0.123302 4:0.697461 5:-0.868407 6:-0.659734 7:-0.443586 8:0.565457 9:-0.34394 10:0.0419906 11:-0.106736 12:-0.439094 13:-0.743242 14:-0.405545 15:-0.595902 16:-0.541212 17:0.912031 18:0.397855 19:0.00881171 20:-0.335779 21:-0.3171 22:-0.730409 23:0.198476 24:0.355353 25:-0.27384 26:-0.613095 27:-0.704363 28:-0.707482 29:-0.554648 30:-0.32246 31:-0.394481 32:-0.445702 33:-0.554997 34:-0.711675 35:0.420679 36:0.752646 37:0.476647 38:-0.0652871 39:-0.65247 40:-0.724121 
-12.99580739651318 0 0 0 1:-0.195871 2:-0.000778958 3:0.1798 4:0.678093 5:-0.739536 6:-0.559828 7:-0.518454 8:0.444353 9:-0.107399 10:-0.0818058 11:-0.514443 12:-0.795138 13:-0.837656 14:-0.469264 15:-0.730939 16:-0.520182 17:0.843342 18:0.40379 19:0.0340384 20:-0.418808 21:-0.291971 22:-0.705641 23:0.0231735 24:0.203512 25:-0.285027 26:-0.430921 27:-0.650277 28:-0.778002 29:-0.648559 30:-0.356168 31:-0.432338 32:-0.671532 33:-0.769176 34:-0.377598 35:0.56422 36:0.850717 37:0.212608 38:-0.038414 39:-0.616816 40:-0.540349 
-0.4188950861564558 0.3055061179602968 0.5442093554068944 0.7786122642102852 1:-0.754526 2:-0.117558 3:-0.197465 4:0.239786 5:-0.72574 6:-0.513364 7:0.079749 8:-0.759181 9:-0.885964 10:-0.560353 11:0.547902 12:0.638718 13:0.244005 14:-0.349587 15:0.0642967 16:-0.113328 17:0.791482 18:0.38606 19:0.0446311 20:-0.768262 21:-0.879204 22:-0.902869 23:-0.837864 24:-0.144733 25:0.273247 26:0.717899 27:-0.622884 28:-0.299391 29:-0.89921 30:-0.697592 31:-0.843519 32:1 33:-0.0602388 34:-0.87451 35:1 36:0.178061 37:-0.817922 38:0.981561 39:-0.274331 40:-0.761105 
-0.3819951430473534 0 0.7244721397348692 0 1:0.0972922 2:0.175311 3:0.49083 4:0.716036 5:-0.480284 6:-0.703995 7:-0.0243315 8:1 9:0.241826 10:0.930415 11:0.911757 12:-0.528987 13:0.840104 14:-0.488463 15:0.175289 16:-0.110636 17:0.77227 18:0.357791 19:-0.00950657 20:-0.641708 21:-0.788716 22:-0.680899 23:0.0867824 24:-0.415836 25:-0.4114 26:-0.301712 27:-0.242307 28:-0.566688 29:-0.814701 30:-0.483755 31:-0.69537 32:-0.605963 33:-0.0651801 34:-0.159103 35:-0.970482 36:-0.0752398 37:0.237437 38:-0.70204 39:-0.230667 40:-0.00197549 
-1.990066662218336 0.4808897102864034 0 0 1:0.17982 2:0.0341136 3:0.101012 4:0.34757 5:-0.410952 6:-0.303591 7:-0.557276 8:0.660266 9:0.042266 10:0.0164323 11:0.00734436 12:-0.0615588 13:-0.788058 14:-0.396929 15:-0.418482 16:-0.310354 17:0.827885 18:0.567607 19:0.256115 20:-0.591427 21:-0.448329 22:-0.566222 23:0.174735 24:-0.0836318 25:-0.39293 26:-0.619831 27:-0.233555 28:-0.570576 29:-0.724838 30:-0.513863 31:-0.526042 32:-0.350953 33:-0.177296 34:0.0395139 35:0.2733 36:0.0187435 37:0.145922 38:-0.463693 39:-0.428745 40:-0.247904 
-0 2.152630687167887 1.440485081570235 4.321993600746176 1:0.476545 2:0.0751311 3:0.613333 4:0.22369 5:-0.94263 6:-0.410085 7:-0.869175 8:-0.409789 9:0.863187 10:-0.344714 11:-0.487375 12:0.638563 13:-0.626471 14:-0.78708 15:-0.761777 16:-0.691408 17:0.801814 18:0.375298 19:-0.0765374 20:-0.875513 21:-0.741207 22:-0.857424 23:0.150753 24:-1 25:-0.19185 26:-0.739774 27:1 28:-0.66977 29:-0.927771 30:-0.69639 31:-0.847677 32:-0.287585 33:-0.150544 34:0.267484 35:0.122889 36:-0.0718747 37:-0.558858 38:-0.473095 39:0.0720525 40:0.265678 
-6.836788045273882 1.553878806358236 0 0.1367128854176594 1:-0.671556 2:-0.0738461 3:-0.551137 4:-0.0491391 5:-0.523067 6:-0.419433 7:-0.36969 8:0.122354 9:-0.818238 10:-0.0235048 11:-0.607519 12:0.475597 13:-0.211055 14:-0.409586 15:-0.28039 16:-0.287425 17:0.720128 18:0.313204 19:-0.173298 20:-0.661045 21:-0.410572 22:-0.542024 23:0.123545 24:-0.0751517 25:-0.136942 26:-0.723892 27:-0.740878 28:-0.809189 29:-0.71581 30:-0.446924 31:-0.548603 32:0.158454 33:-0.886532 34:-0.396009 35:0.398007 36:0.150951 37:-0.23263 38:0.277121 39:-0.642538 40:-0.412236 
-6.293017765554613 4.386071311708133 3.436665491814906 4.38236087884948 1:-0.931768 2:-0.0528952 3:-0.390828 4:0.063973 5:-0.77266 6:-0.847636 7:-0.645047 8:-0.55276 9:-0.267385 10:0.0502471 11:-0.0472404 12:-0.828838 13:-0.784629 14:-0.59988 15:-0.715629 16:-0.665046 17:0.721135 18:0.485773 19:-0.0327637 20:-0.707998 21:-0.518985 22:-0.734647 23:-0.25377 24:0.476465 25:0.323141 26:-0.587606 27:-0.31097 28:-0.668285 29:-0.815273 30:-0.502418 31:-0.662163 32:0.057229 33:-0.954699 34:0.0416457 35:-0.155739 36:0.515252 37:-0.120123 38:-0.638509 39:-0.607389 40:0.838649 
-1.466986425410723 3.764422955788367 0.9201626595490423 3.789694342469712 1:0.490324 2:-0.0751539 3:0.386247 4:0.408151 5:-0.876967 6:-0.356844 7:-0.604109 8:-0.399657 9:0.817056 10:0.121736 11:-0.406961 12:0.504638 13:-0.838199 14:-0.577839 15:-0.687897 16:-0.559546 17:0.753279 18:0.301032 19:-0.100266 20:-0.624851 21:-0.469105 22:-0.795227 23:0.140493 24:-0.362133 25:-0.219332 26:-0.829029 27:-0.471575 28:-0.749616 29:-0.727386 30:-0.439669 31:-0.61309 32:-0.37319 33:-0.74279 34:0.160015 35:-0.306538 36:0.125283 37:-0.113931 38:-0.282867 39:-0.785331 40:-0.00366617 
-1.842954439548924 -0 1.00243594890434 0.7312061700735785 1:0.195974 2:0.249861 3:0.150975 4:0.323086 5:-0.760616 6:-0.700638 7:-0.89401 8:0.72541 9:0.83859 10:0.164246 11:0.210564 12:0.674321 13:-0.738177 14:-0.828213 15:-0.703382 16:-0.751084 17:0.76628 18:0.447265 19:0.0386406 20:-0.873556 21:-0.822869 22:-0.760483 23:-0.383376 24:-0.111197 25:0.616194 26:-0.0296455 27:-0.566523 28:0.158134 29:-0.938295 30:-0.668007 31:-0.845722 32:-0.752665 33:0.207505 34:0.634835 35:-0.982022 36:0.010861 37:0.824734 38:0.598444 39:0.498703 40:-0.55666 
-0 -1.221817030009795 0 0.03673288956761477 1:-0.967254 2:-0.259344 3:-0.0451555 4:0.361573 5:-0.295426 6:-0.885909 7:-0.477759 8:-0.783838 9:-0.211545 10:0.268842 11:0.519356 12:-0.154364 13:0.0155295 14:-0.500465 15:-0.275889 16:-0.297972 17:0.800875 18:0.392592 19:0.0938155 20:-0.941554 21:-0.675623 22:-0.780286 23:-0.0689185 24:-0.492419 25:0.215058 26:-0.352291 27:0.0648997 28:-0.396337 29:-0.895484 30:-0.785122 31:-0.819042 32:0.838959 33:-0.141151 34:-0.746859 35:0.779515 36:0.242376 37:-0.328174 38:0.750255 39:0.40851 40:-0.326498 
-0.2430784497345535 -0 1.101267100988732 0 1:0.2898 2:0.228465 3:0.123303 4:0.355994 5:-0.63481 6:-0.509829 7:-0.875461 8:0.116169 9:0.276854 10:-0.0631449 11:-0.944457 12:-0.108111 13:-0.836591 14:-0.51153 15:-0.723 16:-0.607425 17:0.792203 18:0.427305 19:0.155791 20:-0.987523 21:-0.467881 22:-0.484013 23:-0.0305347 24:0.136117 25:0.504639 26:-0.818219 27:-0.385885 28:-0.0567618 29:-0.763706 30:-0.653493 31:-0.637743 32:-0.16116 33:-0.739494 34:0.322841 35:0.0853729 36:-0.200569 37:0.583399 38:-0.400719 39:0.617758 40:-0.198895 
-1.942472579974751 -0 0 2.262063155662196 1:0.922574 2:-0.155797 3:0.0762817 4:0.322621 5:-0.575771 6:-0.850212 7:-0.846114 8:-0.261412 9:0.345828 10:-0.146037 11:-0.465703 12:-0.369288 13:-0.56275 14:-0.55672 15:-0.733842 16:-0.640159 17:0.800364 18:0.397561 19:0.0780336 20:-1 21:-0.512977 22:-0.698005 23:0.164548 24:0.249925 25:-0.124433 26:-0.67999 27:-0.500095 28:-0.61375 29:-0.781988 30:-0.750507 31:-0.733387 32:-0.434119 33:-0.505704 34:-0.552276 35:0.568648 36:-0.311005 37:0.135143 38:0.583221 39:0.301566 40:0.563452 
-0 -0 0 1.509232275872064 1:0.978234 2:-0.152816 3:0.00879425 4:0.301601 5:-0.395368 6:-0.916099 7:-0.706414 8:-0.581907 9:-0.0145372 10:0.000517185 11:0.0605764 12:-0.39609 13:-0.409829 14:-0.493253 15:-0.499284 16:-0.467166 17:0.792497 18:0.412471 19:0.0870237 20:-0.970749 21:-0.726813 22:-0.638784 23:-0.00953562 24:0.0219087 25:0.314253 26:-0.868838 27:-0.250531 28:-0.287469 29:-0.881716 30:-0.775003 31:-0.79356 32:0.465174 33:-0.385261 34:-0.814064 35:-0.324151 36:-0.278736 37:0.227273 38:0.643269 39:0.158008 40:-0.187551 
-0 -0 2.17670687428591 1.454935303220068 1:-0.983653 2:-0.199682 3:-0.0170801 4:0.353222 5:-0.491767 6:-0.879755 7:-0.672655 8:-0.738864 9:0.272529 10:0.356537 11:0.390664 12:-0.320933 13:-0.00202995 14:-0.620505 15:-0.553008 16:-0.521481 17:0.783103 18:0.441925 19:0.0453245 20:-0.961651 21:-0.780878 22:-0.836612 23:0.035469 24:-0.0394687 25:-0.0383702 26:-0.67885 27:-0.34898 28:-0.535376 29:-0.926599 30:-0.878631 31:-0.886813 32:-0.268299 33:-0.287263 34:0.174022 35:0.548521 36:-0.459487 37:-0.268285 38:-0.523349 39:0.0400745 40:0.476534 
-0 -0.3962459213581137 0 0 1:0.832158 2:0.00412492 3:0.194899 4:0.172671 5:-0.264079 6:-0.510749 7:0.0571285 8:-0.152672 9:0.767167 10:-0.606603 11:-0.488478 12:0.458682 13:0.0163609 14:-0.151664 15:0.197401 16:0.0523706 17:0.551628 18:0.232927 19:0.0995759 20:-0.598954 21:-0.474742 22:-0.223541 23:0.316822 24:0.633791 25:0.163524 26:-0.779076 27:-0.0585041 28:-0.593198 29:-0.626352 30:-0.30995 31:-0.420496 32:0.510434 33:-0.0950936 34:-0.249065 35:-0.164772 36:0.287604 37:0.281489 38:0.161301 39:-0.0881917 40:0.108271 
-0 -0 0.8147637208308233 0 1:0.791347 2:0.0988809 3:-0.11323 4:0.336824 5:-0.397499 6:-0.555874 7:-0.717178 8:0.0851514 9:0.866326 10:-0.711257 11:-0.714175 12:0.684969 13:0.239553 14:-0.366874 15:-0.620961 16:-0.422644 17:0.54267 18:0.163338 19:0.252667 20:-0.816067 21:-0.74966 22:-0.247928 23:0.254279 24:0.163308 25:0.422547 26:-0.866893 27:-0.660328 28:-0.463444 29:-0.719111 30:-0.559037 31:-0.539734 32:0.341059 33:-0.595251 34:-0.102574 35:0.0072728 36:0.808049 37:0.637679 38:-0.205836 39:0.0810905 40:0.620488 
-0.9048267406731528 -0.07011205264114787 2.568280687011369 0.8031549551002695 1:-0.97495 2:-0.243452 3:-0.131172 4:-0.0517471 5:-0.480258 6:-0.92819 7:-0.477793 8:-0.423283 9:-0.255648 10:-0.349549 11:-0.234418 12:-0.654628 13:-0.116122 14:-0.496482 15:-0.377485 16:-0.401835 17:-0.17345 18:-0.40216 19:-0.321536 20:-0.246886 21:-0.0729057 22:-0.635875 23:0.0870093 24:-0.00623119 25:0.575516 26:-0.833408 27:-0.798062 28:-0.397519 29:-0.206896 30:0.16641 31:0.052947 32:-0.170848 33:-0.155765 34:0.0555426 35:-0.348104 36:-0.181512 37:-0.232153 38:-0.298916 39:-0.0761922 40:0.525072 
-0 -1.364438753458633 0.3943499050756077 0.6694004609889453 1:0.808857 2:-0.306677 3:0.473002 4:-0.169791 5:-0.196583 6:-0.307588 7:0.47356 8:-0.25571 9:0.695922 10:-0.832517 11:-0.461097 12:0.370741 13:0.480688 14:-0.036702 15:0.740079 16:0.407739 17:0.335886 18:0.144715 19:0.255076 20:-0.525208 21:-0.352197 22:-0.160719 23:0.437145 24:0.610369 25:0.0765301 26:-0.796211 27:-0.35839 28:-0.583765 29:-0.49875 30:-0.147316 31:-0.286388 32:0.310644 33:0.1021 34:-0.0760263 35:0.00388135 36:-0.0767602 37:-0.0780851 38:-0.232223 39:-0.0072152 40:0.242785 
-1.279484248694303 -1.446163233106809 2.482334067252733 0.6083208982476449 1:-0.0691392 2:0.25799 3:-0.242654 4:-0.166649 5:-0.224999 6:-0.695265 7:-0.418127 8:0.503803 9:-0.420374 10:-0.426298 11:-0.462997 12:-0.473311 13:-0.563174 14:-0.196147 15:-0.436927 16:-0.180038 17:0.314001 18:-0.0231806 19:-0.302995 20:0.0890429 21:-0.488298 22:-0.156614 23:0.554035 24:0.430024 25:0.339251 26:-0.694137 27:-0.661663 28:-0.240482 29:0.0204221 30:0.0438959 31:0.0124448 32:0.887308 33:0.0709049 34:0.636712 35:-0.456354 36:-0.187758 37:-0.359276 38:-0.3725 39:-0.796103 40:0.86079 
-0.6851442087220428 -0 3.613136466613449 0 1:0.878403 2:-0.0604104 3:0.22014 4:0.372353 5:-0.257335 6:-0.689537 7:-0.580741 8:-0.0846208 9:0.53387 10:0.0377401 11:-0.777306 12:-0.0996412 13:-0.512943 14:-0.139933 15:-0.536647 16:-0.298867 17:0.38601 18:0.227809 19:0.172025 20:-0.597191 21:-0.713801 22:-0.223789 23:0.41499 24:0.337571 25:0.129448 26:-0.781282 27:-0.598886 28:-0.622552 29:-0.58252 30:-0.516402 31:-0.437191 32:0.467583 33:0.260963 34:0.126263 35:-0.0652641 36:0.458222 37:0.165292 38:0.0910366 39:0.350314 40:1 
-0.5984127866880562 -0.2991924737033421 0.568545511454131 1.246581426837688 1:0.522236 2:0.329692 3:0.363745 4:-0.0346114 5:-0.347454 6:-0.0866004 7:-0.00381334 8:0.393911 9:0.798475 10:-0.172567 11:-0.658494 12:0.553059 13:-0.470677 14:-0.0812538 15:-0.142248 16:0.0796337 17:-0.218231 18:-0.40661 19:-0.158208 20:0.124678 21:0.438085 22:0.0112148 23:0.293672 24:0.278597 25:0.255852 26:-0.891439 27:-0.903789 28:-0.549112 29:0.163287 30:0.114521 31:0.459983 32:0.756638 33:0.796055 34:0.174214 35:0.297251 36:0.381275 37:0.375755 38:-0.158161 39:-0.125558 40:0.631381 
-0.2843146709056245 -0.1908731790849316 0.2267432991165695 0.6830472432482919 1:-0.0724996 2:0.094408 3:-0.236914 4:0.64726 5:-0.326356 6:-0.78208 7:-0.302888 8:0.388447 9:-0.22106 10:0.58187 11:-0.518787 12:-0.695977 13:0.134403 14:-0.240196 15:-0.150185 16:-0.218678 17:-0.615255 18:-1 19:-0.611932 20:-0.206002 21:-0.398251 22:-0.297154 23:0.422132 24:0.50321 25:-0.0816063 26:-0.804311 27:-0.404996 28:-0.802871 29:0.135436 30:-0.0532126 31:0.407262 32:0.742209 33:0.976941 34:0.297726 35:-0.513568 36:-0.713032 37:-0.394567 38:0.175614 39:0.368084 40:0.896547 
-0 -0.8259390341810718 0 0 1:-0.921908 2:-0.220326 3:-0.359247 4:0.243635 5:0.169779 6:-0.631499 7:-0.308061 8:-0.355004 9:-0.552675 10:-0.338608 11:-0.350456 12:-0.128679 13:-0.485877 14:0.210351 15:0.145978 16:0.126418 17:0.307357 18:0.130101 19:-0.0968051 20:-0.333208 21:-0.462181 22:-0.124078 23:0.251788 24:0.601338 25:0.276115 26:-0.904012 27:0.00166192 28:-0.57416 29:-0.364596 30:-0.294527 31:-0.219643 32:0.315829 33:-0.611299 34:-0.711082 35:-0.278803 36:-0.744479 37:-0.509709 38:0.14522 39:-0.363808 40:0.0707794 
-1.271877483084071 -0.4361064064343919 0.6297481308775388 0.8678250737600214 1:-0.98843 2:-0.479374 3:-0.506384 4:-0.00449285 5:0.426656 6:-0.697071 7:-0.0341778 8:-0.430254 9:-0.373183 10:-0.26261 11:-0.248269 12:-0.374776 13:-0.68241 14:0.476004 15:0.287453 16:0.434907 17:0.252392 18:0.201692 19:0.392847 20:0.0161943 21:-0.206175 22:0.288181 23:0.317946 24:0.325706 25:0.194553 26:-0.88892 27:-0.802094 28:-0.643544 29:-0.0602673 30:0.0629926 31:0.143042 32:0.247418 33:-0.0780274 34:-0.719702 35:-0.447939 36:-0.811805 37:-0.53297 38:0.0671486 39:-0.294427 40:0.179042 
-0.7121600411796931 -0 0.7922879418908976 2.127807695147608 1:0.528598 2:0.0379573 3:0.170959 4:0.300486 5:-0.951038 6:-0.681588 7:-0.844323 8:0.344685 9:0.48564 10:-0.56215 11:-0.660169 12:-0.104581 13:0.0238135 14:-0.874183 15:-0.847464 16:-0.837648 17:0.750897 18:0.391252 19:0.0202187 20:-0.951744 21:-0.670692 22:-0.869164 23:0.209157 24:0.00867251 25:0.527902 26:-0.808092 27:-0.542913 28:-0.349994 29:-0.864098 30:-0.855089 31:-0.846808 32:0.0885538 33:-0.746931 34:-0.488061 35:-0.279816 36:-0.516741 37:0.370821 38:0.516796 39:-0.180834 40:-0.533044 
-0 -0 0 1.233654660234566 1:0.513125 2:0.00792324 3:0.18153 4:0.307669 5:-0.944314 6:-0.698131 7:-0.860979 8:0.432972 9:0.498647 10:-0.00148312 11:-0.149957 12:-0.0514686 13:-0.4102 14:-0.924521 15:-0.896838 16:-0.848478 17:0.779495 18:0.403497 19:0.124567 20:-0.966228 21:-0.734335 22:-0.888756 23:0.00476642 24:0.0940444 25:0.19941 26:-0.808842 27:-0.305638 28:-0.546316 29:-0.906096 30:-0.903761 31:-0.877826 32:-0.281302 33:-0.960817 34:-0.301497 35:-0.289082 36:-0.400114 37:0.247804 38:0.337069 39:-0.17723 40:-0.0809441 
-0 -0 0 1.161579239775481 1:0.829023 2:-0.0286898 3:0.346352 4:-0.0351711 5:0.104975 6:-0.173446 7:0.496616 8:-0.315763 9:0.799895 10:-0.381345 11:-0.205621 12:0.530054 13:-0.302877 14:0.416152 15:0.817073 16:0.569553 17:-0.217143 18:-0.423229 19:-0.265095 20:-0.182605 21:0.113447 22:-0.00797042 23:0.491825 24:0.533174 25:0.4478 26:-0.69117 27:-0.459205 28:-0.497102 29:-0.029678 30:-0.0870851 31:0.251041 32:0.480547 33:0.235233 34:-0.466723 35:-0.135834 36:0.171157 37:0.630311 38:0.195376 39:0.02176 40:0.0080044 
-0.3882471848466169 -0 0.2297823783467408 0.4664636697744967 1:0.865549 2:-0.178048 3:0.574709 4:-0.237561 5:0.133899 6:-0.414429 7:0.812743 8:-0.222364 9:0.604589 10:-0.683451 11:-0.550417 12:0.161338 13:0.183397 14:0.388233 15:1 16:0.765407 17:0.197575 18:-0.0375016 19:-0.276852 20:-0.330707 21:-0.251485 22:0.160479 23:0.421465 24:0.625579 25:0.309919 26:-0.77598 27:-0.201119 28:-0.735345 29:-0.314309 30:-0.133873 31:-0.0289811 32:0.442658 33:0.381641 34:0.0536282 35:-0.236817 36:0.240473 37:0.660936 38:0.0561679 39:-0.0840582 40:0.00765871 
-0 -0 0 0.439220442027757 1:0.824474 2:-0.163497 3:0.35407 4:0.0404331 5:-0.025057 6:-0.258982 7:-0.142572 8:-0.262899 9:0.782863 10:-0.310701 11:-0.369731 12:0.507098 13:-0.513136 14:-0.0182503 15:0.278322 16:0.130333 17:0.328447 18:0.323962 19:0.323159 20:-0.376115 21:-0.346333 22:-0.00748752 23:0.329702 24:0.661629 25:0.342564 26:-0.898547 27:-0.226691 28:-0.528391 29:-0.377431 30:-0.066303 31:-0.18464 32:0.355928 33:-0.297684 34:-0.558092 35:-0.0568008 36:0.424121 37:0.67854 38:-0.0373713 39:-0.179189 40:0.142976 
-1.134719839064438 -4.155204481816463 0 1.688045909024914 1:-0.154707 2:0.244328 3:-0.0620997 4:0.294403 5:-0.529949 6:-0.764978 7:-0.862969 8:0.253587 9:-0.782251 10:-0.225675 11:-0.735996 12:0.512299 13:-0.801836 14:-0.495329 15:-0.72328 16:-0.594688 17:0.739913 18:0.420333 19:-0.0429119 20:-0.927702 21:-0.423151 22:-0.617359 23:-0.00920699 24:-0.0558449 25:-0.379303 26:-0.761391 27:-0.570831 28:-0.578473 29:-0.735058 30:-0.629004 31:-0.662004 32:0.9169 33:-0.939693 34:-0.201197 35:-0.25547 36:0.262151 37:-0.344782 38:-0.279362 39:-0.0753201 40:0.967266 
-0 -1.964206429562721 0 0 1:0.332534 2:0.171104 3:0.369559 4:0.307652 5:-0.692402 6:-0.452818 7:-0.936899 8:0.361669 9:0.739987 10:-0.0839496 11:-0.783001 12:0.439465 13:-0.896878 14:-0.68659 15:-0.652539 16:-0.628109 17:0.789461 18:0.4282 19:0.0255058 20:-0.970321 21:-0.542844 22:-0.780964 23:0.168115 24:0.187245 25:-0.0784324 26:-0.790975 27:-0.228794 28:-0.644603 29:-0.820094 30:-0.766811 31:-0.768676 32:-0.427322 33:-0.801495 34:-0.0973775 35:-0.294267 36:-0.0212406 37:0.575283 38:-0.498481 39:-0.258315 40:0.263782 
-1.463364352059675 -0 1.086441019261056 0 1:-0.931742 2:-0.0234522 3:0.0863396 4:0.337119 5:0.201382 6:-0.499779 7:-0.619104 8:-0.12211 9:0.110585 10:-0.0892606 11:-0.242211 12:-0.294541 13:-0.728559 14:0.104913 15:-0.143559 16:0.0628752 17:0.746017 18:0.491292 19:-0.0601023 20:-0.87361 21:-0.522206 22:-0.44126 23:-0.171149 24:0.280843 25:0.263291 26:-0.734327 27:-0.62298 28:-0.383309 29:-0.77397 30:-0.569737 31:-0.626664 32:-0.404311 33:-0.334615 34:0.391764 35:0.161625 36:0.0256446 37:0.558248 38:0.414367 39:0.721133 40:-0.680249 
-3.539177385323437 -3.167469147394775 4.070913282604391 0.7847881681757357 1:0.799077 2:0.0214051 3:0.4935 4:0.114803 5:-0.327799 6:-0.396829 7:-0.627961 8:-0.147168 9:0.455363 10:-0.767741 11:-0.439433 12:0.127088 13:0.248333 14:-0.408616 15:-0.172204 16:-0.295132 17:0.748581 18:0.167713 19:-0.558022 20:-0.832439 21:-0.399902 22:-0.580073 23:-0.0650298 24:-0.28751 25:-0.0729749 26:-0.740853 27:-0.145748 28:-0.516942 29:-0.702921 30:-0.419337 31:-0.554097 32:-0.642544 33:-0.545229 34:0.136346 35:0.43732 36:0.163489 37:0.0119608 38:-0.146035 39:0.0265345 40:-0.468463 
-0 -0 0.3294319952237094 3.437473578546179 1:0.577218 2:0.140285 3:0.75227 4:0.27988 5:-0.885713 6:-0.391467 7:-0.91587 8:-0.211996 9:1 10:-0.213941 11:-0.638286 12:1 13:-0.788398 14:-0.793971 15:-0.661917 16:-0.664796 17:0.788955 18:0.395036 19:0.0333464 20:-0.973572 21:-0.714635 22:-0.676762 23:-0.294906 24:-0.278095 25:0.524345 26:-0.471758 27:-0.0809784 28:0.0973053 29:-0.893261 30:-0.697834 31:-0.807243 32:0.355681 33:0.174526 34:-0.455163 35:0.0292014 36:0.314055 37:0.882506 38:-0.336043 39:0.139552 40:0.33326 
-0 -0 0.1981425434595014 0 1:0.895969 2:0.203868 3:-0.050785 4:0.0586161 5:-0.28897 6:-0.66573 7:-0.42593 8:-0.235863 9:0.546486 10:-0.358075 11:0.00750304 12:0.0942848 13:-0.427084 14:-0.459146 15:-0.339652 16:-0.244022 17:0.773574 18:0.51597 19:-0.0764151 20:-0.595321 21:-0.203936 22:-0.388023 23:0.0324431 24:0.212123 25:0.998691 26:-0.461947 27:-0.334412 28:0.771564 29:-0.643729 30:0.170254 31:-0.407485 32:0.0437966 33:-0.523604 34:0.0969849 35:0.448959 36:0.6198 37:0.259467 38:0.666608 39:0.612049 40:0.490962 
-0.488683662940061 -1.689604989806781 0 0 1:-0.0274704 2:0.354727 3:-0.0682629 4:0.266501 5:-0.486003 6:-0.945025 7:-0.518149 8:0.984108 9:-0.459613 10:-0.480986 11:0.888357 12:-0.249504 13:-0.272106 14:-0.620607 15:-0.529009 16:-0.44523 17:0.681703 18:0.386952 19:-0.155794 20:-0.746225 21:-0.653828 22:-0.831967 23:-0.342841 24:-0.190725 25:-0.352367 26:-0.36857 27:-0.114953 28:-0.716185 29:-0.876242 30:-0.622551 31:-0.744642 32:0.597496 33:-0.211177 34:-0.24917 35:-0.0589141 36:-0.0331268 37:0.495513 38:-0.291733 39:1 40:0.662684 
-0 -0 0.4815768489856669 0.780498865936464 1:-0.918225 2:0.194999 3:0.280505 4:0.335551 5:-0.252177 6:-0.292322 7:-0.562371 8:-0.572181 9:0.606535 10:0.190829 11:0.202613 12:0.242875 13:-0.369498 14:-0.353178 15:-0.264707 16:-0.204984 17:0.657218 18:0.317208 19:0.12216 20:-0.86652 21:-0.802616 22:-0.648745 23:0.548703 24:-0.252473 25:0.920024 26:-0.238707 27:-0.334708 28:0.627996 29:-0.899893 30:-0.716299 31:-0.77826 32:0.436901 33:-0.0916272 34:0.661877 35:0.0140996 36:0.351039 37:0.954418 38:-0.391112 39:0.809577 40:0.551199 
-0 -1.333628894782969 0 0.2761239294851395 1:-0.0473899 2:0.170677 3:-0.541993 4:0.180158 5:-0.665509 6:-0.8569 7:-0.802073 8:0.392914 9:-0.0584062 10:-0.26972 11:-0.195574 12:-1 13:-0.576408 14:-0.692551 15:-0.701385 16:-0.673925 17:0.739701 18:0.306526 19:-0.354941 20:-0.939529 21:-0.73864 22:-0.507118 23:0.104325 24:-0.603599 25:-0.384376 26:-0.841743 27:0.494152 28:-0.473746 29:-0.792939 30:-0.61261 31:-0.70762 32:-0.311763 33:-1 34:-0.161759 35:0.543391 36:0.231253 37:-0.0939741 38:-0.123153 39:0.764503 40:0.240996 
-4.271065390380336 -6.752963470208738 4.303599629260037 5.795465108055352 1:-0.96675 2:-0.0952253 3:-0.0165722 4:0.236103 5:-0.701176 6:-0.844003 7:-0.657274 8:-0.124956 9:-0.47591 10:-0.444069 11:-0.44946 12:-0.162941 13:0.0491902 14:-0.737685 15:-0.668571 16:-0.653194 17:0.759055 18:0.429016 19:0.0920877 20:-0.929864 21:-0.846133 22:-0.778285 23:0.00551873 24:0.0180635 25:0.113973 26:-0.687119 27:-0.629145 28:-0.375802 29:-0.908211 30:-0.820696 31:-0.87703 32:-0.0336924 33:-0.226829 34:0.226746 35:0.601414 36:-0.018006 37:-0.742826 38:-0.169744 39:-0.0452179 40:0.340549 
-0 -1.307788163357172 1.930332720829211 1.805252753615364 1:-0.949423 2:-0.175556 3:0.0310117 4:0.36958 5:-0.354307 6:-0.712413 7:-0.8255 8:-0.654861 9:0.319495 10:0.78132 11:0.263283 12:-0.122894 13:0.502486 14:-0.477647 15:-0.546185 16:-0.443456 17:0.743239 18:0.406016 19:0.0658281 20:-0.927956 21:-0.647596 22:-0.76543 23:0.117573 24:0.213819 25:-0.104687 26:-0.711231 27:-0.345256 28:-0.484186 29:-0.868219 30:-0.780254 31:-0.801809 32:-0.000844138 33:-0.283688 34:-0.30613 35:-0.455027 36:0.0481156 37:0.486379 38:-0.345679 39:-0.410571 40:0.655129 
-0 -0 0 1.687866746899549 1:0.713002 2:-0.0152049 3:0.158828 4:0.31885 5:-0.755516 6:-0.730938 7:-0.855354 8:0.237232 9:0.438822 10:-0.212277 11:-0.623362 12:0.0865714 13:-0.812075 14:-0.726822 15:-0.843901 16:-0.754474 17:0.768082 18:0.445566 19:0.0442858 20:-0.947478 21:-0.741872 22:-0.622469 23:-0.0284342 24:0.239746 25:0.163181 26:-0.82012 27:-0.38557 28:-0.456715 29:-0.845681 30:-0.778192 31:-0.788983 32:0.501791 33:-0.75052 34:-0.508711 35:0.452358 36:0.0170379 37:0.6051 38:-0.390467 39:-0.128611 40:0.357659 
-0 -0.1535802517349362 0 1.434663474482007 1:-0.940346 2:-0.465449 3:-0.188542 4:0.429774 5:0.218667 6:-0.668516 7:-0.759273 8:-0.850287 9:-0.877249 10:0.545018 11:0.681489 12:0.589555 13:0.167033 14:-0.243491 15:0.0235468 16:0.0454514 17:0.803901 18:0.415435 19:0.170298 20:-0.979177 21:-0.507028 22:-0.658992 23:-0.40352 24:-0.666298 25:0.71525 26:-0.259989 27:-0.0401034 28:0.319411 29:-0.810342 30:-0.628746 31:-0.711502 32:-0.153359 33:-0.15973 34:-1 35:0.0353015 36:0.116406 37:-0.974115 38:0.230702 39:-0.157467 40:0.309779 
-0 -0.5170628670039339 0 0 1:0.0717952 2:0.249238 3:0.0248345 4:0.295704 5:-0.741522 6:-0.931219 7:-0.942875 8:0.475453 9:0.69832 10:-0.114933 11:-0.35809 12:0.306077 13:-0.884617 14:-0.786728 15:-0.843593 16:-0.797027 17:0.768875 18:0.479243 19:-0.0884091 20:-0.937632 21:-0.550896 22:-0.819114 23:0.186834 24:-0.16816 25:-0.426193 26:-0.832519 27:-0.315777 28:-0.454348 29:-0.810863 30:-0.730803 31:-0.77303 32:0.0860284 33:-0.901009 34:-0.626387 35:0.423235 36:-0.764483 37:-0.3412 38:-0.42387 39:-0.0343031 40:0.122726 
-1.835087003382092 -0 2.460325636293605 4.001834258662944 1:-0.927582 2:-0.101803 3:-0.072496 4:0.353577 5:-0.49436 6:-0.799727 7:-0.750682 8:-0.624322 9:-0.15301 10:0.262146 11:0.210666 12:-0.0730433 13:-0.280675 14:-0.626944 15:-0.534006 16:-0.546927 17:0.824633 18:0.468855 19:-0.0621495 20:-0.930544 21:-0.813113 22:-0.788983 23:0.580457 24:0.394304 25:-0.335545 26:-0.30568 27:-0.679758 28:-0.467072 29:-0.92844 30:-0.846924 31:-0.869464 32:0.221364 33:-0.25549 34:-0.297196 35:-0.110771 36:0.234224 37:0.148544 38:0.384921 39:0.164945 40:0.245698 
-0 -3.864533451210365 0 0 1:0.306545 2:0.174664 3:0.123303 4:0.300997 5:-0.784485 6:-0.56762 7:-0.840294 8:0.423008 9:0.432932 10:0.364705 11:-0.637357 12:0.172995 13:-0.19089 14:-0.801578 15:-0.757843 16:-0.710781 17:0.777764 18:0.393628 19:0.0194001 20:-0.930054 21:-0.695534 22:-0.744354 23:0.251927 24:-0.00174042 25:0.146438 26:-0.863745 27:-0.442324 28:-0.365827 29:-0.871716 30:-0.75606 31:-0.816592 32:0.139773 33:-0.801981 34:0.134706 35:-0.396889 36:-0.0900895 37:0.454436 38:0.347569 39:-0.533233 40:0.115382 
-0.4338355324570404 -0 0 0 1:0.714823 2:-0.0503345 3:0.200997 4:0.291985 5:-0.640095 6:-0.567018 7:-0.615999 8:0.218304 9:0.482855 10:-0.0190887 11:-0.556514 12:0.234399 13:-0.154361 14:-0.618411 15:-0.549574 16:-0.541105 17:0.756885 18:0.349703 19:0.109028 20:-0.930131 21:-0.377425 22:-0.573019 23:-0.251966 24:-0.138619 25:0.144834 26:-0.698007 27:-0.516137 28:-0.516279 29:-0.713002 30:-0.632412 31:-0.62503 32:0.300013 33:-0.794095 34:-0.245857 35:-0.541277 36:0.161673 37:0.422761 38:0.495788 39:-0.0698773 40:-0.0648045 
-0.3280881928226636 -0 0 0 1:-0.950526 2:-0.105191 3:-0.0489773 4:0.405399 5:-0.433819 6:-0.764074 7:-0.781357 8:-0.567514 9:0.415238 10:0.380341 11:0.0746157 12:-0.0410331 13:-0.548272 14:-0.535926 15:-0.52461 16:-0.504653 17:0.745769 18:0.402161 19:0.0448656 20:-0.924773 21:-0.425231 22:-0.664964 23:-0.00276384 24:0.101525 25:0.108201 26:-0.609805 27:-0.468929 28:-0.604857 29:-0.744166 30:-0.721916 31:-0.675784 32:-0.219303 33:-0.354435 34:0.222236 35:0.102064 36:0.201733 37:0.426327 38:-0.146044 39:-0.0193922 40:0.568766 
-5.104737615081669 -5.227168805384022 3.913401008531376 0.9083964019433838 1:0.11909 2:-0.0166643 3:0.0588679 4:0.256208 5:-0.813688 6:-0.895005 7:-0.916482 8:0.403504 9:0.565285 10:-0.211758 11:-0.245989 12:-0.0675206 13:-0.850892 14:-0.829433 15:-0.865524 16:-0.850245 17:0.795311 18:0.365357 19:-0.0306964 20:-0.932887 21:-0.511091 22:-0.832275 23:0.127349 24:0.0216003 25:-0.324055 26:-0.746064 27:-0.591296 28:-0.542542 29:-0.771444 30:-0.760999 31:-0.757795 32:-0.26114 33:-0.733771 34:0.308453 35:0.585954 36:-0.508426 37:0.0376083 38:-0.879525 39:-0.197165 40:0.220823 
-0 -0 1.372485031125046 3.62245126684985 1:0.513489 2:0.189905 3:0.0991116 4:0.416029 5:-0.927633 6:-0.832484 7:-0.853381 8:0.271604 9:0.892065 10:0.446442 11:-0.8349 12:0.74594 13:-0.151466 14:-0.925897 15:-0.912343 16:-0.878245 17:0.722872 18:0.309643 19:0.207505 20:-0.951085 21:-0.762661 22:-0.747891 23:0.1494 24:-0.0367035 25:0.646191 26:-0.738985 27:-0.771501 28:-0.102042 29:-0.885302 30:-0.772579 31:-0.824292 32:-0.0775418 33:-0.526129 34:-0.101883 35:-0.190739 36:0.505262 37:0.756367 38:-0.465847 39:-0.184516 40:0.533153 
-0 -2.522994868011156 0 1.496058613740862 1:0.997962 2:-0.275684 3:-0.0538841 4:0.320324 5:-0.401175 6:-0.906559 7:-0.629631 8:-0.808813 9:-0.313752 10:-0.514759 11:0.484399 12:-0.193008 13:0.059383 14:-0.541448 15:-0.395852 16:-0.436496 17:0.774512 18:0.412691 19:0.0201008 20:-0.936007 21:-0.664448 22:-0.861551 23:0.259529 24:-0.470094 25:0.0484945 26:-0.793258 27:-0.254915 28:-0.636467 29:-0.858878 30:-0.802157 31:-0.838875 32:0.364301 33:-0.3569 34:-0.674713 35:-0.157288 36:-0.539375 37:-0.21765 38:0.0648525 39:-0.135802 40:-0.00819309 
-0.7464953955270012 -0 11.55245521075683 10.43276261174555 1:0.960853 2:-0.281836 3:-0.00321597 4:0.286427 5:-0.385137 6:-0.867963 7:-0.784527 8:-0.758661 9:0.409468 10:-0.220649 11:0.407149 12:-0.362904 13:-0.635837 14:-0.531222 15:-0.449035 16:-0.470569 17:0.77697 18:0.364987 19:0.0954369 20:-0.901242 21:-0.695014 22:-0.75782 23:0.396271 24:-0.153356 25:0.533672 26:-0.664194 27:-0.736983 28:-0.291893 29:-0.867416 30:-0.76345 31:-0.808532 32:-0.0313371 33:-0.407814 34:-0.119112 35:-0.0156197 36:0.204164 37:0.276248 38:-0.198456 39:-0.447027 40:0.320138 
-2.162693591241571 -1.773524939633219 1.149289592085583 1.514127692090892 1:0.440047 2:0.176485 3:0.229037 4:0.428853 5:-0.646863 6:-0.533726 7:-0.801035 8:0.312229 9:0.793208 10:0.155173 11:-0.762423 12:0.498004 13:-0.852734 14:-0.589506 15:-0.78432 16:-0.604024 17:0.759849 18:0.370106 19:0.18631 20:-0.798519 21:-0.496516 22:-0.495142 23:0.0945307 24:0.27355 25:0.193389 26:-0.779859 27:-0.420202 28:-0.581148 29:-0.770645 30:-0.595431 31:-0.613762 32:0.124679 33:-0.624572 34:-0.422691 35:-0.660387 36:0.205284 37:0.710147 38:-0.0041304 39:-0.746807 40:-0.206402 
-0.2866207602381836 -0 0.5609757957179834 0.2693475088267167 1:0.791591 2:0.0608112 3:0.184031 4:0.24447 5:-0.569027 6:-0.669925 7:-0.671194 8:-0.060027 9:0.86083 10:-1 11:-0.721641 12:0.689544 13:0.809205 14:-0.503603 15:-0.461424 16:-0.54707 17:0.757972 18:0.456989 19:0.122386 20:-0.86561 21:-0.402931 22:-0.560952 23:0.100422 24:0.134137 25:0.34423 26:-0.794234 27:-0.535934 28:-0.589931 29:-0.7389 30:-0.636965 31:-0.620462 32:0.171136 33:-0.517407 34:-0.750248 35:-0.57408 36:0.0102597 37:0.750759 38:0.515316 39:-0.0373751 40:-0.574398 
-0 -3.057332270695944 0 0.6486191963516057 1:-0.930371 2:-0.0249153 3:0.0526306 4:0.375735 5:-0.477551 6:-0.612892 7:-0.839388 8:-0.505545 9:0.414648 10:-0.00651432 11:-0.0978821 12:-0.00202421 13:-0.772043 14:-0.543255 15:-0.637342 16:-0.525292 17:0.744104 18:0.427457 19:0.010997 20:-0.940282 21:-0.602198 22:-0.667544 23:-0.061711 24:-0.124208 25:-0.207791 26:-0.635237 27:-0.320433 28:-0.641983 29:-0.837851 30:-0.787005 31:-0.755822 32:0.168602 33:-0.443088 34:-0.377125 35:-0.165027 36:0.177008 37:0.202047 38:0.150681 39:-0.51133 40:0.776686 
-0 -0.4863704080451756 0 0 1:-0.922283 2:0.0890168 3:-0.00899624 4:0.494436 5:-0.428307 6:-0.47483 7:-0.734667 8:-0.281179 9:0.173927 10:0.337249 11:-0.35522 12:-0.359609 13:-0.319271 14:-0.451957 15:-0.571191 16:-0.426784 17:0.801522 18:0.408095 19:-0.0820762 20:-0.949522 21:-0.582912 22:-0.597632 23:0.801195 24:-0.506509 25:-0.0971915 26:0.0187455 27:0.237122 28:-0.711379 29:-0.835659 30:-0.664965 31:-0.724107 32:0.563735 33:-0.169099 34:-0.291792 35:-0.0697581 36:0.385149 37:0.227049 38:0.346738 39:-0.137269 40:0.860663 
-1.187124333937636 -4.899176226944597 1.078368575619935 2.259856552825587 1:0.358212 2:0.107856 3:0.141904 4:0.307917 5:-0.831272 6:-0.577356 7:-0.770747 8:0.567174 9:-0.074101 10:0.0522458 11:-0.33538 12:-0.169127 13:-0.296521 14:-0.842654 15:-0.790155 16:-0.715149 17:0.749955 18:0.401716 19:-0.00927207 20:-0.936583 21:-0.689465 22:-0.733142 23:0.406889 24:-0.931728 25:0.218232 26:-0.187827 27:0.790729 28:-0.62343 29:-0.878395 30:-0.680285 31:-0.81235 32:0.0204743 33:-0.249342 34:-0.117373 35:-0.860788 36:0.598417 37:0.257897 38:0.526276 39:-0.392287 40:0.233034 
-1.772942541138463 -0.2586485276376027 0 2.90855082423481 1:0.928746 2:-0.622096 3:0.0310966 4:0.679227 5:0.0932977 6:-0.476337 7:-0.587056 8:-0.774379 9:0.206446 10:-0.034183 11:0.503735 12:-0.432127 13:-0.845793 14:-0.174186 15:0.0503039 16:0.0292358 17:0.827669 18:0.521603 19:0.347345 20:-0.740864 21:-0.446813 22:-0.312991 23:0.171306 24:-0.428546 25:0.282173 26:-0.664892 27:-0.305567 28:-0.394878 29:-0.652541 30:-0.418182 31:-0.497793 32:-0.397506 33:-0.536491 34:-0.757245 35:0.404213 36:0.373141 37:0.191432 38:0.122174 39:-0.116879 40:-0.536006 
-0 -0.05700690384534809 0.2309381197954067 0.3223899581395274 1:0.177133 2:1 3:0.841159 4:-0.0743619 5:0.440409 6:0.27403 7:-0.568638 8:0.684726 9:0.787124 10:-0.3216 11:0.0672181 12:0.599221 13:-0.634692 14:0.219946 15:0.804451 16:0.487843 17:0.659601 18:0.439775 19:0.232731 20:-0.831651 21:-0.372719 22:-0.0856325 23:0.00766527 24:-0.0990642 25:0.344023 26:-0.830596 27:-0.391874 28:-0.234856 29:-0.650642 30:-0.412538 31:-0.415914 32:0.292501 33:-0.308662 34:0.811958 35:0.234243 36:0.0539576 37:0.684758 38:-0.119138 39:0.557439 40:-0.745115 
-7.558246311517023 -2.198289719484565 3.201721362064917 0 1:-0.0500017 2:-0.221055 3:0.211914 4:-0.0276559 5:-0.673437 6:-0.823934 7:-0.823688 8:0.403246 9:0.0952583 10:-0.237551 11:-0.16328 12:-0.804589 13:-0.798671 14:-0.63221 15:-0.845432 16:-0.665349 17:0.758843 18:0.351559 19:-0.0907038 20:-0.887411 21:-0.462525 22:-0.734806 23:0.359963 24:0.14118 25:-0.261506 26:-0.615047 27:-0.584761 28:-0.377718 29:-0.759186 30:-0.65821 31:-0.70162 32:-0.754443 33:-0.941126 34:0.0618843 35:-0.201769 36:0.0566142 37:0.271029 38:0.345098 39:0.145366 40:-0.706642 
-0 -0 1.050541006130133 0 1:0.311241 2:0.471752 3:-0.0532141 4:0.0669206 5:-0.677423 6:-0.474784 7:-0.725061 8:0.203213 9:0.551919 10:0.275758 11:-0.739526 12:0.132768 13:-0.628121 14:-0.563818 15:-0.651796 16:-0.544687 17:0.667552 18:0.20117 19:0.0527019 20:-0.927936 21:-0.536974 22:-0.456364 23:0.563896 24:-0.130462 25:0.785482 26:-0.30563 27:-0.906701 28:0.287924 29:-0.746637 30:-0.498923 31:-0.627392 32:-0.317643 33:-0.456627 34:0.439541 35:-0.45741 36:0.590359 37:0.763858 38:-0.0436312 39:0.159821 40:0.234608 
-0.7112149943149645 -0 -0 0 1:0.906171 2:0.0305964 3:0.00564796 4:0.310563 5:-0.794885 6:-0.869795 7:-0.757217 8:-0.536272 9:0.277159 10:-0.44783 11:-0.0813055 12:-0.583049 13:-0.387552 14:-0.821833 15:-0.741157 16:-0.771428 17:0.810264 18:0.493044 19:-0.042794 20:-0.748372 21:-0.453606 22:-0.531825 23:-0.000929661 24:-0.0279535 25:-0.734174 26:-0.767368 27:-0.757953 28:0.503863 29:-0.734254 30:-0.617881 31:-0.598517 32:-0.379794 33:-0.332553 34:0.954266 35:0.0232404 36:0.233054 37:-0.797771 38:-0.737226 39:-0.558604 40:0.949632 
-1.444045308023668 -3.433597768622354 -1.296340692119256 0 1:0.0839118 2:0.0424774 3:0.154398 4:0.337638 5:-0.597717 6:-0.831608 7:-0.815984 8:0.355672 9:0.237969 10:-0.0351867 11:-0.0719622 12:-0.54369 13:-0.512218 14:-0.672894 15:-0.667322 16:-0.650961 17:0.762452 18:0.376936 19:-0.0106532 20:-0.836003 21:-0.537755 22:-0.505439 23:0.308789 24:0.23719 25:-0.667275 26:-0.71358 27:-0.0990436 28:0.327734 29:-0.828455 30:-0.551486 31:-0.649612 32:0.194352 33:-0.392125 34:-0.687641 35:0.271051 36:0.211334 37:-0.701307 38:-0.0518731 39:-0.671923 40:-0.394173 
-7.087479443133494 -13.90346777316144 -5.026662949896965 4.058696155667004 1:-0.0266593 2:0.0757297 3:0.0694819 4:0.373027 5:-0.710924 6:-0.888 7:-0.72823 8:0.265957 9:0.343688 10:0.185086 11:-0.4842 12:-0.681025 13:-0.342175 14:-0.728962 15:-0.748082 16:-0.705483 17:0.793076 18:0.434801 19:-0.019298 20:-0.803067 21:-0.687587 22:-0.580967 23:0.295715 24:-0.0764386 25:-0.487547 26:-0.58859 27:-0.574844 28:0.0806168 29:-0.864264 30:-0.699603 31:-0.715394 32:0.0108581 33:-0.508128 34:-0.5816 35:-0.225503 36:0.577216 37:0.280885 38:-0.193545 39:-0.474518 40:-0.445555 
-0.293509474247452 -0 -0.9385726813194645 0.06096244096038218 1:0.0166555 2:0.0295769 3:0.105033 4:0.279679 5:-0.676765 6:-0.854169 7:-0.95501 8:0.289478 9:0.274107 10:-0.0317468 11:-0.0637473 12:-0.418779 13:-0.898746 14:-0.745824 15:-0.873222 16:-0.746058 17:0.80723 18:0.365285 19:-0.0297785 20:-0.956965 21:-0.752127 22:-0.535138 23:-0.445084 24:-0.08255 25:-0.650034 26:-0.153212 27:-0.507081 28:0.308334 29:-0.850315 30:-0.643528 31:-0.754583 32:-0.616735 33:0.729224 34:-0.709939 35:-0.249564 36:-0.665303 37:0.193607 38:0.0338606 39:0.252703 40:-0.0228108 
-0.08690315719774259 -0 -0.651797231053925 1.00506694652145 1:-0.952568 2:-0.223176 3:0.076069 4:0.373611 5:-0.685447 6:-0.698782 7:-0.839254 8:-0.572398 9:0.569922 10:0.388041 11:0.020867 12:0.179668 13:-0.383577 14:-0.730436 15:-0.706892 16:-0.68384 17:0.808746 18:0.419965 19:0.128614 20:-0.950398 21:-0.762743 22:-0.656755 23:0.911585 24:-0.0384167 25:0.446073 26:0.356632 27:-0.304189 28:-0.434988 29:-0.895284 30:-0.717357 31:-0.805189 32:-0.886291 33:0.991312 34:0.272268 35:0.0829957 36:-0.144047 37:0.385229 38:0.83566 39:-0.195285 40:-0.768256 
-0 -0 -0.2707331442478918 2.004178903802941 1:0.982102 2:-0.143195 3:0.100463 4:0.352299 5:-0.696307 6:-0.77661 7:-0.824499 8:-0.565168 9:0.352769 10:-0.193373 11:0.0557404 12:-0.149779 13:-0.50141 14:-0.773367 15:-0.841663 16:-0.710862 17:0.783395 18:0.404535 19:0.23434 20:-0.899139 21:-0.904818 22:-0.670228 23:0.0358648 24:0.441526 25:0.66829 26:-0.735745 27:-0.0299617 28:-0.281668 29:-0.895889 30:-0.751246 31:-0.820416 32:-0.533284 33:0.902577 34:-0.270841 35:0.798496 36:-0.196827 37:0.708342 38:0.336823 39:-0.451583 40:-0.0665342 
-2.041442356111739 -1.830538162915072 -3.039881197016525 2.456698755624531 1:0.840021 2:-0.120393 3:0.111357 4:0.248401 5:-0.895965 6:-0.888343 7:-0.863028 8:-0.559288 9:0.782724 10:-0.935386 11:-0.159465 12:0.407581 13:0.638916 14:-0.938313 15:-0.803845 16:-0.877261 17:0.762159 18:0.413138 19:0.0968094 20:-0.976164 21:-0.891408 22:-0.975791 23:0.0298795 24:-0.0859448 25:0.426374 26:-0.658684 27:-0.421765 28:-0.502316 29:-0.980176 30:-0.912366 31:-0.970128 32:-0.3877 33:-0.777282 34:-0.266269 35:0.414607 36:-0.00812086 37:0.119857 38:-0.628579 39:-0.506607 40:0.0506226 
-0 -0 -2.49397768698079 2.429271646259107 1:0.980036 2:-0.157394 3:0.0289099 4:0.292735 5:-0.685185 6:-0.873429 7:-0.913724 8:-0.729635 9:0.491707 10:-0.408198 11:0.24094 12:-0.119663 13:-0.42942 14:-0.783029 15:-0.761446 16:-0.742505 17:0.774512 18:0.410764 19:0.0985458 20:-0.948015 21:-0.814237 22:-0.853027 23:0.329251 24:-0.164326 25:0.51692 26:-0.836027 27:-0.57611 28:-0.469837 29:-0.929186 30:-0.857262 31:-0.89831 32:-0.243382 33:-0.0214928 34:0.416987 35:-0.417961 36:0.0242273 37:0.0231137 38:-0.478959 39:-0.369082 40:0.773345 
-0 -0 -0 0.5180840075210068 1:0.947929 2:-0.18376 3:0.00708017 4:0.34761 5:-0.768657 6:-0.922925 7:-1 8:-0.8934 9:0.303148 10:-0.0289123 11:0.713962 12:-0.407382 13:-0.730069 14:-0.881412 15:-0.837486 16:-0.824039 17:0.796755 18:0.400306 19:0.0741262 20:-0.991669 21:-0.953948 22:-0.924178 23:0.589781 24:0.170428 25:0.425031 26:-0.47023 27:-0.515814 28:-0.507346 29:-0.995521 30:-0.961706 31:-0.982645 32:-0.754286 33:0.690563 34:0.457817 35:0.703933 36:-0.713015 37:-0.214956 38:-0.0350097 39:-0.0164915 40:-0.193262 
-1.789171657902288 -0 -0.6824284490078766 0 1:0.827486 2:-0.0390557 3:-0.0614725 4:0.108545 5:-0.573436 6:-0.564069 7:-0.519093 8:-0.460064 9:0.543788 10:-0.423488 11:0.0391371 12:0.119619 13:-0.530734 14:-0.495015 15:-0.325958 16:-0.449334 17:0.27529 18:0.114442 19:-0.142883 20:-0.52355 21:-0.106431 22:-0.813182 23:0.178953 24:-0.225364 25:-0.00300092 26:-0.833768 27:-0.65258 28:-0.437229 29:-0.511073 30:-0.475791 31:-0.335557 32:-0.182355 33:-0.602739 34:0.420974 35:0.278728 36:0.618612 37:-0.547761 38:-0.459568 39:-0.793871 40:0.339173 
-0.5953627872636593 -0 -0 0 1:0.853993 2:-0.222175 3:0.0438667 4:0.219039 5:-0.349698 6:-0.601174 7:-0.73497 8:-0.529634 9:0.753864 10:-0.330901 11:-0.412229 12:0.379104 13:-0.667742 14:-0.445141 15:-0.483483 16:-0.394685 17:0.33676 18:0.13707 19:-0.0877099 20:-0.497226 21:0.00897488 22:-0.661708 23:0.542777 24:0.648388 25:-0.452167 26:-0.325544 27:0.123346 28:-0.0464681 29:-0.468801 30:-0.309312 31:-0.280916 32:-0.735256 33:-0.668115 34:0.446303 35:0.832549 36:0.478998 37:-0.777121 38:-0.224713 39:-0.717876 40:-0.785393 
-0.8479592949882442 -0.8250353120683538 -6.301436443456116 5.422682041679211 1:0.755679 2:-0.0216507 3:0.0466707 4:0.183873 5:-0.452359 6:-0.362047 7:-0.590896 8:-0.24091 9:0.573912 10:-0.292993 11:-0.701725 12:-0.0708331 13:-0.690777 14:-0.388086 15:-0.347708 16:-0.362237 17:0.585426 18:0.153246 19:-0.357817 20:-0.501768 21:-0.0121086 22:-0.718025 23:0.284421 24:-0.105858 25:0.442692 26:-0.833271 27:-0.61469 28:-0.580983 29:-0.504558 30:-0.472595 31:-0.328222 32:-0.0583207 33:-0.726704 34:0.185145 35:0.165034 36:0.637974 37:-0.24262 38:-0.636717 39:-0.602637 40:0.160985 
-3.103854254369907 -0.7994859329686254 -0.14471727270832 2.372188037734214 1:0.843618 2:0.0747521 3:0.0919731 4:-0.07406 5:-0.461553 6:-0.596873 7:-0.499673 8:-0.0954433 9:0.354612 10:-0.00815261 11:-0.534224 12:-0.289184 13:-0.775931 14:-0.382353 15:-0.409562 16:-0.366643 17:-0.0279867 18:0.319506 19:0.0520085 20:-0.245626 21:-0.259414 22:-0.308779 23:0.12765 24:0.184928 25:0.177847 26:-0.768471 27:-0.73394 28:-0.825055 29:-0.301646 30:-0.0473036 31:-0.108335 32:-0.063856 33:0.0287705 34:-0.145243 35:0.41508 36:0.698787 37:0.39197 38:-0.472907 39:-0.704808 40:-0.2371 
-1.904201477229206 -1.012459986355198 -0.7289854554960346 0.05320061994443875 1:0.133348 2:0.162201 3:0.10488 4:-0.210955 5:-0.709299 6:-0.794023 7:-0.42436 8:-0.0759268 9:0.0585965 10:0.245569 11:-0.844461 12:-0.900625 13:-0.488848 14:-0.279316 15:-0.660098 16:-0.465156 17:0.257664 18:0.0209594 19:-0.247941 20:0.094026 21:0.718908 22:-0.420016 23:0.385482 24:0.73199 25:0.0139964 26:-0.617997 27:0.191623 28:-1 29:-0.0522466 30:0.225086 31:0.308403 32:-0.0983796 33:-0.397277 34:0.155952 35:0.668326 36:0.66401 37:0.0856014 38:-0.141328 39:-0.520678 40:0.0426128 
-0.5066032482689419 -0.6447797526337193 -1.935450994276646 0.1809088870552985 1:-0.878411 2:-0.20995 3:-0.0129757 4:-0.223579 5:-0.55978 6:-0.579481 7:-0.64126 8:-0.587211 9:-0.277194 10:-0.527352 11:0.0870194 12:-0.72107 13:-0.334311 14:-0.571357 15:-0.360758 16:-0.455646 17:0.180672 18:0.138034 19:-0.386389 20:-0.114383 21:0.0891199 22:-0.746175 23:0.244208 24:0.467887 25:-0.0669111 26:-0.894259 27:-0.533582 28:-0.56095 29:-0.198984 30:0.0321082 31:-0.0467055 32:-0.15859 33:-0.466456 34:0.64863 35:-0.652226 36:-0.506933 37:0.238625 38:-0.822012 39:-0.792798 40:0.700011 
-1.059464949033191 -1.456347900018042 -0 0.5385576869847926 1:0.926496 2:-0.186746 3:0.163581 4:-0.0138468 5:-0.708441 6:-0.787952 7:-0.61275 8:-0.407433 9:-0.214343 10:0.133453 11:-0.339014 12:-0.680664 13:-0.917277 14:-0.489079 15:-0.701812 16:-0.596958 17:0.86559 18:0.524942 19:-0.0935882 20:-0.354275 21:-0.120469 22:-0.757903 23:-0.0212857 24:0.243322 25:0.042517 26:-0.870072 27:-0.837682 28:-0.86022 29:-0.483863 30:-0.297995 31:-0.339265 32:0.0523318 33:-0.145547 34:0.566706 35:-0.335704 36:0.284134 37:-0.858568 38:-0.772933 39:-0.627677 40:-0.064302 
-0 -0 -1.423029952019863 1.025741592811465 1:-0.983439 2:-0.190395 3:0.0763039 4:0.333599 5:-0.784173 6:-0.792479 7:-0.750674 8:-0.404805 9:0.0202639 10:0.0833023 11:-0.367828 12:-0.513274 13:-0.831131 14:-0.77879 15:-0.822177 16:-0.73707 17:0.790111 18:0.420707 19:0.0850614 20:-0.832251 21:-0.924714 22:-0.499906 23:0.139835 24:0.214933 25:-0.0494282 26:-0.76344 27:-0.0783551 28:-0.421486 29:-0.797436 30:-0.653916 31:-0.738236 32:-0.502241 33:0.39741 34:0.695855 35:0.304467 36:-0.790528 37:-0.211449 38:-0.514015 39:0.451573 40:0.359174 
-2.330910620367521 -0.6979888984265159 -0.379904994520624 0 1:-0.939558 2:-0.0404641 3:-0.0348942 4:0.363997 5:-0.837372 6:-0.831933 7:-0.843225 8:-0.406951 9:-0.169393 10:0.0899765 11:-0.274321 12:-0.586378 13:-0.686549 14:-0.851146 15:-0.924814 16:-0.829835 17:0.792423 18:0.43851 19:0.0286276 20:-0.827459 21:-0.775651 22:-0.607495 23:0.242322 24:-0.0494118 25:0.0459765 26:-0.847264 27:-0.48442 28:-0.592743 29:-0.84441 30:-0.704582 31:-0.757877 32:-0.487144 33:-0.131675 34:0.920278 35:-0.599127 36:-0.745626 37:0.0396226 38:-0.154725 39:-0.0949384 40:0.474425 
-0.3268481641151416 -0 -0 0 1:-0.996791 2:-0.074592 3:0.0411351 4:0.324712 5:-0.884205 6:-0.878657 7:-0.885621 8:-0.530448 9:0.365011 10:-0.198948 11:0.0242231 12:-0.0914741 13:-0.755556 14:-0.914732 15:-0.954578 16:-0.885918 17:0.772275 18:0.425681 19:0.0626041 20:-0.914289 21:-0.898658 22:-0.775318 23:0.0563693 24:0.0265206 25:-0.136552 26:-0.575612 27:-0.515285 28:-0.388435 29:-0.931685 30:-0.846387 31:-0.886047 32:-0.373092 33:0.289762 34:0.734921 35:-0.385056 36:-0.373013 37:0.145314 38:0.494011 39:-0.133273 40:-0.137403 
-0.1212358310028461 -0.8011030017765423 -0 1.011453044895956 1:0.814335 2:-0.394024 3:0.5344 4:-0.459164 5:-0.255482 6:-0.207909 7:-0.339591 8:-0.360203 9:0.427616 10:-0.303809 11:-0.612996 12:-0.495102 13:-0.54391 14:-0.179505 15:-0.0219244 16:-0.0216811 17:0.157921 18:0.192124 19:-0.132053 20:-0.156048 21:-0.0544229 22:-0.481705 23:0.119759 24:0.389596 25:0.330675 26:-0.910082 27:-0.547655 28:-0.804249 29:-0.250837 30:-0.134931 31:-0.0875869 32:-0.112439 33:-0.585831 34:0.133356 35:0.230242 36:0.813405 37:-0.21167 38:-0.414784 39:-0.897017 40:0.260828 
-0 -0 -0.2098462110422851 1.020437270723643 1:0.729343 2:0.239429 3:-0.266151 4:-0.59249 5:-0.473611 6:-0.0666644 7:-0.449577 8:-0.558874 9:0.707492 10:-0.00980842 11:-0.0163795 12:0.331991 13:-0.93102 14:-0.121896 15:-0.176867 16:-0.128882 17:-0.417287 18:0.0660696 19:0.178714 20:0.285372 21:0.223694 22:-0.53646 23:0.109901 24:0.39103 25:0.381261 26:-0.950587 27:-0.234925 28:-0.624594 29:0.172802 30:-0.0201526 31:0.379516 32:-0.00338564 33:-0.512772 34:0.34235 35:0.35665 36:0.77551 37:-0.184052 38:-0.779773 39:-0.157952 40:-0.381455 
-0.8175320115094007 -0.8645320476913821 -0 1.318577199730105 1:0.878863 2:-0.047124 3:0.219055 4:-0.041087 5:-0.677003 6:-0.776956 7:-0.571011 8:-0.231862 9:0.102911 10:-0.21332 11:-0.396155 12:-0.629414 13:-0.892532 14:-0.529887 15:-0.613722 16:-0.557665 17:0.145215 18:0.16638 19:0.244719 20:-0.585048 21:-0.231771 22:-0.609937 23:0.467003 24:0.743805 25:0.362115 26:-0.334952 27:0.539876 28:-0.790947 29:-0.464646 30:-0.305552 31:-0.338332 32:-0.456051 33:-0.800549 34:0.0691847 35:0.218242 36:0.863978 37:-0.358505 38:-0.85307 39:-0.526847 40:-0.724956 
-0 -0 -0 0.153624833056368 1:-0.990747 2:-0.0713129 3:0.108556 4:0.313637 5:-0.752923 6:-0.75463 7:-0.808659 8:-0.65643 9:0.226039 10:-0.0894455 11:0.15546 12:-0.529699 13:-0.760359 14:-0.775073 15:-0.815025 16:-0.741724 17:0.910078 18:0.471082 19:0.495821 20:-0.813987 21:-0.69625 22:-0.593589 23:0.115739 24:0.117312 25:0.409417 26:-0.9295 27:-0.958941 28:-0.662956 29:-0.78003 30:-0.609051 31:-0.664589 32:-0.627478 33:0.607619 34:0.297209 35:0.697217 36:-0.740197 37:0.1848 38:-0.114582 39:-0.0690169 40:-0.888496 
-0 -0 -0 0.2380993938223565 1:-0.905361 2:-0.061691 3:-0.0668446 4:0.458852 5:-0.66176 6:-0.787537 7:-0.7719 8:-0.548114 9:-0.31243 10:0.77707 11:-0.222536 12:-0.546165 13:0.481949 14:-0.704519 15:-0.610627 16:-0.671616 17:0.768661 18:0.422266 19:0.280992 20:-0.853542 21:-0.702002 22:-0.502442 23:-0.223134 24:0.356696 25:-0.644426 26:-0.331104 27:-0.579425 28:0.334851 29:-0.765208 30:-0.560994 31:-0.688026 32:0.70601 33:0.28702 34:0.647559 35:0.443253 36:-0.757043 37:0.713704 38:-0.757436 39:-0.0937369 40:-0.864349 
-0.5255888441647233 -0 -0 0.1443759603174237 1:-0.0580685 2:0.0721942 3:-0.0145787 4:0.0343684 5:-0.430237 6:-0.78613 7:-0.658604 8:0.0824973 9:-0.102214 10:-0.560533 11:-0.0353417 12:-0.694964 13:-0.181606 14:-0.595606 15:-0.464286 16:-0.45436 17:0.598645 18:0.4805 19:0.0999212 20:-0.816112 21:-0.769691 22:0.028381 23:0.0881648 24:0.353204 25:-0.866841 26:-0.403282 27:-0.547648 28:0.738166 29:-0.648992 30:-0.0854668 31:-0.447765 32:-0.978704 33:0.346396 34:-0.813215 35:0.910744 36:-0.358738 37:0.64395 38:0.243954 39:0.150026 40:0.793213 
-0 -0 -0 5.103245613278261 1:-0.950115 2:-0.103047 3:-0.0183536 4:0.281929 5:-0.580603 6:-0.767625 7:-0.943436 8:-0.568583 9:0.26339 10:-0.186932 11:0.0455887 12:-0.207955 13:-0.707364 14:-0.657669 15:-0.7009 16:-0.651112 17:0.826295 18:0.453795 19:0.270173 20:-0.964921 21:-0.782089 22:-0.626427 23:0.174826 24:0.200859 25:0.649023 26:-0.87575 27:-0.620091 28:-0.211298 29:-0.872555 30:-0.63405 31:-0.782892 32:-0.0644612 33:0.685966 34:-0.141391 35:-0.472585 36:-0.153372 37:0.333045 38:-0.473274 39:-0.144975 40:0.094174 
-1.121690390129525 -0.1650560663604313 -0.4042427355734565 0 1:-0.894445 2:-0.119122 3:-0.140864 4:0.501101 5:-0.647098 6:-0.861636 7:-0.675228 8:-0.449701 9:-0.528605 10:0.885724 11:-0.456604 12:-0.189944 13:0.736575 14:-0.742002 15:-0.573986 16:-0.625756 17:0.784767 18:0.425899 19:0.136663 20:-0.939136 21:-0.779298 22:-0.438974 23:0.233665 24:0.00847898 25:-0.359993 26:-0.928082 27:-0.570338 28:-0.0192298 29:-0.815102 30:-0.638862 31:-0.710279 32:0.00745736 33:-0.0510612 34:0.529282 35:-0.632835 36:0.370656 37:0.606764 38:0.411993 39:-0.164357 40:-0.837369 
-0 -0 -8.203967911546394 4.665473575893267 1:0.934059 2:-0.164842 3:0.162607 4:0.25778 5:-0.619994 6:-0.686401 7:-0.777062 8:-0.568607 9:0.388208 10:-0.364335 11:-0.0744755 12:-0.194301 13:-0.422722 14:-0.673518 15:-0.617258 16:-0.619542 17:0.64808 18:0.476241 19:0.317479 20:-0.868453 21:-0.862796 22:-0.601294 23:0.281217 24:0.268965 25:0.602136 26:-0.817323 27:-0.784182 28:-0.37404 29:-0.844968 30:-0.660668 31:-0.752441 32:-0.461648 33:-0.324226 34:0.145953 35:0.104499 36:0.500836 37:0.389138 38:-0.389651 39:0.4086 40:0.298624 
