svm_type c_svc
kernel_type rbf
gamma 0.109766
nr_class 5
total_sv 273
rho 0.142754 0.244346 -0.087504 -0.0283247 0.128995 0.437541 -0.156127 0.0203698 -0.0390928 -0.47594
label 1 2 3 4 5
probA -3.68536 -3.32075 -3.05954 -3.38756 -3.75069 -3.29766 -3.43262 -3.2214 -2.66315 -3.41826
probB 0.111387 0.102924 0.196833 -0.172225 0.213212 -0.135035 -0.0759999 0.0891273 -0.0339988 -0.138954
nr_sv 63 53 52 56 49
SV
2.080015988210627 0 3.370800256821084 0.6287348715267667 1:0.129424 2:0.354282 3:-0.0122117 4:0.1155 5:-0.432114 6:-0.74799 7:-0.263725 8:0.0311821 9:0.239395 10:0.410333 11:-0.628931 12:-0.80359 13:-0.595602 14:-0.300901 15:-0.666118 16:-0.291593 17:0.494387 18:-0.716879 19:0.041208 20:-0.521598 21:-0.822882 22:-0.188725 23:-0.197039 24:0.357868 25:0.0581814 26:-0.607268 27:-0.507372 28:-0.559191 29:-0.625123 30:-0.638662 31:-0.573787 32:0.501878 33:-0.170377 34:0.775054 35:0.536591 36:-0.467138 37:0.743464 38:-0.314751 39:0.329868 40:0.442728 
1.012175880917592 0.2270778715738847 0.6687642534417506 0 1:-0.246664 2:0.522295 3:-0.22241 4:0.0419778 5:-0.816478 6:-0.763625 7:-0.275172 8:0.500707 9:-0.824032 10:0.428401 11:-0.263283 12:0.544451 13:-0.310078 14:-0.408837 15:-0.65031 16:-0.487695 17:0.542182 18:-0.303787 19:0.016977 20:-0.503936 21:-0.78285 22:-0.74446 23:-0.344645 24:0.343007 25:0.558634 26:-0.0525811 27:-0.140456 28:-0.362046 29:-0.69238 30:-0.657563 31:-0.654012 32:-0.791366 33:0.257131 34:0.63779 35:0.845132 36:-0.0746855 37:-0.77452 38:0.450587 39:0.897274 40:-0.000849442 
1.403271112153917 1.704826666129358 1.305289324688464 0.5949928242863599 1:-0.179291 2:0.469723 3:-0.207293 4:0.162864 5:-0.873073 6:-0.879716 7:-0.546244 8:0.791986 9:-0.697356 10:0.481247 11:0.383582 12:0.274685 13:-0.460993 14:-0.687326 15:-0.703904 16:-0.693574 17:0.52204 18:-0.400463 19:0.0296714 20:-0.774585 21:-0.884629 22:-0.850991 23:0.348627 24:0.17642 25:0.486722 26:-0.509185 27:-0.641728 28:-0.512224 29:-0.862851 30:-0.848927 31:-0.844555 32:-0.364169 33:-0.120947 34:0.619682 35:0.450298 36:0.09229 37:-0.704412 38:-0.64011 39:0.435241 40:0.793299 
0 1.567517933336693 3.197318270308356 0.2694733164646305 1:0.169804 2:0.0124409 3:-0.279571 4:-0.075232 5:-0.787106 6:-0.897816 7:-0.9312 8:0.0652846 9:0.551052 10:-0.134715 11:-0.490723 12:-0.065923 13:-0.713816 14:-0.787701 15:-0.872197 16:-0.838948 17:0.321609 18:-0.372831 19:-0.0594502 20:-0.839904 21:-0.737197 22:-0.66173 23:-0.252176 24:0.117588 25:-0.426789 26:-0.651288 27:-0.612011 28:-0.485148 29:-0.775856 30:-0.745632 31:-0.765856 32:0.726596 33:-0.985317 34:0.422158 35:0.326893 36:-0.825525 37:0.116242 38:-0.694431 39:0.998946 40:-0.538714 
1.871543152520912 0 7.779231193906791 0 1:0.20251 2:0.0673233 3:-0.271008 4:0.0749397 5:-0.871174 6:-0.919186 7:-0.914138 8:0.209469 9:0.685412 10:0.0198079 11:-0.500608 12:0.130775 13:-0.954661 14:-0.849876 15:-0.923246 16:-0.902792 17:0.370901 18:-0.415269 19:-0.0528601 20:-0.820582 21:-0.789223 22:-0.76175 23:-0.280238 24:0.19618 25:-0.26325 26:-0.740158 27:-0.750934 28:-0.656474 29:-0.802619 30:-0.811204 31:-0.806713 32:0.84633 33:-0.882663 34:0.68177 35:0.228812 36:-0.547205 37:0.108802 38:-0.714462 39:0.707201 40:-0.459806 
1.513791091944734 5.396816626732786 0 0 1:-0.896911 2:0.110825 3:-0.277218 4:-0.0198442 5:-0.805563 6:-0.954392 7:-0.920067 8:-0.412768 9:-0.664688 10:-0.391909 11:-0.337727 12:-0.0147082 13:-0.479144 14:-0.831644 15:-0.876903 16:-0.868063 17:0.140153 18:-0.609727 19:0.0249425 20:-0.896626 21:-0.923557 22:-0.818883 23:-0.32984 24:0.380187 25:0.608443 26:-0.665753 27:-0.130178 28:-0.317951 29:-0.868046 30:-0.884955 31:-0.866644 32:0.546689 33:-1 34:0.041303 35:0.687647 36:-0.914251 37:0.0337526 38:0.736918 39:-1 40:-0.0245774 
0 0 4.687199291583035 0 1:-0.980902 2:0.0782903 3:-0.205898 4:-0.0769652 5:-0.714225 6:-0.92684 7:-0.711955 8:-0.323262 9:0.0709612 10:0.783104 11:-0.557433 12:-0.717468 13:0.446294 14:-0.649613 15:-0.844884 16:-0.720356 17:0.478654 18:-0.357086 19:-0.00241849 20:-0.826008 21:-0.856756 22:-0.696167 23:0.468363 24:-0.0690072 25:-0.132195 26:-0.649089 27:-0.57415 28:-0.725427 29:-0.872327 30:-0.83847 31:-0.832102 32:0.207407 33:-0.342603 34:0.389325 35:0.514867 36:-0.400238 37:0.407067 38:0.517011 39:0.124448 40:0.284126 
2.153768666563305 0 0 0 1:-0.835309 2:0.514712 3:-0.257676 4:0.957407 5:0.0806519 6:-0.349114 7:0.109335 8:-0.303661 9:-0.784297 10:0.407768 11:-0.153768 12:0.364364 13:-0.549164 14:0.12256 15:-0.0523156 16:0.352398 17:0.377153 18:0.129626 19:0.0647687 20:0.103727 21:-0.179744 22:0.392805 23:-0.358291 24:-0.270373 25:0.498042 26:-0.429481 27:-0.655122 28:-0.413374 29:-0.0861355 30:0.117046 31:0.0482637 32:0.661106 33:0.276262 34:-0.122052 35:0.902316 36:-0.101839 37:-0.632393 38:-0.577326 39:0.747624 40:0.930822 
0.09288344894699575 0.6177801285119311 0.6213765358500697 0.5342349943645529 1:-0.752127 2:0.630812 3:-0.111315 4:0.624292 5:-0.111715 6:-0.15822 7:0.239316 8:-0.19804 9:-0.919765 10:0.439543 11:-0.244587 12:0.803164 13:-0.48191 14:0.109019 15:-0.175261 16:0.322193 17:0.773988 18:-0.124985 19:-0.00495304 20:1 21:1 22:0.232129 23:-0.247124 24:-0.149357 25:0.352703 26:-0.264966 27:-0.686806 28:-0.462873 29:1 30:1 31:1 32:0.651639 33:-0.0363687 34:-0.132628 35:0.876303 36:-0.514346 37:-0.674919 38:-0.0548252 39:0.716664 40:0.525801 
3.501646301677407 0 0 0 1:-0.816602 2:0.0996604 3:-0.323848 4:0.412568 5:-0.196003 6:-0.368736 7:-0.543764 8:-0.370557 9:-0.501991 10:0.159312 11:-0.191825 12:-0.0718543 13:-0.773085 14:-0.111729 15:-0.167329 16:-0.109779 17:0.578873 18:-0.485657 19:-0.118079 20:-0.298437 21:-0.0778471 22:-0.129477 23:-0.172246 24:-0.44498 25:0.549765 26:-0.415283 27:-0.625264 28:-0.403238 29:-0.0737147 30:-0.234103 31:-0.141033 32:0.952879 33:-0.53045 34:-0.638021 35:0.932479 36:-0.656804 37:-0.854521 38:-0.465352 39:0.585737 40:0.781356 
0 0.8830636986123233 0 0.5718585043368805 1:-0.887219 2:0.336149 3:-0.236056 4:0.0826243 5:0.595091 6:-0.15499 7:0.708603 8:-0.301835 9:-0.231693 10:-0.075493 11:-0.391354 12:-0.609359 13:-0.55292 14:0.86361 15:0.597339 16:0.941629 17:0.400648 18:-0.116249 19:-0.321701 20:0.0914522 21:0.31109 22:0.956626 23:-0.235829 24:-0.256469 25:0.376962 26:-0.509409 27:-0.692345 28:-0.540603 29:0.332969 30:0.306162 31:0.365285 32:0.721824 33:0.0431248 34:-0.551959 35:0.869108 36:-0.222718 37:-0.861742 38:0.19823 39:0.24764 40:0.113837 
0.2174071435103514 0 1.206381373266572 0 1:-0.830842 2:0.646846 3:-0.0994203 4:0.0343035 5:0.302819 6:-0.111859 7:-0.487259 8:-0.405928 9:-0.56719 10:0.462126 11:-0.284326 12:0.00087705 13:-0.564404 14:0.584908 15:0.0343859 16:0.360861 17:0.568688 18:-0.549343 19:-0.126623 20:-0.581272 21:-0.622443 22:0.4739 23:0.194852 24:-0.351156 25:0.475525 26:-0.707258 27:-0.467615 28:-0.568081 29:-0.327278 30:-0.552389 31:-0.383698 32:0.772527 33:-0.127701 34:-0.106446 35:0.829764 36:-0.18509 37:-0.350061 38:-0.027765 39:0.235213 40:0.847306 
0 0 2.394734198532703 0 1:-0.842865 2:0.657895 3:-0.174766 4:0.149412 5:0.309256 6:-0.187107 7:-0.334409 8:-0.221074 9:-0.369574 10:0.43697 11:-0.524283 12:-0.407137 13:-0.459796 14:0.638249 15:0.00290545 16:0.375388 17:0.559196 18:-0.495578 19:-0.0522805 20:-0.408748 21:-0.3496 22:0.617629 23:-0.296176 24:-0.275758 25:0.644222 26:-0.40069 27:-0.691217 28:-0.257818 29:-0.355627 30:-0.169722 31:-0.192486 32:0.924304 33:-0.600884 34:-0.62151 35:0.914754 36:-0.687203 37:-0.867809 38:0.515498 39:0.137184 40:0.167844 
0 0 0 0.04987910137022647 1:-0.815405 2:0.381466 3:-0.340466 4:0.429688 5:0.327252 6:-0.142242 7:0.0502153 8:-0.125689 9:-0.517111 10:0.716168 11:-0.637954 12:-0.0487042 13:0.0109511 14:0.741492 15:-0.0858501 16:0.516493 17:0.464638 18:-0.129396 19:-0.37965 20:0.00778728 21:-0.141494 22:0.80768 23:-0.64502 24:0.0462586 25:0.599315 26:0.114202 27:-0.713307 28:-0.22308 29:-0.150503 30:0.314743 31:0.0862831 32:0.661299 33:-0.0746077 34:-0.440279 35:0.844244 36:-0.313368 37:-0.733843 38:-0.0667184 39:0.243575 40:0.325228 
0 0.3334304937362159 0.3419339315194639 0.09210362447297339 1:-0.886944 2:-0.159052 3:-0.912738 4:0.25008 5:0.765608 6:0.0960142 7:0.345102 8:-0.540656 9:-0.464944 10:0.0598503 11:-0.162005 12:-0.517389 13:-0.394545 14:1 15:0.708485 16:1 17:0.341975 18:0.174894 19:-0.293657 20:0.000537095 21:0.257363 22:1 23:-0.221965 24:-0.44417 25:0.632109 26:-0.305666 27:-0.444651 28:-0.304957 29:0.247162 30:0.284208 31:0.329821 32:0.600429 33:-0.14754 34:-0.197809 35:0.777326 36:-0.272523 37:-0.566895 38:-0.417929 39:0.398423 40:0.701069 
2.144707786852983 0 0.9982057598845471 0.9335889007587194 1:-0.739114 2:0.411795 3:-0.701713 4:-0.0335212 5:0.128415 6:-0.102138 7:-0.238096 8:-0.172306 9:-0.468916 10:-0.365486 11:-0.715729 12:-0.422786 13:-0.232596 14:0.369349 15:-0.0238208 16:0.293246 17:0.504219 18:-0.274732 19:-0.217116 20:-0.411355 21:-0.21272 22:0.374897 23:-0.24047 24:-0.310077 25:0.623372 26:-0.505201 27:-0.679643 28:-0.344342 29:-0.203654 30:-0.353768 31:-0.173838 32:0.720096 33:0.0125711 34:-0.149606 35:0.532782 36:-0.0957109 37:-0.18445 38:-0.503825 39:0.29132 40:0.575984 
0 0 0.8830585203306465 0 1:-0.939333 2:-0.0109558 3:-0.127485 4:-0.0396172 5:-0.69862 6:-0.891225 7:-0.73055 8:0.114677 9:0.237692 10:0.0498754 11:-0.780578 12:-0.826556 13:-0.93715 14:-0.597195 15:-0.87132 16:-0.707752 17:0.370213 18:-0.437 19:0.208475 20:-0.820903 21:-0.844393 22:-0.450582 23:0.139955 24:-0.315905 25:0.289775 26:-0.80342 27:-0.697014 28:-0.684542 29:-0.781679 30:-0.747428 31:-0.762006 32:0.607495 33:-0.333852 34:0.342666 35:0.616455 36:-0.326251 37:0.310536 38:0.295094 39:-0.496227 40:0.528441 
8 0 0.6605653931841067 0 1:-0.952163 2:0.159088 3:-0.0833252 4:-0.124769 5:-0.65781 6:-0.906442 7:-0.789793 8:-0.581726 9:-0.00379366 10:0.244031 11:0.100817 12:-0.730034 13:-0.61125 14:-0.672706 15:-0.747603 16:-0.700293 17:0.495431 18:-0.401015 19:0.0790821 20:-0.771633 21:-0.904981 22:-0.580057 23:0.442765 24:0.00949642 25:0.416064 26:-0.672467 27:-0.793054 28:-0.590231 29:-0.819771 30:-0.775566 31:-0.802477 32:0.259978 33:-0.695683 34:0.0137759 35:0.566515 36:-0.689412 37:0.308725 38:0.121134 39:0.346775 40:0.393788 
0 0.2036190040272839 1.212643784311155 0 1:-0.92251 2:-0.0306635 3:-0.275279 4:-0.00672086 5:-0.646855 6:-0.868762 7:-0.762614 8:-0.27735 9:0.2253 10:0.419639 11:-0.611096 12:-0.411298 13:-0.300199 14:-0.549441 15:-0.832494 16:-0.675678 17:0.453999 18:-0.431169 19:0.0213555 20:-0.790559 21:-0.800371 22:-0.612172 23:0.474463 24:0.393173 25:-0.106082 26:-0.372661 27:-0.589862 28:-0.653009 29:-0.812495 30:-0.779964 31:-0.778232 32:0.299557 33:-0.688658 34:0.16012 35:0.309393 36:-0.656845 37:0.163504 38:0.889305 39:-0.3313 40:0.67983 
1.00059245921853 0.08476607458482412 0 0.1031562640826547 1:-0.942536 2:0.0545496 3:-0.633689 4:0.0207977 5:0.0187366 6:-0.381754 7:1 8:-0.463294 9:-0.548764 10:-0.551953 11:-0.258371 12:-0.258456 13:0.116283 14:0.57833 15:0.453518 16:0.696724 17:0.440801 18:0.0422324 19:-0.218161 20:0.220906 21:0.140446 22:0.0332947 23:-0.674886 24:-0.227773 25:0.598337 26:0.256095 27:-0.531094 28:-0.293422 29:0.132999 30:0.213571 31:0.202989 32:0.637461 33:-0.258799 34:-0.459327 35:0.961238 36:-0.442349 37:-1 38:-0.175315 39:0.227793 40:0.404296 
3.4596711449086 0 0.08872051157062308 0 1:-0.774299 2:0.554119 3:0.114303 4:0.114835 5:-0.476055 6:-0.584825 7:-0.460771 8:-0.0212316 9:-0.625535 10:0.398462 11:-0.572674 12:0.112742 13:-0.527833 14:-0.379667 15:-0.599735 16:-0.352341 17:0.358409 18:-0.20246 19:-0.121539 20:-0.460679 21:-0.439694 22:-0.00878561 23:-0.0839475 24:-0.00615413 25:0.686128 26:-0.548799 27:-0.922865 28:-0.153258 29:-0.384884 30:-0.25429 31:-0.374125 32:0.608931 33:0.0471719 34:-0.321428 35:0.706908 36:-0.435846 37:-0.75418 38:-0.151967 39:0.79662 40:0.660447 
5.697441682858793 0 0 0 1:-0.843466 2:0.697291 3:0.168076 4:0.468013 5:-0.251458 6:-0.469015 7:-0.241918 8:-0.470325 9:-0.553574 10:0.614905 11:-0.0585458 12:-0.252754 13:-0.189934 14:-0.155083 15:-0.383953 16:-0.0642573 17:0.340347 18:-0.416136 19:-0.0646332 20:-0.0646042 21:0.0221927 22:-0.120777 23:-0.259866 24:-0.168096 25:0.524231 26:-0.438896 27:-0.724505 28:-0.436011 29:0.0324783 30:0.0665326 31:-0.00154465 32:0.945407 33:-0.512894 34:-0.669084 35:0.897032 36:-0.628671 37:-0.929265 38:-0.24026 39:0.419534 40:0.697258 
0 0 5.415480188822548 4.070712149981974 1:0.112276 2:0.099344 3:-0.265153 4:-0.0495886 5:-0.447501 6:-0.729021 7:-0.564689 8:0.317348 9:0.168655 10:0.0840319 11:-0.482799 12:-0.756502 13:-0.871343 14:-0.335367 15:-0.686026 16:-0.429278 17:0.148369 18:-0.873321 19:-0.162529 20:-0.552028 21:-0.745205 22:-0.32722 23:-0.0811158 24:-0.0131422 25:-0.253989 26:-0.797261 27:-0.931396 28:-0.691902 29:-0.621976 30:-0.673032 31:-0.563125 32:0.570915 33:-0.534818 34:0.145972 35:0.598196 36:-0.641114 37:-0.156954 38:0.0588262 39:0.662092 40:0.446626 
0 0 2.900711724458351 0 1:-0.096477 2:0.584163 3:-0.145771 4:0.0879789 5:-0.747581 6:-0.909642 7:-0.637341 8:0.54968 9:-0.523493 10:0.424355 11:-0.317642 12:-0.223142 13:-0.418531 14:-0.698643 15:-0.766075 16:-0.683845 17:0.48178 18:-0.342522 19:0.000469281 20:-0.698386 21:-0.805854 22:-0.717177 23:0.183239 24:-0.265787 25:0.601425 26:-0.708817 27:-0.742283 28:-0.313594 29:-0.758919 30:-0.772805 31:-0.759413 32:-0.145616 33:0.191356 34:0.722333 35:0.388434 36:-0.10183 37:-0.754041 38:0.205805 39:0.107888 40:0.866812 
8 0.2928102649524633 4.029834803832269 3.070794405538876 1:-0.300357 2:0.444293 3:-0.301783 4:-0.00982197 5:-0.794271 6:-0.745118 7:-0.497094 8:0.0440645 9:-0.924103 10:0.277443 11:-0.687106 12:0.821937 13:-0.413282 14:-0.612188 15:-0.680957 16:-0.606574 17:0.608726 18:-0.458492 19:-0.0480058 20:-0.700783 21:-0.832879 22:-0.731414 23:-0.0291907 24:-0.158375 25:0.531899 26:-0.494575 27:-0.71232 28:-0.440043 29:-0.784954 30:-0.792646 31:-0.771542 32:0.705095 33:-0.214733 34:0.00539236 35:0.0876064 36:-0.0660338 37:-0.0396152 38:-0.44048 39:0.440218 40:0.740846 
3.694640850255428 0 8 8 1:0.126453 2:0.251737 3:-0.144423 4:-0.040774 5:-0.798733 6:-0.914799 7:-0.911474 8:0.582205 9:0.515924 10:0.231543 11:-0.0993799 12:-0.394162 13:-0.698995 14:-0.791328 15:-0.840206 16:-0.848799 17:0.626317 18:-0.444635 19:-0.34052 20:-0.811416 21:-0.791136 22:-0.796178 23:0.418394 24:0.0243167 25:0.126344 26:-0.731886 27:-0.343411 28:-0.670573 29:-0.827095 30:-0.814863 31:-0.792749 32:-0.164022 33:0.347071 34:-0.0196547 35:0.133676 36:0.38321 37:-0.241837 38:-0.340654 39:0.862848 40:-0.824199 
1.551968620587856 0.148678184498731 0 0 1:-0.939971 2:-0.0990592 3:-0.252969 4:0.00174407 5:-0.483846 6:-0.80231 7:-0.801407 8:-0.253061 9:0.286851 10:0.614906 11:-0.487999 12:-0.716177 13:-0.0359799 14:-0.406946 15:-0.64482 16:-0.538773 17:0.440338 18:-0.5569 19:0.152143 20:-0.850392 21:-0.824879 22:-0.551152 23:0.0936584 24:-0.0283871 25:-0.152025 26:-0.714111 27:-0.83377 28:-0.543099 29:-0.802517 30:-0.750384 31:-0.783804 32:-0.141898 33:-0.492595 34:-0.374558 35:-0.186633 36:-0.308987 37:-0.468742 38:0.443601 39:0.271842 40:0.283028 
0.1335295094070178 0.956333899272955 0 0.04740275916828185 1:-0.955319 2:0.318934 3:-0.105827 4:0.192931 5:0.286356 6:-0.587966 7:-0.284138 8:-0.509243 9:-0.0693257 10:0.0417695 11:-0.0460624 12:-0.893097 13:-0.509311 14:0.437266 15:-0.0392035 16:0.26557 17:0.450996 18:-0.695155 19:0.10701 20:-0.777032 21:-0.534047 22:0.0384887 23:0.207771 24:-0.288827 25:-0.212235 26:-0.658428 27:-0.688967 28:-0.638024 29:-0.533086 30:-0.539884 31:-0.489075 32:-0.28432 33:-0.144358 34:0.118676 35:-0.790107 36:0.166574 37:-0.0385508 38:-0.233568 39:-0.140042 40:0.26301 
0.6199977970511346 0 0.3715680568314046 0 1:-0.870986 2:-0.0835496 3:-0.432758 4:0.124044 5:-0.480471 6:-0.729952 7:-0.458435 8:-0.666426 9:-0.672697 10:0.532528 11:0.209171 12:0.102682 13:-0.232788 14:-0.500231 15:-0.579913 16:-0.405109 17:0.537437 18:-0.409994 19:0.468549 20:-0.707991 21:-0.673169 22:-0.37408 23:0.428819 24:-0.204384 25:0.317487 26:-0.609184 27:-0.750398 28:-0.715898 29:-0.675921 30:-0.584348 31:-0.620551 32:0.403894 33:-0.36866 34:-0.401438 35:0.296603 36:-0.189832 37:-0.614687 38:0.860827 39:-0.47175 40:0.554773 
1.672807796083104 0 0.2440106910678435 0 1:-0.699063 2:0.289665 3:-0.320784 4:-0.0275128 5:-0.601559 6:-0.628518 7:-0.456612 8:0.0688965 9:-0.312809 10:0.142823 11:-0.96809 12:-0.592834 13:-0.705147 14:-0.435752 15:-0.731445 16:-0.456201 17:0.397992 18:-0.131446 19:0.606606 20:-0.698557 21:-0.667085 22:-0.200462 23:0.178915 24:0.0611099 25:0.229076 26:-0.812757 27:-0.931604 28:-0.827039 29:-0.607422 30:-0.664969 31:-0.556463 32:0.228592 33:-0.01892 34:-0.030518 35:0.134298 36:-0.0617429 37:-0.158128 38:0.808617 39:-0.348496 40:0.614314 
0.3024650463093065 0 1.717167795019376 0 1:0.151915 2:0.364639 3:-0.125285 4:-0.213383 5:-0.66613 6:-0.83707 7:-0.758676 8:-0.0489892 9:-0.102044 10:-0.0632229 11:-0.680399 12:-0.606723 13:-0.74682 14:-0.580005 15:-0.77382 16:-0.673341 17:0.304476 18:-0.464474 19:0.100662 20:-0.759882 21:-0.729098 22:-0.591389 23:-0.311666 24:-0.51642 25:0.339398 26:-0.531138 27:-0.356246 28:-0.602773 29:-0.740645 30:-0.798554 31:-0.723036 32:0.847045 33:-0.544567 34:0.299965 35:0.824315 36:-0.694685 37:0.0411428 38:-0.284931 39:0.688461 40:0.684723 
0 6.034747126479375 1.518482477677443 3.087117205877672 1:0.115484 2:0.460524 3:-0.189354 4:-0.143764 5:-0.803177 6:-0.906036 7:-0.892678 8:0.263229 9:0.295623 10:0.0279952 11:-0.50352 12:-0.765606 13:-0.592985 14:-0.767456 15:-0.869851 16:-0.829083 17:0.425188 18:-0.442744 19:-0.0697196 20:-0.939971 21:-0.899018 22:-0.729511 23:0.318302 24:0.505287 25:-0.333371 26:-0.737195 27:-0.480553 28:-0.31529 29:-0.902611 30:-0.911056 31:-0.893229 32:0.34915 33:-0.424608 34:-0.272211 35:0.51779 36:-0.236943 37:-0.473041 38:0.402566 39:-0.106901 40:-0.683308 
0.3901256453837649 0.6179426772194748 0 0 1:-0.928122 2:-0.130495 3:-0.498097 4:-0.0895159 5:-0.320251 6:-0.805678 7:-0.639383 8:-0.540001 9:-0.300019 10:0.242542 11:-0.109918 12:-0.516966 13:-0.785697 14:-0.250468 15:-0.536149 16:-0.362346 17:0.448678 18:-0.610203 19:0.0539154 20:-0.682478 21:-0.727092 22:-0.589719 23:0.0250046 24:-0.0376363 25:0.0282277 26:-0.786536 27:-0.780757 28:-0.803028 29:-0.702581 30:-0.728293 31:-0.689535 32:0.183318 33:-0.746251 34:-0.186604 35:0.286474 36:-0.902423 37:-0.154341 38:0.501482 39:-0.133612 40:0.811322 
1.095403318724939 6.254014098173501 5.003943167632824 6.276199358262049 1:0.169337 2:0.205737 3:-0.21295 4:-0.0769566 5:-0.874592 6:-0.919062 7:-0.833473 8:0.506322 9:0.423394 10:-0.429456 11:-0.175757 12:-0.0828695 13:-0.463461 14:-0.879043 15:-0.854214 16:-0.878276 17:0.160634 18:-0.583116 19:-0.174883 20:-0.870384 21:-0.901313 22:-0.790354 23:-0.149463 24:-0.47435 25:-0.433304 26:-0.81752 27:-0.545695 28:-0.527051 29:-0.87891 30:-0.889444 31:-0.852002 32:0.0944079 33:-0.247838 34:-0.298729 35:0.147743 36:-0.0517238 37:-0.435643 38:0.410061 39:-0.197839 40:0.771431 
2.733493424538345 4.384493016329319 2.586574295480401 8 1:-0.887648 2:0.00155735 3:-0.281928 4:-0.141565 5:-0.681614 6:-0.836717 7:-0.936797 8:-0.2777 9:0.0702213 10:-0.0063353 11:-0.427404 12:-0.553013 13:-0.94626 14:-0.666235 15:-0.820065 16:-0.735083 17:0.461286 18:-0.393536 19:-0.00726989 20:-0.899906 21:-0.830763 22:-0.614377 23:0.318727 24:0.255086 25:-0.178211 26:-0.727979 27:-0.89573 28:-0.590955 29:-0.824872 30:-0.842018 31:-0.825342 32:-0.521903 33:0.192776 34:-0.35089 35:-0.284543 36:0.421498 37:-0.262912 38:-0.0680251 39:-0.173552 40:0.158411 
0.9704402927202519 1.175170329793529 0.9107589499872131 0 1:-0.923145 2:0.0859464 3:-0.171938 4:-0.0582725 5:-0.617251 6:-0.87389 7:-0.89588 8:-0.771454 9:-0.410495 10:0.540409 11:0.467508 12:-0.202244 13:-0.161289 14:-0.662233 15:-0.752151 16:-0.688436 17:0.436068 18:-0.458882 19:-0.0388912 20:-0.866042 21:-0.86796 22:-0.699024 23:0.570774 24:0.130093 25:0.281529 26:-0.324258 27:-0.766859 28:-0.639024 29:-0.873615 30:-0.826084 31:-0.851899 32:-0.0536538 33:-0.187282 34:-0.138898 35:-0.10811 36:-0.155115 37:-0.1654 38:1 39:-0.481633 40:0.586001 
0.116222539780561 0 1.741208644120487 0.4525227984253973 1:0.140888 2:0.352239 3:-0.180167 4:-0.0909186 5:-0.697625 6:-0.831985 7:-0.882016 8:0.10421 9:0.142036 10:-0.297631 11:-0.645261 12:-0.537914 13:-0.577722 14:-0.671474 15:-0.811601 16:-0.735446 17:0.22139 18:-0.458724 19:-0.157913 20:-0.766497 21:-0.724116 22:-0.53813 23:0.0615683 24:0.119124 25:-0.285646 26:-0.62247 27:-0.720176 28:-0.602348 29:-0.728123 30:-0.713129 31:-0.711352 32:0.811256 33:-0.821232 34:0.599717 35:0.648995 36:-0.742058 37:0.489155 38:-0.670679 39:0.816231 40:-0.489104 
0.5249899391123377 2.86036698235655 7.6832860568406 8 1:0.158561 2:0.228289 3:-0.145187 4:-0.0518678 5:-0.779219 6:-0.885487 7:-0.963956 8:0.286717 9:0.517424 10:-0.0911318 11:-0.505455 12:-0.309516 13:-0.827756 14:-0.777994 15:-0.86679 16:-0.835847 17:0.286547 18:-0.33677 19:-0.130666 20:-0.896475 21:-0.844928 22:-0.706731 23:-0.377419 24:0.509797 25:-0.470037 26:-0.463989 27:-0.448578 28:-0.357989 29:-0.88269 30:-0.792913 31:-0.843217 32:-0.431862 33:-0.402779 34:-0.022938 35:-0.539534 36:-0.287619 37:-0.152561 38:-0.367259 39:0.861102 40:-0.754697 
2.579871996555028 1.080425431707748 0 1.200687001890604 1:-0.846985 2:0.104216 3:-0.209536 4:-0.129068 5:-0.833053 6:-0.87566 7:-0.900465 8:-0.00688748 9:0.0526903 10:0.0619442 11:-0.637687 12:-0.873889 13:-0.888817 14:-0.808905 15:-0.918964 16:-0.859136 17:0.456892 18:-0.465967 19:0.0514818 20:-0.78248 21:-0.840211 22:-0.656393 23:0.531609 24:0.392391 25:0.101977 26:-0.552648 27:-0.664239 28:-0.705807 29:-0.834696 30:-0.811455 31:-0.799767 32:-0.168919 33:-0.155553 34:-0.099607 35:0.177046 36:-0.052321 37:-0.0234233 38:-0.387744 39:0.0124974 40:-0.341052 
5.002317255409021 0.9002741276389292 3.90424134154747 4.517657235168636 1:0.136925 2:0.239584 3:-0.217536 4:-0.0255463 5:-0.836346 6:-0.932347 7:-0.955614 8:0.14959 9:0.188155 10:-0.107505 11:-0.693346 12:-0.510549 13:-0.928287 14:-0.809352 15:-0.923418 16:-0.894599 17:0.209474 18:-0.41889 19:-0.0715578 20:-0.946431 21:-0.885062 22:-0.786112 23:-0.250694 24:-0.0875917 25:0.0905683 26:-0.70722 27:-0.717018 28:-0.573313 29:-0.908389 30:-0.888032 31:-0.885987 32:-0.101856 33:-0.448227 34:-0.0853248 35:-0.115425 36:-0.310776 37:-0.153002 38:0.215111 39:0.0222168 40:-0.304285 
3.954362655089292 0 8 0 1:0.123978 2:0.508901 3:0.0397273 4:-0.103065 5:-0.780375 6:-0.901452 7:-0.930988 8:0.371271 9:0.259644 10:-0.17026 11:-0.53579 12:-0.853464 13:-0.789945 14:-0.75376 15:-0.857476 16:-0.810159 17:0.207975 18:-0.275366 19:-0.264561 20:-0.923362 21:-0.900066 22:-0.785959 23:-0.147095 24:-0.0284017 25:0.430596 26:-0.794964 27:-0.856257 28:-0.522333 29:-0.874563 30:-0.878883 31:-0.869228 32:0.541014 33:-0.736684 34:0.489035 35:0.305463 36:-0.415231 37:0.665109 38:0.548145 39:-0.352039 40:-0.00561264 
4.945973281303469 3.509714139265442 3.447332396980448 2.79652315942969 1:-0.900016 2:0.126587 3:-0.316753 4:-0.0429984 5:-0.39308 6:-0.731773 7:-0.608212 8:-0.836313 9:-0.557664 10:0.543278 11:0.607855 12:-0.141924 13:-0.127736 14:-0.473499 15:-0.366804 16:-0.402988 17:0.556418 18:-0.392197 19:0.136797 20:-0.729052 21:-0.76485 22:-0.508317 23:0.282769 24:0.309595 25:0.54784 26:-0.620347 27:-0.561318 28:-0.408963 29:-0.801132 30:-0.700994 31:-0.716231 32:0.0938875 33:-0.0785957 34:0.131915 35:-0.198763 36:-0.0264957 37:-0.083818 38:0.0222606 39:0.176343 40:-0.179938 
1.514247168594132 0 0 0 1:-0.959448 2:0.119256 3:-0.206064 4:-0.0394881 5:-0.4272 6:-0.857952 7:-0.850863 8:-0.746847 9:0.0602103 10:0.452393 11:0.382642 12:-0.788145 13:-0.373535 14:-0.43291 15:-0.653188 16:-0.515261 17:0.344065 18:-0.439119 19:-0.0198475 20:-0.771 21:-0.78355 22:-0.440816 23:0.627275 24:0.12469 25:0.301184 26:-0.242103 27:-0.753957 28:-0.588877 29:-0.781337 30:-0.739549 31:-0.7281 32:-0.272397 33:-0.0709896 34:-0.527118 35:-0.109602 36:-0.231884 37:-0.276272 38:0.833876 39:-0.20976 40:0.343809 
0 0 5.990729341639977 2.560858621590883 1:0.144763 2:0.183509 3:-0.238627 4:-0.112098 5:-0.879336 6:-0.939595 7:-0.886521 8:0.249527 9:0.196234 10:-0.0323734 11:-0.726709 12:-0.752149 13:-0.859317 14:-0.85754 15:-0.949459 16:-0.908011 17:0.420441 18:-0.376292 19:-0.376766 20:-0.895918 21:-0.871631 22:-0.747261 23:0.271263 24:0.0641653 25:-0.296348 26:-0.677118 27:-0.90002 28:-0.734324 29:-0.872182 30:-0.851584 31:-0.851272 32:0.902748 33:-0.00372254 34:-0.1832 35:0.537648 36:0.562013 37:-0.566609 38:0.471857 39:-0.129511 40:0.666105 
0.1983645716813103 0 0 0.4627483754392975 1:-0.921463 2:0.0323756 3:-0.329228 4:-0.0190615 5:-0.775766 6:-0.921028 7:-0.849644 8:-0.337837 9:0.226735 10:0.730084 11:-0.502858 12:-0.728188 13:0.294687 14:-0.759678 15:-0.824996 16:-0.814699 17:0.354939 18:-0.511396 19:0.183773 20:-0.825111 21:-0.805453 22:-0.786514 23:0.694778 24:0.036943 25:-0.100445 26:0.138132 27:-0.843119 28:-0.700945 29:-0.807346 30:-0.808498 31:-0.80796 32:0.136271 33:-0.697338 34:-0.287952 35:0.555117 36:-0.742963 37:-0.0544565 38:0.1688 39:0.292507 40:0.317723 
0 0 1.394992735305533 0 1:0.197073 2:0.707084 3:-0.195167 4:0.0532328 5:-0.592998 6:-0.664167 7:-0.694416 8:0.294348 9:0.545325 10:-0.0418799 11:-0.626999 12:-0.197318 13:-0.68456 14:-0.459877 15:-0.609723 16:-0.532351 17:0.436752 18:-0.518092 19:-0.0570238 20:-0.818029 21:-0.699876 22:-0.435799 23:0.258107 24:-0.202646 25:-0.0460809 26:-0.660028 27:-0.562862 28:-0.745198 29:-0.725308 30:-0.666382 31:-0.698223 32:0.45201 33:-0.898393 34:0.594534 35:0.519445 36:-0.903269 37:0.746209 38:0.0197403 39:-0.409181 40:0.268131 
0.3577289124835725 0 4.463959817639371 0 1:-0.959457 2:0.119047 3:-0.241289 4:-0.0804284 5:-0.26684 6:-0.686391 7:-0.761726 8:-0.210408 9:-0.117629 10:-0.0465613 11:-0.569712 12:-0.922191 13:-0.829837 14:-0.108589 15:-0.652427 16:-0.327337 17:0.404351 18:-0.223712 19:0.211483 20:-0.743832 21:-0.630023 22:-0.0148766 23:0.0800942 24:0.0887288 25:0.410465 26:-0.951669 27:-0.829246 28:-0.48191 29:-0.61523 30:-0.660612 31:-0.544347 32:-0.20808 33:-0.304855 34:0.0271736 35:-0.348152 36:-0.517682 37:-0.00836336 38:0.235879 39:0.391844 40:0.147727 
1.711715572100021 3.264344523361093 0.4132480368639818 3.613306901543853 1:0.988793 2:-0.127415 3:-0.211716 4:-0.169812 5:-0.568968 6:-0.913043 7:-0.851133 8:-0.638482 9:0.313917 10:-0.371517 11:0.214031 12:-0.832785 13:-0.434428 14:-0.604989 15:-0.753896 16:-0.637443 17:0.54889 18:-0.523521 19:-0.0139624 20:-0.841528 21:-0.873708 22:-0.662786 23:0.27405 24:-0.0937696 25:-0.293952 26:-0.498369 27:-0.645533 28:-0.262051 29:-0.875846 30:-0.799895 31:-0.83304 32:-0.789024 33:-0.720602 34:0.696356 35:-0.25792 36:-0.486422 37:-0.225602 38:-0.501382 39:0.573694 40:-0.419119 
0.258946007534343 0 0.5087344366442192 0 1:-0.936399 2:0.12585 3:-0.29158 4:0.177262 5:0.106825 6:-0.652534 7:-0.453537 8:-0.7212 9:-0.260924 10:0.0106271 11:0.335287 12:-0.414577 13:-0.652708 14:0.0816153 15:-0.178809 16:0.0607808 17:0.269876 18:-0.400783 19:0.0673032 20:-0.531729 21:-0.374339 22:-0.0974436 23:0.319516 24:-0.414873 25:0.486698 26:-0.57157 27:-0.620307 28:-0.318462 29:-0.387853 30:-0.335289 31:-0.380222 32:0.36377 33:-0.29121 34:0.0415398 35:0.287179 36:-0.381249 37:0.145965 38:0.418689 39:-0.255088 40:0.691658 
2.906698861971763 5.125789567743365 0 1.438415365116262 1:-0.904823 2:-0.0335986 3:-0.238625 4:-0.135402 5:-0.326709 6:-0.678816 7:-0.833193 8:-0.422735 9:-0.233139 10:-0.251972 11:-0.308421 12:-0.735522 13:-0.631531 14:-0.243103 15:-0.51023 16:-0.384293 17:0.496706 18:-0.142626 19:0.170151 20:-0.842876 21:-0.796629 22:-0.230734 23:0.0489888 24:-0.0663585 25:0.253876 26:-0.973345 27:-0.96618 28:-0.732297 29:-0.673349 30:-0.693952 31:-0.68088 32:-0.361982 33:-0.525806 34:0.372535 35:-0.125866 36:-0.680301 37:0.477838 38:-0.69288 39:-0.0852836 40:-0.213042 
8 0 2.219484729034379 1.244219491924781 1:-0.948069 2:-0.00942004 3:-0.282993 4:0.0429862 5:-0.703449 6:-0.828883 7:-0.451134 8:-0.0532472 9:0.326026 10:-0.0988025 11:-0.794634 12:-0.768546 13:-0.905081 14:-0.380916 15:-0.823545 16:-0.565678 17:0.435483 18:-0.190807 19:0.105277 20:-0.699931 21:-0.710945 22:-0.369499 23:0.0510408 24:-0.103656 25:0.00421321 26:-0.681186 27:-0.904148 28:-0.75881 29:-0.660146 30:-0.769425 31:-0.647567 32:-0.37111 33:-0.0148507 34:0.169673 35:-0.234199 36:0.029291 37:0.26714 38:-0.446249 39:0.450144 40:0.0512185 
3.136648763672293 1.151403478295606 2.852674642778662 2.447692540128257 1:0.113714 2:0.241997 3:-0.153107 4:-0.0517169 5:-0.827297 6:-0.944309 7:-0.777055 8:0.191388 9:0.166722 10:-0.132002 11:-0.6873 12:-0.848785 13:-0.702153 14:-0.779669 15:-0.929645 16:-0.827843 17:0.250551 18:-0.487151 19:-0.00588439 20:-0.858013 21:-0.754272 22:-0.759193 23:0.115175 24:-0.88049 25:-0.0750263 26:-0.724109 27:0.404481 28:-0.704465 29:-0.82476 30:-0.750948 31:-0.789547 32:0.468202 33:-0.787307 34:0.309651 35:0.230591 36:-0.746576 37:0.317826 38:-0.514419 39:0.433279 40:-0.235586 
1.780173598485812 1.5347249392674 0.6367914284046198 1.160252846305958 1:-0.899053 2:-0.359459 3:-0.394742 4:-0.311337 5:0.00414199 6:-0.538991 7:0.0457907 8:-0.868358 9:-0.701362 10:-0.642327 11:0.663783 12:0.097356 13:0.397666 14:-0.181154 15:0.331611 16:0.185743 17:0.443697 18:-0.379201 19:0.142106 20:-0.775996 21:-0.884003 22:-0.407613 23:-0.834892 24:0.829561 25:0.564501 26:0.685477 27:0.470053 28:-0.189912 29:-0.783415 30:-0.644194 31:-0.754566 32:0.332267 33:0.172516 34:-0.124647 35:0.545769 36:0.0468824 37:-0.350685 38:-0.242296 39:0.224897 40:0.340092 
0.6229302821196937 0.4903285348002485 0.05664413971594091 1.763358310279737 1:-0.716553 2:0.684237 3:-0.395452 4:0.355099 5:-0.685322 6:-0.707519 7:-0.282624 8:0.0199278 9:-0.557355 10:0.500929 11:-0.431987 12:-0.0102957 13:-0.467133 14:-0.393005 15:-0.494642 16:-0.402225 17:0.603974 18:-0.380391 19:0.092816 20:-0.548925 21:-0.733704 22:-0.566495 23:-0.146623 24:0.961288 25:0.409454 26:-0.526278 27:0.902331 28:-0.635254 29:-0.6882 30:-0.531626 31:-0.63746 32:0.44111 33:0.142181 34:0.104149 35:0.847239 36:-0.296909 37:-0.416176 38:-0.701911 39:0.467905 40:0.758441 
0.4568505269820269 0 0 0 1:-0.38503 2:0.480303 3:-0.363802 4:0.233438 5:-0.813199 6:-0.752181 7:-0.354335 8:0.36075 9:-0.7927 10:0.722583 11:-0.377933 12:0.593748 13:0.15948 14:-0.52923 15:-0.555786 16:-0.523826 17:0.558613 18:-0.418652 19:-0.0208783 20:-0.566068 21:-0.864198 22:-0.681674 23:-0.429172 24:-0.247518 25:0.481986 26:0.0165271 27:-0.20898 28:-0.542208 29:-0.734327 30:-0.628996 31:-0.708526 32:-0.225512 33:-0.148278 34:0.848372 35:0.906522 36:-0.442757 37:-0.572706 38:-0.78024 39:0.460766 40:0.751075 
2.537373179017654 0 0 0 1:-0.377754 2:0.428555 3:-0.204772 4:-0.100101 5:-0.654228 6:-0.70673 7:0.00269768 8:-0.0997125 9:-0.86936 10:0.124933 11:-0.503481 12:0.722631 13:-0.355294 14:-0.209089 15:-0.516032 16:-0.252852 17:0.516149 18:-0.447469 19:0.141643 20:-0.547008 21:-0.734243 22:-0.516727 23:0.188345 24:0.495063 25:0.404156 26:-0.533149 27:0.117189 28:-0.623854 29:-0.695767 30:-0.548936 31:-0.629867 32:0.298641 33:-0.621268 34:0.195718 35:0.486855 36:0.0209125 37:-0.187528 38:-0.165741 39:0.503097 40:0.486609 
0 0 1.771471829083809 0 1:0.103409 2:0.585671 3:0.164988 4:-0.141942 5:-0.711111 6:-0.784515 7:-0.566569 8:0.393305 9:-0.414941 10:0.255638 11:-0.142116 12:-0.649208 13:-0.776186 14:-0.556473 15:-0.74858 16:-0.59374 17:0.214441 18:-0.939612 19:0.0959301 20:-0.605035 21:-0.737449 22:-0.572875 23:-0.220702 24:-0.686245 25:-0.192291 26:-0.654234 27:-0.121991 28:-0.684332 29:-0.669083 30:-0.68288 31:-0.608259 32:0.487736 33:-0.639196 34:0.667309 35:0.819727 36:-0.383522 37:0.494798 38:-0.184168 39:0.526068 40:0.361014 
1.307543909370914 0.7748283658219661 2.58862383009916 0 1:0.122993 2:0.234221 3:-0.321097 4:-0.144013 5:-0.731671 6:-0.895364 7:-0.799728 8:0.270375 9:0.506312 10:-0.230308 11:-0.617592 12:-0.300927 13:-0.837054 14:-0.671246 15:-0.79838 16:-0.757166 17:0.250324 18:-0.655546 19:-0.084144 20:-0.819531 21:-0.861941 22:-0.599395 23:0.656352 24:-0.242049 25:-0.158318 26:0.0900983 27:-0.635474 28:-0.456577 29:-0.833109 30:-0.794568 31:-0.787349 32:0.87925 33:-0.625882 34:0.71483 35:1 36:-0.388636 37:0.765574 38:-0.400525 39:-0.496303 40:0.11905 
0 0 0.01446575506316458 0 1:0.160247 2:0.287881 3:0.0170052 4:-0.0684375 5:-0.60668 6:-0.73339 7:-0.905884 8:0.289648 9:0.299948 10:-0.074428 11:-0.681613 12:-0.767389 13:-0.919971 14:-0.503108 15:-0.765623 16:-0.63553 17:0.332836 18:-0.511945 19:-0.170376 20:-0.928449 21:-0.919018 22:-0.399841 23:0.0962064 24:-0.0555869 25:-0.310424 26:-0.800802 27:-0.880517 28:-0.561686 29:-0.758841 30:-0.830764 31:-0.79707 32:0.921859 33:-0.550258 34:0.413074 35:0.90136 36:-0.590393 37:0.406753 38:0.716702 39:-0.615579 40:0.879314 
0 0 3.211745246652318 0 1:0.149342 2:0.653699 3:0.135509 4:-0.137939 5:-0.574824 6:-0.74403 7:-0.917321 8:0.32062 9:0.298158 10:-0.249516 11:-0.364478 12:-0.512871 13:-0.595825 14:-0.447053 15:-0.639467 16:-0.590847 17:0.160288 18:-0.454631 19:-0.0753827 20:-0.926887 21:-0.867368 22:-0.419101 23:0.158032 24:0.279677 25:-0.307722 26:-0.980513 27:-0.682232 28:-0.682861 29:-0.771973 30:-0.779543 31:-0.781932 32:0.690661 33:-0.545927 34:0.541812 35:0.534961 36:-0.393801 37:0.441002 38:0.13712 39:-0.261369 40:0.216777 
0 0.6916083087215412 0.8161457277487734 1.889468956155656 1:1 2:-0.48547 3:-0.238186 4:-0.11298 5:-0.525608 6:-0.822015 7:-0.681255 8:-0.0491575 9:0.467875 10:-0.0195911 11:-0.715842 12:-0.5122 13:-0.635463 14:-0.308058 15:-0.718952 16:-0.52047 17:0.575284 18:-0.634608 19:0.586755 20:-0.796402 21:-0.562476 22:-0.330676 23:0.465377 24:0.616976 25:0.183793 26:-0.632572 27:-0.229187 28:-0.645051 29:-0.54987 30:-0.652075 31:-0.55745 32:0.247151 33:-0.519352 34:0.457227 35:0.50502 36:0.265752 37:0.709519 38:-0.240499 39:-0.163011 40:0.647641 
0 0.9730114455253956 0 0 1:0.139154 2:0.367425 3:-0.129177 4:-0.0455272 5:-0.636767 6:-0.852185 7:-0.853544 8:0.10223 9:0.48665 10:-0.0527969 11:-0.693324 12:-0.357663 13:-0.851546 14:-0.578744 15:-0.784098 16:-0.686083 17:0.246618 18:-0.441484 19:-0.0741082 20:-0.797273 21:-0.791986 22:-0.669082 23:-0.356789 24:0.102213 25:-0.258398 26:-0.666577 27:-0.717096 28:-0.507099 29:-0.820514 30:-0.788409 31:-0.780695 32:0.638681 33:-0.851918 34:-0.0710357 35:0.344101 36:-0.515665 37:-0.120122 38:0.412563 39:-0.056411 40:0.842907 
0.3396804920862614 1.449882199782602 0 0 1:-0.950741 2:-0.308365 3:-0.0988687 4:-0.172422 5:-0.397474 6:-0.790737 7:-0.740341 8:-0.54551 9:0.143858 10:0.305534 11:-0.0477011 12:-0.647425 13:-0.177731 14:-0.440584 15:-0.63789 16:-0.440234 17:0.460485 18:-0.517538 19:0.319293 20:-0.713894 21:-0.727527 22:-0.462212 23:0.218149 24:0.147851 25:-0.114189 26:-0.70937 27:-0.842704 28:-0.692731 29:-0.716492 30:-0.712953 31:-0.673739 32:-0.122402 33:-0.457965 34:-0.410333 35:-0.049392 36:-0.501654 37:-0.360595 38:0.591111 39:0.0921176 40:0.467651 
-0.2943493989981534 1.599515065656871 0 0.7386983562594005 1:-0.241361 2:0.175866 3:-0.22136 4:0.175939 5:-0.395166 6:-0.488886 7:-0.114108 8:-0.264875 9:-0.684278 10:0.114224 11:-0.0632166 12:0.0180327 13:-0.130373 14:-0.328297 15:-0.281047 16:-0.13478 17:0.506651 18:-0.389995 19:-0.0933768 20:-0.673426 21:-0.783033 22:-0.644672 23:-0.279784 24:-0.138637 25:-0.16 26:-0.412497 27:-0.628862 28:-0.422004 29:-0.757936 30:-0.737477 31:-0.729278 32:0.676413 33:-0.150423 34:0.499659 35:-0.0440717 36:-0.187984 37:-0.0157317 38:-0.578193 39:0.214069 40:-0.479328 
-2.137624463208907 1.610018539846318 3.138165375004841 3.39136908966943 1:0.188445 2:0.365625 3:-0.135809 4:-0.227814 5:-0.889972 6:-0.912295 7:-0.713919 8:0.313191 9:0.353927 10:-0.420454 11:-0.602924 12:-0.522988 13:-0.0433284 14:-0.804619 15:-0.792331 16:-0.807769 17:0.348684 18:-0.425422 19:-0.169674 20:-0.848903 21:-0.87253 22:-0.864426 23:-0.381474 24:0.035834 25:-0.0791147 26:-0.370494 27:-0.670327 28:-0.689545 29:-0.885615 30:-0.882407 31:-0.87087 32:-0.167617 33:-0.733919 34:0.383703 35:-0.0825209 36:-0.999014 37:0.584805 38:-0.548929 39:0.678064 40:-0.833977 
-0 0 0 0.159675041806968 1:-0.525755 2:0.0850116 3:-0.477744 4:0.0679504 5:-0.664003 6:-0.304052 7:-0.0853921 8:-0.448103 9:-0.888014 10:0.000434116 11:-0.282874 12:0.717909 13:-0.358249 14:-0.23284 15:-0.367242 16:-0.176266 17:0.458284 18:-0.426368 19:0.0272493 20:-0.707406 21:-0.81975 22:-0.664941 23:-0.115028 24:-0.387481 25:0.219776 26:-0.617316 27:-0.565215 28:-0.788136 29:-0.778155 30:-0.807933 31:-0.762672 32:0.568195 33:-0.50993 34:-0.066093 35:0.108914 36:-0.263876 37:0.216945 38:-0.544247 39:0.192348 40:-0.0629898 
-0 1.962178303460218 0 0 1:0.821918 2:-0.263077 3:0.062682 4:0.227729 5:-0.500491 6:-0.564219 7:-0.526346 8:-0.866694 9:0.678644 10:0.721416 11:0.649028 12:0.319505 13:0.103662 14:-0.589118 15:-0.246835 16:-0.381779 17:0.595873 18:-0.513129 19:-0.0341652 20:-0.762759 21:-0.875309 22:-0.752219 23:-0.277681 24:-0.22725 25:-0.0713211 26:-0.211461 27:-0.755438 28:-0.624592 29:-0.855499 30:-0.804594 31:-0.817191 32:0.768587 33:0.0650919 34:0.70107 35:-0.645024 36:-0.492898 37:-0.617653 38:-0.786777 39:-0.0347275 40:-0.51631 
-1.670990913286341 0 0.4902716050154869 0 1:-0.943164 2:-0.061553 3:0.0327977 4:0.365428 5:-0.313929 6:-0.690639 7:-0.261702 8:-0.352999 9:-0.141394 10:0.0453419 11:-0.491611 12:-0.933563 13:-0.602815 14:-0.159707 15:-0.602421 16:-0.190098 17:0.441268 18:-0.386063 19:-0.143478 20:-0.434131 21:-0.576122 22:-0.303765 23:0.387823 24:-0.184111 25:0.535105 26:-0.518254 27:-0.68253 28:-0.43845 29:-0.576325 30:-0.584894 31:-0.483618 32:0.467095 33:0.125598 34:-0.0291323 35:0.424155 36:-0.327289 37:-0.315549 38:-0.194409 39:0.714557 40:0.726752 
-4.890624286400249 0 0 0 1:-0.784998 2:0.40471 3:0.0481895 4:0.453753 5:-0.356714 6:-0.426452 7:0.320983 8:-0.345886 9:-0.822378 10:0.326263 11:-0.040271 12:0.562851 13:-0.669644 14:0.170773 15:-0.134151 16:0.142079 17:0.250203 18:-0.304264 19:-0.0128047 20:-0.0910825 21:-0.0779298 22:-0.352162 23:0.0773079 24:-0.374986 25:0.564706 26:-0.470343 27:-0.599534 28:-0.316932 29:-0.090181 30:-0.324583 31:-0.0878445 32:0.869387 33:-0.0763852 34:-0.0764163 35:0.682165 36:-0.200873 37:-0.235183 38:-0.521529 39:0.600468 40:1 
-1.12713825324568 0.3581089028899962 0.8424936098179728 1.022581725138768 1:-0.579945 2:0.413956 3:-0.0486541 4:0.605272 5:-0.0483667 6:1 7:0.366749 8:0.0209204 9:-0.817163 10:0.395836 11:-0.793612 12:0.60325 13:-0.528309 14:0.378183 15:0.405896 16:0.922636 17:-0.0412045 18:0.0980572 19:0.27867 20:-0.0800774 21:-0.313716 22:0.347869 23:-0.237969 24:-0.0519768 25:0.419297 26:-0.742889 27:-0.902277 28:-0.714429 29:-0.184858 30:-0.0768521 31:-0.0812692 32:0.480142 33:0.0748251 34:-0.10721 35:0.253188 36:0.286808 37:-0.235432 38:-0.449256 39:0.560187 40:0.525255 
-0.6401540549323852 0 0 0 1:-0.860115 2:0.0809437 3:-0.0374365 4:0.654549 5:-0.226049 6:-0.447653 7:-0.133016 8:-0.303559 9:-0.258989 10:0.333197 11:-0.41767 12:-0.719555 13:-0.581343 14:-0.144271 15:-0.411648 16:0.00140171 17:0.390582 18:-0.332915 19:-0.00518083 20:-0.302796 21:-0.653706 22:-0.288497 23:-0.382888 24:-0.0511213 25:0.559697 26:-0.0674172 27:-0.799465 28:-0.385134 29:-0.533651 30:-0.488294 31:-0.452454 32:1 33:-0.225071 34:-0.343479 35:0.742081 36:-0.433088 37:-0.595531 38:0.112801 39:0.32537 40:0.840408 
-0 0.5414334863725222 0.005674756624433525 0 1:-0.849851 2:-0.131984 3:-0.0277811 4:-0.156379 5:-0.43857 6:-0.596203 7:0.383006 8:-0.104111 9:-0.0765698 10:-0.179838 11:-0.747795 12:-0.732897 13:-0.510644 14:0.132796 15:-0.186884 16:0.086428 17:0.410491 18:-0.355438 19:-0.00299374 20:-0.371471 21:-0.645538 22:-0.21916 23:-0.0907113 24:-0.375502 25:0.554269 26:-0.381211 27:-0.557726 28:-0.300988 29:-0.608541 30:-0.474646 31:-0.471587 32:0.742074 33:-0.254683 34:-0.0663121 35:0.477019 36:-0.614034 37:0.0797292 38:0.0403975 39:0.0638817 40:0.456201 
-2.506804326249673 0.3498762676055657 0.426953259154447 0.1100974137051889 1:-0.856452 2:0.365945 3:0.0731645 4:0.44689 5:-0.530984 6:-0.650658 7:-0.494543 8:-0.341917 9:-0.190875 10:0.491059 11:-0.350631 12:-0.73081 13:-0.452011 14:-0.459849 15:-0.646076 16:-0.406282 17:0.481074 18:-0.294104 19:-0.2596 20:-0.426324 21:-0.557597 22:-0.367704 23:-0.711921 24:-0.33981 25:0.522495 26:0.219665 27:-0.498095 28:-0.500593 29:-0.578056 30:-0.493494 31:-0.476943 32:0.920384 33:-0.196081 34:-0.336619 35:0.879952 36:-0.438815 37:-0.514353 38:-0.418134 39:0.244455 40:0.800309 
-5.551079207776725 0.1405505651495558 1.290278569245747 0 1:-0.794583 2:0.55272 3:0.471377 4:0.105588 5:-0.439023 6:-0.453363 7:-0.223895 8:-0.472083 9:-0.604342 10:0.680467 11:-0.086014 12:0.175593 13:0.133612 14:-0.372754 15:-0.502465 16:-0.176983 17:0.577366 18:-0.239779 19:-0.0924454 20:-0.309445 21:-0.308198 22:-0.001072 23:0.168545 24:-0.435627 25:0.716965 26:-0.392551 27:-0.463452 28:-0.0938372 29:-0.324237 30:-0.313246 31:-0.254859 32:0.692161 33:-0.440161 34:-0.439367 35:0.82887 36:-0.505856 37:-0.742791 38:-0.359336 39:-0.169478 40:0.646433 
-0 0.4244321681257738 0.4377209056379514 0.1035824205815401 1:-0.73393 2:0.36175 3:0.514782 4:0.710866 5:0.124691 6:0.559751 7:0.393332 8:-0.445226 9:-0.61968 10:0.165463 11:-0.0484526 12:0.276677 13:-0.713271 14:0.255254 15:0.609286 16:0.806381 17:-0.479232 18:0.170012 19:0.0514933 20:0.0168049 21:-0.219509 22:0.154317 23:-0.173794 24:-0.208867 25:0.594756 26:-0.164878 27:-0.521904 28:-0.201482 29:-0.18612 30:-0.239089 31:-0.00586525 32:0.830643 33:-0.000884178 34:-0.210972 35:0.60462 36:0.125055 37:0.0664966 38:-0.373769 39:0.394007 40:0.803085 
-1.859068113652024 0 0 0 1:-0.642164 2:0.103572 3:-0.225138 4:0.391302 5:-0.471875 6:-0.0455323 7:-0.329206 8:0.0181657 9:-0.815007 10:0.186827 11:-0.716507 12:0.538075 13:-0.671218 14:-0.293848 15:-0.272221 16:-0.067328 17:0.153568 18:-0.0526388 19:-0.0984545 20:-0.368151 21:-0.589116 22:-0.399639 23:-0.0969388 24:-0.235087 25:0.607114 26:-0.556339 27:-0.753093 28:-0.228202 29:-0.509555 30:-0.504189 31:-0.451622 32:0.720499 33:-0.00865415 34:-0.195321 35:0.59387 36:0.129296 37:-0.117484 38:-0.0139895 39:0.559882 40:0.551052 
-4.33080005861093 0 0.2649227012169724 1.859815151770402 1:-0.820067 2:0.271543 3:-0.0193514 4:0.199104 5:-0.54342 6:-0.574077 7:-0.179447 8:-0.505056 9:-0.303637 10:0.294416 11:-0.0632535 12:-0.43294 13:-0.510463 14:-0.297355 15:-0.33489 16:-0.268455 17:0.314083 18:0.0760879 19:-0.240673 20:-0.349726 21:-0.350964 22:-0.243349 23:0.207153 24:-0.31465 25:0.609526 26:-0.376924 27:-0.58269 28:-0.241641 29:-0.309582 30:-0.247253 31:-0.301964 32:0.681489 33:-0.632898 34:-0.37944 35:0.520957 36:-0.774916 37:-0.605706 38:-0.817072 39:0.604656 40:0.765911 
-0 0.2972754992041901 0 0 1:-0.135028 2:0.422589 3:-0.275021 4:-0.233523 5:-0.489959 6:-0.728935 7:-0.357387 8:0.64957 9:-0.757643 10:-0.87605 11:0.325094 12:0.409076 13:0.700198 14:-0.580234 15:-0.251792 16:-0.365561 17:0.555731 18:-0.394405 19:-0.0655515 20:-0.838712 21:-0.887153 22:-0.791665 23:0.164672 24:-0.189323 25:0.249333 26:-0.773434 27:-0.614089 28:-0.840411 29:-0.875115 30:-0.868017 31:-0.866807 32:0.0261218 33:-0.142206 34:-0.390783 35:0.472797 36:-0.277217 37:0.449099 38:0.374554 39:0.145423 40:0.471619 
-1.445114523594136 1.982691448867034 8 0.1304134235782434 1:0.127742 2:0.214813 3:-0.213625 4:-0.0527755 5:-0.89856 6:-0.948798 7:-0.877624 8:0.60484 9:0.610332 10:0.119478 11:-0.0394793 12:-0.405875 13:-0.764985 14:-0.901759 15:-0.939262 16:-0.921014 17:0.475064 18:-0.44479 19:-0.151318 20:-0.907129 21:-0.891991 22:-0.924597 23:0.255354 24:-0.0875122 25:0.740586 26:-0.724491 27:-0.467936 28:0.282868 29:-0.916944 30:-0.911077 31:-0.912611 32:0.32063 33:-0.572056 34:0.720156 35:-0.27264 36:-0.889514 37:0.533898 38:-0.651283 39:0.148897 40:-0.330496 
-2.512707611291729 0 0 0 1:-0.671671 2:0.1159 3:0.0318892 4:0.427597 5:-0.520784 6:-0.0775121 7:-0.176517 8:-0.400367 9:-0.805255 10:0.656893 11:-0.349798 12:0.5265 13:-0.180802 14:-0.278442 15:-0.300566 16:-0.0437414 17:0.768198 18:-0.370469 19:0.0709984 20:-0.37055 21:-0.346392 22:-0.338552 23:0.197229 24:-0.31852 25:0.51281 26:-0.461333 27:-0.656058 28:-0.453927 29:-0.371233 30:-0.397673 31:-0.340889 32:0.642265 33:-0.694963 34:-0.584582 35:0.608589 36:-0.552946 37:-0.61846 38:0.794349 39:0.0132712 40:0.495799 
-0 0 0 0.04172615343176053 1:-0.356936 2:0.460715 3:-0.767268 4:-0.517061 5:-0.577842 6:0.0871948 7:0.525684 8:0.742434 9:-0.978499 10:-0.746717 11:0.346427 12:0.940793 13:0.4957 14:-0.0485058 15:0.562174 16:0.355329 17:0.694012 18:-0.344568 19:0.0133958 20:-0.680051 21:-0.786222 22:-0.759639 23:-0.298323 24:-0.0280056 25:0.274321 26:-0.0881161 27:-0.592336 28:-0.786834 29:-0.791724 30:-0.809062 31:-0.740647 32:0.368034 33:-0.419245 34:0.101437 35:-0.16842 36:0.195898 37:-0.152147 38:-0.429416 39:0.233419 40:-0.102359 
-1.041678725924365 0 0 0 1:-0.565926 2:0.106741 3:-0.328534 4:-0.155309 5:-0.957798 6:-0.684232 7:-0.257341 8:0.110482 9:-0.579174 10:-0.484832 11:-0.731887 12:0.112577 13:0.0181321 14:-0.497745 15:-0.544307 16:-0.493338 17:0.444742 18:-0.368658 19:0.00070284 20:-0.730431 21:-0.782187 22:-0.82633 23:0.231042 24:0.342529 25:0.211153 26:-0.430066 27:-0.0449608 28:-0.845731 29:-0.831435 30:-0.810092 31:-0.775523 32:0.239699 33:-0.324497 34:0.345857 35:0.20637 36:0.166576 37:0.440751 38:-0.0502546 39:0.35783 40:0.483454 
-1.004377158286276 1.828788532876384 2.647475365587133 1.961727203664217 1:-0.632189 2:0.357272 3:-0.0832389 4:-0.125123 5:-0.931157 6:-0.846443 7:-0.846757 8:0.0364852 9:-0.325275 10:-0.181177 11:-0.784978 12:-0.304134 13:-0.629625 14:-0.88955 15:-0.906245 16:-0.874178 17:0.485475 18:-0.405263 19:-0.0147611 20:-0.800146 21:-0.936191 22:-0.697135 23:1 24:0.391053 25:0.625346 26:0.798827 27:-0.268009 28:-0.281692 29:-0.894218 30:-0.819615 31:-0.850654 32:-0.785038 33:0.521719 34:0.184866 35:-0.945363 36:0.182101 37:0.138947 38:-0.635169 39:-0.384016 40:-0.566493 
-1.2889309326965 0 0 0 1:-0.1304 2:0.46852 3:-0.28343 4:-0.147626 5:-0.675285 6:-0.755794 7:-0.146469 8:0.322707 9:-0.238434 10:-0.185338 11:-0.382155 12:-0.895429 13:-0.734171 14:-0.141421 15:-0.516006 16:-0.358459 17:0.324036 18:-0.397397 19:-0.0752543 20:-0.467054 21:-0.718482 22:-0.596673 23:0.11144 24:-0.24727 25:0.374661 26:-0.803911 27:-0.651341 28:-0.722243 29:-0.559597 30:-0.738706 31:-0.597776 32:0.32485 33:-0.274361 34:-0.146165 35:0.440851 36:-0.535022 37:-0.139118 38:-0.138173 39:0.771767 40:0.484917 
-7.877114019446003 2.325631167789798 4.490101670049891 3.790683472972813 1:-0.974715 2:0.0603254 3:-0.198147 4:0.0498205 5:-0.604304 6:-0.83612 7:-0.781242 8:-0.161103 9:-0.0679951 10:-0.0505452 11:-0.535665 12:-0.867764 13:-0.784772 14:-0.537059 15:-0.797836 16:-0.641829 17:0.476912 18:-0.414085 19:-0.0537828 20:-0.852956 21:-0.919403 22:-0.572225 23:-0.15556 24:0.279863 25:0.308152 26:-0.740641 27:-0.709628 28:-0.790869 29:-0.812466 30:-0.879551 31:-0.837544 32:0.0892242 33:-0.438371 34:-0.450711 35:0.0716934 36:-0.570945 37:-0.202089 38:0.0983399 39:0.701877 40:0.413924 
-1.913771758389793 0 0 0 1:-0.564639 2:0.0208663 3:-0.278174 4:0.157529 5:-0.78024 6:-0.512057 7:-0.4625 8:-0.513291 9:-0.93312 10:0.76495 11:-0.207805 12:0.832602 13:0.384452 14:-0.648965 15:-0.645041 16:-0.49252 17:0.480964 18:-0.220097 19:0.0230957 20:-0.885843 21:-0.896 22:-0.701715 23:0.270765 24:-0.394873 25:0.444665 26:-0.698284 27:-0.572506 28:-0.64501 29:-0.849284 30:-0.852111 31:-0.855342 32:0.45107 33:-0.068749 34:-0.338619 35:0.0838826 36:-0.102734 37:0.17759 38:-0.0583637 39:0.213969 40:0.681634 
-0.1204566625108689 0 0 0.1342655022781683 1:-0.399089 2:0.186469 3:-0.519631 4:-0.0914976 5:-0.547279 6:-0.213261 7:-0.047412 8:-0.459462 9:-0.894913 10:-0.0140817 11:-0.0456267 12:0.773625 13:-0.524384 14:-0.206326 15:-0.204808 16:-0.0747676 17:0.769119 18:-0.420936 19:-0.0809073 20:-0.644716 21:-0.821925 22:-0.485099 23:0.422802 24:-0.0860702 25:0.404916 26:-0.3581 27:-0.825646 28:-0.616112 29:-0.744965 30:-0.675942 31:-0.694912 32:-0.487244 33:-0.597196 34:-0.690017 35:0.388622 36:0.0501858 37:0.356199 38:0.669436 39:0.514648 40:0.539422 
-8 2.653212287240734 8 6.81418365613181 1:-0.402436 2:0.219966 3:-0.297378 4:0.0157006 5:-0.895788 6:-0.560229 7:-0.790189 8:-0.0454931 9:-0.225141 10:0.364727 11:-0.583668 12:-0.289328 13:-0.445857 14:-0.705018 15:-0.777763 16:-0.692617 17:0.481308 18:-0.370154 19:-0.0934921 20:-0.923868 21:-0.94092 22:-0.91324 23:-0.155977 24:0.0715374 25:0.123024 26:-0.686989 27:-0.725753 28:-0.75066 29:-0.954109 30:-0.953743 31:-0.945355 32:0.519065 33:-0.297139 34:0.53561 35:-0.0862899 36:-0.208271 37:-0.131418 38:-0.421609 39:0.0408467 40:-0.250301 
-0 0 0 2.801673450270015 1:0.842513 2:0.138669 3:0.0484958 4:0.0108775 5:-0.76584 6:-0.730127 7:-0.696118 8:-0.375696 9:-0.383521 10:-0.212967 11:-0.0966376 12:-0.243315 13:-0.641044 14:-0.713927 15:-0.787791 16:-0.685169 17:0.470427 18:-0.402038 19:0.0960425 20:-0.785516 21:-0.853417 22:-0.709313 23:-0.148266 24:-0.0325404 25:0.284436 26:-0.738588 27:-0.616563 28:-0.856624 29:-0.833732 30:-0.865058 31:-0.815116 32:0.0495989 33:-0.236021 34:-0.320234 35:-0.53483 36:-0.656589 37:-0.303485 38:-0.0163524 39:0.541881 40:-0.142521 
-1.547488380931739 0 2.041977233547681 1.615617006584079 1:0.64232 2:0.114479 3:0.157077 4:0.142874 5:-0.900353 6:-0.713982 7:-0.787891 8:-0.477271 9:0.682167 10:0.0866251 11:-0.242595 12:0.25767 13:-0.92893 14:-0.781209 15:-0.763738 16:-0.764311 17:0.42796 18:-0.397632 19:-0.0747887 20:-0.714987 21:-0.899676 22:-0.832795 23:-0.358366 24:-0.241328 25:0.307796 26:-0.276953 27:-0.573741 28:-0.699337 29:-0.80373 30:-0.830899 31:-0.818237 32:0.783287 33:-0.167905 34:0.098059 35:-0.762716 36:-0.0698493 37:-0.609015 38:-0.216127 39:0.428735 40:0.247123 
-0.4739991680173803 0 0.2072096045394575 0 1:-0.258412 2:0.591954 3:-0.377885 4:0.210099 5:-0.672938 6:-0.559332 7:-0.0387362 8:0.571249 9:-0.912472 10:0.863202 11:0.259696 12:0.755807 13:0.602289 14:-0.442076 15:-0.110059 16:-0.235229 17:0.49809 18:-0.394325 19:0.00762455 20:-0.752031 21:-0.935337 22:-0.780393 23:0.798984 24:-0.0640094 25:0.758719 26:0.382465 27:-0.732317 28:0.153296 29:-0.866232 30:-0.848029 31:-0.840699 32:-0.462792 33:0.0184027 34:0.00774236 35:-0.272881 36:0.161627 37:0.0701049 38:-0.253108 39:0.0293159 40:-0.226932 
-1.129144823414608 1.37602387060751 0.8007936218206686 1.54515372584525 1:0.973473 2:-0.067413 3:-0.145005 4:-0.139985 5:-0.593996 6:-0.945719 7:-0.740133 8:-0.922511 9:0.189859 10:-0.704113 11:0.804096 12:-0.96121 13:0.277283 14:-0.716725 15:-0.610924 16:-0.636563 17:0.473789 18:-0.411248 19:-0.0586269 20:-0.891023 21:-0.958001 22:-0.931442 23:0.707699 24:0.310461 25:0.707508 26:0.166548 27:-0.615999 28:0.419599 29:-0.952166 30:-0.943145 31:-0.942043 32:-0.942134 33:0.32664 34:0.168823 35:0.220994 36:0.614597 37:-0.371743 38:-0.734575 39:0.214045 40:-0.30691 
-0 0.5657390058928204 0 0.2606115187540096 1:0.955863 2:0.0198441 3:-0.103506 4:-0.175536 5:-0.693048 6:-0.943788 7:-0.778054 8:-0.939922 9:0.134635 10:-0.863134 11:0.844943 12:-0.743644 13:0.624406 14:-0.798478 15:-0.677952 16:-0.726695 17:0.463956 18:-0.400464 19:-0.0632462 20:-0.912071 21:-0.992722 22:-0.928644 23:0.965123 24:0.00296188 25:0.536669 26:0.668058 27:-0.829308 28:-0.474595 29:-0.969704 30:-0.959458 31:-0.962201 32:-1 33:0.195931 34:0.0898904 35:0.43521 36:-0.0831388 37:-0.154503 38:-0.92119 39:-0.123605 40:-0.161079 
-3.128949426313684 0.2983091451842589 1.895855832712725 0 1:-0.286497 2:0.383918 3:-0.458947 4:-0.0988225 5:-0.730831 6:-0.611423 7:-0.766025 8:0.597706 9:-0.841069 10:-0.51135 11:-0.223199 12:0.611323 13:-0.0178775 14:-0.754194 15:-0.561289 16:-0.633395 17:0.461172 18:-0.409518 19:-0.0892189 20:-0.926338 21:-0.946015 22:-0.856947 23:0.0224586 24:0.0775888 25:0.138989 26:-0.896791 27:-0.841131 28:-0.664627 29:-0.952835 30:-0.95797 31:-0.939938 32:0.315547 33:0.0858477 34:0.153181 35:0.105277 36:0.0373393 37:0.0281181 38:-0.0810605 39:0.0704253 40:0.413264 
-0 0.6262791821069364 0 1.276766238315817 1:-0.311549 2:0.258117 3:-0.564302 4:0.0134558 5:-0.727398 6:-0.484368 7:-0.0128481 8:0.674621 9:-0.831251 10:0.148179 11:0.35457 12:0.497124 13:-0.0930327 14:-0.31224 15:-0.268199 16:-0.225296 17:0.815523 18:-0.288114 19:0.0910772 20:-0.866097 21:-0.747611 22:-0.838661 23:-0.400041 24:0.581551 25:-0.0178655 26:-0.565189 27:-0.256131 28:-0.596922 29:-0.785946 30:-0.77852 31:-0.779041 32:-0.345207 33:-0.231133 34:-0.796588 35:0.802751 36:0.0785236 37:0.529443 38:0.0562935 39:0.224265 40:0.736579 
-1.600398745992633 2.911406147578125 3.184002874768377 2.393023195918309 1:-0.290988 2:0.307566 3:-0.339522 4:-0.00602289 5:-0.850899 6:-0.766696 7:-0.949116 8:0.472789 9:-0.955816 10:-0.120737 11:-0.0873292 12:0.881735 13:-0.672925 14:-0.885487 15:-0.798935 16:-0.829919 17:0.49091 18:-0.443214 19:-0.000914773 20:-0.974399 21:-0.974286 22:-0.816767 23:0.0166041 24:-0.462337 25:0.503358 26:-0.812948 27:-0.25567 28:-0.443684 29:-0.940323 30:-0.950046 31:-0.951713 32:-0.132215 33:-0.0137487 34:-0.353703 35:-0.335358 36:-0.123364 37:-0.0369747 38:-0.360781 39:0.471874 40:-0.65897 
-0.3110544713009539 0 0 0.258460886590492 1:0.936245 2:-0.0222799 3:-0.125394 4:0.124787 5:-0.751147 6:-0.903435 7:-0.754308 8:-0.95735 9:-0.0175158 10:0.813983 11:0.893338 12:-0.673362 13:0.434112 14:-0.851331 15:-0.695439 16:-0.751039 17:0.564747 18:-0.438966 19:-0.0100337 20:-0.882127 21:-0.926108 22:-0.839203 23:0.205886 24:0.0244295 25:0.363886 26:-0.787233 27:-0.793507 28:-0.760648 29:-0.918513 30:-0.912903 31:-0.907553 32:0.312757 33:-0.42589 34:-0.443931 35:-0.189673 36:-0.00635116 37:0.378258 38:-0.116907 39:0.44999 40:0.598264 
-2.439055693727375 2.518012932105457 0 4.772585655186412 1:-0.52587 2:0.238132 3:-0.0624966 4:0.0250143 5:-0.942518 6:-0.722167 7:-0.908226 8:-0.502147 9:-0.654893 10:0.178327 11:-0.125357 12:0.117829 13:-0.847568 14:-0.758165 15:-0.929123 16:-0.837477 17:0.749093 18:-0.256313 19:-0.0702934 20:-0.921515 21:-0.913394 22:-0.834814 23:0.390548 24:0.25811 25:0.234911 26:-0.7211 27:-0.530693 28:-0.759826 29:-0.900315 30:-0.870827 31:-0.884372 32:-0.669138 33:-0.133416 34:-0.555722 35:-0.650679 36:-0.376279 37:-0.680182 38:0.0801081 39:0.253171 40:0.082739 
-1.474013574715061 6.069342629255938 2.255204728246711 0 1:0.857115 2:0.0559846 3:-0.0306037 4:0.0601141 5:-0.75262 6:-0.801207 7:-0.813712 8:-0.779608 9:-0.0423585 10:-0.0780562 11:0.492455 12:-0.271625 13:-0.639808 14:-0.822367 15:-0.737396 16:-0.747152 17:0.416736 18:-0.407866 19:-0.0371582 20:-0.859809 21:-0.94024 22:-0.825332 23:-0.0256116 24:0.162379 25:0.327288 26:-0.754156 27:-0.728174 28:-0.649498 29:-0.901208 30:-0.93021 31:-0.904074 32:0.458696 33:0.0896717 34:0.44897 35:-0.496358 36:-0.275626 37:-0.620474 38:-0.0966914 39:0.389451 40:0.000275259 
-1.410802240553124 0 0.8414662787241264 4.717568906349594 1:0.334165 2:0.317472 3:-0.0427006 4:-0.3442 5:-0.920706 6:-0.859947 7:0.0826261 8:0.368722 9:0.663173 10:-0.262564 11:-0.689486 12:0.0969955 13:-0.41468 14:-0.0983403 15:-0.629192 16:-0.289852 17:0.0556642 18:-0.504544 19:-0.209265 20:-0.282221 21:-0.685276 22:-0.919486 23:-0.24249 24:0.258343 25:-0.134326 26:-0.64029 27:-0.669695 28:-0.83802 29:-0.496695 30:-0.546247 31:-0.496478 32:-0.263794 33:0.308114 34:0.199844 35:0.259909 36:-0.338518 37:0.719366 38:-0.384502 39:0.873156 40:-0.00114906 
-5.45678692016774 1.621450106010653 0.02070601535551587 3.859269219764875 1:-0.827687 2:0.1301 3:-0.197876 4:-0.0227878 5:-0.657623 6:-0.770653 7:-0.571656 8:-0.202585 9:-0.0471229 10:-0.204711 11:-0.838859 12:-0.927 13:-0.598797 14:-0.51419 15:-0.762659 16:-0.586928 17:0.4849 18:-0.353696 19:0.00462865 20:-0.792702 21:-0.83669 22:-0.543729 23:0.0528522 24:0.2645 25:0.343085 26:-0.524155 27:-0.922516 28:-0.749783 29:-0.805341 30:-0.774161 31:-0.780467 32:-0.660961 33:-0.184623 34:-0.294167 35:-0.271924 36:0.493902 37:0.348374 38:0.184955 39:-0.213923 40:-0.247177 
-2.315227899392165 0 0 0 1:-0.412089 2:0.367913 3:-0.44929 4:0.0240388 5:-0.557224 6:-0.508075 7:-0.511059 8:-0.0774523 9:-0.503716 10:-0.299113 11:-0.792905 12:-0.214133 13:-0.486557 14:-0.374264 15:-0.725652 16:-0.40392 17:0.488714 18:-0.411647 19:0.0710027 20:-0.706138 21:-0.910738 22:-0.308329 23:-0.216658 24:-0.108796 25:0.275689 26:-0.542582 27:-0.892377 28:-0.828923 29:-0.689212 30:-0.780915 31:-0.71298 32:-0.253269 33:0.229045 34:-0.249518 35:-0.0155131 36:0.219616 37:0.157463 38:0.0984008 39:-0.0657635 40:-0.000194834 
-5.151844527790352 0 0 1.115086877778638 1:-0.885312 2:0.0671702 3:-0.111699 4:0.0123805 5:-0.527076 6:-0.686776 7:-0.19174 8:-0.183494 9:0.0428309 10:-0.0956897 11:-0.507311 12:-0.886164 13:-0.729687 14:-0.139237 15:-0.531979 16:-0.30314 17:0.480501 18:-0.39267 19:0.138069 20:-0.477578 21:-0.769244 22:-0.482744 23:0.0778485 24:0.137542 25:0.159378 26:-0.773793 27:-0.627006 28:-1 29:-0.577922 30:-0.727448 31:-0.604928 32:0.0510402 33:-0.127772 34:-0.0340428 35:0.218992 36:-0.166349 37:0.263823 38:-0.174388 39:0.82175 40:0.0794521 
-0 0 0 0.6888711626713616 1:-0.393382 2:0.176891 3:-0.356105 4:0.130365 5:-0.705202 6:-0.523022 7:-0.0602483 8:-0.657088 9:-0.614189 10:0.652113 11:0.210924 12:0.032713 13:0.304949 14:-0.393762 15:-0.362077 16:-0.259975 17:0.485355 18:-0.411485 19:-0.0256144 20:-0.757294 21:-0.905815 22:-0.767704 23:-0.669598 24:0.0439215 25:0.208294 26:0.279331 27:-0.700301 28:-0.724519 29:-0.85122 30:-0.824007 31:-0.834126 32:0.786279 33:-0.0202802 34:0.384633 35:-0.304612 36:-0.340147 37:-0.0611811 38:-0.804741 39:0.0391569 40:-0.381291 
-0 0.7462100837447397 0 0 1:-0.254461 2:0.525689 3:-0.527094 4:-0.630229 5:-0.710967 6:-0.580668 7:0.232493 8:0.775003 9:-0.713222 10:-1 11:0.499486 12:0.215396 13:1 14:-0.459049 15:0.0390318 16:-0.069938 17:0.585811 18:-0.406369 19:-0.0316206 20:-0.844353 21:-0.815898 22:-0.864459 23:0.0611067 24:0.406804 25:0.36153 26:-0.809007 27:-0.154714 28:-0.632224 29:-0.854124 30:-0.817077 31:-0.840659 32:-0.18003 33:-0.333333 34:0.0175447 35:0.432866 36:-0.0169763 37:0.215022 38:0.276309 39:0.00644051 40:0.0553741 
-0.2078544829423544 1.499457835599199 0.00367473212127588 0 1:0.73261 2:0.0367866 3:0.0728879 4:0.0819787 5:-0.872041 6:-0.786141 7:-0.430327 8:-0.801245 9:0.647098 10:0.898709 11:0.493458 12:0.0566626 13:0.605665 14:-0.641689 15:-0.543553 16:-0.608135 17:0.470664 18:-0.385509 19:-0.0488189 20:-0.737471 21:-0.85067 22:-0.935368 23:-0.312249 24:0.752659 25:0.323686 26:-0.595987 27:0.455488 28:-0.631309 29:-0.801469 30:-0.863636 31:-0.820176 32:0.595274 33:-0.162458 34:0.382949 35:-0.295186 36:-0.0265872 37:0.0479328 38:-0.521303 39:-0.0514301 40:-0.196946 
-7.336695642300614 3.429524750146672 0.9721696265265732 0 1:-0.975124 2:0.0374245 3:-0.0567246 4:-0.0582378 5:-0.822245 6:-0.838019 7:-0.776498 8:-0.780818 9:0.394058 10:0.137264 11:0.486793 12:-0.867992 13:-0.894488 14:-0.775682 15:-0.889417 16:-0.79299 17:0.717283 18:-0.372042 19:-0.00530194 20:-0.846226 21:-0.78422 22:-0.821225 23:0.119804 24:0.0511651 25:0.502659 26:-1 27:-0.744582 28:-0.492207 29:-0.803892 30:-0.838185 31:-0.8092 32:-0.297128 33:-0.678029 34:0.0546456 35:0.0134445 36:-0.711345 37:0.405421 38:0.152361 39:-0.477075 40:0.51156 
-0 0 0.09924322038265553 0 1:0.941696 2:0.261176 3:0.64649 4:1 5:-0.441182 6:-0.699314 7:0.481729 8:-0.949557 9:0.228592 10:0.76667 11:0.8635 12:-0.845082 13:0.401266 14:0.125817 15:0.138594 16:0.203891 17:0.265019 18:-0.560055 19:-0.818298 20:-0.451855 21:-0.794309 22:-0.359398 23:-0.0446691 24:0.0601407 25:0.499492 26:-0.452881 27:-0.842272 28:-0.35804 29:-0.553261 30:-0.701032 31:-0.532769 32:0.744472 33:0.101139 34:-0.210299 35:-0.216409 36:0.628198 37:0.407617 38:-0.569741 39:0.0285165 40:0.204682 
-0.5137871255031236 0 2.528806054194918 0 1:0.298624 2:0.559244 3:1 4:0.0802459 5:-0.733116 6:-0.666103 7:-0.333952 8:0.449496 9:0.603058 10:-0.00192396 11:-0.526247 12:-0.13229 13:-0.594005 14:-0.429953 15:-0.477307 16:-0.396695 17:0.79389 18:-0.385113 19:-0.06209 20:-0.498747 21:-0.799113 22:-0.566423 23:0.350511 24:0.274581 25:0.888758 26:-0.524513 27:-0.18095 28:0.580104 29:-0.635384 30:-0.633871 31:-0.629991 32:0.548291 33:0.550907 34:0.646602 35:0.00810378 36:0.709447 37:1 38:0.0629037 39:0.858659 40:0.648705 
-3.669787132392518 0 7.981336850638432 2.335283469943496 1:-0.0923097 2:0.365626 3:-0.172437 4:-0.0994068 5:-0.766217 6:-0.813569 7:-0.577433 8:0.536872 9:0.150023 10:-0.188817 11:0.155253 12:-0.977914 13:-0.574417 14:-0.638505 15:-0.699055 16:-0.658804 17:0.647144 18:-0.461402 19:0.123405 20:-0.74024 21:-0.865874 22:-0.76451 23:0.227032 24:-0.0622921 25:0.329189 26:-0.750394 27:-0.827355 28:-0.656712 29:-0.797533 30:-0.835707 31:-0.800654 32:0.0517754 33:0.0939936 34:-0.0506886 35:0.226726 36:0.274415 37:0.257555 38:0.434224 39:0.501102 40:0.129391 
-1.020290488989599 0.6108282875099443 0.7897339001486702 0.0441953039912282 1:-0.963991 2:-0.90019 3:0.0203494 4:-0.128202 5:-0.0789797 6:-0.565529 7:-0.0045608 8:-0.753917 9:-0.373004 10:-0.0463483 11:0.340693 12:-0.553479 13:-0.843755 14:0.0523868 15:-0.113242 16:0.127418 17:0.44381 18:-0.164119 19:0.439455 20:-0.242947 21:-0.71337 22:-0.459129 23:-0.284454 24:0.0584281 25:0.518551 26:-0.336104 27:-0.714586 28:-0.249182 29:-0.453414 30:-0.555829 31:-0.442359 32:0.95735 33:0.0721586 34:0.162497 35:0.433446 36:0.123477 37:-0.309574 38:0.432472 39:0.673381 40:0.69129 
-1.441686969909131 0.0408012057330363 2.228678879917628 0.438455814177606 1:-0.367248 2:0.0888961 3:-0.2596 4:0.0502663 5:-0.810491 6:-0.60347 7:-0.522552 8:0.0993988 9:-0.39441 10:-0.136034 11:-0.489225 12:-0.491846 13:-0.792128 14:-0.531314 15:-0.687801 16:-0.578097 17:0.324038 18:-0.318668 19:-0.0983392 20:-0.580368 21:-0.823462 22:-0.672214 23:-0.185961 24:0.29782 25:0.686947 26:-0.485333 27:-0.380175 28:0.0319205 29:-0.693851 30:-0.773789 31:-0.700005 32:0.0452116 33:-0.0592199 34:-0.451315 35:0.675822 36:0.4875 37:-0.488725 38:0.758245 39:0.629912 40:0.0842701 
-0 0 0 1.74700520094306 1:0.330832 2:0.633207 3:0.350441 4:0.254935 5:-0.869219 6:-0.697793 7:-0.199167 8:0.47778 9:0.796746 10:0.888617 11:-0.392039 12:0.407624 13:0.605105 14:-0.492502 15:-0.357401 16:-0.409214 17:0.464521 18:-0.469193 19:-0.140015 20:-0.794024 21:-0.899095 22:-0.737002 23:0.0348896 24:0.464395 25:0.247701 26:-0.749569 27:-0.0547853 28:-0.711406 29:-0.856278 30:-0.860417 31:-0.841844 32:-0.290465 33:0.381876 34:0.0133059 35:-0.379119 36:0.000892446 37:0.494359 38:-0.531366 39:-0.0925212 40:0.216361 
-0 0 0 1.910834500995544 1:0.805499 2:0.0465035 3:0.285021 4:0.111775 5:-0.622354 6:-0.624878 7:-0.277304 8:-0.607782 9:0.276364 10:0.380788 11:0.0280313 12:-0.584816 13:-0.402169 14:-0.323051 15:-0.367524 16:-0.367681 17:0.35447 18:-0.273866 19:-0.0796401 20:-0.552901 21:-0.729288 22:-0.694772 23:-0.059557 24:-0.00516819 25:0.0320819 26:-0.515253 27:-0.691427 28:-0.842324 29:-0.676895 30:-0.756152 31:-0.651915 32:0.633337 33:-0.254877 34:0.0260624 35:-0.394099 36:-0.360694 37:-0.0160258 38:-0.597374 39:0.38126 40:-0.286341 
-6.018691952791653 1.510266993394635 3.686621161840755 2.083929890947144 1:0.202245 2:0.233533 3:-0.33031 4:-0.0832026 5:-0.832753 6:-0.878849 7:-0.852634 8:0.421394 9:0.617969 10:0.0769566 11:-0.59828 12:-0.163594 13:-0.745823 14:-0.804938 15:-0.866589 16:-0.844588 17:0.449489 18:-0.416292 19:-0.23859 20:-0.852571 21:-0.801765 22:-0.797463 23:0.672963 24:-0.466489 25:0.304967 26:-0.0652468 27:-0.39802 28:-0.41793 29:-0.838722 30:-0.784718 31:-0.824173 32:0.582307 33:-0.991747 34:0.686579 35:0.68259 36:-1 37:0.812953 38:-0.785432 39:-0.0710334 40:-0.584433 
-0.7060835390488465 3.330848697716698 0.5718986621364766 1.789044904312676 1:-0.199429 2:0.262945 3:-0.659549 4:-0.0666243 5:-0.791082 6:-0.721521 7:-0.59396 8:0.68928 9:-0.177768 10:-0.638127 11:0.163796 12:-0.686792 13:0.1943 14:-0.70144 15:-0.61857 16:-0.641702 17:0.547732 18:-0.376685 19:-0.107687 20:-0.865408 21:-0.858289 22:-0.888458 23:-0.436688 24:1 25:0.0108064 26:-0.164424 27:1 28:-0.781587 29:-0.908458 30:-0.880676 31:-0.87519 32:-0.871587 33:-0.320498 34:-0.109249 35:0.547492 36:-0.729068 37:0.290262 38:0.951368 39:0.144268 40:0.167519 
-4.300793745665866 -3.103169220280747 2.299453582362887 0 1:-0.987735 2:0.148753 3:-0.208861 4:-0.068034 5:-0.672463 6:-0.961818 7:-0.778006 8:-0.00571424 9:0.25758 10:-0.415787 11:-0.226949 12:-0.850287 13:-0.0155049 14:-0.706488 15:-0.791808 16:-0.719286 17:0.434555 18:-0.378658 19:0.0264405 20:-0.951374 21:-0.74602 22:-0.662754 23:-0.059805 24:0.308346 25:0.501459 26:-0.751229 27:-0.0378109 28:-0.29417 29:-0.80856 30:-0.825098 31:-0.79376 32:-0.146283 33:-0.829413 34:0.323035 35:0.0293135 36:-0.612051 37:0.505144 38:0.0441387 39:-0.955683 40:0.0274515 
-0 -0.2211793860642471 0 0 1:0.224203 2:0.387691 3:-0.0808847 4:-0.309214 5:-0.657296 6:-0.615089 7:-0.526615 8:0.351715 9:0.117383 10:-0.97834 11:-0.325078 12:-0.111883 13:0.941142 14:-0.667896 15:-0.430621 16:-0.500188 17:0.457587 18:-0.375983 19:-0.18318 20:-0.930072 21:-0.803856 22:-0.528132 23:-0.0280987 24:0.537164 25:-0.618431 26:-0.816244 27:0.184962 28:0.290508 29:-0.861133 30:-0.825982 31:-0.794381 32:-0.126717 33:-0.5233 34:-0.599344 35:-0.538481 36:-0.0210554 37:-0.532507 38:0.61612 39:0.0169241 40:0.887903 
-0.8260134153757649 -0.8871254486339378 0 3.131388531747278 1:0.235257 2:0.0822905 3:-0.0333683 4:-0.0399795 5:-0.570864 6:-0.685804 7:-0.707177 8:0.0228325 9:0.688916 10:0.108715 11:-0.495452 12:0.397182 13:-0.36414 14:-0.576532 15:-0.590995 16:-0.550313 17:0.468928 18:-0.386531 19:-0.0764063 20:-0.906242 21:-0.8264 22:-0.571502 23:0.338532 24:0.386577 25:-0.344981 26:-0.499936 27:-0.142179 28:-0.0418783 29:-0.866443 30:-0.83198 31:-0.814622 32:-0.633841 33:-0.473812 34:0.404469 35:-0.351045 36:-0.0727593 37:0.315557 38:-0.414367 39:-0.615661 40:-0.139722 
-0 -2.322385264655953 0 2.590512512775215 1:-0.71809 2:0.0264399 3:-0.382562 4:-0.0721121 5:-0.876416 6:-0.904349 7:-0.914211 8:-0.265579 9:-0.807365 10:-0.277174 11:-0.478205 12:0.534412 13:-0.628768 14:-0.896341 15:-0.928996 16:-0.900695 17:0.439993 18:-0.413929 19:0.0153637 20:-0.966684 21:-0.905588 22:-0.884665 23:0.460405 24:0.19219 25:0.561543 26:-0.209724 27:-0.142806 28:-0.397936 29:-0.941734 30:-0.922045 31:-0.934201 32:-0.621595 33:-0.62414 34:-0.762105 35:-0.766868 36:-0.67896 37:-0.139034 38:-0.0983318 39:-0.283719 40:-0.92985 
-0.489945897993819 -0 0.8757503655398877 0.6793581410883875 1:0.0118313 2:0.153779 3:-0.378898 4:-0.385249 5:0.164361 6:-0.841765 7:-0.14611 8:0.269482 9:-0.375536 10:0.399038 11:-0.502565 12:-0.57705 13:-0.274364 14:0.307659 15:-0.276261 16:0.179918 17:0.0409733 18:0.386684 19:-0.397775 20:-0.585613 21:-0.674971 22:0.170018 23:0.277107 24:-0.263411 25:-0.330276 26:-0.845929 27:-0.757198 28:-0.342052 29:-0.415353 30:-0.528893 31:-0.386635 32:-0.00678619 33:-0.45331 34:-0.061607 35:-0.538879 36:-0.136494 37:-0.182281 38:0.2426 39:-0.376929 40:-0.950798 
-0 -0 0.6460255903328396 0.015509124241203 1:0.0928478 2:0.476137 3:-0.118368 4:-0.455307 5:1 6:-0.273113 7:-0.261403 8:0.814555 9:0.770214 10:0.175437 11:0.580371 12:0.354989 13:-0.805669 14:0.740143 15:0.662238 16:0.931193 17:-0.335492 18:0.590281 19:-1 20:-0.64324 21:-0.391643 22:0.0964717 23:0.112357 24:-0.480587 25:0.0178888 26:-0.843077 27:-0.510858 28:-0.449641 29:-0.0633577 30:-0.452065 31:-0.209038 32:0.114828 33:-0.43245 34:-0.472697 35:0.210382 36:-0.498895 37:-0.607544 38:0.0590415 39:-0.37894 40:-0.464216 
-0.410143078239905 -0 0 1.552128111402034 1:-0.973879 2:-1 3:-0.361298 4:-0.581049 5:-0.197006 6:-0.595889 7:-0.454441 8:-0.584405 9:-0.244942 10:-0.134163 11:-0.135605 12:-0.947833 13:-0.697136 14:-0.108651 15:-0.439839 16:-0.0941748 17:-0.0233785 18:0.178753 19:-0.0136207 20:-0.495078 21:-0.549275 22:-0.116243 23:0.240885 24:-0.18093 25:-0.534616 26:-0.802501 27:-0.766531 28:0.108788 29:-0.380365 30:-0.53044 31:-0.406613 32:-0.402936 33:0.208394 34:0.528474 35:-0.306399 36:-0.223098 37:-0.293322 38:-0.567394 39:-0.107952 40:-0.585569 
-0 -0 0 0.1693236444386013 1:0.13254 2:0.274324 3:-0.565229 4:-0.0101633 5:0.927995 6:0.00715185 7:-0.181484 8:0.628325 9:0.830513 10:0.440989 11:0.253978 12:0.544563 13:-0.495631 14:0.641928 15:0.716341 16:0.947944 17:0.521698 18:0.0242063 19:-0.160339 20:-0.517313 21:-0.54501 22:0.877364 23:0.122956 24:0.214811 25:-0.831632 26:-0.754506 27:-0.59359 28:0.629219 29:-0.449445 30:-0.0481379 31:-0.217233 32:-0.836468 33:-0.187275 34:-0.764189 35:-0.860629 36:-0.32132 37:-0.984887 38:0.313063 39:-0.0661627 40:-0.676608 
-1.883708697115931 -0.9079415934585907 1.369636035344502 1.241708122703893 1:0.0882927 2:0.0606036 3:-0.135286 4:-0.68413 5:-0.0391648 6:-0.467613 7:-0.033652 8:0.292558 9:0.170022 10:-0.78541 11:-0.194451 12:-0.842186 13:0.50047 14:0.0214002 15:0.0715236 16:0.15268 17:0.587895 18:-0.396685 19:-0.291005 20:-0.682599 21:-0.641235 22:0.26658 23:0.112599 24:0.107379 25:-0.506145 26:-0.888444 27:-0.844484 28:-0.166402 29:-0.54203 30:-0.466417 31:-0.469392 32:-0.0854115 33:-0.159253 34:0.0576996 35:0.210604 36:-0.631311 37:-0.792587 38:-0.128789 39:0.420975 40:-0.0459789 
-0 -0 0 0.251728033179732 1:0.197209 2:0.496501 3:0.509035 4:-0.401252 5:0.342821 6:0.0561523 7:-0.415765 8:0.689032 9:0.926474 10:-0.245097 11:0.339153 12:0.745693 13:-0.445674 14:0.230788 15:0.340111 16:0.477849 17:0.440919 18:-0.370861 19:-0.155715 20:-0.553843 21:-0.636994 22:0.0335853 23:0.277087 24:0.165685 25:-0.54101 26:-0.668997 27:-0.831356 28:0.0560816 29:-0.614859 30:-0.427863 31:-0.49155 32:-0.0392144 33:-0.0351759 34:0.100277 35:0.108718 36:-0.148888 37:-0.1024 38:0.185406 39:0.065011 40:-0.813815 
-0 -0.1168013783102961 0 0 1:0.233343 2:0.457267 3:0.569316 4:-0.369524 5:0.374242 6:0.404349 7:0.063995 8:0.774965 9:0.980928 10:-0.338994 11:0.522348 12:0.898488 13:-0.308974 14:0.105705 15:1 16:0.757187 17:0.353088 18:-0.254973 19:-0.448919 20:-0.597296 21:-0.68017 22:0.227797 23:-0.0609815 24:-0.182426 25:-0.584924 26:-0.752488 27:-0.932677 28:0.021676 29:-0.602132 30:-0.317035 31:-0.46167 32:-0.180399 33:0.529618 34:0.105167 35:-0.398618 36:0.393112 37:-0.17745 38:0.118118 39:-0.402909 40:-0.311725 
-0.1427109807363519 -0.4584618168510048 0 0.7412903548921902 1:0.133205 2:0.613574 3:-0.207921 4:-1 5:0.183325 6:-0.30564 7:0.651017 8:0.191525 9:0.270223 10:-0.561758 11:-0.0357271 12:-0.563884 13:0.134572 14:0.393542 15:0.632287 16:0.662114 17:-0.649809 18:0.360784 19:-0.283844 20:-0.388385 21:-0.369139 22:0.159155 23:0.0166595 24:-0.189772 25:-0.425376 26:-0.882481 27:-0.755197 28:-0.254743 29:-0.212411 30:-0.351367 31:-0.176897 32:-0.139882 33:-0.160705 34:-0.104172 35:-0.39338 36:0.330241 37:0.132947 38:-0.0502747 39:0.0740619 40:-0.29882 
-2.976018100079267 -1.748367753242427 1.69029383204735 0.8967535585271592 1:-0.919863 2:-0.601437 3:-0.689446 4:-0.289359 5:-0.213513 6:-0.61192 7:-0.436137 8:-0.850209 9:-0.218692 10:0.692244 11:0.602369 12:-0.910196 13:0.13661 14:-0.350679 15:-0.137195 16:-0.147415 17:0.149522 18:-0.0828699 19:0.0465266 20:-0.631315 21:-0.731229 22:-0.20273 23:0.166632 24:-0.290955 25:-0.10797 26:-0.888152 27:-0.731121 28:-0.567322 29:-0.645659 30:-0.684659 31:-0.581971 32:-0.257148 33:0.647373 34:0.470758 35:-0.36037 36:0.485091 37:-0.0498491 38:0.205548 39:-0.370257 40:-0.548433 
-0.6031805562242198 -0.5135126733029123 0.9082993289399075 0.7008337361231589 1:0.0715191 2:0.618072 3:0.0729647 4:-0.263945 5:0.865779 6:-0.377495 7:0.100929 8:0.438473 9:0.128783 10:0.548994 11:0.160934 12:-0.713619 13:-0.104344 14:0.525583 15:0.277867 16:0.885562 17:-0.878262 18:1 19:-0.541149 20:-0.264258 21:0.0818538 22:0.489393 23:0.372815 24:-0.347452 25:-0.117872 26:-0.59221 27:-0.741887 28:-0.492226 29:0.553072 30:-0.141711 31:0.238646 32:0.0840356 33:0.10185 34:0.250355 35:-0.0893158 36:0.226814 37:0.084655 38:-0.0981262 39:-0.324875 40:-0.762398 
-3.335954684060661 -0 8 4.34673342424581 1:-0.0251863 2:0.192578 3:-0.179313 4:-0.0552285 5:-0.714476 6:-0.914335 7:-0.884379 8:0.541896 9:-0.299008 10:-0.0359232 11:0.0610993 12:-0.425366 13:-0.880222 14:-0.75081 15:-0.835719 16:-0.77606 17:0.479461 18:-0.376923 19:-0.085877 20:-0.880731 21:-0.900361 22:-0.739528 23:-0.0269251 24:-0.0603222 25:-0.607078 26:-0.713477 27:-0.696653 28:0.170314 29:-0.919544 30:-0.881563 31:-0.879789 32:0.242385 33:-0.298308 34:0.0109689 35:0.465051 36:-0.330514 37:0.118528 38:0.241429 39:0.429755 40:0.328251 
-0.004175855398365455 -1.478999765281384 1.05272665852746 0 1:-0.0222366 2:0.557029 3:-0.190436 4:-0.0257404 5:-0.0845665 6:-0.925563 7:-0.84879 8:0.733873 9:-0.236412 10:0.197534 11:0.495642 12:-0.549736 13:-0.781916 14:-0.318457 15:-0.389571 16:-0.210369 17:0.469735 18:-0.393303 19:-0.0228477 20:-0.947863 21:-0.88828 22:-0.841509 23:0.0448605 24:0.117238 25:0.141717 26:-0.802334 27:-0.268954 28:-0.564904 29:-0.922306 30:-0.932368 31:-0.913639 32:0.546868 33:-0.193528 34:-0.498343 35:-0.259085 36:-0.189398 37:0.848765 38:0.378266 39:-0.256856 40:-0.39114 
-5.985590802062581 -0.1287042134922346 4.315724021382226 4.529965805094929 1:0.390997 2:0.057076 3:0.0169102 4:0.0079283 5:-0.761637 6:-0.626158 7:-0.87685 8:-0.374296 9:0.562831 10:-0.0372169 11:-0.336987 12:0.108104 13:-0.989428 14:-0.756062 15:-0.778597 16:-0.689672 17:0.492306 18:-0.421018 19:-0.0173129 20:-0.896967 21:-0.865272 22:-0.665349 23:0.315857 24:0.0945724 25:-0.425352 26:-0.813107 27:-0.68206 28:-0.116713 29:-0.884335 30:-0.887294 31:-0.852857 32:0.236628 33:-0.735512 34:-0.536595 35:0.0868072 36:-0.243993 37:-0.698151 38:0.528113 39:-0.0800045 40:-0.033852 
-0 -0 0.6779321979158678 0.1000019044733441 1:0.176815 2:0.0389849 3:0.0327346 4:0.0435297 5:-0.0442492 6:-0.348124 7:-0.395531 8:0.751167 9:0.9583 10:0.451978 11:0.526822 12:0.845855 13:-0.490597 14:-0.179948 15:0.0282393 16:0.0348598 17:-0.137249 18:0.0171146 19:-0.522794 20:-0.685524 21:-0.755454 22:-0.115111 23:0.283803 24:-0.468605 25:-0.488641 26:-0.779275 27:-0.521716 28:0.125711 29:-0.63115 30:-0.498128 31:-0.540231 32:-0.0145495 33:-0.234835 34:0.317608 35:-0.0578272 36:-0.462849 37:0.195738 38:-0.156186 39:-0.669302 40:-0.68124 
-0.4710360885059449 -0.5703598969009439 0 2.142395639356493 1:0.219618 2:0.388599 3:0.494568 4:-0.502627 5:0.542182 6:0.190453 7:-0.206748 8:0.150672 9:0.867851 10:-0.321942 11:-0.114776 12:0.642475 13:-0.576273 14:0.397999 15:0.659337 16:0.719368 17:0.107635 18:-0.180099 19:-0.323675 20:-0.5839 21:-0.752662 22:0.43913 23:0.461186 24:-0.111384 25:-0.379719 26:-0.482167 27:-1 28:-0.395645 29:-0.51893 30:-0.494697 31:-0.418196 32:-0.57358 33:-0.447966 34:-0.444232 35:-0.354175 36:-0.328566 37:-0.485767 38:0.189845 39:0.415793 40:-0.197373 
-1.187667243182848 -0.129840859099096 1.55855630967645 0 1:0.0387122 2:0.469708 3:-0.289664 4:0.289855 5:0.194413 6:-0.792702 7:-0.532188 8:0.821339 9:0.18129 10:0.45977 11:0.556662 12:-0.441164 13:-0.456484 14:0.0716758 15:-0.0308761 16:0.103456 17:0.460361 18:-0.583515 19:-0.125004 20:-0.837077 21:-0.623857 22:-0.621421 23:-0.0737263 24:0.395768 25:0.0186798 26:-0.869126 27:-0.513206 28:-0.313958 29:-0.600738 30:-0.764348 31:-0.684307 32:0.412457 33:-0.307213 34:0.0168606 35:0.433226 36:-0.323642 37:0.200752 38:0.288058 39:-0.403755 40:-0.569752 
-1.244393780615853 -0.1266200906789735 0 0 1:-1 2:-0.583637 3:-0.227864 4:-0.160605 5:-0.279691 6:-0.873837 7:-0.725424 8:-0.687078 9:0.0780937 10:-0.265557 11:0.219386 12:-0.55994 13:-0.634964 14:-0.356021 15:-0.489899 16:-0.336589 17:0.516028 18:-0.441561 19:-0.263298 20:-0.903497 21:-0.808184 22:-0.467042 23:-0.0775379 24:-0.127302 25:-0.425655 26:-0.769858 27:-0.772793 28:-0.0446892 29:-0.815468 30:-0.779638 31:-0.773224 32:-0.235726 33:-0.218142 34:0.854695 35:0.372263 36:-0.768254 37:0.360412 38:0.10056 39:-0.557113 40:0.705013 
-2.957388316571622 -2.558073238030373 1.322292755378172 2.310544566961837 1:-0.966809 2:-0.365589 3:-0.19747 4:-0.0276349 5:-0.447935 6:-0.906795 7:-0.937425 8:-0.957892 9:-0.244093 10:-0.175587 11:0.883662 12:-0.508563 13:-0.57224 14:-0.639298 15:-0.588833 16:-0.533852 17:0.47957 18:-0.417237 19:0.0434124 20:-0.95374 21:-0.916572 22:-0.843941 23:-0.236227 24:-0.129513 25:0.21459 26:-0.6838 27:-0.753677 28:-0.804447 29:-0.932019 30:-0.937809 31:-0.928763 32:0.360879 33:-0.457902 34:-0.525086 35:0.172761 36:-0.456241 37:-0.220138 38:-0.249111 39:-0.155501 40:-0.515902 
-0.6789943113918359 -0.9264556576887401 0 0 1:0.032744 2:0.232139 3:-0.301973 4:0.0327112 5:-0.508243 6:-0.855536 7:-0.808814 8:0.566123 9:-0.602656 10:0.627751 11:0.208234 12:0.0606226 13:0.156585 14:-0.626301 15:-0.700322 16:-0.574667 17:0.475406 18:-0.404009 19:-0.0466275 20:-0.924893 21:-0.93009 22:-0.765471 23:0.0670559 24:0.244154 25:-0.246704 26:-0.69769 27:-0.419851 28:-0.242085 29:-0.939891 30:-0.918993 31:-0.912616 32:-0.195216 33:-0.0936374 34:-0.734832 35:0.169474 36:0.0849482 37:-0.39162 38:-0.124644 39:-0.233561 40:0.343333 
-0 -0 1.133981688266742 1.031165696180068 1:0.159043 2:0.401988 3:0.039462 4:-0.132533 5:-0.580723 6:-0.752653 7:-0.883798 8:0.787994 9:0.940318 10:-0.135878 11:0.534314 12:0.725965 13:-0.831369 14:-0.707076 15:-0.601534 16:-0.612535 17:0.435599 18:-0.362123 19:-0.115304 20:-0.948891 21:-0.86394 22:-0.75799 23:0.693039 24:0.424847 25:-0.326881 26:-0.0589129 27:-0.435254 28:-0.111466 29:-0.897402 30:-0.902893 31:-0.88187 32:0.13649 33:-0.188018 34:0.0252361 35:0.158689 36:0.0166903 37:0.0757919 38:-0.323012 39:-0.671624 40:0.0106213 
-2.842093973162383 -1.20711402569263 2.561924993600083 8 1:-0.0321602 2:0.427397 3:-0.187105 4:-0.0547907 5:-0.823229 6:-0.794446 7:-0.75969 8:0.71921 9:-0.184195 10:0.197168 11:0.24874 12:-0.168775 13:-0.76585 14:-0.773728 15:-0.859101 16:-0.764561 17:0.376338 18:-0.374641 19:-0.154791 20:-0.878548 21:-0.955583 22:-0.762641 23:-0.373343 24:-0.142519 25:-0.533445 26:-0.580906 27:-0.32993 28:-0.338482 29:-0.931149 30:-0.881277 31:-0.899018 32:-0.727572 33:-0.1211 34:-0.752914 35:-0.0273855 36:0.0707122 37:-0.326914 38:0.141213 39:-0.0624327 40:0.48714 
-0.403574972342742 -0 0 4.634862532663671 1:0.0909003 2:0.468255 3:-0.10688 4:-0.118548 5:-0.354859 6:-0.799017 7:-0.75931 8:0.655612 9:0.761208 10:0.543058 11:0.342967 12:0.235544 13:0.00282192 14:-0.460393 15:-0.474035 16:-0.417976 17:0.430972 18:-0.363303 19:-0.156066 20:-0.921205 21:-0.891498 22:-0.573856 23:0.247671 24:0.501484 25:-0.559023 26:-0.807364 27:-0.486441 28:-0.275992 29:-0.880975 30:-0.840561 31:-0.843673 32:-0.37923 33:-0.419553 34:-0.750914 35:-0.448815 36:-0.14307 37:-0.565919 38:0.666445 39:0.267509 40:-0.280707 
-0 -0.9571264912652967 0 0 1:0.886088 2:-0.393854 3:-0.00125518 4:0.298844 5:-0.230801 6:-0.602217 7:-0.405949 8:-0.662814 9:0.492708 10:0.795346 11:0.23826 12:-0.0422305 13:0.434145 14:-0.331893 15:-0.0705175 16:-0.160263 17:0.470654 18:-0.404323 19:-0.0929183 20:-0.937951 21:-0.872124 22:-0.369546 23:-0.329731 24:0.174209 25:-0.459492 26:-0.520585 27:-0.797168 28:-0.00332244 29:-0.798392 30:-0.771757 31:-0.783426 32:-0.0777215 33:0.341192 34:0.729189 35:-0.118552 36:-0.412503 37:-0.814738 38:0.0847371 39:-0.396617 40:-0.933018 
-0 -0 0 1.318481341199667 1:0.0757171 2:0.167327 3:-0.317665 4:-0.106912 5:0.00581045 6:-0.639659 7:-0.425366 8:0.895768 9:0.180355 10:-0.204588 11:0.742798 12:-0.180912 13:0.0266531 14:-0.127246 15:-0.0287221 16:-0.0141353 17:0.381555 18:-0.390469 19:-0.294114 20:-0.89398 21:-0.861438 22:-0.576227 23:0.158449 24:0.0767394 25:-0.679411 26:-0.663671 27:-0.741356 28:0.399532 29:-0.859591 30:-0.777298 31:-0.818438 32:0.325617 33:-0.214565 34:0.197912 35:0.395761 36:0.0256712 37:0.557155 38:-0.383792 39:-0.0630529 40:-0.693069 
-1.331740829042327 -2.192970113562039 0 0 1:0.87644 2:-0.0768436 3:-0.139422 4:-0.0692398 5:-0.696552 6:-0.762692 7:-0.909356 8:-0.764556 9:-0.241766 10:-0.215467 11:0.366411 12:-0.0370863 13:-0.659837 14:-0.779673 15:-0.725265 16:-0.715785 17:0.454575 18:-0.430381 19:-0.0611687 20:-0.959347 21:-0.961186 22:-0.77171 23:-0.365575 24:-0.227613 25:-0.291577 26:-0.53383 27:-0.508164 28:-0.146125 29:-0.942117 30:-0.94652 31:-0.933692 32:-0.0808438 33:-0.0782709 34:0.770478 35:0.109205 36:-0.133937 37:-0.875701 38:-0.119352 39:0.337939 40:0.366829 
-0.6758772721519446 -0 0.1121779570787487 0.50278052158838 1:0.26327 2:0.347548 3:0.129343 4:-0.0454565 5:-0.832789 6:-0.79909 7:-0.827962 8:0.580044 9:0.914197 10:-0.734119 11:0.0674001 12:0.740027 13:0.368484 14:-0.853602 15:-0.713208 16:-0.79054 17:0.470547 18:-0.392043 19:-0.0753754 20:-0.940828 21:-0.950708 22:-0.683489 23:-0.253415 24:-0.340567 25:-0.511221 26:-0.754782 27:-0.580189 28:0.138946 29:-0.918392 30:-0.882126 31:-0.901057 32:-0.145685 33:-0.401086 34:-0.758003 35:-0.681775 36:-0.253611 37:-0.908016 38:0.303554 39:0.0351601 40:0.877067 
-2.979632826466963 -4.383635894217383 3.495374149101679 3.945058644952659 1:0.021074 2:0.317647 3:-0.154113 4:-0.0513563 5:-0.735012 6:-0.978681 7:-0.995835 8:0.603165 9:-0.106644 10:-0.224519 11:0.311005 12:-0.356906 13:-0.639927 14:-0.823608 15:-0.863565 16:-0.818923 17:0.43942 18:-0.428568 19:-0.106189 20:-0.990821 21:-0.989774 22:-0.966672 23:0.550082 24:0.570574 25:0.467693 26:-0.214653 27:-0.0596174 28:-0.562535 29:-0.988203 30:-1 31:-1 32:-0.228244 33:0.0865689 34:-0.135451 35:-0.134008 36:-0.816143 37:-0.074283 38:0.258554 39:-0.153229 40:-0.289768 
-0 -0 0 0.4600003097991978 1:0.0834547 2:0.503844 3:-0.0538678 4:-0.00550931 5:-0.367323 6:-0.826406 7:-0.925069 8:0.704531 9:0.709632 10:0.122531 11:0.46756 12:0.287365 13:-0.853643 14:-0.573889 15:-0.550258 16:-0.456976 17:0.460357 18:-0.421325 19:-0.0444303 20:-0.96337 21:-0.975829 22:-0.777776 23:-0.144183 24:0.573164 25:-0.331292 26:-0.80477 27:0.0407937 28:-0.0973752 29:-0.943341 30:-0.9287 31:-0.94061 32:-0.448317 33:0.0704197 34:-0.756857 35:-0.535115 36:-0.186275 37:-0.889045 38:-0.168359 39:0.314745 40:0.109715 
-0 -0 1.34298888314031 0.8876032875297943 1:-0.983175 2:-0.144736 3:-0.25947 4:-0.0197765 5:-0.61256 6:-0.95794 7:-0.961189 8:-0.978577 9:-0.324931 10:0.319065 11:0.952706 12:-0.543693 13:-0.720172 14:-0.799586 15:-0.766526 16:-0.700164 17:0.463486 18:-0.418252 19:-0.0788341 20:-0.981526 21:-0.99832 22:-0.722043 23:-0.211127 24:-0.237718 25:-0.37248 26:-0.569387 27:-0.703725 28:0.227409 29:-0.94355 30:-0.92026 31:-0.92958 32:0.456608 33:0.0631327 34:0.911436 35:0.262912 36:-0.208261 37:0.00446088 38:-0.389439 39:-0.123639 40:-0.0633011 
-0 -0.5293791433152981 2.123592132898491 0 1:0.0671343 2:0.472333 3:-0.124617 4:-0.0747099 5:-0.52263 6:-0.901942 7:-0.867758 8:0.894211 9:0.650942 10:-0.852515 11:0.778024 12:0.282851 13:0.63786 14:-0.714667 15:-0.579972 16:-0.598417 17:0.472857 18:-0.409832 19:-0.0594372 20:-0.972302 21:-0.98633 22:-0.810259 23:-0.316155 24:0.131121 25:-0.662059 26:-0.242366 27:-0.550323 28:0.401616 29:-0.967142 30:-0.927433 31:-0.954669 32:0.0691948 33:-0.0881898 34:0.297396 35:0.121857 36:-0.123587 37:0.416332 38:0.25273 39:0.11506 40:-0.047204 
-0.7275863061882754 -2.139740329103065 3.191709154166041 0.7171849189520406 1:0.757011 2:-0.0742546 3:-0.150956 4:0.0767477 5:-0.824728 6:-0.716702 7:-0.91714 8:-0.396982 9:0.0875953 10:0.406904 11:-0.184783 12:-0.141908 13:-0.6986 14:-0.818251 15:-0.826098 16:-0.778484 17:0.497975 18:-0.330946 19:-0.194844 20:-0.916031 21:-0.939899 22:-0.734748 23:-0.137691 24:0.575507 25:-0.365078 26:-0.609144 27:-0.0795258 28:-0.193386 29:-0.89093 30:-0.873966 31:-0.89663 32:0.931675 33:0.0544767 34:0.602415 35:-0.141577 36:-0.761146 37:-0.758736 38:0.168752 39:0.899115 40:0.709452 
-1.032643303788973 -5.172327654486603 0.9684952846602017 1.802221834820643 1:0.93843 2:-0.0207501 3:-0.198322 4:-0.0265818 5:-0.817507 6:-0.936392 7:-0.952985 8:-0.860888 9:-0.268378 10:-0.521934 11:0.614085 12:-0.177709 13:-0.0409995 14:-0.902116 15:-0.887828 16:-0.877025 17:0.47274 18:-0.395345 19:-0.0624446 20:-0.958311 21:-0.953389 22:-0.906556 23:-0.0706292 24:0.406057 25:0.277742 26:-0.855951 27:-0.178951 28:-0.371754 29:-0.974928 30:-0.967214 31:-0.9643 32:0.442186 33:-0.132341 34:0.566871 35:-0.259869 36:-0.746335 37:-0.591143 38:-0.647346 39:0.405231 40:-0.361323 
-0 -0 0 0.875115269224681 1:0.992158 2:-0.25658 3:-0.306003 4:0.049509 5:-0.631005 6:-0.937805 7:-0.985956 8:-0.717264 9:0.222637 10:-0.228988 11:0.405004 12:-0.580267 13:-0.647008 14:-0.697969 15:-0.792093 16:-0.706554 17:0.458281 18:-0.413139 19:-0.204317 20:-0.972174 21:-0.951029 22:-0.523938 23:0.0661261 24:0.58787 25:-0.478123 26:-0.98972 27:0.0332849 28:-0.270956 29:-0.806311 30:-0.851452 31:-0.852159 32:0.460958 33:0.294678 34:0.614402 35:-0.148643 36:0.503833 37:-0.408418 38:-0.274389 39:-0.674404 40:0.126363 
-0.7636980955028785 -0 1.093552726992599 0 1:0.0855702 2:0.360283 3:-0.15129 4:-0.0561032 5:-0.648501 6:-0.890153 7:-0.949057 8:0.706821 9:0.208116 10:-0.417744 11:0.468561 12:-0.0216477 13:-0.247644 14:-0.778606 15:-0.728168 16:-0.721677 17:0.434324 18:-0.417783 19:-0.11727 20:-0.982317 21:-0.997759 22:-0.839495 23:0.29298 24:0.108568 25:-0.325079 26:-0.399727 27:-0.50551 28:-0.0577453 29:-0.958802 30:-0.959371 31:-0.965345 32:-0.237513 33:0.0299859 34:-0.930193 35:-0.265766 36:-0.0622152 37:-0.9879 38:0.508234 39:0.203907 40:0.878534 
-6.623580849721585 -5.494465147777579 6.194333391535785 8 1:-0.90701 2:-0.0400705 3:-0.335962 4:0.103555 5:-0.823619 6:-0.976153 7:-0.753369 8:-0.129697 9:-0.121513 10:0.191348 11:-1 12:-0.88672 13:-0.994117 14:-0.721752 15:-0.914984 16:-0.811181 17:0.461749 18:-0.34323 19:0.112203 20:-0.920741 21:-0.936933 22:-0.779449 23:-0.227281 24:-0.149811 25:-0.371863 26:-0.56757 27:-0.892693 28:-0.319682 29:-0.90276 30:-0.910828 31:-0.90758 32:0.383716 33:-0.39991 34:0.0805399 35:0.339786 36:-0.507203 37:0.42317 38:-0.582384 39:0.393304 40:-0.107694 
-0 -0 0 0.6755029627234648 1:0.112329 2:0.399064 3:-0.112283 4:-0.0481443 5:-0.482813 6:-0.802043 7:-0.749222 8:0.768909 9:0.925405 10:-0.119714 11:0.458407 12:0.710561 13:-0.539696 14:-0.527741 15:-0.5037 16:-0.524653 17:0.445779 18:-0.345354 19:-0.124211 20:-0.914937 21:-0.934003 22:-0.499905 23:-0.264595 24:0.447418 25:-0.605847 26:-0.656566 27:-0.468361 28:-0.160962 29:-0.847845 30:-0.810077 31:-0.834463 32:-0.679681 33:-0.204492 34:-0.634318 35:-0.791607 36:-0.0230073 37:-0.753749 38:0.455561 39:0.0682586 40:0.304158 
-5.352440208660516 -0 0 0 1:-0.980486 2:-0.0411981 3:-0.362848 4:-0.22132 5:-0.773196 6:-0.922855 7:-0.862454 8:-0.3583 9:-0.478684 10:-0.106831 11:-0.570645 12:-0.469681 13:-0.868406 14:-0.751513 15:-0.871817 16:-0.804957 17:0.403083 18:-0.347947 19:0.0666083 20:-0.931513 21:-0.816875 22:-0.813554 23:0.135443 24:0.549488 25:0.261323 26:-0.521877 27:-0.494659 28:-0.525902 29:-0.848078 30:-0.844851 31:-0.857065 32:-0.215802 33:-0.833048 34:-0.036012 35:-0.33965 36:-0.4318 37:-0.212307 38:0.0375605 39:-0.722883 40:-0.274255 
-0 -0 3.450105541352269 3.955176158563328 1:0.0034591 2:0.115233 3:-0.233533 4:-0.0487392 5:-0.651354 6:-0.951843 7:-0.805236 8:0.346146 9:0.102157 10:0.0156985 11:-0.0533044 12:-0.70095 13:-0.837846 14:-0.669278 15:-0.807695 16:-0.709763 17:0.44034 18:-0.419593 19:-0.0651017 20:-0.960572 21:-0.979055 22:-0.712438 23:-0.279947 24:-0.00711471 25:-0.818701 26:-0.418728 27:-0.474179 28:0.455481 29:-0.914335 30:-0.887895 31:-0.920581 32:0.508475 33:-0.0703796 34:0.559733 35:0.0283319 36:0.0785762 37:-0.442086 38:-0.428119 39:-0.309881 40:-0.510417 
-0 -0.7284995453358156 0 0 1:0.85512 2:-0.169597 3:-0.0547295 4:0.0847142 5:-0.561486 6:-0.658967 7:-0.851289 8:-0.996622 9:0.371756 10:0.378626 11:0.993435 12:0.00915657 13:-0.740335 14:-0.769026 15:-0.560497 16:-0.559712 17:0.433046 18:-0.407866 19:-0.0955697 20:-0.918865 21:-0.941207 22:-0.681683 23:-0.457214 24:-0.254951 25:-0.591646 26:-0.169676 27:-0.649017 28:0.318573 29:-0.925976 30:-0.847932 31:-0.892242 32:0.880442 33:0.166259 34:0.855257 35:-0.528242 36:0.156818 37:-0.987709 38:-0.237273 39:-0.407566 40:0.234432 
-0 -0.2580720903718895 0 0 1:0.947829 2:-0.544533 3:-0.106506 4:0.109469 5:-0.145548 6:-0.738482 7:-0.561177 8:-0.99757 9:0.161256 10:0.737677 11:0.985468 12:-0.307573 13:0.249252 14:-0.487301 15:-0.127219 16:-0.170584 17:0.446828 18:-0.436211 19:-0.104925 20:-0.90034 21:-0.920628 22:-0.502367 23:0.17589 24:-0.760178 25:-0.949384 26:-0.676712 27:0.261822 28:0.928324 29:-0.896108 30:-0.791503 31:-0.830495 32:0.523738 33:-0.0836333 34:0.968345 35:-0.725892 36:0.661911 37:-0.90693 38:-0.677011 39:-0.00866891 40:-0.975227 
-1.360588471266259 -2.156231642929779 2.065366955338196 2.977521291851676 1:-0.692005 2:-0.00922268 3:-0.340491 4:-0.0331703 5:-0.868089 6:-0.801101 7:-0.895819 8:-0.115642 9:-0.730536 10:0.0106325 11:-0.665076 12:0.398022 13:-0.973972 14:-0.850686 15:-0.858289 16:-0.846348 17:0.499245 18:-0.405738 19:0.0917664 20:-0.928859 21:-0.891829 22:-0.868701 23:0.205879 24:0.6141 25:0.151214 26:-0.8606 27:0.38897 28:-0.735053 29:-0.933772 30:-0.920499 31:-0.909867 32:-0.272745 33:-0.429024 34:-0.214742 35:-0.297384 36:0.281083 37:-0.244266 38:-0.632063 39:-0.332316 40:-0.286675 
-0.9876477138367081 -0 0.07241616459932544 0 1:0.862966 2:-0.158368 3:0.168991 4:0.101481 5:-0.514325 6:-0.703745 7:-0.368949 8:-0.291047 9:0.0620867 10:-0.638265 11:-0.456421 12:-0.605166 13:0.156045 14:-0.447982 15:-0.399348 16:-0.375185 17:0.327278 18:-0.350311 19:-0.0229645 20:-0.851977 21:-0.795647 22:-0.349378 23:0.0349634 24:0.369779 25:-0.410984 26:-0.965629 27:-0.499844 28:0.0515861 29:-0.815173 30:-0.748031 31:-0.73179 32:0.571681 33:-0.518337 34:0.700318 35:0.0672559 36:-0.512688 37:-0.491086 38:0.420791 39:0.0215987 40:0.756209 
-0 -0.3064581414566884 0 0 1:0.0992918 2:0.921006 3:0.180173 4:-0.25971 5:-0.175667 6:-0.666506 7:-0.180346 8:0.955145 9:0.525347 10:-0.471395 11:0.903163 12:0.126451 13:0.148283 14:-0.459422 15:0.0780255 16:-0.0406273 17:0.542757 18:-0.294417 19:0.0338336 20:-0.868413 21:-0.907079 22:-0.581527 23:0.00973023 24:0.111231 25:-0.364906 26:-0.574133 27:-0.461506 28:-0.164537 29:-0.875486 30:-0.866084 31:-0.833676 32:-0.0948895 33:-0.186964 34:-0.841575 35:0.161097 36:-0.178395 37:-0.930975 38:0.13859 39:-0.0742126 40:0.971197 
-0.8275670791112271 -0 0 0.04587591100238312 1:0.812882 2:-0.00934764 3:-0.0746465 4:-0.167146 5:-0.778523 6:-0.832935 7:-0.652019 8:-0.391302 9:0.457192 10:-0.791896 11:-0.294162 12:0.0232943 13:0.47684 14:-0.801004 15:-0.650583 16:-0.706403 17:0.430154 18:-0.388182 19:-0.117844 20:-0.935648 21:-0.813388 22:-0.720705 23:0.140578 24:0.532091 25:-0.3952 26:-0.467014 27:0.128414 28:0.128426 29:-0.86867 30:-0.870261 31:-0.843873 32:-0.544841 33:-0.400907 34:0.492881 35:0.660573 36:-0.468123 37:-0.785998 38:-0.79879 39:-0.115049 40:0.743207 
-0.2444819743833531 -1.504194632185651 0.3535591209981452 0.6329507841308366 1:0.53794 2:-0.501161 3:-0.0610077 4:-0.0933894 5:-0.642595 6:-0.225542 7:-0.582099 8:-0.166129 9:0.872646 10:0.374658 11:-0.434455 12:0.626879 13:-0.736833 14:-0.474356 15:-0.491054 16:-0.314482 17:0.3591 18:-0.12948 19:0.468082 20:-0.874023 21:-0.774083 22:-0.270263 23:-0.796302 24:-0.301735 25:-0.0272551 26:0.534957 27:-0.577007 28:-0.528716 29:-0.657607 30:-0.68288 31:-0.66405 32:0.214994 33:-0.481913 34:0.449663 35:-1 36:-0.699872 37:-0.659579 38:-0.325105 39:-0.871786 40:0.0773986 
-0.8274108714420626 -0 0 0.5820957816695665 1:0.95492 2:-0.381415 3:0.00805217 4:0.119595 5:-0.22791 6:-0.809668 7:-0.857168 8:-0.561106 9:-0.204804 10:-0.0131022 11:-0.0595564 12:-0.361312 13:-0.697039 14:-0.232559 15:-0.468286 16:-0.315258 17:0.316052 18:-0.312603 19:-0.0290817 20:-0.8573 21:-0.603339 22:-0.574862 23:-0.161894 24:0.786402 25:0.254875 26:-0.928118 27:0.684493 28:-0.491891 29:-0.749253 30:-0.600574 31:-0.67156 32:0.526007 33:-0.375626 34:0.52123 35:-0.00757879 36:-0.627293 37:-0.34771 38:-0.756029 39:-0.058938 40:-0.955386 
-0.09630425732950422 -0 0 0 1:0.00177017 2:0.724108 3:-0.329717 4:0.0737782 5:0.650969 6:-0.922994 7:-0.595465 8:0.512638 9:-0.248248 10:0.301753 11:0.214581 12:-0.817445 13:-0.524645 14:0.375718 15:0.061541 16:0.485412 17:0.70697 18:-0.390942 19:-0.286158 20:-0.893646 21:-0.871969 22:-0.242462 23:-0.312921 24:-0.0293401 25:-0.45195 26:-0.703659 27:-0.969904 28:-0.383597 29:-0.751985 30:-0.744173 31:-0.7253 32:0.0444441 33:-0.176258 34:-0.152953 35:-0.203595 36:-0.315172 37:0.416397 38:0.239601 39:-0.483986 40:-0.179836 
-0.1152055806339971 -0 0.8340097756879147 0 1:0.716786 2:-0.421061 3:0.0469031 4:-0.194646 5:-0.329055 6:-0.262047 7:-0.480959 8:-0.167915 9:0.561472 10:-0.571343 11:-0.810345 12:0.228573 13:0.17325 14:-0.173619 15:-0.180347 16:-0.137472 17:0.377156 18:-0.277727 19:-0.185608 20:-0.907134 21:-0.661112 22:-0.228745 23:-0.211176 24:0.155306 25:-0.434386 26:-0.704501 27:-0.635496 28:-0.00994228 29:-0.672521 30:-0.744372 31:-0.643947 32:0.556747 33:-0.510504 34:0.514631 35:0.315335 36:-0.100928 37:-0.68733 38:-0.159432 39:-0.142685 40:0.634846 
-2.777965148114153 -2.493690342832504 -3.236599142315019 0.1024516744983252 1:-0.952705 2:0.114954 3:-0.254112 4:0.0265916 5:-0.53701 6:-0.873902 7:-0.783958 8:0.0229904 9:0.411692 10:0.0647619 11:-0.0693794 12:-0.122583 13:-0.867697 14:-0.624784 15:-0.741983 16:-0.597133 17:0.411993 18:-0.388738 19:-0.183991 20:-0.87474 21:-0.895941 22:-0.549702 23:0.245799 24:-0.234731 25:0.344714 26:-0.773173 27:-0.434117 28:-0.302743 29:-0.837618 30:-0.860139 31:-0.827296 32:0.477128 33:-0.0423614 34:0.353178 35:0.15172 36:-0.638518 37:-0.233194 38:-0.308389 39:-0.0867637 40:-0.132536 
-0 -0 -1.062509958845183 0 1:0.0287253 2:0.329476 3:-0.133835 4:-0.108624 5:-0.672171 6:-0.922737 7:-0.857111 8:0.891605 9:0.276169 10:-0.00978836 11:0.737202 12:-0.470984 13:-0.491932 14:-0.783917 15:-0.751949 16:-0.731084 17:0.432354 18:-0.38078 19:-0.211587 20:-0.900463 21:-0.941724 22:-0.801266 23:-0.0428681 24:0.351804 25:-0.173991 26:-0.81267 27:-0.56201 28:-0.800126 29:-0.926999 30:-0.891125 31:-0.909211 32:0.501421 33:-0.142589 34:0.445171 35:0.397 36:-0.44134 37:0.0700598 38:0.0716614 39:-0.166317 40:-0.00186454 
-0 -0 -0.2817857243078779 0 1:0.02926 2:0.345085 3:-0.105236 4:-0.0483844 5:-0.637943 6:-0.829682 7:-0.905864 8:0.951397 9:0.625736 10:0.125338 11:0.885135 12:0.14466 13:-0.747833 14:-0.788661 15:-0.770536 16:-0.691859 17:0.461058 18:-0.400464 19:-0.04628 20:-0.939137 21:-0.918205 22:-0.485462 23:0.222942 24:0.427103 25:0.918493 26:-0.704364 27:-0.0956024 28:0.770002 29:-0.876656 30:-0.792874 31:-0.832729 32:0.71798 33:-0.0109302 34:0.954459 35:0.493152 36:-0.380425 37:0.210926 38:0.547452 39:-0.709416 40:-0.0546598 
-3.37424827165801 -0 -7.401153314024707 6.087581825583802 1:0.188299 2:-0.000759243 3:-0.0791538 4:-0.18154 5:-0.85208 6:-0.911294 7:-0.898091 8:0.536518 9:0.510474 10:0.00128675 11:0.0465533 12:0.0360785 13:-1 14:-0.848048 15:-0.876203 16:-0.873754 17:0.491031 18:-0.389918 19:-0.146366 20:-0.90899 21:-0.920615 22:-0.829381 23:0.144676 24:0.0542192 25:-0.451613 26:-0.961244 27:-0.689802 28:-0.56102 29:-0.929242 30:-0.915699 31:-0.914456 32:0.355407 33:-0.37873 34:-0.127085 35:0.206997 36:-0.482028 37:-0.351041 38:0.298156 39:0.270685 40:-0.0351818 
-0 -0.4911322553297091 -2.41434998901686 0.6206758907490076 1:-0.832632 2:-0.0195148 3:-0.457062 4:-0.132728 5:-0.432863 6:-0.66086 7:-0.72077 8:0.0850972 9:-0.31508 10:-0.340427 11:-0.0784015 12:-0.086261 13:-0.458894 14:-0.51336 15:-0.621841 16:-0.440639 17:0.500863 18:-0.443296 19:-0.157209 20:-0.918606 21:-0.826796 22:-0.311308 23:0.362676 24:0.10751 25:0.630858 26:-0.555322 27:-0.532646 28:0.204806 29:-0.792811 30:-0.743069 31:-0.746397 32:0.64068 33:-0.000828314 34:0.632611 35:0.0801087 36:-0.2258 37:-0.120231 38:-0.365638 39:-0.530901 40:-0.535512 
-0.6311067629309561 -0.631841257480076 -0 0.2738303400966638 1:0.00696489 2:0.2791 3:-0.244421 4:-0.0650414 5:-0.729044 6:-0.913583 7:-0.889143 8:0.748813 9:0.513704 10:-0.461601 11:0.41843 12:-0.103681 13:-0.377814 14:-0.794128 15:-0.820127 16:-0.78703 17:0.496814 18:-0.422351 19:-0.182373 20:-0.87292 21:-0.833824 22:-0.832955 23:0.177831 24:-0.014845 25:-0.310574 26:-0.640127 27:-0.554139 28:-0.657137 29:-0.859807 30:-0.864253 31:-0.856252 32:-0.293379 33:-0.00573786 34:0.474134 35:-0.925935 36:0.24139 37:-0.0540706 38:0.00441996 39:0.433173 40:-0.602485 
-0 -0 -1.23450170336992 0 1:0.180925 2:0.443034 3:0.0654562 4:-0.464547 5:0.0430907 6:-0.212315 7:-0.776291 8:0.546711 9:0.56 10:-0.198169 11:0.00246176 12:0.0964136 13:-0.777841 14:0.0766318 15:-0.0845545 16:0.0885491 17:-0.345677 18:0.340945 19:0.510447 20:-0.366951 21:0.0829555 22:-0.0893748 23:0.249578 24:-0.032492 25:-0.00904497 26:-0.810011 27:-0.865017 28:-0.663989 29:0.190133 30:-0.162121 31:0.0180731 32:0.56898 33:-0.47102 34:0.458269 35:0.366718 36:-0.328511 37:0.566361 38:0.67109 39:-0.60767 40:-0.272047 
-1.131679399612245 -0.5879120614935353 -0 0.5102747852475705 1:0.0820874 2:0.331104 3:0.280522 4:-0.445618 5:0.00970064 6:-0.602997 7:-0.26897 8:0.770685 9:0.189498 10:-0.275574 11:0.387544 12:-0.771783 13:-0.800141 14:-0.0551022 15:-0.0762485 16:0.062721 17:-0.597386 18:0.201111 19:-0.398931 20:-0.336161 21:-0.190419 22:-0.60386 23:0.309929 24:-0.0277565 25:0.171067 26:-0.546946 27:-0.767993 28:-0.811446 29:-0.101967 30:-0.343905 31:-0.17763 32:0.759321 33:-0.350687 34:0.408271 35:0.559219 36:-0.140131 37:0.0515879 38:-0.794908 39:0.934634 40:-0.0553346 
-0 -0 -1.137414871747844 0.4474153183631022 1:0.150583 2:0.177062 3:-0.382904 4:-0.289068 5:0.476466 6:-0.147286 7:-0.838186 8:0.425184 9:0.486927 10:0.113056 11:-0.439949 12:-0.281867 13:-0.642761 14:0.56552 15:0.064207 16:0.439798 17:0.293028 18:-0.0300432 19:-0.235487 20:-0.781477 21:-0.335263 22:0.105832 23:0.619713 24:-0.612224 25:0.0271677 26:-0.184037 27:0.18248 28:-0.379602 29:-0.352854 30:-0.459428 31:-0.358424 32:0.622565 33:-0.85857 34:0.623049 35:0.59809 36:-0.82334 37:0.706407 38:-0.364321 39:0.0464015 40:-0.883578 
-0 -0 -0.3886008680448574 0 1:0.0908485 2:-0.0114062 3:-0.300359 4:-0.26718 5:-0.255976 6:-0.662483 7:-0.838042 8:0.386817 9:-0.220984 10:-0.395303 11:-0.216159 12:-0.339933 13:-0.337007 14:-0.219206 15:-0.476094 16:-0.317704 17:0.339665 18:-0.440858 19:-0.10527 20:-0.789545 21:-0.470221 22:-0.170142 23:0.378219 24:-0.13029 25:0.021765 26:-0.652569 27:-0.363568 28:-0.342764 29:-0.53956 30:-0.411977 31:-0.511344 32:0.360154 33:-0.777052 34:0.865362 35:-0.0468613 36:-0.600672 37:0.7238 38:-0.391693 39:0.518117 40:-0.696046 
-0.562894789194658 -0.2132233274554737 -0.07582070358881526 0 1:0.239756 2:0.732472 3:0.100386 4:-0.39307 5:-0.184365 6:-0.469678 7:-0.44894 8:0.436996 9:0.807188 10:0.580869 11:-0.581778 12:0.398829 13:-0.219924 14:-0.0380307 15:-0.269376 16:-0.097721 17:0.287355 18:-0.089166 19:-0.0969566 20:-0.106165 21:0.717055 22:-0.274667 23:0.414659 24:-0.408928 25:0.59968 26:-0.700416 27:-0.542594 28:0.0217576 29:0.842939 30:0.240918 31:0.421869 32:0.931236 33:-0.842642 34:0.55585 35:0.717022 36:-0.446793 37:0.805516 38:0.923877 39:-0.519784 40:0.930856 
-6.412527330779179 -1.675503833465704 -1.708730710139154 0.3721994678090886 1:-0.83832 2:0.20599 3:-0.224026 4:-0.416328 5:0.0174216 6:-0.414737 7:-0.819668 8:-0.017254 9:-0.276438 10:0.180161 11:-0.561401 12:-0.446941 13:-0.801477 14:0.128189 15:-0.381352 16:-0.0134416 17:0.301935 18:-0.199473 19:0.325411 20:-0.74252 21:-0.601181 22:0.289211 23:0.0330384 24:-0.417689 25:0.346792 26:-0.71648 27:-0.207849 28:-0.493682 29:-0.527373 30:-0.457286 31:-0.449134 32:0.181258 33:-0.406381 34:-0.165731 35:0.181574 36:-0.492429 37:-0.193089 38:0.507324 39:-0.38509 40:0.58224 
-1.444474317480882 -0.419015188762961 -0 1.451023635296957 1:0.0912006 2:0.698514 3:0.0323018 4:-0.894641 5:0.0139817 6:-0.448179 7:-0.536382 8:0.0758337 9:0.196378 10:-0.0799489 11:-0.7729 12:-0.988338 13:-0.618971 14:0.300258 15:-0.37722 16:0.0717492 17:0.306449 18:0.0953766 19:-0.257645 20:-0.344268 21:0.213385 22:-0.227163 23:0.591811 24:-0.342252 25:0.126687 26:-0.248153 27:-0.583417 28:-0.782425 29:0.260124 30:-0.0566859 31:0.0400791 32:0.920323 33:-0.690764 34:-0.149255 35:0.680383 36:-0.630842 37:-0.30033 38:-0.437884 39:0.818951 40:0.597354 
-0.1429576147745532 -0 -0 0 1:0.0951314 2:0.664952 3:-0.0161618 4:-0.526654 5:0.119447 6:-0.440754 7:-0.696896 8:0.334839 9:-0.144046 10:-0.275653 11:-0.468111 12:-0.61901 13:-0.795425 14:0.188714 15:-0.214483 16:0.094234 17:0.130312 18:-0.173807 19:-0.0502058 20:-0.548787 21:-0.434346 22:-0.292481 23:0.890613 24:-0.892962 25:-0.065661 26:0.229669 27:0.349591 28:-0.422791 29:-0.434734 30:-0.413806 31:-0.438506 32:0.886937 33:-0.802092 34:0.432871 35:0.64143 36:-0.753723 37:0.41427 38:-0.842685 39:0.812034 40:0.200808 
